749 10
201 -0.20369758 -0.18620825 1.2090977 -0.48857635 0.09897697 -0.109064475 0.7844814 0.820534 0.3821712 -1.0516057
680 0.26967496 -0.70701873 -0.14105329 -0.7941774 0.56367254 0.034811795 1.3598597 0.061381068 -0.89568806 -0.004068979
204 -0.2173412 -0.17289168 1.22653 -0.50791043 0.0074985637 -0.2170015 0.7640381 0.8100502 0.32350236 -1.0903053
750 -0.14580399 -0.3385526 0.63354886 0.39606956 0.35204166 0.09270408 0.5651858 0.019234197 -1.8960621 0.21360043
677 0.3141635 -0.7771933 -0.19202054 -0.70344406 0.550369 0.039521884 1.3628654 0.026035737 -0.9059342 -0.04580193
751 -0.16657609 -0.3602277 0.58257776 0.38782686 0.37178996 0.10432128 0.53915805 0.047590055 -1.9076766 0.22937097
156 -0.49811652 0.043076415 1.1725122 -0.05316094 0.7937089 -0.2833418 0.09323584 1.422181 -0.25088623 -0.32208538
749 -0.12602209 -0.30012104 0.71741134 0.39501956 0.40321565 0.079052225 0.51646644 -0.033894368 -1.9709934 0.22683147
203 -0.1370801 -0.16263382 1.2037674 -0.4867152 0.043502033 -0.22186188 0.77159554 0.84551805 0.3628077 -1.149692
745 -0.09917783 -0.27521765 0.738473 0.39630154 0.27008817 0.04068207 0.49871522 -0.032921374 -1.9309092 0.17259955
228 -0.33261552 -0.45145297 1.3054903 -0.27556422 -0.02345954 -0.9724151 0.69278383 0.3532291 0.03163427 -1.0971979
753 -0.14159119 -0.35021156 0.5801202 0.3511872 0.40329018 0.15517402 0.54554033 0.09516383 -1.8769181 0.2712017
226 -0.30155945 -0.4021694 1.3216304 -0.31674895 -0.06985235 -0.9356043 0.6631462 0.3793581 0.035801828 -1.108229
676 0.30625898 -0.7660748 -0.19162463 -0.7008313 0.5416315 0.040900424 1.3408549 0.015011946 -0.9487646 -0.044669557
748 -0.19319619 -0.3294439 0.7001202 0.3891601 0.32505226 0.08372248 0.5080002 0.00656459 -1.9811904 0.22438183
681 0.2990105 -0.7385567 -0.18140337 -0.78884387 0.60128796 0.035722796 1.3048854 0.09525214 -0.8576468 0.035914514
658 0.06313066 -0.94430745 -0.29600963 -0.31160066 0.35131145 -0.18681839 1.3601619 -0.04260015 -1.1007675 -0.21070716
682 0.26032025 -0.7295719 -0.15389986 -0.83618295 0.5728712 0.06433985 1.3079797 0.06999476 -0.93497264 0.04605256
205 -0.13458474 -0.13098392 1.2271223 -0.48465517 0.008191516 -0.23927878 0.8461397 0.7448389 0.31924602 -1.1281586
202 -0.1961694 -0.14635026 1.1406761 -0.485837 0.06281261 -0.19493195 0.87436837 0.8319058 0.3139755 -1.051547
230 -0.36079112 -0.44716632 1.3047066 -0.26688415 0.003161689 -1.0078741 0.6958129 0.31112987 0.028749092 -1.0965523
747 -0.1014542 -0.2555201 0.7450972 0.41637906 0.29898408 0.037060946 0.46022737 -0.04213228 -1.9428501 0.21187368
657 0.059931234 -0.99605227 -0.28550327 -0.36226407 0.36042356 -0.14711936 1.3152196 -0.121524096 -1.1020118 -0.20155117
229 -0.32654244 -0.45505798 1.3374562 -0.26328883 -0.036653813 -1.0024369 0.6941556 0.3492882 0.014225977 -1.0985816
746 -0.1349288 -0.27459216 0.7450419 0.3925017 0.27264714 0.04271294 0.4739212 -0.067519225 -1.9519717 0.1830381
208 -0.26940894 -0.20438567 1.3330275 -0.5358155 -0.026690478 -0.24619576 0.80522275 0.70112807 0.31146345 -1.1210799
209 -0.1772908 -0.14123634 1.2598763 -0.50561976 -0.0040880227 -0.35129407 0.7402036 0.743172 0.26306206 -1.1302799
591 1.8144296 -0.04049613 0.28480148 0.25812963 0.25658086 0.29962644 0.8616262 0.4807551 -0.74248296 -0.89896333
673 0.25210622 -0.86901504 -0.27234048 -0.67068136 0.4768973 0.0406531 1.3323674 -0.0056866803 -0.97524583 -0.08673315
234 -0.23909613 -0.54985857 1.3304129 -0.026322544 -0.05878157 -1.0931891 0.63475555 0.42291605 -0.021343147 -1.0807407
589 1.8181473 -0.049666025 0.21494451 0.24845351 0.110740826 0.11573131 0.8735586 0.5245189 -0.7718005 -0.91238385
675 0.23668218 -0.81733567 -0.21523483 -0.6354844 0.5480026 -0.040491626 1.3544555 -0.007926106 -0.90851915 -0.10104179
590 1.8044202 -0.019488538 0.26727316 0.28196204 0.21527734 0.20507444 0.9086853 0.5115337 -0.7515733 -0.93585306
774 0.5297335 -0.2504094 0.08487536 0.41049966 0.7820327 1.0503631 0.40866998 0.8322096 -1.3953938 0.11661489
181 -0.24650297 -0.063127 0.9138983 -0.31506202 0.6045416 -0.13843596 0.48324567 1.4718509 0.2765491 -0.8659322
160 -0.5371145 -0.023621598 1.102244 -0.12020993 0.7194766 -0.30781722 0.11695619 1.4819428 -0.193291 -0.39696726
679 0.31894735 -0.77343863 -0.20573457 -0.7811781 0.5766274 0.109334625 1.35226 0.07056997 -0.9330455 -0.0037977048
628 0.7477885 -0.36070195 -0.28361008 0.07071593 0.8806878 0.91172034 0.8533357 0.84649605 -0.97545433 -0.10384103
231 -0.33466673 -0.44997218 1.3301226 -0.25977454 -0.03350788 -0.9792417 0.6952022 0.39929312 0.015645504 -1.0820376
581 1.915112 -0.17323394 0.2642555 0.45664236 0.17784971 -0.02813927 0.9014846 0.46445787 -0.8500865 -0.9280332
762 -0.1283129 -0.52602166 0.31711358 0.3182964 0.5895945 0.23420501 0.7061585 0.19697367 -1.730051 0.2852465
175 -0.41496858 -0.14556743 0.82847893 -0.32063606 0.73376167 -0.27024993 0.39302155 1.4853512 0.1597142 -0.7004222
758 -0.140101 -0.3802531 0.39355075 0.36418378 0.42719358 0.12402422 0.6003565 0.28956768 -1.852028 0.2535815
754 -0.20232567 -0.3454839 0.5114651 0.41982988 0.39507848 0.12706448 0.5646867 0.10606762 -1.8540413 0.19182031
155 -0.51337904 0.024739798 1.211116 0.016466696 0.8208244 -0.28847447 0.038961492 1.4269928 -0.29021856 -0.29496536
756 -0.15109167 -0.37741226 0.4742305 0.3087916 0.3870659 0.14359818 0.64160806 0.1397746 -1.8820429 0.26244316
678 0.34341025 -0.80365324 -0.1994835 -0.7662577 0.601542 0.06286049 1.2585108 0.043372504 -0.9130716 0.037396718
584 1.892251 -0.18526016 0.23944198 0.35120812 0.20663472 0.06442025 0.91437197 0.45350474 -0.81352824 -0.8643228
666 0.27666068 -0.9349015 -0.27932808 -0.51178676 0.42937732 -0.04341226 1.3159122 -0.12340539 -1.014954 -0.18958835
153 -0.4177601 0.048981447 1.24976 0.0040142047 0.7796828 -0.3482376 -0.01838844 1.368534 -0.31026962 -0.26135817
744 -0.19488709 -0.23391509 0.7631427 0.3160863 0.15566899 0.12425293 0.4889279 -0.013109811 -1.9860998 0.17294697
308 0.62541175 0.04891469 0.6290711 -0.7156757 0.63985723 0.13267867 -0.8926307 -0.46464083 -0.9629368 -1.1029093
214 -0.16926834 -0.20297639 1.3367476 -0.49012157 -0.108499214 -0.47395146 0.8231026 0.5513782 0.21526103 -1.1056904
592 1.7990259 -0.013734482 0.2921266 0.2677387 0.27268368 0.25742015 0.9400937 0.5196119 -0.6672221 -0.9130151
763 -0.103841275 -0.49301323 0.26996595 0.3457111 0.5758442 0.1596656 0.7207963 0.22136511 -1.7603503 0.27415475
757 -0.1952901 -0.3567527 0.40259796 0.30060288 0.47390997 0.18972869 0.61188745 0.14898269 -1.8637642 0.22122903
665 0.23647767 -0.9947218 -0.29436836 -0.48414144 0.4589448 -0.05041387 1.3843412 -0.04544959 -0.99836093 -0.13624959
154 -0.45419168 0.039762188 1.2198277 -0.01582565 0.8213631 -0.36639127 0.029623358 1.4436426 -0.31233442 -0.25037727
293 0.6404069 -0.3270062 0.48107618 -0.41933182 0.56359184 -0.54881036 -0.9323894 -0.51339024 -1.2004217 -1.0317265
579 1.8958889 -0.13472766 0.21308158 0.33604565 0.13898274 -0.017854763 0.93581045 0.43958497 -0.8427978 -0.9364948
761 -0.16035822 -0.51051176 0.3543196 0.37536594 0.53431356 0.16359887 0.69837064 0.21417601 -1.749151 0.27890754
585 1.8789926 -0.13117947 0.26363966 0.28329578 0.19949387 0.037919257 0.82504416 0.50311613 -0.8064375 -0.79905605
165 -0.47223473 -0.048438516 0.9492182 -0.26632392 0.7956002 -0.28740343 0.29167864 1.4702089 -0.054168765 -0.40130347
212 -0.22741972 -0.2178467 1.271146 -0.5493742 0.014671229 -0.4884443 0.78383154 0.607723 0.27167383 -1.171582
182 -0.29595762 -0.11349889 0.94086 -0.37997475 0.592396 -0.19805452 0.52853954 1.3870612 0.29916555 -0.8358093
648 0.09214507 -0.822358 -0.25380477 -0.19112 0.46999013 0.0029370484 1.3250793 0.14812529 -1.0957183 -0.10545646
759 -0.21395504 -0.36971885 0.29981455 0.2911381 0.5067818 0.14591792 0.62437606 0.26147097 -1.7796466 0.21733932
223 -0.16157553 -0.31932688 1.3456146 -0.29265234 -0.12803663 -0.8326062 0.6703356 0.42672274 0.07320904 -1.1501179
211 -0.2828837 -0.17908496 1.2833443 -0.52514446 -0.050510474 -0.41887712 0.7971619 0.67025185 0.22441843 -1.139126
232 -0.35364458 -0.42525452 1.3282686 -0.20501518 0.037167724 -1.0645375 0.6455582 0.34384802 -0.011957776 -1.1146076
752 -0.17420837 -0.37880063 0.6212461 0.36413753 0.40263617 0.16667247 0.55786186 0.038179927 -1.8422937 0.26391047
236 -0.21210027 -0.39281958 1.2679166 -0.1040373 -0.003896024 -1.1672906 0.7050218 0.40969533 -0.10967351 -1.0622233
200 -0.25873363 -0.17168836 1.2121177 -0.4993607 0.108070835 -0.15377729 0.91628814 0.934486 0.355891 -1.0147611
151 -0.41642386 0.08933863 1.3128272 -0.0516362 0.7811346 -0.35867703 0.015619793 1.3444737 -0.29468325 -0.27925998
583 1.9497211 -0.25466925 0.16911423 0.35354728 0.13153253 -0.030738577 0.8035662 0.4658165 -0.8406121 -0.8886881
655 0.054805182 -0.986846 -0.27207527 -0.24329308 0.37927717 -0.07054114 1.40626 -0.07848858 -1.0763496 -0.24046172
760 -0.1250548 -0.41684484 0.30171713 0.29750878 0.47189885 0.13245687 0.61284083 0.2116928 -1.7663752 0.23436879
227 -0.28001437 -0.4086122 1.310231 -0.2733796 -0.044660218 -0.9632901 0.7174211 0.41809836 0.04578754 -1.1086403
213 -0.2441323 -0.23655616 1.2772311 -0.5258202 -0.049599566 -0.5009976 0.7641282 0.60198915 0.2326169 -1.1497511
210 -0.24245125 -0.15987128 1.226691 -0.51279867 0.014839811 -0.43054298 0.835978 0.65061206 0.24239348 -1.1573589
215 -0.22864103 -0.24384473 1.2638648 -0.53171515 0.0074544502 -0.5544678 0.82809436 0.49776438 0.21181528 -1.0590149
672 0.2503614 -0.86991996 -0.22485106 -0.62559384 0.48081172 -0.024083812 1.4075217 -0.047924872 -0.95002496 -0.1233864
157 -0.47443023 0.008769842 1.160143 -0.11897089 0.66355455 -0.24718751 0.053439785 1.4308959 -0.2463668 -0.29868364
593 1.8254014 -0.075984806 0.22759934 0.20653583 0.21633922 0.2942364 0.84524184 0.57829595 -0.6914707 -0.90068114
167 -0.40723613 -0.034247123 1.0141433 -0.31170207 0.7495003 -0.29010025 0.31989542 1.4926496 -0.030173035 -0.42055318
233 -0.27336037 -0.42563066 1.2580123 -0.15859161 -0.018389162 -1.111014 0.68224096 0.3682217 -0.030810986 -1.1415536
235 -0.19604635 -0.39747077 1.2510632 -0.14222154 -0.020741895 -1.1372176 0.6737956 0.40797272 -0.06378885 -1.0878016
183 -0.2924327 -0.13773729 0.88270205 -0.34864193 0.6249649 -0.19796786 0.5492287 1.4353307 0.3124482 -0.8558224
224 -0.25713143 -0.3364705 1.3229767 -0.32502627 -0.091345824 -0.903308 0.71192414 0.4511935 0.03728332 -1.1297164
177 -0.32784885 -0.107977346 0.84480995 -0.39095885 0.7166505 -0.20361876 0.46500003 1.499441 0.22271666 -0.67352235
225 -0.19026046 -0.3724254 1.2599595 -0.292308 -0.119425304 -0.93395466 0.75399053 0.49020118 0.035142515 -1.1147052
653 0.04460282 -0.97061753 -0.21637101 -0.23487288 0.40900177 -0.062069725 1.2881047 -0.08155053 -1.0763227 -0.14079267
207 -0.21402855 -0.16394606 1.3020355 -0.46927515 -0.035327353 -0.25071484 0.7894111 0.75735885 0.29085594 -1.1109316
642 0.096038364 -0.6126264 -0.26238635 -0.060982488 0.5515653 0.12393132 1.2366008 0.2983064 -1.2200656 -0.096155785
770 0.45601866 -0.18242897 0.09184852 0.40369788 0.69339985 0.9898033 0.49381703 0.8934671 -1.4305899 0.114873044
222 -0.16254705 -0.32476526 1.2663457 -0.36712623 -0.053606953 -0.8120052 0.73041314 0.40104708 0.11840729 -1.1379217
180 -0.2783424 -0.14363362 0.86975396 -0.27414492 0.6736379 -0.20639868 0.5134071 1.4380208 0.2985891 -0.8896287
162 -0.4590476 -0.02216998 1.0830457 -0.24299179 0.6959818 -0.28626087 0.17535628 1.467537 -0.114455044 -0.37205994
586 1.8886843 -0.18263231 0.22206411 0.35800353 0.13651475 0.07601289 0.8651894 0.49849486 -0.77494526 -0.8943011
159 -0.45917287 -0.033905543 1.0754086 -0.124739274 0.8387975 -0.3346632 0.06402047 1.4448031 -0.14854403 -0.36410895
220 -0.20465517 -0.28478563 1.3147527 -0.37333575 -0.093953565 -0.7485775 0.7385873 0.50191575 0.12393022 -1.1131366
291 0.606096 -0.368383 0.4685894 -0.49337178 0.6107628 -0.61317945 -0.8687822 -0.54791313 -1.1382403 -0.96204114
161 -0.48038504 0.056161586 1.1287364 -0.19133948 0.71501553 -0.29086754 0.14519624 1.4522424 -0.19619386 -0.36833704
764 -0.062331997 -0.5057336 0.2812603 0.30107945 0.53051287 0.24666199 0.67848235 0.255041 -1.7103474 0.29893908
664 0.10012552 -0.9123506 -0.25715846 -0.5107127 0.4716125 0.005687786 1.3603584 -0.103959866 -0.9984091 -0.19434771
775 0.43221766 -0.24701917 0.10988539 0.43536207 0.68738675 1.0537614 0.33683828 0.8778033 -1.3375329 0.102106035
221 -0.2143226 -0.3027042 1.303507 -0.3656012 -0.009172704 -0.8060814 0.7994515 0.48377287 0.1063746 -1.1290622
755 -0.12188205 -0.3962684 0.47516945 0.31496117 0.45919016 0.18613335 0.5297164 0.10692071 -1.8136092 0.2824529
290 0.632165 -0.45443338 0.4484392 -0.44839737 0.5647955 -0.58682936 -0.9469336 -0.5582013 -1.2166659 -1.0100012
622 0.81125796 -0.32551733 -0.28740782 0.10968409 0.90631855 0.93443567 0.8673373 0.9878823 -0.8271776 -0.2055799
771 0.4943443 -0.23146519 0.084969096 0.44835743 0.7133199 1.0382736 0.4164709 0.8618021 -1.4423634 0.088855006
769 0.4470844 -0.26574382 0.0730219 0.3969332 0.6826136 0.93754584 0.480826 0.85458237 -1.3553339 0.12577085
580 1.8694994 -0.17095022 0.25245225 0.3385133 0.1398557 0.066101246 0.9198673 0.41790125 -0.8426206 -0.92863995
670 0.19919258 -0.92724186 -0.21669704 -0.57302487 0.44123423 -0.033087354 1.4167672 -0.044166457 -0.88582605 -0.12117895
178 -0.34564918 -0.15459691 0.89577025 -0.2972974 0.6841032 -0.20928575 0.49362153 1.460304 0.26433325 -0.78033584
168 -0.45665038 -0.052349675 0.9968727 -0.1830306 0.7562509 -0.19791508 0.25457966 1.5398346 0.01925838 -0.5837876
639 0.1735978 -0.58053464 -0.18861462 0.03438145 0.5242343 0.2574041 1.0796328 0.40352625 -1.2346199 0.020149304
152 -0.41593 0.100170046 1.2684928 0.0069180317 0.75216967 -0.3550438 -0.013874327 1.3332849 -0.32392517 -0.2927532
179 -0.32269666 -0.09176459 0.8860251 -0.40402237 0.6539713 -0.2245052 0.45474875 1.4021729 0.23093727 -0.7622325
166 -0.5327062 -0.055141695 1.0052396 -0.22885464 0.78171164 -0.28156707 0.29908788 1.508025 -0.029805666 -0.48824129
289 0.59965056 -0.40356857 0.40062466 -0.4730554 0.60028553 -0.64655316 -0.9504362 -0.47039905 -1.1876259 -1.0511394
640 0.11518088 -0.5474835 -0.17799194 0.0011791637 0.49504885 0.17947945 1.1509668 0.38425043 -1.2488413 0.005927895
594 1.7760742 -0.04512427 0.24918777 0.23100059 0.2425611 0.3586409 0.92142785 0.5879835 -0.6804913 -0.8734273
663 0.1695183 -0.9625295 -0.23890488 -0.45531222 0.46145666 -0.101687595 1.3700978 -0.11756822 -0.99533284 -0.1502513
578 1.8304132 -0.14757198 0.23155819 0.38872355 0.09134328 0.007411916 0.93866634 0.4933617 -0.83999586 -0.9105458
656 0.067927 -0.97914004 -0.22972688 -0.2706886 0.34978935 -0.12616429 1.3113703 -0.11676919 -1.0501698 -0.19978584
776 0.51809675 -0.26515603 0.062105034 0.46097574 0.78529155 0.9321283 0.33411905 0.8073626 -1.3962868 0.10637822
671 0.22012845 -0.9135132 -0.26099005 -0.6404024 0.5053103 -0.019591399 1.3729161 -0.017539924 -0.8665889 -0.119061194
184 -0.2703793 -0.06367993 0.91433483 -0.41177377 0.52722853 -0.1770134 0.5845627 1.3304182 0.2928703 -0.9118182
669 0.16466522 -0.94313234 -0.17751805 -0.5505108 0.423043 -0.039429415 1.3383908 0.017364161 -0.9294811 -0.019875322
292 0.6418067 -0.4229388 0.48064548 -0.52282083 0.58216417 -0.55118376 -0.9708738 -0.5571223 -1.1573561 -1.0042156
643 0.14168021 -0.7112763 -0.22010215 -0.04335308 0.5498992 0.13010135 1.2322572 0.2476612 -1.1567067 -0.054995753
772 0.5093517 -0.2705988 0.13381188 0.46604514 0.7048643 1.0232232 0.3914444 0.87446994 -1.4269499 0.1552458
176 -0.29472622 -0.09200206 0.88038594 -0.4256435 0.7193642 -0.2246201 0.40384 1.5054289 0.19985998 -0.65757334
218 -0.19383216 -0.29695052 1.3157234 -0.42071617 -0.11752115 -0.7200709 0.73272425 0.5532546 0.14665203 -1.148687
654 0.0659055 -1.0187709 -0.2654816 -0.2520712 0.44969937 -0.17493476 1.3487816 -0.12870035 -1.1068171 -0.18570869
621 0.90835804 -0.27482706 -0.25259227 0.06566615 0.88499284 0.9491681 0.81494296 0.94316196 -0.8600968 -0.1728126
171 -0.44217125 -0.09777694 0.99513257 -0.37081808 0.7366611 -0.26025593 0.3299854 1.5082108 0.11133579 -0.58524114
668 0.1831349 -0.92705137 -0.20358276 -0.5862038 0.46458557 -0.05204751 1.3608936 -0.07813895 -0.9505274 -0.10668808
294 0.6549589 -0.3719903 0.5583192 -0.47328717 0.516572 -0.54731894 -0.94554466 -0.57925403 -1.1574576 -1.0383629
674 0.27325255 -0.81282806 -0.22162461 -0.7005639 0.500011 0.047154687 1.3891785 0.010846001 -0.9380283 -0.095814146
582 1.9020357 -0.2337598 0.18437421 0.38416016 0.1560141 -0.01602475 0.9078392 0.5077627 -0.79078704 -0.90335226
237 -0.2820747 -0.390627 1.3510188 -0.11894905 0.0025650014 -1.1652884 0.6825991 0.38651937 -0.12072727 -1.0486943
623 0.85284585 -0.3091609 -0.26200703 0.10482377 0.86230314 0.9950994 0.84075606 0.9444708 -0.8665047 -0.21052955
219 -0.24958524 -0.34244564 1.2918453 -0.41325122 -0.09309301 -0.68939805 0.7511984 0.42739105 0.16986473 -1.1515727
173 -0.38552183 0.0007880941 0.94213265 -0.34794357 0.6865651 -0.18205446 0.37227458 1.5253427 0.0818028 -0.59898955
287 0.6113756 -0.42103747 0.3118333 -0.46627957 0.66963863 -0.5824101 -0.8572291 -0.505346 -1.232356 -0.9990758
164 -0.43632194 -0.030175459 1.0483071 -0.1883787 0.7958858 -0.26174578 0.23504953 1.4829056 -0.044984814 -0.4428728
773 0.5133026 -0.1889032 0.14798449 0.4542518 0.77310604 1.0244849 0.32397074 0.813365 -1.4633294 0.092732176
286 0.59906304 -0.43545645 0.33154953 -0.49090028 0.6398144 -0.6940817 -0.91609704 -0.417825 -1.1680378 -1.0286849
647 0.10105901 -0.8217197 -0.19718012 -0.10507587 0.49654815 0.0961604 1.2099466 0.18012385 -1.0782224 0.0032537058
641 0.109983906 -0.56357706 -0.17003314 0.007204063 0.50711286 0.20392688 1.2438161 0.3032033 -1.2504032 -0.051342167
169 -0.4247678 0.0033202053 0.957277 -0.30079588 0.7572391 -0.21514975 0.30411065 1.4987788 -0.011094199 -0.51441777
660 0.09478238 -0.939262 -0.20493461 -0.3583767 0.4805015 -0.13030714 1.3853866 -0.16987099 -1.0146533 -0.19871461
638 0.13010564 -0.55028033 -0.106807865 0.09749711 0.5682954 0.26454118 1.1312382 0.3826132 -1.2615259 0.052631322
158 -0.45096186 0.069618374 1.1594923 -0.148309 0.77580863 -0.3310327 0.14904554 1.4323366 -0.20403542 -0.37175018
588 1.8577683 -0.080906354 0.26229486 0.25914553 0.18542896 0.1476985 0.85108787 0.49891472 -0.6871291 -0.89237225
662 0.13718423 -0.95442456 -0.2057598 -0.45432022 0.4044532 -0.09158668 1.3737297 -0.15150213 -1.0251436 -0.1713156
738 -0.036767542 -0.17296085 1.3081498 0.020632436 -0.52389103 0.86954445 0.58765113 -0.33955115 -1.5910443 -0.2374784
217 -0.21193159 -0.20837612 1.3129325 -0.43017575 -0.114922516 -0.6274102 0.7394025 0.563937 0.15471448 -1.1752865
16 0.071019545 -1.8016965 0.7730823 0.60307246 -0.39897555 -0.07282529 -0.25412172 1.0692796 -0.3119261 -0.5060801
253 0.42161596 -0.60224104 -0.37269434 -0.46414554 1.2562906 -0.7392594 -0.75061387 0.27211678 -0.8713656 -1.0572021
733 0.064693786 -0.31022555 1.3783789 -0.122010306 -0.66555274 0.9155497 0.5925505 -0.3824604 -1.5340873 -0.1798255
737 -0.028393062 -0.16875891 1.3327698 0.049293704 -0.48946145 0.8183896 0.6125667 -0.33687294 -1.555488 -0.25015137
240 -0.15277451 -0.27516493 1.269099 -0.12616679 -0.046087086 -1.2112005 0.66306347 0.5437059 -0.20004974 -0.9614652
17 0.098554015 -1.8208961 0.77538896 0.55355734 -0.4246184 -0.068516016 -0.19084084 0.95146585 -0.28892317 -0.5017648
172 -0.44366977 -0.053619865 0.93929577 -0.33866605 0.7644604 -0.17589095 0.35805613 1.446668 0.10795152 -0.58577055
765 -0.09783834 -0.45421138 0.21411751 0.287449 0.5541737 0.30064562 0.74715847 0.26602057 -1.7139194 0.22152276
285 0.5456438 -0.43744844 0.3008682 -0.4462695 0.7028414 -0.62394774 -0.8783728 -0.40993255 -1.118607 -0.94614387
716 0.17865932 -0.37106633 1.2795892 -0.14851187 -0.66527116 0.9996022 0.5991394 -0.3487068 -1.3773984 -0.21685015
199 -0.23382546 -0.22837889 1.1436372 -0.53164035 0.17579852 -0.20955424 0.7516487 0.9282038 0.3883881 -0.9953389
257 0.38566777 -0.60088724 -0.34810555 -0.35927522 1.217322 -0.7765953 -0.792539 0.23745129 -0.98234695 -1.0463114
717 0.1274074 -0.32160223 1.3529693 -0.14474069 -0.6323155 1.1041429 0.5503703 -0.35353085 -1.3120714 -0.2668259
766 -0.08645312 -0.47089574 0.18589969 0.25422588 0.5808306 0.27958733 0.71505314 0.30888695 -1.6348307 0.25524175
731 0.05467223 -0.20864816 1.3969197 -0.16392629 -0.6337459 0.9584305 0.5752792 -0.33097216 -1.5053056 -0.25890735
284 0.50104797 -0.44234446 0.23890279 -0.49945852 0.6397929 -0.6990674 -0.8791109 -0.3860952 -1.191905 -0.98581845
265 0.37472615 -0.5497125 -0.24686147 -0.42251524 1.0858933 -0.7921455 -0.7995347 0.14182079 -1.000905 -1.0691457
174 -0.38667628 -0.07410131 0.8631485 -0.2921944 0.7065318 -0.23646805 0.3888788 1.4444374 0.12525424 -0.66054523
646 0.114554 -0.7535085 -0.22830984 -0.09163815 0.4852477 0.06607059 1.2474012 0.17535694 -1.1824826 -0.077020034
718 0.10762946 -0.3639456 1.3511169 -0.17029114 -0.6391431 1.0655245 0.6639354 -0.3558006 -1.3082564 -0.23333693
264 0.41995704 -0.528485 -0.25274152 -0.48169 1.1831797 -0.8156306 -0.7515111 0.16670845 -0.9904696 -0.97695535
170 -0.4336853 -0.054412678 0.9150182 -0.31802636 0.7351315 -0.24792291 0.31166974 1.545099 0.058319833 -0.5503001
163 -0.4964809 0.016275227 1.0460197 -0.18686171 0.7929842 -0.27692962 0.22682048 1.5120162 -0.12737273 -0.42066702
18 0.0428715 -1.9208803 0.66564953 0.4867589 -0.31734312 -0.032540813 -0.30016103 1.017899 -0.29178825 -0.47094655
614 1.6731492 -0.020890055 0.14874746 0.14456981 0.43524244 0.6176633 0.8266693 0.6647827 -0.6465804 -0.78072363
185 -0.28254762 -0.14790982 0.89487475 -0.4350846 0.6065766 -0.24635507 0.59185225 1.3686482 0.3614033 -0.9656911
186 -0.275273 -0.15349396 0.9786154 -0.41097873 0.57839555 -0.20211375 0.5931582 1.3347208 0.35621816 -0.9163203
239 -0.19300494 -0.3438905 1.3552555 -0.07772226 -0.10715427 -1.1717362 0.6379179 0.49496862 -0.1737898 -1.0414238
732 0.033914663 -0.28042775 1.3735689 -0.12152128 -0.6515937 0.9601068 0.61225706 -0.3856522 -1.5489691 -0.22941475
587 1.8994507 -0.097577356 0.2604039 0.24146228 0.12877066 0.09377628 0.89098054 0.5186266 -0.78530693 -0.8538367
238 -0.24075419 -0.33328158 1.2963037 -0.08589093 -0.01973874 -1.0732164 0.64704293 0.3541369 -0.15288955 -0.9981189
637 0.23668936 -0.5253877 -0.111889325 0.057925146 0.5490588 0.25892204 1.0458944 0.3335792 -1.2774012 0.060613155
216 -0.26657426 -0.2932547 1.320623 -0.48291525 -0.0872567 -0.562655 0.75086623 0.505918 0.19928832 -1.1084015
19 0.14469151 -1.8732413 0.70311916 0.536503 -0.3353496 -0.026027972 -0.24385601 0.9865203 -0.28421885 -0.4816753
715 0.1074544 -0.34612557 1.3644291 -0.15341204 -0.6256694 1.0853457 0.64214975 -0.3947501 -1.2876455 -0.26195472
734 -0.03864891 -0.2163929 1.3195221 -0.14100477 -0.5848705 0.93964136 0.5802578 -0.39862424 -1.5994025 -0.26195484
263 0.434387 -0.49029654 -0.22708702 -0.4095818 1.1857017 -0.76555455 -0.8096642 0.19490878 -0.9901601 -1.0407732
730 -0.04506278 -0.25547823 1.3488215 -0.21147522 -0.593577 1.0012828 0.6500582 -0.362697 -1.4971272 -0.23821343
661 0.06878259 -0.93677706 -0.25867966 -0.3861302 0.41125822 -0.070981205 1.351864 -0.13101457 -0.9958836 -0.25014758
37 0.21066445 -1.9344401 0.6103197 -0.09603269 -0.1820513 -0.13824004 -0.10114415 0.92657566 -0.0431435 -0.19705716
254 0.43958446 -0.5305006 -0.3191726 -0.4569193 1.243525 -0.739569 -0.7672278 0.24984147 -0.88903314 -1.0881146
255 0.3987046 -0.57694703 -0.35094878 -0.44520667 1.2082449 -0.7104849 -0.76484334 0.28859347 -0.8815863 -1.0730215
2 0.22174424 -1.599101 1.0469584 0.70067036 -0.4756602 0.18758184 -0.5340719 1.1342512 -0.33317667 -0.681965
150 -0.3952216 0.08466387 1.2390741 0.048922103 0.76156735 -0.33883938 0.026360005 1.3026272 -0.32834414 -0.25537142
38 0.32124168 -1.9673145 0.62677604 -0.11625184 -0.22126035 -0.15656373 -0.06687909 0.86342317 -0.021797791 -0.21532708
6 0.23079202 -1.6424834 0.9385042 0.7631395 -0.4708428 0.11893011 -0.49101672 1.1159092 -0.36610603 -0.7135752
719 0.11087217 -0.3134932 1.3755707 -0.24247937 -0.671513 1.0422586 0.66757756 -0.3903727 -1.4311181 -0.20982175
632 0.5903057 -0.34060404 -0.31480616 0.07469463 0.77252823 0.8853821 0.8142919 0.80826944 -0.99794453 -0.13422495
630 0.7381252 -0.370801 -0.298708 0.05210864 0.9104978 0.9132119 0.8463204 0.833742 -1.041192 -0.067978285
288 0.56971306 -0.4037862 0.355482 -0.4723211 0.6186643 -0.5865789 -0.8964545 -0.4903291 -1.2164567 -1.0085144
251 0.34116238 -0.6337012 -0.36092466 -0.3919894 1.2655673 -0.696959 -0.8216689 0.30135417 -0.88969624 -1.015934
645 0.14011548 -0.6901775 -0.2571687 -0.093528315 0.50517064 0.108689286 1.2123977 0.15735608 -1.1878476 -0.12916778
736 0.006360514 -0.19963464 1.3440765 0.024458583 -0.5113037 0.94414306 0.6084713 -0.34990105 -1.603343 -0.26550683
30 0.18385103 -2.0375729 0.6607504 0.12701277 -0.24666709 -0.12504743 -0.19233564 0.9817476 -0.11497225 -0.34843096
206 -0.18160711 -0.13694684 1.286886 -0.48540157 -0.008535263 -0.23635066 0.8124128 0.78164047 0.29943946 -1.1030258
636 0.17563613 -0.478508 -0.0967157 0.11948041 0.52734625 0.31085974 1.0810567 0.44025168 -1.3033453 0.037754934
266 0.37143564 -0.5607352 -0.22655055 -0.4475156 1.1380419 -0.7648141 -0.8480561 0.09210556 -1.0659919 -1.0613451
768 0.13231455 -0.38528085 0.1024298 0.3237195 0.5903943 0.5933808 0.74118745 0.5010891 -1.5507296 0.16630195
735 -0.04625308 -0.20178588 1.3754475 -0.046417806 -0.5607674 0.89825875 0.6439217 -0.38271734 -1.552771 -0.28366393
644 0.15478918 -0.7391569 -0.27145606 -0.042248767 0.55792356 0.18139261 1.1311669 0.16671847 -1.1805915 -0.092226654
198 -0.24348003 -0.17494702 1.145559 -0.6398053 0.23601738 -0.20517321 0.7353189 0.8983582 0.41318035 -1.0359849
27 0.17314239 -1.9719751 0.5671466 0.27272058 -0.22380029 -0.07122234 -0.17115092 1.0004427 -0.080809146 -0.4359197
3 0.20782825 -1.663599 1.0398331 0.7366605 -0.44792628 0.24305184 -0.54135555 1.064121 -0.3179056 -0.7092823
252 0.3786124 -0.5647481 -0.33250946 -0.37907827 1.2399454 -0.8075673 -0.7743915 0.29350752 -0.89919454 -1.072664
667 0.18435127 -0.9708629 -0.23430127 -0.5022864 0.4539337 -0.09161938 1.3750348 -0.12555099 -0.98193735 -0.14525414
26 0.16988282 -1.9672035 0.5607614 0.3362085 -0.20836635 -0.07073261 -0.13073917 0.97017854 -0.120383725 -0.4200094
32 0.26272961 -1.9578211 0.6159356 0.12928313 -0.20783228 -0.17541482 -0.1700157 0.93079144 -0.083453454 -0.3325873
261 0.3953549 -0.5372274 -0.3154341 -0.4177492 1.1742783 -0.7434779 -0.75202805 0.18388577 -0.9861311 -1.0183812
256 0.3145749 -0.5325884 -0.35702538 -0.42244428 1.2366394 -0.71699023 -0.77372396 0.2961065 -0.92482233 -1.0519884
4 0.16160756 -1.6069127 0.9717981 0.70973337 -0.5130078 0.19425488 -0.5077519 1.137838 -0.35775122 -0.7031428
714 0.051570896 -0.28969765 1.3272245 -0.21214268 -0.5924948 1.022409 0.66271436 -0.3613725 -1.3579645 -0.22685613
295 0.6013863 -0.3989593 0.46541917 -0.5887049 0.5000009 -0.54689974 -0.937911 -0.5266279 -1.1869599 -1.0112052
9 0.17291588 -1.7099752 0.8412758 0.74308085 -0.46777764 0.13446553 -0.38077447 1.0489961 -0.39517576 -0.5898176
15 0.18091683 -1.818532 0.77871484 0.6523155 -0.34249663 0.009146069 -0.34147716 0.9885626 -0.3109623 -0.54648554
302 0.65368974 -0.118536904 0.6596469 -0.6203169 0.5262512 -0.33973035 -0.9016378 -0.5454824 -1.1053567 -1.0452186
193 -0.24177936 -0.15540542 0.97797096 -0.4088212 0.31619805 -0.17626195 0.78033894 1.0857011 0.35693797 -0.9517017
44 0.42265317 -1.974472 0.62367326 -0.26084194 -0.06841037 -0.10696614 -0.11220063 0.95713633 0.12616412 -0.21084659
23 0.13994946 -2.0223508 0.6416132 0.43279815 -0.25886574 -0.083558924 -0.24782294 0.94042283 -0.17842561 -0.49616843
11 0.12676643 -1.7565247 0.8374424 0.6636795 -0.4975543 0.05133179 -0.31696182 1.0916687 -0.37666565 -0.57396173
22 0.18908197 -1.8979965 0.6165533 0.4610008 -0.28627226 -0.04567553 -0.18811172 1.0055817 -0.20739332 -0.46124595
31 0.280491 -1.9713224 0.62730193 0.10177226 -0.25370675 -0.11415702 -0.20226675 0.9142785 -0.064210616 -0.40204278
724 0.11411711 -0.3236582 1.331301 -0.18695317 -0.62249553 1.0777178 0.588575 -0.40865165 -1.3956033 -0.25406718
262 0.34434858 -0.52733165 -0.31607962 -0.40756735 1.2425494 -0.7693615 -0.7346834 0.18389575 -0.98356223 -1.0201535
260 0.35778323 -0.5195483 -0.29399619 -0.37517068 1.2412912 -0.7207376 -0.7337846 0.12639299 -0.99391705 -1.0187974
631 0.6415091 -0.36320773 -0.28360263 0.049707472 0.803089 0.9131741 0.8946367 0.8815148 -1.0207576 -0.07874673
704 0.16719887 -0.11519997 0.42590445 -1.5296061 0.9782053 -0.036487766 1.3625187 -0.25844368 -0.98298717 0.027805232
615 1.6137079 -0.05419645 0.11085062 0.17362215 0.44234163 0.61107874 0.85375595 0.6923264 -0.6605778 -0.75931066
245 -0.06919787 -0.13367593 1.3543996 -0.028576137 -0.1932014 -1.3539888 0.42976758 0.9345519 -0.50097686 -0.73173434
7 0.24040179 -1.6334773 0.93036044 0.64637333 -0.49600288 0.13167436 -0.56280065 1.0216262 -0.36980096 -0.6768285
296 0.6737395 -0.3200687 0.5139111 -0.53772277 0.5592315 -0.51196325 -0.88809824 -0.5571339 -1.1263952 -1.0453805
197 -0.23418058 -0.18394862 1.1489315 -0.52549696 0.22543103 -0.14223014 0.7932573 0.9930897 0.41244164 -1.0567237
33 0.26443517 -1.9403136 0.58029944 0.07600534 -0.20573728 -0.18950595 -0.20410198 1.0211911 -0.08625663 -0.32980368
5 0.10452731 -1.6339998 0.9761279 0.7289144 -0.49372372 0.20820624 -0.5688703 1.0625216 -0.38160747 -0.74255055
651 -0.13162804 -0.8914409 -0.15364118 -0.19456968 0.4236799 -0.06282174 1.2978287 -0.03488983 -1.2397192 -0.07519157
192 -0.20940243 -0.12293054 1.003549 -0.47061175 0.31006116 -0.14857325 0.6753589 1.1453259 0.3652281 -1.0140265
270 0.43787223 -0.5289872 -0.18139303 -0.37673703 1.0680021 -0.8446964 -0.75449085 0.02972304 -1.0607166 -1.064671
595 1.807678 -0.07577594 0.21904911 0.22309932 0.30903226 0.3746259 0.8603661 0.55590105 -0.6697989 -0.9046357
20 0.12083373 -1.9741607 0.6958906 0.4938509 -0.35336658 -0.10037079 -0.22583461 0.8987438 -0.26991603 -0.4868726
659 0.0049454733 -0.9515176 -0.21380222 -0.34450436 0.42315724 -0.17763957 1.3790941 -0.09292797 -1.0902646 -0.16532907
739 -0.09408217 -0.16534518 1.2907426 0.027747272 -0.48526573 0.82240945 0.5805176 -0.28106347 -1.5770444 -0.21176127
767 -0.08387899 -0.44080725 0.1304131 0.23513001 0.5616961 0.31065795 0.83294946 0.35757062 -1.6235691 0.21123114
43 0.30964306 -1.9944788 0.6835831 -0.33101594 -0.120738015 -0.08201279 -0.14244826 0.938789 0.06894997 -0.13719605
267 0.4066945 -0.5055651 -0.21329752 -0.37717953 1.122446 -0.7820625 -0.7908252 0.11711364 -1.0195991 -1.0009043
36 0.25378156 -1.9766111 0.520726 -0.018018503 -0.15917449 -0.1335681 -0.08849579 0.9138207 -0.01153503 -0.29570475
710 0.17905994 -0.09111995 0.5579358 -1.4856342 1.0483108 -0.08648839 1.3119621 -0.42430058 -1.0226936 0.009959617
271 0.41885468 -0.5436085 -0.13648258 -0.3628416 1.0722294 -0.71232706 -0.9016823 0.064507365 -1.1457175 -0.99094236
650 -0.11465577 -0.8746258 -0.20218779 -0.072954044 0.456885 -0.057993915 1.2453662 -0.03544917 -1.268026 -0.1169418
712 0.0706062 -0.12646519 0.5326297 -1.3838652 1.0508453 -0.0028750037 1.3649857 -0.40758854 -1.0017015 0.016434925
303 0.68330044 -0.1501936 0.6354244 -0.6274419 0.5489163 -0.22932166 -0.91954404 -0.54838395 -1.0526539 -1.0872047
34 0.23541671 -1.9981947 0.5647555 0.00024984058 -0.18360464 -0.08071401 -0.09431888 0.85746706 -0.05582262 -0.23955587
54 0.59291524 -1.700364 0.80538607 -0.5583812 -0.20753507 -0.0971759 -0.14023782 0.87583077 0.018234747 0.01364328
10 0.08461398 -1.6889514 0.88124186 0.7277995 -0.4507314 0.15254626 -0.38224104 1.0309666 -0.34572685 -0.59947056
268 0.37451422 -0.5081437 -0.19018349 -0.3643241 1.0639511 -0.91699415 -0.7615788 0.08752448 -1.0969359 -1.0432677
41 0.32411525 -1.9516494 0.59450316 -0.2576361 -0.14098698 -0.14867276 -0.10032147 0.96029323 0.06405618 -0.20576344
187 -0.3167468 -0.13527083 0.85484403 -0.49309972 0.50090575 -0.22690137 0.66924745 1.3343928 0.32640094 -0.9346517
727 0.061867833 -0.34004268 1.292334 -0.19242862 -0.6620067 1.0453968 0.6577972 -0.3832995 -1.4342808 -0.23949264
627 0.7607356 -0.35471267 -0.29725686 0.08912151 0.86636734 0.9019447 0.88639253 0.9408785 -0.9559972 -0.11637789
633 0.6506731 -0.43314114 -0.2967284 0.06505671 0.8108873 0.8205908 0.83028835 0.8157763 -1.1045357 0.004945316
297 0.67483693 -0.25072142 0.5648703 -0.55088335 0.56671786 -0.46202388 -0.90117973 -0.56495446 -1.1320776 -1.059292
723 -0.02047838 -0.3537336 1.2911221 -0.16892542 -0.6791733 1.0986334 0.6428107 -0.41285822 -1.4019798 -0.33707607
28 0.18241039 -1.9657942 0.60518634 0.23830853 -0.28650245 -0.1051141 -0.16494575 1.0597019 -0.12966707 -0.37634456
729 -0.0017953939 -0.29743576 1.3419797 -0.18698107 -0.61724174 0.9746309 0.6205359 -0.4326303 -1.4891688 -0.24216707
649 -0.07503204 -0.87777185 -0.15775125 -0.101570375 0.34795007 -0.029502735 1.2650595 -0.027794879 -1.251584 -0.12637997
274 0.3754046 -0.5381322 -0.048994217 -0.41275626 0.96885496 -0.76226056 -0.9198672 0.015740104 -1.0413144 -1.0079117
635 0.50109994 -0.41479096 -0.24565805 0.08734367 0.7867505 0.74735194 0.8415532 0.7055333 -1.1962787 0.030965896
40 0.2649327 -2.022233 0.6225779 -0.15478833 -0.10965256 -0.0900714 -0.14850995 0.9000902 0.0062128925 -0.15921435
55 0.58987546 -1.7363119 0.7861338 -0.5646581 -0.1716017 -0.06996316 -0.22170606 0.8559311 0.06665473 -0.047462467
42 0.3623193 -1.9706998 0.5911411 -0.16606426 -0.09646974 -0.16330795 -0.119814634 0.85738075 0.01925409 -0.2074333
720 0.06319715 -0.26687968 1.448382 -0.18362951 -0.5982648 1.0911264 0.6752036 -0.3283686 -1.3507048 -0.1715232
45 0.37664816 -1.9400324 0.59320325 -0.35685518 -0.1474606 -0.11398218 -0.17348014 0.9444641 0.0011482945 -0.12604243
29 0.316815 -2.0195444 0.4905788 0.20871802 -0.15175098 -0.09777096 -0.14516675 0.98343736 -0.070569865 -0.3820143
244 -0.07174621 -0.179286 1.3180052 0.014259216 -0.11008353 -1.3285347 0.44773382 0.9474107 -0.4737188 -0.67434627
25 0.17460464 -1.8984201 0.6471593 0.32333332 -0.2690378 -0.041305788 -0.14638285 0.9115547 -0.13252819 -0.44377515
625 0.7493804 -0.27185735 -0.28341305 0.033182286 0.896809 1.0196103 0.8315738 0.86944544 -0.94951856 -0.19038606
258 0.42472807 -0.54230887 -0.28800052 -0.39427862 1.2623384 -0.73684406 -0.79033095 0.23949635 -0.91076714 -1.0596616
725 0.13775085 -0.35745648 1.319238 -0.20586242 -0.6889073 1.0428126 0.60418695 -0.33791932 -1.4158776 -0.18262726
634 0.5850815 -0.3813593 -0.27753773 0.07968563 0.8398322 0.823342 0.8574287 0.8211731 -1.0708861 -0.023221653
683 0.23489754 -0.6911501 -0.0050303875 -1.1343946 0.5895287 -0.06757827 1.3253559 -0.093409516 -0.9586856 0.09148843
613 1.6600744 -0.048517898 0.1760209 0.21784763 0.48809108 0.7142909 0.7868682 0.63898873 -0.57713646 -0.78888476
21 0.17801443 -1.9184005 0.72432566 0.46688235 -0.31574646 -0.04499058 -0.26166236 0.9435075 -0.19575457 -0.519001
194 -0.24189588 -0.11259148 1.0763919 -0.48721913 0.28158343 -0.10920036 0.7626273 1.0864784 0.35991752 -1.0009995
39 0.2726498 -1.9725409 0.5951978 -0.1644558 -0.20230456 -0.059329323 -0.093413636 0.8645929 -0.018420465 -0.19780256
703 0.09561566 -0.14683649 0.48135307 -1.4643847 0.96832377 -0.019993922 1.3273283 -0.3214036 -0.9857445 0.029402856
195 -0.25505495 -0.11040332 1.0340531 -0.4611122 0.27175143 -0.14592656 0.755681 0.9807101 0.3396905 -1.0019423
196 -0.2438469 -0.14287844 1.0850164 -0.5196465 0.2566555 -0.14475085 0.7866516 0.9867339 0.36138016 -1.0087144
12 0.09238191 -1.7845744 0.80279255 0.64448875 -0.4358415 0.06419209 -0.29099983 0.9423238 -0.33931443 -0.55649847
726 -0.0061222007 -0.32028434 1.3596534 -0.18624796 -0.676723 1.0616544 0.62849367 -0.35925126 -1.4084839 -0.2674945
35 0.2468973 -2.0763693 0.5546986 0.03003989 -0.20228766 -0.11092201 -0.10794096 0.8883536 -0.021481866 -0.3117491
191 -0.2311012 -0.118593946 0.9982047 -0.48374704 0.30453962 -0.11484463 0.76891583 1.1721437 0.35373715 -0.9787696
708 0.1777948 -0.09633158 0.5429489 -1.4776549 0.95691377 -0.024254847 1.4348413 -0.36031938 -1.0054787 0.0046574078
1 0.20086457 -1.6322672 1.049414 0.7307002 -0.5598912 0.22013187 -0.5252962 1.0223833 -0.38428184 -0.70537436
145 -0.23161708 -0.09699345 1.4200344 0.037908386 0.6699954 -0.6322264 0.09627683 0.8437135 -0.171913 -0.30811968
241 -0.17017193 -0.24708924 1.3129406 -0.07599708 -0.03868407 -1.2460607 0.5458062 0.59759295 -0.30229333 -0.8705806
275 0.37002116 -0.48031893 0.025659619 -0.48111677 0.98148006 -0.8074915 -0.8897803 -0.063087605 -1.064432 -0.96085376
53 0.5962392 -1.7646525 0.746357 -0.51196754 -0.15636264 -0.085041165 -0.16554654 0.83706844 0.046638835 -0.041311592
461 0.05259963 -0.85397565 0.4319021 0.24991861 0.94325083 0.6678137 0.0064191287 -0.79494417 -0.34113312 -1.6094828
707 0.24433695 -0.10646331 0.5003597 -1.5334114 0.97696614 -0.0027866894 1.3649712 -0.33110878 -1.047561 0.059284613
190 -0.16030937 -0.11143975 0.99071264 -0.48297828 0.4566389 -0.16460396 0.6267232 1.1688032 0.39552435 -0.91873777
46 0.37921292 -1.9938263 0.65746146 -0.3474597 -0.11479897 -0.15513021 -0.10353639 0.9256931 0.05962223 -0.11823569
48 0.4854207 -1.909295 0.7063268 -0.4331945 -0.068433024 -0.051611457 -0.20231667 0.8969371 0.11600939 -0.11171794
24 0.05810911 -1.9772297 0.66471255 0.42417473 -0.25014415 -0.06141938 -0.1824738 0.9347486 -0.18731253 -0.44230664
711 0.14923224 -0.107292436 0.46107098 -1.5008984 1.0556055 0.048723385 1.3340412 -0.4049372 -1.0232543 -0.011081731
189 -0.2842864 -0.117463574 0.9635572 -0.5263397 0.48001415 -0.2587691 0.63128227 1.1719844 0.34693453 -0.9307779
269 0.36706984 -0.51319945 -0.16682999 -0.40136495 1.1340387 -0.767909 -0.81847745 0.06271138 -1.0521097 -1.0017669
8 0.1566018 -1.6804847 0.90080667 0.7402767 -0.46472463 0.13793527 -0.54582536 1.0490792 -0.39446947 -0.6838563
301 0.55418754 -0.23208433 0.6054819 -0.63361233 0.576099 -0.30096102 -0.94887555 -0.5641908 -1.0867015 -1.0812857
14 0.03822756 -1.7873745 0.7982952 0.591351 -0.42029718 0.021078287 -0.37807187 0.98377645 -0.31609374 -0.6001156
709 0.17628592 -0.14265808 0.47316885 -1.4881446 1.0488725 -0.07136357 1.3741862 -0.41248032 -1.0008548 -0.038618553
259 0.3571229 -0.5317228 -0.32279685 -0.35958928 1.1791573 -0.7991877 -0.6549757 0.16538373 -0.91638184 -1.0632317
273 0.38540974 -0.53132975 -0.04980697 -0.4312347 1.0336764 -0.79160666 -0.8731563 -0.027937194 -1.0946941 -0.9871619
272 0.4088543 -0.59919214 -0.116314076 -0.34774277 1.0367656 -0.75914717 -0.842128 -0.060274526 -1.114099 -0.97565407
246 -0.11738485 -0.15410782 1.3321259 -0.0058963727 -0.15031964 -1.2669542 0.43366075 0.87477356 -0.49957585 -0.6918414
188 -0.2582131 -0.08353002 0.9712944 -0.46283618 0.4855579 -0.15355732 0.6544192 1.2292445 0.32753423 -0.89464366
705 0.20420098 -0.059157714 0.47573042 -1.4840168 0.988104 -0.07003322 1.3827157 -0.32297584 -0.99612594 -0.043586936
722 0.081108816 -0.33036882 1.3223102 -0.21881631 -0.6703353 1.0642693 0.7195637 -0.40585008 -1.3378624 -0.3081687
110 0.652321 -0.8929204 1.6895887 -0.06976223 0.9442268 -0.11158359 -0.17343743 0.373225 -0.05234171 0.3885182
701 0.2187483 -0.21665773 0.42770875 -1.4840633 0.82995576 -0.16935061 1.3573164 -0.25065213 -0.9331074 0.058755558
699 0.25162312 -0.25855806 0.35095492 -1.4445527 0.91528 -0.07407253 1.3013903 -0.20060165 -1.019926 0.1092243
250 0.28837588 -0.5775577 -0.31581286 -0.35430032 1.2451435 -0.68432033 -0.8640727 0.3212291 -0.93813187 -1.0351604
616 1.5438808 -0.0045156754 0.16690493 0.14946614 0.46534878 0.60853726 0.8913876 0.63946843 -0.597927 -0.7137334
306 0.7168918 -0.061743367 0.65119684 -0.5694261 0.5658248 -0.11442905 -0.9500051 -0.51358986 -1.13553 -1.090187
47 0.42889962 -1.9024295 0.6671382 -0.41520157 -0.12143873 -0.18606253 -0.19492574 0.82739747 0.039371334 -0.110084675
242 -0.068565905 -0.08420788 1.2965417 0.0011663961 -0.04860553 -1.2346507 0.42094702 0.77015585 -0.43357715 -0.72005737
299 0.789083 -0.25841343 0.610885 -0.554346 0.5273172 -0.3873833 -0.9095202 -0.5836381 -1.1830049 -0.97118235
702 0.20647445 -0.14916196 0.39147288 -1.47152 1.0073965 -0.09686737 1.300112 -0.28355125 -0.95324564 0.03581484
698 0.21722493 -0.30305514 0.33109075 -1.4873276 0.9412105 -0.08620424 1.2790055 -0.25135666 -0.9762118 0.08865117
721 0.102570705 -0.385251 1.4307305 -0.18915989 -0.67697257 1.0981358 0.6685121 -0.35092747 -1.3233215 -0.23970412
697 0.19587713 -0.37293118 0.32148555 -1.421212 0.84599805 -0.13898176 1.3130789 -0.268204 -0.9689494 0.09935647
277 0.4759645 -0.52949595 0.036613476 -0.39035252 0.96457124 -0.7227766 -0.8844235 -0.17367475 -1.1249852 -0.9208996
692 0.2948733 -0.46063352 0.1534342 -1.3851293 0.7827926 -0.14677274 1.2624027 -0.17133911 -1.0390213 0.13779566
693 0.28170148 -0.46714246 0.20463811 -1.4378183 0.6912095 -0.20071198 1.249511 -0.20947924 -1.0073732 0.11459277
300 0.6488441 -0.24922034 0.59083223 -0.6489241 0.5238811 -0.35265633 -0.90882933 -0.58426446 -1.0662211 -1.0813258
247 -0.23171179 -0.15907216 1.2899998 0.036492314 -0.10749057 -1.2712666 0.41124156 0.9031053 -0.5125232 -0.69413376
700 0.2217301 -0.25927308 0.38208535 -1.4959837 0.9024681 -0.07144559 1.315022 -0.29649034 -1.0429674 0.086239405
298 0.5864977 -0.2833478 0.6037905 -0.6172931 0.51044685 -0.46594813 -0.87374014 -0.6167976 -1.090921 -1.0376991
276 0.44530702 -0.5438614 0.017751995 -0.43783948 0.95904344 -0.7641862 -0.92453545 -0.11485333 -1.1234566 -0.9582073
470 0.22808006 -1.0091892 0.40948257 -0.043784097 0.7962352 0.7826808 -0.0009854119 -0.9570091 -0.2823563 -1.6268507
696 0.23829816 -0.3641612 0.28157198 -1.4511425 0.7705398 -0.21740285 1.2884898 -0.21760465 -0.9865545 0.095134765
56 0.5869096 -1.668421 0.83638597 -0.6139812 -0.13772592 -0.07827548 -0.20418265 0.8253852 0.083938815 -0.015553796
462 0.09225564 -0.9538928 0.47429603 0.21006942 1.0016234 0.6802202 -0.007737787 -0.803314 -0.26004598 -1.582074
400 -0.23257844 -0.40987864 -0.46086302 -0.7040238 -0.5778542 0.052112613 -0.19072574 0.7658102 -1.2342759 -1.7513982
52 0.6074985 -1.7650034 0.64986426 -0.4696731 -0.156403 -0.12610872 -0.15832087 0.8850376 0.009226357 -0.05422418
684 0.25754347 -0.6077734 0.103733405 -1.1783605 0.6465435 -0.059429206 1.314521 -0.12163135 -1.0029706 0.14462875
694 0.33887532 -0.44083673 0.24895501 -1.469965 0.78646034 -0.13690019 1.2712253 -0.16226481 -0.9323417 0.17885855
652 -0.071211375 -0.92311 -0.20782866 -0.16356725 0.42853516 -0.074837945 1.2755233 -0.03373623 -1.2339284 -0.11897284
57 0.5936924 -1.6475118 0.9106522 -0.65771955 -0.23068959 -0.0550843 -0.19796692 0.8286067 0.026790012 0.025890857
690 0.21431385 -0.57706356 0.18206966 -1.3397459 0.7292264 -0.19648927 1.3050584 -0.17102902 -0.8866519 0.14007759
49 0.44864693 -1.8653814 0.70669377 -0.39437136 -0.1388488 -0.11774379 -0.19007431 0.82647085 0.030335756 -0.1086812
59 0.5883897 -1.7064341 0.8901114 -0.642401 -0.13878058 -0.109301284 -0.1425027 0.9333129 0.05523824 0.07598116
441 -0.2297383 -0.57642365 0.5676293 0.70061505 1.2376354 0.65935624 -0.028989313 -0.44208467 -0.44677138 -1.737053
408 -0.3057027 -0.38129526 -0.4898806 -0.49212953 -0.5562877 0.07689122 -0.17960893 0.7497527 -1.2761477 -1.8282837
58 0.6032669 -1.6785157 0.8359688 -0.68501866 -0.19255841 0.0028061103 -0.13519743 0.8445749 0.09737332 -0.017142158
469 0.2612551 -0.9763446 0.46863657 -0.027544847 0.8352602 0.7558499 -0.0034608736 -0.905077 -0.2066424 -1.644603
304 0.6690555 -0.089252874 0.62929106 -0.6532055 0.5788374 -0.17393935 -0.8672729 -0.6414322 -1.1131816 -1.0660188
305 0.69955844 -0.058087144 0.65368193 -0.61698246 0.5235156 -0.16327839 -0.9343128 -0.48910946 -1.09983 -1.0907751
691 0.27556866 -0.45355996 0.2005436 -1.4633666 0.68634796 -0.105591655 1.341426 -0.15394586 -1.0812155 0.1268781
596 1.7578536 -0.0018720065 0.31352416 0.26619035 0.22323744 0.5098901 0.8979267 0.5824943 -0.60193855 -0.97074854
431 -0.34281975 -0.54344106 0.5727929 0.80126035 1.2808447 0.6162176 -0.18670912 -0.33357248 -0.55796367 -1.6643728
62 0.6303129 -1.6092839 0.93334883 -0.726744 -0.099595726 -0.042988323 -0.21751288 0.8523673 0.07579301 0.081402175
401 -0.2990338 -0.46722665 -0.46664718 -0.64504915 -0.5976101 0.08742132 -0.16368423 0.6642171 -1.2421112 -1.7375791
50 0.49947324 -1.8401552 0.7114009 -0.47235623 -0.18306029 -0.07626997 -0.14558221 0.8493324 0.05113856 -0.09657673
416 -0.40440604 -0.35825938 -0.50134635 -0.38037282 -0.5369747 0.09337932 -0.18842429 0.8877972 -1.3508701 -1.931213
112 0.63943756 -0.945427 1.6338978 0.0044255443 1.0676655 -0.052666303 -0.13705136 0.3863139 0.011174724 0.39697772
409 -0.34480223 -0.34847966 -0.45911187 -0.47100973 -0.6179989 -0.03153325 -0.21609038 0.8085789 -1.3846787 -1.8534755
243 -0.1530729 -0.1050221 1.340392 -0.00027273802 -0.11642525 -1.2788552 0.41468135 0.85388124 -0.49529403 -0.73975176
706 0.24169196 -0.13163932 0.5118693 -1.5003977 1.0232977 -0.05271176 1.3899899 -0.38913023 -1.0455405 0.016875247
61 0.6211129 -1.6052972 0.9446821 -0.7697786 -0.09905075 -0.043488115 -0.25008902 0.8539173 0.09466501 0.081992984
468 0.19367659 -1.0141516 0.42856002 0.061487563 0.87621605 0.6979152 -0.0049195774 -0.90569305 -0.27565417 -1.61394
51 0.55646926 -1.8803973 0.7071999 -0.5118362 -0.15371387 -0.100373365 -0.1360851 0.829834 0.09959688 -0.084499925
65 0.582454 -1.5135581 0.93842614 -0.75790507 0.026425013 -0.054972168 -0.288214 0.8356522 0.06685837 0.15405259
64 0.5925362 -1.5674666 0.9630703 -0.694956 -0.029239573 -0.015242186 -0.18637756 0.88295645 0.07274445 0.12955116
435 -0.26830193 -0.49462524 0.5565554 0.7103851 1.3689666 0.59323335 -0.029055934 -0.46721295 -0.53481567 -1.7122862
475 0.32907733 -0.883982 0.56336474 -0.16632444 0.8405459 0.8278935 -0.013397273 -0.95264727 -0.17238905 -1.5013355
410 -0.29113916 -0.33121476 -0.45116 -0.45876244 -0.59888345 0.043040108 -0.20275782 0.77224493 -1.3727583 -1.8447717
439 -0.2691115 -0.48859784 0.5728373 0.64606863 1.3243712 0.5753389 -0.074517995 -0.49720117 -0.5473287 -1.7044029
307 0.6641283 0.2520145 0.73302287 -0.7885507 0.5847983 0.093384445 -0.9474002 -0.33389902 -1.101791 -1.0977658
689 0.295227 -0.49146712 0.16389701 -1.3617893 0.71027327 -0.08116886 1.3038524 -0.20931815 -1.0300524 0.12148952
418 -0.38576686 -0.3743685 -0.48259908 -0.350594 -0.5637787 0.057389647 -0.20322394 0.89843184 -1.3147006 -1.8728714
440 -0.3008799 -0.57132405 0.5422106 0.7177285 1.2723831 0.6046847 -0.09828682 -0.4023946 -0.51369643 -1.634276
388 -0.07898977 -0.4279994 -0.34992427 -1.0650913 -0.6210942 0.16502137 -0.25779623 0.65153384 -1.1147126 -1.5765604
460 0.03981098 -0.8827424 0.48750997 0.25554147 0.97557795 0.7200225 0.021005306 -0.80512553 -0.32041854 -1.6797137
686 0.23655419 -0.5304036 0.11360894 -1.2273825 0.6368015 -0.03047346 1.3287174 -0.12848958 -0.9574907 0.09365818
340 0.32431662 0.1855904 0.25050357 -1.3530473 -0.003602917 0.37261516 -0.80348384 0.77242744 -1.2763684 -0.7662605
109 0.6436453 -0.99230266 1.6433318 -0.013730807 1.083764 -0.15063286 -0.23280917 0.41472173 0.04944639 0.3291747
608 1.6496093 0.119073294 0.37167698 0.25065902 0.39774585 0.8330694 0.8036307 0.6581935 -0.5824021 -0.9019477
399 -0.2741036 -0.43777555 -0.44750813 -0.72888017 -0.629684 0.019350298 -0.15112251 0.7551863 -1.2345508 -1.6842786
111 0.6552841 -0.946176 1.681962 -0.0262295 1.025051 -0.13123098 -0.16467963 0.41453803 -0.013990197 0.38075137
68 0.65868884 -1.5058912 1.0306066 -0.7586324 -0.023076111 -0.0013140873 -0.24783264 0.8262584 0.032927994 0.20526116
438 -0.31220698 -0.5680471 0.4710772 0.6996652 1.2475917 0.6165787 -0.009229116 -0.42059824 -0.5345272 -1.6539418
387 -0.06194216 -0.39454055 -0.42951915 -1.113884 -0.55760837 0.14952357 -0.1542451 0.6226666 -1.0862943 -1.5454394
463 0.10269917 -0.8974994 0.48128378 0.21908906 0.9443053 0.7073943 0.037117053 -0.8784215 -0.3323194 -1.64568
446 -0.16661315 -0.63855255 0.5083139 0.5733416 1.1607656 0.5511595 -0.0460286 -0.51059717 -0.41746137 -1.6369654
465 0.18896711 -0.9334083 0.40913984 0.13565873 0.87523186 0.7672047 -0.059192006 -0.8400201 -0.34248054 -1.6004881
419 -0.41988638 -0.31850386 -0.4573595 -0.43086183 -0.5439875 0.044637784 -0.17172408 0.86229837 -1.3140384 -1.8556659
113 0.82723296 -0.90989363 1.7473294 0.0053907796 1.1111107 -0.15424155 -0.11404995 0.444618 0.103465654 0.30762774
607 1.6789247 0.085301615 0.34249985 0.221171 0.38575602 0.8032051 0.7370424 0.67628413 -0.58166605 -0.886874
283 0.5401049 -0.50447005 0.23224597 -0.4230518 0.6711652 -0.686503 -0.9012821 -0.33272144 -1.1731932 -0.8721075
60 0.57202214 -1.6170582 0.94111466 -0.7441382 -0.26277056 0.009897106 -0.16926622 0.89997786 0.03015957 0.073479176
360 0.18369809 -0.33011582 -0.08546524 -1.5014995 -0.30683652 0.27576247 -0.6965862 0.7377232 -1.0936652 -1.0058235
728 0.030958172 -0.2527503 1.4284755 -0.063968 -0.64645696 1.0107142 0.57327724 -0.32560357 -1.5217725 -0.262809
117 0.55326974 -0.93049705 1.6656308 0.060343314 1.1739724 -0.14859082 -0.07357463 0.42871952 0.06175367 0.33773813
407 -0.3784295 -0.3896408 -0.49894118 -0.54767215 -0.5281067 0.028432334 -0.20389228 0.7616913 -1.3533413 -1.7585909
116 0.67459005 -0.9425365 1.6910543 0.047545277 1.1756732 -0.25098363 -0.059711497 0.31023005 0.048041638 0.31724453
467 0.13138068 -0.9469193 0.57807106 0.03684391 0.9287172 0.65080243 -0.026634417 -0.9806195 -0.27892745 -1.5679623
358 0.22551085 -0.28747612 -0.097706385 -1.4276737 -0.30290437 0.19488567 -0.6763998 0.7623534 -1.1673018 -0.83990246
417 -0.42662475 -0.31201264 -0.45210528 -0.35674316 -0.53589845 0.095034376 -0.2615816 0.8190323 -1.4660426 -1.7978479
94 0.6837479 -1.043196 1.506311 -0.53998166 0.63622606 0.04716961 -0.29911104 0.6245001 0.035120025 0.38275987
361 0.23070689 -0.30077696 -0.059774708 -1.5226892 -0.33735746 0.22353393 -0.6829666 0.77759737 -1.161831 -1.0005597
405 -0.32851747 -0.36405605 -0.43718973 -0.46641186 -0.6044468 0.0876236 -0.23191258 0.8369411 -1.3460393 -1.7248752
442 -0.24883206 -0.6354077 0.5492036 0.6697708 1.1437929 0.63385916 0.0025810087 -0.5002788 -0.50791186 -1.5950603
394 -0.06321431 -0.38278818 -0.38307506 -0.86472774 -0.6021274 0.09768455 -0.27901942 0.72005373 -1.1515613 -1.6407008
321 0.490062 0.6080956 0.49588 -1.0561986 0.37625998 0.52853304 -0.82116145 0.40604174 -1.2540877 -0.9691228
412 -0.4375837 -0.23922607 -0.4239274 -0.43210235 -0.5500192 0.04744884 -0.20526913 0.9062534 -1.3996696 -1.8978784
414 -0.41147256 -0.2630844 -0.41911516 -0.41654018 -0.5122825 0.105014846 -0.16614877 0.812285 -1.3433125 -1.869226
695 0.2548303 -0.41049585 0.30329984 -1.4720218 0.8439764 -0.12408073 1.2757041 -0.25493127 -0.974424 0.12614956
466 0.24910365 -0.94207126 0.4242292 0.11220012 0.87558967 0.7546753 0.022447363 -0.83606946 -0.24606182 -1.6597164
95 0.7619009 -0.9540194 1.5349612 -0.4592258 0.5820261 0.06724261 -0.29760742 0.6699203 -0.01284092 0.39733058
92 0.7775209 -1.055543 1.4416053 -0.5845057 0.5376463 0.0979322 -0.38073364 0.706584 0.01914105 0.36072096
432 -0.3647911 -0.5354103 0.5869983 0.80359006 1.3284388 0.62721896 -0.20409916 -0.30433753 -0.5327518 -1.6828569
398 -0.14625348 -0.36661386 -0.44187176 -0.76224715 -0.62325794 0.038199 -0.14205526 0.7803607 -1.200217 -1.7605054
445 -0.15519316 -0.6086159 0.515043 0.60634863 1.2014174 0.5611878 -0.015945455 -0.55350757 -0.49544603 -1.6347356
357 0.08070875 -0.25191653 -0.013818662 -1.5216196 -0.2665563 0.19054615 -0.6840892 0.75503796 -1.1539848 -0.86368155
384 -0.046453442 -0.4495945 -0.3755908 -1.1742381 -0.5597846 0.18269154 -0.30106235 0.6818389 -1.0952742 -1.5333734
359 0.21355598 -0.25383353 -0.13175516 -1.5020647 -0.28588456 0.22106816 -0.63467664 0.7790108 -1.182532 -0.8897604
114 0.6771912 -0.87077653 1.6857302 -0.05443959 1.0925578 -0.17691785 -0.09215626 0.35405776 0.05940782 0.32510063
389 -0.053238973 -0.45742878 -0.46136242 -0.95591515 -0.5443879 0.11952201 -0.27620345 0.78132 -1.0740213 -1.6255909
320 0.41972175 0.6496216 0.5672973 -1.0602014 0.38529646 0.53869826 -0.7860667 0.3554276 -1.25925 -0.936537
63 0.6979159 -1.556399 0.92066735 -0.6487736 -0.062506944 0.038847733 -0.1903501 0.91762424 0.072396435 0.10986036
411 -0.4136152 -0.3540873 -0.41436306 -0.4042647 -0.5745665 0.035744302 -0.26671517 0.81632733 -1.4074177 -1.839748
406 -0.42113557 -0.40090263 -0.41908336 -0.55046225 -0.5958356 0.08483253 -0.24410307 0.78610843 -1.3441838 -1.7482276
601 1.7677888 0.063282624 0.3569629 0.3016875 0.25894 0.6395032 0.7759955 0.61888796 -0.68411463 -0.9597667
602 1.7127633 0.09476465 0.42226306 0.30643398 0.3214913 0.6699307 0.7733625 0.7069649 -0.62347573 -0.884346
437 -0.31886858 -0.50295824 0.6047954 0.79268813 1.3287815 0.623197 -0.12657395 -0.36669046 -0.5561594 -1.6339881
476 0.37827164 -0.8844723 0.6139487 -0.2383756 0.86958486 0.80198413 -0.060502965 -0.95122296 -0.12855238 -1.5562948
386 -0.06824955 -0.49138445 -0.39951155 -1.1549731 -0.62524307 0.16874468 -0.25101423 0.68752927 -1.1359934 -1.5087337
369 0.2306199 -0.33095416 -0.25606358 -1.5326262 -0.39255947 0.2808151 -0.41107148 0.7518762 -0.98206234 -1.2338169
404 -0.322351 -0.3019271 -0.40378913 -0.6321775 -0.54712 0.14052275 -0.20841962 0.7395531 -1.2627876 -1.8591865
413 -0.45765576 -0.31331584 -0.4120809 -0.45999464 -0.5648075 0.009375998 -0.23594216 0.87359107 -1.3507103 -1.924489
606 1.7062532 0.05736018 0.37604338 0.24409886 0.37404627 0.83022267 0.7153764 0.7119857 -0.61415684 -0.8491728
393 -0.1257164 -0.38903037 -0.38573477 -0.97122705 -0.6005065 0.11845301 -0.1885716 0.7145213 -1.1234528 -1.6254013
77 0.66684866 -1.2716401 1.3072245 -0.7784728 0.10853759 0.03758325 -0.33347932 0.8180709 -0.0061840047 0.30206928
380 0.018107729 -0.42720965 -0.35102746 -1.309465 -0.49867892 0.23313741 -0.33698434 0.6971324 -1.0328497 -1.4535092
685 0.22725248 -0.57164276 0.08025059 -1.2180882 0.58398575 0.019489093 1.3078238 -0.13808814 -0.9993853 0.047341347
85 0.7042317 -1.0332028 1.4264276 -0.7197784 0.292052 -0.017267827 -0.2907876 0.66076607 -0.003310786 0.34759954
362 0.10121151 -0.27476802 -0.052887212 -1.4666935 -0.34917244 0.21289529 -0.66409975 0.7268377 -1.1487159 -0.98533875
626 0.7979666 -0.32098955 -0.29626942 0.03504782 0.9481571 0.9373289 0.872276 0.8907226 -0.96732444 -0.12609927
464 0.16128536 -0.90327746 0.48529258 0.13225424 0.9186827 0.67219514 0.024997275 -0.8864808 -0.26382965 -1.6170232
385 -0.044714045 -0.4201306 -0.4180577 -1.2142117 -0.5493943 0.10099328 -0.2491595 0.75038123 -1.0745647 -1.529244
314 0.53736556 0.6036376 0.667746 -0.91183496 0.40855762 0.38341123 -0.83672386 0.15189615 -1.1930028 -1.0577052
434 -0.3541798 -0.5113631 0.51255536 0.73798805 1.2972109 0.64429015 -0.14526196 -0.3252027 -0.5618602 -1.5891376
688 0.29777488 -0.48237053 0.10668345 -1.3241848 0.63425344 -0.097162396 1.2643389 -0.19820917 -1.0361755 0.05052905
67 0.68951786 -1.4503582 1.0291317 -0.8320587 -0.066720255 0.00653429 -0.21770266 0.75191015 0.040434957 0.19987789
452 -0.052262343 -0.71831226 0.45857984 0.38301829 1.1179087 0.6877691 0.01637861 -0.6140888 -0.3523486 -1.6088499
402 -0.35258046 -0.40386108 -0.47779834 -0.6570872 -0.61443716 0.11251725 -0.12046976 0.75599223 -1.2439823 -1.7971234
687 0.26252094 -0.5693539 0.12752229 -1.3571103 0.6715095 -0.081853926 1.2821523 -0.14619958 -1.016385 0.15185106
420 -0.45919544 -0.34794822 -0.4570232 -0.37932056 -0.5644713 0.064885825 -0.18777655 0.80010295 -1.3753046 -1.8555629
444 -0.18002193 -0.6228431 0.50407094 0.6835077 1.2511556 0.62127554 -0.029790223 -0.45788348 -0.46213967 -1.6443521
322 0.4993496 0.54225713 0.5487567 -1.0191209 0.31478807 0.5502413 -0.85292345 0.43626782 -1.2223222 -0.8962462
459 0.07255024 -0.93120164 0.5035941 0.32189432 1.0275103 0.66539824 -0.017890004 -0.8274826 -0.33727735 -1.547015
609 1.7278736 0.08702368 0.2839497 0.23024885 0.44614068 0.78511035 0.7206545 0.6952839 -0.6363448 -0.8728904
612 1.6282132 0.088127166 0.24827342 0.18826312 0.50052637 0.8390826 0.6928236 0.83642524 -0.5590738 -0.7858408
447 -0.14578733 -0.71683437 0.55374694 0.6544134 1.2110734 0.5672541 -0.0042206477 -0.56650895 -0.43918243 -1.6315044
433 -0.35643175 -0.4624734 0.5448254 0.7776385 1.325692 0.6576018 -0.070048496 -0.310892 -0.5820443 -1.6776129
115 0.666578 -0.97210175 1.634744 0.061525904 1.1084763 -0.16656816 -0.09158753 0.32476115 -0.014114721 0.39868483
603 1.7132506 0.08750645 0.35561544 0.28457487 0.31235763 0.7335212 0.787164 0.6395976 -0.6147622 -0.97261745
472 0.30142647 -0.9498101 0.4853261 -0.11709579 0.8948168 0.78025085 -0.06565573 -0.9497214 -0.27257338 -1.5254208
87 0.6427263 -1.0831172 1.3845193 -0.68739057 0.4561573 0.100584336 -0.33697152 0.7490814 0.01867635 0.3842886
355 0.2164106 -0.16856895 -0.018919652 -1.5375994 -0.18503289 0.31124532 -0.72860277 0.77672726 -1.1838292 -0.8557133
381 -0.005285789 -0.45057464 -0.32679754 -1.3418005 -0.5544595 0.15348625 -0.30827656 0.5399715 -1.0973328 -1.5095642
453 -0.061060175 -0.7256566 0.48538697 0.45999143 1.1564415 0.62495226 -0.013413678 -0.6597298 -0.36898407 -1.5826129
436 -0.30877 -0.5632479 0.54001045 0.7463254 1.20168 0.69094956 -0.1647737 -0.3258981 -0.525823 -1.6738533
338 0.3294233 0.18915938 0.23368162 -1.2912412 0.11189921 0.3955572 -0.9050975 0.7397321 -1.2616206 -0.8105813
430 -0.3163486 -0.5260736 0.5625996 0.7902224 1.289391 0.60969603 -0.24843185 -0.28858653 -0.54717624 -1.665734
319 0.54256254 0.67040807 0.6021513 -1.000417 0.38130835 0.44351563 -0.7917445 0.361572 -1.2609279 -0.9640002
356 0.27839118 -0.22700852 -0.095790245 -1.4484065 -0.2244468 0.20897286 -0.657896 0.74374056 -1.1496905 -0.87468374
471 0.2554515 -0.9988384 0.5128523 -0.012920099 0.87640005 0.7485897 -0.0359536 -0.96359795 -0.26397884 -1.5425162
90 0.7723083 -1.0385056 1.4454635 -0.66268605 0.4095245 0.13763775 -0.27694598 0.70325494 0.06349407 0.34681118
604 1.7485372 0.059123244 0.34632844 0.23437618 0.32599962 0.70955086 0.7788486 0.63477856 -0.60862356 -0.91207504
383 -0.06436303 -0.39122653 -0.35555115 -1.2232875 -0.5341038 0.23423737 -0.2588863 0.6570762 -1.0755525 -1.5871006
339 0.21166603 0.17048377 0.19022754 -1.3462228 0.1486654 0.37894616 -0.91374344 0.73482674 -1.3127004 -0.7746684
611 1.6611797 0.07193245 0.26073977 0.16999204 0.3942223 0.8792963 0.7373624 0.73592937 -0.62783796 -0.83755195
600 1.8215036 0.00797912 0.3800405 0.2899431 0.2737929 0.60789156 0.73846227 0.68517905 -0.5751633 -0.9342505
78 0.6540885 -1.2093664 1.2685944 -0.6996593 0.22874987 0.055885635 -0.32931092 0.77423793 0.027515685 0.3097573
91 0.8164437 -0.9995726 1.5000949 -0.6068988 0.47764224 0.062918164 -0.29823035 0.70526165 -0.013285878 0.42120865
88 0.7161257 -1.0546368 1.4313152 -0.6428486 0.3862464 0.011678356 -0.33301032 0.7357485 -0.06162731 0.41730115
89 0.7885331 -1.0075244 1.4854417 -0.62331766 0.42464563 0.14564797 -0.3132357 0.6928487 0.05475197 0.33969706
443 -0.20633833 -0.57143676 0.5205412 0.6508581 1.1742119 0.6200187 -0.0426899 -0.44007155 -0.44333303 -1.6333303
599 1.8163142 0.068723 0.38678977 0.27834976 0.38981128 0.63216805 0.79802287 0.61805004 -0.6138738 -0.9450663
349 0.21954511 -0.05170315 0.0695205 -1.4370792 -0.12563801 0.3417241 -0.811815 0.8417494 -1.3007292 -0.77786076
96 0.81776386 -0.9894098 1.5302769 -0.4561799 0.5764781 0.02755403 -0.33090818 0.58313096 0.00016677467 0.36138675
395 -0.114596024 -0.3510894 -0.44451216 -0.88448316 -0.57984245 0.0013311291 -0.17703024 0.7369163 -1.1929529 -1.7740403
66 0.6802058 -1.476745 1.0013797 -0.7774068 -0.05661013 -0.094214946 -0.23493159 0.8726622 -0.027711906 0.26926368
457 0.0225003 -0.84460706 0.52245647 0.4134405 1.0358485 0.6599376 0.07241685 -0.7920097 -0.36130854 -1.610351
368 0.2057285 -0.33561757 -0.19192007 -1.4660615 -0.4399255 0.15100667 -0.48479596 0.7263022 -1.0324005 -1.1611071
397 -0.19749504 -0.36832893 -0.3880819 -0.7764848 -0.57161665 0.08072985 -0.22212072 0.7625928 -1.1188934 -1.7040268
76 0.66631675 -1.2943375 1.2318066 -0.7818286 0.15307786 0.046100043 -0.38842094 0.8025075 0.031583097 0.25468177
367 0.19927998 -0.319377 -0.17460765 -1.5017941 -0.39834166 0.22053102 -0.53766555 0.7695998 -0.97868073 -1.1885009
382 -0.030106045 -0.41939676 -0.28715068 -1.2247741 -0.577306 0.11477235 -0.33288205 0.56862164 -1.073376 -1.492307
84 0.6668819 -1.0771644 1.3745409 -0.6840266 0.31288788 0.08048051 -0.33623397 0.8711749 0.016204545 0.3447166
375 0.10561772 -0.36677623 -0.34638456 -1.3923455 -0.3961735 0.17902765 -0.36194292 0.7595388 -0.93170667 -1.3703045
610 1.6597797 -0.008138293 0.29282448 0.28115675 0.42957023 0.8858983 0.74947697 0.6800526 -0.6062099 -0.8598833
392 -0.11815464 -0.49111998 -0.4714701 -0.8836908 -0.5757915 0.17246422 -0.2235941 0.7413108 -1.0960519 -1.629266
364 0.0487492 -0.27335 -0.0745623 -1.4808043 -0.38831663 0.21862969 -0.58139056 0.7795141 -1.092463 -1.0231502
93 0.73565054 -1.0427155 1.5944258 -0.47768402 0.542383 0.102425225 -0.316463 0.6510704 0.018410083 0.38916048
333 0.35946557 0.30083683 0.30812448 -1.3156093 0.14201893 0.43017125 -0.88489395 0.68858045 -1.3021127 -0.776419
428 -0.35870612 -0.59556174 0.3837194 0.7218399 1.3425571 0.6129727 -0.13451932 -0.33300698 -0.60583687 -1.6913968
334 0.31193328 0.2926384 0.24255991 -1.2625937 0.21575062 0.41330844 -0.8614835 0.76956725 -1.1750653 -0.8178945
86 0.7141307 -1.0472134 1.381777 -0.67458093 0.43097284 0.023910725 -0.30706957 0.65772843 0.0507898 0.32491848
605 1.6923603 0.09510198 0.31648406 0.23157062 0.3192966 0.7579901 0.71374315 0.6600038 -0.6293207 -0.9157989
341 0.28321412 0.11712217 0.19005123 -1.374097 -0.0034670942 0.3091553 -0.84350693 0.7801411 -1.3315468 -0.755487
415 -0.42079583 -0.30374858 -0.49160692 -0.40140262 -0.50716084 0.10177214 -0.15136051 0.9000713 -1.3640723 -1.8587221
71 0.6945007 -1.374119 1.1151699 -0.74941325 0.020680651 0.1064755 -0.36266544 0.85172147 0.024560949 0.19349635
75 0.7797975 -1.3188746 1.1798512 -0.71621734 0.103549674 0.06352684 -0.34576306 0.75770557 -0.029489715 0.29536945
366 0.05083416 -0.3383518 -0.1710305 -1.4895878 -0.4056972 0.26114273 -0.5338018 0.7776196 -1.0989555 -1.08809
107 0.67062145 -0.8857377 1.659169 -0.19306208 0.96659505 -0.023762817 -0.1966168 0.43905425 0.06424348 0.3523005
598 1.8143507 -0.051547445 0.3461731 0.35427037 0.32988113 0.5201624 0.8374405 0.61934036 -0.57293946 -0.95943224
69 0.63412976 -1.4187837 1.0710214 -0.7843685 -0.024540477 0.028886477 -0.32788658 0.76114494 0.048680153 0.14913937
429 -0.33093497 -0.5101068 0.47623053 0.7521401 1.2235483 0.64831245 -0.14627798 -0.29194474 -0.5664495 -1.7603018
324 0.44544998 0.53402853 0.5034078 -1.0395789 0.27465606 0.48656285 -0.8782958 0.52556723 -1.178822 -0.94522035
376 0.15388069 -0.4003014 -0.26663974 -1.42193 -0.5247622 0.17374155 -0.3837669 0.7048817 -0.99248046 -1.4119304
101 0.73183197 -0.8487693 1.5312724 -0.35422638 0.73662776 0.006995723 -0.26500672 0.5351886 0.04071697 0.33758253
100 0.8115153 -0.93901294 1.5600158 -0.30063617 0.7564622 0.037528887 -0.39048132 0.5050092 -0.060507935 0.3722453
118 0.57768595 -0.9798257 1.6715152 0.13240275 1.1771342 -0.15978052 -0.02739256 0.39279914 0.050567597 0.35191965
451 -0.06123133 -0.7667504 0.48728827 0.479802 1.2007936 0.61948 0.009521262 -0.65325856 -0.39427313 -1.5711175
315 0.48392528 0.6054848 0.67182505 -0.897234 0.3728832 0.43484336 -0.8556021 0.19689807 -1.2599648 -0.986466
458 0.079867326 -0.88813025 0.50048095 0.34786206 0.97973335 0.6806925 -0.021726852 -0.77444357 -0.3398875 -1.6670046
336 0.31740507 0.19400229 0.19619833 -1.330085 0.13827963 0.45246884 -0.8899023 0.72994965 -1.3021725 -0.7943369
477 0.36761445 -0.8868091 0.5407332 -0.27524292 0.9003623 0.84772646 -0.024910986 -0.9624343 -0.15738793 -1.5304528
82 0.7059253 -1.1252469 1.2650203 -0.7601954 0.26039323 0.04489146 -0.32471368 0.737356 0.03886681 0.30810362
454 0.052439522 -0.7517051 0.4803048 0.41706476 1.0821253 0.5920317 0.02296121 -0.68289727 -0.32240435 -1.6209811
449 -0.13937178 -0.6524541 0.58645195 0.5307832 1.1727195 0.60892814 0.0020178508 -0.63386303 -0.40964326 -1.6132561
119 0.59304047 -0.9912756 1.6896261 0.20019703 1.181984 -0.2331061 0.037409335 0.34170994 0.054816574 0.3555807
448 -0.15399943 -0.68359125 0.46891558 0.5696789 1.1773075 0.63369685 0.021856414 -0.58146065 -0.45915458 -1.6000911
337 0.3425343 0.20526645 0.2622278 -1.2558942 0.11794896 0.42023376 -0.9029073 0.8181133 -1.2712461 -0.82526344
403 -0.33845952 -0.40925947 -0.42806384 -0.60674655 -0.5567003 0.105265185 -0.2978299 0.8048494 -1.2896829 -1.7821892
455 0.05839973 -0.78235185 0.5548662 0.38465074 1.034931 0.6246959 -0.019890713 -0.72062135 -0.33819994 -1.6630268
456 0.090071335 -0.8339275 0.4653867 0.39068222 1.0541775 0.67476535 0.008546886 -0.76927024 -0.40577367 -1.5126936
450 -0.12187452 -0.6776793 0.5141206 0.47503355 1.1447952 0.6668141 0.005984846 -0.66640687 -0.43610045 -1.6744127
378 -0.021967253 -0.39978257 -0.3422339 -1.2931587 -0.49985424 0.19953391 -0.30531883 0.69655687 -0.98585767 -1.4503366
70 0.5756333 -1.4018488 1.1169425 -0.83467364 -0.026120467 0.01711807 -0.29025096 0.8607494 0.0062182685 0.25108093
396 -0.1599056 -0.37744513 -0.4676982 -0.8316678 -0.5519085 0.009143572 -0.20625392 0.7701925 -1.228612 -1.6818706
248 -0.24998853 -0.1844417 1.308664 0.012854678 -0.13355802 -1.2733755 0.4681075 0.8243177 -0.51192254 -0.6757555
335 0.2518587 0.32904673 0.30738395 -1.3438578 0.1472339 0.3044388 -0.856474 0.7700665 -1.3254293 -0.81342643
74 0.73764586 -1.2749944 1.2166373 -0.79346186 0.041301545 -0.06317699 -0.32456547 0.82173175 -0.009622731 0.25098333
379 0.044820704 -0.438278 -0.3108642 -1.295256 -0.5701937 0.15980518 -0.31071007 0.6369924 -0.99613833 -1.4127196
99 0.77084404 -0.97968674 1.5554487 -0.38865715 0.72834176 0.121519044 -0.30261666 0.60035014 0.08783737 0.32990277
372 0.11066141 -0.4332184 -0.2373644 -1.436471 -0.47063786 0.23363386 -0.44878903 0.70231 -0.9514596 -1.28491
330 0.35812604 0.36446995 0.40147224 -1.1725945 0.18191496 0.38430715 -0.9082521 0.6981384 -1.247691 -0.79914767
373 0.20102799 -0.34290075 -0.16658884 -1.387861 -0.49365345 0.23533721 -0.44003373 0.665876 -0.9148297 -1.3110098
374 0.097234085 -0.4360416 -0.27797964 -1.4179659 -0.4839722 0.2103394 -0.3962698 0.6957385 -0.9548572 -1.3463796
97 0.7115285 -1.0142431 1.5727987 -0.48264182 0.67480344 0.030056128 -0.28438032 0.622188 0.06002022 0.36038193
390 -0.15190949 -0.40426594 -0.39677528 -1.0708219 -0.5931362 0.081285 -0.15910318 0.7703146 -1.1472661 -1.5418749
332 0.39864787 0.28470224 0.29931 -1.2356979 0.21282794 0.3998213 -0.9754533 0.75027406 -1.3372045 -0.7612938
326 0.39280596 0.5045078 0.47715744 -1.1282496 0.21781696 0.41891864 -0.8774225 0.55444425 -1.2565925 -0.9256568
377 0.111006394 -0.45337653 -0.3279791 -1.3009201 -0.5091984 0.28319418 -0.37403023 0.69010735 -1.013675 -1.3903291
350 0.18579833 -0.11863938 0.015489008 -1.3761023 -0.13437451 0.25771624 -0.77755624 0.7619795 -1.3040758 -0.7255969
478 0.3542132 -0.90868694 0.5602345 -0.33120325 0.8462557 0.8783357 -0.096097335 -0.99431336 -0.17824422 -1.5416243
347 0.21965404 0.005923712 0.12346128 -1.3925061 -0.042150028 0.25754932 -0.8056045 0.7676844 -1.2143108 -0.79810166
316 0.5226588 0.6866792 0.6564767 -0.99769217 0.4139383 0.4715792 -0.8173707 0.2852138 -1.2129183 -1.0530107
363 0.14444713 -0.35525796 -0.21452291 -1.5041096 -0.3235233 0.25196293 -0.5792493 0.76098335 -1.1936392 -0.94282204
323 0.47426274 0.4783341 0.48140556 -1.1202266 0.27867526 0.49329695 -0.9204698 0.5246952 -1.2591577 -0.9435121
79 0.68368393 -1.2565057 1.3073609 -0.77558076 0.22012854 0.12774573 -0.40561426 0.8199957 0.010151123 0.3318446
427 -0.3352481 -0.562818 0.49786624 0.7790183 1.2167912 0.6666572 -0.20127076 -0.24133949 -0.5609944 -1.569828
391 -0.054261133 -0.4355278 -0.42928478 -1.0294867 -0.6070187 0.08605035 -0.2218973 0.7127208 -1.1307217 -1.6343954
149 -0.28887182 -0.047371935 1.4496464 0.047181305 0.89960194 -0.32389313 0.013262818 1.1229539 -0.15360592 -0.16715027
354 0.17816621 -0.18844801 -0.019549372 -1.5088404 -0.25505155 0.23184282 -0.72245526 0.8406986 -1.2016932 -0.824089
473 0.3105286 -0.9004882 0.5147046 -0.095319234 0.89196646 0.7509221 0.02329018 -0.9298888 -0.15294419 -1.6242474
98 0.8262001 -0.9232172 1.5891407 -0.3544852 0.6569341 -0.023329763 -0.31094128 0.62611616 -0.027066799 0.39841202
371 0.23515786 -0.39057243 -0.30006436 -1.4941471 -0.47900647 0.20934087 -0.3971354 0.66151994 -1.0910059 -1.2830538
597 1.8483335 -0.023992896 0.38123307 0.35684097 0.25353602 0.5620165 0.7619142 0.5968739 -0.67782074 -0.95076585
325 0.4512634 0.5234049 0.5656532 -1.0447912 0.25136742 0.46335945 -0.95567745 0.56583744 -1.1685975 -0.9455074
351 0.17326999 -0.07840089 0.062138878 -1.4703262 -0.17994012 0.2507485 -0.73402107 0.7805278 -1.2473322 -0.79061955
620 0.8009674 -0.091260016 0.014087662 0.2199347 0.92436326 0.7238812 0.6630257 0.95978826 -0.5973903 -0.16785483
370 0.12486831 -0.3238591 -0.21511218 -1.4022328 -0.397209 0.25063404 -0.42898312 0.6420165 -1.0391383 -1.2047049
147 -0.38201678 0.031709902 1.3669513 0.057479706 0.7431639 -0.39652628 -0.11674492 1.1627104 -0.2726459 -0.29971114
80 0.71477944 -1.168308 1.2406628 -0.76564354 0.25370225 0.005128886 -0.3818714 0.705988 0.010076357 0.29917473
342 0.35964045 0.09726697 0.16087694 -1.3386338 0.032748252 0.40633568 -0.8470249 0.83558965 -1.2337697 -0.7035786
365 0.22190125 -0.30236948 -0.12165495 -1.4908705 -0.42783484 0.15085241 -0.5076022 0.7353066 -1.1160084 -0.98727417
479 0.39351726 -0.8605379 0.5968034 -0.28623533 0.896832 0.82696944 -0.0941062 -0.9752377 -0.15752204 -1.4620695
81 0.7244331 -1.1949321 1.3519157 -0.76894164 0.2506449 0.05759731 -0.3688723 0.82702696 0.00851466 0.34367844
624 0.78678983 -0.36358684 -0.30793178 0.013998271 0.92187744 0.91604054 0.8384854 0.8603884 -0.84517306 -0.15419121
329 0.45656088 0.39000455 0.38632762 -1.1243647 0.2252894 0.380601 -0.90038687 0.64531285 -1.2485007 -0.8058352
73 0.64365834 -1.3459592 1.2302431 -0.8060973 0.062418394 -0.025089167 -0.30649066 0.79529834 0.049013093 0.2450276
108 0.6603131 -0.9529628 1.6633557 -0.052398756 1.041409 0.03383179 -0.22067873 0.43545252 0.052760303 0.32927275
102 0.73925155 -0.9699994 1.6354355 -0.34120557 0.78404266 0.036545932 -0.24227993 0.5238555 0.034387276 0.41327018
343 0.39824757 0.10763821 0.15370367 -1.2894211 -0.0150906015 0.46633732 -0.8405694 0.7215747 -1.1969708 -0.84866196
328 0.40587962 0.43707076 0.38234413 -1.200274 0.26767644 0.43834728 -0.8610423 0.59669185 -1.3015014 -0.80193526
72 0.66442454 -1.3871292 1.2170231 -0.8388279 0.009783004 0.034665804 -0.30495235 0.8275076 0.015757276 0.25877866
426 -0.3714656 -0.5196139 0.4993931 0.695934 1.3202924 0.6231629 -0.09658811 -0.35900778 -0.5987645 -1.5836914
346 0.2418826 -0.034424815 0.07042495 -1.4086642 -0.069181405 0.36388123 -0.80333865 0.81621385 -1.3243331 -0.65778637
348 0.21259725 -0.066914156 0.041518595 -1.4450142 -0.06314783 0.38121727 -0.83146745 0.7540037 -1.2615842 -0.8008448
146 -0.3386527 -0.038519345 1.3224983 0.0454033 0.64343077 -0.40651754 -0.016230395 1.3171182 -0.2879751 -0.22641614
106 0.73809844 -0.8853838 1.6280141 -0.16747262 0.9048986 -0.034448035 -0.27915853 0.4801388 0.036942508 0.3112808
121 0.51010036 -0.46296033 1.3213241 -0.045808166 0.89558923 -0.061272036 -0.19620045 0.3036795 -0.09805235 0.24001035
327 0.46902236 0.42476317 0.45323735 -1.1167405 0.20826207 0.4167526 -0.86881125 0.5541798 -1.2346404 -0.83582115
425 -0.35614592 -0.57707137 0.4596314 0.6823109 1.345555 0.577246 -0.1280047 -0.31497467 -0.50735605 -1.5244213
344 0.29335034 0.05972494 0.117891796 -1.3719501 0.015111437 0.36010295 -0.85450387 0.81246483 -1.2220107 -0.76947886
331 0.30355552 0.38728523 0.38073173 -1.1800339 0.22912517 0.4239252 -0.9009185 0.635022 -1.3078047 -0.83100957
83 0.7531786 -1.1702083 1.3348655 -0.6968647 0.32296723 0.030415148 -0.27966177 0.7979467 0.030937389 0.3598034
120 0.49609995 -0.82857835 1.5912039 0.14939262 1.1246412 -0.36996105 0.07299508 0.4308099 0.07506538 0.26709628
353 0.10704409 -0.17414314 0.007577611 -1.5230206 -0.13849129 0.2560272 -0.7447196 0.7757712 -1.1668618 -0.84091246
318 0.4886279 0.6414415 0.6577234 -1.0774064 0.39107466 0.41949326 -0.8457926 0.2985573 -1.258076 -0.98001724
352 0.15701577 -0.09915063 0.089766495 -1.4833734 -0.17789017 0.3437506 -0.8012093 0.84722954 -1.2021253 -0.771717
313 0.5646386 0.61820704 0.7656164 -0.9398095 0.45482814 0.38524172 -0.9215461 0.11702373 -1.1627033 -1.1155001
105 0.70959157 -0.9682161 1.7193599 -0.18850923 0.9513456 0.019660266 -0.29967633 0.46716416 0.05815764 0.3579811
713 0.13334525 -0.2619353 0.51818734 -1.559262 0.9768245 -0.01636417 1.2718222 -0.40520632 -0.9845425 0.086175
317 0.5339494 0.67847604 0.6347864 -1.0233729 0.46981138 0.4525331 -0.8191039 0.2453358 -1.2402217 -1.0111402
743 -0.16117942 -0.20120673 0.82066756 0.34289122 0.14239523 0.22089127 0.399584 -0.07228227 -1.8331383 0.11585243
490 -0.0006058923 -0.80284554 0.5872558 -0.88585454 1.1952841 1.7351166 -0.16054654 -0.31718218 -0.15206015 -0.96559685
629 0.7420685 -0.35250667 -0.25165632 0.08844577 0.85055345 0.9734486 0.90989965 0.94484085 -0.9074097 -0.14361796
540 -1.3161972 -1.1411378 0.48960176 -0.7371429 1.095486 1.191127 -0.27085477 0.06421821 -0.5734414 -0.74802685
104 0.7787846 -0.93041337 1.773097 -0.27760512 0.8388442 0.08644622 -0.19708703 0.4422251 0.11817663 0.31790072
278 0.39101923 -0.5439393 0.13684909 -0.4632284 0.9388768 -0.78837407 -0.8788397 -0.18424332 -1.0560411 -0.9243894
572 -1.5202647 -1.3044981 0.8335294 -0.76383084 0.8425697 0.6590148 -0.071576566 -0.39309835 -0.6005267 -0.793089
345 0.27974918 0.05552808 0.13593061 -1.4312052 0.043722875 0.3982945 -0.8654368 0.8140296 -1.2068061 -0.8187802
551 -1.4347869 -1.3218963 0.6217144 -0.811039 1.041562 0.7477531 -0.24019611 -0.11826235 -0.49620372 -0.6979993
554 -1.4693904 -1.3760436 0.7289726 -0.687793 1.0465437 0.8407801 -0.28277904 -0.22199392 -0.6466861 -0.6901017
552 -1.3996077 -1.2776926 0.6568011 -0.7304076 1.0067691 0.8396584 -0.26951 -0.13316092 -0.6202424 -0.6631335
312 0.54901475 0.52999854 0.8148675 -0.9392951 0.47456616 0.39408156 -0.943535 -0.012909543 -1.1930144 -1.0694083
544 -1.3724054 -1.2475 0.5923259 -0.801536 1.0577784 1.1312578 -0.1416398 -0.030629039 -0.5477329 -0.6409732
144 0.052721027 -0.2567529 1.652885 0.113684796 0.7177227 -0.47506645 0.05904109 0.69608176 -0.028396744 -0.16754994
484 0.318688 -0.51955134 0.5955977 -0.90450394 1.118131 1.1100013 -0.54199547 -0.67772144 -0.30484372 -1.0469761
571 -1.601827 -1.2948952 0.79765517 -0.7848363 0.8056945 0.6809582 -0.099909745 -0.28568968 -0.60729367 -0.79845375
575 -1.6031811 -1.3347391 0.7218347 -0.74648577 0.906817 0.5271173 -0.04749153 -0.38915944 -0.6470363 -0.85196185
555 -1.5129366 -1.2965674 0.6875012 -0.7240679 1.0077462 0.7342658 -0.1348766 -0.24174726 -0.5707463 -0.6853858
553 -1.5048866 -1.2717878 0.65667987 -0.7509694 1.0520157 0.76196903 -0.2663875 -0.113153264 -0.6288871 -0.6708116
550 -1.4680371 -1.1872752 0.7513683 -0.79448175 1.0953851 0.8935949 -0.22203554 -0.21990989 -0.6026157 -0.74399805
557 -1.4812797 -1.4409307 0.672029 -0.78744626 1.0027183 0.74397665 -0.20615757 -0.16897424 -0.5623549 -0.67926574
522 -0.7799327 -1.1066595 0.33046472 -0.7410434 1.3238015 1.537181 -0.21704037 0.15539242 -0.3085709 -0.80261856
574 -1.6670333 -1.4249601 0.7493264 -0.6738282 0.6973786 0.62835485 -0.10036854 -0.39393914 -0.68460405 -0.88629055
528 -0.914199 -1.1259426 0.30113932 -0.68912613 1.2254246 1.4615822 -0.15837303 0.1629746 -0.3926571 -0.7373723
103 0.77461404 -0.9044349 1.6912338 -0.38388574 0.8276326 0.09997755 -0.29819265 0.49981958 0.057233717 0.35893893
541 -1.3294955 -1.2419811 0.5455767 -0.7310308 1.0206087 1.1242878 -0.17448825 -0.009211711 -0.47751802 -0.7858086
531 -1.0658778 -1.1043417 0.3929926 -0.7192132 1.2625061 1.4402455 -0.23500392 0.16141026 -0.48328704 -0.7882972
525 -0.85643303 -1.0487443 0.30963212 -0.7113371 1.1266283 1.4949594 -0.047848623 0.18159592 -0.27912757 -0.78455853
524 -0.7945329 -1.0718644 0.38025063 -0.68683755 1.2042339 1.5869681 -0.145276 0.20075017 -0.2691148 -0.7688281
495 -0.116333134 -0.7924558 0.50624925 -0.92432314 1.2215741 1.6687782 -0.015725508 -0.29138967 -0.102792345 -0.9412395
558 -1.4510641 -1.4081482 0.7265632 -0.74379987 1.0011086 0.64808047 -0.31498185 -0.20677316 -0.5715425 -0.6695556
534 -1.1679118 -1.051759 0.43435735 -0.7656294 1.1699061 1.2307439 -0.17847024 0.12311143 -0.39047554 -0.8248056
532 -1.0112394 -1.170403 0.4156751 -0.7255348 1.1861757 1.2680154 -0.20924214 0.07561121 -0.32952955 -0.72013825
493 -0.046460915 -0.8128644 0.5520449 -0.8481522 1.209161 1.697885 -0.11358947 -0.291485 -0.12924615 -0.9695704
529 -0.8811916 -1.1588389 0.26331288 -0.67692643 1.2760159 1.4338949 -0.1023667 0.16844027 -0.30419174 -0.7655606
533 -1.0743026 -1.1433291 0.33189404 -0.76535153 1.1680797 1.2873201 -0.253719 0.14064886 -0.39533418 -0.85082304
491 -0.014078107 -0.8159132 0.59869266 -0.9442973 1.1069562 1.674492 -0.09545195 -0.36412176 -0.11206366 -0.97268355
569 -1.5625324 -1.3413295 0.8152614 -0.798999 0.90527666 0.67007345 -0.08544955 -0.35293794 -0.6213907 -0.7586967
560 -1.453845 -1.4115504 0.6800379 -0.73509604 1.0117526 0.7603409 -0.2208611 -0.28212318 -0.6317832 -0.63535106
489 0.040304217 -0.7403732 0.63565207 -0.8649957 1.0759137 1.7073121 -0.08518561 -0.29551747 -0.029105656 -1.0542818
539 -1.1770377 -1.1012723 0.52116376 -0.73834974 1.1235355 1.1775512 -0.2929091 0.075980775 -0.47474346 -0.6910097
561 -1.4690596 -1.4143522 0.8012344 -0.6939737 0.88244253 0.7247688 -0.35076332 -0.3017048 -0.64820385 -0.71272606
545 -1.3477031 -1.2102159 0.66528785 -0.79807806 1.1271234 0.973455 -0.20716076 -0.12895046 -0.50650764 -0.75598204
530 -1.0800074 -1.131251 0.4294214 -0.70372236 1.190229 1.3811928 -0.04390809 0.19754867 -0.27004758 -0.7852516
492 -0.01989717 -0.7786694 0.7283232 -0.99306655 1.0130451 1.7289625 -0.066404834 -0.3409199 -0.02261229 -0.96543354
527 -0.9060482 -1.1262574 0.34804815 -0.8256762 1.3226273 1.4071172 -0.13941118 0.15190406 -0.33817545 -0.6815444
521 -0.7705724 -1.0721481 0.30454144 -0.81367856 1.3048866 1.4954443 -0.17547947 0.15266712 -0.23846221 -0.8484769
573 -1.6254232 -1.382751 0.75642693 -0.7821949 0.88673925 0.5802318 -0.07063555 -0.35754716 -0.5965006 -0.89292806
488 0.032119792 -0.70944023 0.67499423 -0.87814456 1.1769136 1.5802183 -0.050021946 -0.45983383 -0.054194394 -1.0057744
559 -1.4569651 -1.3502597 0.7553739 -0.6588041 1.0504199 0.6777791 -0.18969683 -0.24132858 -0.5647899 -0.63710934
487 0.07063602 -0.6198679 0.7133644 -0.9274788 1.1453072 1.5384942 -0.07014115 -0.4750241 -0.024834564 -1.054214
526 -0.83315086 -1.2057308 0.24923296 -0.7055076 1.2143394 1.5227278 -0.11726523 0.13517629 -0.36763778 -0.7405172
496 -0.10186896 -0.8427404 0.5091656 -0.9507162 1.1749669 1.6864454 -0.12186863 -0.20844786 -0.082980245 -0.93396753
0 0.18962426 -1.4878815 1.009979 0.7455469 -0.6564453 0.25511736 -0.43289247 0.7955113 -0.5183032 -0.58984804
570 -1.6406175 -1.2593354 0.81532407 -0.75185764 0.8707967 0.6346896 -0.117331535 -0.3668863 -0.6968829 -0.8510573
486 0.1406856 -0.85702175 0.6631047 -0.9618509 1.2021704 1.5128251 -0.27575192 -0.55338687 -0.10741353 -1.0437641
518 -0.71015376 -1.0293181 0.39468822 -0.7655935 1.0885222 1.5429137 -0.059588946 0.115745895 -0.1975529 -0.809518
549 -1.4119445 -1.3272511 0.5800592 -0.78653854 1.0915977 0.8774367 -0.19613062 -0.050946537 -0.50111103 -0.67465854
556 -1.499041 -1.357696 0.7421202 -0.80362874 1.098621 0.58284706 -0.1270096 -0.31111994 -0.5145078 -0.7381813
563 -1.5235268 -1.3950924 0.73885655 -0.76034844 0.85811293 0.7627139 -0.2616039 -0.30821294 -0.7093973 -0.7418754
564 -1.5224206 -1.397207 0.61911935 -0.7565436 0.9139944 0.58553404 -0.19776401 -0.369949 -0.62737703 -0.885076
498 -0.12774697 -0.86119974 0.45348796 -0.8941986 1.1874686 1.6191362 -0.08683381 -0.16743118 -0.030819295 -0.97081053
517 -0.7068572 -0.92095894 0.37795994 -0.8306831 1.349968 1.6509503 -0.11614354 0.12629278 -0.26745448 -0.8932375
538 -1.3097386 -1.2142864 0.54026717 -0.79078394 1.1433861 1.1580229 -0.2351918 -0.0131085245 -0.48609132 -0.85508424
543 -1.3419286 -1.2316337 0.5649674 -0.63785523 1.0350244 1.0421581 -0.23295847 0.0016407821 -0.5347829 -0.6530121
566 -1.585852 -1.3706089 0.7256593 -0.8034078 0.8587873 0.6237832 -0.18377997 -0.32979187 -0.60793865 -0.9001131
500 -0.2088403 -0.94454926 0.4075918 -0.92632735 1.2771615 1.6220313 -0.07292038 -0.13910343 -0.09601647 -0.85764354
568 -1.6033498 -1.2397184 0.7594469 -0.74917 1.0566298 0.6327872 -0.045843452 -0.35759836 -0.61661524 -0.8216405
497 -0.24002282 -0.82055247 0.50086397 -0.9221358 1.1762751 1.6371622 -0.06572303 -0.23104975 -0.12701659 -0.9212794
519 -0.7871872 -1.0049354 0.43272737 -0.78075427 1.2262998 1.5877825 0.02249874 0.061083704 -0.2511172 -0.8134196
536 -1.1118541 -1.1034447 0.4772505 -0.756976 1.1829427 1.2800539 -0.15875979 0.04565722 -0.4235863 -0.78041625
547 -1.3985649 -1.2801304 0.6924748 -0.7944284 1.0301622 0.9729629 -0.27324888 -0.14826748 -0.56549466 -0.73741376
499 -0.18292229 -0.9386425 0.4129363 -0.9549611 1.2397634 1.6907951 -0.031559035 -0.05916491 0.026047323 -0.983324
520 -0.75535554 -0.96554685 0.4184382 -0.7911103 1.262213 1.4927711 -0.15914685 0.11776884 -0.18529364 -0.8507883
485 0.1132129 -0.7185301 0.59180796 -0.9112986 1.1638705 1.4720547 -0.13928063 -0.5289476 -0.05112198 -1.157352
548 -1.3908002 -1.1951166 0.76355904 -0.86352426 1.0644944 0.96112746 -0.2581875 -0.15269877 -0.52425283 -0.79837644
537 -1.2222822 -1.1381222 0.39274815 -0.80161273 1.175777 1.2283399 -0.12121022 -0.0020603144 -0.52851695 -0.74094373
506 -0.27804443 -0.91610396 0.33638206 -0.8342428 1.2600735 1.5209435 -0.01983693 -0.059525862 -0.017416315 -0.873116
542 -1.3066223 -1.1349587 0.5384461 -0.7902294 1.2426876 0.9758647 -0.25782204 -0.03945862 -0.5184669 -0.7028784
546 -1.3952456 -1.2688881 0.58805037 -0.76541144 0.9525337 1.0003339 -0.20429097 -0.037925806 -0.50011086 -0.7089975
567 -1.4807957 -1.3439897 0.78253347 -0.72396743 1.0209523 0.6724478 -0.17619388 -0.30514547 -0.58511114 -0.6761927
507 -0.43453783 -1.0175931 0.44632375 -0.78077143 1.2233974 1.6546541 -0.07927586 0.017234644 -0.08981425 -0.8687761
502 -0.26096278 -0.9252424 0.4286211 -0.80552226 1.1509554 1.7104839 -0.08085327 -0.072704874 -0.11109857 -0.8999799
535 -1.1311668 -1.2373497 0.35942495 -0.78095037 1.2743949 1.2485558 -0.3089017 0.054808248 -0.52697957 -0.76109
501 -0.20187739 -0.9207845 0.4255356 -0.8621439 1.2930133 1.6387864 -0.08597791 -0.08362524 -0.04410181 -0.8998806
508 -0.40570524 -0.96110076 0.37260813 -0.70976985 1.2009032 1.650485 -0.03507936 0.024326382 -0.14232774 -0.8355232
516 -0.6185742 -1.0555236 0.41377145 -0.743457 1.2474777 1.6607782 -0.106281884 0.13540386 -0.22609442 -0.72707844
504 -0.35213357 -0.92448455 0.45226717 -0.7749514 1.1639378 1.6531352 0.019187594 -0.05535646 -0.089099966 -0.8525587
515 -0.61961895 -0.87758625 0.44018105 -0.8129546 1.1929758 1.6120294 -0.014496973 0.119546235 -0.14531265 -0.7812626
503 -0.259942 -0.88435817 0.4728976 -0.90281147 1.0987592 1.6529261 -0.13581653 -0.044597533 -0.046158087 -0.90910834
480 0.42555773 -0.7462443 0.59340096 -0.37499556 0.91219467 0.8677963 -0.052464563 -0.8973653 -0.10388193 -1.4459686
505 -0.34358248 -0.9163109 0.3512723 -0.83707225 1.1809121 1.5927453 -0.068422265 0.039343275 -0.075764984 -0.8572018
509 -0.5202297 -0.94623655 0.3748792 -0.78994966 1.0801909 1.6933203 0.007395665 0.042315137 -0.121204995 -0.96609807
13 0.09094807 -1.8133686 0.7861893 0.6542138 -0.42899218 0.1298771 -0.26961026 0.94047636 -0.2927107 -0.5765893
494 -0.1173111 -0.8252532 0.614356 -0.8702864 1.171085 1.6558257 -0.06389917 -0.30430567 -0.09333997 -0.99465895
474 0.3752933 -1.076586 0.5181357 -0.09423699 0.72103816 0.87081337 -0.12619415 -0.92651695 -0.15029532 -1.5369023
565 -1.554589 -1.395393 0.56808746 -0.79917836 0.905819 0.6202941 -0.019474175 -0.3452658 -0.59987086 -0.8414442
523 -0.7595956 -1.0136201 0.35599408 -0.86435986 1.2131864 1.407205 -0.16601351 0.09453132 -0.3089749 -0.65575475
562 -1.6427772 -1.3574667 0.65510505 -0.8084552 0.96740323 0.568222 -0.23645715 -0.29422003 -0.6809913 -0.86206895
514 -0.5341361 -0.9880544 0.33571604 -0.78950596 1.1734463 1.5467657 -0.118398175 0.113960564 -0.14322154 -0.8086387
576 -1.6605966 -1.3774146 0.7962299 -0.594844 0.68430316 0.5713117 -0.1532189 -0.34023085 -0.6427611 -0.89756554
510 -0.53034693 -0.99985594 0.44482607 -0.7772982 1.1594006 1.7146146 -0.019617392 0.043014087 -0.11758809 -0.8835128
512 -0.5229527 -0.9329995 0.46421358 -0.82785475 1.4175283 1.5494516 -0.025223486 0.018817002 -0.09788819 -0.76418936
148 -0.18480085 -0.05459863 1.3496491 0.024432013 0.59862286 -0.63250005 0.15849525 0.9073175 -0.19249752 -0.3206277
483 0.4112378 -0.5306865 0.60111976 -0.63243294 0.94724643 1.0427136 -0.51391095 -0.6986693 -0.35998818 -1.0724146
740 -0.018447401 -0.0832732 1.2302479 0.022482704 -0.35511765 0.78014535 0.51345444 -0.26616988 -1.4406761 -0.18835382
249 -0.15605743 -0.128075 1.2902179 0.07985317 0.0119468905 -1.2930094 0.50097084 0.799194 -0.44953203 -0.72562337
424 -0.31722775 -0.4031359 0.43341732 0.63451546 1.2532976 0.6038699 -0.13791744 -0.29042006 -0.55975145 -1.5606252
513 -0.5434654 -1.0311495 0.37546062 -0.83099294 1.1795768 1.6851678 -0.13694389 0.06852727 -0.26808292 -0.7756657
511 -0.48026127 -0.91687095 0.35833967 -0.7946981 1.1496798 1.6707758 -0.08577218 0.07736837 -0.14520678 -0.8956355
617 1.5392773 -0.117552765 0.024892412 0.21352753 0.7036466 0.57728106 0.7936257 0.595166 -0.59657115 -0.68424076
143 -0.09111805 0.17106514 1.2692606 0.014498973 0.5045311 -0.27145955 0.16600892 0.7856454 -0.39919087 -0.06796944
282 0.5157905 -0.39420933 0.21853314 -0.48647493 0.7356202 -0.66759145 -0.75227207 -0.29925737 -1.0347043 -0.8928029
311 0.69279 0.30471098 0.8044664 -0.6806068 0.5677526 0.47977203 -1.0295318 0.039912853 -0.90499115 -0.6884031
142 -0.067837246 0.27795643 0.6451973 0.18417293 0.21718122 0.20830972 -0.0012087382 0.33637416 -1.239688 -0.07208983
279 0.60563934 -0.5812108 0.19716193 -0.3623363 1.0024644 -0.5497114 -0.87529147 -0.29107755 -0.89003336 -0.8760912
281 0.2954122 -0.6718524 0.26716754 -0.17904218 0.53191495 -0.62572056 -0.6840637 -0.52425945 -0.9477584 -0.86762995
421 -0.14432666 -0.62355703 0.68372023 0.5700281 -0.99222296 -0.20468433 -0.3639409 0.80451596 -0.9830819 -0.64771837
280 0.4548427 0.043129984 0.15593758 -0.22804558 0.6373281 -0.6911983 -0.34468555 0.045070756 -0.8037746 -0.9443892
577 -1.1348082 -1.6083155 0.46316716 -0.2844263 0.53129894 0.56957006 -0.3602097 0.46001226 -0.19332355 -0.22250956
422 -0.4288964 -0.5635794 0.3623498 0.36428243 0.669773 0.51612157 -0.21271071 -0.3300565 -0.44630086 -1.3372265
423 0.18167996 -0.49246794 0.35969454 -0.22882192 -0.21549064 0.5106398 0.8279331 -0.12051281 -1.2949187 -0.011837291
