749 10
201 -0.013684356 -0.79091805 0.2533142 -0.036851186 0.05524917 0.5371714 0.13533993 1.8156621 -0.55002093 -0.18624714
204 -0.013091062 -0.8226951 0.38339722 0.0019206777 0.104576 0.5751612 0.06414414 1.8189081 -0.4918675 -0.20933466
680 -0.046206772 -0.050128177 0.5839762 -0.07679911 -0.52854735 0.33345348 -0.61674666 0.085618205 -1.7585123 0.34172696
677 0.073469035 -0.01928799 0.567795 -0.14178976 -0.5144832 0.3833174 -0.6214344 0.03358213 -1.7036327 0.3806617
203 0.005047994 -0.75428385 0.33834368 0.015964357 0.08383315 0.53515697 0.15986624 1.7963566 -0.49068815 -0.24075322
156 0.70315117 -0.6297128 0.63161415 -0.96489173 0.7061142 -0.10639557 0.45042843 1.3199754 -0.26795098 -0.24056786
750 0.3894718 0.9803292 0.3316041 -0.33868903 -0.19270347 -0.134155 0.7081564 0.367258 -1.6304654 -0.31248596
749 0.40879336 1.0371675 0.33653632 -0.33982155 -0.20187119 -0.13652487 0.7222399 0.35851046 -1.6755804 -0.37165147
228 0.20403959 -1.3101131 0.44916996 0.18409845 0.44092512 0.8324073 -0.1898085 1.2733426 -0.42614618 -0.5364077
226 0.13241939 -1.3179305 0.41438556 0.15057395 0.35692412 0.8061338 -0.13427822 1.3147224 -0.51422167 -0.5097
751 0.47159126 0.9761081 0.31230134 -0.34704068 -0.16633445 -0.1405022 0.70944273 0.3094217 -1.6646482 -0.33711097
202 0.004773548 -0.7949126 0.358559 -0.008356464 0.107520156 0.47116286 0.05507354 1.7702793 -0.45712423 -0.22976792
658 0.3240515 -0.027200755 0.5803152 -0.54957694 -0.44781166 0.28543878 -0.3485424 -0.07466037 -1.72385 0.4947663
205 -0.015235259 -0.88942194 0.3174121 0.09118212 0.15267324 0.49658757 0.070065595 1.7982373 -0.5322844 -0.19608495
745 0.4724808 1.0519862 0.23750357 -0.35248736 -0.15864503 -0.06539172 0.732318 0.30389598 -1.6248778 -0.5014797
748 0.3950433 1.1295013 0.30599412 -0.28716573 -0.14728884 -0.1642374 0.68908805 0.37306914 -1.6878452 -0.3975923
676 0.034022175 -0.11290819 0.5917412 -0.124336876 -0.5445241 0.35229632 -0.6216999 0.070406996 -1.6639594 0.36299545
229 0.15707277 -1.3853225 0.40322572 0.19664282 0.30965963 0.7667814 -0.21287842 1.2398002 -0.52527237 -0.53298205
230 0.14552882 -1.4182135 0.42344207 0.11797236 0.26742142 0.7679765 -0.20570289 1.2115707 -0.55019546 -0.58728147
682 -0.050882 -0.11016799 0.500382 -0.062431414 -0.5913481 0.36854666 -0.6120404 0.12397337 -1.7363586 0.33386332
753 0.37204927 1.0131551 0.39168784 -0.34797028 -0.15779333 -0.19388309 0.5810219 0.256765 -1.6529708 -0.41377765
681 -0.05222973 -0.062133886 0.5658642 -0.11160522 -0.5719579 0.35931316 -0.6433583 0.115396194 -1.7544879 0.3237986
591 0.121726975 -0.21128629 1.4960381 0.26988712 0.9874573 -0.37099814 -0.80661345 -0.22118002 -0.9902205 -0.25830343
208 -0.022611469 -0.86987454 0.4058503 0.050357047 0.18092957 0.6139037 0.058098957 1.744251 -0.48562667 -0.31036282
657 0.3715818 -0.026348341 0.61105937 -0.59460175 -0.46269426 0.2713463 -0.38584173 -0.07433929 -1.6723258 0.48055992
746 0.38680467 1.0308871 0.30586147 -0.36326748 -0.17706351 -0.05027243 0.7345849 0.37190363 -1.6498482 -0.46190783
209 -0.008609689 -0.90037996 0.38949972 0.08207423 0.12611294 0.56484073 0.0006090707 1.7619792 -0.4560561 -0.32191923
160 0.67669725 -0.6558847 0.5897629 -1.0034009 0.5994117 -0.10232747 0.36481783 1.3371338 -0.2743929 -0.16597262
747 0.36379123 1.0359216 0.31789675 -0.3007549 -0.14457224 -0.089811094 0.7123735 0.37013206 -1.6249657 -0.43604562
590 0.15436056 -0.27630788 1.5401156 0.24998127 1.0160221 -0.34853017 -0.7577732 -0.22700295 -0.9535107 -0.3106002
234 0.20339097 -1.4231083 0.27227607 0.15024887 0.42005783 0.76011056 -0.21082814 1.1692272 -0.53129256 -0.6930028
774 0.3700518 0.26276258 1.1106409 0.8657756 -0.23462296 -0.9283059 0.5008613 0.4787284 -1.4544159 -0.24256477
628 0.17103416 0.0017633168 1.3273423 0.57443625 -0.29620406 -0.81235594 -0.20094873 0.4090399 -1.3317682 0.22765851
181 0.3670731 -0.5689277 0.27217764 -0.69570786 0.094909556 0.19085395 0.2585044 1.7284203 -0.4190706 -0.1060197
231 0.19516157 -1.3701341 0.38315842 0.13500011 0.3088954 0.82732254 -0.24563263 1.1825335 -0.5002471 -0.54604656
175 0.34979928 -0.53198665 0.42136633 -0.9043482 0.2243694 0.068224154 0.24898815 1.6406658 -0.38336504 -0.07207704
589 0.22384249 -0.2307088 1.5263317 0.27057344 1.0287642 -0.34221137 -0.784129 -0.29462188 -0.9764702 -0.26336214
155 0.728255 -0.6210343 0.60421056 -1.0408853 0.75743604 -0.121408895 0.45036784 1.2086024 -0.28662136 -0.2202932
212 -0.02171352 -0.9377232 0.40935454 0.1387382 0.16419078 0.58408886 -0.0075613055 1.6500051 -0.467888 -0.35262886
154 0.6984857 -0.6423235 0.62285686 -0.97030294 0.7439179 -0.08171114 0.48150283 1.1770463 -0.3069654 -0.22085656
223 0.065533124 -1.2434653 0.44486442 0.17748123 0.3630386 0.7548358 -0.15427269 1.3746421 -0.47870842 -0.48634836
675 0.0148439305 -0.10568336 0.6285366 -0.1858013 -0.5558709 0.38418403 -0.61169964 0.041349296 -1.716968 0.29857057
679 0.00041534574 -0.14038646 0.57292694 -0.13009399 -0.54177 0.29413047 -0.5631993 0.069856904 -1.6951628 0.3003207
227 0.17732474 -1.3623433 0.44614637 0.17557624 0.36592817 0.83331233 -0.17830724 1.2798738 -0.49296573 -0.50803566
213 -0.029428225 -0.9894517 0.47623295 0.18436444 0.20961584 0.6550932 -0.053286962 1.6123079 -0.4645492 -0.32816207
581 0.18488522 -0.28328976 1.4239243 0.41102925 1.1524553 -0.2176702 -0.7644699 -0.36877328 -1.0660383 -0.2269656
200 0.11022578 -0.80508196 0.2561504 -0.059888512 0.01459714 0.5142777 0.09525025 1.829537 -0.4778568 -0.2407919
592 0.10059698 -0.30482984 1.4747475 0.27004626 0.94550395 -0.43790293 -0.7878804 -0.21599053 -1.0378588 -0.27362767
673 0.06440506 -0.14450833 0.6279714 -0.25743517 -0.52827054 0.3928018 -0.60225666 0.031189445 -1.6740068 0.38987625
308 1.7417278 0.88314104 0.5085105 0.27363855 0.522317 0.14138816 -0.47897416 0.5984912 -0.1199272 0.32658762
211 0.008954794 -0.9377782 0.45081592 0.19596191 0.2348676 0.60835254 -0.030696178 1.6800616 -0.42253247 -0.24633077
165 0.47119313 -0.5562428 0.5609783 -1.0318923 0.50053793 -0.07397962 0.27370295 1.4491827 -0.3133619 -0.16677587
153 0.70692575 -0.6664487 0.6090215 -0.9980804 0.68524086 -0.14707008 0.5117064 1.1735696 -0.3611217 -0.23248895
232 0.20443219 -1.4069515 0.4284249 0.13680872 0.4282703 0.86878943 -0.16923349 1.2204509 -0.51798016 -0.53081495
758 0.40509427 0.8367544 0.4614781 -0.2227877 -0.28719485 -0.32411814 0.52413887 0.23171565 -1.7456981 -0.22994575
762 0.39248607 0.7808512 0.4135269 -0.15759102 -0.32782656 -0.31609726 0.46374103 0.258198 -1.6924093 -0.08972071
293 1.684789 0.597787 0.48251918 0.58551115 -0.014861081 0.58494604 -0.4474687 0.7285768 -0.30181247 0.5272844
744 0.4522058 1.0471011 0.34281263 -0.3447168 -0.09407822 0.00778972 0.75849414 0.30695388 -1.5579212 -0.5047371
584 0.23104371 -0.3147947 1.4849232 0.35945553 1.0167484 -0.29407507 -0.79187787 -0.35993192 -1.0548239 -0.22418219
761 0.36683413 0.77833503 0.47937852 -0.21371986 -0.30867127 -0.34352952 0.45217386 0.26461083 -1.6727582 -0.14435954
754 0.4085052 0.9746466 0.42764175 -0.25979835 -0.2441511 -0.24558944 0.5476465 0.26345444 -1.6776475 -0.33171645
585 0.20871101 -0.22356762 1.4669846 0.29927486 1.0878049 -0.2622429 -0.7830926 -0.3770603 -1.0181537 -0.29010585
666 0.22583964 -0.1621408 0.62577885 -0.42715487 -0.4989938 0.3388159 -0.55473554 -0.100034714 -1.6965308 0.33886832
210 0.03308576 -0.9604988 0.36378622 0.18842824 0.14225559 0.56033504 0.042936977 1.700504 -0.48461655 -0.31561223
665 0.19968756 -0.120611876 0.6458667 -0.45470396 -0.5070173 0.4353528 -0.53061175 -0.04583429 -1.6955245 0.42275771
579 0.24204364 -0.33549327 1.4175594 0.37961763 1.1152045 -0.2819119 -0.76717794 -0.38728854 -1.0531707 -0.2294613
182 0.37920344 -0.5381424 0.20185848 -0.68869615 0.07773011 0.2851895 0.26479894 1.7061412 -0.400195 -0.0925909
151 0.72957075 -0.68427414 0.57647735 -1.0208282 0.7207626 -0.10942573 0.49645364 1.0520916 -0.34989786 -0.29170832
233 0.27076077 -1.4652945 0.34550846 0.111863814 0.3334319 0.8055924 -0.28250486 1.1756504 -0.50557053 -0.53749394
214 -0.042630743 -1.0177265 0.50135493 0.16172352 0.30402836 0.65812093 0.0036537475 1.6300031 -0.48902094 -0.37983394
760 0.37789714 0.77582216 0.43303132 -0.22100866 -0.28411156 -0.34438497 0.48211396 0.21259226 -1.7245549 -0.2104597
655 0.35854658 -0.010948413 0.69360244 -0.6318554 -0.45692974 0.25310266 -0.40037894 -0.11586088 -1.730382 0.46752304
215 -0.021348223 -1.0194383 0.49830648 0.1969455 0.19618674 0.6939145 -0.025442088 1.5591465 -0.49323213 -0.38226864
672 0.09732121 -0.14467302 0.63181835 -0.25837225 -0.53477156 0.4236868 -0.6124186 0.028065335 -1.6010237 0.34108365
167 0.49848738 -0.5647498 0.48139805 -1.0400116 0.39571488 -0.0031536615 0.28244057 1.5165541 -0.3537446 -0.065526105
583 0.22166772 -0.33007178 1.3979472 0.3750782 1.1115679 -0.34825867 -0.78439283 -0.3401156 -1.0355598 -0.25709775
678 0.007805396 -0.020084307 0.5779962 -0.17131492 -0.5182151 0.3152139 -0.6474302 0.04495739 -1.7141305 0.28005886
756 0.35518035 0.9382575 0.43867263 -0.3378623 -0.26612765 -0.29598472 0.51379454 0.28958964 -1.7127812 -0.24934368
763 0.402064 0.7192756 0.47107485 -0.15679222 -0.36333016 -0.34150818 0.45769033 0.19952956 -1.7559136 -0.16811164
236 0.3085465 -1.4278796 0.4019364 0.08576534 0.34070268 0.8227355 -0.2287678 1.1028526 -0.46112216 -0.644312
759 0.3860178 0.8351691 0.45691672 -0.2695472 -0.2745074 -0.2975406 0.53162223 0.24122675 -1.7146628 -0.20102356
183 0.32856792 -0.49275193 0.19760716 -0.68820614 0.11521014 0.2761222 0.31230897 1.775896 -0.4274772 -0.08953469
648 0.16834213 0.12249042 0.7314557 -0.37382504 -0.42297307 0.047726337 -0.3415193 -0.0037235934 -1.6853079 0.31977844
235 0.22561327 -1.4755536 0.37681124 0.053320568 0.3873199 0.88024765 -0.18005617 1.1139237 -0.568891 -0.5467876
157 0.6602139 -0.6628913 0.6410784 -1.0240923 0.59356046 -0.13651182 0.38189605 1.2654644 -0.31640968 -0.16897854
752 0.42713398 0.94103515 0.31296563 -0.3166974 -0.17766698 -0.19411297 0.6877935 0.31073192 -1.6419443 -0.28382567
159 0.6145141 -0.5974736 0.5872348 -1.0215541 0.6775017 -0.09871997 0.37685642 1.3189225 -0.29793534 -0.14710568
161 0.61353064 -0.6255947 0.64581287 -0.9845966 0.6215282 -0.18654066 0.34890127 1.3915604 -0.27876723 -0.19094971
593 0.16406374 -0.27765286 1.5557656 0.24023828 1.0122612 -0.4077053 -0.7574672 -0.21425837 -0.9846191 -0.28453416
220 0.110262975 -1.1986041 0.49774835 0.17968316 0.26377153 0.7484151 -0.13391574 1.4019625 -0.45616478 -0.4133118
207 -0.029126726 -0.91383725 0.4157775 0.081078656 0.105356775 0.5124217 0.025651934 1.7519107 -0.51474345 -0.17248015
162 0.6215355 -0.5360507 0.584617 -0.96540946 0.51630723 -0.024869407 0.33645433 1.3352236 -0.2706742 -0.14607824
225 0.085929334 -1.2917191 0.43725127 0.19333497 0.34061807 0.7959041 -0.23925993 1.3224505 -0.48891336 -0.4574079
291 1.6802903 0.45837426 0.4708108 0.64364904 0.01289793 0.46145704 -0.51184803 0.7499244 -0.2600309 0.53796494
177 0.40104184 -0.539096 0.38976577 -0.79324806 0.2088851 0.07972455 0.2870991 1.6600289 -0.3663956 -0.06350232
168 0.40739924 -0.58508575 0.58561987 -1.0244752 0.34619686 -0.104983516 0.26582342 1.4907479 -0.38026133 -0.12661235
770 0.33672455 0.25675508 1.1320394 0.7138034 -0.15777071 -0.85600394 0.4875565 0.45146388 -1.4125313 -0.11384105
757 0.32911435 0.88077545 0.4468245 -0.33182266 -0.23221843 -0.31193486 0.5128656 0.2821363 -1.6940788 -0.21482797
222 0.08044815 -1.1950945 0.47220388 0.13241497 0.3084839 0.7572593 -0.11940922 1.4012623 -0.47752532 -0.5309324
180 0.32315704 -0.5336759 0.22768684 -0.7358041 0.14299442 0.2225492 0.28228548 1.7089682 -0.4364551 -0.07945062
224 0.08741209 -1.2509022 0.4838248 0.2142669 0.30826506 0.78010905 -0.19231223 1.3655785 -0.4617972 -0.51201695
221 0.038107924 -1.1423407 0.43020353 0.2305207 0.29759878 0.78777283 -0.13313118 1.4150003 -0.47678337 -0.47326297
290 1.6413404 0.43123487 0.48640725 0.69678235 0.08017715 0.5810355 -0.53210485 0.6686263 -0.27480987 0.473008
642 0.17550243 0.32809386 0.8043933 -0.24066097 -0.35035637 -0.10168337 -0.19344799 0.087658465 -1.5573624 0.30753317
775 0.39639476 0.30306917 1.121667 0.87457484 -0.19109611 -0.9414847 0.49910066 0.46897107 -1.4402434 -0.17496775
769 0.3248896 0.26815554 1.1482085 0.72067565 -0.24327749 -0.832837 0.42799425 0.44315988 -1.4191164 -0.19299902
653 0.31759432 0.028412094 0.5919374 -0.60678977 -0.4547695 0.2015538 -0.32634652 -0.07755056 -1.705713 0.36347544
622 0.08381947 0.0803928 1.4145217 0.47038028 -0.07082318 -0.8424854 -0.23275901 0.45316654 -1.2448069 0.29896355
586 0.20688935 -0.29717475 1.4986925 0.3433012 1.0451217 -0.24967979 -0.8506956 -0.34702015 -1.0232989 -0.28374162
152 0.80115396 -0.6629928 0.6477045 -0.9468315 0.68081844 -0.12030133 0.5295572 1.1040628 -0.30736828 -0.28823635
764 0.38898128 0.71044505 0.46897662 -0.18802746 -0.3139156 -0.35402423 0.4439151 0.21640931 -1.725668 -0.06017813
594 0.07850464 -0.19571766 1.5463885 0.22449371 0.98806256 -0.47967678 -0.81993914 -0.18733324 -0.98926634 -0.27599803
771 0.3255224 0.27367833 1.1459513 0.78926826 -0.16115731 -0.87731665 0.5608928 0.49943984 -1.4495924 -0.14493398
179 0.35217565 -0.4961338 0.24018778 -0.80929273 0.09739176 0.2291423 0.20622554 1.7097315 -0.42161813 -0.028330622
580 0.25309244 -0.31819004 1.4193429 0.40186155 1.1049936 -0.24877 -0.69011056 -0.36292908 -1.0453885 -0.17631507
178 0.38521528 -0.5198654 0.33530405 -0.80241674 0.111832835 0.0898906 0.2199921 1.703852 -0.37216353 -0.058411125
656 0.36141443 -0.044276796 0.6060393 -0.63571626 -0.4524707 0.2101962 -0.34598285 -0.09565247 -1.6926991 0.45989966
289 1.6352264 0.41443118 0.5125062 0.74351454 0.03920829 0.588183 -0.5384606 0.70029765 -0.25667584 0.47502363
292 1.7130618 0.545262 0.4315426 0.6244827 0.074972436 0.57465285 -0.49006122 0.7150328 -0.26483825 0.49174458
654 0.35654044 -0.011864894 0.6399233 -0.5920953 -0.44331178 0.2656812 -0.34761688 -0.121897504 -1.7316432 0.42958015
166 0.55133563 -0.5613896 0.49863687 -0.95000005 0.42727023 -0.03229808 0.34767443 1.471654 -0.3276428 -0.15090385
173 0.41069213 -0.46066043 0.42231297 -0.9186995 0.29960233 0.006139995 0.3254153 1.6352271 -0.374728 -0.058201212
640 0.15961117 0.3164174 0.8311706 -0.17234328 -0.28833327 -0.13645746 -0.119214706 0.045618895 -1.6516173 0.28898674
639 0.14537628 0.3096635 0.81238544 -0.19097738 -0.33024344 -0.26421213 -0.10394343 0.07250893 -1.651117 0.20382223
664 0.14381595 -0.046900537 0.63788825 -0.4757217 -0.43372524 0.3769209 -0.5286753 -0.023850318 -1.6678182 0.42374304
237 0.33490077 -1.4702709 0.4277514 0.08890941 0.3120348 0.7665367 -0.12564617 1.071247 -0.53535223 -0.6282212
663 0.26056886 -0.18010615 0.63323015 -0.4576304 -0.546094 0.28003013 -0.488736 -0.09873872 -1.7362664 0.34229544
776 0.3903255 0.3286539 1.058754 0.92759514 -0.24900791 -0.8756106 0.44781607 0.4623522 -1.3904945 -0.17484406
643 0.19277513 0.25665876 0.7747867 -0.26491642 -0.374591 -0.08593978 -0.2075598 0.03984849 -1.6436211 0.30868652
184 0.36857522 -0.5754113 0.22782509 -0.66870534 0.0063141654 0.28815654 0.2648336 1.7164778 -0.44112152 -0.11522292
286 1.5940764 0.46665508 0.3564116 0.7371649 0.01707304 0.6322012 -0.5427775 0.7227937 -0.32816544 0.4990477
621 0.13087855 0.048790682 1.4411294 0.480068 -0.04437076 -0.8371048 -0.24679032 0.38770014 -1.2335922 0.26357424
582 0.2391712 -0.33728343 1.5018797 0.36322457 1.1306993 -0.2278884 -0.75337964 -0.35126373 -1.023864 -0.26391435
670 0.12937994 -0.106862776 0.6146892 -0.27713355 -0.51440144 0.40573138 -0.5906506 -0.026371075 -1.7095817 0.3615029
755 0.3383131 0.89119196 0.33545688 -0.24868096 -0.19244424 -0.28607017 0.5455266 0.24405791 -1.7406744 -0.2429253
674 0.03130594 -0.06369155 0.62983286 -0.22521983 -0.5674306 0.337338 -0.6273499 0.073679194 -1.707493 0.3103905
287 1.6157432 0.45828456 0.3606369 0.7521899 0.05499083 0.55756986 -0.4872306 0.74844205 -0.2856374 0.47401333
669 0.123191535 -0.11694223 0.5740072 -0.4044723 -0.5300381 0.3822727 -0.60041577 -0.008075356 -1.6928788 0.3458018
294 1.6710011 0.5230343 0.5477699 0.59178823 0.0065790266 0.5043487 -0.5944563 0.7695382 -0.23126025 0.54157525
176 0.46465817 -0.5418681 0.28040197 -0.9060061 0.19213046 0.097645 0.32442868 1.6258233 -0.4069184 -0.10899282
217 -0.022124277 -1.0619186 0.4790444 0.10147983 0.23968579 0.6952003 -0.06421101 1.4573328 -0.5102875 -0.44310102
219 0.085499085 -1.1114873 0.5465868 0.18208954 0.35527444 0.74374133 -0.05908635 1.4637264 -0.41538295 -0.38816023
773 0.38263172 0.24487609 1.1547574 0.8137885 -0.19119874 -0.9769329 0.50053996 0.45888153 -1.4399494 -0.21625055
164 0.50668806 -0.53934264 0.505939 -0.9953035 0.4812832 -0.056156095 0.32316747 1.4057405 -0.32521307 -0.17412962
218 0.03715235 -1.1315581 0.50240695 0.119793884 0.33435532 0.8096236 -0.0628186 1.4383806 -0.48124164 -0.3620257
641 0.1419799 0.32557333 0.8319882 -0.32258636 -0.3296825 -0.13772611 -0.16261435 0.07945552 -1.6590012 0.28913006
623 0.10091491 0.11065886 1.3857334 0.62869364 -0.1253056 -0.8517248 -0.24234594 0.47129288 -1.2670932 0.23916243
588 0.19021957 -0.26435012 1.5475252 0.3393095 1.0581439 -0.3261009 -0.77696097 -0.28911257 -1.0037955 -0.2505047
240 0.44221252 -1.5100805 0.32308406 -0.011284392 0.21798225 0.78247654 -0.1322256 1.0239195 -0.5482196 -0.59131235
647 0.22417425 0.20159048 0.6502009 -0.3360461 -0.43886173 0.0064301104 -0.3019174 -0.0016702266 -1.6912959 0.32830548
671 0.10895008 -0.12133527 0.5998077 -0.3078687 -0.58098847 0.35477483 -0.6099315 0.027414393 -1.7198683 0.36064318
772 0.3631687 0.2701472 1.2314514 0.75524753 -0.17677382 -0.93250024 0.5369612 0.45729083 -1.4900168 -0.18931782
158 0.63945013 -0.60751534 0.6370888 -1.0592955 0.5774527 -0.09197444 0.42305565 1.2744173 -0.31711677 -0.14954752
668 0.24921435 -0.0861371 0.5972754 -0.37140414 -0.5503112 0.41395247 -0.5707432 -0.04834338 -1.6489834 0.3930811
16 0.26611805 -0.45236304 -0.8677052 0.20418371 1.0637987 -0.3573359 0.013574613 0.7690881 -1.1236837 -1.1625342
171 0.45999694 -0.532204 0.47145352 -0.95650655 0.34127113 0.0028320183 0.35339668 1.5822781 -0.38105962 -0.07224433
660 0.23946978 -0.034277774 0.6169514 -0.5739019 -0.4413416 0.3589746 -0.47413307 -0.06855389 -1.7027552 0.43452442
17 0.22697188 -0.4545966 -0.9404809 0.09223475 1.0608569 -0.24665865 -0.04821682 0.7619446 -1.1588151 -1.1689512
638 0.21811132 0.35161778 0.80914575 -0.18023123 -0.33844894 -0.23484778 -0.101288214 0.053135782 -1.6373152 0.2046307
163 0.564799 -0.60264343 0.5798449 -1.0302672 0.4651784 -0.12536967 0.36489928 1.401425 -0.36081773 -0.088854454
578 0.19435659 -0.35411397 1.4411643 0.39104995 1.115411 -0.17445056 -0.73477787 -0.35662135 -1.0056925 -0.20057322
253 1.2842429 0.2801964 -0.027443819 1.5099294 0.25118026 0.47385672 -0.7412975 0.54655576 -0.5192529 -0.20631121
169 0.4491824 -0.5926709 0.57427114 -0.98409563 0.29550844 -0.016405372 0.31666958 1.5393803 -0.3800897 -0.083490126
257 1.3024689 0.32135507 -0.11352345 1.5150795 0.15731782 0.4914135 -0.65402037 0.5585694 -0.6002534 -0.09377191
717 0.66931325 0.46590304 0.5980323 0.13990587 0.58017576 1.1028404 0.879572 -0.120286115 -1.2543052 -0.7986576
199 0.007089549 -0.7720955 0.22931464 -0.14831772 0.0052152714 0.5630103 0.11172768 1.8057373 -0.5565813 -0.21812949
285 1.5749663 0.48060912 0.23182343 0.75227815 0.027499953 0.59600973 -0.4540595 0.70541286 -0.32353035 0.39919358
265 1.3657 0.25134435 -0.029571908 1.3868955 0.15473437 0.6007177 -0.65535665 0.5867768 -0.4985468 0.021984776
264 1.375112 0.23006365 -0.019065214 1.4073161 0.20725207 0.5136323 -0.7381374 0.5428837 -0.5265816 0.036880095
255 1.3201354 0.29314703 0.061938137 1.5807416 0.23900564 0.49436152 -0.7343793 0.5147956 -0.5573925 -0.22442523
662 0.25569946 -0.12212768 0.60499716 -0.5064719 -0.4337958 0.26892576 -0.44921252 -0.105370626 -1.6988715 0.39541182
733 0.6300563 0.6131559 0.52250636 0.07699398 0.5191138 1.0004655 0.9057728 -0.08156734 -1.352728 -0.8303613
172 0.31211445 -0.5693827 0.50105476 -0.9121555 0.32546803 -0.07545044 0.22134711 1.5989171 -0.38654616 -0.103064425
174 0.41697133 -0.4866415 0.42461848 -0.8876075 0.24263681 0.06907214 0.27895653 1.6369277 -0.34159568 -0.093657374
716 0.58790076 0.5031966 0.57994914 0.11512109 0.5554289 1.1227871 0.8908411 -0.087119244 -1.3248305 -0.72216827
738 0.60412973 0.6789343 0.68920267 -0.089590505 0.38963792 0.98754925 0.90513664 -0.048337705 -1.4110293 -0.9184224
185 0.32480916 -0.5028339 0.1777896 -0.63704276 0.09880283 0.33259016 0.26906848 1.7774476 -0.42441148 -0.054653708
170 0.44582957 -0.5700243 0.4926668 -0.9567367 0.34655786 -0.023929821 0.2787709 1.5538198 -0.35019618 -0.12869683
19 0.27358723 -0.40524837 -0.97027034 0.18263792 1.0873555 -0.35560542 -0.093878664 0.80757815 -1.1628228 -1.0806642
737 0.56830126 0.6407963 0.57289654 -0.003389978 0.4466406 0.9264616 0.9106825 -0.02275567 -1.3655765 -0.88577443
251 1.2479069 0.29867914 0.04878939 1.5295593 0.20137863 0.45542672 -0.75218374 0.54137546 -0.53934836 -0.17683128
254 1.2524269 0.2507507 0.01388237 1.5268363 0.24300043 0.48394713 -0.7070754 0.51778 -0.5298452 -0.18930589
238 0.37507987 -1.4903486 0.5004446 0.07265253 0.29216096 0.7655344 -0.19557081 1.0806426 -0.47618002 -0.5623626
718 0.63355744 0.5053435 0.6336438 0.11106576 0.6375185 1.1161389 0.80654573 -0.2127437 -1.3084489 -0.76470345
150 0.7034911 -0.7543621 0.6261379 -1.0356686 0.7246688 -0.114135996 0.4991551 1.0579362 -0.4067146 -0.16440715
766 0.35806862 0.6450785 0.52925736 -0.14337628 -0.37411374 -0.32041094 0.36729375 0.202461 -1.6934876 -0.08515136
765 0.37633875 0.72137266 0.5182004 -0.08756136 -0.33095992 -0.2629946 0.3767652 0.19328709 -1.7257268 -0.06383377
256 1.3258069 0.24310233 -0.07663974 1.5397186 0.20406678 0.4820738 -0.68679464 0.56456023 -0.5491244 -0.1894322
284 1.5725611 0.4526631 0.2750014 0.81256795 0.039712183 0.59950584 -0.5400167 0.7017684 -0.3581099 0.47250435
646 0.21971588 0.22766864 0.7477647 -0.28317896 -0.3701686 -0.04167757 -0.24894708 0.008517308 -1.6429724 0.39097828
614 0.031254742 -0.099116534 1.5700468 0.16458529 0.76278824 -0.69439596 -0.6792868 -0.0024669112 -1.0018802 -0.23261033
216 -0.03288497 -0.99914217 0.43075445 0.14985353 0.33009598 0.7199706 -0.09481545 1.5004373 -0.44547135 -0.4252128
206 0.05759329 -0.89894664 0.3345838 0.098303296 0.11368441 0.529198 0.034589417 1.7162459 -0.46688867 -0.19406316
715 0.5648528 0.44760647 0.46634844 0.11594906 0.62002444 1.0290263 0.79002374 -0.13438393 -1.2519442 -0.7622456
731 0.657185 0.5114495 0.6958794 0.0020825877 0.4930559 1.0969598 0.8879656 -0.1123208 -1.3573056 -0.76334214
732 0.7125028 0.61060405 0.6136166 -0.0034326501 0.48574272 1.0504426 0.8510229 -0.15077338 -1.3581365 -0.8299746
239 0.36972162 -1.474069 0.3456947 0.03934088 0.2680962 0.8406375 -0.18163611 0.9466479 -0.5410693 -0.6445359
30 0.27330548 -0.47930053 -1.1153853 -0.14255285 0.9613115 -0.4239215 -0.36085308 0.70660615 -1.261642 -0.9208308
18 0.20834357 -0.45166287 -0.9033137 0.22897956 1.0397979 -0.39450228 -0.035129096 0.7555857 -1.206274 -1.1313744
637 0.14457777 0.39932606 0.7994817 -0.18019521 -0.27758566 -0.32831535 -0.032363445 0.15636113 -1.6271333 0.27264288
37 0.24466841 -0.5378028 -1.0184513 -0.11273793 1.0052482 -0.54441166 -0.5236508 0.74139404 -1.2073388 -0.66077214
587 0.24165353 -0.31132722 1.4766368 0.3047896 0.98485315 -0.38340768 -0.8185539 -0.33942938 -1.006089 -0.32152122
630 0.16022685 0.0381027 1.3557136 0.56231135 -0.2710764 -0.71031684 -0.11990241 0.36867872 -1.4159675 0.21854967
2 0.29192668 -0.36096415 -0.70413595 0.60354877 1.0457752 -0.54413897 0.17089343 0.9363627 -1.0438632 -1.2471341
263 1.3550408 0.31832564 -0.080990896 1.4007449 0.14655453 0.5908571 -0.7020607 0.5006034 -0.59686464 -0.015202677
6 0.34488717 -0.29324758 -0.73288953 0.48921663 1.1461422 -0.58331877 0.21368738 0.87362975 -1.0691026 -1.2228719
27 0.21862455 -0.46406937 -0.9839143 -0.036131103 1.0669032 -0.38399473 -0.2712838 0.6818857 -1.1861137 -0.96696556
261 1.3296949 0.30881464 -0.053727187 1.3930043 0.14619586 0.5515744 -0.7374977 0.5279347 -0.5583423 -0.013239421
198 0.0706809 -0.74516636 0.26582667 -0.14108096 0.076285645 0.50145096 0.09419104 1.8001674 -0.46803302 -0.122439414
768 0.2540279 0.5701555 0.79618245 0.148354 -0.30320835 -0.55978525 0.33573118 0.31134984 -1.6204413 0.0024558143
266 1.3800596 0.27338737 -0.06903585 1.2958516 0.09688636 0.6335646 -0.7014559 0.5530661 -0.53671825 0.03520753
644 0.19164163 0.27343047 0.78672874 -0.26703468 -0.3500224 -0.09860601 -0.21498986 0.01158056 -1.668097 0.32730192
252 1.2631066 0.15928623 0.07340988 1.5038866 0.21766368 0.54786444 -0.7643575 0.49307054 -0.51112115 -0.18200342
186 0.31094372 -0.5500571 0.16556318 -0.5941684 -0.0064657014 0.3899683 0.30129892 1.7950349 -0.449759 -0.09427716
197 0.11075545 -0.71705943 0.20986256 -0.21911553 0.033288985 0.5058739 0.16335948 1.8154908 -0.49624562 -0.09917055
4 0.31678566 -0.34986785 -0.74132013 0.5927795 1.0654392 -0.6209641 0.14799047 0.9849732 -1.0704631 -1.2024782
26 0.24821082 -0.420499 -1.0577619 -0.103638515 1.0572215 -0.32398283 -0.18795975 0.7375876 -1.2398838 -0.955197
3 0.3264657 -0.31413156 -0.73722184 0.5794794 1.0310684 -0.603939 0.17050432 0.952968 -1.0619563 -1.2467836
645 0.216544 0.27796024 0.75105137 -0.30276915 -0.38479447 -0.054291714 -0.22713616 0.032925166 -1.6521542 0.3514591
9 0.25383914 -0.37754333 -0.82852423 0.48390028 1.0686207 -0.45287317 0.055838503 0.8912279 -1.1250645 -1.2195429
288 1.6228781 0.48098227 0.42485675 0.736135 0.074483976 0.603696 -0.54984444 0.72406083 -0.2701121 0.49769244
11 0.25352812 -0.3393901 -0.84666073 0.4043778 1.1577538 -0.48055664 0.10381844 0.8342216 -1.204819 -1.2098503
15 0.32444993 -0.4244097 -0.9177665 0.36152127 1.1128774 -0.32179525 0.024306566 0.78612924 -1.1208755 -1.1652198
667 0.25309086 -0.11959198 0.6012685 -0.42380616 -0.47861454 0.34053987 -0.5228356 -0.062171128 -1.6613554 0.47459507
31 0.27093974 -0.5460835 -1.0829617 -0.11937298 1.0143961 -0.39168024 -0.33615237 0.77119344 -1.2151275 -0.8261419
20 0.2330853 -0.3983232 -0.9789343 0.10661873 1.0759951 -0.41867107 -0.07688142 0.76240265 -1.2362322 -1.0726181
32 0.24927288 -0.53304696 -1.0291163 -0.12706776 0.9691131 -0.43224147 -0.37081745 0.7210796 -1.2110771 -0.86231303
632 0.15488042 0.14007446 1.3019246 0.54922587 -0.2689772 -0.66604966 -0.108020954 0.38214067 -1.4084327 0.28847563
661 0.24519697 -0.0451556 0.610888 -0.5309943 -0.43523926 0.26851243 -0.45818037 -0.05227242 -1.6881288 0.45394957
23 0.28065383 -0.43154177 -1.0330949 0.03299391 1.0225155 -0.36642602 -0.17740428 0.70842147 -1.2227485 -1.1365364
719 0.65150183 0.50398874 0.5824884 0.12214594 0.64800286 1.118761 0.814471 -0.19462103 -1.3232743 -0.7098014
736 0.6538117 0.57740504 0.62661237 -0.013768087 0.44450456 0.9145689 0.93457544 -0.0979938 -1.3713615 -0.78690493
260 1.3279573 0.28611496 -0.062765546 1.4515374 0.15399009 0.5400555 -0.7044579 0.4920566 -0.62323487 -0.02369354
22 0.22690734 -0.43043232 -0.93421185 0.06138307 1.0431621 -0.37227315 -0.17661639 0.7398205 -1.153227 -1.1045469
44 0.18381228 -0.63703007 -0.94135946 -0.12803993 0.9226157 -0.6773527 -0.6264217 0.8178518 -1.1777169 -0.49516365
636 0.1471603 0.42534402 0.86513543 -0.1758755 -0.29668772 -0.3010757 -0.04227258 0.19424722 -1.5640299 0.27716613
615 0.046615757 -0.027194912 1.6634909 0.20197618 0.661324 -0.6438766 -0.6678855 0.056490146 -0.9797532 -0.23235819
295 1.6840854 0.5380498 0.5863722 0.54870385 0.055827186 0.49405977 -0.4977744 0.72320056 -0.20553812 0.5069094
262 1.4092484 0.25884488 0.024835993 1.4329325 0.21244869 0.61316496 -0.6901603 0.5031321 -0.52510256 -0.010318526
302 1.7543992 0.6279149 0.58979005 0.40178993 0.1853969 0.37492153 -0.48925814 0.7169785 -0.1451573 0.5139264
38 0.22895095 -0.5304994 -1.0134329 -0.20907903 0.98011124 -0.60874677 -0.45065188 0.78571385 -1.2425337 -0.6558198
730 0.6097724 0.5596446 0.65564394 0.052066106 0.55906296 1.0631422 0.8799621 -0.11073452 -1.3504175 -0.8028831
735 0.6205629 0.629239 0.6363921 0.0060520233 0.4375922 0.9398565 0.903484 -0.05914481 -1.3548187 -0.8715198
270 1.4279084 0.27237937 -0.023118531 1.2242472 0.14498574 0.53420997 -0.696088 0.5948669 -0.4524415 0.11226716
33 0.2640655 -0.49317768 -1.0405813 -0.15335725 0.9998258 -0.5025504 -0.406128 0.73044765 -1.2474654 -0.7588579
734 0.6293554 0.61749756 0.68510795 0.015273752 0.45581275 1.0478944 0.90648484 -0.04952017 -1.324972 -0.87618333
193 0.17645603 -0.60028714 0.22682993 -0.3898731 0.042967983 0.50040823 0.10865175 1.8099538 -0.4047004 -0.11642334
267 1.405708 0.29617253 -0.02457256 1.3167306 0.081617154 0.56696814 -0.6829635 0.5821305 -0.5319741 0.102678895
595 0.08881719 -0.11620983 1.5411712 0.22365287 0.9891525 -0.46086836 -0.7712307 -0.13336264 -0.95374066 -0.32185838
10 0.2554442 -0.34081846 -0.85418934 0.44683477 1.1623814 -0.4474085 0.10756778 0.91203666 -1.1400183 -1.2500781
651 0.31602702 0.16710763 0.47582301 -0.5677392 -0.40248603 0.12495526 -0.18220332 -0.089796074 -1.7759528 0.3261609
5 0.3120348 -0.27515358 -0.758727 0.5458691 1.1241832 -0.63283235 0.19243254 0.9638697 -1.086778 -1.1948427
297 1.7708831 0.5897545 0.60002893 0.53102255 0.117834926 0.37755555 -0.51747894 0.7591699 -0.15403706 0.47682834
296 1.7220951 0.46171263 0.5276191 0.5203816 0.0992662 0.4720333 -0.48625663 0.6540164 -0.2286076 0.48953635
659 0.34662658 -0.044013765 0.57104784 -0.56913865 -0.49673796 0.28646472 -0.37397885 -0.07699404 -1.7119665 0.42959094
7 0.364291 -0.29231644 -0.77827805 0.5221763 1.1671726 -0.56433266 0.1672944 0.88492846 -1.101237 -1.2478024
34 0.19133098 -0.49847925 -0.97157925 -0.16632734 1.0827123 -0.5332999 -0.3515543 0.73664933 -1.2567623 -0.71124846
245 0.73160285 -1.6743659 0.3885717 -0.46424407 0.18620773 0.6379054 0.023816718 0.80021167 -0.590161 -0.7510182
271 1.429639 0.33822936 0.010057841 1.2362335 0.15698783 0.5999836 -0.681621 0.5525023 -0.49323148 0.09652497
192 0.19843124 -0.61457556 0.21001795 -0.42910177 0.059206594 0.49778318 0.1897237 1.8508618 -0.4504177 -0.10090419
303 1.7386065 0.6954121 0.5872385 0.39682758 0.15725131 0.25888145 -0.4271504 0.6874079 -0.22339506 0.5125355
714 0.5483333 0.39403173 0.559714 0.09229237 0.6257123 1.0748099 0.8394703 -0.1323938 -1.24481 -0.74214965
631 0.112103686 0.12542908 1.3379488 0.56176186 -0.24033608 -0.6586252 -0.16816698 0.40271533 -1.3789837 0.3209161
268 1.3781091 0.2443299 -0.020526148 1.2532871 0.213926 0.6082919 -0.6808311 0.57481426 -0.47008803 0.07330047
724 0.5631584 0.4868179 0.6977988 0.112324186 0.5411531 1.0601711 0.8152674 -0.14303114 -1.3301332 -0.9098172
54 0.36233202 -0.74269235 -0.8650786 -0.08680614 0.79910713 -0.814991 -0.70216125 0.8923237 -1.087949 -0.058324967
650 0.35480565 0.18082836 0.59147656 -0.56128085 -0.40493375 0.034924574 -0.17395224 -0.07154835 -1.7678745 0.36670825
43 0.28421536 -0.6564665 -0.9879469 -0.17389353 0.9036499 -0.6365669 -0.65485716 0.7514555 -1.163557 -0.508276
187 0.3171564 -0.52385396 0.18726037 -0.60107255 0.044785555 0.42128018 0.25222817 1.7929121 -0.4264787 -0.038511746
767 0.32205233 0.60323006 0.6660327 -0.14379495 -0.33432564 -0.36983758 0.35500306 0.16638099 -1.7279282 -0.03512515
21 0.21394783 -0.38328654 -1.0191709 0.14056386 1.0922685 -0.36112887 -0.09890198 0.8139874 -1.242229 -1.076243
274 1.4625382 0.30939853 -0.016489362 1.1814907 0.16120443 0.65269566 -0.6561831 0.5931684 -0.48639527 0.21520582
712 -0.3430022 -0.015582395 -0.19852516 0.37630686 -0.53321093 0.7756167 -0.7865988 0.18072417 -2.0310247 -0.27551466
704 -0.37139946 0.025074447 -0.12245616 0.28202918 -0.63226753 0.7889101 -0.8324986 0.28005934 -2.05264 -0.1686542
635 0.07281733 0.24644537 1.1328466 0.39104939 -0.27074394 -0.63311905 0.0013149462 0.36531988 -1.5132557 0.2522596
258 1.3471098 0.22600801 -0.028328942 1.475366 0.22843558 0.5302041 -0.73126 0.5162079 -0.55698925 -0.067436524
25 0.2241204 -0.3814807 -1.0291274 -0.0881903 1.0609227 -0.39779964 -0.19900247 0.71306264 -1.2385974 -1.0200312
627 0.14355376 0.021237625 1.3055062 0.5572622 -0.22593023 -0.8700569 -0.20222148 0.41423675 -1.3538059 0.2486711
739 0.5678128 0.6813388 0.6161835 -0.022771653 0.43770474 0.91643965 0.9282905 -0.016899373 -1.3717998 -0.8328672
24 0.30174464 -0.42233798 -1.0123252 0.04916098 1.0976529 -0.3223982 -0.13361144 0.73599553 -1.1665264 -1.0085615
649 0.2992566 0.272159 0.5265149 -0.5312093 -0.4361514 0.04598276 -0.19799796 -0.012103393 -1.7877628 0.35679582
194 0.10109613 -0.5542829 0.23062861 -0.34310287 0.043358475 0.5005428 0.20484194 1.8713824 -0.4651798 -0.14594871
41 0.26069635 -0.5724322 -0.98731786 -0.13171352 0.9470444 -0.65341663 -0.6185238 0.80241597 -1.1651318 -0.52896386
36 0.27148637 -0.5717009 -0.99961144 -0.18149476 0.916568 -0.534552 -0.47250384 0.72863543 -1.1971092 -0.7635637
727 0.6434343 0.50146186 0.6143273 0.12059523 0.506542 1.0575669 0.880097 -0.14368296 -1.3865243 -0.8815753
1 0.3276635 -0.28525963 -0.72869945 0.6329692 1.0500125 -0.5649322 0.19346903 0.93273115 -1.0635968 -1.2634665
710 -0.2964522 -0.027805338 -0.09411837 0.37955537 -0.590646 0.80414265 -0.85975903 0.17356104 -1.9763975 -0.27245313
633 0.10901376 0.18955536 1.2841882 0.5007905 -0.27409542 -0.65175694 -0.07717525 0.4188336 -1.393731 0.24150749
39 0.24535787 -0.6144785 -0.9612199 -0.11927501 1.0035087 -0.64666414 -0.5800067 0.7314865 -1.2050139 -0.6549023
613 -0.03680258 0.039404165 1.6487983 0.21711335 0.8341868 -0.6571866 -0.6902729 0.051511336 -0.9607511 -0.36452946
55 0.38124436 -0.71013325 -0.9408525 -0.10283453 0.8086123 -0.7881724 -0.6814854 0.92135274 -1.1043134 -0.019515797
196 0.1557709 -0.6301508 0.2035867 -0.21203169 0.029583037 0.5107157 0.30343828 1.891681 -0.5107161 -0.13505769
12 0.3282001 -0.37034613 -0.89006823 0.409918 1.1979191 -0.4662517 0.017882636 0.85781014 -1.1324525 -1.2459307
45 0.20039645 -0.63202757 -0.9506577 -0.10240753 0.95404494 -0.7231949 -0.63486737 0.8224904 -1.2146157 -0.4316466
244 0.5662599 -1.5877391 0.40248296 -0.45031795 0.25701323 0.66362375 -0.049983636 0.7810007 -0.562949 -0.7499361
40 0.2904351 -0.55597025 -1.0241683 -0.15303378 1.014257 -0.57179314 -0.5505265 0.75990367 -1.1813571 -0.59950155
725 0.6579126 0.5710703 0.6163693 0.16501929 0.5547447 1.163038 0.84483016 -0.12827869 -1.3318658 -0.79411423
634 0.121248856 0.08968174 1.1972765 0.5237738 -0.25788894 -0.7253233 -0.091051556 0.3753076 -1.4248893 0.23818803
720 0.65645677 0.48152813 0.6172412 0.13266066 0.6393794 1.1116943 0.8436446 -0.19295156 -1.3698134 -0.7587361
272 1.4268776 0.3541368 -0.027828082 1.1913375 0.09672865 0.64376515 -0.5620463 0.6001542 -0.49688047 0.07341333
28 0.25654206 -0.5050223 -1.108308 -0.062304486 0.98864514 -0.32884467 -0.3264767 0.71648234 -1.2449472 -0.96527755
729 0.6754519 0.5298916 0.6177425 0.12616414 0.5445439 1.0875384 0.91217774 -0.10640677 -1.3098953 -0.84840804
723 0.64231306 0.5301734 0.6546551 0.10892759 0.5784675 1.1229517 0.88979495 -0.082712375 -1.3282211 -0.7320338
42 0.25829518 -0.61814165 -0.9997 -0.24478619 0.9680154 -0.6166588 -0.63599765 0.7831284 -1.1816002 -0.48826826
461 0.19262256 1.4319525 0.32378268 0.31283313 1.1642983 0.4193124 -0.5444716 1.2436552 -0.4893802 0.23306657
191 0.16287935 -0.61041045 0.14231797 -0.45180437 -0.047815498 0.49974597 0.22543214 1.8084934 -0.5210842 -0.07285148
29 0.2738641 -0.49822655 -1.0524247 -0.07800037 0.9647595 -0.3629954 -0.27615333 0.7228442 -1.2226884 -0.8555827
48 0.2866922 -0.62640744 -0.92662555 -0.19228697 0.9266606 -0.7211684 -0.63919383 0.87883264 -1.0856698 -0.27835748
625 0.11086788 -0.010573553 1.3481866 0.65537715 -0.2272382 -0.88580287 -0.20209976 0.4520296 -1.3690053 0.23878947
703 -0.38947937 0.020640075 -0.054097973 0.24825871 -0.6012915 0.7295946 -0.7995476 0.21016571 -2.038424 -0.27224702
53 0.34320614 -0.74171996 -0.87957084 -0.07576731 0.855507 -0.7692805 -0.761716 0.84212154 -1.0676177 -0.12522483
269 1.3752656 0.33040163 -0.027030764 1.2842511 0.13389543 0.5645732 -0.63466287 0.605657 -0.49149266 0.0806181
195 0.13222411 -0.6498793 0.21312468 -0.32905978 0.061438274 0.57512283 0.21631116 1.8369167 -0.4895428 -0.17286126
145 0.713701 -1.0260104 0.47398368 -0.52617806 0.89313275 0.14159858 0.3160529 0.85844624 -0.34112623 -0.033235636
301 1.7343785 0.6068268 0.54727703 0.33719084 0.15460318 0.364008 -0.48587415 0.6804984 -0.1672188 0.51472527
275 1.4566628 0.34661907 0.18493454 1.1532825 0.13662848 0.63426864 -0.6525436 0.6138398 -0.41426125 0.20779946
35 0.25700107 -0.5264635 -1.0646129 -0.12550691 0.91822183 -0.44831753 -0.49985474 0.698099 -1.219234 -0.74775654
241 0.4725618 -1.464932 0.348031 -0.19487679 0.31960243 0.79838365 -0.14005415 0.92619324 -0.5051206 -0.5972265
46 0.18821041 -0.65757596 -0.8990918 -0.12278403 0.9156036 -0.7023459 -0.67979145 0.8147437 -1.1520134 -0.35141358
188 0.33601075 -0.5895753 0.17320403 -0.5695645 -0.015273909 0.4185909 0.28276062 1.7682637 -0.45456704 -0.09836928
683 -0.049464267 -0.06675693 0.23472676 -0.05609765 -0.62883526 0.58966154 -0.73284686 0.067386314 -1.8331611 0.161851
726 0.6435093 0.57777363 0.61680204 0.1373442 0.5812978 1.0833379 0.88442856 -0.075720794 -1.2485816 -0.8247643
299 1.7298411 0.6255786 0.5387943 0.5113623 0.17500731 0.45332465 -0.5002267 0.8409319 -0.15148933 0.53789705
259 1.3182906 0.34562653 -0.08357359 1.4805766 0.25665054 0.52667296 -0.7057403 0.5427603 -0.57508236 -0.058134537
14 0.21447408 -0.39335254 -0.9037688 0.3161948 1.0550404 -0.33812037 0.0019321314 0.7987433 -1.1582682 -1.1612141
190 0.16110261 -0.53825575 0.15634768 -0.47664505 0.03556125 0.4824381 0.20133209 1.755636 -0.4772085 -0.032530148
8 0.3406577 -0.286247 -0.790877 0.5288454 1.1469462 -0.53502995 0.100744486 0.86013174 -1.0712861 -1.2272038
189 0.25333318 -0.59098995 0.15278435 -0.5598007 0.018433962 0.5036191 0.23308039 1.8233498 -0.46496406 -0.10232054
708 -0.39365348 0.06883059 -0.124773115 0.2137473 -0.57662404 0.79533845 -0.8866699 0.22237523 -2.0020382 -0.27874783
722 0.61482835 0.5230507 0.7472877 0.117528 0.47295958 1.1183333 0.8434485 -0.11929281 -1.2795761 -0.8373553
711 -0.34561372 -0.09051773 -0.15260299 0.32449102 -0.5868777 0.79322475 -0.7775045 0.18775046 -2.0562022 -0.27499363
47 0.1836734 -0.63702756 -0.87686735 -0.115995586 0.89924055 -0.76962984 -0.6827525 0.8751936 -1.1420335 -0.33404163
273 1.401869 0.28857714 -0.005598703 1.1691372 0.06945652 0.64587617 -0.60781974 0.58196545 -0.5061406 0.18387714
250 1.1870941 0.28462386 0.050264504 1.4676905 0.2406487 0.544707 -0.8171802 0.5417741 -0.508309 -0.09939168
709 -0.37314507 0.02682781 -0.08833442 0.3033974 -0.57142603 0.7981754 -0.90960056 0.17658262 -2.0075526 -0.3087475
701 -0.32824573 -0.016870636 -0.085115455 0.34446642 -0.56003064 0.79493743 -0.7508991 0.14734788 -2.0507686 -0.24101333
616 0.09696198 -0.12259 1.6219704 0.17869195 0.6963779 -0.6855215 -0.6664898 0.061553817 -0.9651755 -0.11903134
707 -0.28961957 -0.031058747 -0.1077779 0.36267564 -0.5737834 0.82063836 -0.86433065 0.104496166 -2.0199554 -0.27601898
242 0.5402164 -1.469595 0.44248056 -0.4040645 0.33801222 0.71230817 -0.057669643 0.8590505 -0.49690744 -0.5875032
699 -0.3408274 -0.02686913 -0.030806039 0.21756682 -0.64511484 0.74589086 -0.8457206 0.19436552 -2.0055206 -0.24829876
702 -0.41006398 0.086465284 -0.11003424 0.24195468 -0.57739633 0.7770216 -0.84190065 0.20710474 -2.0315702 -0.23203868
277 1.5019289 0.35068792 0.13786106 1.1032392 0.0940437 0.6103629 -0.62618476 0.582398 -0.45502225 0.25223088
462 0.21907617 1.4710146 0.27665675 0.27857503 1.2138596 0.34921536 -0.5493375 1.1321509 -0.56776315 0.27927127
246 0.64454824 -1.5488902 0.3726419 -0.44931725 0.22014682 0.6185154 -0.08707345 0.7527888 -0.52421075 -0.7132877
721 0.607328 0.47114655 0.642574 0.111396715 0.5619018 1.1695532 0.8365027 -0.12349031 -1.3045245 -0.7834556
247 0.56151086 -1.4835733 0.38567814 -0.40079334 0.33663338 0.6491979 -0.12383102 0.7965656 -0.48066306 -0.67639303
110 0.7425339 -0.7426788 -0.30052543 -0.08648856 1.4771425 -0.066748224 0.44329357 0.51842415 -1.152506 0.8127412
693 -0.32755467 -0.03762108 0.054385312 0.16773808 -0.59015477 0.72248864 -0.75239015 0.18667103 -1.9780426 -0.15743935
705 -0.35715827 -0.004357727 -0.11873007 0.23045708 -0.5783482 0.7444759 -0.84372914 0.19044867 -2.0142946 -0.30136698
300 1.7709699 0.63779896 0.5844856 0.4999772 0.26253477 0.41307446 -0.3742418 0.74551964 -0.15953825 0.52776605
698 -0.37490177 -0.113733985 -0.018098796 0.22362167 -0.5498397 0.75495017 -0.7406641 0.17592244 -1.9861004 -0.23825534
306 1.8374833 0.76757735 0.6019352 0.33732662 0.29862913 0.22717685 -0.5265269 0.7148643 -0.12664862 0.47727308
684 -0.08592246 -0.12600681 0.19688438 0.00397923 -0.59061855 0.6757064 -0.66430795 0.06141307 -1.8409815 0.13426076
697 -0.36568052 -0.052897673 -0.014589369 0.16579728 -0.63166165 0.7552913 -0.82800007 0.21071503 -1.9657334 -0.21283393
276 1.4945374 0.3221644 0.21259919 1.1083032 0.09204656 0.6589192 -0.69234544 0.6185406 -0.40407917 0.25540105
298 1.7196383 0.6256401 0.66590405 0.52563316 0.16812535 0.413239 -0.50983065 0.7523299 -0.1804957 0.5250598
52 0.3099509 -0.7145871 -0.9183927 -0.09040389 0.8843345 -0.69759464 -0.713087 0.85932845 -1.1099552 -0.15748766
400 0.9810875 0.63046813 0.41027108 0.103596196 -0.5306808 0.033754487 -1.1355371 0.9721323 -0.31725943 -1.5316385
696 -0.24627711 -0.040349297 -0.07453988 0.18531959 -0.60103214 0.75227916 -0.7416174 0.15292323 -1.9412285 -0.1757289
56 0.38390145 -0.7169327 -0.9021617 -0.109188855 0.88627005 -0.77562594 -0.65646625 0.9051259 -1.1169225 0.019269854
401 0.9542685 0.60400856 0.47745347 0.07537073 -0.5766843 0.018951725 -1.158766 0.9739672 -0.30527127 -1.50622
700 -0.33379647 -0.059418786 -0.117840424 0.30903095 -0.587076 0.82783926 -0.7715055 0.2153281 -1.9956346 -0.20239688
59 0.35801524 -0.75509846 -0.8883652 -0.05350194 0.7756797 -0.787613 -0.63778484 0.93263304 -1.1651602 0.11861085
408 0.9433367 0.51820207 0.5957315 0.08690159 -0.57494026 0.18868394 -1.0447651 0.93806463 -0.3424616 -1.7971212
470 0.38883287 1.5178583 0.37314323 0.09499977 1.3827784 0.2621272 -0.42853022 1.0976405 -0.46972817 0.18708348
409 0.9858402 0.59343994 0.5868317 0.1675279 -0.5462927 0.21723172 -1.0230719 0.9219447 -0.33591172 -1.7864879
57 0.38731307 -0.8275678 -0.87959874 -0.07598913 0.7893798 -0.8270049 -0.6605599 0.8505862 -1.1602527 -0.012275796
694 -0.30788797 -0.026910102 0.1289036 0.20727775 -0.5745921 0.75908536 -0.72815925 0.14447601 -1.8854223 -0.15996416
49 0.2224461 -0.66995305 -0.9679964 -0.1748352 0.92991334 -0.7065264 -0.6673898 0.8706079 -1.1837437 -0.23548764
692 -0.29968497 -0.070057444 0.100109525 0.16301076 -0.54811543 0.8037746 -0.7899814 0.13223405 -1.9649696 -0.04249857
416 0.9910639 0.52794504 0.48111665 0.10872915 -0.39914158 0.32291058 -1.0906968 0.89794946 -0.2759146 -1.8919249
431 -0.29260072 1.1931916 0.29951072 0.44497016 0.7604246 0.39322197 -1.1333792 1.401125 -0.61009735 0.2396773
690 -0.24842572 -0.01999358 0.083158866 0.12240263 -0.6382173 0.7667285 -0.7028702 0.1924158 -1.8813021 -0.047274835
304 1.7838998 0.71464443 0.5595966 0.37372738 0.24486569 0.23216708 -0.37796557 0.76437336 -0.1506185 0.50305986
417 0.9277497 0.56412774 0.5176885 0.14163727 -0.4502715 0.27099264 -0.97238576 0.8594485 -0.33484843 -1.8334795
652 0.3183198 0.16073686 0.5891417 -0.5641836 -0.42974374 0.102806084 -0.24793088 -0.06388024 -1.7057925 0.37027237
410 0.9431933 0.51586443 0.589558 0.02415873 -0.48237526 0.24906226 -1.0434264 0.9055188 -0.2881766 -1.7682905
441 -0.16608961 1.2778842 0.30968016 0.51891583 0.8455543 0.38345686 -1.0395572 1.4107639 -0.54399204 0.19129886
418 0.9456516 0.6091511 0.5398644 0.2039312 -0.42738035 0.3235246 -0.9741417 0.93830156 -0.28141597 -1.8503574
58 0.42016804 -0.6904379 -0.89735705 -0.08876817 0.8289582 -0.7590361 -0.6497192 0.9248648 -1.0447782 0.103995405
596 0.16936904 -0.2155312 1.5647079 0.16061895 0.9617717 -0.57196164 -0.7353902 -0.11923408 -0.9156427 -0.32803822
112 0.7407468 -0.83899665 -0.23019518 -0.1295427 1.4898832 -0.0660755 0.4419242 0.48711443 -1.1479992 0.7395178
305 1.8894962 0.67965186 0.66646016 0.39802763 0.33199725 0.17736094 -0.5137764 0.7081956 -0.13187811 0.54635864
62 0.4849973 -0.7287006 -0.90188605 -0.056116942 0.7854284 -0.8324373 -0.5390416 0.9343193 -1.1310034 0.16107377
469 0.394522 1.5517929 0.28742906 0.1522966 1.3727628 0.2664536 -0.52070194 1.086969 -0.49597895 0.19021411
399 0.9692582 0.5370726 0.42037 -0.012275762 -0.56555617 -0.061085228 -1.1276486 0.88961965 -0.35486495 -1.5489564
388 1.0548446 0.46185702 0.32602546 -0.047789067 -0.5510925 -0.1686236 -1.2940075 0.83713245 -0.35899407 -1.3126934
64 0.48874846 -0.79098046 -0.882133 -0.06236414 0.690127 -0.8084638 -0.52714735 0.9729598 -1.1097919 0.21690825
243 0.58600503 -1.5567006 0.42755914 -0.4298142 0.35620382 0.67912483 -0.114625156 0.82224536 -0.5132924 -0.62822306
419 0.9160945 0.57172775 0.5699691 0.20309143 -0.47850245 0.38411352 -0.9285917 0.8706998 -0.33488747 -1.8402165
50 0.24712022 -0.6042933 -0.9493996 -0.20883471 0.9240936 -0.7415268 -0.68013227 0.8115335 -1.1788458 -0.1980913
608 -0.0175469 -0.0041364655 1.5945884 0.23649463 0.932343 -0.7560882 -0.62921506 0.11927978 -0.85872567 -0.5718817
389 1.0414244 0.44061857 0.2590835 -0.093302816 -0.6289375 -0.27174637 -1.2473718 0.90090007 -0.37032276 -1.313972
51 0.2756164 -0.6748934 -0.929611 -0.05867912 0.7876398 -0.7610573 -0.77022743 0.87551594 -1.0988257 -0.21162586
691 -0.35193807 0.023045294 0.09811354 0.11941858 -0.5221751 0.7257512 -0.78770643 0.168769 -1.9413728 -0.06249333
398 0.97130024 0.51330173 0.43205014 0.06733206 -0.61414856 -0.015862638 -1.1314032 0.90204424 -0.35651854 -1.5441331
439 -0.18701088 1.2947909 0.2846151 0.47601068 0.7981927 0.36200967 -0.96294606 1.4091898 -0.60277206 0.23474045
61 0.39717954 -0.6764966 -0.8419563 -0.062877014 0.8224369 -0.8296592 -0.6066591 0.9272293 -1.0697126 0.13188155
460 0.18873723 1.4727395 0.34492365 0.27466145 1.1917523 0.34654588 -0.6127817 1.1885952 -0.5253855 0.23511888
65 0.42006034 -0.71705616 -0.80331284 0.015912363 0.8480404 -0.8962859 -0.604775 0.9959853 -1.0777485 0.2768642
440 -0.16775902 1.223669 0.35253185 0.47235724 0.7996529 0.3793677 -0.99291795 1.3333095 -0.5264873 0.20367774
414 0.9451775 0.5594271 0.5807674 0.16452807 -0.44901475 0.35428214 -1.0334818 0.9105044 -0.2957132 -1.8593506
68 0.5235316 -0.7538346 -0.7513231 -0.01916013 0.74108386 -0.8612772 -0.45672798 0.98038 -1.068424 0.35126367
435 -0.29314306 1.2143327 0.30824128 0.47019604 0.7941465 0.43084118 -1.10836 1.4720238 -0.5926535 0.27735114
475 0.52790123 1.609701 0.3458076 0.08181575 1.4111004 0.21793906 -0.44947606 0.99043494 -0.5164407 0.25574782
113 0.71628624 -0.8104609 -0.25431937 -0.1351265 1.3914088 0.088552676 0.4795213 0.45076558 -1.137963 0.7372217
706 -0.4445014 -0.039651405 -0.04631967 0.2833189 -0.53527886 0.79208326 -0.8360638 0.19049993 -2.0671854 -0.34338263
689 -0.23819116 -0.07049866 0.07117135 0.08913092 -0.57341564 0.70420474 -0.70314384 0.112023555 -1.9852757 -0.07711059
94 0.75299317 -0.6577077 -0.5443765 -0.01926835 1.0468127 -0.38958368 0.21063952 0.6567327 -1.1601511 0.7529343
358 1.6406511 0.04797404 0.030506168 -0.38619083 -0.40469208 -0.034897808 -1.3110712 0.37515295 -0.40111274 -0.68536025
405 0.9360302 0.61045593 0.45245418 0.09813777 -0.51039827 0.15603341 -1.10153 0.9727837 -0.28663188 -1.6599774
283 1.5908595 0.4449966 0.2666247 0.7800213 0.029795462 0.63043594 -0.50383115 0.6588248 -0.36123788 0.43342134
446 -0.12195226 1.3396109 0.33111477 0.45765576 0.9616787 0.48516294 -0.93120843 1.3964893 -0.54753584 0.22532286
438 -0.18322328 1.2826687 0.2781296 0.44756296 0.75520545 0.3731422 -0.92501485 1.4192841 -0.56313473 0.20172858
607 -0.07492193 -0.015991917 1.62531 0.16926698 0.96466124 -0.7168631 -0.5581632 0.100635625 -0.9550138 -0.5369317
357 1.6312371 -0.052986182 0.10839818 -0.259252 -0.39927492 0.012918072 -1.3168789 0.30563083 -0.40509257 -0.7825209
468 0.3085241 1.498753 0.40657955 0.21661332 1.2230518 0.22264172 -0.6234918 1.0635437 -0.5307061 0.33291587
466 0.32431406 1.4897469 0.30182225 0.2842716 1.2548194 0.35470143 -0.4235184 1.099975 -0.519515 0.19992678
407 0.9679339 0.54135084 0.53019804 0.08272528 -0.5242485 0.13585134 -1.0285949 0.95414805 -0.29983696 -1.7541908
111 0.6954555 -0.7654161 -0.29414058 -0.10922685 1.4672652 -0.0224496 0.43823388 0.4797906 -1.1530322 0.73971915
307 1.9517608 0.8207608 0.49534133 0.19487235 0.46103898 -0.09733694 -0.35468635 0.5275421 -0.13968068 0.13514839
109 0.67270064 -0.6762054 -0.31334454 -0.11764843 1.4547151 -0.04693828 0.4417229 0.5695504 -1.1408426 0.7909773
412 0.92872596 0.5121441 0.5390115 0.039494276 -0.37474766 0.26687917 -1.1085502 0.8898405 -0.28321216 -1.9051453
321 2.0735652 0.4362605 0.40211296 -0.165469 0.35725752 -0.44014293 -0.35015723 0.1111868 -0.29473305 -0.548001
465 0.30867016 1.5579759 0.36790508 0.20904237 1.2334673 0.37990415 -0.47315237 1.2008196 -0.5341085 0.26396948
320 2.0966675 0.41014457 0.47528625 -0.21456547 0.42775816 -0.39512792 -0.37921253 0.10177105 -0.2428617 -0.5354925
463 0.2211799 1.5091866 0.29188254 0.27035972 1.1865569 0.29366475 -0.6273246 1.1801118 -0.5960706 0.35424525
406 0.86537504 0.6009473 0.6047246 0.010615019 -0.5008571 0.16956197 -1.0531121 0.90899587 -0.32848868 -1.7620991
393 0.99091387 0.4523551 0.35848382 -0.06757676 -0.639416 -0.19568934 -1.2428827 0.9043411 -0.37237218 -1.3581707
387 1.1606607 0.33684233 0.3470845 0.029915353 -0.66107416 -0.2937275 -1.3121744 0.8558144 -0.37542498 -1.2464074
340 2.0016346 0.027157618 0.13685928 -0.31335554 -0.079368226 -0.100533396 -0.8296077 0.00647005 -0.45330408 -0.7634328
394 1.0820911 0.50387174 0.34481338 0.088512294 -0.58925515 -0.20466761 -1.215854 0.9377676 -0.37025753 -1.4670489
360 1.6126407 0.031861782 0.11324445 -0.32944828 -0.5596096 -0.097395994 -1.2169455 0.42711356 -0.42752814 -0.81495374
85 0.7376591 -0.6414577 -0.69132525 -0.09977995 0.94099253 -0.53483593 -0.06895856 0.7863289 -1.0462747 0.6436635
359 1.6663425 0.019856254 0.058468897 -0.3257877 -0.44665015 -0.105656594 -1.2295641 0.3670931 -0.44012973 -0.78399444
116 0.7329304 -0.7934699 -0.16864038 -0.15040676 1.4778633 0.05297672 0.44410312 0.5200889 -1.049891 0.7570338
404 0.9233036 0.5958846 0.43557373 0.039350983 -0.5298739 0.12833443 -1.0809908 0.89509153 -0.36584204 -1.6759807
420 0.9223565 0.6384148 0.5653986 0.17142424 -0.45658004 0.39602768 -0.96315116 0.92756695 -0.28343546 -1.8105712
467 0.33086964 1.558166 0.32270837 0.19894391 1.3102665 0.24182203 -0.51015186 1.1428964 -0.51472795 0.19504496
384 1.1048738 0.3911924 0.25653917 -0.05843815 -0.7077942 -0.14207047 -1.3848889 0.8723336 -0.38677457 -1.1284753
361 1.5859926 0.09301046 0.063977525 -0.37119803 -0.47503117 -0.058987387 -1.2928634 0.36975494 -0.44487125 -0.83026457
60 0.40982053 -0.7554335 -0.8551402 -0.051241342 0.8300039 -0.8756969 -0.60687083 0.90447414 -1.1585724 0.13268527
728 0.63255364 0.5262782 0.61203015 0.1310627 0.5916922 1.0784276 0.85437757 -0.15771782 -1.3191844 -0.7801814
413 0.93660325 0.45325485 0.60734385 0.105820835 -0.42779577 0.32561558 -1.0011917 0.89938116 -0.24409702 -1.8635616
411 0.96202123 0.49340373 0.56714815 0.14206764 -0.50820607 0.27853057 -1.071952 0.9163315 -0.310622 -1.7946972
445 -0.17166422 1.2960469 0.2467766 0.47397292 0.9740169 0.40116885 -0.8639279 1.3594654 -0.6440952 0.2936273
686 -0.12977701 -0.041413914 0.21040358 0.05246589 -0.69483584 0.679403 -0.72673297 0.14782125 -1.9084344 0.046268415
695 -0.40900022 -0.028429499 0.07223255 0.1069543 -0.5474013 0.74931395 -0.83311784 0.17244108 -1.9315311 -0.25112423
117 0.86203927 -0.85551065 -0.19404092 -0.20192045 1.4747976 -0.015240713 0.45847803 0.35729578 -1.087692 0.6718714
437 -0.2258588 1.2434422 0.32304826 0.45200032 0.77643824 0.4054587 -1.0121107 1.4613583 -0.57667285 0.24879353
95 0.82905084 -0.8099357 -0.5807761 -0.09483246 1.0568211 -0.34438348 0.15661494 0.64587414 -1.177066 0.7892258
386 1.1429502 0.4204903 0.4890978 -0.054825444 -0.60374874 -0.23540516 -1.4128972 0.8316936 -0.34188998 -1.2442297
402 0.9089085 0.6152129 0.3953402 0.025639389 -0.5687365 0.067016885 -1.1137105 0.94721067 -0.35125393 -1.6220888
356 1.6941674 -0.0035209185 0.057057004 -0.382279 -0.387071 -0.07168824 -1.1890347 0.23712139 -0.45004097 -0.81091946
322 2.118346 0.32181978 0.41582525 -0.22149086 0.34709874 -0.22113927 -0.3751498 -0.009869382 -0.30355933 -0.64741135
601 0.10110214 -0.1529082 1.609149 0.23438518 0.9531609 -0.6628446 -0.6298921 0.003596967 -0.85526156 -0.5564881
434 -0.21831334 1.268736 0.28823364 0.51584244 0.7469419 0.34461498 -1.1468635 1.4217733 -0.60966766 0.27084145
63 0.48432618 -0.7586027 -0.8771649 0.042376705 0.68770903 -0.81534266 -0.5888901 0.9522812 -1.0798913 0.17768453
385 1.1864824 0.42092466 0.28974003 -0.10793615 -0.61816543 -0.20723195 -1.3789864 0.8553264 -0.3592145 -1.1860119
442 -0.1399266 1.2701795 0.33839467 0.4381216 0.84039074 0.3862031 -1.0152014 1.3883976 -0.5248708 0.2366903
452 -0.030601578 1.3358259 0.24474183 0.37556252 0.96647036 0.49851203 -0.72628564 1.3010033 -0.53543663 0.17286435
381 1.2096986 0.2979602 0.22790176 -0.12579902 -0.6547727 -0.16048872 -1.3738035 0.89466214 -0.30698383 -1.0823734
114 0.7957591 -0.79012626 -0.19535947 -0.04721036 1.4670352 0.07952601 0.46552604 0.48304355 -1.0506839 0.74005616
92 0.8120148 -0.7230738 -0.6754529 -0.07363111 0.97671664 -0.31811404 0.17263135 0.75958174 -1.1435952 0.7629705
606 -0.03635104 -0.01796666 1.6656852 0.24985403 0.94527787 -0.695625 -0.6280243 0.09827657 -0.8994901 -0.6248556
338 1.9753002 -0.002892533 0.22056831 -0.34978116 -0.05440148 -0.06226377 -0.80577534 0.0411393 -0.38634536 -0.70342547
362 1.5830294 0.08830777 0.13378073 -0.3273566 -0.45276922 -0.16897354 -1.4232444 0.4254477 -0.42522424 -0.8361969
339 2.0261748 0.049082194 0.13907003 -0.32784495 0.011884995 -0.04017525 -0.7926517 -0.022361662 -0.41685313 -0.7676646
383 1.1920097 0.32572117 0.3063539 -0.1245455 -0.60395056 -0.24112077 -1.4379148 0.7864292 -0.39075854 -1.1666629
369 1.5127966 0.20659894 0.08433836 -0.2512491 -0.58293784 -0.18876052 -1.3775575 0.584273 -0.4356285 -0.9290813
314 2.1007173 0.60750544 0.47070536 -0.064132854 0.5751659 -0.5039101 -0.30324247 0.28059858 -0.1584042 -0.37127656
395 0.9738325 0.59846365 0.35940495 0.058435503 -0.63734394 -0.1363804 -1.1601298 0.9055477 -0.40748683 -1.3972822
599 0.2246224 -0.1568266 1.6332719 0.16850159 0.9880502 -0.63753074 -0.63328785 -0.07516157 -0.83362967 -0.46789286
626 0.06271205 -0.013251015 1.4410882 0.5419345 -0.1403819 -0.8208753 -0.2604058 0.45110807 -1.3001384 0.248068
319 2.1133835 0.50778383 0.42627624 -0.19125234 0.42865252 -0.42049852 -0.3388758 0.09168434 -0.31372693 -0.513092
688 -0.17440343 -0.06950009 0.13308172 0.09713302 -0.63528657 0.61849916 -0.7855133 0.07336052 -1.9654793 0.0077450434
685 -0.18679401 -0.08137981 0.2360265 -0.0015543649 -0.5308239 0.72741985 -0.70129436 0.06371072 -1.8608819 0.050008655
433 -0.26773748 1.2054374 0.28624576 0.4478879 0.77439266 0.36450467 -1.1019459 1.4027891 -0.59416634 0.237199
464 0.15701395 1.4793322 0.37257966 0.28697708 1.1777244 0.28125507 -0.6006495 1.1891695 -0.54656285 0.3005503
476 0.5629158 1.5643528 0.40795666 0.0050573545 1.392241 0.21345192 -0.41704756 0.99032617 -0.47285986 0.28668007
602 0.14102101 -0.13196395 1.5317354 0.22985283 1.0188581 -0.6629083 -0.6938357 -0.07755492 -0.8550621 -0.53482956
687 -0.15043165 0.024690941 0.16088358 0.12016834 -0.64789015 0.69586605 -0.760037 0.12577735 -1.8638816 -0.0021290365
355 1.7192988 0.05959145 0.08562859 -0.356143 -0.40395662 -0.04193771 -1.256882 0.23714308 -0.4798407 -0.7414284
380 1.2269412 0.31081176 0.2723387 -0.22936352 -0.5717965 -0.19067882 -1.4583288 0.7136638 -0.37595707 -1.0752946
115 0.6768247 -0.8108455 -0.17556041 -0.13535173 1.463399 0.06265689 0.57418895 0.56043035 -1.1499352 0.72584575
87 0.774171 -0.68284255 -0.77787274 -0.15831731 0.8870633 -0.455879 0.046998058 0.7520758 -1.198218 0.6849258
612 0.053666398 0.013728188 1.7060993 0.22751963 0.81596404 -0.73275566 -0.57959336 0.09388615 -0.9293556 -0.4220564
453 -0.0421011 1.4351786 0.26934654 0.37736177 1.0099133 0.4036695 -0.75535244 1.329759 -0.614996 0.28798938
397 1.0501434 0.5491746 0.4156416 0.073218286 -0.63507646 -0.092733964 -1.1179545 0.95901716 -0.3316756 -1.451125
90 0.8439925 -0.7201051 -0.7129705 -0.11527686 0.9793593 -0.35845643 0.031533808 0.69906586 -1.1499548 0.7989832
77 0.72098553 -0.80144185 -0.851922 0.008790283 0.66846967 -0.6987915 -0.24716595 0.91783935 -1.1768968 0.5411093
609 -0.016448608 -0.025808537 1.5817531 0.16562167 0.913059 -0.763216 -0.56984764 0.0948271 -0.94704443 -0.49240583
432 -0.17862426 1.1765274 0.2441349 0.49703336 0.7489776 0.44871834 -1.1425205 1.4027591 -0.5776055 0.2746121
611 0.068113 -0.0018205553 1.6385258 0.22633241 0.8332341 -0.76472634 -0.61906075 0.10008142 -0.89233285 -0.42670417
444 -0.16539507 1.3421246 0.3398329 0.42258632 0.8001494 0.42294142 -0.99890226 1.3890424 -0.60382295 0.27609348
76 0.6836577 -0.7344024 -0.8094979 -0.09354558 0.7857173 -0.62343854 -0.30120268 0.8220031 -1.0872025 0.5087555
67 0.5304038 -0.81042486 -0.76965594 -0.0242158 0.7810351 -0.853841 -0.4434572 1.0046141 -1.0777218 0.3189147
375 1.315727 0.21927798 0.2174726 -0.14395757 -0.5056715 -0.27635658 -1.4518621 0.64411485 -0.3820284 -1.0006083
415 0.87961715 0.5970718 0.5616012 0.12222312 -0.40252125 0.24645971 -1.0916204 0.8734747 -0.33391687 -1.8904182
472 0.4792696 1.5594786 0.2836317 0.14206 1.3441241 0.2146688 -0.51179415 1.0232365 -0.4727021 0.15818599
368 1.4914426 0.18108396 0.11898787 -0.2747876 -0.5844926 -0.20122331 -1.3601587 0.61576813 -0.3919359 -0.8271275
341 2.0321836 0.0037357942 0.15049936 -0.26690727 -0.11465295 -0.01616632 -0.8013764 -0.0064413473 -0.438561 -0.7172791
382 1.1921303 0.26641646 0.2964465 -0.1387801 -0.6208159 -0.30223435 -1.4613338 0.8376583 -0.35941267 -1.1221055
396 1.0254189 0.48995364 0.4021302 0.050566133 -0.6146756 -0.06560536 -1.1071928 0.9412577 -0.322591 -1.4692531
366 1.4983696 0.16294529 0.12798585 -0.27794832 -0.5322142 -0.17182142 -1.4223199 0.5420057 -0.40292218 -0.8500179
93 0.78665864 -0.7089765 -0.6878862 -0.11326177 1.0538902 -0.25169954 0.064575866 0.689764 -1.1045508 0.7674541
336 2.0129704 0.1673121 0.12533137 -0.38458243 0.14124583 -0.0872046 -0.72158986 -0.030490302 -0.39972338 -0.6808604
457 0.122993365 1.4398654 0.26291984 0.2763389 1.0211096 0.35714635 -0.70965147 1.2166165 -0.5666679 0.30386811
91 0.9149424 -0.75920403 -0.7217057 -0.11043845 0.94067574 -0.32175338 0.07288909 0.6972607 -1.1742207 0.77978396
349 1.7779003 -0.02904018 0.055606782 -0.39977214 -0.33653742 0.0060630026 -1.0868589 0.11481412 -0.49655893 -0.73986435
471 0.41095805 1.4861398 0.2958862 0.19966795 1.3810909 0.21560954 -0.44708872 1.007546 -0.5086009 0.24098742
605 0.044565413 -0.033764254 1.6429497 0.15927796 0.98642987 -0.69055295 -0.6247752 0.016884344 -0.885795 -0.57420033
84 0.7731396 -0.75564396 -0.7574565 -0.06254159 0.80901283 -0.4733339 -0.13557787 0.7667228 -1.1226349 0.7240877
364 1.4610293 0.17193016 0.08870118 -0.30241743 -0.52210784 -0.14573492 -1.3901384 0.47579384 -0.45016217 -0.85616624
459 0.110169284 1.4517947 0.22437067 0.28434747 1.0938239 0.4634348 -0.68502384 1.2502635 -0.5588087 0.24148414
603 0.13408941 -0.04493001 1.6432519 0.26556525 0.9742071 -0.58076704 -0.6763897 -0.03280079 -0.82545763 -0.53281
443 -0.11727046 1.2860117 0.3541796 0.44433403 0.8180818 0.4668237 -1.0307676 1.4278435 -0.5119616 0.2348243
447 -0.049140703 1.384467 0.33076218 0.4066433 0.8663009 0.3965974 -0.9419648 1.3719954 -0.5608568 0.23835722
373 1.3443125 0.19094929 0.11885585 -0.23796645 -0.5202615 -0.21500735 -1.4876677 0.7884194 -0.3160022 -0.94881654
367 1.4687089 0.18247724 0.10568702 -0.28143883 -0.5428268 -0.18592213 -1.359079 0.58285904 -0.4035282 -0.8464169
89 0.6992749 -0.69444954 -0.6383917 -0.22990488 0.98013717 -0.40708256 0.048964825 0.75954044 -1.1557865 0.7338439
600 0.1151071 -0.11402365 1.5774045 0.15379499 1.0246749 -0.5909265 -0.60597116 -0.1403449 -0.9606498 -0.54693025
324 2.154954 0.32762784 0.36622116 -0.24002679 0.35531786 -0.22843319 -0.5688412 0.056267396 -0.28262058 -0.6389409
610 -0.00020790742 0.018614877 1.6358483 0.08546275 0.94699764 -0.78259534 -0.61901873 0.0929393 -0.90212893 -0.5025286
604 0.11395476 -0.049263366 1.6332542 0.21277477 0.99749565 -0.6397092 -0.6613102 0.0023080693 -0.83127546 -0.46877596
429 -0.2713302 1.2044564 0.33544275 0.42731944 0.7185944 0.34380677 -1.2042998 1.3781521 -0.59544855 0.25819635
335 2.0729637 0.18181245 0.22978733 -0.2699426 0.11246816 -0.02232099 -0.7900303 -0.032178536 -0.39651516 -0.7230107
436 -0.24996336 1.2996464 0.23943093 0.38334998 0.7172321 0.44411147 -1.0358585 1.4232863 -0.64745617 0.239387
390 1.0113027 0.5184519 0.35079604 -0.04099695 -0.58661616 -0.22333756 -1.3033661 0.8401139 -0.3782911 -1.2968242
71 0.6039353 -0.69136363 -0.7961548 0.023862291 0.7966752 -0.7705515 -0.49473485 0.8394981 -1.0509508 0.39210752
350 1.8427896 -0.027802553 0.08201858 -0.36209193 -0.35816112 -0.050328426 -1.013854 0.2157336 -0.44882667 -0.7880704
78 0.7249773 -0.730809 -0.75633 -0.061331186 0.76315343 -0.6619067 -0.21043518 0.8583508 -1.0778456 0.5793591
69 0.5903815 -0.79651713 -0.79674196 -0.037981138 0.71513116 -0.7829616 -0.5023703 0.8773831 -1.0954745 0.4348895
430 -0.22710367 1.202178 0.314167 0.4239198 0.7622858 0.36512905 -1.123635 1.378039 -0.57373476 0.22816226
333 2.0999258 0.10300224 0.20473664 -0.28934243 0.10810444 -0.013141462 -0.7131078 -0.06639081 -0.38503942 -0.6860112
392 1.0269023 0.5078299 0.424132 -0.05598467 -0.6315045 -0.11539571 -1.2158211 0.83774394 -0.38031182 -1.3466972
337 2.0042562 0.09449113 0.1940217 -0.3321614 0.025848566 -0.038573768 -0.7425413 -0.013057599 -0.38753483 -0.6353396
86 0.79109794 -0.7001315 -0.7055817 -0.18214399 0.9583122 -0.5136236 -0.072978355 0.8334866 -1.0574889 0.68489456
75 0.56927466 -0.7782346 -0.7419034 -0.024343383 0.7922653 -0.7089551 -0.41271657 0.8705424 -1.0898893 0.5264388
458 0.06835597 1.3951693 0.24841133 0.3451515 1.0752541 0.37072873 -0.6864351 1.2778629 -0.5654906 0.305999
372 1.2952296 0.23500119 0.1298057 -0.269383 -0.53895223 -0.32139343 -1.4384513 0.7179974 -0.35257226 -0.89335316
118 0.86059624 -0.8675286 -0.16005874 -0.22950433 1.4200758 0.13810259 0.4346121 0.42207533 -0.9904977 0.79068446
70 0.5232522 -0.7466967 -0.7360177 0.03188869 0.736669 -0.842591 -0.4633582 0.9223223 -1.0810348 0.43786725
403 0.9289967 0.5936329 0.42823786 -0.042116098 -0.49984553 0.10223092 -1.1205785 0.92736506 -0.31266776 -1.6400055
428 -0.18293083 1.161309 0.22837296 0.39930794 0.82653356 0.34525892 -1.1599687 1.3452556 -0.5654937 0.29160985
88 0.7693268 -0.824923 -0.6940506 -0.14773996 0.9260945 -0.43818226 -0.003897866 0.8272281 -1.1618867 0.7627432
456 0.106378734 1.4363116 0.28423592 0.30556467 0.9806273 0.40654346 -0.72513103 1.2828832 -0.56009275 0.3797812
477 0.6156135 1.5887465 0.33044228 -0.053604286 1.4262769 0.21862991 -0.4706846 0.894378 -0.47931677 0.21167299
100 0.69206583 -0.70700574 -0.47382593 -0.036343656 1.2307383 -0.21793543 0.23438686 0.6822345 -1.1394204 0.81850356
66 0.52905184 -0.63707924 -0.8472973 -0.09491297 0.76264626 -0.90522903 -0.45296812 0.9779657 -1.1047953 0.31229818
347 1.8832772 0.06896167 0.10504506 -0.33683807 -0.28903615 -0.023569709 -0.97972023 0.07359655 -0.51000476 -0.784666
363 1.507998 0.17636317 -0.0112102125 -0.33262104 -0.53129995 -0.043747593 -1.2574234 0.45192692 -0.4871172 -0.87170273
330 2.0936651 0.17665033 0.2136231 -0.33938146 0.23541181 -0.07973864 -0.6357846 0.109494336 -0.25512326 -0.6673615
378 1.1539228 0.30579206 0.2552885 -0.16221607 -0.52206606 -0.22202341 -1.4581985 0.7086624 -0.351741 -1.0414736
379 1.1528816 0.19487248 0.3215133 -0.19198625 -0.52852136 -0.28218094 -1.456539 0.7673654 -0.30169907 -1.0931185
96 0.7600501 -0.72438836 -0.61628234 -0.10530532 1.1164814 -0.29960087 0.16805339 0.72510546 -1.1764107 0.814212
334 2.0553927 0.059218682 0.17634197 -0.30775484 0.03899128 -0.053468604 -0.6985014 -0.027978148 -0.40955752 -0.651827
248 0.57551473 -1.5450279 0.4208037 -0.49624813 0.3169107 0.63030386 -0.08942102 0.85332197 -0.502776 -0.6609424
449 -0.08458845 1.3765534 0.3568369 0.41347158 0.9176298 0.43404147 -0.8516771 1.3144151 -0.5722997 0.24295433
376 1.3134544 0.1920799 0.25316915 -0.12269999 -0.57460934 -0.26812676 -1.4575416 0.7690021 -0.3470638 -1.0936174
455 0.092114516 1.4352734 0.2219937 0.36715424 1.0018599 0.46583283 -0.73035234 1.1962907 -0.61281824 0.25887588
451 -0.09941084 1.3448875 0.33772767 0.41813427 1.0409737 0.42880616 -0.7571906 1.295455 -0.6156985 0.33455825
101 0.75961536 -0.6921496 -0.49152997 -0.21558915 1.3034252 -0.1872109 0.21449265 0.64735234 -1.1037999 0.7954398
315 2.1268141 0.6476096 0.43451217 -0.0890682 0.5299723 -0.43409047 -0.31511328 0.19157027 -0.2259813 -0.43664888
391 1.0962768 0.5103538 0.36950818 -0.07902487 -0.62444794 -0.15940526 -1.2519153 0.8629099 -0.36546934 -1.3276122
119 0.8342016 -0.8462948 -0.07441146 -0.24016389 1.4385451 0.09111716 0.52730954 0.43027216 -1.0029236 0.7060037
598 0.1439867 -0.16645645 1.616567 0.19627942 0.9865205 -0.5804084 -0.66841096 -0.12400606 -0.94558364 -0.50111306
97 0.7209003 -0.74666923 -0.5867205 -0.14796744 1.0980524 -0.21263637 0.12233286 0.6209493 -1.14401 0.7738042
454 -0.026399588 1.380353 0.3363162 0.38183635 0.9968053 0.49714357 -0.72681963 1.2598027 -0.5738453 0.24997985
448 -0.025510017 1.3729546 0.24911715 0.4049468 0.8841878 0.46434286 -0.92429614 1.3019094 -0.629301 0.31775874
473 0.47351637 1.5738494 0.36732894 0.07764698 1.3734462 0.254383 -0.4163759 1.0595019 -0.4841712 0.26214603
326 2.1203296 0.19227247 0.30679074 -0.29930604 0.2948687 -0.23291995 -0.54131365 0.038473427 -0.30647486 -0.61717993
99 0.7662756 -0.67410636 -0.529217 -0.10415524 1.1932114 -0.18582594 0.1899418 0.53418654 -1.1474758 0.75693244
107 0.7700968 -0.6750869 -0.36437875 -0.11968425 1.3767076 -0.029328665 0.40706667 0.52252823 -1.1277146 0.8193253
450 -0.034262955 1.3901142 0.25809872 0.35588837 0.96830845 0.357841 -0.86332196 1.2876263 -0.57466346 0.20632677
81 0.6838015 -0.73311335 -0.80214494 -0.05373045 0.8831945 -0.5156779 -0.28591847 0.8076612 -1.0929228 0.63249654
323 2.0588348 0.37296027 0.34071335 -0.25043875 0.3188643 -0.31556067 -0.45565978 0.0114959 -0.32584512 -0.5593869
374 1.334287 0.23293792 0.13797396 -0.28203565 -0.56048584 -0.26542455 -1.4136662 0.7053705 -0.37851462 -1.0031515
149 0.75182694 -0.79582417 0.4598318 -0.7710858 0.95285934 0.060671818 0.5123204 0.97918344 -0.3609986 -0.046598386
82 0.7769628 -0.754991 -0.65598035 -0.033069003 0.85938394 -0.58166987 -0.18017925 0.7809433 -1.0323089 0.6489315
74 0.6285206 -0.69670784 -0.812715 -0.21119547 0.8372157 -0.72641426 -0.38713548 0.7874516 -1.127355 0.45797044
332 2.113957 0.1412183 0.20647308 -0.31711543 0.20154276 -0.09387396 -0.70735276 -0.02845413 -0.36935127 -0.684239
377 1.1915609 0.28770134 0.18294394 -0.27341583 -0.5016108 -0.18269108 -1.4866623 0.70103663 -0.35846788 -1.0294728
620 0.17758904 -0.10922923 1.3851429 0.26691315 0.123163514 -0.7322437 -0.09045519 0.44451484 -0.9046683 0.29301986
478 0.62599355 1.5168658 0.30777428 -0.06593269 1.3790532 0.19147013 -0.5536841 0.88212335 -0.47420564 0.30924842
316 2.0763223 0.46560478 0.44597292 -0.16997206 0.51063526 -0.30293223 -0.32540566 0.15979774 -0.18561442 -0.5026648
79 0.7331539 -0.705355 -0.7818484 -0.053497404 0.8525798 -0.6384479 -0.2430245 0.95703256 -1.0416887 0.5973807
370 1.4398156 0.13716586 0.13421123 -0.25745407 -0.5061944 -0.1928108 -1.4456573 0.6052555 -0.35695243 -0.938502
597 0.11241088 -0.19581339 1.5508231 0.20666403 1.0232105 -0.5048005 -0.70606035 -0.12587672 -0.9031309 -0.45626068
427 -0.2643208 1.2166096 0.2930316 0.4723058 0.7702718 0.49659613 -1.1383911 1.4267036 -0.6006311 0.26446393
147 0.7350435 -0.82480574 0.56463045 -0.9207369 0.7745714 0.032141753 0.39986226 0.9833531 -0.33130047 -0.20134674
354 1.7080692 -0.07463203 0.08374101 -0.4316908 -0.40776896 -0.052323174 -1.1504258 0.21979079 -0.4383961 -0.77918047
343 1.9642282 -0.04462065 0.102952205 -0.23789036 -0.12729046 -0.048087485 -0.93062204 0.025169734 -0.43836406 -0.7462528
73 0.62526584 -0.7523852 -0.7693774 0.015186584 0.7822698 -0.849528 -0.31526297 0.92863595 -1.105446 0.42946497
325 2.0825095 0.22462887 0.37720653 -0.20289068 0.27472886 -0.19586244 -0.59397674 0.033285826 -0.2841283 -0.567933
98 0.80513126 -0.73668104 -0.57858306 -0.10918537 1.1068108 -0.1827991 0.22096145 0.65446043 -1.168315 0.8426379
348 1.8526711 0.0028763504 0.024365341 -0.4044983 -0.25685447 -0.063787386 -1.0741694 0.06394261 -0.51091623 -0.7549934
342 1.9537176 0.04402306 0.16034445 -0.34163144 -0.036291067 -0.08831978 -0.9234925 -0.010310451 -0.4201037 -0.75883716
329 2.093806 0.19002064 0.24963817 -0.33095777 0.22377135 -0.19195126 -0.6540427 0.012193192 -0.33906907 -0.66060865
479 0.64094615 1.5235642 0.334163 -0.12509945 1.4006431 0.2221468 -0.44351116 0.93204665 -0.43560338 0.3079617
80 0.67043656 -0.7402722 -0.7130538 -0.13243715 0.90201646 -0.69002706 -0.22640885 0.87754685 -1.1069707 0.6564547
624 0.1134447 0.0042056656 1.4826459 0.5232544 -0.19536461 -0.8168692 -0.19456527 0.47599655 -1.3344991 0.2631868
353 1.7388762 -0.10386859 0.090955436 -0.32973757 -0.3738757 -0.05193982 -1.1273258 0.21085918 -0.44370762 -0.8229073
351 1.8155016 -0.08681363 0.1195956 -0.31029025 -0.32766336 -0.022663267 -1.1151199 0.060337536 -0.5078676 -0.80097234
371 1.4263314 0.23058254 0.18036067 -0.27783322 -0.60392404 -0.27218685 -1.3697112 0.62683743 -0.40318966 -0.9203619
327 2.1276348 0.21739914 0.30874902 -0.16593432 0.2972802 -0.13068573 -0.6092383 0.06606651 -0.25434762 -0.6515523
72 0.6458 -0.7298213 -0.79833543 0.006081731 0.7444668 -0.8275938 -0.4607852 0.98496777 -0.9872101 0.4262332
108 0.7362565 -0.6494483 -0.3648769 -0.16864899 1.4055448 -0.023409765 0.43984804 0.49576527 -1.1339748 0.800947
331 2.0841012 0.22743487 0.30789715 -0.32183588 0.15081532 -0.14096929 -0.71092933 0.0046205185 -0.34049603 -0.58297825
328 2.064925 0.24022421 0.30751967 -0.3569548 0.19620693 -0.07271723 -0.6327202 -0.046244532 -0.36082807 -0.6489494
146 0.77896357 -0.7837171 0.5660707 -0.85353047 0.7632662 -0.028276088 0.45428565 0.965161 -0.33968943 -0.15197915
365 1.5694884 0.24139714 0.18470082 -0.31565017 -0.52372134 -0.092812076 -1.3688421 0.5648316 -0.38160342 -0.89211774
346 1.8838441 0.027175616 0.13203119 -0.3572082 -0.16599533 -0.023441091 -1.0998404 -0.008849034 -0.47714248 -0.76763016
121 0.78415036 -0.60873544 0.08653873 -0.15237933 1.1089479 -0.017218469 0.4155987 0.3204664 -0.74508286 0.5455593
426 -0.32146516 1.1887567 0.4291757 0.37663388 0.776763 0.37284097 -1.0618677 1.3655436 -0.57300436 0.21476205
425 -0.22017717 1.1705468 0.37939543 0.5139694 0.74506104 0.42099002 -1.1840107 1.37369 -0.5624629 0.26134238
105 0.77803415 -0.7344181 -0.4319809 -0.13680072 1.3011447 -0.11104009 0.33348396 0.6174802 -1.1204417 0.8258186
106 0.68285763 -0.69855934 -0.412949 -0.14005275 1.4526526 -0.037182096 0.3985698 0.5792607 -1.2132703 0.7708129
102 0.77514225 -0.6941398 -0.4104189 -0.056396473 1.226991 -0.24897948 0.2885922 0.6131194 -1.1223328 0.85211754
344 1.9085959 0.12809438 0.15477248 -0.3614203 -0.11756714 0.036730867 -0.9562199 -0.020323036 -0.47456065 -0.71956515
120 0.7919332 -0.8277638 -0.007777119 -0.273077 1.4056368 0.09053059 0.54014015 0.5704437 -0.87863874 0.660131
83 0.8377895 -0.725607 -0.74561983 -0.025051424 0.81344634 -0.57098997 -0.084238455 0.73942137 -1.1349341 0.66781825
352 1.8307188 -0.057795808 0.07815464 -0.34197566 -0.2540679 -0.04768566 -1.1925036 0.20375426 -0.40798452 -0.8192894
318 2.156403 0.42934725 0.4159922 -0.17786632 0.42604294 -0.3555412 -0.4012827 0.15873359 -0.23826283 -0.4686293
313 2.154407 0.63991356 0.4726223 -0.03834145 0.5625786 -0.39645466 -0.2900827 0.3274634 -0.12003013 -0.40007028
317 2.131446 0.5133665 0.45161355 -0.10327928 0.47025457 -0.433838 -0.41532233 0.19251676 -0.22330646 -0.48042163
629 0.09743335 0.05829863 1.3520727 0.49084014 -0.2868702 -0.84197253 -0.23931853 0.49993357 -1.3037561 0.2800273
345 1.9640474 -0.0020440351 0.23865753 -0.37092584 -0.2371869 -0.06405248 -0.9333696 0.12503466 -0.42004386 -0.70768917
278 1.4928442 0.27953002 0.14592427 0.9720204 0.13518497 0.60291445 -0.5905139 0.6164054 -0.3673523 0.30983698
713 -0.29615006 -0.09322851 -0.20740363 0.3988158 -0.62377083 0.86189425 -0.7524394 0.19753473 -1.9926996 -0.33606398
743 0.43935794 0.9755196 0.23411343 -0.28378782 0.0021900132 0.026678208 0.7793654 0.26840904 -1.5250242 -0.46158594
540 0.25798348 0.5924544 0.2006392 -0.9930297 1.2721628 1.2621017 -1.2785314 0.3821111 -0.68702435 -0.2719494
144 0.6934548 -0.9603508 0.3073763 -0.4742851 0.9633003 0.26231584 0.50643045 0.7948882 -0.53134245 0.153572
490 0.7213217 1.4128909 -0.041161824 -1.172298 1.2878983 0.37783927 -0.9310125 0.5276642 -0.87429917 0.43220952
572 0.2226341 0.2359817 0.035506774 -0.51544684 1.3798355 1.6812044 -1.5128657 0.35755488 -0.7288667 -0.23304981
312 2.1450746 0.6838194 0.5494651 0.027433515 0.61086047 -0.41259664 -0.3765469 0.38646278 -0.09407188 -0.27523592
554 0.37260464 0.36589843 0.025605967 -0.6370245 1.3406799 1.4443148 -1.4341516 0.2654711 -0.6958985 -0.22330967
484 1.060651 1.3241205 0.32287624 -0.5177564 1.1114724 0.45666608 -0.74414665 0.5028023 -0.4405169 0.63426924
574 0.26058 0.23868611 0.0389957 -0.35949984 1.4809985 1.6087562 -1.4160521 0.21735537 -0.80386907 -0.12566938
551 0.35983863 0.37158236 0.07731866 -0.7162322 1.3776305 1.4729468 -1.4001292 0.313627 -0.6842574 -0.21237446
104 0.8331662 -0.7048383 -0.45886788 -0.17084159 1.2982638 -0.18767399 0.37739357 0.5101752 -1.1792185 0.7131138
550 0.2124902 0.43805307 0.08134609 -0.7372385 1.3503083 1.5671077 -1.3342036 0.3691592 -0.766206 -0.3015694
557 0.35850117 0.3284942 0.04681729 -0.68863124 1.3316699 1.50471 -1.3083311 0.33531395 -0.6553159 -0.24757084
531 0.25611308 0.6675513 0.19820406 -1.2783053 1.2417812 1.0098901 -1.3761042 0.4965229 -0.7225948 -0.122132055
103 0.7502765 -0.6685637 -0.5250168 -0.10980976 1.3044362 -0.07490714 0.3021177 0.61239433 -1.1343825 0.80452484
555 0.25722298 0.38396767 0.07381235 -0.6856879 1.4016362 1.4882448 -1.2659259 0.3479487 -0.70902425 -0.27093825
544 0.2412413 0.4848884 -0.018284483 -0.96045566 1.3027788 1.3184165 -1.2889878 0.43556377 -0.7415158 -0.3042579
533 0.12624326 0.6470739 0.105022535 -1.1432307 1.2660555 1.0601373 -1.2351335 0.50207347 -0.74575317 -0.26773062
571 0.21586902 0.28155592 0.16102767 -0.46746644 1.3466288 1.7122422 -1.4190862 0.37037817 -0.7033727 -0.20572473
553 0.27036738 0.353227 0.015292713 -0.6882342 1.3433286 1.4550996 -1.2768629 0.32993168 -0.6956701 -0.23674561
575 0.3549782 0.22595593 0.012058179 -0.39761207 1.3354772 1.6580198 -1.4852755 0.23212244 -0.7227237 -0.21278007
528 0.22051714 0.7241208 0.26229838 -1.2321395 1.3457177 0.89636254 -1.2332449 0.44933662 -0.7010988 -0.18435372
558 0.34700382 0.25576517 0.008229884 -0.70374763 1.3364632 1.5335276 -1.3740594 0.29077226 -0.7271171 -0.18514822
525 0.2210337 0.8304045 0.147421 -1.2291049 1.2711844 0.8098935 -1.2062969 0.44777513 -0.760227 -0.09606255
552 0.33863553 0.33268926 -0.0072291256 -0.74559563 1.4265947 1.3523785 -1.3380864 0.35339928 -0.66855735 -0.26737306
522 0.22599673 0.90329796 0.23561713 -1.3273258 1.1846081 0.907079 -1.0718966 0.54423517 -0.71830904 -0.19264625
524 0.14829051 0.8289965 0.39216307 -1.3268176 1.1756685 0.8116865 -1.3017341 0.54960614 -0.7051526 -0.10760919
545 0.18285903 0.5056363 0.12366777 -0.9323267 1.4142953 1.3329906 -1.3050846 0.4172835 -0.7192867 -0.26762536
529 0.2490268 0.70794326 0.24801317 -1.2525599 1.2248367 0.98278 -1.3506539 0.52248454 -0.6675738 -0.124413125
495 0.63817143 1.2748815 0.045650158 -1.203727 1.2558019 0.3204925 -0.9070866 0.55211 -0.78971887 0.431322
491 0.63234633 1.3233632 0.063350886 -1.1351073 1.2673055 0.28115022 -0.98069173 0.5334181 -0.86583596 0.58288
541 0.16836116 0.48952037 0.20976305 -0.98189336 1.2996583 1.2214073 -1.300309 0.33779004 -0.7660853 -0.19972113
560 0.31631973 0.2543896 -0.05454477 -0.59619427 1.4285196 1.5546803 -1.2970558 0.32768705 -0.6796977 -0.22398366
532 0.23879632 0.69146985 0.20211305 -1.2282047 1.3431239 1.0210518 -1.2981821 0.4821229 -0.7192726 -0.26802716
539 0.27405497 0.43084493 0.23154002 -1.0817177 1.1967685 1.2826668 -1.240921 0.41191882 -0.6662477 -0.042119503
493 0.6836325 1.2413192 0.18801568 -1.179351 1.2274455 0.49587896 -0.84913033 0.48535073 -0.7691171 0.44642627
559 0.31583387 0.2814776 0.03846067 -0.72453535 1.2811445 1.4674848 -1.3896377 0.27127725 -0.72260475 -0.2514539
492 0.6464762 1.2881484 0.24108383 -1.1751058 1.2900387 0.281021 -0.9418104 0.5409483 -0.7040583 0.3699577
489 0.6889196 1.3585258 0.14280903 -1.1768748 1.2369372 0.34410793 -0.85887367 0.521176 -0.81874365 0.5035403
569 0.16987628 0.2580223 0.18642451 -0.47408423 1.3314502 1.653703 -1.3823668 0.2885921 -0.75655687 -0.087676674
570 0.23106617 0.19714218 -0.01919959 -0.53537357 1.5018244 1.6472293 -1.4193372 0.299999 -0.8308305 -0.18091719
566 0.31970367 0.26301342 0.041866735 -0.56110543 1.4504049 1.6191795 -1.3569965 0.34202313 -0.6635441 -0.3355933
521 0.29689962 0.86160475 0.18443586 -1.3365996 1.2416764 0.7471145 -1.248093 0.48956248 -0.7130957 -0.09495052
0 0.2762226 -0.115513325 -0.73266333 0.55102116 1.0155019 -0.40669015 0.3399635 0.8586488 -1.0483209 -1.2783391
561 0.36698487 0.27344754 0.021795442 -0.62962407 1.3564948 1.5519061 -1.2760042 0.30317253 -0.65751183 -0.2246264
530 0.283153 0.7435034 0.10679409 -1.2104142 1.2517741 1.0291007 -1.2686967 0.5605133 -0.7185054 -0.16500692
534 0.20173427 0.46829882 0.14709827 -1.1677712 1.2705456 1.0571762 -1.2947817 0.3819024 -0.7359218 -0.1623593
573 0.2641669 0.14391443 0.0055929124 -0.39394286 1.4130735 1.5748901 -1.4856541 0.28993377 -0.74802756 -0.12212857
488 0.7067965 1.3848358 0.05084483 -1.0105147 1.2557727 0.3574584 -0.8582256 0.49365222 -0.8170656 0.4716642
537 0.2658424 0.5796737 0.1439982 -1.0317839 1.2757082 1.0819324 -1.3324453 0.3311229 -0.7059756 -0.22421136
538 0.15807243 0.61479825 0.12918764 -1.0583253 1.2300185 1.261417 -1.2999982 0.5014586 -0.74844056 -0.17742813
556 0.32033646 0.29244626 -0.025070386 -0.7157707 1.3560368 1.4700199 -1.3495677 0.384446 -0.6883977 -0.26674154
536 0.20697641 0.52302724 0.14019199 -1.1918495 1.292351 1.0448194 -1.3760259 0.45062998 -0.74798316 -0.0632947
543 0.2411459 0.49744526 0.13150534 -0.94229937 1.3735296 1.2796153 -1.3252761 0.42818826 -0.70647776 -0.23823124
568 0.20761833 0.26131186 0.038769946 -0.4972205 1.2412597 1.7542278 -1.447185 0.2844379 -0.8206129 -0.17600334
527 0.26798055 0.7705458 0.26506272 -1.2716696 1.2897755 0.8821166 -1.2698207 0.47198787 -0.6786587 -0.15522061
546 0.26512098 0.4745963 0.16988361 -0.9137762 1.3220755 1.4257565 -1.341976 0.3669593 -0.7551499 -0.22191496
549 0.29779878 0.39683506 0.11720686 -0.7674858 1.4488002 1.4927258 -1.3789781 0.42513493 -0.6797893 -0.22191802
487 0.77544194 1.4561132 0.12091156 -0.9587004 1.2708938 0.22714074 -1.0035458 0.54614174 -0.8033815 0.5590343
496 0.5660252 1.1987362 0.015111388 -1.2607797 1.0816214 0.45056266 -0.9821817 0.6068508 -0.75980216 0.45654663
486 0.7435922 1.5037535 0.043920368 -0.9328438 1.3396564 0.2854988 -0.96006256 0.48826936 -0.857135 0.46801367
499 0.4672217 1.1877334 0.0030591546 -1.2413408 1.1058623 0.53041375 -0.87643284 0.5511453 -0.8088995 0.31695822
563 0.33595 0.31531966 0.050546527 -0.64543295 1.3824079 1.6019125 -1.3740145 0.3442039 -0.7160119 -0.16942571
564 0.2704556 0.29494002 0.004788743 -0.6574354 1.3530622 1.6408622 -1.2912581 0.2767624 -0.78814757 -0.26047745
567 0.22376336 0.26653257 -0.065098874 -0.50577384 1.4142249 1.5882238 -1.3410923 0.35503733 -0.7686868 -0.21067241
497 0.54508543 1.1942549 0.068691194 -1.2062308 1.1738862 0.45441344 -0.8569391 0.57543737 -0.7773075 0.40856415
526 0.25197983 0.7246247 0.20431605 -1.3069576 1.2127991 0.83800155 -1.2488861 0.47377938 -0.6748824 -0.23843384
485 0.80399626 1.4462678 0.14539738 -0.88892555 1.3090389 0.32197127 -0.89710516 0.5590181 -0.7359843 0.5859963
519 0.3253359 0.8907827 0.28657362 -1.3591298 1.1769785 0.7453301 -1.1613812 0.502458 -0.6444324 -0.07901256
547 0.24200235 0.403254 0.11883238 -0.84315145 1.2553562 1.362005 -1.339478 0.2626541 -0.7609575 -0.22864145
518 0.2671802 0.89102715 0.3363604 -1.2825474 1.2605312 0.73845255 -1.1776137 0.5021666 -0.68827385 0.004469819
517 0.3366167 0.9191141 0.20021538 -1.3376176 1.2314255 0.8008012 -1.1069319 0.55802494 -0.73108566 0.023080839
498 0.54974025 1.2203918 0.25462314 -1.2831687 1.176655 0.44713345 -0.95053416 0.5910392 -0.7093962 0.36988467
507 0.46410635 1.1051675 0.13952932 -1.4042125 1.1523621 0.5723479 -1.0087986 0.5837797 -0.6835771 0.077856876
501 0.5348354 1.2072697 0.10751343 -1.3070433 1.1397772 0.5021364 -0.97014695 0.57499593 -0.71604246 0.23086372
13 0.33539712 -0.3165877 -0.91423345 0.3582731 1.0465486 -0.43164957 0.01739403 0.8051864 -1.1118829 -1.2075621
506 0.45801166 1.0999058 0.118037015 -1.3706436 1.0497532 0.56662595 -0.9797062 0.55001116 -0.77244735 0.21803045
500 0.6323037 1.1721073 0.16421635 -1.266493 1.1488008 0.6095328 -0.8695127 0.52454346 -0.74624044 0.36955136
542 0.17288445 0.42328346 0.20403995 -1.0093786 1.2694237 1.3324621 -1.2294378 0.49004886 -0.6973209 -0.060381472
535 0.09230351 0.6137479 0.16760588 -1.1474997 1.3177001 1.098877 -1.3363774 0.42609742 -0.8194577 -0.16336472
548 0.21294223 0.41911277 0.09750528 -0.78149617 1.3837311 1.4162332 -1.3329878 0.37092084 -0.74872965 -0.22344951
516 0.38693294 0.91992784 0.22817963 -1.2874502 1.1696779 0.65678585 -1.1491885 0.43722787 -0.6999042 -0.019477526
504 0.39279944 1.0235063 0.16218543 -1.2825352 1.1451843 0.55728585 -0.972593 0.5329632 -0.7939844 0.4045128
515 0.34372738 1.0167354 0.31353846 -1.3876394 1.1302136 0.6806328 -1.2200272 0.53588223 -0.66601884 -0.15446766
520 0.27424967 0.9060523 0.23581058 -1.3572521 1.2826843 0.7441925 -1.3232443 0.54062444 -0.6945989 -0.20358276
480 0.61320597 1.4289743 0.31994447 -0.070077054 1.3912609 0.21592791 -0.35933122 0.8705457 -0.40615347 0.3039574
505 0.47855055 1.1536597 0.07213687 -1.3016968 1.1162481 0.6643829 -0.9529186 0.5497365 -0.78616 0.2250593
508 0.39156768 1.0226393 0.18262784 -1.3402857 1.188514 0.6245283 -1.0394369 0.6105645 -0.7091403 0.20642744
509 0.30573764 1.0044132 0.22775239 -1.419743 1.1521487 0.57359546 -1.1027309 0.6305231 -0.7061426 0.168474
502 0.47947782 1.141646 0.17867477 -1.362364 1.1515031 0.53333163 -0.95378345 0.62315124 -0.75543797 0.3540603
474 0.57533365 1.5600297 0.29792234 0.15220878 1.4817055 0.29859146 -0.4438537 1.0572811 -0.43929154 0.24251294
565 0.20596324 0.23044199 0.09703847 -0.598339 1.3331348 1.5000288 -1.2633809 0.2385227 -0.73990375 -0.12825043
503 0.50429803 1.1840631 0.19685546 -1.3325822 1.1413589 0.4524062 -1.0566529 0.5418991 -0.7728617 0.25424862
523 0.20457596 0.8195914 0.3101646 -1.3371505 1.1640842 0.86787915 -1.1829293 0.51337665 -0.69368535 -0.19138367
494 0.6101743 1.3520905 -0.027524978 -1.2584648 1.1099963 0.40852147 -0.90623695 0.54148746 -0.8669486 0.33143058
562 0.17878293 0.33213225 0.21261293 -0.54622275 1.4067938 1.4807756 -1.4343435 0.32457808 -0.66649073 -0.37796554
576 0.25111002 0.28569266 -0.008341442 -0.4921347 1.3525236 1.6515222 -1.4227967 0.29524112 -0.8093886 -0.2040402
514 0.3662044 0.989871 0.30162117 -1.3555222 1.219722 0.78133 -1.2365122 0.5908679 -0.7259595 0.14668341
148 0.61625993 -0.9512221 0.46962792 -0.54401433 0.7856426 0.16777222 0.21929488 0.9239796 -0.27293652 -0.21109378
249 0.60155535 -1.54543 0.35895857 -0.5270571 0.28641266 0.71578515 -0.047872584 0.79680365 -0.53680456 -0.72291476
510 0.358471 1.0013787 0.22332461 -1.3375496 1.1252522 0.6368055 -1.0638145 0.5549143 -0.72181624 0.14928499
512 0.35311237 0.9513687 0.2739772 -1.4015194 1.2026387 0.7772959 -1.0275469 0.53213197 -0.7581722 0.16174056
483 0.9873416 1.3219334 0.44342935 -0.40200087 1.2158597 0.20941198 -0.68757457 0.48295796 -0.45165315 0.5858769
740 0.5741654 0.679621 0.46615392 -0.023059892 0.37133527 0.7720093 0.8958171 0.010625166 -1.364365 -0.8446737
424 -0.23510918 1.1757331 0.2561112 0.41917837 0.76132774 0.29570255 -1.1248993 1.3317698 -0.52874506 0.13113187
513 0.39133182 1.0369506 0.15967672 -1.3569533 1.0571364 0.79251456 -1.0574703 0.5890133 -0.74260134 0.10123577
511 0.3668492 0.9344492 0.25810006 -1.3390917 1.207828 0.72111124 -0.95204866 0.50655454 -0.7216782 0.11166009
617 0.046084926 -0.05115345 1.6057234 0.2109137 0.7264652 -0.51370406 -0.6444659 0.029553957 -0.8810922 -0.16866553
143 0.6528236 -0.47347715 0.40908453 -0.48342347 0.4323289 0.026562698 0.6767731 0.5784069 -0.52123386 -0.061824962
311 1.7423182 0.4321505 0.47973353 0.020303994 0.6112827 -0.27101052 -0.24350917 0.17385836 -0.17969279 0.034216695
282 1.4746261 0.3839399 0.36791584 0.8523207 0.008310174 0.5853517 -0.5361456 0.6764774 -0.38081995 0.5434507
142 0.85861725 0.34734657 0.19980697 -0.35250875 0.26897916 -0.26779738 0.61997885 0.109235235 -0.7842093 -0.22976619
279 1.457371 0.35968173 0.14757377 1.0628626 0.08747543 0.3288137 -0.40894574 0.84403217 -0.23583832 0.16999885
281 1.2227226 0.29695264 0.6043237 1.0564075 0.11904356 0.73929197 -0.6711173 0.47989658 -0.35157698 0.31126606
421 0.4756136 -0.09705477 -0.1752485 0.20380719 0.57619244 -0.005138791 0.21988335 0.29959115 -0.5835094 -1.7674787
280 1.0029482 0.10662559 0.064911276 0.65813065 0.33029124 1.5037907 -0.90317315 0.25710434 -0.44616774 0.28260317
422 0.30266914 0.6582654 0.45022303 0.23410586 0.22022308 -0.07084632 -0.7185657 0.8381648 -0.022165649 -0.66985846
577 -0.007574442 -0.032455593 -0.02658577 -0.64684063 0.7596762 1.2958368 -1.112313 0.4075527 -0.65591925 -0.33220467
423 0.19192424 0.29623184 0.78841704 0.07447973 0.017625887 0.40218818 0.43909577 -0.006099953 -1.258573 -0.14312564
