749 15
201 0.22730973 -0.67322844 1.2867568 0.65557104 0.31805828 -0.5988108 -0.13859253 0.18452139 0.26378554 -0.31008443 0.25645337 0.61198485 0.77237785 0.19603086 -0.5648332
204 0.25989586 -0.5224869 1.2784187 0.683316 0.35952333 -0.50041133 -0.013049984 0.2641701 0.30070087 -0.2617474 0.26658016 0.7332231 0.8032871 0.14380169 -0.5570075
680 0.30221897 0.29791254 0.9009164 -0.6794554 0.43198913 0.48857114 -0.69373095 0.1681906 0.8718156 -0.58997166 0.47208035 -0.23423333 0.38260123 0.60446185 0.13510315
156 -0.6618341 -0.044199403 1.2612531 0.11647159 -0.08819627 -0.8950931 0.70343494 -0.3344546 0.6726289 -0.094130985 0.5424374 0.41483945 0.33054358 0.106138326 -0.5598688
677 0.29114038 0.27591822 0.91026706 -0.633873 0.4448622 0.56129843 -0.7181883 0.041980177 0.8949228 -0.54407144 0.5154328 -0.18130167 0.30138338 0.6473835 0.06945481
749 -0.04806373 0.110766314 0.96921915 -0.9648667 0.26666793 0.41918355 -0.24643473 0.10475918 -0.6141416 -0.55116254 1.4252468 0.3025794 0.19227912 -0.14334738 0.43507773
750 -0.14174256 0.042733703 0.9721577 -0.916198 0.30422592 0.52187747 -0.2863788 0.115395576 -0.60072887 -0.49042678 1.3037419 0.3247245 0.2498826 -0.12401871 0.47251388
203 0.2609884 -0.5853776 1.2688627 0.704028 0.283367 -0.53418577 -0.011814175 0.16213712 0.2350777 -0.31294435 0.35838842 0.70214874 0.79413 0.20484391 -0.47778964
751 -0.20061599 0.032638047 0.96086794 -0.93990767 0.12783095 0.5273504 -0.2560056 0.14168018 -0.5760484 -0.5318783 1.2863299 0.2863228 0.28420696 -0.02494255 0.4661251
228 0.54724604 -0.3506044 1.3722166 0.5939398 0.29139844 0.055056334 0.16541183 -0.24262324 0.16310441 0.065169394 0.5283013 0.92792815 0.4369545 -0.41452762 -0.77415884
226 0.5767137 -0.39930487 1.3524489 0.6098261 0.28371432 0.093795955 0.2189323 -0.26086125 0.18042818 0.02695494 0.5801255 0.9664996 0.45179003 -0.23143172 -0.7551627
676 0.34048653 0.3725447 0.8800195 -0.709771 0.46953014 0.5756413 -0.6402958 -0.018454986 0.8880746 -0.47923982 0.5933282 -0.14464006 0.2574285 0.61505926 0.08478657
681 0.37920234 0.292837 0.9283093 -0.6614979 0.42953867 0.55137044 -0.70645374 0.31232932 0.831696 -0.6049461 0.5069166 -0.21454345 0.3595836 0.6076215 0.037910502
658 0.22412145 0.108755 0.8512211 -0.7159345 0.4449331 0.64408076 -0.5174227 -0.4252342 0.86058944 -0.37204677 0.6700333 0.23484759 -0.098958746 0.7241651 0.3699572
753 -0.20083849 -0.03472994 0.98573405 -0.91701907 0.23210846 0.4697037 -0.2926746 0.17834397 -0.53651166 -0.573179 1.2867155 0.31228423 0.21075882 -0.00899958 0.55558515
205 0.23028502 -0.6174302 1.285349 0.72918236 0.30122516 -0.53892255 -0.025517136 0.17097655 0.23393805 -0.24501888 0.3674166 0.8081456 0.76628613 0.05647989 -0.5446781
230 0.53778064 -0.32107556 1.4312716 0.57062364 0.40033224 0.123727754 0.20334008 -0.31667665 0.15877625 0.049126584 0.49290672 0.83074164 0.5398045 -0.4602603 -0.75590223
745 -0.11061035 0.09689958 0.94924766 -0.8763691 0.21601978 0.49914083 -0.16668692 0.024924563 -0.51421523 -0.58790195 1.4082901 0.15856212 0.21742132 -0.3781961 0.41835165
682 0.32972425 0.28317457 0.92300457 -0.6712702 0.4711138 0.49981844 -0.7291365 0.1856951 0.8735317 -0.6547041 0.43149477 -0.14165467 0.29717332 0.5558295 0.08470688
202 0.19851111 -0.7025534 1.243514 0.7100795 0.30916736 -0.527118 -0.030969221 0.1879094 0.24541195 -0.22822852 0.3064524 0.7011963 0.8690124 0.13459384 -0.4947012
748 -0.14426377 0.06527223 0.9746905 -0.8918768 0.24108142 0.5717786 -0.20165117 0.07321372 -0.560781 -0.55743885 1.4098723 0.25946587 0.23145048 -0.23317283 0.40391183
208 0.3363051 -0.57789093 1.3231204 0.7497846 0.3219563 -0.38843554 0.07996328 0.17917584 0.26709896 -0.18148586 0.42334542 0.83175844 0.73788375 0.04985643 -0.55387354
657 0.19603263 0.063303836 0.83911365 -0.7111154 0.41242102 0.63524264 -0.57491094 -0.47915426 0.80428606 -0.38365716 0.6789836 0.2695199 -0.115713745 0.7610701 0.39256302
229 0.5436284 -0.3832 1.3906431 0.65979046 0.2986464 0.0781047 0.109027565 -0.2848634 0.17430964 -0.0056460393 0.5852182 0.9250598 0.42309657 -0.39718312 -0.7257908
209 0.38454083 -0.6169796 1.2942643 0.68743527 0.2582468 -0.426876 -0.009544505 0.22053201 0.20263125 -0.23480189 0.37471634 0.86450493 0.70911956 0.007686737 -0.6174765
679 0.34328237 0.33362094 0.93330514 -0.6759823 0.45724037 0.50582325 -0.6523453 0.15250798 0.89239407 -0.59604764 0.5726678 -0.16596642 0.31006065 0.6842235 0.087838575
181 -0.40702432 -0.86764014 1.1406194 0.19130369 0.20278344 -0.5722158 0.25847098 -0.23679489 0.47964942 -0.2642172 0.07720036 0.6197958 0.5517952 0.29244977 -0.81284434
160 -0.67767346 -0.22591501 1.2047057 0.05501866 -0.0011089945 -0.81110054 0.6486755 -0.29986787 0.6553326 -0.15511821 0.4259261 0.3443728 0.34365836 0.13609543 -0.675881
175 -0.4674012 -0.74204373 1.2062895 0.09459779 0.19295548 -0.65874827 0.40392658 -0.24195199 0.46869206 -0.15531886 0.15492386 0.60594827 0.44443834 0.26260105 -0.87250686
591 -0.52936673 0.71583444 -0.10475733 -0.46371734 0.4528468 0.050200056 -0.7182093 0.0021929953 0.5093824 0.44908267 1.0196928 0.86255485 0.65649635 0.6832638 -0.7205833
746 -0.115792826 0.13247937 0.98126715 -0.85753345 0.22845091 0.4634975 -0.17427953 0.06312121 -0.5670171 -0.5942321 1.4326167 0.26838765 0.17597374 -0.28481662 0.35788372
231 0.49066156 -0.27147183 1.3424805 0.55221653 0.33486125 0.12507758 0.19754174 -0.30528435 0.08576152 -0.006280507 0.44802803 0.86864746 0.6238384 -0.47150213 -0.75871164
212 0.3691427 -0.5128808 1.2982596 0.67308724 0.22112808 -0.35124683 0.051489946 0.1649455 0.13544855 -0.17746341 0.45211983 0.9689389 0.6338373 -0.030141212 -0.60160995
747 -0.11639867 0.10351851 1.0103039 -0.9124974 0.2613301 0.49749807 -0.18002489 0.07820825 -0.5706871 -0.54298604 1.3857661 0.21337098 0.22484712 -0.27947235 0.38307118
154 -0.646402 -0.027473884 1.2324821 0.14557065 -0.05954661 -0.88925916 0.7047805 -0.3179108 0.7151211 -0.054795418 0.6867938 0.27752677 0.27697006 0.24245591 -0.560406
590 -0.44676858 0.7567736 -0.08518291 -0.49147552 0.4455869 0.027564045 -0.7603716 0.107106574 0.45083264 0.39544848 0.9281233 0.87323135 0.7706364 0.68968385 -0.6675796
673 0.2305556 0.3503139 0.82774365 -0.7079284 0.39644554 0.6403178 -0.57540494 -0.10452662 1.0033351 -0.50165236 0.55573314 -0.13563858 0.22789988 0.5947071 0.09716112
628 -0.5800151 -0.27724537 0.29275072 -0.7771539 0.36717942 0.33264005 -0.50528985 0.64657927 0.40921074 0.04328991 1.051832 -0.19203657 0.55385077 0.9989788 -0.24011211
234 0.47081253 -0.2955175 1.442058 0.57998574 0.21680616 0.1851568 0.06484433 -0.2608732 0.16519694 0.032913245 0.40433243 0.6879876 0.5426798 -0.518719 -0.92199385
155 -0.68416214 -0.0287427 1.2087141 0.17608085 -0.04072062 -0.8478146 0.75337774 -0.34431216 0.7672018 -0.04667649 0.6723692 0.3149773 0.31793392 0.20007147 -0.5661226
675 0.37758887 0.2425013 0.8262193 -0.6860579 0.5032648 0.5643496 -0.6655017 -0.013653243 0.91796166 -0.5012748 0.5328307 -0.14847025 0.25158802 0.5666398 0.08751752
589 -0.43987364 0.68554515 -0.103487775 -0.48765662 0.44333118 0.1346854 -0.7904181 0.051810693 0.4879272 0.48446918 0.8950334 0.9194303 0.7685265 0.7185091 -0.6677216
293 -0.2194624 -0.67622876 0.2501081 -0.5625004 0.5370271 -0.635233 -0.7368369 0.64378256 1.1491593 0.4684858 0.37279958 0.6731847 0.025408061 -0.75182337 0.45298848
762 -0.26075286 -0.2590376 0.8964562 -0.82869446 0.16341358 0.611927 -0.3831669 0.17057158 -0.3117266 -0.62980956 1.0275729 0.5268773 0.12056256 0.44704938 0.45523116
758 -0.21965677 -0.17204335 0.93600106 -0.8592165 0.22558096 0.5958666 -0.35336 0.21253885 -0.40179434 -0.5876735 1.1297481 0.50743 0.15572876 0.2874086 0.55618507
754 -0.19050677 -0.030232996 0.888404 -0.99464244 0.22154106 0.4653387 -0.21539028 0.14335032 -0.48992625 -0.53802854 1.2541852 0.41555992 0.17675439 0.05371336 0.5241537
774 -0.85744077 -0.61476344 0.45076755 -0.9709943 0.5151084 0.81523025 -0.4992259 0.5286018 -0.27430493 0.05004414 0.9859713 0.2263178 0.5133592 0.49531722 -0.22750345
581 -0.31919596 0.65267855 -0.10346185 -0.51310784 0.5843523 0.10551268 -0.8606543 -0.041341446 0.34814718 0.41597515 0.72621137 1.0576017 0.848843 0.72292084 -0.6936925
666 0.29202867 0.14053528 0.8978995 -0.7336984 0.3875581 0.699222 -0.53564715 -0.3769105 0.9515737 -0.41831452 0.65056604 -0.073759146 0.065144226 0.70644295 0.2336679
211 0.3977198 -0.5159725 1.260788 0.7318242 0.2110479 -0.3965662 0.0457376 0.23240268 0.19157605 -0.20235199 0.42872143 0.93330294 0.75044984 0.05781744 -0.58651304
223 0.5379768 -0.43339774 1.2789524 0.6308713 0.22370961 0.028782286 0.1727447 -0.13527249 0.17057559 -0.100880206 0.5396274 0.8969842 0.5928154 -0.2278713 -0.77622813
592 -0.5053381 0.78782606 -0.07164168 -0.39886448 0.41859296 0.10535405 -0.76730627 0.06545254 0.51409024 0.44294775 1.0276105 0.7855992 0.75888807 0.67389584 -0.630326
678 0.3399719 0.31538564 0.8890897 -0.686792 0.42900643 0.60935223 -0.6323896 0.14252922 0.90051657 -0.54536843 0.54565257 -0.16543226 0.34448344 0.6626635 0.098050326
214 0.31252983 -0.4450512 1.310513 0.7468397 0.28967717 -0.30909997 0.1541957 0.121495776 0.23116265 -0.11400188 0.46962026 1.0678194 0.6457181 -0.098472685 -0.5757154
210 0.36138976 -0.55643296 1.2874988 0.7036566 0.25074798 -0.38424212 0.012167543 0.21163799 0.14749992 -0.2648096 0.43305117 0.88218325 0.68273395 0.021387655 -0.61294717
165 -0.562931 -0.4751612 1.2186053 0.031019026 0.026300145 -0.7611816 0.5904607 -0.26293933 0.56924367 -0.18154474 0.33449572 0.44685817 0.4047171 0.28186122 -0.83982295
232 0.5194358 -0.34918028 1.3211868 0.5825869 0.34553745 0.13610739 0.127507 -0.37689728 0.108322375 -0.037286207 0.55195737 0.8114356 0.5755321 -0.42700693 -0.93166184
308 0.34208947 -0.6086414 -0.056109823 -0.48686284 0.6269802 -0.61694425 -0.59993684 0.41226688 0.94907254 0.57366943 0.8995911 0.44811133 0.38706398 -0.6584105 0.76491886
151 -0.5586052 -0.07118951 1.2794837 0.16845906 -0.014694493 -0.8971866 0.72066706 -0.4156091 0.765966 -0.04893652 0.6996214 0.1910803 0.2267821 0.1517999 -0.49416366
648 0.07669538 0.16053292 0.8450387 -0.59872204 0.3201677 0.51426125 -0.60386056 0.043698423 0.6783635 -0.5414812 0.8899074 0.18742073 0.06609418 0.8621441 0.37970912
756 -0.21498153 -0.14787745 0.8757511 -0.92850333 0.19572163 0.60059494 -0.3540642 0.20274888 -0.4178576 -0.60655224 1.1820042 0.47972032 0.19348711 0.1504099 0.55581474
167 -0.55458754 -0.54707307 1.2348384 0.011030595 0.071693495 -0.7589485 0.5804488 -0.26790336 0.57250816 -0.2030369 0.2818539 0.3664697 0.39980516 0.2244773 -0.817552
227 0.56065077 -0.36990774 1.2817432 0.6246801 0.3129604 0.10220707 0.14012219 -0.26889646 0.18875682 0.06433975 0.55527925 0.95033336 0.49974263 -0.29588592 -0.76905453
655 0.22345492 0.120466135 0.83872235 -0.7299534 0.3584535 0.63024753 -0.61678314 -0.48229888 0.82703507 -0.48452082 0.7688157 0.31890026 -0.13425735 0.7755032 0.42968443
665 0.2715203 0.24299447 0.92059547 -0.75501555 0.475489 0.6903683 -0.5884114 -0.40670815 0.91889066 -0.3628451 0.6738947 -0.025604358 0.033402465 0.65907395 0.23719579
200 0.2093915 -0.7060692 1.2599189 0.67303205 0.28273234 -0.5809139 -0.04232174 0.12099114 0.29068694 -0.2692923 0.31631073 0.6487351 0.76312375 0.23513515 -0.51518863
182 -0.32056627 -0.8927079 1.1537471 0.18852758 0.18068759 -0.576396 0.28452206 -0.19747932 0.4961511 -0.252966 0.08950706 0.56894654 0.57248104 0.3838982 -0.76423395
757 -0.22726059 -0.14833657 0.93066496 -0.9685317 0.24051009 0.5677523 -0.30952123 0.17731467 -0.390943 -0.66454244 1.1382897 0.5029585 0.10058009 0.22095008 0.48448578
584 -0.39056477 0.5991327 -0.16909681 -0.4855661 0.5275319 0.17861632 -0.86169153 -0.06272758 0.405621 0.4633255 0.80348927 1.0462486 0.8373728 0.6750716 -0.69283366
177 -0.42482406 -0.8019687 1.1401647 0.098431155 0.20443235 -0.7006129 0.33634698 -0.21024013 0.48335952 -0.14390422 0.16568235 0.54296666 0.46589565 0.3920567 -0.8837689
583 -0.4235676 0.574602 -0.12809546 -0.47124103 0.54557693 0.15732716 -0.9136366 -0.048224993 0.36723396 0.43427896 0.74411047 1.0249568 0.84239435 0.70102227 -0.68241864
153 -0.56461614 -0.10951643 1.2423939 0.14396615 -0.03466325 -0.88226426 0.70332456 -0.2947907 0.71762747 0.004882128 0.6800518 0.2429436 0.26441133 0.14820015 -0.5770508
759 -0.18796794 -0.21888115 0.9519147 -0.9338714 0.18988246 0.5528929 -0.38924178 0.17635001 -0.45058846 -0.56482935 1.1266271 0.47521082 0.14858896 0.35374248 0.5331797
213 0.41226026 -0.47489488 1.294103 0.6872101 0.29580554 -0.29562318 0.16396467 0.09290585 0.27085453 -0.14946665 0.39044935 0.8844423 0.7485041 -0.022898516 -0.5209527
585 -0.4139742 0.6828365 -0.13445316 -0.5321087 0.54234934 0.11072867 -0.81781065 -0.00793559 0.42287982 0.41794598 0.78195715 1.0372663 0.83584416 0.6814403 -0.648105
672 0.3510463 0.2718134 0.8909624 -0.7482999 0.44363996 0.60913455 -0.6041425 -0.16646697 0.94451356 -0.4536758 0.5798033 -0.2014421 0.1973268 0.61033946 0.12027018
763 -0.2359762 -0.26786193 0.8654314 -0.83879894 0.13540399 0.710551 -0.40569285 0.21056463 -0.30253768 -0.59908515 1.0184548 0.5343962 0.1784483 0.40926665 0.4899958
744 -0.16771953 0.13705021 0.89824444 -0.8851022 0.21380867 0.5170474 -0.21110728 -0.019737117 -0.5295703 -0.61599886 1.4787357 0.2035792 0.24110128 -0.38446215 0.4017076
579 -0.37588564 0.62717354 -0.124475405 -0.5597915 0.5798452 0.16330619 -0.85481066 -0.050177563 0.3755298 0.41009578 0.7452584 1.0094188 0.82448006 0.6660127 -0.71481687
760 -0.2625247 -0.22381116 0.90050143 -0.88903874 0.18355021 0.6764086 -0.40268984 0.19722757 -0.35231927 -0.63983124 1.131793 0.56121993 0.12746379 0.3634193 0.5077463
291 -0.26418924 -0.64823246 0.2776421 -0.56885123 0.4814461 -0.57949233 -0.71560764 0.6851363 1.1248196 0.4870595 0.33080068 0.68139225 -0.017371597 -0.77612984 0.39187533
233 0.5509879 -0.19605514 1.3167332 0.5619502 0.28701687 0.052901905 0.14858098 -0.34073442 0.17581083 -0.024013983 0.5118958 0.8707209 0.5800777 -0.47041866 -0.95208985
224 0.55934423 -0.4314189 1.2960832 0.67352355 0.2357109 0.04612657 0.18826193 -0.1148081 0.19644102 -0.030242791 0.61167216 0.97223663 0.52441037 -0.16346407 -0.7955419
180 -0.42808604 -0.860036 1.1930721 0.23288657 0.18843077 -0.60772395 0.2352596 -0.21809852 0.48102385 -0.11455584 0.1255268 0.5839437 0.5331975 0.34981713 -0.8067099
761 -0.17259975 -0.24879114 0.93264115 -0.8468543 0.22733285 0.5596871 -0.38673255 0.20864682 -0.34631592 -0.6981518 1.0328579 0.57831174 0.06808431 0.3896844 0.5033436
752 -0.17499335 0.043940265 1.001783 -0.9134031 0.24419177 0.5177502 -0.29324466 0.15261555 -0.5960656 -0.51433766 1.3441465 0.37522364 0.16845638 -0.00035932957 0.43082058
215 0.40316164 -0.47056165 1.3257297 0.6995572 0.262096 -0.18970451 0.18453905 0.11378472 0.2589456 -0.113196835 0.40346253 1.0385194 0.6516628 -0.023967005 -0.59695816
157 -0.62686217 -0.19708997 1.195347 0.09532139 -0.06671021 -0.86701804 0.7042635 -0.3343872 0.7054198 -0.091036126 0.49602717 0.33833808 0.3699697 0.128679 -0.6867887
236 0.58202815 -0.20106144 1.3086154 0.57498634 0.3219348 0.1283909 0.12405733 -0.39015615 0.24354392 0.0107186455 0.54291695 0.7025946 0.57571703 -0.502199 -0.89774984
207 0.31981966 -0.55108666 1.3325177 0.7100821 0.32383224 -0.48023856 -0.038438987 0.23496324 0.23446678 -0.21679679 0.31712934 0.8134251 0.76354223 0.116473354 -0.5431301
593 -0.53037846 0.6881171 -0.060934994 -0.40867695 0.33923274 0.19147484 -0.77322 0.0638239 0.45326686 0.5190769 0.99998605 0.80667514 0.7734608 0.6616094 -0.698817
222 0.55653334 -0.37696108 1.2735476 0.6644366 0.2523276 -0.0056281528 0.10506866 -0.07415792 0.17403379 0.009759332 0.60388047 0.9647031 0.4493051 -0.153214 -0.7461228
162 -0.630078 -0.34841928 1.2007725 0.025423879 -0.0007833343 -0.7710838 0.6959546 -0.32292795 0.5875717 -0.185268 0.40853316 0.37164524 0.38398606 0.07766843 -0.6807393
770 -0.7074014 -0.618598 0.41182667 -0.995508 0.40702817 0.6914875 -0.4540816 0.5165198 -0.31473258 -0.043471746 1.0715123 0.17391628 0.49297044 0.52600366 -0.21523304
221 0.49064296 -0.46126917 1.274468 0.642102 0.24594185 -0.09990591 0.14835106 -0.064385675 0.13409927 -0.036000345 0.51361674 1.0168984 0.5580008 -0.23857118 -0.66703683
235 0.6023169 -0.18019396 1.336438 0.5404599 0.22096509 0.13965036 0.17848314 -0.3931297 0.15946233 -0.07840684 0.5206832 0.6851029 0.64910513 -0.4403525 -0.9719533
183 -0.32485327 -0.8849408 1.1145859 0.21338107 0.20048754 -0.5979226 0.22835866 -0.22089085 0.40248606 -0.2333804 0.11162136 0.672673 0.58586746 0.31622183 -0.8174817
161 -0.6042769 -0.29646534 1.1424538 0.054565374 0.04060795 -0.81831837 0.6597083 -0.29701307 0.63133913 -0.16034521 0.47253844 0.366057 0.32127106 0.1451891 -0.67219573
290 -0.18919103 -0.6124064 0.3322754 -0.56690043 0.5190979 -0.5877942 -0.723939 0.6642478 1.1603407 0.5270315 0.29555416 0.6824658 -0.025919726 -0.7792459 0.41463712
653 0.19687103 0.107825205 0.9200953 -0.6675394 0.42735738 0.6020003 -0.586882 -0.35593447 0.73050195 -0.36908257 0.6928647 0.29852948 -0.12537046 0.7715422 0.38955393
225 0.5082665 -0.41297123 1.3327173 0.6591485 0.2671333 -0.0043402757 0.21012472 -0.20173512 0.22870038 -0.042459756 0.5658228 0.9523373 0.51197255 -0.30721948 -0.73280436
220 0.50102264 -0.41720673 1.266584 0.6730577 0.2470365 -0.007807227 0.20216711 -0.0828465 0.21378452 0.0025598735 0.5474499 0.9604826 0.60749406 -0.1693543 -0.72562045
159 -0.62295914 -0.245789 1.2606667 0.11154956 0.02070321 -0.82474124 0.68886256 -0.25112137 0.62809724 -0.09311797 0.5229996 0.32720807 0.33266184 0.15090404 -0.62545717
663 0.3066164 0.17893986 0.88011456 -0.7776072 0.36083633 0.77609897 -0.6131898 -0.41863933 0.8794061 -0.32294688 0.7025346 0.02901483 -0.01965426 0.6229587 0.31536832
178 -0.47939616 -0.8407305 1.2011957 0.14771886 0.18500407 -0.59724927 0.37474927 -0.237348 0.52407146 -0.25164106 0.13029444 0.55730385 0.5536658 0.39049587 -0.8253317
179 -0.46056712 -0.83115244 1.1454325 0.18752743 0.22295065 -0.65644187 0.27039102 -0.2155361 0.5142873 -0.17542766 0.093569405 0.586175 0.51878417 0.3069369 -0.8255335
670 0.27908206 0.30047163 0.87892985 -0.7861724 0.43719608 0.6020965 -0.5893714 -0.26520467 0.9158565 -0.4958847 0.6494714 -0.122550696 0.165419 0.610746 0.16585295
168 -0.5204384 -0.607993 1.2058288 -0.0033223678 0.038523257 -0.74825126 0.5940633 -0.24254338 0.53727794 -0.19488817 0.27314258 0.42847022 0.3787778 0.2629106 -0.79311466
664 0.2601229 0.2237822 0.85957634 -0.77801985 0.4233198 0.6691764 -0.5272552 -0.39753315 0.94864917 -0.3826544 0.67972183 0.024484638 -0.0099806795 0.663014 0.23428404
769 -0.735809 -0.57396483 0.39442703 -0.9893297 0.3655265 0.7316921 -0.41262192 0.5035235 -0.26580137 -0.08726727 0.9386617 0.21339382 0.5635574 0.6231486 -0.20390739
642 -0.0432821 0.13472192 0.7812754 -0.6889727 0.29616553 0.3376686 -0.55228996 0.2469987 0.43891907 -0.47367316 0.9478675 0.162576 0.14150062 0.93070406 0.39212507
622 -0.6158313 -0.1612399 0.22459112 -0.6801093 0.42010447 0.25176919 -0.5572453 0.6838825 0.5327485 0.11163983 1.0960556 -0.23965281 0.67958766 1.0332721 -0.33225498
594 -0.48118523 0.7041866 -0.07319965 -0.43090683 0.29018512 0.18424436 -0.74083835 0.08277806 0.5528949 0.50609326 1.0686996 0.71413606 0.7334071 0.71518546 -0.7434339
289 -0.16752304 -0.59633785 0.30600724 -0.54096437 0.5303103 -0.58718 -0.6738241 0.65014744 1.1489898 0.5335719 0.36217964 0.695616 -0.05969547 -0.80034363 0.38127542
775 -0.88531435 -0.638153 0.4130271 -1.053287 0.42920288 0.7996492 -0.45204383 0.49168536 -0.28389826 0.09100645 0.9149268 0.18041109 0.5476511 0.5126891 -0.29369324
580 -0.37170613 0.6166756 -0.11683918 -0.52159953 0.6112816 0.18516268 -0.8915029 -0.06887051 0.36308196 0.4065897 0.704694 1.0301789 0.8809605 0.6634327 -0.6977534
173 -0.49793223 -0.692645 1.1995406 -0.079734765 0.15961164 -0.64413553 0.4671745 -0.25821576 0.458477 -0.23402599 0.14360085 0.47691447 0.38544288 0.25800487 -0.9264255
621 -0.57346463 -0.118429884 0.20900097 -0.632876 0.40021846 0.17432703 -0.5237379 0.61805916 0.48469687 0.18687573 1.0931569 -0.27079266 0.7502501 1.0324711 -0.2873238
292 -0.23703353 -0.6764211 0.24809502 -0.5478702 0.4903168 -0.5997482 -0.72088605 0.64401513 1.1390339 0.4065067 0.41003147 0.6732492 -0.06571733 -0.72989607 0.45043284
771 -0.790122 -0.68806094 0.4580539 -0.96134734 0.4869037 0.75045776 -0.44762918 0.49743658 -0.28448606 -0.025152832 1.0083053 0.20336467 0.49597055 0.601985 -0.23407511
166 -0.5412848 -0.48077857 1.1650951 0.033744343 0.107736886 -0.79705566 0.5736604 -0.33969638 0.62374663 -0.14047636 0.338812 0.41016626 0.39320278 0.2452908 -0.7750716
218 0.50988466 -0.38136956 1.3242835 0.6610322 0.21413678 -0.12043021 0.19384165 0.039750136 0.16173288 -0.16531165 0.5427476 0.9682207 0.62014294 -0.094004 -0.6744054
764 -0.33644035 -0.27968115 0.9010857 -0.86517596 0.13382824 0.62511295 -0.42715034 0.23558947 -0.28784037 -0.6133857 0.9722675 0.5309942 0.10999252 0.501264 0.43045548
656 0.11928419 0.10673401 0.8510419 -0.7024219 0.40998235 0.6367918 -0.5412909 -0.4538487 0.8832172 -0.45097128 0.74062675 0.32087758 -0.14409947 0.8259696 0.34614602
586 -0.46897545 0.6302759 -0.19172852 -0.53635395 0.51184994 0.113473825 -0.90868664 -0.021536427 0.45524675 0.3903992 0.8448922 0.96399075 0.81914526 0.67483187 -0.6991492
287 -0.2554003 -0.51013315 0.2604427 -0.6692102 0.47745833 -0.58297557 -0.66019773 0.6846763 1.1191541 0.4918764 0.2987505 0.7702018 -0.03080418 -0.7755726 0.3444711
776 -0.8463722 -0.6136418 0.45118955 -1.0711192 0.4932081 0.666093 -0.41938242 0.5131832 -0.30071244 0.13984154 0.89501774 0.19605547 0.42052692 0.46437198 -0.2495575
152 -0.57888585 -0.12322625 1.2401018 0.13479356 0.017369196 -0.91030777 0.69934696 -0.31122312 0.65469426 -0.022847746 0.725421 0.17579842 0.25462183 0.18035774 -0.5418222
674 0.33964175 0.27153632 0.85475904 -0.79052174 0.42588964 0.6056769 -0.5269798 -0.09910859 0.985854 -0.51806444 0.5989155 -0.16615626 0.16786286 0.57722706 0.07526199
294 -0.19720891 -0.70320076 0.27814978 -0.5119937 0.49751815 -0.62966853 -0.7787718 0.6499984 1.1636404 0.43682316 0.3182316 0.6309275 0.029158575 -0.6903482 0.55183154
755 -0.24503075 -0.09593097 0.88076276 -0.9795602 0.21627302 0.55770844 -0.26873758 0.1579269 -0.44337863 -0.6331763 1.2396617 0.47127488 0.21882875 0.12556621 0.5578871
184 -0.20167252 -0.86183774 1.2199477 0.23917699 0.23403935 -0.6353168 0.26123223 -0.18130957 0.47679043 -0.29642552 0.12196512 0.67023647 0.5457372 0.38935116 -0.79481816
164 -0.5659393 -0.4523512 1.1782982 0.09734388 -0.027266659 -0.7650376 0.59142154 -0.3010338 0.6115926 -0.093741685 0.36885256 0.46217543 0.3736507 0.17846742 -0.78711176
654 0.19680837 0.098073535 0.8499387 -0.7263252 0.31523687 0.64432424 -0.5219039 -0.4393058 0.7794324 -0.46430215 0.7845458 0.3400602 -0.10089508 0.8219926 0.4014874
176 -0.4442403 -0.7807938 1.1452988 0.12379339 0.11330735 -0.643093 0.33648553 -0.24905892 0.5629533 -0.19017266 0.10977673 0.5617653 0.46116683 0.32642603 -0.8589949
669 0.29378504 0.26677248 0.8607069 -0.7440489 0.45708755 0.576803 -0.52933073 -0.35552824 0.98293895 -0.4840936 0.6324972 -0.13451833 0.12827493 0.58234835 0.17338417
640 -0.07667035 0.117899306 0.78022283 -0.6679853 0.29758444 0.41910467 -0.57344425 0.32490736 0.37648052 -0.45142156 0.9960803 0.18622595 0.24869575 0.9546576 0.43931508
671 0.29548794 0.27840587 0.8677701 -0.72101283 0.43308792 0.6981404 -0.5678058 -0.24416745 1.0330307 -0.46684244 0.5671266 -0.13237134 0.13638155 0.5710533 0.06782706
582 -0.39526418 0.6213983 -0.124081984 -0.49381614 0.57042855 0.13756128 -0.857473 -0.07506288 0.40208927 0.39455688 0.6860019 1.0424112 0.8143676 0.6474842 -0.8163557
623 -0.6357225 -0.13704678 0.21771683 -0.67928356 0.39244363 0.23157163 -0.57270074 0.6323824 0.48111176 0.10136501 1.0988874 -0.28588507 0.7706566 1.0340325 -0.29211214
647 0.054414783 0.122712396 0.77278227 -0.60481316 0.27005738 0.43291858 -0.56877154 0.08288125 0.63951063 -0.465245 0.883569 0.14609337 0.09543637 0.8586973 0.44671702
772 -0.8272027 -0.6439557 0.44722867 -1.0066466 0.42831957 0.7905474 -0.5016144 0.47436526 -0.31016 0.028798189 0.9914483 0.11382407 0.53652316 0.5346651 -0.28551462
639 -0.12941375 0.14360134 0.7541663 -0.73678493 0.22750777 0.39496806 -0.48184434 0.34366453 0.34527206 -0.4580453 1.0597123 0.12982747 0.2631184 0.91400594 0.45666412
171 -0.4950596 -0.6750002 1.2285869 0.013780988 0.1529961 -0.74269855 0.5263938 -0.20169427 0.51498026 -0.19733973 0.20564505 0.4424673 0.40835524 0.26626703 -0.7883815
286 -0.2938772 -0.5142907 0.20671146 -0.65260684 0.4363622 -0.55301887 -0.6643402 0.72070324 1.149877 0.52465546 0.29330987 0.77431816 -0.008947697 -0.73316777 0.3196831
253 -0.22665443 -0.12204502 0.55004257 -1.1323451 0.4002158 -0.022970412 0.22830515 0.34041655 0.81019306 0.84278226 0.40320784 1.0981016 -0.23955485 -0.95029527 0.2999826
641 -0.04129444 0.11220334 0.8339267 -0.6164417 0.27077574 0.39085525 -0.5300191 0.32374266 0.40971458 -0.47507316 0.9987365 0.16664568 0.18213117 0.9612019 0.42336786
738 -0.7184342 0.026845582 0.6292032 -0.70131594 0.06221454 -0.007969939 -0.8964097 -0.6116402 -0.18662883 -0.7927273 1.3479749 0.08030845 0.09210987 -0.7636769 0.012644915
668 0.4414635 0.18886201 0.891279 -0.73174053 0.3994564 0.66396314 -0.5632262 -0.33726504 0.9368328 -0.439959 0.6754212 -0.061130382 0.06890544 0.678314 0.15471812
662 0.3574791 0.16350156 0.8499642 -0.7009581 0.47326586 0.6726297 -0.53072035 -0.38666967 0.9033184 -0.4403813 0.7466395 0.11428358 -0.038708262 0.67013943 0.22324069
643 0.028182257 0.1215494 0.7887857 -0.6489947 0.2838087 0.40310282 -0.5893079 0.18075472 0.5125163 -0.4848762 0.94857603 0.11117968 0.19478373 0.9413045 0.45797014
217 0.45317692 -0.32282105 1.304498 0.6533552 0.27596202 -0.1939018 0.14843148 0.050915185 0.21027786 -0.037977934 0.44156536 1.0365683 0.57336277 -0.028173827 -0.6685843
660 0.23940441 0.18453567 0.9012034 -0.7944381 0.5001705 0.62953377 -0.46702743 -0.43786317 0.86967903 -0.3386366 0.70314056 0.17586419 -0.09513766 0.75955683 0.32098293
773 -0.8150573 -0.60355896 0.47700348 -0.9409255 0.47194636 0.7131686 -0.47191414 0.5025428 -0.33440226 0.037027493 1.011693 0.12160731 0.54760367 0.48884413 -0.28364757
717 -0.727486 -0.084389955 0.52685165 -0.41122535 -0.011378813 -0.36543527 -1.3840443 -0.42261064 -0.160289 -0.9921723 0.9552453 0.23727456 0.43315336 -0.5550675 0.23258811
237 0.50024885 -0.17927158 1.3062751 0.6307303 0.40001717 0.061836474 0.14858907 -0.37053528 0.24182224 0.019495701 0.49429289 0.70521235 0.69294804 -0.60022295 -0.95091826
578 -0.38098535 0.6529037 -0.088368274 -0.46378958 0.6344294 0.15992516 -0.9320478 -0.0976884 0.30432293 0.42187935 0.7461154 1.0173521 0.8264036 0.59977704 -0.72803885
219 0.60673 -0.34196195 1.2273453 0.65577054 0.2736344 -0.11876612 0.16714516 0.004994087 0.23422143 -0.004037868 0.5033982 0.9960366 0.5878704 -0.122806855 -0.69304204
16 -0.11412085 -0.29745942 1.4572769 -0.1265193 -1.269459 0.3757728 -0.3936772 0.23714255 0.31607178 0.74625456 0.25308624 -0.07546626 0.74566853 -0.45380944 -0.3365002
733 -0.85639113 0.007945243 0.61115634 -0.64896166 -0.0046813786 -0.13834988 -0.9507871 -0.6383257 -0.17161122 -0.82977855 1.2544044 0.056900427 0.21108016 -0.7202027 0.076284505
158 -0.7292397 -0.20122671 1.1302538 0.098373175 0.030775066 -0.8520425 0.6550308 -0.26635757 0.65750164 -0.10250975 0.55184156 0.33580324 0.34425825 0.13418214 -0.72830707
199 0.18740144 -0.65376973 1.2522892 0.62473935 0.32607007 -0.67144424 -0.084111266 0.13006279 0.2592995 -0.33297858 0.30010766 0.6693728 0.76557267 0.23031977 -0.5540378
169 -0.5212682 -0.60818094 1.1930685 0.028468309 0.059315413 -0.7000272 0.5729468 -0.27437738 0.5350205 -0.18537045 0.27462047 0.45790905 0.41789323 0.29149207 -0.7932804
240 0.459531 -0.052484594 1.2683599 0.6486329 0.19379991 0.050546564 0.043985914 -0.5073187 0.33355203 0.05013158 0.5379562 0.73952615 0.5243007 -0.4877789 -0.97405225
588 -0.50638217 0.6968045 -0.14107367 -0.47282138 0.45000088 0.068384625 -0.76762956 0.017211612 0.4361008 0.40699688 0.91899604 0.8954112 0.82379216 0.66938114 -0.71988565
638 -0.09630809 0.13345554 0.69434506 -0.6925886 0.23798151 0.32771203 -0.55124867 0.45347008 0.30782166 -0.42403406 1.032404 0.19498317 0.21388678 0.8875634 0.39873198
264 -0.10444106 -0.11329435 0.4815921 -1.0041939 0.36421984 -0.08746014 0.024225503 0.37098584 0.9506117 0.642428 0.33520406 1.1331985 -0.2832924 -1.0803288 0.16808356
285 -0.28069642 -0.4445172 0.2988291 -0.66174513 0.39680842 -0.5761645 -0.72407734 0.7012571 1.0744958 0.4406238 0.24933654 0.8004397 -0.09482325 -0.8233322 0.3431496
737 -0.7113826 -0.00092489534 0.6902725 -0.66913205 0.052283764 0.017554322 -0.89450043 -0.67744553 -0.2586646 -0.8264905 1.301301 0.05715896 0.16467898 -0.7898932 0.001953978
17 0.021981193 -0.30976862 1.5009254 -0.15943256 -1.3741298 0.36855754 -0.35067692 0.23016585 0.40958652 0.7176855 0.24363467 -0.139488 0.70538133 -0.24052356 -0.38130185
716 -0.75391835 -0.13653977 0.54673296 -0.36473322 0.01165868 -0.37465248 -1.3252629 -0.40189442 -0.18404028 -1.0095626 0.99575025 0.20637248 0.44288293 -0.5801656 0.17729343
257 -0.17539367 -0.10789535 0.5314527 -1.0599571 0.38727975 0.04017604 0.117753625 0.39927903 0.844031 0.7739237 0.37020317 1.0711861 -0.27542585 -0.9576799 0.22137289
174 -0.48280752 -0.7400396 1.1793833 0.04194864 0.100373045 -0.6508653 0.4420471 -0.29881373 0.46448958 -0.24433711 0.1890162 0.58362377 0.42239147 0.29221338 -0.82817644
715 -0.7422872 -0.05339116 0.56380254 -0.42284206 0.0457335 -0.3861981 -1.2836032 -0.36657548 -0.16148508 -1.0056545 0.9601772 0.1872681 0.42420948 -0.58141357 0.18880299
172 -0.4897026 -0.74068034 1.2299868 0.007910927 0.14424545 -0.68761295 0.4435389 -0.27999723 0.5620158 -0.21026085 0.12969038 0.44745442 0.42291316 0.29262036 -0.79927975
170 -0.48279518 -0.641198 1.1385803 -0.009743262 0.1513207 -0.7070495 0.575934 -0.27047014 0.5717255 -0.22111529 0.16836825 0.5061229 0.44904238 0.25977144 -0.76610565
163 -0.6281519 -0.4609821 1.2247916 0.089127935 -0.044153236 -0.7433162 0.679381 -0.3159647 0.6284723 -0.10307787 0.47539067 0.39690405 0.3630146 0.23604843 -0.7327265
766 -0.28605214 -0.36744186 0.88989586 -0.8508065 0.1951713 0.73508406 -0.47423673 0.27140677 -0.20616749 -0.6022792 1.0158312 0.50865 0.060912255 0.4723991 0.4216112
238 0.50243044 -0.18441263 1.2526364 0.5616644 0.34989175 0.005208495 0.0988741 -0.45607558 0.16112569 -0.0678845 0.5558757 0.7590166 0.5936196 -0.5167606 -1.0103167
765 -0.34133604 -0.2520381 0.87194806 -0.8903417 0.15160829 0.6393145 -0.41274703 0.13500604 -0.25988147 -0.59505635 0.9739015 0.47724563 0.17869858 0.5011364 0.48090354
150 -0.49513063 -0.09866385 1.2669837 0.07880399 0.033068277 -0.9353879 0.6774502 -0.46353695 0.6915609 0.066823326 0.66162324 0.123098 0.23193614 0.0999625 -0.526824
731 -0.8356149 0.0068949554 0.6118071 -0.68074304 0.05056589 -0.2502225 -1.0726246 -0.6315972 -0.1523214 -0.83234525 1.1152098 0.14481223 0.19016854 -0.6869872 0.07900837
18 -0.081301585 -0.31876674 1.4710181 -0.123997934 -1.2672019 0.33597422 -0.41142562 0.23391505 0.39470273 0.8201323 0.22981058 -0.047149334 0.6789517 -0.2359327 -0.34381494
284 -0.3009462 -0.41416088 0.3025641 -0.70685786 0.3607135 -0.5819813 -0.6745102 0.7000004 1.075447 0.43997243 0.34501526 0.8924586 -0.14528334 -0.82735556 0.3650457
255 -0.100903295 -0.09335456 0.48588437 -1.1165388 0.40868565 0.0034786786 0.2523837 0.33106086 0.89667916 0.7382294 0.47151276 1.1118426 -0.28739715 -0.95889693 0.24231401
19 -0.0323453 -0.3308831 1.5092739 -0.1516171 -1.3023077 0.35293883 -0.39485613 0.20780243 0.40393046 0.7245393 0.18669781 -0.09811621 0.7211597 -0.18695815 -0.25785944
251 -0.20103543 -0.15215538 0.49040258 -1.1645145 0.45766622 0.0022947986 0.25191775 0.39497623 0.8037186 0.7727043 0.31152886 1.0263528 -0.18871027 -0.8537375 0.24491358
718 -0.75966454 -0.08068416 0.5577427 -0.43368226 0.07779599 -0.38257915 -1.3712366 -0.45756128 -0.24196807 -0.91839486 0.930007 0.2714959 0.41115278 -0.60681087 0.10315752
614 -0.52520764 0.59253 0.039025158 -0.3623157 0.3116425 0.32617202 -0.7232536 0.33459315 0.49182862 0.55763257 1.2314036 0.34196877 0.7412082 0.60049874 -0.7939139
254 -0.1709392 -0.08369103 0.52053136 -1.1267747 0.45826337 -0.048463587 0.2103799 0.3346492 0.8195757 0.7857903 0.39847448 1.0778179 -0.23553328 -0.9902763 0.26969826
239 0.5047508 -0.11089791 1.2773993 0.6348664 0.3134976 -0.053230558 0.053230267 -0.45762002 0.2931414 -0.001388901 0.5921051 0.6957307 0.5410193 -0.4812455 -0.9560436
6 -0.28794184 -0.19641584 1.3952075 -0.06407161 -1.0598162 0.15756102 -0.7038072 0.45098546 0.26180238 0.5250905 0.09504946 -0.34031716 1.0029714 -0.56962925 -0.55051565
734 -0.78629315 0.058189455 0.67352045 -0.6377521 0.041958537 -0.13491249 -0.9491565 -0.66561097 -0.16751704 -0.8347506 1.2336454 0.07630219 0.15676324 -0.72040296 0.044805937
732 -0.8784456 -0.0552203 0.61577475 -0.7107705 0.11900936 -0.20767474 -1.0704238 -0.5715215 -0.14751258 -0.8339401 1.1892136 0.07439814 0.1742567 -0.7335459 0.028501527
216 0.37660962 -0.43594337 1.3518895 0.6430138 0.23063922 -0.11909878 0.1774775 0.11376866 0.17545429 -0.07768199 0.42759204 0.95792085 0.59933054 -0.018379482 -0.714721
644 0.00048826632 0.1113095 0.81357086 -0.5870409 0.28099474 0.4653657 -0.5962382 0.19252037 0.57594895 -0.481587 0.96980804 0.13811558 0.07638417 0.9140369 0.37406823
265 -0.18265322 -0.082130544 0.5347156 -0.925702 0.34468186 -0.18981567 -0.07583887 0.34336913 0.9291148 0.58722454 0.32927155 1.0851353 -0.35450566 -1.0317377 0.25016752
37 -0.06146213 -0.15352128 1.4174027 0.027277336 -1.2767472 -0.03530703 -0.7818383 -0.16916244 0.39609692 0.87817407 0.107892655 0.38450146 0.7223474 0.0013668634 0.1104289
22 -0.037908137 -0.38750622 1.5041207 -0.19084737 -1.2673063 0.32636613 -0.47775242 0.15061125 0.47366533 0.87143415 0.18872374 -0.085801646 0.6422022 -0.20082375 -0.17737338
198 0.094685 -0.7291091 1.2494736 0.62558365 0.29094133 -0.62104213 -0.00894345 0.07506926 0.2292793 -0.38360685 0.32750762 0.7270637 0.8248265 0.2943059 -0.5726168
20 -0.11838099 -0.38892788 1.5015076 -0.16624899 -1.3044062 0.3395424 -0.400193 0.23173183 0.43892708 0.8388319 0.18421169 -0.0296091 0.6462413 -0.24387704 -0.29483122
295 -0.22901565 -0.63760847 0.23239595 -0.494768 0.5445578 -0.6356974 -0.71470004 0.6543756 1.157932 0.44821838 0.45533976 0.56812435 0.055047832 -0.7422466 0.50474983
630 -0.54739606 -0.3001607 0.2998978 -0.75280327 0.39823407 0.42774767 -0.49531326 0.67417926 0.4079604 0.014021294 0.9950575 -0.17661057 0.6207059 0.99573684 -0.2332063
256 -0.19691819 -0.1522512 0.49163133 -1.1359515 0.42653018 0.031289257 0.2429423 0.39747137 0.91358745 0.73572767 0.38434485 1.0849053 -0.27694336 -0.9316865 0.19887286
736 -0.75790673 0.018849282 0.64041346 -0.7559806 0.066121094 -0.116654105 -0.87034035 -0.6983697 -0.16449745 -0.83808416 1.2708374 0.040965136 0.12321422 -0.7253037 0.012134101
714 -0.76578677 -0.14255214 0.5425929 -0.40962723 0.054830775 -0.30620137 -1.3060675 -0.43093783 -0.17448547 -0.95782197 0.9473591 0.1849769 0.4707498 -0.6385518 0.18784566
646 0.042728182 0.117123164 0.8088084 -0.56480545 0.3488163 0.4719512 -0.6478939 0.07696465 0.61660033 -0.4557203 0.90512854 0.14982806 0.12218443 0.927435 0.40527886
2 -0.27689528 -0.29404938 1.4839743 -0.06637574 -1.0636865 0.15984875 -0.79791963 0.4325482 0.30061203 0.50060856 0.082428135 -0.4147337 1.0395186 -0.6932536 -0.49722895
632 -0.46965227 -0.30079943 0.30880362 -0.8615338 0.41807678 0.5099695 -0.5340069 0.60311055 0.3864255 0.066363834 0.9312068 -0.14997183 0.61706287 0.9913485 -0.16512641
735 -0.786089 -0.01917708 0.60457575 -0.6886495 0.016330525 -0.103528894 -0.8927637 -0.5771147 -0.16815023 -0.8510595 1.3183919 0.016528087 0.1751926 -0.7570779 0.049021598
26 0.021863595 -0.29495785 1.5893953 -0.08814528 -1.2631896 0.3260236 -0.562603 0.11126927 0.39668652 0.881518 0.24634483 0.0177659 0.5671512 -0.039803658 -0.15303361
3 -0.25353974 -0.32201833 1.4320314 -0.03132293 -1.0209116 0.20350881 -0.8805502 0.3612193 0.34197038 0.55884343 -0.013471337 -0.37326887 1.0924971 -0.5285347 -0.5706124
252 -0.19520326 -0.082530804 0.56554705 -1.0968305 0.41473347 -0.06734036 0.22153646 0.3358643 0.8068161 0.79763824 0.344684 1.1384724 -0.2467842 -0.97738016 0.22759378
661 0.27864426 0.15821162 0.83881027 -0.8109032 0.39683655 0.6992451 -0.49133888 -0.46919444 0.9211052 -0.39854315 0.7152398 0.11712963 -0.033996064 0.7412936 0.25583208
637 -0.16222918 0.100801975 0.71246487 -0.72195333 0.28946635 0.3732638 -0.49817243 0.38402107 0.29177973 -0.39924395 1.0357083 0.18368568 0.20513101 0.9109589 0.37295282
186 -0.2824345 -0.8810786 1.0978218 0.28300807 0.26208043 -0.60980964 0.16873868 -0.11485541 0.40171558 -0.32764918 0.07448133 0.69355065 0.6856066 0.32987097 -0.7787634
206 0.28019696 -0.5172019 1.2903094 0.6974484 0.27639097 -0.4837863 0.006444801 0.24151567 0.20019202 -0.19410096 0.38867092 0.7901388 0.71608305 0.11796416 -0.51100796
296 -0.18967202 -0.6957313 0.25075907 -0.5354651 0.5965195 -0.66064054 -0.7005501 0.67574763 1.1053224 0.46931455 0.5034114 0.5668453 0.050634522 -0.76235056 0.49280664
719 -0.7687795 -0.0804244 0.59159845 -0.44873226 0.11262951 -0.41172364 -1.317302 -0.4681543 -0.21633253 -0.96505517 0.92030334 0.2810985 0.37757894 -0.5947272 0.21630709
263 -0.16483918 -0.17444019 0.5072739 -1.0554156 0.3385417 -0.13387844 0.048222724 0.32538188 0.8890217 0.7078639 0.35135373 1.1208762 -0.30228537 -0.9992151 0.2371452
636 -0.23370557 0.037648506 0.6606976 -0.7704644 0.24964553 0.36650416 -0.47675052 0.39672685 0.22208264 -0.44029212 0.99644053 0.216335 0.2464819 0.8398286 0.34395707
266 -0.20649084 -0.13032132 0.488316 -0.95620954 0.32978597 -0.18242337 -0.10809026 0.37838465 0.923412 0.63322455 0.33636713 1.161261 -0.3309608 -1.029999 0.20139052
288 -0.19805577 -0.5829246 0.31997827 -0.6600554 0.46634185 -0.5957166 -0.6609842 0.72205865 1.1128474 0.48525906 0.33321926 0.7107046 -0.053990334 -0.7948185 0.4171799
27 0.011965938 -0.26193276 1.543321 -0.06517615 -1.2269387 0.23916744 -0.51385033 0.11089295 0.4266877 0.89043826 0.24833134 0.04777019 0.56379735 -0.117410816 -0.024318717
32 -0.03582217 -0.14527136 1.3864521 -0.032131597 -1.2343599 0.023615027 -0.6918999 -0.031490877 0.4923568 0.8937395 0.14257064 0.17319833 0.67247665 -0.04217237 0.049998138
31 -0.026131602 -0.21049432 1.4098208 -0.054834925 -1.2474283 0.14259039 -0.65448534 0.11596459 0.4399408 0.90663236 0.20612821 0.12441786 0.5893787 -0.062332496 -0.022651164
185 -0.25757053 -0.94600195 1.1166599 0.30375314 0.28341466 -0.6145729 0.17756777 -0.17653826 0.43965986 -0.3119779 0.121689096 0.6283771 0.59733546 0.28971016 -0.7484268
15 -0.14922385 -0.19616774 1.4409044 -0.13068916 -1.299768 0.40116897 -0.43101162 0.25894004 0.3649928 0.67524195 0.13183829 -0.045369826 0.8676608 -0.42865592 -0.4269588
11 -0.18948407 -0.3545169 1.4693431 -0.12399213 -1.2841903 0.3919424 -0.5041341 0.24428535 0.36844465 0.5872698 0.16811867 -0.25223053 0.9365239 -0.47027075 -0.528106
645 0.04950186 0.099100925 0.73907924 -0.58420235 0.2661715 0.45709312 -0.57008475 0.14383835 0.5943742 -0.56930405 1.0315006 0.15513255 0.12107734 0.893752 0.3588758
730 -0.89076376 -0.018006826 0.60758185 -0.66691804 0.07276404 -0.3177239 -1.0706685 -0.6300846 -0.16618349 -0.8514668 1.2062657 0.06842936 0.22983702 -0.5865422 0.047125712
30 -0.0745749 -0.32136753 1.4633178 -0.08520929 -1.224687 0.13066827 -0.6263164 0.042920712 0.331088 0.89057696 0.2049942 0.10240839 0.61787605 -0.060833823 0.076047786
4 -0.28688535 -0.23833026 1.5595037 -0.08594438 -0.96245867 0.1879238 -0.71988755 0.38984573 0.2622685 0.54823846 -0.012728943 -0.31700313 0.97240376 -0.6003321 -0.48773327
667 0.28431836 0.23347297 0.9184516 -0.7427655 0.421325 0.6688037 -0.5923081 -0.3344452 0.95618534 -0.41541535 0.6090822 -0.097801 0.100714386 0.65875787 0.18329798
23 0.0035682211 -0.3973673 1.48195 -0.04371143 -1.2451209 0.3429205 -0.4205726 0.18098804 0.45677814 0.8174813 0.23133233 -0.05038303 0.68254185 -0.15881224 -0.08966494
587 -0.50830543 0.71217585 -0.12872806 -0.5524265 0.387895 0.12518086 -0.7712655 -0.08112597 0.5034024 0.4523915 0.8248057 0.9884988 0.8011381 0.7708977 -0.70817703
260 -0.21487911 -0.045506142 0.5211005 -1.0814362 0.3842624 -0.1221599 0.044470754 0.34094554 0.8995218 0.72168195 0.35827547 1.0595298 -0.25104758 -1.0697727 0.2943561
38 -0.041577373 -0.17401376 1.399537 0.03517156 -1.2204399 -0.08367528 -0.7433689 -0.15224758 0.45127717 0.8247929 0.049011473 0.3800739 0.7046638 -0.018912474 0.18348433
261 -0.26485184 -0.04289879 0.47366452 -1.0172606 0.4057387 -0.16073295 0.0467747 0.34669274 0.8923448 0.6515726 0.40329215 1.128706 -0.2918523 -1.0013164 0.22277722
44 -0.120173834 -0.20000696 1.2635505 0.038430244 -1.1297113 -0.13643532 -0.81694245 -0.4236036 0.46206084 0.79678804 -0.048451893 0.42148373 0.81232613 0.07599926 0.219697
5 -0.29910216 -0.26594874 1.44943 -0.15370856 -1.097372 0.09308369 -0.7120844 0.45446032 0.23615783 0.5217049 0.023347689 -0.34634805 0.99698824 -0.56300724 -0.5782178
197 0.06994108 -0.74388033 1.1943291 0.586583 0.26748502 -0.5476273 -0.0038570892 0.047850315 0.2542821 -0.42315665 0.3076194 0.65621215 0.77256125 0.2283479 -0.55568576
267 -0.24818633 -0.07925398 0.44243914 -0.9820438 0.30737147 -0.23091318 -0.14255793 0.3981737 0.9588333 0.6027682 0.3311736 1.1339968 -0.302268 -1.0663077 0.17649661
659 0.22903542 0.10719115 0.90020543 -0.68794113 0.39470318 0.6564351 -0.5211494 -0.38515905 0.887393 -0.44418156 0.6998285 0.23536097 -0.09463165 0.762689 0.35736823
768 -0.4587968 -0.4141926 0.690691 -0.9402779 0.30868882 0.6973177 -0.5020439 0.35914627 -0.17352192 -0.36222318 0.9815696 0.2830546 0.22746055 0.64427394 0.16005215
302 -0.10518213 -0.72488457 0.12438595 -0.4864388 0.6710521 -0.7373096 -0.69900656 0.44308513 1.133807 0.67858493 0.5467615 0.3935288 0.20650612 -0.6007348 0.5605687
724 -0.81809044 -0.13584134 0.52013093 -0.5677205 0.13397425 -0.38094553 -1.20778 -0.5858226 -0.177876 -0.9725915 1.0556836 0.21936128 0.3575392 -0.5462 0.16994868
7 -0.18686834 -0.19932999 1.467609 -0.16731024 -1.1155953 0.19754075 -0.70328635 0.495658 0.3040808 0.52355576 -0.041844133 -0.295687 1.0360256 -0.5761014 -0.55360514
33 0.016229238 -0.17931555 1.4324632 -0.037261292 -1.2486032 -0.032448467 -0.6688612 -0.03856168 0.5104497 0.8444178 0.10862618 0.19286989 0.6184088 -0.04005702 0.056423854
9 -0.2303336 -0.21243043 1.462963 -0.09514379 -1.166412 0.26363146 -0.5740292 0.45169583 0.29184255 0.5286825 0.15094759 -0.31819656 0.96535975 -0.47995004 -0.4633959
631 -0.50617075 -0.26362813 0.37161592 -0.8412227 0.32131666 0.408357 -0.5882735 0.64190817 0.34420317 0.017656691 0.9220743 -0.17210884 0.5438175 0.99899536 -0.25698525
651 0.08238698 0.022996714 0.90005594 -0.7228942 0.32129303 0.5813706 -0.49227977 -0.22469537 0.5894073 -0.5868045 0.81825197 0.29077616 0.01661338 0.7915747 0.58417374
193 -0.08324752 -0.86072946 1.1245122 0.5017901 0.28364146 -0.52591777 0.07038469 -0.03955052 0.3628532 -0.4405124 0.16327155 0.73417133 0.769866 0.25037345 -0.6834216
739 -0.666213 -0.00832566 0.6645607 -0.7078396 0.08737926 -0.008903693 -0.82515836 -0.66570336 -0.30413994 -0.74201727 1.3297579 0.065334566 0.11241837 -0.75733286 -0.018904088
297 -0.16632985 -0.7554679 0.1837025 -0.5257537 0.6281984 -0.591595 -0.7134311 0.61010396 1.1759101 0.48411408 0.4430424 0.53974926 0.109169796 -0.7246664 0.45419702
268 -0.29748607 -0.08679317 0.39339432 -1.0061784 0.25429615 -0.27669582 -0.14080173 0.5047135 0.9351462 0.5599163 0.36736128 1.1216798 -0.2624213 -1.0764478 0.14640406
187 -0.1902227 -0.8286949 1.1065032 0.26740777 0.33271742 -0.57850873 0.12663245 -0.16397622 0.34504128 -0.3308896 0.08439835 0.66201633 0.69001573 0.37867403 -0.80361885
192 -0.092869125 -0.869046 1.2039901 0.4124014 0.21072735 -0.59534365 0.07664991 -0.06417758 0.39161584 -0.33896923 0.117546484 0.6626609 0.6638924 0.3214622 -0.7088953
271 -0.35588825 -0.07779407 0.36614734 -0.986157 0.34319448 -0.31200457 -0.28835183 0.45813802 0.9395696 0.6190481 0.31430712 1.011079 -0.17452931 -1.0729278 0.17978343
262 -0.11916337 -0.07991527 0.49853632 -1.0391266 0.36818478 -0.16437711 0.03354749 0.37968445 0.9283342 0.68405175 0.40983725 1.0858784 -0.36243978 -0.95738566 0.19544362
727 -0.8616366 -0.0781625 0.5673624 -0.68870884 0.16304816 -0.31494164 -1.0573875 -0.6964898 -0.1398929 -0.8954976 1.0915959 0.065210626 0.33285668 -0.5860581 0.17520699
650 0.027565487 0.111713566 0.8996635 -0.6326247 0.22324978 0.5626627 -0.5167696 -0.29284307 0.6397634 -0.6120547 0.75049 0.36773443 0.01228379 0.7869069 0.5452189
43 -0.1381395 -0.14783056 1.3251343 0.018906359 -1.1048487 -0.09672864 -0.7672763 -0.33155984 0.48023683 0.7659373 -0.0686789 0.3359671 0.8048737 0.14000951 0.19227171
595 -0.4411605 0.70052177 -0.1330854 -0.4941499 0.393868 0.22834672 -0.7252814 0.09089745 0.56868917 0.51335895 1.129511 0.6766789 0.7198311 0.6328837 -0.79340786
36 -0.13962685 -0.13700806 1.3739916 0.044594303 -1.2594596 -0.04822607 -0.7869508 -0.07986789 0.47792414 0.78858757 0.08690527 0.33322516 0.5935346 -0.06315395 0.12167905
34 -0.10517843 -0.15960623 1.3827218 0.009817162 -1.2550243 0.022336984 -0.71631706 -0.014157911 0.47670093 0.86350834 0.13050875 0.23566195 0.69971025 -0.008532565 0.09709281
270 -0.29570305 -0.089003906 0.4285295 -1.0507387 0.35989484 -0.20685956 -0.21391536 0.49598795 0.9315912 0.6297801 0.3057174 1.092684 -0.27443397 -1.0698059 0.10322425
303 -0.08645191 -0.7206868 0.18651459 -0.5066311 0.70814085 -0.69475955 -0.6446907 0.4101681 1.0858618 0.6149985 0.60107327 0.3923479 0.22084668 -0.6619917 0.7098211
245 0.3046452 0.20000847 1.1569563 0.6732191 0.18227296 -0.36029908 -0.017594488 -0.6381808 0.78014916 0.0068281367 0.5372173 0.4488955 0.39583537 -0.5625747 -1.0140091
712 0.012932612 0.5946911 1.2484853 -1.2438731 0.1571024 0.5242478 -0.5633968 0.15184575 0.80857635 -1.0561473 -0.2951662 0.19322595 0.2687776 0.056711487 -0.29480213
615 -0.5238513 0.5633343 0.04061982 -0.35157016 0.23071907 0.2613155 -0.74174786 0.35226187 0.43655252 0.45503646 1.2366501 0.2830558 0.75154066 0.63089085 -0.79601026
21 -0.045008052 -0.36779281 1.4540548 -0.104744315 -1.2804562 0.33193055 -0.45946562 0.16015857 0.4364718 0.7868974 0.20186016 -0.047723684 0.69289786 -0.17954825 -0.14822848
723 -0.7858621 -0.108038604 0.54965174 -0.54779685 0.11387986 -0.30258057 -1.2803218 -0.57568145 -0.20602523 -0.97712094 0.95886266 0.116498515 0.50339943 -0.5402349 0.15749945
633 -0.5971005 -0.33073643 0.37101713 -0.9066702 0.39771232 0.6029089 -0.44740093 0.5489383 0.37735856 -0.015229471 0.92887586 -0.10613208 0.5720307 0.9890596 -0.15536751
274 -0.24050564 -0.17416926 0.43090817 -0.84601766 0.30279028 -0.19487004 -0.32406098 0.6578139 0.94655085 0.48777565 0.3198176 1.0187242 -0.24237235 -1.052128 0.18473168
10 -0.20402949 -0.2588399 1.4615136 -0.14647923 -1.1568768 0.34678102 -0.58695954 0.34832907 0.30163777 0.64763266 0.13693845 -0.27797225 0.90901303 -0.48913556 -0.48447227
54 -0.115603596 -0.115216546 1.276517 -0.27221245 -0.95082515 -0.14684871 -0.71110296 -0.6398641 0.20595182 0.81720024 -0.22792126 0.53972954 0.7721699 0.100094706 0.0114243
704 0.13301754 0.58016384 1.1261255 -1.1676838 0.3236581 0.45829472 -0.55421567 0.22911632 0.8612066 -1.106178 -0.28017983 0.2367869 0.36188492 0.029975563 -0.13083327
627 -0.64568645 -0.21208875 0.30559608 -0.7611725 0.32539916 0.34942442 -0.58024806 0.67012435 0.46456605 0.10000684 1.0200787 -0.22040467 0.6183432 1.0291955 -0.13287406
635 -0.4892334 -0.25037244 0.44282442 -0.86124986 0.4356996 0.49754715 -0.5424677 0.45974776 0.27705133 -0.0786627 0.9233874 -0.033765856 0.46050978 0.9508987 -0.03719594
258 -0.19143094 -0.17878944 0.5053585 -1.1218221 0.41764933 -0.09101941 0.10005756 0.27608365 0.91399455 0.74300164 0.380703 1.1050152 -0.32190067 -0.9986989 0.21121934
720 -0.7758677 -0.10978382 0.55340827 -0.56021065 0.015581892 -0.3897047 -1.334409 -0.53421366 -0.23194626 -0.96110773 0.89791095 0.2739762 0.39185622 -0.5466187 0.17162855
649 -0.020909829 0.09655458 0.8954277 -0.6455122 0.24982363 0.5413101 -0.57090235 -0.19476482 0.63635206 -0.5288435 0.8101796 0.34912753 -0.04754374 0.7982075 0.63655704
1 -0.2852798 -0.30067605 1.4071493 0.032468252 -1.0399915 0.21222772 -0.78354806 0.41122407 0.3483911 0.50223 0.055705644 -0.36557737 1.1145148 -0.62246114 -0.524355
25 -0.07391575 -0.3363231 1.4616741 -0.074580275 -1.2686309 0.27604392 -0.5554445 0.07152792 0.41378877 0.810508 0.2666032 -0.019173965 0.5754117 -0.0991528 -0.17357597
194 -0.007464513 -0.8593065 1.1420953 0.5634449 0.19496545 -0.57047564 -0.014367905 -0.026811933 0.36165124 -0.3121478 0.1542294 0.7489338 0.76437443 0.33726808 -0.63077956
767 -0.34885782 -0.28844297 0.8798044 -0.8707138 0.34719318 0.6234546 -0.45271704 0.1613695 -0.18942463 -0.59045213 0.9927414 0.45994693 0.07848619 0.6166491 0.29955563
613 -0.5469475 0.66201663 0.11692011 -0.37192357 0.20046306 0.33001697 -0.71534425 0.41834843 0.46916547 0.55048186 1.194261 0.3691249 0.61475873 0.5476261 -0.83474094
710 -0.00038590742 0.63207424 1.1758137 -1.1971835 0.19775547 0.5640602 -0.55515814 0.071040794 0.8700512 -1.1049942 -0.29689145 0.21780805 0.28491127 0.041555915 -0.4458404
28 0.04277852 -0.32387137 1.4941765 -0.014589859 -1.2028384 0.20742016 -0.6243288 0.053627763 0.48009098 0.85341436 0.21513996 0.036043182 0.5492773 -0.04887547 -0.023222953
195 0.012765367 -0.76059705 1.186243 0.4818601 0.23823352 -0.5437382 0.058575846 0.04261622 0.32920033 -0.3215814 0.17523535 0.7479169 0.68149465 0.26480132 -0.6759604
729 -0.78306615 -0.110784784 0.56774056 -0.6057534 0.058369745 -0.23414846 -1.1170905 -0.7221165 -0.19867983 -0.8570347 1.1458343 0.033812836 0.37187615 -0.70826805 0.10089461
634 -0.5584753 -0.261292 0.42138034 -0.8396457 0.4633047 0.5244637 -0.43644714 0.58515775 0.26706517 -0.009969701 0.9311382 -0.10091027 0.5431745 0.8879631 -0.13511129
196 0.044070788 -0.8088957 1.2006814 0.48534817 0.28195935 -0.57132983 -0.054201942 -0.028215887 0.26889798 -0.39995918 0.16240534 0.7611254 0.6916567 0.3153915 -0.6475401
39 -0.13730726 -0.082087465 1.4071021 0.11686433 -1.2075231 -0.04968428 -0.71981734 -0.10198531 0.5238576 0.8101757 0.052624404 0.3516843 0.7189364 0.02846243 0.24633616
41 -0.13894798 -0.13018624 1.3273058 0.006206786 -1.1517518 -0.076954 -0.73338175 -0.23910286 0.50244516 0.8344198 -0.054669693 0.44334576 0.71968526 0.06104328 0.1300526
55 -0.17976855 -0.16714752 1.1667053 -0.26225483 -0.93612206 -0.13135254 -0.72163767 -0.657321 0.22870606 0.7865144 -0.2704197 0.57986104 0.86280924 0.17273903 0.009251492
42 -0.1436553 -0.12980105 1.3272278 0.033306412 -1.1466173 -0.0826106 -0.7848056 -0.2837037 0.42810062 0.8240775 -0.024503984 0.44639254 0.6981969 0.0054332903 0.10684538
683 0.39423507 0.36399958 1.0134202 -0.8949687 0.4716505 0.5512684 -0.79564023 0.08698752 0.8924727 -0.8095128 0.17672403 -0.13495304 0.3951696 0.33989605 0.04580669
12 -0.22561069 -0.18495946 1.4652542 -0.087450035 -1.2036922 0.33285522 -0.49336946 0.3092732 0.33591908 0.6523645 0.21835554 -0.19117147 0.83129036 -0.45295134 -0.44009852
145 -0.10645664 -0.041360848 1.289544 0.2588373 0.11454551 -0.5888223 0.63427 -0.6974201 0.42223427 0.28476635 0.7013257 0.1278591 0.49154967 -0.11459824 -0.5988238
24 -0.048489563 -0.37862128 1.5798305 -0.17887548 -1.2615684 0.3405234 -0.45531157 0.15314488 0.39430937 0.8573455 0.19583535 -0.043032818 0.5288827 -0.14239022 -0.12844983
244 0.30344072 0.2436382 1.2070608 0.6779429 0.12933837 -0.42083392 0.037875343 -0.62708247 0.7699089 -0.05926518 0.48939347 0.59545094 0.3902666 -0.60633487 -0.9603532
29 -0.025680475 -0.2943996 1.5053586 -0.026292915 -1.2541671 0.13477167 -0.63451403 0.070231386 0.3965435 0.91989136 0.19543046 0.12821496 0.59822613 -0.044185396 -0.075119466
188 -0.26256263 -0.7564611 1.0985184 0.36539048 0.22162259 -0.5786288 0.10392859 -0.035749972 0.44272128 -0.3351234 0.10710993 0.6485612 0.63436157 0.3380177 -0.80494744
259 -0.17185001 -0.04788191 0.52200204 -1.0428123 0.42212725 -0.15825962 0.10074999 0.37365544 0.8539361 0.7462382 0.35694137 1.095567 -0.24652483 -1.0017073 0.2494577
35 -0.037056956 -0.21681698 1.4732859 0.049493004 -1.2388176 -0.038106084 -0.729501 -0.02083967 0.4015837 0.7521213 0.1127881 0.29970914 0.5700879 -0.09185392 0.23589818
269 -0.30512357 -0.122406155 0.42591318 -0.9757011 0.33377215 -0.31478098 -0.12778163 0.49583915 0.88004273 0.58497196 0.43498433 1.081635 -0.30403697 -1.0141351 0.2194732
726 -0.8041873 -0.07639684 0.50910425 -0.6041568 0.07113571 -0.27818927 -1.1403428 -0.60959363 -0.20722347 -0.89435095 1.1230129 0.12076919 0.43684196 -0.6239903 0.105295904
461 1.0254164 -0.9451371 0.05636123 -1.4295642 0.23293376 -0.58568054 -0.80302364 -0.03750024 0.23048358 0.3462553 0.5182099 0.28818408 0.43492854 -0.42052197 -0.5644365
40 -0.10076382 -0.08077837 1.3581232 0.027491266 -1.2387508 -0.038050093 -0.74729955 -0.19774988 0.45412922 0.8246359 0.06981685 0.41269964 0.6873212 0.06974418 0.14114349
191 -0.12852272 -0.83303756 1.1327325 0.4527607 0.24430184 -0.6318678 0.07352629 -0.090086214 0.31996256 -0.36397746 0.18352115 0.672545 0.76219946 0.21989617 -0.73881865
275 -0.31291774 -0.18043926 0.34189087 -0.91196924 0.2872609 -0.29121903 -0.3254383 0.5523694 0.9842892 0.56197226 0.30881584 0.99560493 -0.22247775 -1.0227362 0.175161
301 -0.12271331 -0.79049 0.18886289 -0.49109796 0.7569724 -0.6756299 -0.61971694 0.4545976 1.1603944 0.59501684 0.53363013 0.3655708 0.2442375 -0.6886997 0.61546427
46 -0.17484389 -0.19189973 1.2638394 -0.07596717 -1.1415169 -0.13484305 -0.80439466 -0.48885468 0.4146456 0.7989904 -0.08223377 0.44557333 0.7461351 0.1454565 0.10538405
725 -0.83844763 -0.08522661 0.53381026 -0.5951862 0.1062991 -0.2886851 -1.1929259 -0.5920026 -0.20080651 -0.87134385 1.0288265 0.15674531 0.42697367 -0.58469516 0.18090406
45 -0.24439082 -0.17517361 1.2743328 0.004961308 -1.0997468 -0.063404195 -0.7871237 -0.46764302 0.5102411 0.81114274 -0.07420393 0.3966902 0.77804375 0.12894675 0.15832591
53 -0.10198017 -0.16416168 1.3123435 -0.24925557 -0.95019215 -0.058853924 -0.6834584 -0.58917415 0.24916103 0.78145593 -0.30542782 0.5573783 0.87595177 0.15342107 -0.022932269
703 0.076300435 0.5977858 1.1890373 -1.1049112 0.28638026 0.3119179 -0.492004 0.14191777 0.84931976 -1.1048777 -0.25554278 0.10202868 0.34102312 0.06500988 -0.24311899
625 -0.70577586 -0.16359559 0.24371798 -0.7551022 0.35549974 0.30113882 -0.4864998 0.76315993 0.5070274 0.07652857 1.01668 -0.16355672 0.63418126 0.9732267 -0.22712226
14 -0.13045411 -0.24992752 1.4714663 -0.12898639 -1.3352106 0.38182268 -0.43331954 0.32392886 0.32415423 0.60382885 0.20229036 -0.12928072 0.8551814 -0.38639167 -0.4191343
722 -0.7810131 -0.054131012 0.5094088 -0.47185892 0.11436094 -0.34136418 -1.3012737 -0.5804365 -0.27639943 -0.8889945 0.95836246 0.20130873 0.538687 -0.5472074 0.10147974
241 0.428211 0.03482473 1.2617601 0.6791599 0.16973452 -0.18400286 0.026176868 -0.55422986 0.43226802 -0.04192657 0.5591975 0.663731 0.56418675 -0.591534 -1.0166296
8 -0.26016754 -0.19114293 1.4929606 -0.10270875 -1.1240281 0.27069616 -0.7040917 0.4022291 0.29354328 0.5035687 0.09720753 -0.3749213 1.0076652 -0.5184174 -0.54084015
707 0.1581241 0.5355411 1.1709977 -1.1740738 0.31001648 0.5189918 -0.4680199 0.11657775 0.83943856 -1.0669515 -0.26451585 0.11231916 0.34722155 0.061223514 -0.37259698
189 -0.07398428 -0.9411163 1.128564 0.358978 0.22868693 -0.6045422 0.11241649 -0.1086623 0.4798253 -0.34137744 0.09619065 0.62921256 0.68616885 0.41571832 -0.7129618
48 -0.1864537 -0.15454176 1.2298604 -0.09785687 -1.0498152 -0.101109296 -0.7292006 -0.4900753 0.37877327 0.8359454 -0.13217933 0.48986143 0.8423526 0.068728834 0.1578822
708 0.07922652 0.66121536 1.1909117 -1.1492145 0.28421968 0.5877168 -0.44406983 0.14998539 0.8077749 -1.0847987 -0.22275738 0.22363415 0.37012297 0.04971414 -0.34956598
711 0.08474546 0.5920951 1.2684327 -1.2371092 0.23331787 0.5230639 -0.62441844 0.20977253 0.8142061 -1.0438988 -0.32968405 0.18721767 0.30374724 0.06418174 -0.36576903
190 -0.12378615 -0.7814133 1.1972766 0.40623128 0.18744957 -0.6174665 0.032429963 -0.04187788 0.36374906 -0.34330806 0.0934889 0.710397 0.63932544 0.33056572 -0.64877987
246 0.33987242 0.221129 1.196172 0.72905463 0.16887075 -0.42961496 -0.08346936 -0.65262014 0.83556956 -0.072962336 0.5074983 0.5172819 0.40436676 -0.5488353 -0.9614063
709 0.012292942 0.5764846 1.1662904 -1.1916362 0.3115305 0.5114945 -0.54182416 0.18200621 0.91478544 -1.128937 -0.25488877 0.15011895 0.29434958 -0.0799062 -0.3442073
277 -0.2730446 -0.36328706 0.37893787 -0.8543784 0.3934727 -0.37598118 -0.41515824 0.6000068 0.94230974 0.5533676 0.3098921 0.9006551 -0.21997921 -0.91895986 0.2581359
693 0.37012365 0.6245675 1.1284393 -1.0896702 0.41902888 0.28216574 -0.6186198 0.11695683 0.8154978 -0.9971303 -0.12623832 0.046879444 0.5673229 0.29119653 0.06861946
721 -0.7908655 -0.09341206 0.55338097 -0.46104538 0.030854993 -0.38478488 -1.3165832 -0.49484652 -0.26913518 -0.98265797 0.9835364 0.23764288 0.47198397 -0.46694654 0.15124102
272 -0.32831344 -0.21960688 0.40832254 -0.97846156 0.4097246 -0.27952856 -0.2548969 0.4325253 0.95404804 0.58380204 0.2816947 1.0465714 -0.23909423 -1.010129 0.2133956
242 0.2795874 0.17646988 1.1898693 0.6322061 0.10290623 -0.3447994 0.0339186 -0.56342244 0.58656126 -0.03562091 0.5383761 0.59391385 0.40313557 -0.4697585 -1.0333748
701 0.12845235 0.56056964 1.171183 -1.1186497 0.340973 0.3003137 -0.5669211 0.094329394 0.8075611 -1.0932901 -0.23834066 0.056285992 0.39840552 0.11294247 -0.20705646
47 -0.2692066 -0.18469797 1.2905674 -0.0681998 -1.0691981 -0.16342632 -0.7600477 -0.45771796 0.34157616 0.7132991 -0.107161306 0.41152236 0.796075 0.11607556 0.12950854
699 0.22393864 0.66808295 1.1680094 -1.0417372 0.40309265 0.24322541 -0.6025463 0.19995306 0.81360614 -1.0506576 -0.20486549 0.09749057 0.46442023 0.122659124 -0.048823934
702 0.10014318 0.59714115 1.1821965 -1.1606529 0.2813914 0.45911196 -0.53741086 0.2166131 0.806743 -1.068387 -0.22964017 0.09076404 0.39967722 0.07509229 -0.20729707
273 -0.29475722 -0.19906345 0.3561698 -0.9475028 0.2850969 -0.29979736 -0.36259478 0.50170034 0.89453113 0.50342447 0.29539627 1.1128565 -0.23565443 -1.05653 0.24190526
616 -0.49019516 0.49392152 0.061592866 -0.2741644 0.3188873 0.23831595 -0.60963464 0.32360217 0.49951696 0.4958774 1.2432516 0.27826577 0.708702 0.72678775 -0.7917026
698 0.1781096 0.576942 1.1288856 -1.1402138 0.28506935 0.3425388 -0.5777514 0.18794562 0.88782066 -1.0159816 -0.16787271 0.05045567 0.42248526 0.22968869 -0.055441976
250 -0.16433655 -0.2236723 0.4714706 -1.169236 0.51611227 -0.064752124 0.29601046 0.35628662 0.8388028 0.7333301 0.37914854 1.0779604 -0.26669094 -0.8579426 0.1662817
299 -0.037553266 -0.76070464 0.1922322 -0.42510104 0.644485 -0.66873944 -0.69836074 0.58072466 1.0889745 0.4966359 0.47553992 0.5216247 0.19082755 -0.69331294 0.56351435
705 0.13102621 0.6167522 1.1642866 -1.2251725 0.2187785 0.4779167 -0.48040548 0.14713885 0.82451296 -1.0826334 -0.20805372 0.10559545 0.35992333 0.09852415 -0.34752038
247 0.2684477 0.24577835 1.1995903 0.6862135 0.16914004 -0.3777278 -0.034891468 -0.70580214 0.77366644 -0.06570788 0.5140347 0.49509704 0.39850524 -0.5580487 -0.9501146
470 1.2263348 -0.9366106 0.08675633 -1.2000566 0.2963914 -0.551888 -0.9579245 0.030565497 0.06158242 0.38165286 0.60365087 0.4874377 0.41368565 -0.3972262 -0.30487764
306 0.13142167 -0.7102335 0.043257747 -0.5029564 0.7304073 -0.74471533 -0.57604694 0.38321084 1.0732877 0.5602267 0.7833502 0.43759248 0.3161325 -0.61300135 0.7783944
110 -0.11427066 -0.017081069 1.099031 -0.33283108 0.1752537 -0.60806113 0.17486969 -0.811851 0.08691835 0.8862778 0.37716702 -0.36702183 1.3304961 0.14793444 0.19622153
300 -0.09642027 -0.7229238 0.16303438 -0.47047144 0.62763137 -0.72755116 -0.70521927 0.51873773 1.0903642 0.54305214 0.4817931 0.46568778 0.21849714 -0.6541891 0.5856752
276 -0.311018 -0.25342783 0.36631992 -0.8303898 0.29328078 -0.38210496 -0.3454801 0.637082 0.87811303 0.49777654 0.32249033 0.9976723 -0.19073084 -1.0424614 0.09960022
690 0.31727254 0.5686752 1.0790021 -0.9966007 0.49431854 0.3724375 -0.5822092 -0.000588764 0.7534448 -0.89749616 -0.06863814 0.04141093 0.57607216 0.3453314 0.098654754
462 1.0303311 -0.94069976 0.051528662 -1.3707985 0.27816907 -0.6020291 -0.819015 -0.09373354 0.21995698 0.31533402 0.54205424 0.33477113 0.42929566 -0.50673836 -0.48267174
684 0.41852948 0.38930517 0.98758745 -0.91221505 0.473373 0.47521663 -0.703844 -0.014563107 0.83293897 -0.91423917 0.12386616 -0.09982411 0.52573097 0.35681027 0.096133485
692 0.47890025 0.5917181 1.0558461 -1.0829908 0.45502448 0.3081287 -0.53988564 0.11438602 0.7815983 -0.9575855 -0.06839982 0.039304223 0.60773456 0.33705932 0.034216493
697 0.23352768 0.55407476 1.1441417 -1.0358281 0.42795536 0.31201375 -0.57721597 0.20109335 0.8690323 -1.0142046 -0.17098553 0.0048112464 0.51306933 0.24675389 -0.08979355
408 -0.5027132 -0.9953568 -0.09044278 -0.2938012 -0.2746563 0.8683093 0.111625396 -0.4787356 1.4101033 -0.0075380094 0.55279857 0.6893708 0.8244318 -0.6870422 0.0053344057
696 0.23384511 0.69057906 1.1505313 -1.1317277 0.48213127 0.25786814 -0.5305058 0.10404776 0.8567148 -0.9759742 -0.1057506 0.0014474808 0.47696456 0.20034619 -0.030937424
298 -0.11443635 -0.73187935 0.2379085 -0.44499132 0.714352 -0.59450686 -0.70508885 0.5625931 1.1809531 0.50944734 0.5074626 0.5602062 0.09431961 -0.65086776 0.6959582
52 -0.14857216 -0.097017765 1.32181 -0.16803904 -0.98992985 -0.13005511 -0.7330626 -0.5461707 0.3382404 0.8266977 -0.22815889 0.5428761 0.77931666 0.013747938 0.04409948
304 -0.047667272 -0.69174933 0.0718816 -0.4921004 0.758442 -0.7377413 -0.59259677 0.41990855 1.0846256 0.70663077 0.6375832 0.42807937 0.31697443 -0.61036587 0.64057696
700 0.086556494 0.63687056 1.1858333 -1.1041231 0.37455526 0.403242 -0.50737864 0.21978086 0.8586151 -1.0323614 -0.19165392 0.032858178 0.45584098 0.12090568 -0.08345059
400 -0.41673157 -0.8560028 -0.1888338 -0.5196094 -0.08426592 0.76847124 0.24458313 -0.6182715 1.4164859 0.02491649 0.45729563 0.74889594 1.0066595 -0.69950855 0.08575632
694 0.3535804 0.6643926 1.0519004 -0.959793 0.5023122 0.3478932 -0.59941393 0.09472869 0.8298708 -0.96882343 -0.114122376 0.093815565 0.58911204 0.2542221 -0.032109134
56 -0.2090271 -0.14687733 1.2197639 -0.3429399 -0.9169003 -0.1338164 -0.59447616 -0.69447356 0.21036948 0.76346976 -0.29768962 0.63187355 0.84680545 0.0991489 0.03193456
58 -0.1725299 -0.19346115 1.2793578 -0.32254386 -0.87882227 -0.14740065 -0.5623883 -0.66283244 0.1942915 0.83875847 -0.2849038 0.60752887 0.82374555 0.07948227 0.042579867
49 -0.22361706 -0.10355257 1.2953724 -0.14520818 -1.0358398 -0.24203467 -0.70764357 -0.46817127 0.3204923 0.8028282 -0.18650012 0.52551407 0.75323963 0.067705736 0.115666375
59 -0.23302026 -0.18870363 1.2886794 -0.38041276 -0.810728 -0.2137725 -0.52948266 -0.69549674 0.2313464 0.83209246 -0.36118412 0.604165 0.7977175 0.12259772 0.10901781
469 1.21025 -0.9561324 0.0023100732 -1.351909 0.1950316 -0.47728166 -1.0016017 -0.04322482 0.033261523 0.27440265 0.60893315 0.5192335 0.49868456 -0.39077637 -0.46625462
305 0.025442835 -0.73657084 0.07663803 -0.49027845 0.7565198 -0.66679186 -0.5801744 0.42795742 1.023037 0.6216031 0.7244723 0.41226155 0.35119617 -0.59663516 0.74970704
652 0.1432924 0.060368985 0.8815782 -0.70753473 0.41586038 0.5262979 -0.48665068 -0.22162013 0.658606 -0.4869487 0.75408274 0.39685473 -0.076213434 0.8215278 0.57361704
410 -0.4189566 -0.9194883 -0.17260845 -0.35395235 -0.3493543 0.9174753 0.04971116 -0.52692765 1.4056834 -0.062099736 0.6501023 0.67072064 0.7913009 -0.7290904 0.0054596704
706 0.0822559 0.54256946 1.1853155 -1.2003216 0.1912145 0.54569244 -0.55991364 0.13138025 0.8144047 -1.1270455 -0.279534 0.1788338 0.31443283 0.04567982 -0.3435399
409 -0.33034414 -0.94244504 -0.13535058 -0.30285218 -0.2954916 0.94775033 0.035165474 -0.47130933 1.526688 -0.13643229 0.58489794 0.6413606 0.7736933 -0.69330114 -0.05625813
691 0.40668276 0.5695391 1.0614046 -1.0793595 0.53025043 0.37753087 -0.6148477 0.028606387 0.7771328 -0.91959584 -0.061655425 -0.0332604 0.5926987 0.21988545 0.063642144
57 -0.10605168 -0.18751128 1.2753329 -0.32470995 -0.88209194 -0.2987902 -0.6477435 -0.7314002 0.18045808 0.8018053 -0.33180833 0.59284973 0.8773627 0.08242944 -0.033170693
475 1.230412 -0.8821497 -0.023000851 -1.1597159 0.27653408 -0.5632303 -0.90113586 -0.014922137 0.00072957494 0.40255463 0.78940773 0.7107467 0.4284727 -0.41008225 -0.20117566
401 -0.4489591 -0.8626539 -0.11816023 -0.49287796 -0.10979788 0.7912297 0.13992907 -0.66754854 1.3841633 -0.0015069043 0.4109013 0.7151775 0.89116055 -0.77256525 0.049599294
416 -0.3225558 -0.96593505 -0.101896554 -0.18234232 -0.36434692 0.99663633 0.018418323 -0.3911789 1.5389577 -0.12920041 0.685069 0.76572865 0.6743173 -0.8511772 -0.15635581
596 -0.47852367 0.73041445 -0.057726126 -0.41351777 0.29053572 0.23357695 -0.6585916 0.09197404 0.4369415 0.61206406 1.2019402 0.7200399 0.67281044 0.5656632 -0.818194
441 0.7326717 -0.6665844 0.20370811 -1.5560067 0.14582635 -0.616142 -0.43684065 -0.01672346 0.46919918 0.4197273 0.65321004 -0.14652336 0.20949171 -0.6801854 -0.99437475
307 0.23606354 -0.47424158 -0.03659119 -0.30804804 0.7072765 -0.535017 -0.57975346 0.33055562 1.057001 0.6056116 0.92037743 0.33768785 0.57656 -0.7711913 0.8249912
61 -0.24600525 -0.19745715 1.3120965 -0.43389252 -0.8999061 -0.29883394 -0.47642213 -0.6242174 0.23044156 0.69971436 -0.41117516 0.5995235 0.8449301 0.16675971 0.124712326
439 0.7364582 -0.7492004 0.19970715 -1.4592358 0.1373362 -0.4916336 -0.3343234 -0.0017021091 0.4676251 0.44878346 0.7607482 -0.18080148 0.2079577 -0.6543325 -1.0060079
689 0.372042 0.43566886 0.99365234 -0.99879146 0.5252359 0.37982327 -0.6105338 0.053454768 0.808564 -0.88872296 -0.01762293 -0.11679171 0.5568489 0.29681554 -0.012513873
62 -0.20771435 -0.15909034 1.3252318 -0.3182971 -0.8631098 -0.17741914 -0.5092821 -0.6930704 0.033231977 0.69544417 -0.29697582 0.66480184 1.0340359 0.18308559 0.1827177
431 0.7635103 -0.63935107 0.2539356 -1.4974765 0.029388612 -0.4212998 -0.33228904 0.062358797 0.5950226 0.37364534 0.80241734 -0.2782244 0.07952112 -0.75467426 -1.0113803
65 -0.2518239 -0.118711956 1.2189578 -0.51684326 -0.7549689 -0.27165678 -0.4727155 -0.6911459 0.11854579 0.6734616 -0.4163984 0.53697443 0.89415926 0.09435668 0.14315052
468 1.1444883 -0.9196956 0.059713326 -1.2660334 0.24724945 -0.57361954 -0.85818875 -0.02853306 0.053264104 0.31400555 0.575305 0.45016748 0.4797763 -0.33750668 -0.4387485
399 -0.4444046 -0.82426614 -0.20531097 -0.45669386 -0.124415345 0.7132709 0.16014005 -0.60360444 1.4295069 -0.055490233 0.42215663 0.80375326 1.0079826 -0.6412029 0.052668627
51 -0.21832202 -0.17407493 1.2883608 -0.15675546 -1.030843 -0.15992185 -0.73381466 -0.53596437 0.3170627 0.7558012 -0.21219267 0.58036023 0.720636 0.14570607 0.04238184
64 -0.2984143 -0.13156961 1.1656609 -0.5014214 -0.83071274 -0.19960172 -0.40212864 -0.73041207 0.08493372 0.7028362 -0.3496299 0.6643856 0.91737944 0.1855469 0.03691195
418 -0.22433014 -0.9137172 -0.08837082 -0.22648631 -0.37803066 0.99054885 0.048154954 -0.40351376 1.4034814 -0.020600338 0.698123 0.8489655 0.55955577 -0.84666777 -0.06707552
112 -0.08487791 -0.10456371 0.97153074 -0.3303267 0.13674222 -0.5376891 0.1571275 -0.86859393 0.031584304 0.93800527 0.546713 -0.3443197 1.3059653 0.19344586 0.23790643
50 -0.14790337 -0.15105894 1.2145106 -0.1672341 -1.1371902 -0.2571186 -0.7040831 -0.56627727 0.36999112 0.7838834 -0.10732405 0.47350448 0.7574105 0.097151086 0.09473541
243 0.29238653 0.26019904 1.1604503 0.65993315 0.051421043 -0.30756566 0.04438541 -0.7000141 0.59561247 -0.14173357 0.61898136 0.5580978 0.4450738 -0.5721896 -0.9307591
440 0.70622385 -0.7274772 0.18785605 -1.5575712 0.08892865 -0.5090622 -0.3495067 -0.036201842 0.5352303 0.32278818 0.7137678 -0.17021468 0.18812707 -0.70163655 -0.9827313
407 -0.40059796 -0.91507494 -0.085026994 -0.32718438 -0.24051787 0.9220397 0.15819429 -0.5250047 1.3963015 -0.07324548 0.5614238 0.6694846 0.87127674 -0.75944465 -0.022620237
283 -0.26539043 -0.49575877 0.32762408 -0.72787225 0.39287063 -0.53089267 -0.5996958 0.77405554 1.0243452 0.52936846 0.30202323 0.8710837 -0.10990642 -0.7773406 0.3518675
388 -0.22665595 -0.7010715 -0.2618225 -0.585598 -0.06538184 0.6015158 0.024541521 -0.5253577 1.2536472 -0.1630405 0.26088127 1.0802897 1.1178863 -0.71225876 0.34250712
405 -0.39351457 -0.8645241 -0.08527744 -0.38421267 -0.27737215 0.91640234 0.09974904 -0.5389912 1.4807873 -0.13574813 0.48027954 0.6633834 0.877111 -0.8012715 -0.03567134
686 0.42838883 0.48911467 0.98104817 -0.92317826 0.5026185 0.36354125 -0.6772375 -0.039249174 0.81481814 -0.91746306 0.062869996 -0.038614787 0.48069105 0.31316832 -0.032766014
414 -0.2838347 -0.8736107 -0.09397536 -0.23167709 -0.36237466 1.0135703 -0.029466337 -0.46779877 1.4629952 -0.0941081 0.66258055 0.7774711 0.6488457 -0.78284144 -0.021263964
460 0.96298784 -0.9405015 0.050698277 -1.383422 0.15388049 -0.5634188 -0.7931564 -0.05963187 0.18490613 0.30140838 0.6140868 0.3286693 0.3600897 -0.5012028 -0.6472767
417 -0.3987609 -0.93461215 -0.12574399 -0.15655911 -0.39789915 1.0260231 -0.026428923 -0.32228276 1.4933494 -0.105674356 0.69278425 0.90856415 0.6008133 -0.8367135 -0.11977774
463 0.997183 -1.0654212 0.05106574 -1.4263309 0.25556383 -0.6142325 -0.8675013 0.0027583265 0.19959904 0.24004805 0.57981545 0.34417576 0.35218194 -0.36931702 -0.53486264
116 -0.13846958 -0.19787584 1.0748177 -0.26377726 0.19984925 -0.45795494 0.16066101 -1.0284965 0.1381461 1.0140712 0.5441999 -0.42636585 1.2182633 0.056971874 0.22058718
111 -0.03795801 -0.13466235 1.0944225 -0.37642053 0.04448967 -0.6960382 0.20482098 -0.86346406 0.018842844 0.92050934 0.48905748 -0.32425705 1.3107817 0.18290904 0.20780358
608 -0.5714762 0.6078052 0.04659525 -0.31482738 0.05725195 0.3374863 -0.59718066 0.5252112 0.39925125 0.64384174 1.318141 0.45719412 0.5723858 0.33915576 -0.9481208
109 -0.14409837 -0.11062567 1.028487 -0.3552093 0.06579305 -0.66441053 0.14326982 -0.78665364 0.00054978713 0.9575655 0.46266213 -0.2847358 1.3256379 0.12152502 0.23577985
466 1.0253298 -1.0114504 0.10005834 -1.2932094 0.15353224 -0.5655478 -0.949314 0.0214975 0.03949029 0.30650905 0.5744782 0.38498586 0.36801443 -0.3235277 -0.48712853
361 -0.18470204 -0.55023944 -0.11096289 -0.57420874 -0.021850199 0.36002237 0.24959692 0.5738025 0.9639491 -0.26174775 0.30897155 0.8370269 1.4754812 -0.7792069 0.5084917
404 -0.27037832 -0.8940142 -0.1585078 -0.3816541 -0.19348323 0.8173706 0.035485253 -0.6432018 1.4402463 -0.102242514 0.49143958 0.73277444 0.9034926 -0.83887225 -0.010806432
398 -0.33922988 -0.81342864 -0.25447664 -0.5006335 -0.14585878 0.64616513 0.09067946 -0.62666357 1.3818393 0.017361676 0.36222035 0.836987 1.0820214 -0.67752963 0.0859907
68 -0.19532295 -0.02636969 1.2384756 -0.5085299 -0.67509395 -0.26531845 -0.31279936 -0.6689433 0.016348824 0.6852073 -0.37970743 0.6046131 1.0113966 0.13668486 0.10651886
419 -0.2919512 -0.9765018 -0.0841254 -0.24295495 -0.39860907 0.9527081 -0.03500288 -0.4333048 1.5104825 -0.12417534 0.62892866 0.88467747 0.5646011 -0.82009065 -0.03545537
357 -0.1865281 -0.47206718 -0.02975029 -0.4994513 -0.06969112 0.27936235 0.3240347 0.60151726 0.9462618 -0.21611243 0.3051365 0.6674291 1.4414591 -0.7299238 0.4278971
85 -0.15760818 0.28582743 1.2665735 -0.5420099 -0.3800058 -0.51595354 0.15868711 -0.5129257 -0.17617024 0.76679105 -0.11662569 0.51367766 1.2131956 0.054680813 0.15226303
340 -0.2669519 0.009795553 -0.0020843344 -0.3089511 0.13233449 -0.096305065 0.40308648 0.56174344 1.1905602 -0.13346885 0.6563956 0.39219505 1.3045171 -0.85237235 0.5026451
321 0.20053583 0.1379396 0.059975743 -0.06074907 0.5079134 -0.13417119 -0.0895053 0.45863074 1.0000955 0.22992523 1.0548074 0.20644149 1.1114155 -1.0122031 0.7256464
389 -0.25429845 -0.660358 -0.19337048 -0.48339373 -0.069170356 0.5371477 0.10917341 -0.5096974 1.2841508 -0.31769568 0.21802145 1.0621963 1.1490107 -0.681946 0.3020772
117 -0.052597623 -0.22813925 1.0861344 -0.24722722 0.15053311 -0.4764709 0.27176315 -0.99073 0.08668657 1.0908554 0.66979027 -0.37493578 1.1293762 0.13882905 0.14585967
387 -0.3181106 -0.63620055 -0.22430535 -0.5033333 -0.022635033 0.4684767 0.07303829 -0.5065461 1.2678267 -0.25613043 0.23266473 0.97838753 1.1662349 -0.6909746 0.26397452
406 -0.40759137 -0.92669547 -0.18139347 -0.3696883 -0.27293396 0.88846457 0.13635492 -0.5600941 1.4267676 -0.118428364 0.6077408 0.63460106 0.882198 -0.7112899 -0.027989985
467 1.1770508 -0.99146867 0.019460808 -1.3181556 0.22715163 -0.56141156 -0.9800034 0.09057381 0.14430267 0.33628768 0.5667216 0.5108649 0.43877423 -0.40382716 -0.52239245
60 -0.16481146 -0.20904696 1.208962 -0.47593778 -0.86221987 -0.16829416 -0.49635363 -0.70163 0.16154446 0.7942993 -0.37075892 0.5828385 0.92822117 0.08075529 0.11018294
358 -0.31857 -0.50203085 -0.038758572 -0.44850594 -0.097336985 0.35834518 0.25918928 0.64761585 1.0683799 -0.2152903 0.31989163 0.85672235 1.4535433 -0.79003215 0.48686224
412 -0.36140078 -0.9080192 -0.15727928 -0.31496856 -0.31650245 0.9233163 0.08470637 -0.47363108 1.4618503 -0.057056546 0.6601493 0.7140077 0.73251235 -0.6635622 -0.02180782
435 0.73416823 -0.7582146 0.25002354 -1.4829147 0.1164156 -0.4692432 -0.23970704 -0.05191488 0.5028394 0.34971377 0.81476134 -0.23877524 0.10074419 -0.7615996 -1.023706
95 -0.033893682 0.111776106 1.0499376 -0.5868251 -0.30003026 -0.7274686 0.15725364 -0.585862 -0.09944498 0.75963956 0.099602476 0.112890564 1.4079734 0.17805018 0.29263037
728 -0.8227593 -0.09700119 0.5295732 -0.72653997 0.026817692 -0.27883318 -1.1689843 -0.68413764 -0.18124472 -0.81428516 1.108797 -0.03690497 0.3776366 -0.6327019 0.09552982
384 -0.13328463 -0.62145346 -0.25309655 -0.59123945 0.020897325 0.55635196 0.24658512 -0.42087132 1.1094398 -0.2561224 0.343769 1.0669804 1.2217878 -0.76196116 0.3010262
360 -0.21825966 -0.40133813 -0.10428066 -0.5131501 -0.056923624 0.2488846 0.27127185 0.4722812 0.9830939 -0.17750719 0.241201 0.8931942 1.4831907 -0.74021024 0.46852207
113 -0.113016084 -0.18335134 0.9782821 -0.24720304 0.085602894 -0.54802424 0.20901693 -0.8845917 0.006873019 0.9774052 0.5989884 -0.32804945 1.3395911 0.121568374 0.23688932
394 -0.3652233 -0.73361915 -0.26774687 -0.4928257 -0.17504017 0.60032845 0.08821489 -0.6827561 1.3347013 -0.06407812 0.36373466 0.94032705 1.1159116 -0.6658614 0.2237425
438 0.7731781 -0.67805094 0.27102596 -1.4913605 0.1636084 -0.3815792 -0.34076437 -0.039504085 0.5087396 0.40340278 0.69865185 -0.30543494 0.20697828 -0.7180413 -0.9799914
465 0.95635986 -1.0565097 0.077824116 -1.385802 0.19022855 -0.5383961 -0.9203667 0.05506003 0.12838127 0.33779895 0.57180935 0.36755362 0.33649734 -0.4577103 -0.47715694
359 -0.2717781 -0.41244212 -0.06862707 -0.44278395 -0.03111711 0.26479495 0.24009559 0.56330943 0.9011804 -0.28626978 0.2984513 0.83881015 1.4754221 -0.8355436 0.4051629
92 -0.0901028 0.18412404 1.1863288 -0.6099777 -0.28601977 -0.7451485 0.11322203 -0.49762014 -0.17716551 0.7479799 -0.011984735 0.23418088 1.3706291 0.16558266 0.24954605
472 1.201838 -0.95212543 0.10471945 -1.2207193 0.20786402 -0.5537237 -0.815594 0.03573035 0.027779453 0.36166745 0.6418078 0.5637789 0.38606465 -0.34126547 -0.3371857
446 0.65578383 -0.706421 0.08936257 -1.581351 0.11214715 -0.60576546 -0.5342416 -0.02397762 0.4582074 0.39411095 0.5692682 -0.07762181 0.28349718 -0.58624995 -0.9504327
411 -0.36629537 -0.9552221 -0.16637518 -0.39317665 -0.36765814 0.9267403 0.16763547 -0.48705804 1.4535505 -0.033387337 0.72334623 0.7610884 0.67347044 -0.76279086 -0.03623096
695 0.28825617 0.56368643 1.080642 -0.9995899 0.4438546 0.30292735 -0.47532326 0.07447742 0.851645 -1.0138317 -0.14424516 0.03759297 0.55479854 0.26854748 0.0049650297
393 -0.26699907 -0.7373696 -0.222255 -0.5737092 -0.08205559 0.6008964 0.19485661 -0.6535161 1.3148544 -0.16987284 0.33317086 0.96876216 0.99901813 -0.72074443 0.19207354
607 -0.5989831 0.66506773 0.06611191 -0.31917942 0.09465015 0.4127627 -0.6219319 0.5289931 0.4591551 0.5972061 1.2749761 0.50286365 0.57697994 0.37344408 -0.94911575
320 0.2910749 0.045837983 0.037106324 0.00645877 0.49546865 -0.103151195 -0.1577073 0.4227689 1.0343829 0.2772343 1.0835867 0.20238905 1.1107608 -1.0511495 0.72756493
413 -0.35926765 -0.9428726 -0.05346006 -0.18216278 -0.35897577 1.0472392 0.026291538 -0.48676196 1.3943839 -0.062271107 0.6392468 0.8122655 0.7146983 -0.78181213 -0.048228342
386 -0.25651324 -0.68001467 -0.23625487 -0.5638742 -0.10130319 0.47793624 0.08635267 -0.49525616 1.2067715 -0.24608603 0.22479385 0.9719321 1.1904019 -0.7411832 0.27897537
476 1.2764229 -0.8997641 0.04316345 -1.110581 0.25378913 -0.58754116 -1.0047122 -0.026084345 0.0628607 0.35622737 0.7378691 0.6042548 0.39261815 -0.366193 -0.08032944
94 -0.0786743 0.14864913 1.1769953 -0.49421337 -0.26115426 -0.7037151 0.17262964 -0.56876856 -0.08970087 0.7567714 0.09667441 0.12445512 1.3950258 0.21314734 0.33548075
362 -0.22845894 -0.57358193 -0.022812387 -0.42970496 0.06595717 0.32208487 0.18995886 0.48752132 1.0223943 -0.29136842 0.16552292 0.8791195 1.4438913 -0.88531125 0.44658455
434 0.6549256 -0.58854604 0.26857853 -1.5436155 0.09569212 -0.548421 -0.2528721 0.020416725 0.469202 0.43614075 0.79214245 -0.2773468 0.14720424 -0.7220163 -0.9419612
685 0.43697178 0.45038274 0.96172553 -0.86377317 0.5663332 0.41755447 -0.70074886 0.00087026646 0.8744295 -0.9351909 0.06999722 -0.039486546 0.5272849 0.36391488 -0.06654007
369 -0.14563625 -0.50859195 -0.13730164 -0.42207685 0.040952332 0.48658556 0.04008974 0.30148727 1.0407147 -0.23338206 0.17290236 0.94120926 1.5010924 -0.77691144 0.4026436
77 -0.08023676 0.028897278 1.2145708 -0.66777533 -0.5422318 -0.5283299 -0.13288575 -0.5819104 -0.16934127 0.68753415 -0.27717352 0.5250761 1.0717745 0.14776704 0.16551997
63 -0.17611101 -0.17217019 1.3065087 -0.47041312 -0.8401516 -0.16226989 -0.47076604 -0.72086245 0.08798987 0.68473846 -0.40083718 0.6563701 0.84740704 0.029664485 0.1793152
67 -0.18898457 -0.13228908 1.3747567 -0.5353347 -0.7138434 -0.31604964 -0.33861646 -0.73238844 0.03325715 0.7444096 -0.40899613 0.567793 0.97667515 0.16025263 0.13661489
322 0.13623741 0.16996571 -0.0044622407 -0.09678871 0.39903823 -0.20503652 -0.12588233 0.38027093 1.0416473 0.18159959 1.0339919 0.23050332 1.159 -0.97535837 0.80587703
442 0.7468662 -0.6701797 0.13226296 -1.4163352 0.15985525 -0.5697175 -0.49677926 -0.010475906 0.49219292 0.39724517 0.70060426 -0.14646047 0.26826763 -0.60837305 -1.0743533
381 -0.1738715 -0.6526389 -0.21559949 -0.6326031 0.19112888 0.52718836 0.1806925 -0.31549475 1.1369814 -0.27045426 0.22992168 1.0472717 1.2915344 -0.7352424 0.34343258
437 0.79559165 -0.6260005 0.29105738 -1.5433434 0.16817854 -0.57861793 -0.3760172 -0.054800216 0.44256464 0.39824674 0.7514722 -0.27917576 0.21576527 -0.702709 -1.0319842
464 1.0229359 -0.9894103 0.071066916 -1.4244763 0.24112916 -0.6342822 -0.8269362 0.063695915 0.12323585 0.28088856 0.55633295 0.33837435 0.4294094 -0.32300177 -0.5069375
402 -0.33127096 -0.82812744 -0.111962415 -0.4715344 -0.17177725 0.800935 0.13593632 -0.6227705 1.488431 -0.06083702 0.4289834 0.7071892 0.91182244 -0.7251184 0.14178477
356 -0.23664658 -0.40825206 -0.05307611 -0.48609787 0.029323326 0.28542134 0.2774955 0.5413679 0.9450115 -0.20837046 0.35022986 0.74400723 1.4527496 -0.7739882 0.545875
452 0.8127815 -0.8576406 0.11142081 -1.4247415 0.23320967 -0.62126726 -0.7054732 -0.01798133 0.34681222 0.3499453 0.5302861 0.14361066 0.2733405 -0.52379817 -0.8388654
115 -0.057391804 -0.19519067 1.0456288 -0.27411622 0.17069492 -0.520722 0.27011287 -0.9304792 0.15079366 1.0499923 0.5586973 -0.33744815 1.2087097 0.13795465 0.27241758
601 -0.53476065 0.7925344 -0.009346317 -0.47788438 0.15003887 0.27321464 -0.612651 0.3352984 0.39076525 0.66842115 1.2506402 0.58518124 0.6601466 0.32625005 -1.0153376
433 0.6859099 -0.6231215 0.23732045 -1.4988501 0.1584941 -0.52944535 -0.32432023 -0.044663657 0.5180868 0.40681705 0.8240401 -0.27548394 0.1747487 -0.69589597 -1.0668749
380 -0.16828696 -0.6359448 -0.21859209 -0.585397 0.1625385 0.55590147 0.12114103 -0.30088997 1.047961 -0.30221272 0.18929563 0.91189635 1.3980691 -0.86823225 0.24195495
420 -0.3392291 -0.8975909 -0.098829426 -0.2103492 -0.41743448 0.9580312 -0.0023122928 -0.36326042 1.4598248 0.03834155 0.6114792 0.86621815 0.6129911 -0.7547485 -0.010693193
688 0.38645306 0.4953268 1.0764983 -1.0243851 0.5500429 0.35755646 -0.5934944 0.04483735 0.8096992 -0.93443257 0.020900669 -0.025180183 0.51912236 0.34325257 0.0339668
338 -0.103118844 -0.11728326 0.02234022 -0.34827653 0.032553613 -0.067767695 0.34416366 0.6270442 1.2169331 -0.19467866 0.7753208 0.23499988 1.2628338 -0.93556947 0.6361667
314 0.41822818 -0.027481724 -0.005321607 -0.021090128 0.52906036 -0.1968436 -0.24831712 0.3387965 1.043573 0.42783985 1.1385739 0.275897 1.007418 -0.93957496 0.8823677
687 0.44610983 0.4702259 1.0616722 -1.0026959 0.6015628 0.40353435 -0.5699774 0.027863925 0.82412755 -0.85151595 -0.012464833 0.02268231 0.4896473 0.41696197 -0.0035337857
606 -0.59413767 0.7117182 0.13381587 -0.40236378 0.1793571 0.33376917 -0.6117524 0.48985592 0.4450182 0.702149 1.2840916 0.48259532 0.49170917 0.3738965 -0.9693317
114 -0.04559943 -0.1127397 1.0573105 -0.23179772 0.083989255 -0.65306634 0.21960467 -0.9089024 0.10523717 1.0143912 0.5789195 -0.35246918 1.3232957 0.16180196 0.191032
626 -0.6206072 -0.15019354 0.28850612 -0.8113315 0.21515265 0.22248213 -0.59237003 0.6628199 0.44131204 0.09965727 1.0027164 -0.23287569 0.6929767 1.1306951 -0.17564651
602 -0.46401566 0.7874222 -0.015848892 -0.3856686 0.08807572 0.2997694 -0.6121197 0.4696221 0.42729595 0.63856363 1.2562506 0.70754766 0.6295469 0.40818834 -0.9968486
447 0.8057795 -0.7609439 0.15618217 -1.5588936 0.1874256 -0.6462356 -0.54176646 0.0071600624 0.41386664 0.41518813 0.64998806 -0.044054687 0.26590294 -0.58560705 -0.9357989
432 0.72911024 -0.631832 0.26906118 -1.42669 0.08912081 -0.43042752 -0.34362504 0.06249245 0.47139335 0.3808984 0.87072283 -0.30763108 0.1355069 -0.78416 -1.1123432
319 0.19318855 0.14323626 -0.008121934 0.0035108293 0.4475866 -0.20064914 -0.21535961 0.4718391 1.0522755 0.29327023 1.1058942 0.23299481 1.0964912 -0.9544629 0.7633882
609 -0.49065343 0.6101338 0.0232365 -0.31826296 0.20116581 0.32251403 -0.57129765 0.485511 0.44221014 0.67382044 1.356769 0.4137504 0.58796257 0.36007127 -0.97176564
445 0.75451523 -0.7595873 0.09317006 -1.4467726 0.100068964 -0.52371955 -0.5644155 0.021341406 0.44246146 0.45526284 0.68380547 -0.06506341 0.28959465 -0.5997584 -0.9290792
78 -0.078113526 0.1336861 1.18921 -0.63015604 -0.5589195 -0.47078317 -0.029816886 -0.60394555 -0.13170575 0.7791457 -0.21861705 0.5270392 1.1916683 0.12691776 0.07660996
385 -0.20658888 -0.620591 -0.2654083 -0.54780805 0.07835595 0.5896526 0.079456285 -0.49588948 1.208949 -0.23845088 0.23357189 0.99873537 1.2863268 -0.660354 0.23402105
336 -0.24021026 0.022905229 -0.052189317 -0.3671746 0.14751887 -0.19306658 0.27025622 0.5113719 1.2623901 -0.106262505 0.75771475 0.28078878 1.3107865 -0.82531524 0.65709436
397 -0.3872505 -0.75209993 -0.17078455 -0.4716683 -0.09322653 0.70583385 0.23147248 -0.6513486 1.3219931 -0.11323249 0.42299023 0.8223339 1.0829027 -0.70660156 0.16717906
444 0.74799436 -0.7393445 0.10563778 -1.5809919 0.22792618 -0.57880247 -0.5089903 -0.14744467 0.4874969 0.4501383 0.66906995 -0.10675744 0.27800325 -0.6388062 -0.9749966
611 -0.55514926 0.6108832 0.0475382 -0.26313648 0.20678577 0.41348168 -0.6233545 0.6200944 0.4972712 0.44828385 1.3597118 0.3350449 0.71930957 0.40418047 -1.0353655
91 -0.11933037 0.28629884 1.154424 -0.514437 -0.2579877 -0.7317895 0.04938096 -0.57114255 -0.17477192 0.7837138 0.05544648 0.28511462 1.4137466 0.1725412 0.24132375
87 -0.13839513 0.22464666 1.135055 -0.59780777 -0.30671722 -0.66263235 0.01887846 -0.53195035 -0.2097291 0.7835403 -0.065141276 0.35554278 1.3937117 0.15153442 0.23560391
599 -0.43081585 0.7382668 -0.05276287 -0.42916563 0.19387597 0.325585 -0.6902429 0.28460655 0.38943112 0.63634294 1.2066082 0.6684722 0.6831277 0.3829401 -0.9200786
612 -0.55777055 0.5953592 0.05520029 -0.24693778 0.20677695 0.36302474 -0.6189577 0.5511685 0.4562697 0.56606853 1.4225487 0.2946197 0.6693548 0.4058137 -0.913341
84 -0.20439693 0.0764753 1.2461202 -0.596215 -0.4531401 -0.56427443 0.12131949 -0.5459846 -0.19849932 0.71407366 -0.14289027 0.48201764 1.2451136 0.06598635 0.21183965
382 -0.25356194 -0.68122476 -0.26788986 -0.5392449 0.028725255 0.5579476 0.13446079 -0.26203206 1.0762154 -0.2530061 0.2456515 0.99964005 1.3455297 -0.75225824 0.18319312
459 1.0362043 -0.8846495 0.066571265 -1.469821 0.18581069 -0.59845275 -0.7269131 0.023010077 0.23975682 0.35562736 0.5773919 0.3514713 0.3734588 -0.47325915 -0.68457204
600 -0.6236929 0.6891542 -0.06053849 -0.4222597 0.21069516 0.32507017 -0.4945487 0.17511931 0.38552397 0.64424014 1.3514513 0.7078214 0.64715636 0.4248101 -0.9123392
339 -0.12738459 -0.042817757 0.03874352 -0.3226996 0.16776145 -0.15523884 0.373814 0.5948572 1.2404797 -0.12925583 0.6620066 0.33995426 1.321246 -0.8615893 0.61555666
443 0.76116747 -0.7629444 0.10715069 -1.4127293 0.12119023 -0.4081495 -0.50252664 -0.07022036 0.4783476 0.49596828 0.5847542 -0.061150424 0.27097392 -0.60859585 -1.0640821
349 -0.24994685 -0.2829947 -0.05668124 -0.53120214 0.09752795 0.06984485 0.46681175 0.6030383 1.1217779 -0.24340911 0.47939548 0.55662715 1.4686075 -0.88195366 0.43471867
383 -0.16036578 -0.66828513 -0.1710587 -0.53669435 0.03344584 0.49015045 0.19989362 -0.3781694 1.1790221 -0.36857137 0.22515859 0.98976374 1.197466 -0.7021632 0.30503672
76 -0.08300889 0.12358809 1.2136947 -0.69432795 -0.56601447 -0.47036844 -0.12189512 -0.5766571 -0.08426849 0.7117998 -0.3244208 0.48469508 1.1176426 0.124159075 0.17432952
395 -0.3498405 -0.7477178 -0.23687226 -0.52720094 -0.15899716 0.6116831 0.15176146 -0.6657373 1.3598733 -0.029368928 0.41373575 0.9086033 1.0758125 -0.6688148 0.24831185
364 -0.16919033 -0.5513182 -0.11550601 -0.5360028 -0.009281638 0.4253063 0.15032275 0.43864018 1.007068 -0.1726991 0.22396249 0.89397234 1.5246748 -0.79984194 0.4696888
368 -0.16613197 -0.5155512 -0.06645977 -0.4803858 0.074866965 0.52310413 0.088958554 0.30838308 0.9277321 -0.19719478 0.13763063 0.9694451 1.464864 -0.8517055 0.44252637
90 0.0070523815 0.29573944 1.2444134 -0.61853963 -0.33039284 -0.722324 0.05940106 -0.52757937 -0.1624423 0.7478191 -0.027147515 0.2286804 1.3858664 0.14333326 0.16477966
603 -0.5545785 0.7203684 0.021993311 -0.40456966 0.17245133 0.31711277 -0.592286 0.443969 0.4459564 0.6128839 1.2400182 0.6285742 0.58655864 0.38242647 -1.0252308
355 -0.28953153 -0.41911 -0.06503715 -0.5479041 0.0040882886 0.21410462 0.3036965 0.61594844 0.96959007 -0.29629776 0.389741 0.7054675 1.4330833 -0.8065078 0.48192662
375 -0.20633377 -0.6315865 -0.13219711 -0.5556273 0.07490663 0.50270194 0.1163845 -0.08616361 0.9893261 -0.23096237 0.12232436 0.973482 1.4247766 -0.7917159 0.4186362
396 -0.3659516 -0.7128428 -0.16645096 -0.39245203 -0.10914816 0.6558396 0.13571732 -0.60120577 1.4358572 -0.07205237 0.3467259 0.9099292 1.014099 -0.64738154 0.16970968
453 0.7358917 -0.91341835 0.03414061 -1.4709642 0.2755076 -0.6783431 -0.67900395 -0.046254553 0.25081265 0.26786652 0.60142887 0.12484091 0.3746271 -0.54645205 -0.8133006
456 0.87443167 -0.87626946 0.091664426 -1.526216 0.132183 -0.6416583 -0.6675286 -0.084002204 0.35941428 0.24460189 0.47995117 0.17379418 0.35168844 -0.43624088 -0.75534827
341 -0.2512116 -0.11338206 0.025009992 -0.39458263 0.078282416 -0.063839264 0.32172796 0.6085162 1.1702062 -0.28930175 0.6706157 0.30690348 1.2879196 -0.945193 0.6034955
66 -0.27116224 -0.066829085 1.254721 -0.56566936 -0.66691804 -0.30627757 -0.40685278 -0.67237884 0.08953939 0.7459524 -0.46006045 0.6044274 0.92137176 0.12760605 0.12043783
101 -0.00632014 -0.02536563 1.1123773 -0.5307819 -0.035234626 -0.6461293 0.20221522 -0.72315574 -0.08161147 0.74490553 0.15512171 -0.05505341 1.4012305 0.14118692 0.33543557
93 -0.10541898 0.13371412 1.1689535 -0.574699 -0.23992948 -0.66189367 0.18612914 -0.591485 -0.15652132 0.7474429 0.04719753 0.22332117 1.3372557 0.15022255 0.25255653
471 1.207985 -0.9270624 0.05563443 -1.2081357 0.25845462 -0.53062093 -1.0008204 0.122978486 0.029685896 0.40731734 0.6282184 0.5488008 0.46372786 -0.37881124 -0.39848822
89 -0.017199438 0.2879282 1.2567272 -0.61928785 -0.2848399 -0.67055213 0.028379066 -0.48526853 -0.20054507 0.7790626 -0.042011473 0.29912037 1.2904063 0.13185118 0.2898024
436 0.75873834 -0.6875253 0.21614893 -1.5106645 0.13188176 -0.45150313 -0.3422036 -0.034512885 0.5604375 0.30138645 0.78721386 -0.27354994 0.18990998 -0.6678545 -1.0479636
610 -0.6230261 0.654499 0.059856106 -0.4238277 0.11080022 0.45243692 -0.6484923 0.46866146 0.41790354 0.5755832 1.4123039 0.33947852 0.5807227 0.33644065 -0.9954022
458 0.9937262 -0.90234405 0.07515442 -1.4827135 0.25847843 -0.6620638 -0.7423141 -0.043250553 0.26037633 0.36949685 0.54280055 0.15671882 0.4409335 -0.4015275 -0.66861975
367 -0.10102402 -0.5069761 -0.215984 -0.61570007 0.113858275 0.47398928 0.11571538 0.27418223 0.9827081 -0.19380344 0.17471036 0.88335156 1.5300096 -0.77183014 0.33909023
415 -0.4225959 -0.89135134 -0.13885881 -0.25204235 -0.360152 0.9963622 -0.04121375 -0.36292586 1.5106429 -0.09079092 0.66289276 0.78223234 0.67198145 -0.70500314 -0.031453762
69 -0.17946586 -0.061922893 1.2775187 -0.5413508 -0.5972028 -0.2362838 -0.32639757 -0.7030368 0.0011336722 0.7686531 -0.38789788 0.57356286 1.0478534 0.1657971 0.13939188
403 -0.41935682 -0.92501104 -0.11814845 -0.32175267 -0.06997184 0.8560878 0.10611987 -0.53251344 1.3685131 -0.08736571 0.5435838 0.62850714 0.8907726 -0.7557533 0.014084071
477 1.2703074 -0.98091835 0.0153702395 -1.066125 0.26574123 -0.63333726 -0.92167246 -0.10469748 -0.034012903 0.38203484 0.8771545 0.6633816 0.39385322 -0.34707728 -0.19462238
315 0.31847593 0.039847817 -0.0014892024 0.019131292 0.6121615 -0.14987789 -0.29780906 0.28820118 1.0173718 0.30903187 1.169935 0.24539426 1.0099608 -0.89169145 0.94614106
70 -0.24573983 -0.06215474 1.2521381 -0.5793523 -0.6728962 -0.29872483 -0.21578826 -0.69128335 0.036524788 0.78066254 -0.3667637 0.6164047 1.0323342 0.15890685 0.17010252
334 -0.14686853 0.017747007 0.014872415 -0.26834178 0.22107044 -0.18063211 0.28588495 0.5363454 1.215609 -0.07192932 0.8397259 0.28896895 1.2626805 -1.057429 0.606065
390 -0.27671126 -0.82385814 -0.18026939 -0.39786115 -0.050275523 0.5961481 0.11260869 -0.5228888 1.2241726 -0.28270492 0.33019993 1.0271953 1.0738533 -0.66820645 0.2633001
451 0.817277 -0.8021612 0.13842086 -1.4829922 0.2171258 -0.64230466 -0.65257347 -0.07456463 0.2920148 0.37136233 0.61702263 0.067970276 0.27614346 -0.5284621 -0.92362607
428 0.7175962 -0.4879659 0.27195778 -1.4706391 0.124735095 -0.44139463 -0.2821983 0.036481563 0.5097121 0.36792263 0.79687953 -0.3840146 0.19041295 -0.7597136 -1.0441437
605 -0.48509225 0.682032 0.05256411 -0.34290686 0.10167587 0.3627077 -0.6771119 0.53201026 0.4637761 0.5151074 1.2582989 0.5525027 0.5490976 0.38871333 -1.0829663
100 0.0013110336 0.059804793 1.1459194 -0.49717185 -0.045449402 -0.53883034 0.27444026 -0.6355115 -0.0690891 0.80442864 0.12586999 0.0057007233 1.4132354 0.22151755 0.29206768
88 -0.16644217 0.1409508 1.1843495 -0.71178055 -0.43588275 -0.68845254 0.07610872 -0.58260185 -0.13193092 0.78129095 -0.13657814 0.3278929 1.2898319 0.057351116 0.16372953
604 -0.45877516 0.63475305 -0.08000284 -0.34171662 0.11811877 0.29736397 -0.6613074 0.3725811 0.4436588 0.58592707 1.3583304 0.6648255 0.5120588 0.37695715 -0.9843417
379 -0.11151203 -0.5563104 -0.20356323 -0.62990814 0.045374177 0.5396615 0.0930856 -0.28008497 1.2127205 -0.30119383 0.16045465 1.0103644 1.3499038 -0.8382476 0.36758852
86 -0.09994319 0.2799479 1.1945664 -0.5973502 -0.4277358 -0.58676857 0.11672545 -0.51398915 -0.15807046 0.7345495 -0.11885157 0.4445213 1.2875673 0.048456892 0.15195835
324 0.056929752 0.16646683 -0.04239015 -0.15978763 0.29719025 -0.23039305 -0.04962122 0.3933134 1.1188812 0.1584396 1.0190275 0.28299642 1.1610222 -1.0708491 0.7369672
330 0.05489269 -0.07897255 0.017713169 -0.26620537 0.17767212 -0.18882406 0.27744272 0.54325825 1.1837455 -0.0034669552 0.91770685 0.19382922 1.2391396 -1.0588657 0.6458738
71 -0.20752813 -0.040499855 1.172202 -0.6428048 -0.6927241 -0.25192204 -0.17027566 -0.61660844 0.0032269086 0.7920987 -0.35137317 0.61714023 1.0930537 0.22933869 0.0988494
350 -0.27912953 -0.30311283 -0.04852821 -0.5290123 0.1338372 0.07119339 0.4530184 0.62294126 1.0867372 -0.22330317 0.44790882 0.5905492 1.4284333 -0.7878509 0.5289477
118 -0.041501075 -0.22804321 1.022448 -0.21997589 0.16898592 -0.5403382 0.2521726 -1.0295867 0.11037204 1.0374297 0.6375398 -0.3615988 1.1993533 0.12179108 0.16997056
457 0.8665461 -0.92294544 0.06634138 -1.495472 0.20166317 -0.62690073 -0.6514098 -0.13778327 0.2703394 0.2967871 0.44270575 0.20456421 0.4112381 -0.4643646 -0.7209071
366 -0.13542104 -0.47659552 -0.09849727 -0.4859028 -0.036877304 0.5228369 0.12956809 0.388525 0.97273785 -0.24658616 0.15987304 0.95079964 1.4260991 -0.7362311 0.3881868
335 -0.13937719 0.08068713 -0.08523092 -0.29184905 0.094533704 -0.15730119 0.15088674 0.57221866 1.3141541 -0.054352272 0.81239545 0.3722788 1.2701327 -0.8451955 0.66322976
337 -0.20081803 0.023312278 -0.056008577 -0.3106531 0.17272104 -0.10561249 0.21530586 0.57803565 1.3072594 -0.13327485 0.7353638 0.29774538 1.280443 -0.88785166 0.5379324
96 -0.17774956 0.09184961 1.1828781 -0.51233166 -0.18377285 -0.6832986 0.19247153 -0.6328303 -0.20949112 0.73239774 0.1235394 0.13432343 1.4370228 0.19724846 0.3039298
392 -0.26152462 -0.6637776 -0.33234906 -0.4858928 -0.09561057 0.54818076 0.027651852 -0.65024996 1.3098274 -0.21733272 0.39031702 1.0267725 1.086368 -0.7320503 0.18728766
248 0.296428 0.27785978 1.1020182 0.69030863 0.10529441 -0.32307234 0.04544121 -0.6893702 0.77170223 -0.035445288 0.51901084 0.482831 0.50896704 -0.5401157 -0.9539715
598 -0.48625657 0.702176 -0.073694825 -0.49493396 0.1801697 0.37772077 -0.66398734 0.19262831 0.42973262 0.66218954 1.207342 0.79920906 0.61604637 0.48737013 -0.90660584
75 -0.15416086 0.12313561 1.3287094 -0.6931369 -0.565938 -0.50007516 -0.21043263 -0.6528046 -0.096485704 0.70376414 -0.31231952 0.48216978 1.0549865 0.058683585 0.12610996
429 0.730217 -0.5379478 0.25422153 -1.4993279 0.1458881 -0.51377445 -0.23104182 0.19058564 0.47427893 0.36741364 0.80544084 -0.3161194 0.27235103 -0.71215624 -1.135576
430 0.6865446 -0.58732295 0.23546408 -1.4389435 0.114882655 -0.44914675 -0.2816389 -0.020061083 0.47184524 0.42989966 0.78427136 -0.19598831 0.148183 -0.7627742 -1.0642289
455 0.8114767 -0.9211166 0.012876405 -1.4271343 0.2972793 -0.63769275 -0.7096114 -0.047885507 0.3241499 0.2471845 0.5507194 0.21433198 0.3309893 -0.5165626 -0.78449684
326 0.031418793 0.14325456 0.0034996143 -0.1913846 0.26256353 -0.12601715 0.028007029 0.49790174 1.160191 0.12645754 0.9598967 0.13869146 1.1966519 -1.0169544 0.685218
377 -0.12735783 -0.5685759 -0.2443241 -0.6865503 0.042994987 0.5756917 0.12920392 -0.11750644 1.0699025 -0.2996363 0.20397742 0.9886061 1.3145499 -0.7219044 0.30918592
378 -0.14201784 -0.67414284 -0.19081663 -0.63603455 0.068475194 0.5085474 0.21284938 -0.247657 1.0945834 -0.16130409 0.16081135 1.0701045 1.347448 -0.746856 0.38627267
376 -0.14212182 -0.6058602 -0.25980976 -0.70689106 0.1385714 0.49954087 0.18115343 -0.09799856 1.0247893 -0.2200944 0.21792118 1.0366212 1.4632638 -0.840405 0.29153985
82 -0.20024244 0.21345156 1.150863 -0.7027525 -0.5053185 -0.53799367 0.052827314 -0.63705456 -0.09993557 0.69956195 -0.22770593 0.4106116 1.3193336 0.017386243 0.098195694
333 -0.07066079 0.07369336 -0.041105196 -0.29142404 0.22793461 -0.17611234 0.22106513 0.52933866 1.2035265 -0.074436106 0.86239666 0.3306093 1.2533443 -0.9893674 0.644381
373 -0.14405859 -0.591604 -0.24180835 -0.6496459 0.074541226 0.4953986 0.058767427 0.057150073 0.9833831 -0.31175625 0.17276195 0.8948149 1.3965057 -0.80579066 0.29963177
119 -0.0386038 -0.27938712 0.9608206 -0.21761245 0.13410382 -0.61756223 0.23666224 -1.0159494 0.07773836 0.9692393 0.7362639 -0.38331178 1.117509 0.09079763 0.13541582
107 -0.123987034 -0.051503696 1.1252583 -0.38412574 0.05817311 -0.7252605 0.19352855 -0.7454924 -0.015674014 0.9084239 0.39123848 -0.24892753 1.3392549 0.1453248 0.30803418
323 0.05639373 0.06814708 0.027238414 -0.10010032 0.4065162 -0.2256281 -0.051453184 0.39536402 1.1061361 0.014384442 1.0121129 0.17419602 1.1367257 -1.0632988 0.7948138
97 -0.086456195 0.044133823 1.1419215 -0.5550858 -0.18709502 -0.6674734 0.22514752 -0.58465654 -0.24894693 0.8481792 0.21734124 0.091456704 1.4434649 0.19624157 0.23017588
351 -0.27183437 -0.23967493 -0.036718935 -0.52623075 0.035335008 0.027282504 0.46245238 0.58448976 1.0371836 -0.23095244 0.48441476 0.5747124 1.4353939 -0.9293115 0.4472213
473 1.1889058 -0.99516106 0.10042942 -1.2700619 0.26308644 -0.6237758 -0.86005044 -0.104136355 0.019307913 0.30891165 0.5958633 0.5247219 0.4351515 -0.2711133 -0.19168597
374 -0.20761749 -0.6967345 -0.16655464 -0.5883066 0.12639971 0.5518827 0.116315775 0.025108488 1.0272844 -0.29133773 0.19150928 0.88319683 1.4307091 -0.7428537 0.3859914
147 -0.41860807 -0.027746938 1.2333581 0.17413448 0.08901094 -0.83732617 0.5864914 -0.4862043 0.6382151 -0.0138800675 0.6987805 0.051445466 0.2910064 0.0059809503 -0.47125593
347 -0.29771447 -0.1768294 0.007245051 -0.45502368 0.06187168 0.073826976 0.4090422 0.682886 1.0873541 -0.20748489 0.5614398 0.40607387 1.3885533 -0.8750269 0.46527764
363 -0.21653359 -0.4691456 -0.09455798 -0.415813 -0.05489927 0.381626 0.17319639 0.44682348 1.0709385 -0.1892021 0.21362464 0.90854263 1.5009999 -0.6467281 0.50718844
372 -0.09031679 -0.5517123 -0.13906161 -0.588664 0.1026292 0.4800937 0.08395935 0.06355576 1.0352523 -0.27692464 0.06524744 0.9047703 1.4839581 -0.7667689 0.37236136
448 0.7879431 -0.7162719 0.15311757 -1.5344919 0.22601628 -0.730694 -0.59869325 0.038594153 0.38323992 0.44967356 0.6843461 -0.00818509 0.25146726 -0.5135697 -0.89022154
449 0.7510399 -0.849549 0.15264735 -1.4864361 0.14087555 -0.62220687 -0.661949 -0.048067253 0.33659455 0.3048653 0.6395605 -0.0016914153 0.22429621 -0.5458593 -0.95000017
371 -0.16066475 -0.65023285 -0.1627548 -0.64330226 0.002062605 0.4914946 0.13578619 0.18243863 1.0506746 -0.18262163 0.12073178 0.87708586 1.4700147 -0.8081671 0.36191022
454 0.7563605 -0.9463718 0.118630186 -1.5042311 0.2336766 -0.63809013 -0.7130676 -0.03994678 0.2946016 0.32343933 0.54198104 0.121492274 0.27322635 -0.46577087 -0.83698857
478 1.2172936 -1.008749 -0.007167234 -1.0693603 0.31588465 -0.62835836 -0.8671748 -0.10721664 0.00328264 0.5064098 0.8951952 0.6700811 0.37433645 -0.2394156 -0.078785196
624 -0.6091402 -0.2625181 0.18654121 -0.8051257 0.37003434 0.16875435 -0.590663 0.70439416 0.43548578 0.04372833 1.0238656 -0.1891104 0.66871136 1.0526341 -0.25912416
329 -0.061885998 0.08016779 -0.02996374 -0.29579917 0.28894678 -0.19688083 0.23518422 0.56869185 1.1205068 -0.057893675 0.9220629 0.22649913 1.2674065 -0.99062103 0.6419095
74 -0.15222564 0.036811147 1.1490186 -0.6191395 -0.6636003 -0.43408674 -0.13127534 -0.54884434 -0.092478864 0.71725184 -0.2968781 0.58013636 1.2034982 0.093392126 0.16327429
391 -0.23319453 -0.6696275 -0.20973137 -0.55854875 -0.13689648 0.5295899 0.18569905 -0.5695227 1.3938591 -0.18097767 0.31454378 0.94290197 1.088146 -0.6557853 0.29595613
332 -0.04415968 0.10469635 -0.030694904 -0.20094275 0.089281715 -0.15820792 0.16965698 0.5755306 1.2692609 0.020081226 0.81382334 0.24792148 1.2604971 -1.0228525 0.52444893
149 -0.45239156 -0.19161361 1.1940179 0.10159221 0.08523742 -0.8424551 0.6174001 -0.59571403 0.5320838 0.2466407 0.77030873 0.02144758 0.27558938 0.087227784 -0.44794598
99 -0.21414597 0.14627773 1.1334192 -0.55155385 -0.06734466 -0.68367267 0.16627635 -0.5688947 -0.19048801 0.8664268 0.15360676 0.046280876 1.405676 0.08541618 0.25815022
450 0.70394415 -0.86433923 0.031546798 -1.4678563 0.22442597 -0.5776177 -0.6608528 -0.037951645 0.35954183 0.2918442 0.6233444 0.11549703 0.25944838 -0.58501565 -0.94808644
79 -0.15234779 0.074943975 1.168553 -0.63860875 -0.4867448 -0.63588804 -0.12678815 -0.5818467 -0.16649805 0.7129265 -0.25589857 0.52836066 1.2103752 0.13679704 0.14363511
