749 20
201 0.21005882 -0.56741536 0.76352984 0.30979884 -0.39491218 -0.8131292 0.46295857 0.43105906 0.42517754 0.14471447 0.67927575 -0.41893387 0.24817343 0.5387707 0.27445877 0.411644 0.5404393 -0.25093785 0.05667653 -0.8055366
750 -0.5161361 0.8682817 -0.043044094 -0.11957549 -0.5855902 -0.012160791 0.63810897 0.76760304 -0.6499416 0.49754566 0.30311134 -0.042080816 0.3710703 0.04518292 -0.0055939597 -0.4323454 0.6738092 -0.6175971 -0.89592695 -0.29391545
749 -0.54710555 0.8172476 0.001641081 -0.16806051 -0.4876474 -0.050901916 0.62001747 0.8011277 -0.6859193 0.5059327 0.25918463 -0.08294139 0.42064822 0.023655849 -0.030284239 -0.33954656 0.72549987 -0.56258374 -0.9326477 -0.21082036
680 0.29211435 0.24736565 0.12853609 -0.3387769 -0.031675078 0.13391732 0.07585246 0.7334076 -0.45148125 0.5881221 0.6980861 0.08018245 -0.2341196 -0.6617686 0.6806597 -0.33671004 0.9568996 0.2039034 -0.19943534 -0.68483883
204 0.19868091 -0.6671566 0.7293855 0.29367015 -0.49738008 -0.8016263 0.47312352 0.4193017 0.36984882 0.12236546 0.7155861 -0.376924 0.20018955 0.55421907 0.29689184 0.5224332 0.5766487 -0.18786837 0.030668857 -0.6949969
156 0.13546857 0.3934115 0.33636987 0.34118214 0.36760458 -0.758793 -0.07295826 0.61499286 -0.045685384 0.51126844 0.56772375 -0.68347377 0.5004747 0.8032487 0.06477922 0.90103817 0.43813476 -0.18672459 0.16757537 -0.56493306
228 -0.16165149 -0.8092863 0.11473522 0.16624428 -0.5719728 -0.26432276 0.36285716 0.50122267 0.7242088 0.49056283 0.8283375 -0.25346223 0.49079487 0.59123456 0.10069124 0.5501964 0.8853909 -0.19946733 0.13036868 -0.3227214
751 -0.45568097 0.88221395 0.01912847 -0.13675469 -0.6076907 0.001254121 0.6344605 0.6632564 -0.7365434 0.460671 0.31208605 0.03476655 0.3469085 0.06243388 0.01959336 -0.36115533 0.667489 -0.5990193 -0.9384872 -0.2538445
203 0.23042728 -0.6871842 0.7636068 0.234343 -0.4798681 -0.78874207 0.5117319 0.44818953 0.36377186 0.10509497 0.7196657 -0.41510335 0.16702566 0.47794375 0.30154377 0.5103945 0.5729483 -0.14210887 0.09120272 -0.77540386
677 0.30888808 0.2907783 0.065125786 -0.3801513 0.042235546 0.062073078 0.010327175 0.610729 -0.52959573 0.6094791 0.60552675 0.036698487 -0.276054 -0.57267195 0.75969666 -0.2814996 1.0401807 0.27187485 -0.32419923 -0.6167836
753 -0.42212686 0.81860465 0.0682815 -0.097420216 -0.5712755 9.377788e-05 0.61430246 0.5662779 -0.7350048 0.41594994 0.40975982 0.045300767 0.32957208 0.05379458 0.073815815 -0.44558665 0.7466629 -0.63080126 -0.9099116 -0.27410597
745 -0.6438108 0.8131629 -0.087782234 -0.104630806 -0.44323888 0.076078445 0.5298004 0.9620099 -0.7042814 0.49060464 0.19504417 -0.012402092 0.5246223 0.026614105 -0.030356744 -0.23923244 0.80111367 -0.56238055 -0.80958486 -0.19624436
748 -0.6010108 0.771053 -0.06302885 -0.11829646 -0.4850495 -0.012157112 0.6712995 0.8513777 -0.6960629 0.5550195 0.31438208 -0.0610896 0.40373102 -0.020239009 0.020287985 -0.3061615 0.7011274 -0.5961646 -1.0078838 -0.19108415
205 0.13729835 -0.69241065 0.6885705 0.28998622 -0.48185155 -0.8740114 0.531642 0.4593633 0.4066278 0.15765879 0.7348485 -0.39688158 0.1394362 0.53658795 0.20180655 0.4658381 0.56014097 -0.29077932 0.016457845 -0.73050123
230 -0.116689645 -0.8393607 0.130203 0.16944434 -0.6361554 -0.25961283 0.30182928 0.58242923 0.73105276 0.5860991 0.7475834 -0.29094654 0.52721834 0.5814054 0.03608533 0.6073039 0.83658856 -0.32147688 0.09194591 -0.28243297
226 -0.12742753 -0.8962879 0.08715836 0.24931762 -0.5050559 -0.2731904 0.28342906 0.51879245 0.66486514 0.427082 0.8541167 -0.38445354 0.38759038 0.62290823 0.067007534 0.62125343 0.95022225 -0.17033163 0.14399722 -0.45941666
681 0.31373423 0.19576797 0.054794014 -0.36614457 -0.013880081 0.15097953 0.12964405 0.6168734 -0.54407185 0.69751674 0.6896613 0.046565726 -0.31392205 -0.606745 0.6690272 -0.3112448 0.9453828 0.08287287 -0.14877318 -0.62427944
658 0.30484658 0.36702642 -0.16001152 -0.24099852 -0.2041557 -0.15246618 -0.328572 0.31806087 -0.38869536 0.694104 0.44578463 0.03314286 0.1268182 -0.27981007 0.42458606 -0.7683801 1.3950628 -0.021842878 -0.349897 -0.5434668
676 0.30287522 0.247491 0.080686964 -0.39608344 -0.028412495 0.07744861 -0.013814875 0.66009474 -0.5621047 0.6780877 0.4977265 -0.08158698 -0.2482563 -0.59657365 0.67393917 -0.29361585 1.0399877 0.18734793 -0.32301712 -0.634792
746 -0.610288 0.7601486 -0.11827201 -0.12908834 -0.4720884 0.0596852 0.5834001 0.9509068 -0.76685774 0.4874359 0.21748555 0.03164796 0.58248997 0.087852366 0.049325287 -0.23512703 0.69608057 -0.54708236 -0.8954473 -0.12001332
682 0.34236807 0.22763757 0.13824777 -0.38850114 0.02451581 0.19602342 0.09318313 0.6787378 -0.50214976 0.63542324 0.64486074 0.14739552 -0.3109175 -0.61979276 0.660084 -0.35621953 0.97736526 0.11209499 -0.2696365 -0.6762846
229 -0.1649141 -0.8519958 0.15726747 0.16959897 -0.56590044 -0.29027796 0.30233636 0.5214373 0.6504235 0.5598445 0.82992566 -0.31076625 0.4172923 0.53648674 0.1623433 0.58804375 0.85786563 -0.21146005 0.08164411 -0.31685486
202 0.25451362 -0.6571713 0.7950085 0.25854304 -0.46105817 -0.8063993 0.5208726 0.48745912 0.39569607 0.06317758 0.7320079 -0.4485963 0.22962727 0.5353308 0.18580614 0.53705966 0.60999864 -0.16578673 0.024710342 -0.7607153
657 0.3790437 0.38367414 -0.22396164 -0.2763215 -0.19206879 -0.082343146 -0.29019064 0.3028124 -0.42226097 0.7296116 0.5855435 -0.03668069 0.13339461 -0.29642084 0.3710093 -0.8279045 1.3455511 -0.0654034 -0.30723202 -0.5312366
591 0.53565866 0.53497773 -0.11403126 -0.49670845 -0.29948196 0.95275277 -0.23086098 -0.009979927 -0.19771272 -0.1915944 0.74711597 -0.54068226 0.6636174 -0.013174961 0.46997133 0.65820336 0.47756067 -0.16012642 -0.43875304 -1.0004011
747 -0.62847996 0.795783 -0.032453585 -0.15540707 -0.53466165 0.044938017 0.5899913 0.9122677 -0.74567235 0.48837566 0.28287193 -0.095489316 0.5255386 0.018204141 0.043953665 -0.25856838 0.71328115 -0.5078389 -0.8768103 -0.20532463
208 0.1508063 -0.75928336 0.55736005 0.28005895 -0.58454 -0.8454547 0.5024528 0.4274031 0.34199807 0.19103123 0.750064 -0.42598462 0.060101505 0.48909608 0.12495822 0.6281441 0.5404384 -0.2481586 0.017129298 -0.69710475
209 0.07363831 -0.7771204 0.53093714 0.23295605 -0.58396125 -0.6885321 0.52919155 0.48034695 0.31115347 0.19094634 0.75756615 -0.4755312 0.13778858 0.4979378 0.12465765 0.6256996 0.4987144 -0.32848242 0.03352719 -0.679485
628 -0.012727433 0.6718007 -0.3821995 -0.07957069 -0.1856476 0.44532722 0.7062474 -0.34777474 -0.50554323 0.30559495 0.63514054 -0.14442782 0.037385233 -0.5114542 0.5678742 0.2187708 0.9647456 -0.14151022 0.113356955 -1.0315764
181 0.30932826 -0.16468807 0.52112734 0.23013176 -0.03555759 -0.8449085 0.046626646 0.46092594 0.1411082 0.407212 0.8104805 -0.5187662 0.36677134 0.86026007 -0.03571539 0.21753706 0.27640113 -0.70497006 0.29290828 -0.7632432
234 -0.20515922 -0.86793363 0.18159136 -0.044426553 -0.63789123 -0.36193177 0.24127568 0.57817173 0.76087904 0.5543538 0.64768517 -0.2908814 0.67603797 0.36297786 0.1810949 0.7435447 0.7494543 -0.41148195 0.105437964 -0.20625599
592 0.54028374 0.43878627 -0.20802519 -0.5576412 -0.3210122 1.0019186 -0.116217844 -0.032031793 -0.2637653 -0.3501202 0.6300915 -0.5252671 0.7121856 -0.06096106 0.45824176 0.6689735 0.5797238 -0.12574905 -0.4589879 -1.07344
590 0.50007534 0.53202367 -0.2223664 -0.5280539 -0.29685083 0.9983171 -0.19869286 -0.0007666289 -0.25599003 -0.18689942 0.6889972 -0.47534323 0.80680746 -0.033355445 0.43474022 0.6491146 0.4573297 -0.19756286 -0.47079566 -1.011841
673 0.3296116 0.32802895 -0.04668822 -0.39473495 -0.010438505 -0.06312545 -0.08893281 0.6089114 -0.47705406 0.5800576 0.51924986 -0.13795689 -0.2109439 -0.6220227 0.65867907 -0.25887138 1.2042683 0.354549 -0.37620902 -0.5243435
774 -0.20544167 0.89799255 -0.4416292 -0.28787112 -0.77298325 0.22848679 0.9119672 -0.15576103 -0.7320674 0.0063744746 0.6319534 -0.53264934 -0.08887441 -0.45193574 0.35217142 0.25410026 0.7127221 -0.7694063 -0.021801565 -0.45898628
758 -0.27510574 0.707259 0.03282517 -0.1653542 -0.5910393 -0.061730187 0.5564358 0.3191957 -0.86028993 0.40662837 0.64383304 0.05657657 0.13816915 0.026950948 -0.032787636 -0.47011122 0.74527 -0.59247005 -0.7512933 -0.33025923
675 0.35332206 0.3514356 0.13928387 -0.39823472 -0.048481744 0.053122155 0.005500834 0.6512456 -0.49728414 0.634867 0.50955373 -0.06481708 -0.20524886 -0.60635555 0.6689254 -0.29761901 1.0976201 0.25643942 -0.34137207 -0.59198296
160 0.14792311 0.3884005 0.38388047 0.2164673 0.23669887 -0.8799438 0.06680721 0.4954638 -0.0088806385 0.49801672 0.45020625 -0.6912524 0.44968808 0.78673923 0.0026083686 0.8126401 0.5001028 -0.29764137 0.37247992 -0.5469196
754 -0.38105255 0.8889304 0.14127153 -0.18455641 -0.49378762 -0.051065736 0.62038654 0.50157523 -0.795733 0.39797318 0.4502936 0.00830531 0.30772346 0.034799673 0.0141188335 -0.39033833 0.71770525 -0.61261386 -0.82734084 -0.2727482
155 0.055089027 0.38262567 0.31507295 0.32996538 0.42780244 -0.7582208 -0.026971102 0.6405009 -0.071925305 0.6319645 0.4692341 -0.6753234 0.41410068 0.83835506 0.11071492 1.0034921 0.47132444 -0.08511391 0.14603612 -0.551231
589 0.49554446 0.5416693 -0.14515977 -0.62041116 -0.32805687 0.98588467 -0.17672916 0.0960499 -0.19689435 -0.22559962 0.7279097 -0.50521064 0.6775748 -0.17841801 0.44925362 0.67210686 0.47171372 -0.12968837 -0.4251618 -0.9773518
581 0.549721 0.38580948 -0.2616683 -0.76452386 -0.2574034 1.088063 -0.12477383 0.10257392 0.048813026 -0.19433141 1.0503635 -0.40064803 0.81842387 -0.1618449 0.5251839 0.29988936 0.33687174 -0.3272874 -0.33262974 -0.8941672
679 0.3343479 0.22762537 0.13029723 -0.40858966 0.03772309 0.09974934 0.11485376 0.70536405 -0.50415236 0.5976722 0.6474868 0.021725435 -0.31239548 -0.60889333 0.6986507 -0.3145829 0.9531492 0.24503496 -0.2518875 -0.6479843
232 -0.15251967 -0.7965224 0.23997633 0.04133902 -0.6549813 -0.35121086 0.2942925 0.566803 0.73749745 0.70389277 0.800717 -0.37079737 0.5330672 0.51845485 0.093326256 0.66426796 0.78012997 -0.32922888 0.13467309 -0.27466607
231 -0.20856951 -0.7198459 0.120987155 0.13357256 -0.5776637 -0.31099012 0.28504258 0.51870817 0.8151171 0.68326586 0.7899073 -0.38208735 0.5046049 0.40400234 0.10748396 0.62878275 0.8002465 -0.30489776 0.103396796 -0.33081624
752 -0.4366798 0.86862874 0.004226607 -0.13462989 -0.56374437 0.039599586 0.6514644 0.62001294 -0.7528171 0.4464909 0.3605239 -0.005540357 0.31050798 0.06855238 -0.0073239873 -0.41348004 0.7598746 -0.5524 -0.90055186 -0.2924046
212 -0.030418545 -0.85665345 0.37836856 0.27150396 -0.6182887 -0.7076666 0.5091912 0.46854302 0.31320083 0.18893078 0.8906051 -0.3488589 -0.017461006 0.44119853 0.102064155 0.74347025 0.47026452 -0.35761353 0.04301199 -0.6453384
762 -0.18775041 0.56724405 -0.09796692 -0.26994407 -0.5764184 -0.108983524 0.585341 0.23071891 -0.9448371 0.32605636 0.7035197 0.015124501 -0.041989744 -0.086350426 -0.011318313 -0.5033558 0.8013805 -0.58920234 -0.8435913 -0.29031858
744 -0.6266004 0.76561576 -0.17107895 -0.11716823 -0.32381687 0.0006112373 0.5948386 0.9813795 -0.6739602 0.5004936 0.13115725 0.017950587 0.49865583 0.027037604 -0.014891579 -0.29753286 0.7495986 -0.6157793 -0.83727556 -0.14079393
154 0.03051997 0.33032432 0.22757106 0.32387924 0.4514931 -0.7820053 -0.025421225 0.6910189 -0.028636187 0.6605313 0.5250503 -0.73624504 0.37711912 0.79599035 0.13723545 0.92929816 0.39167953 -0.097249605 0.06008729 -0.58500195
585 0.5616722 0.39696836 -0.14499548 -0.710258 -0.2844873 1.0764155 -0.178164 0.06501204 -0.07103821 -0.16859166 0.85858464 -0.4014167 0.7644464 -0.085809305 0.4247469 0.5210818 0.4198882 -0.24214472 -0.28291267 -0.97742975
584 0.5209593 0.43095696 -0.17886981 -0.6881652 -0.34845635 1.145943 -0.08944674 0.11246698 -0.08735572 -0.11340293 0.8971313 -0.37590572 0.80013114 -0.13337821 0.41367105 0.48800257 0.4194951 -0.2508758 -0.31875032 -0.9600675
308 0.6970948 0.9499543 -0.5101706 0.45643288 -0.59950787 -0.18417661 0.03832055 0.49772063 0.49057478 -0.0011923832 -0.1294251 0.9755459 0.27556923 0.29505554 0.81757647 0.41485208 0.26279202 -0.5755079 -0.16301025 -0.29973355
175 0.28344434 -0.037216246 0.41956785 0.12799013 0.051863194 -0.9213822 -0.019769225 0.4229619 0.1466885 0.46758568 0.66616994 -0.52298814 0.43253168 0.70249915 0.03577552 0.3684223 0.26790273 -0.5626273 0.49528837 -0.82701546
666 0.3879058 0.5343363 -0.09792698 -0.29267558 -0.07708949 -0.009210223 -0.18376508 0.5207966 -0.4086203 0.6579553 0.5878822 -0.15172203 -0.11183255 -0.41169152 0.6448793 -0.46497864 1.3514867 0.21527934 -0.28179386 -0.37982756
759 -0.2642818 0.7379617 -0.048934676 -0.2319676 -0.591782 -0.09106578 0.5708407 0.3206134 -0.8321332 0.36158067 0.6397593 0.039852884 0.103912696 -0.06256732 -0.014172828 -0.4840067 0.7862123 -0.5800806 -0.9055916 -0.2992718
678 0.32155764 0.30102995 0.08983198 -0.3554458 -0.0020875873 0.12691936 0.008821848 0.694719 -0.48704377 0.6339356 0.6117932 0.005054453 -0.25301263 -0.6282566 0.70713466 -0.29104963 1.0345564 0.203931 -0.2189224 -0.65899277
761 -0.22959764 0.6939873 -0.11253285 -0.2632855 -0.59832 -0.15514627 0.55870616 0.28086433 -0.94988936 0.37023538 0.61959064 0.011543729 0.060445853 -0.017950853 -0.026327122 -0.50811017 0.79460037 -0.5768364 -0.83393383 -0.31587437
165 0.19308798 0.15939966 0.33109602 0.11251829 0.21732719 -1.0332608 0.0080475155 0.43092334 -0.04390819 0.3989009 0.5967 -0.6141552 0.5065298 0.74776334 -0.07776453 0.7032103 0.40719518 -0.42131028 0.44475305 -0.70545876
200 0.19229889 -0.56655514 0.8312137 0.24433307 -0.45078567 -0.7648357 0.54783237 0.39345193 0.409972 0.15103795 0.70098245 -0.37948406 0.34547865 0.5611726 0.21399191 0.45368847 0.55550647 -0.24172983 0.0807889 -0.82211167
213 -0.0651817 -0.85544676 0.44307953 0.21248223 -0.54605246 -0.623912 0.48470458 0.47568196 0.33220634 0.2776569 0.8660068 -0.357942 -0.028559338 0.4543092 0.07670093 0.7071385 0.5649102 -0.38706848 0.097786196 -0.6351336
293 0.5231443 0.68780404 -0.7958058 0.10702691 -0.74291974 -0.6176021 -0.23466834 0.36133623 0.37723598 0.036518924 0.40358046 1.2483957 0.3318208 0.17111105 0.34021243 0.3683636 0.082557075 -0.45285243 -0.22317617 -0.5530711
236 -0.24430403 -0.66062933 0.18323003 -0.03961737 -0.65442973 -0.3133566 0.18735866 0.7156688 0.8344779 0.6545146 0.7341666 -0.40304047 0.5030823 0.30534863 0.115712844 0.6816085 0.78956527 -0.3230225 0.16248567 -0.15786168
760 -0.24783981 0.7191902 -0.07194343 -0.27981576 -0.5944445 -0.06556073 0.4880011 0.27902865 -0.9509243 0.36357012 0.6573098 -0.00665556 0.15018643 -0.051218513 0.021502873 -0.43569362 0.7732944 -0.560794 -0.81777185 -0.33445144
151 -0.0059124404 0.38668948 0.2517227 0.33366364 0.44766286 -0.63921297 -0.0109669315 0.7539823 -0.054171726 0.54356927 0.49150524 -0.5971653 0.34261045 0.8513808 0.05398605 1.0244973 0.38932973 -0.13361412 0.088305004 -0.49130064
665 0.43569574 0.51021016 -0.1528295 -0.25879326 -0.07585178 -0.04247474 -0.2255531 0.4757214 -0.3854042 0.6972946 0.60004985 -0.13216408 -0.10052727 -0.4029419 0.5575281 -0.5601517 1.326498 0.15081152 -0.34983414 -0.43052402
763 -0.24345465 0.5510151 -0.06470202 -0.23386097 -0.61265683 -0.04588707 0.5575808 0.2018758 -0.96238804 0.28893352 0.7693364 0.021857997 0.020156253 -0.1011245 -0.016912846 -0.41673148 0.90345776 -0.5997202 -0.75574225 -0.26291355
182 0.33300582 -0.23617087 0.5791192 0.31871808 -0.05254766 -0.7964375 -0.053543307 0.29839373 0.14636971 0.34033346 0.831207 -0.49723515 0.44887513 0.74316823 -0.0039588185 0.28383946 0.41706753 -0.7565783 0.23035069 -0.75125283
211 0.051323753 -0.8191185 0.5260474 0.21153314 -0.63226706 -0.6049218 0.5279298 0.48811114 0.30388805 0.20850052 0.8386296 -0.44752 -0.030489177 0.42565748 0.12751453 0.6983025 0.48803273 -0.3871011 0.11269493 -0.6674199
756 -0.30324596 0.7603444 -0.017647633 -0.16868176 -0.5173778 -0.1356061 0.6503795 0.43524903 -0.8310736 0.36530426 0.51827353 0.015257597 0.24038744 -0.091429256 -0.009527939 -0.45338997 0.77497035 -0.61034584 -0.85960346 -0.29564422
214 -0.05209415 -0.8797486 0.40045708 0.26974052 -0.6142302 -0.58163595 0.50464064 0.40288875 0.26979172 0.292952 0.9158416 -0.38675398 -0.017805567 0.4136896 0.06367025 0.75208783 0.60226524 -0.406546 0.12741457 -0.61893797
579 0.5541502 0.46089646 -0.19757539 -0.6952238 -0.26574308 1.1255494 -0.16049519 0.13718401 0.05538148 -0.11604289 1.0274601 -0.4310323 0.8206749 -0.17449093 0.45076105 0.38370878 0.3759729 -0.30445883 -0.24413855 -0.9682505
583 0.4992706 0.43274668 -0.22127692 -0.7796818 -0.25966826 1.0413866 -0.10611858 0.07930887 0.02110736 -0.11394634 0.96120554 -0.38246715 0.7793123 -0.15685242 0.42024776 0.47233337 0.29215884 -0.2906014 -0.2628622 -0.95544505
648 0.2168358 0.2649005 -0.0018805393 -0.32538727 -0.12718163 0.06907411 0.26782396 0.297243 -0.67916393 0.6214123 0.77833253 0.265143 0.11803478 -0.35479048 0.30304885 -0.58604795 1.1042072 0.10839371 -0.27442303 -0.6147819
757 -0.29582873 0.81874585 0.094515204 -0.1763384 -0.55723786 -0.10006849 0.5778445 0.34782198 -0.88834596 0.3426163 0.55076647 0.009524027 0.167546 -0.004376406 0.045950014 -0.40274477 0.77772063 -0.6146689 -0.8124109 -0.2719861
235 -0.1978151 -0.71645355 0.18108009 0.041311897 -0.7234871 -0.33687586 0.18301313 0.6173541 0.85933393 0.7447722 0.78772116 -0.3808421 0.5336101 0.29415908 0.16088964 0.64572597 0.7716445 -0.40319768 0.13190413 -0.14969593
227 -0.10673481 -0.8292742 0.06432155 0.15710518 -0.60335606 -0.30495888 0.29590675 0.46722025 0.6579415 0.5084035 0.8569859 -0.37793356 0.39988047 0.56836826 0.10510884 0.66032916 0.83575 -0.15619403 0.16643742 -0.3698463
167 0.31470174 0.17371128 0.35502863 0.1287087 0.22483458 -0.9445769 0.012979036 0.37271366 -0.02272729 0.45110366 0.6464109 -0.6457963 0.44841608 0.74187875 -0.04128918 0.6215687 0.37031946 -0.4612079 0.44972095 -0.7163016
655 0.3489812 0.3321802 -0.1873715 -0.2703468 -0.18614683 -0.12124839 -0.22648773 0.24480246 -0.43452656 0.67728657 0.6377839 -0.08442247 0.14073133 -0.2707019 0.36433432 -0.8568352 1.3897192 -0.11325733 -0.26111308 -0.4874608
223 -0.05595991 -0.81008065 0.17031085 0.30407074 -0.4461912 -0.32119104 0.28261957 0.47016552 0.5975773 0.31678396 0.88114285 -0.29072335 0.2021334 0.5210695 0.019098615 0.6361459 0.97158635 -0.29220155 0.22081019 -0.42039284
153 0.061234243 0.34774652 0.20784971 0.28451225 0.48854187 -0.70244783 0.03130848 0.64113516 -0.057257496 0.5299856 0.5373677 -0.6451491 0.35117176 0.90641314 0.0066721165 1.0666425 0.4035284 -0.11486942 0.09950603 -0.51699543
770 -0.23854135 0.9324017 -0.59538037 -0.2951125 -0.7906884 0.22345683 0.86199504 -0.19242631 -0.63906235 0.13631512 0.66456133 -0.465641 -0.018039096 -0.3746406 0.28551182 0.17805046 0.68717575 -0.6189161 -0.053956892 -0.51295197
593 0.46210825 0.51345706 -0.1542272 -0.48914853 -0.2873946 0.9739893 -0.21230695 -0.041504674 -0.25875297 -0.30000758 0.7091511 -0.5665429 0.6260604 -0.11755659 0.5286743 0.67151403 0.5449102 -0.20026706 -0.4591727 -1.1173979
672 0.45104823 0.29709938 0.063211225 -0.40801463 -0.0031704202 0.080601655 -0.016291773 0.5830165 -0.45710316 0.6280419 0.5086107 -0.18750052 -0.23631331 -0.5426588 0.5971864 -0.34866264 1.247968 0.26438373 -0.40400752 -0.47497198
207 0.07663799 -0.76082563 0.5773135 0.21446218 -0.54614717 -0.77894163 0.5113549 0.5024339 0.39754474 0.20624645 0.70111686 -0.5035685 0.08331644 0.5587771 0.205957 0.60694146 0.5077874 -0.2112498 -0.0023703324 -0.74666065
162 0.21566884 0.22772345 0.44325182 0.08320312 0.22467236 -0.84862804 0.07917007 0.45973814 -0.04869428 0.65564096 0.5646434 -0.71483254 0.5146484 0.7744403 -0.063116305 0.7047441 0.45739594 -0.29589865 0.3717619 -0.6102791
215 -0.035746638 -0.8478708 0.38851166 0.32163408 -0.5056512 -0.6300131 0.3870708 0.49919906 0.37532982 0.28712642 0.9200349 -0.36335263 -0.05858942 0.3762443 -0.02050196 0.73250705 0.68047035 -0.43515036 0.16232838 -0.64824337
183 0.3662805 -0.269763 0.5924921 0.34798482 -0.07527852 -0.7656592 0.014738301 0.3661077 0.1400566 0.35550004 0.7688366 -0.53047335 0.31381238 0.83951503 0.029639278 0.26443034 0.3912228 -0.77217156 0.23851548 -0.7893349
233 -0.19286655 -0.8022176 0.16261867 0.07195692 -0.6319336 -0.32805175 0.27541018 0.65543944 0.721132 0.73563147 0.8568667 -0.36307728 0.50393814 0.34030372 0.039084453 0.62423825 0.6403741 -0.35862833 0.044225123 -0.27962592
224 -0.051393636 -0.8828916 0.13762063 0.22050525 -0.5070749 -0.34296295 0.34902328 0.48874292 0.60698354 0.32977378 0.90579194 -0.30574337 0.23976131 0.5033203 0.015463987 0.606174 0.93350923 -0.22839952 0.21895148 -0.43662414
653 0.3432547 0.3858127 -0.15681922 -0.19816229 -0.13374017 -0.11554325 -0.17071086 0.20978215 -0.39984134 0.7075362 0.7313427 0.0058134557 0.1793378 -0.32002118 0.40136153 -0.7956798 1.2721313 -0.037895434 -0.30556387 -0.5098215
586 0.5318475 0.5011922 -0.15041852 -0.64216757 -0.33521643 0.9885769 -0.15837954 0.0574471 -0.21738207 -0.11982101 0.8613881 -0.4490566 0.8653857 -0.1285467 0.43493184 0.5516504 0.3708275 -0.19541425 -0.3333426 -0.94674075
220 -0.101810575 -0.8182894 0.21941003 0.35939395 -0.49538106 -0.48908907 0.31115735 0.40396616 0.5767698 0.21969135 0.8783646 -0.30915642 0.16268475 0.43732977 0.12967984 0.73483 0.9501414 -0.35498062 0.2597638 -0.51223284
210 0.074758664 -0.7623916 0.44194067 0.2976729 -0.6353797 -0.71090585 0.49562094 0.49202746 0.40673494 0.18535292 0.8698147 -0.444538 -0.0634844 0.47008133 0.15249051 0.6436806 0.49691823 -0.386053 0.12090529 -0.64989996
159 0.16894856 0.31246883 0.30751362 0.23579387 0.33952639 -0.79564244 0.020979295 0.5027368 -0.018694764 0.48918867 0.51840377 -0.6890607 0.5517766 0.79288363 0.06855118 0.8229122 0.4971124 -0.27528882 0.31598324 -0.5122822
291 0.49289247 0.600608 -0.7451618 0.113589816 -0.79775476 -0.6065724 -0.28512698 0.3653761 0.2663194 0.051848378 0.43921834 1.2425946 0.33297145 0.12744696 0.27775553 0.45485955 0.09957274 -0.33314115 -0.22246915 -0.5924584
225 -0.07556211 -0.9062231 0.09641024 0.3159662 -0.55589885 -0.33092576 0.34971663 0.47080463 0.6040304 0.38033122 0.8689047 -0.29294267 0.36126524 0.5152777 0.047810905 0.57104105 0.9001171 -0.19566815 0.122101925 -0.39564884
775 -0.15460527 0.90355825 -0.4887537 -0.25380224 -0.76295686 0.12419631 0.9188911 -0.19808179 -0.6639779 0.06280717 0.630356 -0.49147496 -0.022548635 -0.513963 0.40235302 0.24087699 0.64859045 -0.7264013 -0.05747137 -0.4037265
621 -0.07498172 0.75108707 -0.39643148 0.12541895 0.0045188456 0.63061553 0.60636145 -0.25364143 -0.41772813 0.25270665 0.57722336 -0.2152805 0.15560693 -0.3360675 0.5664351 0.36414525 0.90492666 -0.10339385 0.1997409 -1.2213055
177 0.27514926 0.0050226077 0.4371979 0.17523822 0.04734928 -0.8538792 -0.033019263 0.49630162 0.19266924 0.3778872 0.7165741 -0.557983 0.49210984 0.7610383 0.009880718 0.33945066 0.1971449 -0.6219349 0.45925874 -0.9289906
290 0.47792327 0.5788167 -0.71216124 0.08547981 -0.81469417 -0.6852958 -0.20223528 0.3423747 0.28643158 -0.042776175 0.34029663 1.2243096 0.33612427 0.13716082 0.3110509 0.4265847 0.101696454 -0.3152108 -0.27528796 -0.63562125
622 -0.09259166 0.766116 -0.45050913 0.08291219 0.0056421496 0.5984314 0.5754277 -0.2759845 -0.4660116 0.2526519 0.57547957 -0.18702234 0.106744096 -0.43749 0.5759655 0.42694572 0.93314385 -0.15862177 0.21148774 -1.2439712
157 0.18526159 0.32399297 0.31335673 0.24786073 0.3582165 -0.84409046 -0.039040532 0.6258426 0.00039359936 0.5219413 0.5258285 -0.6690047 0.4105772 0.7842963 -0.020452809 0.8629181 0.45180294 -0.16020659 0.20590451 -0.5468308
664 0.4309197 0.44701785 -0.14143354 -0.17436217 -0.064557485 -0.0048779375 -0.30272865 0.43359357 -0.37791005 0.5818942 0.6177481 -0.17489123 -0.07680472 -0.35026693 0.627775 -0.57597464 1.3046625 0.10182424 -0.31259897 -0.45403144
642 0.098155364 0.50407684 -0.06020084 -0.26785043 -0.038172163 0.06813432 0.39705223 0.28214878 -0.78107876 0.48866788 0.8271008 0.2270797 0.18651329 -0.44801757 0.18810357 -0.31093892 1.001113 0.15200637 -0.45101082 -0.61512923
580 0.5103314 0.4487295 -0.21917063 -0.7073139 -0.27913418 1.1363765 -0.10100683 0.17947368 0.036058392 -0.12925245 0.984862 -0.3995469 0.8141428 -0.2190047 0.49743232 0.44788086 0.34971958 -0.27113158 -0.1994116 -1.0008184
769 -0.21401656 0.87460375 -0.5250088 -0.2302251 -0.7281087 0.2528355 0.8969474 -0.18173647 -0.57250834 0.24978487 0.692249 -0.44607127 0.024547618 -0.39964327 0.30740148 0.10807684 0.6579163 -0.54395694 -0.033686616 -0.5425308
180 0.26917583 -0.18596523 0.5189391 0.1566215 -0.030645752 -0.7380782 -0.038589194 0.3464386 0.18085188 0.4086304 0.78069985 -0.6339857 0.4747491 0.749982 0.07405764 0.31411406 0.19379358 -0.70023936 0.26711133 -0.93322986
771 -0.20422748 0.87752926 -0.52986217 -0.20523474 -0.74254745 0.22784212 0.87877023 -0.1857515 -0.5943464 0.06525578 0.67831814 -0.45309615 -0.01550731 -0.44279593 0.31930965 0.12698263 0.6921806 -0.77754325 -0.04305949 -0.52320033
222 -0.05195991 -0.84140575 0.16587706 0.3183093 -0.46751156 -0.38478878 0.29351917 0.46751842 0.6572646 0.3553795 0.86315256 -0.27728584 0.19242123 0.56277704 0.10190651 0.6901841 0.96651524 -0.18776037 0.21329543 -0.47264656
152 0.036891315 0.35876387 0.29073784 0.30976507 0.4456177 -0.65370697 0.01947063 0.72258866 -0.060860667 0.5824296 0.4604078 -0.71593064 0.35382804 0.7133353 0.048703436 1.0611237 0.41620427 -0.07375036 0.09588305 -0.54439646
594 0.5318036 0.50807095 -0.12280509 -0.45501062 -0.33607328 0.96588314 -0.09810524 -0.0721734 -0.2682953 -0.2510775 0.6676314 -0.5431497 0.51817137 -0.15324862 0.51484543 0.7015217 0.54085463 -0.14462742 -0.46814924 -1.1261578
161 0.18957928 0.2963549 0.35627338 0.2232507 0.24031894 -0.87066895 0.09225047 0.45208332 -0.09209137 0.55435675 0.61391133 -0.68904954 0.428738 0.7761469 0.029394552 0.81985384 0.48766932 -0.28359583 0.4027455 -0.52965486
178 0.25530377 -0.09241372 0.4786279 0.19181837 0.040331062 -0.81591856 -0.016257798 0.40035152 0.13783514 0.46174604 0.8144872 -0.5275708 0.42237872 0.7688136 0.041503698 0.3614659 0.13757269 -0.6963279 0.3655891 -0.89464295
755 -0.34370217 0.8284946 0.1017751 -0.1521264 -0.5310154 -0.0049661775 0.60744745 0.43918782 -0.8493161 0.41867644 0.4920795 0.06907266 0.24860808 -0.024151819 -0.017418783 -0.39234692 0.8274415 -0.6632149 -0.8433928 -0.26277003
764 -0.12649764 0.5865713 -0.13989872 -0.2951072 -0.6000725 -0.06342813 0.5041627 0.20921639 -0.91277456 0.27620178 0.83265626 -0.044662107 0.060054675 -0.08271263 -0.026796283 -0.44011506 0.8456482 -0.44744775 -0.6749258 -0.2461867
772 -0.21720113 0.8784055 -0.5642569 -0.35981753 -0.8321159 0.21788462 0.9041589 -0.28804865 -0.67364705 0.076655634 0.6465245 -0.5103287 0.02209392 -0.37620234 0.40060356 0.1536636 0.68046093 -0.77232254 -0.013716648 -0.4675694
166 0.17779782 0.19810723 0.34710887 0.11256471 0.19874288 -0.9256498 -0.008679731 0.38105756 -0.06540125 0.3532108 0.6642889 -0.7316738 0.5079499 0.7099869 -0.16168831 0.6402759 0.46498734 -0.38390556 0.45073152 -0.78514427
179 0.34493956 -0.2164451 0.44505456 0.20867677 0.025089622 -0.8432171 0.0024122791 0.4255214 0.13778877 0.29951286 0.8508789 -0.49082026 0.49225125 0.7073551 -0.010452687 0.31049207 0.21897955 -0.6544811 0.37069768 -0.89790356
773 -0.21918815 0.9187447 -0.54702973 -0.2812779 -0.76950645 0.21334128 0.85770345 -0.1847088 -0.7004531 0.047921844 0.6675909 -0.52354527 -0.032902792 -0.41041252 0.45080435 0.19518362 0.66836625 -0.7333918 0.007267627 -0.45408213
289 0.49129444 0.50832325 -0.71969646 0.064189404 -0.8250065 -0.64747596 -0.19607405 0.35917005 0.31309304 -0.023593688 0.3397961 1.2789272 0.38327053 0.11441144 0.18482663 0.4728117 0.14191982 -0.2531975 -0.30193877 -0.67509687
168 0.19832437 0.14298469 0.35366514 0.13292772 0.20849614 -1.0166513 0.060365364 0.43193772 0.0031432186 0.46797764 0.6754619 -0.6111993 0.49491394 0.6606467 -0.0846156 0.56718224 0.39297667 -0.44209886 0.5156319 -0.7894398
164 0.13581756 0.2644944 0.35715595 0.0875732 0.24840164 -0.923011 0.017600862 0.36928758 -0.07022837 0.48028523 0.591468 -0.6035792 0.45772287 0.7811929 -0.12302582 0.8119551 0.4883238 -0.33524767 0.42883134 -0.6492731
221 -0.03500988 -0.8758199 0.21901816 0.33319747 -0.5340955 -0.450188 0.31495 0.45687982 0.52086335 0.34714293 0.89092 -0.32104307 0.16618851 0.49937487 0.0050398908 0.7248058 0.9484301 -0.28759548 0.24552864 -0.50910866
639 0.025755102 0.5443906 -0.012199519 -0.30904466 -0.05679261 0.104148604 0.46931678 0.15844864 -0.8237181 0.4797933 0.9244457 0.14613312 0.21212564 -0.37898785 0.114122614 -0.34413248 0.95649093 0.11055726 -0.5134892 -0.75777113
670 0.41408882 0.4804846 0.039401032 -0.36955386 -0.09618902 -0.008410311 -0.17246148 0.5948128 -0.44340447 0.64358383 0.55920804 -0.15480891 -0.17685238 -0.4591924 0.61493146 -0.36031234 1.2833449 0.26447958 -0.37992406 -0.36256146
623 -0.027500948 0.7749776 -0.41088608 0.0002432118 0.02446828 0.555739 0.6119371 -0.305446 -0.5212048 0.21545191 0.58282346 -0.15280403 0.0659901 -0.43306237 0.6034636 0.33042145 0.88485205 -0.17292663 0.16070245 -1.1733389
671 0.38845828 0.48289827 0.08978178 -0.3171963 -0.02599765 -0.036867768 -0.068562634 0.5559536 -0.47562504 0.5574051 0.5180451 -0.15801968 -0.15429872 -0.52952904 0.64349455 -0.3307576 1.2490608 0.29998946 -0.30105993 -0.5353593
776 -0.19245838 0.90362006 -0.5114374 -0.2588582 -0.85296476 0.08230282 0.85683405 -0.21121745 -0.68234223 0.07657686 0.61569154 -0.45167336 0.15120836 -0.5245516 0.37983307 0.22342692 0.64984673 -0.69841665 -0.02018506 -0.43138766
643 0.13800243 0.4793618 -0.044448078 -0.27560586 -0.017708814 0.07999815 0.31402636 0.27147758 -0.76902777 0.49920744 0.93293035 0.23201555 0.09846811 -0.32402238 0.23554766 -0.4481991 1.0047896 0.12136441 -0.35812935 -0.63577884
674 0.33818 0.38851523 0.06425973 -0.36064088 -0.034969673 0.0082308445 -0.031972624 0.65127707 -0.46599165 0.5964123 0.51832736 -0.058046535 -0.24426259 -0.59305954 0.6468975 -0.26283002 1.1647748 0.33234316 -0.31813046 -0.56860954
582 0.53251773 0.48131105 -0.21731292 -0.769056 -0.29908887 1.0586455 -0.14368194 0.0659992 -0.028406817 -0.15864195 0.9787783 -0.3483805 0.9118913 -0.17219664 0.4248368 0.3707311 0.33220568 -0.32277915 -0.3168241 -1.0126712
184 0.32700443 -0.3068476 0.59290886 0.31931028 -0.15855736 -0.7816564 -0.07875933 0.40370792 0.12338769 0.36183372 0.81791383 -0.46092573 0.3714013 0.8032143 0.10601038 0.29146445 0.26946697 -0.7310675 0.19119927 -0.7844931
173 0.18096219 0.015666496 0.44533867 0.07112068 0.08755399 -0.9998576 0.015928902 0.4457809 0.07969648 0.5209791 0.62880105 -0.5270852 0.45338124 0.6786379 -0.03283379 0.4364731 0.2552855 -0.53184503 0.50820357 -0.8577964
640 0.077465415 0.48788738 -0.08387691 -0.26477194 -0.07351341 0.090809956 0.45879027 0.12086326 -0.7458489 0.51618946 0.9097253 0.27652237 0.18974985 -0.40661865 0.1386967 -0.36381844 0.9938193 0.14775862 -0.4230336 -0.74811727
654 0.404481 0.42847145 -0.25257733 -0.20230025 -0.16962925 -0.11164969 -0.21886887 0.24669826 -0.40867242 0.7627535 0.6969243 -0.032168925 0.16002576 -0.2525132 0.34910187 -0.8249649 1.337635 -0.013388128 -0.31141165 -0.4452736
286 0.45551533 0.48543257 -0.8701117 0.009249915 -0.90078247 -0.6845707 -0.09350736 0.26699102 0.23519292 -0.0032369914 0.44609195 1.1910155 0.39129555 0.190486 0.21738914 0.43736482 0.07195365 -0.21161799 -0.32796663 -0.6143905
663 0.373753 0.4483856 -0.13550946 -0.29972044 -0.096888825 -0.0024111273 -0.22797129 0.46917158 -0.42928115 0.5668004 0.6235247 -0.0263348 -0.044822533 -0.39490002 0.58844274 -0.5594075 1.3522243 0.11221838 -0.33067447 -0.4088126
287 0.47526535 0.4575736 -0.809339 0.11255677 -0.8726284 -0.68117326 -0.22231787 0.31232545 0.18582867 -7.056871e-05 0.39872766 1.1706204 0.30776235 0.14718199 0.22361359 0.50099814 0.068268284 -0.21996294 -0.36372584 -0.675633
294 0.4628894 0.7257193 -0.82348746 0.13697873 -0.78767043 -0.5863314 -0.21413146 0.3091922 0.28059664 -0.037753955 0.35816395 1.2164437 0.34617183 0.1352208 0.32244888 0.38871208 0.1272188 -0.47700235 -0.21317919 -0.59756935
578 0.5822487 0.40684742 -0.18249783 -0.724531 -0.3021762 1.124946 -0.06634372 0.1400346 -0.04844158 -0.10805039 0.9687167 -0.2649964 0.82961035 -0.19416986 0.49691114 0.39723736 0.3354464 -0.23915258 -0.27930793 -0.9433118
176 0.21444431 -0.07814413 0.46529502 0.13552327 0.09415336 -0.9571402 0.011490167 0.49109024 0.13326018 0.401504 0.73925495 -0.52435946 0.45350805 0.6940016 -0.03917328 0.36749145 0.23928264 -0.5851294 0.42694178 -0.90126455
656 0.3014065 0.38016295 -0.19635534 -0.2153041 -0.15433508 -0.14126222 -0.31310242 0.2857044 -0.3878598 0.71986204 0.64716905 -0.010502054 0.20026371 -0.27823523 0.43290454 -0.80169505 1.297388 -0.024747398 -0.30487695 -0.5215597
171 0.15561022 0.08984492 0.41762856 0.18377279 0.14971943 -0.9922124 0.075038835 0.33177933 0.087500125 0.46609727 0.63288766 -0.61400706 0.4366722 0.72847897 -0.015111348 0.45297015 0.41474584 -0.55312085 0.47274894 -0.8723748
669 0.35986757 0.49574748 0.0048815934 -0.28326005 -0.12844755 0.006748651 -0.16302629 0.5446552 -0.4297123 0.6267251 0.61644423 -0.23426719 -0.21152438 -0.40771264 0.6492921 -0.47091883 1.294388 0.1938688 -0.33341572 -0.4656825
292 0.42509478 0.54728556 -0.8561818 0.14810759 -0.85342157 -0.5696361 -0.18392886 0.37293306 0.26547182 -0.021079417 0.3756998 1.2586666 0.34434122 0.22136228 0.3172292 0.34737515 0.08941154 -0.38370162 -0.35176542 -0.6280155
647 0.23178525 0.24356833 0.023763908 -0.34979022 -0.071553305 0.103347175 0.27645403 0.26546308 -0.72528404 0.63577026 0.73165846 0.17414632 0.129355 -0.37524253 0.26768744 -0.4859116 1.0743284 0.10527379 -0.28236237 -0.686958
16 -0.29554737 -0.70693845 -0.08153655 -0.92933875 0.5413091 -0.7611261 0.22867778 0.058643807 -0.1450257 0.1580231 0.27966955 0.36389288 0.70589334 0.13644153 0.86710006 0.7451809 0.52890944 -0.89063704 -0.45662135 -0.27970484
237 -0.22240816 -0.62411046 0.22037852 -0.024281397 -0.6455099 -0.26117387 0.23189102 0.6814631 0.8419282 0.6063074 0.70628303 -0.43858024 0.48530695 0.29511365 0.13553675 0.6631938 0.77404183 -0.40014973 0.21438353 -0.16355444
588 0.49274448 0.48181993 -0.097241834 -0.54718095 -0.29368082 1.0066442 -0.15930164 0.07884821 -0.24336627 -0.20010206 0.7383359 -0.43368304 0.80516434 -0.075941205 0.4208773 0.63351834 0.3960547 -0.2252286 -0.39464647 -1.012782
219 -0.09980733 -0.82839674 0.23403521 0.3276735 -0.5396797 -0.44897723 0.33980122 0.40421063 0.5239246 0.21827975 0.8715159 -0.33806393 0.08280866 0.43706465 0.029012006 0.6872551 0.91232395 -0.37641108 0.22355133 -0.5588281
641 0.046578966 0.50272316 -0.05894012 -0.31764314 -0.025665708 0.035146337 0.40318835 0.18547915 -0.78070277 0.4778371 0.7692934 0.24886921 0.14748178 -0.34699753 0.20371735 -0.4070814 0.9939979 0.14296278 -0.46364835 -0.7457273
218 -0.23048775 -0.7819272 0.26561725 0.29752228 -0.52101326 -0.41838616 0.31950206 0.46716088 0.49580604 0.2289039 0.90098053 -0.3963637 0.036236968 0.49993685 0.10592596 0.6330599 0.87459385 -0.3675149 0.2246229 -0.5967936
257 0.6130326 0.5517406 -0.50841355 -0.49162373 -0.9889019 -0.9845934 0.3120519 0.6901128 -0.010718569 -0.062333144 -0.05928561 0.6449116 0.18759912 -0.20185556 0.46608874 0.8341204 -0.08860591 0.31348878 -0.09466574 -0.6586378
638 0.009710566 0.52991724 -0.11260484 -0.1946719 -0.04671019 0.13966753 0.39016467 0.11080792 -0.8519158 0.41479644 0.8714119 0.2203855 0.100404456 -0.32361004 0.12215249 -0.2734558 0.99025315 0.018701352 -0.39477527 -0.73663867
217 -0.102976896 -0.7890576 0.27586588 0.31153995 -0.58858746 -0.58423686 0.36794528 0.46185938 0.46808624 0.18849635 0.8534844 -0.3472731 0.017101131 0.3695201 -0.014810901 0.7740987 0.76994574 -0.40234926 0.1743439 -0.54510087
253 0.6226552 0.5594986 -0.58821267 -0.6170518 -0.89161396 -0.9490394 0.2703603 0.6586576 -0.14785278 -0.05638954 -0.0011266187 0.6733169 0.08545012 -0.27637756 0.45492905 0.9412182 -0.16193683 0.23802245 -0.017758213 -0.6825466
738 -0.579855 0.40953338 -0.678958 0.023157142 -0.20857042 -0.03348391 0.43822968 1.2922045 -0.33448943 -0.5919626 0.15036842 -0.13662907 0.3572197 0.13186 -0.30044365 -0.330026 0.9604589 -0.48300874 -0.7083237 -0.7224896
668 0.36986846 0.43242308 -0.030148556 -0.37613228 -0.03500251 -0.01485092 -0.21807706 0.55612224 -0.46605375 0.65174025 0.60261655 -0.21766868 -0.10631885 -0.40920433 0.54616696 -0.40344095 1.2928101 0.21444573 -0.34605688 -0.40300238
660 0.35881335 0.35233924 -0.17770143 -0.23836069 -0.06256544 -0.1254267 -0.24831583 0.34708536 -0.3624399 0.714371 0.59150773 -0.14427255 0.064257495 -0.32475686 0.478212 -0.71195024 1.3322217 0.032842334 -0.28642467 -0.46738368
737 -0.6567529 0.39366117 -0.6233407 -0.104897186 -0.21612635 -0.087236166 0.4674723 1.3391951 -0.2795653 -0.62488097 0.15415627 -0.14134303 0.3754595 0.037407633 -0.32981998 -0.3174172 1.0185498 -0.494083 -0.62214184 -0.7182478
158 0.16275613 0.3918883 0.32505202 0.22969273 0.3599517 -0.83804834 0.025005387 0.51358956 -0.07869052 0.47935882 0.5961313 -0.74580204 0.4831404 0.7734412 -0.05247361 0.8633574 0.49758464 -0.29035595 0.240633 -0.49336216
240 -0.28047055 -0.5003966 0.22016674 0.05791423 -0.6767682 -0.24565959 0.30810606 0.7734285 0.7500357 0.43542534 0.8298458 -0.45821893 0.52296484 0.2521864 0.16185722 0.75832826 0.7659811 -0.40275902 0.3065143 -0.10515408
17 -0.33604106 -0.66410077 -0.044508662 -0.9377622 0.5611291 -0.70203954 0.24171813 0.04359264 -0.12495456 0.23054272 0.3235348 0.29765382 0.7485971 0.11861526 0.83188784 0.7294589 0.56218845 -0.96830595 -0.47855785 -0.21016112
717 -0.1335358 0.35315108 -0.21699531 -0.26817453 -0.09281207 -0.27773643 0.53550833 1.3536651 -0.5360246 -1.0658383 0.10667276 -0.23736404 0.36011204 0.009174577 0.060644493 -0.4255341 0.763225 -0.6078159 -0.31082073 -0.7113082
285 0.49573353 0.5179351 -0.7873801 0.03442635 -0.832767 -0.6995913 -0.14777045 0.27038607 0.25792173 -0.017374575 0.35526538 1.1204453 0.3279661 0.21669719 0.3137086 0.44805825 0.033564236 -0.15317951 -0.367756 -0.70772797
662 0.39424816 0.43571022 -0.15460922 -0.25603163 -0.062171593 -0.0284716 -0.22184391 0.42575645 -0.4142252 0.70101154 0.5744424 -0.1119559 0.027881691 -0.3363246 0.5737753 -0.6010476 1.3085452 0.14279765 -0.28686273 -0.4571182
199 0.3198343 -0.6608541 0.81145346 0.1924155 -0.3434561 -0.755931 0.34292245 0.41435 0.28284502 0.1823454 0.7030168 -0.40147126 0.2383111 0.57279104 0.21893352 0.3988185 0.59821326 -0.1673833 0.0845262 -0.7972283
19 -0.21176018 -0.64512855 -0.011740832 -1.0025463 0.62100667 -0.68554634 0.1604427 0.14430803 -0.0463839 0.26862916 0.24759781 0.22594689 0.6476772 0.14909303 0.9176426 0.7598413 0.5243904 -1.0145379 -0.49854228 -0.14552318
169 0.2188576 0.20497638 0.38945213 0.10032927 0.061888363 -1.0409751 -0.016540686 0.31677395 -0.011800331 0.4587203 0.7237636 -0.70808506 0.47522628 0.62981224 -0.0788477 0.54712266 0.37165153 -0.50307304 0.49565104 -0.7552039
733 -0.5255006 0.44519588 -0.6521454 -0.15621002 -0.24941722 -0.10409037 0.3608114 1.329119 -0.34853938 -0.73683965 0.16897511 -0.046698306 0.35826468 0.06997863 -0.30181953 -0.3853155 0.9472971 -0.6353787 -0.43100598 -0.7174532
264 0.6887752 0.39148715 -0.74288523 -0.548322 -0.95927477 -0.8044301 0.21786702 0.60569763 0.008852338 -0.09453432 0.12046999 0.7543287 0.5195351 -0.018804915 0.34981683 0.74967545 0.09417694 0.47703725 -0.33608812 -0.42672178
731 -0.48666513 0.40328825 -0.61747116 -0.2091777 -0.2624969 -0.046272144 0.34581122 1.3731062 -0.25831306 -0.8052327 0.2632485 -0.093866855 0.39100152 0.023891902 -0.26558527 -0.45351392 0.9257613 -0.7213533 -0.41618764 -0.7196813
765 -0.16559039 0.58099395 -0.10266159 -0.21305577 -0.63520133 0.036458123 0.5513087 0.18819787 -0.9509535 0.33476794 0.81600964 -0.028751338 -0.041707024 -0.10037693 0.0014945326 -0.3647638 0.91084087 -0.48704115 -0.7015694 -0.25108662
172 0.18931521 0.12554248 0.45887035 0.12408215 0.10131557 -1.025556 0.017218217 0.3959629 0.0823268 0.47441822 0.6894706 -0.53481317 0.5176344 0.685099 -0.12956984 0.45557526 0.38910565 -0.50619364 0.4517855 -0.7917916
716 -0.17195748 0.37950534 -0.27683383 -0.2734478 -0.13161519 -0.2977293 0.4793631 1.2888297 -0.60810673 -1.1074567 0.08906511 -0.18345523 0.28516722 0.059918925 0.06286884 -0.4385276 0.72775865 -0.63084245 -0.3164784 -0.79713285
163 0.21110462 0.2602835 0.3975733 0.13134703 0.25830546 -0.9046824 0.056235325 0.4193608 -0.08908798 0.5316157 0.6683452 -0.6960555 0.5178125 0.8037274 -0.08918229 0.7469131 0.48267102 -0.3077454 0.41228008 -0.63712573
766 -0.14576896 0.75940216 -0.18709081 -0.31981817 -0.6219245 -0.105455205 0.5725386 0.13302933 -0.9323732 0.3002834 0.7795219 0.022770615 0.0075822393 -0.18962304 -0.058021914 -0.38742062 0.97931147 -0.4636049 -0.5767901 -0.27764466
37 0.058226537 -0.44912818 -0.1189863 -0.7041641 0.54268 -0.83806616 0.35272193 -0.0006747362 0.16776392 0.043787397 0.06082223 -0.21770352 0.30367544 0.34317902 1.2967496 0.5716775 0.54705083 -0.6926011 -0.74167717 -0.16190836
265 0.61804724 0.3139132 -0.74300593 -0.49058983 -0.9772961 -0.8671777 0.10605211 0.6267378 0.10255684 -0.07415998 0.09382891 0.7409005 0.48481813 0.02079922 0.4004521 0.66792333 0.12480561 0.43891996 -0.2650122 -0.4637218
170 0.26399034 0.060106795 0.27777544 0.11181782 0.18830982 -0.94425035 -0.06904534 0.39644343 0.07883412 0.47615147 0.6731511 -0.6496532 0.4312342 0.73056686 -0.030085482 0.4698307 0.347025 -0.47987893 0.553999 -0.8706348
255 0.47278708 0.44803354 -0.60722417 -0.5142461 -0.88557065 -0.9708933 0.24935131 0.7194034 -0.097583905 -0.11055617 -0.092653885 0.67066616 0.19278367 -0.17820445 0.4447453 0.9239304 -0.14381666 0.23250939 -0.14215173 -0.71237195
18 -0.24698143 -0.6217352 -0.03187385 -1.0013516 0.56604946 -0.74617636 0.1974743 0.024854235 -0.06830959 0.28617585 0.2770929 0.30833694 0.7220772 0.1475182 0.8411599 0.7856738 0.6058898 -0.9214524 -0.53265727 -0.13406862
206 0.085835345 -0.6641564 0.6171877 0.2544763 -0.4034148 -0.7835222 0.5918739 0.50198084 0.49676046 0.17227654 0.62535655 -0.4555382 0.088700525 0.47126004 0.2638002 0.57411855 0.52534276 -0.3008715 0.043851066 -0.73298436
174 0.3245263 0.008878917 0.3995112 0.14488176 0.04272579 -0.97971165 0.012313042 0.3730535 0.0384093 0.5061369 0.6578153 -0.5867999 0.38249123 0.7813575 0.02725708 0.41720867 0.21269819 -0.56368995 0.48794618 -0.8846444
239 -0.22952998 -0.5900912 0.22720672 -0.030468056 -0.6672955 -0.22735463 0.2160491 0.713339 0.7629238 0.4916207 0.84751326 -0.4283358 0.5140601 0.32610026 0.20443411 0.75222033 0.7618956 -0.37652546 0.24898295 -0.04966097
284 0.4546369 0.4578564 -0.730929 0.0131826205 -0.84178454 -0.7537378 -0.1620644 0.27145687 0.17152257 -0.05879156 0.277632 1.1321663 0.3429931 0.14808767 0.31660783 0.4259763 0.04741826 -0.13730827 -0.41564205 -0.7686777
732 -0.5426645 0.32229087 -0.608803 -0.21299154 -0.22028229 -0.08710323 0.4136057 1.3617542 -0.30618772 -0.75411 0.18680732 -0.08813577 0.31798127 0.062378038 -0.35814562 -0.34905794 0.93760014 -0.6302523 -0.4145432 -0.69570136
263 0.69958097 0.3271565 -0.702201 -0.5063775 -1.0286735 -0.89938664 0.18759654 0.6899251 0.13704555 -0.02139366 0.10107196 0.7744636 0.30962986 -0.030871147 0.40965408 0.7360547 0.07771204 0.4930295 -0.26114625 -0.5133601
614 0.256917 0.4802932 -0.35324186 -0.092651665 -0.3198679 0.8662509 -0.045405515 -0.24206413 -0.081592865 -0.23270407 0.6357067 -0.5877165 0.3028472 -0.117606886 0.46569124 0.6443504 0.70592403 -0.027167095 -0.61274445 -1.3160831
637 -0.0932244 0.54702336 -0.093834914 -0.2833601 -0.07611255 0.13548672 0.53022164 0.09974835 -0.8195006 0.4208803 0.78297895 0.1563165 0.073354974 -0.30583373 0.23095411 -0.29656208 0.9096721 -0.009722711 -0.4790274 -0.74029636
254 0.5376262 0.5383717 -0.6808805 -0.6143008 -0.87157494 -0.9714926 0.27512518 0.7290231 -0.09972539 -0.09162191 0.039393466 0.7076085 0.15599619 -0.21191715 0.43673736 0.9282773 -0.18521331 0.23690982 -0.018136267 -0.65151393
715 -0.056003213 0.46169552 -0.23723677 -0.27422926 -0.08979965 -0.26326793 0.5132001 1.3870653 -0.627223 -1.0579898 0.040699396 -0.15783648 0.3108749 0.036140967 0.061546925 -0.41781074 0.6981127 -0.57061493 -0.292436 -0.73607004
22 -0.1822132 -0.71236515 -0.008606449 -0.85607374 0.44480562 -0.63867813 0.18636838 0.14744225 -0.108976446 0.30581823 0.26301932 0.16085859 0.51263255 0.18150027 0.98671967 0.6851913 0.3618165 -1.0270113 -0.76587576 -0.13042206
27 -0.038076963 -0.56013954 0.005341406 -0.7767856 0.43430182 -0.63490784 0.10674785 0.0463076 -0.09259126 0.12613927 0.25266403 -0.061222237 0.4082528 0.27639055 1.252329 0.7746821 0.5261216 -1.0398465 -0.7061899 0.012174045
30 0.008336184 -0.52272373 -0.10812909 -0.74611884 0.5489414 -0.7152388 0.20982143 0.102622226 -0.022964764 0.12125475 0.16378 -0.112997994 0.28081557 0.35905913 1.283828 0.627986 0.53683275 -0.9898375 -0.6123482 -0.039266247
718 -0.13548651 0.39661682 -0.23961647 -0.21930936 -0.16473894 -0.25577682 0.5472288 1.3657486 -0.5655462 -1.0612484 0.15059286 -0.24704438 0.35913256 -0.019934418 0.021431016 -0.42178035 0.81558424 -0.6113641 -0.2918022 -0.71962684
630 -0.045358844 0.66205156 -0.4035779 -0.17892493 -0.21924359 0.4072667 0.7847004 -0.26739568 -0.5006328 0.29990473 0.6497467 -0.1407121 0.008756167 -0.49852893 0.5694858 0.080826275 0.8875948 -0.12588966 0.19234397 -1.004052
20 -0.21415524 -0.7236025 -0.120996825 -0.8553967 0.5542138 -0.71847373 0.1705283 0.13602956 -0.10715554 0.23578325 0.28900886 0.17573039 0.6111826 0.13971007 0.9608586 0.7252516 0.40103167 -1.006753 -0.58134294 -0.23887879
734 -0.5285408 0.4666427 -0.67690426 -0.09439449 -0.19200936 0.015183767 0.29370072 1.4089488 -0.31127006 -0.67621076 0.23012264 -0.058824085 0.3385349 0.19710286 -0.2655122 -0.41960773 0.93930835 -0.55303395 -0.4964855 -0.6795794
238 -0.20034178 -0.66625094 0.19626531 -0.011144145 -0.653235 -0.23672038 0.24463537 0.80876935 0.8101797 0.53109074 0.7875861 -0.44718617 0.5003318 0.32784572 0.1467295 0.7444908 0.7149248 -0.39676452 0.1626744 -0.10101321
2 -0.19036539 -0.9571109 -0.2562057 -0.53457135 0.9649065 -0.4415099 0.08810965 0.20772733 -0.26863286 0.021790465 0.48736554 0.5678369 0.61524355 0.5806417 0.77504164 0.73653543 0.75629437 -0.79181266 -0.6341084 -0.36394
646 0.21615525 0.3557093 -0.040643226 -0.29019582 0.013571001 0.13275784 0.3258092 0.29525927 -0.74072886 0.6038098 0.83358437 0.19658883 0.05659203 -0.30241802 0.3076291 -0.54200184 0.99631935 0.06735102 -0.27725616 -0.66149974
185 0.48254508 -0.24996601 0.6340992 0.30157062 -0.17365848 -0.7580169 -0.08603445 0.41201282 0.14867043 0.33337536 0.90962535 -0.4774356 0.33458343 0.8029927 0.12275136 0.31757662 0.28151408 -0.6491958 0.26620528 -0.7449605
256 0.57218796 0.48392415 -0.5511261 -0.5245677 -0.86084974 -0.9871153 0.23713923 0.73385125 -0.109657556 -0.10648586 -0.15970008 0.63549125 0.29239145 -0.22524394 0.42345595 0.8736899 -0.08833142 0.2809368 -0.076089256 -0.7273188
26 -0.053997945 -0.5169529 0.032222595 -0.8117225 0.46891925 -0.5718675 0.16446564 -0.015851371 -0.10299149 0.21064359 0.16138987 -0.03706484 0.40479422 0.29747507 1.1120101 0.78177154 0.48117512 -1.0878674 -0.8292112 -0.04952488
730 -0.41965005 0.41474104 -0.5727334 -0.25326416 -0.1849542 -0.05130387 0.40575892 1.3684273 -0.37697104 -0.8514018 0.25208873 -0.09754355 0.34868187 0.06833718 -0.2439649 -0.50341725 0.8877248 -0.6567131 -0.4405772 -0.7256862
661 0.3267685 0.3749618 -0.12203432 -0.20923506 -0.06502998 -0.048394803 -0.25481114 0.37441075 -0.37911737 0.77134764 0.61693245 -0.13381656 0.060656786 -0.32618263 0.5461605 -0.64885974 1.3104981 0.055153135 -0.3600064 -0.49175838
186 0.4307499 -0.27753115 0.6943412 0.27232245 -0.21211606 -0.75073946 -0.094397165 0.3388692 0.22353424 0.29947644 0.8095052 -0.46970323 0.27309513 0.76625425 0.08383083 0.35949174 0.33435473 -0.73316336 0.2284979 -0.8002892
632 -0.025745805 0.6252759 -0.389709 -0.25958693 -0.2727004 0.32414222 0.77652407 -0.26829594 -0.59573317 0.24764201 0.71342784 -0.17521231 -0.041326478 -0.52606446 0.537996 0.07107785 0.8375003 -0.19794875 0.18324412 -0.9206014
266 0.6424449 0.42681706 -0.8295091 -0.5020247 -0.9490633 -0.92712617 0.04473011 0.55192137 -0.042713784 -0.025571788 0.1778381 0.73676264 0.45884988 0.059052244 0.4220164 0.6606725 0.17934224 0.523731 -0.26208922 -0.38124666
198 0.39028946 -0.5573762 0.74925 0.22133414 -0.39299977 -0.7737046 0.35430032 0.42342073 0.3253304 0.12757224 0.79518825 -0.39001286 0.31483695 0.50567204 0.13698547 0.4747464 0.48239976 -0.2699631 0.14456691 -0.7418391
6 -0.21602117 -0.95222044 -0.25777483 -0.60526216 0.8550118 -0.5585578 0.18058208 0.15525247 -0.25226882 -0.13560086 0.4489289 0.59847176 0.6148788 0.35411578 0.81127363 0.9256382 0.87005705 -0.728884 -0.56134665 -0.251588
216 -0.10748553 -0.77624834 0.37942743 0.27105287 -0.5773944 -0.672578 0.371515 0.491792 0.47190708 0.1689607 0.96296847 -0.354134 0.029333565 0.35791805 0.037373777 0.73545736 0.72401506 -0.3932536 0.17230384 -0.56150544
150 -0.014822473 0.3592621 0.2793568 0.30294237 0.48666078 -0.5660976 0.011180338 0.72409284 -0.0036963187 0.5958877 0.5105204 -0.6487073 0.37317577 0.6531 0.12377653 1.1033403 0.33057225 -0.17317903 0.04210714 -0.46174127
251 0.4847049 0.5135824 -0.5844566 -0.49943244 -0.85309476 -0.9888241 0.2858962 0.72379684 -0.026604611 -0.09372675 -0.07008851 0.64471114 0.114888035 -0.22464696 0.4822945 0.88046676 -0.13666321 0.2481244 -0.0012481258 -0.66742235
32 -0.02406544 -0.47374797 0.023896564 -0.6634395 0.5539538 -0.75240135 0.32880062 -0.0017095252 0.017067276 0.13852088 0.16467674 -0.059112795 0.3166344 0.3883089 1.3124633 0.57224756 0.58070904 -0.8621422 -0.7920592 -0.06497161
714 -0.10432552 0.35770032 -0.29347333 -0.33186123 -0.15347645 -0.2594681 0.4384978 1.3278837 -0.65608466 -1.0660315 0.109432474 -0.21027324 0.34757802 0.022768224 0.04584539 -0.42935258 0.7667597 -0.5599178 -0.33697686 -0.7339877
587 0.51698685 0.5377564 -0.18132243 -0.6310059 -0.33234584 1.1133124 -0.118534 0.048921496 -0.18308859 -0.17216066 0.8309468 -0.42594263 0.72014034 -0.1445214 0.3493793 0.6593251 0.5863649 -0.16590115 -0.39768013 -0.88938785
260 0.54456884 0.34285736 -0.6007673 -0.48030904 -0.9854421 -0.9147815 0.23115064 0.6792022 -0.017876405 0.008539261 0.08716443 0.7050662 0.30370006 -0.08986268 0.53100264 0.80560946 -0.038910136 0.49812457 -0.22904734 -0.56677055
719 -0.18210122 0.43065843 -0.27487624 -0.22092909 -0.14222728 -0.24246256 0.4527574 1.4450613 -0.49680263 -1.0578265 0.20806962 -0.24737722 0.37847075 -0.07635908 0.02848027 -0.38859385 0.84807134 -0.63982934 -0.33864287 -0.56966996
4 -0.15810841 -0.96746224 -0.20494126 -0.57005244 0.9247274 -0.4365923 0.084687 0.18349479 -0.23428525 0.0061169295 0.45036268 0.51197636 0.5919834 0.53516924 0.711233 0.8080039 0.840371 -0.85857475 -0.595882 -0.27809033
252 0.53133845 0.5156061 -0.57598364 -0.65616864 -0.7922507 -0.94045186 0.23882936 0.7717745 -0.121784665 -0.13558179 -0.036885522 0.6499529 0.13496087 -0.19903311 0.45421383 0.94678473 -0.19400778 0.25746238 -0.018159073 -0.68422335
645 0.1708733 0.33369198 -0.08407356 -0.32392028 0.0159522 0.1541151 0.31292146 0.29523307 -0.7655894 0.5743643 0.87106943 0.28954622 0.062192988 -0.30558544 0.2595361 -0.5142426 1.0999784 0.1400033 -0.32215172 -0.72876734
11 -0.24511324 -0.7657339 -0.08224504 -0.87080586 0.67195857 -0.6905596 0.18805304 0.019240314 -0.29019108 0.05542455 0.43842003 0.5409055 0.55369943 0.19775291 0.7363695 0.78058577 0.7102504 -0.83061695 -0.3778077 -0.20398343
31 0.0044061462 -0.43965676 0.07801303 -0.74322575 0.5630299 -0.7694186 0.2803707 -0.013944338 0.07021091 0.19047783 0.20416673 0.005764801 0.35483032 0.3150829 1.2587653 0.6746486 0.5865523 -0.9209975 -0.7358171 -0.0031116926
644 0.13273805 0.44636938 -0.031776983 -0.19638832 0.03393088 0.08400585 0.28649345 0.21246321 -0.7142219 0.5507648 0.86430603 0.31065026 0.1153418 -0.3357578 0.17262155 -0.42544544 1.0400878 0.067463525 -0.4106114 -0.6736405
667 0.35665298 0.5035804 -0.090329416 -0.32391837 -0.15892704 -0.015633982 -0.20494582 0.52797055 -0.43978652 0.6491903 0.5552669 -0.15257029 -0.18535975 -0.41522974 0.57138854 -0.42586827 1.3399048 0.22605586 -0.32369453 -0.3988466
3 -0.14364046 -1.0022656 -0.21592954 -0.5685616 0.9173219 -0.38949335 0.12292917 0.19994134 -0.31762245 -0.06986418 0.5254999 0.54433626 0.5750094 0.6237267 0.7136441 0.6983321 0.7475864 -0.8129315 -0.58022505 -0.32440078
768 -0.23438263 0.71104395 -0.2588207 -0.3603571 -0.61374307 0.12404319 0.64079756 -0.0023204247 -0.8071026 0.25682926 0.76879585 -0.15536684 -0.03644004 -0.34819484 0.09049825 -0.23339622 0.9529088 -0.5317444 -0.417421 -0.39501843
736 -0.5623328 0.4115112 -0.6786373 -0.15943582 -0.16245046 0.014092318 0.37978148 1.3739495 -0.37382737 -0.63819027 0.16086122 -0.03364081 0.36105505 0.031005468 -0.2992235 -0.3591493 0.9939292 -0.48953483 -0.5825489 -0.7962102
34 0.04235232 -0.45017657 -0.051089138 -0.79846 0.56718403 -0.7251108 0.38957 0.01496881 0.087031 0.07951401 0.15275984 -0.10905635 0.27282223 0.39742714 1.2716365 0.5756263 0.6071968 -0.8455307 -0.64349633 -0.024071041
38 -0.006450682 -0.5281895 -0.2146556 -0.77949303 0.5077029 -0.8616096 0.37137094 0.08658647 0.2624186 0.087646246 0.04418903 -0.28159752 0.2181536 0.4000779 1.3217509 0.4856004 0.6167951 -0.72291034 -0.67859864 -0.14322641
631 0.027535584 0.72826654 -0.44329426 -0.16446017 -0.1631234 0.37014675 0.78570676 -0.24980237 -0.50517386 0.25992867 0.65330946 -0.1753249 0.005229401 -0.50456953 0.4826179 0.09640827 0.8378989 -0.17811617 0.17860524 -0.97727925
288 0.46566546 0.52520734 -0.6976963 0.13943765 -0.8992254 -0.6344118 -0.20576072 0.3244737 0.22471751 0.024539562 0.4789845 1.1966691 0.35211352 0.22896264 0.35366994 0.46402666 0.024346968 -0.16021638 -0.28630462 -0.6893126
15 -0.21891287 -0.7741733 -0.16133343 -0.9103838 0.6728031 -0.7287216 0.3038893 0.14158235 -0.19697222 0.2201804 0.34049514 0.36426938 0.7299673 0.11475888 0.82707155 0.72308105 0.5205603 -0.8625022 -0.47345328 -0.2773476
23 -0.16635025 -0.5483598 -0.049117554 -0.90010697 0.45875427 -0.65115154 0.13716197 0.11007546 -0.14739028 0.18069242 0.20885718 0.11021768 0.47387463 0.2248212 0.96844757 0.8017033 0.3942855 -1.076282 -0.6641829 -0.09583254
267 0.66020143 0.43527365 -0.6755894 -0.4229919 -0.93043655 -0.96194196 0.0017264036 0.49181074 0.049001623 -0.06620229 0.1491941 0.7304699 0.511973 0.062082 0.33067828 0.63978916 0.14272147 0.5091284 -0.3870011 -0.4889572
9 -0.19954151 -0.86621946 -0.19372888 -0.7844188 0.6911304 -0.68925613 0.24037719 0.013755853 -0.3346439 -0.11125875 0.47124124 0.50149363 0.604467 0.18779074 0.7393149 0.8798224 0.7896845 -0.72488433 -0.51377076 -0.24895781
261 0.63321346 0.28037044 -0.66949505 -0.5401154 -1.0503665 -0.86374944 0.22709407 0.60056055 0.14070101 -0.0878751 0.0035700887 0.6706697 0.33641922 -0.14858559 0.4080739 0.81553245 0.06914642 0.4763438 -0.21210669 -0.61070156
735 -0.5756461 0.4769433 -0.71687406 -0.14509118 -0.16096957 -0.07606153 0.34293094 1.4043858 -0.35968962 -0.6474761 0.1296408 -0.09278535 0.33679336 0.20742065 -0.3362071 -0.33077613 0.9588453 -0.5477647 -0.5416682 -0.6412881
5 -0.17878449 -0.9932168 -0.23609254 -0.5828892 0.8452327 -0.54436314 0.20001996 0.21544002 -0.259012 -0.13142207 0.5255605 0.4874594 0.5454829 0.4174151 0.7402709 0.817777 0.8142698 -0.72370017 -0.6455253 -0.2238321
44 0.0033941618 -0.336511 -0.29564717 -0.61207616 0.62546885 -0.92077625 0.3968521 -0.080051586 0.39518338 0.11284944 -0.032055438 -0.31477442 0.24375613 0.4406898 1.2035601 0.3828519 0.7478426 -0.73669046 -0.64394665 -0.23967531
197 0.37459227 -0.603875 0.6969025 0.21894228 -0.3567586 -0.76741576 0.29286918 0.46181267 0.32955402 0.08581719 0.75332874 -0.4800363 0.31392592 0.56440395 0.10779064 0.32888094 0.47393817 -0.31129032 0.046846513 -0.78643215
302 0.5216249 0.86849934 -0.8729603 0.35224375 -0.69956166 -0.34332588 -0.1901705 0.5006594 0.3876049 0.116070665 0.108810134 1.0263795 0.37293997 0.28427193 0.659471 0.37663323 0.13598219 -0.50644505 -0.12695669 -0.48288912
296 0.47410724 0.6430261 -0.87209684 0.20758541 -0.84940684 -0.47363988 -0.18134843 0.37284657 0.39442477 -0.05672586 0.29193762 1.1631843 0.39096943 0.21080391 0.46389067 0.42875376 0.12428803 -0.40314668 -0.19310503 -0.6409221
33 0.059271835 -0.5410323 -0.062453184 -0.67979556 0.47896037 -0.7041234 0.29001006 0.05323906 0.12069446 0.085108206 0.1428817 -0.08106334 0.24865068 0.4343487 1.260846 0.6221436 0.6129317 -0.84202945 -0.7458972 0.012347569
295 0.47464126 0.6832439 -0.8057425 0.17884035 -0.8111191 -0.59112227 -0.20632876 0.29549286 0.35839263 -0.0037529012 0.31637636 1.1707678 0.31797507 0.1665792 0.38045508 0.4469307 0.11227961 -0.4320939 -0.20717666 -0.62742245
7 -0.16958037 -0.88374555 -0.219386 -0.61924887 0.81385916 -0.5490304 0.21451162 0.041211452 -0.30398992 -0.09428264 0.47848114 0.5568153 0.59603053 0.33995923 0.78010756 0.9112066 0.7537301 -0.6900806 -0.5384653 -0.2989375
615 0.21129407 0.49793002 -0.43249637 -0.13203897 -0.2636101 0.8840056 0.015715415 -0.29010445 -0.07639357 -0.22820018 0.622457 -0.54727185 0.29630795 -0.21783257 0.41292915 0.70743656 0.82146573 -0.057908952 -0.53577113 -1.311603
193 0.36608195 -0.44941008 0.8139374 0.16340674 -0.41641966 -0.8267143 0.15309742 0.4272419 0.26953587 0.25975224 0.8054726 -0.5054834 0.19245331 0.7208362 0.18283121 0.31990167 0.39410207 -0.43747813 0.11963931 -0.74084634
636 -0.12747714 0.57304096 -0.033992924 -0.3879856 -0.14970945 0.1268054 0.48949763 0.09014901 -0.81072104 0.45406657 0.8151483 0.1947622 0.1994614 -0.32251945 0.14421007 -0.37361714 0.96949726 -0.01808293 -0.39010373 -0.77694464
271 0.72418267 0.5327589 -0.6805842 -0.39167494 -0.87407947 -0.9248816 -0.021637583 0.42561752 0.0026819343 -0.10025895 0.17377293 0.834586 0.4610166 0.15780276 0.42833966 0.5716333 0.083070226 0.40233913 -0.40719602 -0.5581671
262 0.7305656 0.47526115 -0.65546435 -0.51267993 -0.9663832 -0.8459372 0.21442384 0.63379407 0.09153972 -0.07562169 0.09891778 0.71979666 0.37576988 -0.15608014 0.45907137 0.7471433 0.08102706 0.50857055 -0.21257415 -0.5083639
10 -0.16638836 -0.77734655 -0.104129165 -0.8070113 0.66718644 -0.72502655 0.18311557 0.063046366 -0.3403878 -0.07507031 0.4033042 0.5747228 0.5906047 0.19555706 0.77950394 0.8354361 0.7356524 -0.79003537 -0.3325052 -0.19511278
43 -0.03055922 -0.39701456 -0.3271191 -0.69663984 0.5687328 -0.93341684 0.44519177 -0.089326106 0.30088326 0.09504889 0.012727596 -0.32083216 0.3215971 0.4526029 1.1719081 0.35528162 0.6836388 -0.6519053 -0.6505114 -0.24002571
270 0.7147817 0.39180738 -0.7226823 -0.39159948 -0.8885338 -0.88016564 -0.09155533 0.516198 0.06461117 -0.041710127 0.21615963 0.8465489 0.56223047 0.1717436 0.421151 0.5842012 0.12693274 0.4825135 -0.39683205 -0.48342526
712 -0.020441512 0.009335098 0.1024059 -0.241728 0.05238612 -0.040667173 -0.60658765 1.0111775 -0.3874482 0.66953915 0.68979204 0.3181804 -0.93730074 -0.7532654 0.25714114 0.1232967 0.99937594 -0.57283396 -0.59023327 -0.5624312
595 0.5073675 0.53033787 -0.26186556 -0.4116706 -0.32480156 0.9588068 -0.1291675 -0.033211205 -0.30915245 -0.2807669 0.57044566 -0.613903 0.49695006 -0.06489866 0.5048827 0.62266076 0.5937713 -0.07955811 -0.49367455 -1.2026776
21 -0.24494341 -0.6364075 0.043136112 -0.96025926 0.4986329 -0.6446803 0.13531901 0.097380966 -0.062013734 0.26899534 0.2593545 0.16307634 0.60983807 0.29413494 1.0506055 0.7177656 0.40125722 -1.0474615 -0.6443906 -0.21313098
650 0.22026925 0.3226699 -0.12828064 -0.3344935 -0.21342683 -0.019419812 0.0026696357 0.3028598 -0.65001214 0.71983546 0.7316098 0.2235998 0.26035836 -0.30584612 0.16784532 -0.7619659 1.2435046 -0.11300767 -0.3759708 -0.49878484
192 0.4476259 -0.38573468 0.8996307 0.1650602 -0.36233994 -0.789753 0.010351295 0.36458358 0.3605595 0.20040901 0.815955 -0.45228922 0.2405659 0.71659565 0.14194785 0.3748428 0.40486068 -0.54511386 0.0599871 -0.6822176
36 -0.036411773 -0.5044654 -0.14432062 -0.70750934 0.51694554 -0.81794083 0.42108336 0.09023903 0.11170285 0.07757771 0.054462235 -0.16946597 0.21317036 0.39842278 1.3301078 0.52745044 0.6039666 -0.72636414 -0.63163877 -0.12113679
724 -0.21454233 0.44094384 -0.39776194 -0.31100476 -0.15884219 -0.17874052 0.4566119 1.3735411 -0.35020414 -0.9280206 0.22761002 -0.1805255 0.4100974 0.084113955 -0.17002724 -0.52985567 0.8228578 -0.53398794 -0.33868933 -0.7023133
659 0.35744953 0.31397438 -0.1057068 -0.26769218 -0.2234502 -0.1385193 -0.34871414 0.3254875 -0.37231165 0.7486211 0.5732358 -0.075024545 0.1881652 -0.3831841 0.43821928 -0.72376597 1.3622142 -0.078607135 -0.31387064 -0.39411533
28 -0.037066985 -0.4355215 0.03125862 -0.7694169 0.49512374 -0.63759756 0.18337917 -0.009151118 -0.12286582 0.22050294 0.26664832 -0.065213434 0.30312446 0.2766204 1.2500248 0.6939284 0.42192355 -1.047239 -0.6878391 -0.03214211
303 0.5233813 0.79951763 -0.7798448 0.34352702 -0.7387707 -0.27030715 -0.2659417 0.54485476 0.42898348 0.06385763 0.12991026 1.0480797 0.4057661 0.22152573 0.73046875 0.38464022 0.2343739 -0.4659198 0.0021812604 -0.42956734
245 -0.1444303 -0.44760844 0.06806951 0.03358874 -0.36350426 -0.25632983 0.31073484 0.9874802 0.26489866 0.38818467 0.77550966 -0.63678503 0.3677757 0.44861874 0.5815343 0.9085979 0.7174662 -0.37104434 0.75950754 0.19436207
274 0.7160476 0.4670192 -0.7058703 -0.31662846 -0.8001365 -0.9928464 -0.17200395 0.4495299 -0.050401345 -0.017195778 0.19923133 0.89497834 0.427147 0.11250257 0.26216206 0.5677389 0.04605199 0.25757012 -0.40389407 -0.620865
651 0.1826404 0.30481878 -0.060484182 -0.33352372 -0.18851247 -0.11275377 -0.04078775 0.29002526 -0.63158935 0.7156843 0.79879427 0.28312373 0.22599852 -0.24371734 0.20267771 -0.7917642 1.1912268 -0.08901233 -0.35084087 -0.46282762
25 -0.04564461 -0.5446304 0.05269561 -0.8471274 0.5089362 -0.66406643 0.13885382 0.01654225 0.011245228 0.2290057 0.22836713 0.1048864 0.46260703 0.24517709 1.0946205 0.7938039 0.4845241 -1.1297927 -0.6741777 -0.04972462
739 -0.6801243 0.43871415 -0.60794437 0.028866705 -0.2601996 -0.011629345 0.33355403 1.311467 -0.40357047 -0.5491752 0.19630921 -0.12345767 0.35070413 0.14665215 -0.3423978 -0.25418845 0.9710938 -0.54036677 -0.6628249 -0.7132155
627 0.00970911 0.7911114 -0.34400982 -0.024870194 -0.12352644 0.4036267 0.6621075 -0.28100875 -0.5625873 0.23308255 0.61922944 -0.15158159 0.13549672 -0.5439978 0.617833 0.2197024 0.89212435 -0.19429861 0.18809497 -1.1107682
54 -0.032433465 -0.27242362 -0.5957274 -0.49266586 0.78998995 -0.9119431 0.2760498 -0.08949282 0.63547665 -0.038648553 0.1957574 -0.3231475 0.018821172 0.45414078 0.93527955 0.28975198 0.7830706 -0.831795 -0.50290036 -0.362174
268 0.7324633 0.37058738 -0.5803784 -0.42133301 -0.87390256 -0.9804726 0.0061709634 0.57151484 0.083577596 -0.04498889 0.14021315 0.86023575 0.58504754 0.03934452 0.3159648 0.6052877 0.10232357 0.4742913 -0.3179291 -0.54162514
767 -0.23437877 0.6525332 -0.26216322 -0.40431947 -0.53915614 -0.017952288 0.55076087 0.21085164 -0.9445455 0.34405008 0.8165294 0.0013714234 -0.0102375075 -0.18021038 0.04371925 -0.39694586 0.90967166 -0.479902 -0.5169728 -0.24130473
723 -0.21394487 0.5554139 -0.3604235 -0.19731873 -0.1755535 -0.23195863 0.50550807 1.3976573 -0.39706737 -1.0077018 0.21827374 -0.19866209 0.4694524 0.07225374 -0.07376809 -0.43553317 0.79024076 -0.55557364 -0.38770533 -0.6204766
297 0.47394043 0.66989225 -0.88501996 0.2464943 -0.80186206 -0.5134628 -0.2739855 0.32474348 0.37959835 0.024593249 0.31783888 1.1768695 0.368751 0.25574175 0.49824765 0.42221868 0.17881204 -0.42814773 -0.18881164 -0.5528285
41 -0.050357617 -0.41997087 -0.28589404 -0.7907929 0.56545025 -0.93738717 0.43745482 -0.037537806 0.28582457 0.11860177 0.014603554 -0.24278675 0.28132072 0.5092683 1.1652246 0.41641036 0.71855915 -0.64518267 -0.65964603 -0.18059637
187 0.41300982 -0.21943372 0.6804938 0.29412478 -0.19019738 -0.83547443 -0.029779905 0.36560997 0.28334013 0.25432035 0.8324061 -0.45426077 0.22993752 0.74623466 0.04526918 0.32917312 0.3521182 -0.7221444 0.25713432 -0.786469
633 -0.031205527 0.6642135 -0.37573162 -0.39004314 -0.27398103 0.30009627 0.7543097 -0.2999082 -0.6100893 0.3373008 0.7614752 -0.25249544 -0.0929486 -0.5395089 0.34484375 0.13147426 0.86121815 -0.16905221 0.11466153 -0.9198363
635 -0.03844168 0.72496593 -0.3813492 -0.3128834 -0.31884634 0.21777317 0.6595679 -0.18540299 -0.629726 0.41867307 0.79100674 -0.14887245 -0.06593783 -0.524498 0.34214726 -0.0507606 0.8277593 -0.23657618 0.02695032 -0.75065064
42 -0.0149931805 -0.36910766 -0.2094115 -0.79547924 0.63857454 -0.8188779 0.4032309 -0.014434126 0.3133083 0.11724715 -0.0016110538 -0.29947028 0.25225657 0.52275217 1.2099253 0.40983978 0.70125866 -0.72005963 -0.696379 -0.20049106
24 -0.07199706 -0.6275055 -0.026519118 -0.812461 0.4210805 -0.61870563 0.09464032 0.04398085 -0.083732784 0.15168153 0.23863852 0.03252692 0.4868033 0.20851804 1.0691333 0.85766375 0.43667877 -1.1110301 -0.70568943 -0.09709913
275 0.6240302 0.54121464 -0.7008699 -0.33072844 -0.7170792 -0.98954684 -0.2503772 0.47417772 0.02635581 -0.004607242 0.19686419 0.922161 0.50306886 0.16608235 0.16112147 0.5433644 0.09704488 0.26350275 -0.35258025 -0.5947576
45 0.040322978 -0.30791655 -0.32335967 -0.6124586 0.6828839 -0.8756783 0.4501821 -0.16234894 0.37491876 0.1836506 0.007346504 -0.343851 0.24696864 0.4529991 1.1313894 0.40408146 0.787455 -0.7683933 -0.62739986 -0.18597947
1 -0.13261215 -0.9242542 -0.25251532 -0.5775355 0.9313368 -0.40212515 0.071087465 0.32778227 -0.4076901 -0.029486852 0.43763593 0.4805413 0.65801644 0.5968551 0.8100444 0.6630307 0.7691953 -0.71155727 -0.57202643 -0.1971865
12 -0.17308447 -0.75267047 -0.25880536 -0.92181325 0.6298308 -0.7938318 0.3347423 -0.040209927 -0.31804904 0.10359063 0.31198472 0.48125264 0.5991354 0.19177686 0.80552584 0.8106879 0.570383 -0.8644198 -0.30760354 -0.24906628
29 -0.0040120315 -0.48740554 0.047817692 -0.818181 0.5444402 -0.68645006 0.24497733 0.07263116 -0.031886734 0.1466592 0.21006292 -0.028890923 0.22887088 0.3610598 1.2492899 0.6364089 0.47244227 -1.0412772 -0.6940576 -0.052539233
727 -0.31364283 0.44537723 -0.4702637 -0.21733093 -0.118136175 -0.21530388 0.42498785 1.3813483 -0.45723984 -0.9034322 0.22310558 -0.09560411 0.4408476 0.048109718 -0.20731376 -0.4300019 0.85905653 -0.6999798 -0.3341128 -0.60268605
729 -0.3945645 0.39834672 -0.565178 -0.22578593 -0.1861901 0.010924023 0.32166904 1.3732622 -0.32857245 -0.8433475 0.21031351 -0.019525755 0.42088693 0.118889846 -0.19672236 -0.5457282 0.8738636 -0.75254834 -0.39294448 -0.7851379
194 0.3413563 -0.41272736 0.9093402 0.12932643 -0.39010203 -0.71315104 0.203765 0.44274604 0.32495353 0.14648917 0.77577245 -0.4906813 0.20031899 0.7438003 0.09489719 0.32422766 0.45277333 -0.49419233 0.097999215 -0.77702916
710 -0.016381336 0.060170487 0.11583197 -0.25751242 0.03811083 0.11003258 -0.6482989 1.0833756 -0.39315987 0.65414464 0.7908938 0.28186774 -0.86703676 -0.7640572 0.34155804 0.10681439 0.898924 -0.623168 -0.5430007 -0.6124839
720 -0.119832255 0.36673582 -0.3405176 -0.2505076 -0.17868415 -0.24267448 0.49762258 1.3430138 -0.5380513 -1.0856897 0.23763673 -0.23053645 0.3219099 0.01318294 -0.014270187 -0.42451546 0.77739596 -0.6049011 -0.3712051 -0.600518
35 0.043447006 -0.4906554 0.016426226 -0.76422304 0.62457424 -0.78187966 0.3735464 0.08550136 0.23178875 -0.040508237 0.1620574 -0.13417129 0.22490421 0.29682994 1.2626877 0.5433249 0.64872414 -0.8345442 -0.7540491 -0.10227616
625 -0.059917234 0.7253276 -0.4720909 0.08307408 -0.056380916 0.46123853 0.6762119 -0.28964636 -0.6006078 0.18060319 0.6574929 -0.21432273 0.03452159 -0.38355467 0.6594741 0.29078966 0.84846145 -0.12017255 0.1983899 -1.1725897
258 0.5877976 0.47920364 -0.6092466 -0.5416136 -0.97788167 -0.89945537 0.26471642 0.76327676 -0.06762573 -0.13625225 0.00696222 0.6681273 0.17572764 -0.20607537 0.43547684 0.8021839 -0.03552597 0.3852808 -0.12537748 -0.6038166
46 0.013340316 -0.28896832 -0.2415008 -0.6126079 0.66749614 -0.9664162 0.32068723 -0.10343405 0.42608166 0.12991713 0.03738102 -0.28989863 0.22057453 0.4401558 1.1437515 0.38967034 0.79580593 -0.6237072 -0.5823105 -0.22227065
649 0.21449342 0.26807514 -0.07412441 -0.33003104 -0.22732326 0.024299806 0.11594132 0.28364757 -0.6772909 0.61090297 0.7877506 0.27987882 0.18768585 -0.2828895 0.105356395 -0.79730576 1.267784 -0.13175732 -0.38773704 -0.55171764
704 0.0072241416 0.07882789 0.15167752 -0.44283465 -0.016838808 -0.055405885 -0.6778336 1.0992391 -0.4418241 0.6130598 0.6838114 0.21439172 -0.71003366 -0.8527858 0.27280712 0.004796675 0.8602536 -0.54498 -0.46844405 -0.7888125
613 0.23408645 0.5508357 -0.31277868 -0.17393903 -0.35436895 0.80546933 -0.005797639 -0.4105951 -0.0049689794 -0.2676889 0.527084 -0.49723884 0.3593856 -0.18557942 0.4665478 0.61077154 0.7502319 -0.15025564 -0.62941283 -1.4317975
39 -0.04641411 -0.41966906 -0.19833629 -0.69309086 0.54695386 -0.88414246 0.4059451 0.025618583 0.24136516 0.10549944 0.0883274 -0.22997174 0.18928474 0.4302723 1.3242127 0.51355034 0.67843205 -0.6597937 -0.64713985 -0.10626902
683 0.2627466 0.15078093 0.2049401 -0.41971534 -0.09899832 0.025709799 -0.019989174 0.89829946 -0.4190934 0.6566182 0.5081694 0.07620865 -0.55163085 -0.7733917 0.7412971 -0.35401452 0.85152686 -0.21118106 -0.3517072 -0.59605926
190 0.3735338 -0.2761219 0.8034983 0.23412558 -0.29663616 -0.7806774 0.066323936 0.41816834 0.30953068 0.22799735 0.881861 -0.49798605 0.27559584 0.7390976 0.12777932 0.29894122 0.3018034 -0.64582765 0.09526005 -0.6895577
726 -0.27539718 0.53914475 -0.4685318 -0.24061348 -0.16896899 -0.10615488 0.44623536 1.3957274 -0.31562674 -0.934442 0.21501707 -0.16650486 0.41452533 0.09549796 -0.21728982 -0.44260558 0.90434897 -0.580537 -0.31696066 -0.64377016
269 0.7058947 0.4890774 -0.726026 -0.45905957 -0.92923176 -0.93781203 -0.0135731865 0.44661978 0.018447109 -0.015062876 0.1392411 0.7581191 0.5914241 0.12652986 0.43018773 0.55997384 0.04452095 0.4026508 -0.40283906 -0.48595336
188 0.4849347 -0.32413054 0.6472322 0.35617176 -0.19796044 -0.8181979 0.009033219 0.36101618 0.26934144 0.14988843 0.8090771 -0.52303106 0.17021678 0.6760231 -0.014115387 0.37189633 0.40383542 -0.7994729 0.13814905 -0.7131111
145 -0.30169442 0.29033202 0.29835466 0.10362754 0.29152432 -0.45290092 0.27653855 0.6827812 0.52367127 0.6186105 0.76147324 -0.43376976 0.46730727 0.50540215 0.049767032 1.0246443 0.40048066 -0.15296055 0.053817734 -0.20632969
461 1.410065 -0.2671218 -1.0764571 0.47988328 -0.09822128 0.057618067 0.8607469 0.6548692 -0.11456611 0.31434897 0.067320295 0.2791112 0.32380664 0.13592337 0.100467324 0.22531907 0.097649485 -0.49762124 -0.71880597 -0.6243319
55 -0.062125836 -0.2763913 -0.5509117 -0.61370784 0.69266057 -0.9157161 0.30521315 -0.08018096 0.66454774 -0.062624685 0.28931335 -0.34290084 -0.037931792 0.36220518 0.9063779 0.30604282 0.7121096 -0.8426435 -0.48169178 -0.35000762
634 0.04806679 0.7372521 -0.42760438 -0.3126789 -0.3016564 0.26193658 0.6585121 -0.23451915 -0.6928696 0.2937265 0.7240902 -0.28042954 -0.033770204 -0.50958806 0.4513762 0.068554774 0.8266228 -0.19448635 0.12487582 -0.87834877
259 0.5910638 0.39286548 -0.7605846 -0.5742271 -0.9671192 -0.8966793 0.17914191 0.7559201 -0.001361554 -0.07875312 0.042395663 0.6802 0.1685318 -0.1924261 0.4077203 0.86698645 -0.037993394 0.39326477 -0.20888741 -0.5967541
53 -0.011500007 -0.24193037 -0.47862026 -0.5034527 0.6353931 -0.94772124 0.26829073 -0.05594098 0.6528731 -0.080086835 0.20435078 -0.30154532 0.10748534 0.43525648 0.9915863 0.19507648 0.6614156 -0.8730618 -0.5138237 -0.31572643
722 -0.2222314 0.4060852 -0.333184 -0.25340423 -0.20282711 -0.14154615 0.4891713 1.3690463 -0.39940667 -1.0174396 0.18346526 -0.25003165 0.35160023 0.08526094 -0.038417213 -0.4515602 0.8744752 -0.55923927 -0.3855946 -0.60494447
196 0.40966043 -0.5375049 0.8319409 0.14299344 -0.35178497 -0.79318637 0.26919645 0.48996598 0.38340396 0.1207855 0.83302355 -0.44523206 0.21191455 0.6943693 0.11623995 0.35870984 0.45200118 -0.35884002 0.120442644 -0.7354079
725 -0.2670951 0.48689705 -0.44802555 -0.21825384 -0.14042757 -0.2678739 0.4513235 1.3014388 -0.28981784 -1.0141588 0.27371183 -0.098446 0.40160587 0.052694727 -0.1715779 -0.49843824 0.90880257 -0.5996228 -0.31079546 -0.5929349
244 -0.14477272 -0.37804303 0.18641452 0.0042553744 -0.34177083 -0.20935576 0.34680608 1.0579199 0.2879023 0.35208583 0.65144175 -0.6623844 0.4350254 0.50771236 0.4992076 0.83442736 0.7896486 -0.4209422 0.69725317 0.22899109
40 0.0813086 -0.44984004 -0.22991955 -0.73889524 0.53589284 -0.8590723 0.44969448 -0.02759718 0.26787674 0.020381073 0.039907206 -0.3042452 0.33003214 0.4175904 1.2454313 0.47824275 0.6258994 -0.7634246 -0.7244438 -0.13895877
195 0.351096 -0.46654063 0.9349514 0.10496095 -0.37532127 -0.75453466 0.23133923 0.44148338 0.30105045 0.06533125 0.81497675 -0.3860735 0.32586288 0.66419125 0.07431303 0.32525817 0.47155535 -0.4321364 0.08292229 -0.68730545
703 0.021193368 0.15900367 0.15778694 -0.4701635 0.02522402 -0.113540635 -0.5770904 1.0523926 -0.37199453 0.7014121 0.61206496 0.22058553 -0.7570647 -0.86410654 0.2872907 -0.009314864 0.8100123 -0.46747342 -0.42887455 -0.8164397
272 0.72129124 0.4052597 -0.73581165 -0.33470523 -0.875471 -0.96319324 -0.10654659 0.45092833 0.010944802 -0.12813185 0.26611447 0.91136485 0.4381346 0.14976647 0.22770584 0.5545895 0.11753275 0.3467957 -0.46190834 -0.48295003
14 -0.20187859 -0.73266137 -0.116066635 -0.87355983 0.6602547 -0.73192954 0.33469662 0.04841487 -0.15472546 0.18030362 0.3183199 0.45650977 0.7450757 0.22166122 0.82802737 0.71207803 0.5962371 -1.0224507 -0.42292556 -0.19546767
708 0.015089214 0.07693555 0.12041399 -0.24037151 0.046681523 -0.02150326 -0.5858845 1.0533826 -0.38588727 0.60329884 0.78186285 0.2342528 -0.9325255 -0.7315689 0.23270638 -0.05127041 0.92382544 -0.6506144 -0.5494103 -0.717368
241 -0.15131454 -0.4898681 0.11205906 0.014402582 -0.5058337 -0.22427016 0.33689937 0.9359562 0.62432164 0.43291152 0.7154418 -0.5524474 0.5187163 0.39313814 0.16039231 0.78443414 0.75388384 -0.35213774 0.41211382 0.044226814
301 0.4299205 0.83030015 -0.84364295 0.29929486 -0.747881 -0.39361715 -0.16275729 0.38250956 0.45192096 -0.0043111243 0.18110438 1.0373495 0.333011 0.28975746 0.6945447 0.3361034 0.15650125 -0.5544738 -0.10337593 -0.4500057
191 0.35806927 -0.34258288 0.8246099 0.18435866 -0.345336 -0.80167335 0.101591945 0.38083047 0.30278605 0.14687236 0.84925044 -0.46410432 0.2320207 0.72785884 0.079008766 0.38637924 0.351414 -0.6824672 0.122411035 -0.71414006
189 0.39045006 -0.36083812 0.8221726 0.23431075 -0.20333265 -0.6948871 0.032911655 0.4602794 0.305705 0.25855458 0.82564545 -0.4475123 0.2497809 0.7920938 0.07071433 0.34535205 0.34980157 -0.74180377 0.1481497 -0.7531215
8 -0.1233063 -0.9405015 -0.16334024 -0.7069991 0.8278477 -0.6014268 0.30128 0.07143138 -0.34515628 -0.10180036 0.43481815 0.45577303 0.60749704 0.346341 0.6763482 0.92440873 0.8289921 -0.7131386 -0.49629134 -0.27659318
47 0.025764322 -0.305354 -0.39340836 -0.5910512 0.645129 -0.9254368 0.4149154 -0.023553768 0.5156554 -0.011411342 0.05690796 -0.273644 0.18531132 0.40534773 1.107312 0.37194115 0.7636759 -0.6788269 -0.60946155 -0.20398612
48 -0.013529314 -0.24668567 -0.36184543 -0.57568216 0.66728675 -0.957791 0.3316712 -0.040331885 0.46034318 0.017417084 0.030669868 -0.21480541 0.18853833 0.39132646 1.0189697 0.26262337 0.85698175 -0.7789913 -0.48614326 -0.1572162
707 0.0003399335 0.03642247 0.1377079 -0.28570738 -0.04590888 -0.07301469 -0.5914558 0.99667764 -0.37646887 0.6489786 0.6907845 0.28640068 -0.89478594 -0.69979703 0.27386728 0.013834058 0.8673924 -0.49492836 -0.5634607 -0.6687746
702 0.046527542 0.20993982 0.13920768 -0.5542303 0.016245402 -0.05838089 -0.6044458 1.070596 -0.38654748 0.6349291 0.69810736 0.17215547 -0.76554614 -0.7614608 0.28575137 -0.0820947 0.76926845 -0.52328277 -0.42281583 -0.73010796
277 0.69168836 0.4039649 -0.6100395 -0.167381 -0.82285905 -0.9805511 -0.29463482 0.37162015 0.05929234 -0.07398287 0.18489206 0.93132055 0.4585772 0.13060941 0.21398143 0.5287516 0.10580289 0.12948579 -0.4897082 -0.62163687
721 -0.16475463 0.41329628 -0.39954835 -0.25295022 -0.19085589 -0.20367952 0.4334233 1.4011841 -0.44403642 -1.0898639 0.26448807 -0.15961833 0.32111332 -0.04180141 -0.08118339 -0.36618644 0.79324406 -0.55614066 -0.3034455 -0.65350294
250 0.47588614 0.62577844 -0.6060365 -0.58773243 -0.82093716 -1.0089962 0.31867096 0.6988042 -0.06574456 -0.04442191 -0.019894829 0.64576894 0.0986065 -0.16591468 0.40413257 0.8958668 -0.19654705 0.2337038 -0.08353479 -0.643129
709 -0.03444677 0.0060212393 0.1259939 -0.2015514 -0.0077966144 -0.040527385 -0.63456887 0.9882948 -0.41427445 0.51946926 0.7587016 0.2759243 -0.9945773 -0.74692166 0.36803505 0.02228746 0.97520965 -0.61720353 -0.64082825 -0.65594274
711 -0.02032836 0.048305973 0.13845779 -0.26134044 0.069156945 0.048434254 -0.59568655 0.970078 -0.3875059 0.7629243 0.6645348 0.30677518 -0.9587767 -0.69346166 0.36746785 0.0795759 0.9924603 -0.6746566 -0.54577756 -0.6191033
462 1.4264523 -0.34207726 -0.9768449 0.45499706 -0.15519252 0.10590325 0.86137646 0.76006 -0.054328013 0.39805454 0.045288168 0.3116588 0.16244267 0.15683505 0.17137828 0.27834523 0.04415917 -0.48987734 -0.6967502 -0.6365505
299 0.49637103 0.8152445 -0.7846538 0.23829295 -0.7274611 -0.44337073 -0.2177462 0.42517316 0.30948794 -0.0022439498 0.18298125 1.1862366 0.4063664 0.23135504 0.52808374 0.33971035 0.18593824 -0.5663186 -0.12603992 -0.50737673
699 0.124620005 0.1824159 0.28835323 -0.51418597 -0.051543906 -0.16846888 -0.5564437 1.0590671 -0.2762591 0.67143166 0.7157635 0.16288513 -0.61434895 -0.86365837 0.3057594 -0.16969551 0.7910577 -0.47743332 -0.34315404 -0.7005291
110 -0.033967927 0.5309452 -0.05870374 -0.5932643 1.0181434 -0.5164864 0.95335543 0.513023 0.76556116 0.17324215 1.1340986 -0.01063071 -0.005445079 0.38775244 0.35777482 0.47095335 0.04601867 -0.20528293 -0.36215922 -0.27583554
273 0.6915162 0.46548024 -0.6421662 -0.24498974 -0.8115284 -0.9395975 -0.10531617 0.43784428 -0.008580245 -0.076155566 0.19288945 0.9259369 0.5116841 0.11283618 0.2678871 0.5874919 0.10871869 0.3037275 -0.38405988 -0.58004594
246 -0.062551945 -0.43750176 0.07696568 -0.0034583632 -0.36181995 -0.24599338 0.241824 0.99294686 0.316646 0.31465396 0.70024365 -0.7007832 0.29680535 0.38403046 0.5992394 0.9533735 0.80104893 -0.30239144 0.70573056 0.21729141
616 0.11154661 0.4526671 -0.35304058 -0.10959517 -0.2904466 0.81207716 0.082145736 -0.25753766 -0.05776737 -0.21681418 0.5987019 -0.44760588 0.31472248 -0.20154689 0.47248155 0.6776782 0.6814113 -0.019753985 -0.4818846 -1.3103993
306 0.56613463 0.87564325 -0.6627088 0.41932893 -0.7158447 -0.26935196 -0.198507 0.56511366 0.4477195 0.04339895 -0.020265957 0.9830561 0.4380478 0.2849285 0.8733436 0.40286246 0.24712087 -0.53960407 -0.042888228 -0.33652592
701 0.01998045 0.1363444 0.21847871 -0.49983668 -0.03523173 -0.12308398 -0.57937485 1.046832 -0.41789612 0.5918659 0.6756389 0.17956828 -0.7239103 -0.9165785 0.34576997 -0.04724684 0.87171763 -0.52916014 -0.35207307 -0.78311247
705 0.028141506 0.05167877 0.07001989 -0.36010492 0.04203349 -0.13343753 -0.61204076 1.1059909 -0.41441947 0.60950136 0.7038886 0.22055732 -0.89311063 -0.84930545 0.33105856 -0.036998875 0.9332613 -0.58489 -0.41276872 -0.70386463
57 0.05922235 -0.23347697 -0.5403156 -0.48931316 0.74028206 -0.874103 0.27480215 -0.087185554 0.6944082 0.03715482 0.2462562 -0.42581078 -0.10713651 0.41988277 0.8727241 0.30699724 0.6903912 -0.90625864 -0.5901823 -0.36315665
276 0.68916255 0.41416824 -0.6091829 -0.2836045 -0.87183374 -0.8600975 -0.29927054 0.432595 0.067132965 -0.011306866 0.12023711 0.9722583 0.47954434 0.074118234 0.20663418 0.59654045 0.12431057 0.19937448 -0.5272163 -0.6544679
242 -0.16086917 -0.30173415 0.15200002 0.007439696 -0.42129663 -0.17595816 0.25612968 0.902422 0.46757182 0.41884124 0.71067196 -0.68677396 0.4745928 0.3607206 0.37419587 0.9372945 0.7360848 -0.28819 0.5610944 0.056853328
298 0.5374551 0.7494997 -0.79591596 0.2815971 -0.7976461 -0.49907988 -0.19240358 0.3650114 0.35871387 -0.015465133 0.28379968 1.1815758 0.32484186 0.30712306 0.5973339 0.3464088 0.11949504 -0.51380944 -0.14404343 -0.5456858
300 0.5084639 0.69227487 -0.80598813 0.35961094 -0.8051548 -0.38430202 -0.2148585 0.4658812 0.43442655 -0.04171202 0.1851912 1.0814267 0.39111587 0.20887533 0.6206583 0.33372983 0.1996227 -0.5107827 -0.13302416 -0.51900536
247 -0.035252698 -0.37264588 0.09748522 -0.049491707 -0.36745948 -0.24794218 0.3004356 0.999056 0.27373514 0.38136137 0.7215895 -0.65581745 0.35488692 0.43993008 0.47578982 0.8793513 0.79371643 -0.3444525 0.8022189 0.24373564
693 0.13393867 0.28870684 0.35396197 -0.5377254 -0.05364068 -0.10920348 -0.33644617 0.92979974 -0.08459072 0.5898475 0.64503306 0.14367637 -0.59038407 -0.9388205 0.52869976 -0.31437737 0.7810766 -0.47589546 -0.21077293 -0.76557356
56 0.01245936 -0.23799875 -0.58150053 -0.59520394 0.6883999 -0.9214693 0.2846177 -0.06297288 0.6564231 0.028679071 0.24259052 -0.35193312 -0.06976944 0.42465174 0.7960288 0.27311346 0.70142573 -0.93714345 -0.48867238 -0.26404503
698 0.029708447 0.13653383 0.17882915 -0.6807404 -0.15319726 -0.15763408 -0.49477172 1.0179985 -0.28875694 0.6408777 0.5919146 0.12286189 -0.67956686 -0.8672574 0.34028915 -0.17284591 0.81439793 -0.4301467 -0.3009376 -0.74818605
692 0.16090734 0.24780011 0.4051968 -0.5837957 -0.044349123 -0.061445612 -0.30599922 0.8900408 -0.17200825 0.62684315 0.58916765 0.119876266 -0.63010406 -0.90958565 0.62156177 -0.24906227 0.83009255 -0.45752013 -0.2988769 -0.6572556
59 0.005005952 -0.1740361 -0.5702765 -0.54277015 0.6541589 -0.90624833 0.20153709 -0.13676143 0.67358595 0.006559421 0.31116784 -0.3820534 -0.19541521 0.45756602 0.76981515 0.32964405 0.70948654 -0.869089 -0.6480321 -0.2643698
696 0.13136995 0.2959305 0.13922836 -0.5717282 -0.013627691 -0.21503763 -0.42358404 1.0152347 -0.18282515 0.67894346 0.59577495 0.103715904 -0.69290596 -0.88345337 0.36593354 -0.2491559 0.7006681 -0.53000736 -0.25348377 -0.6442786
690 0.14179225 0.25839248 0.2897459 -0.49723697 -0.03631611 -0.06939099 -0.25992864 1.0364299 -0.10951259 0.6827291 0.5961645 0.02512236 -0.65164894 -0.8848092 0.58156353 -0.3560664 0.85085475 -0.4617038 -0.38753152 -0.63336587
58 0.030435918 -0.22942415 -0.5753407 -0.5016586 0.67914045 -0.8833596 0.21488284 -0.15480636 0.7211711 0.0448359 0.32133055 -0.39143026 -0.10112369 0.41545972 0.73727375 0.37529966 0.6534098 -0.93240136 -0.6187132 -0.31360912
470 1.3641894 -0.079197906 -0.69659775 0.5302863 -0.26758924 0.03255651 0.9089799 0.72619027 0.00058159465 0.41260847 -0.1806695 0.2986366 0.24709772 -0.018091165 0.29322463 0.22956541 -0.14272386 -0.8263306 -0.7838207 -0.7232251
400 0.00881679 0.16476789 -0.6538422 -1.0908345 -0.6435972 0.033936266 -0.07231005 0.5026494 0.33072048 0.7048041 -0.42965537 0.6529442 -0.3739618 1.0794606 0.07523717 0.3712714 0.791001 -0.117131345 0.18105891 -1.020991
697 0.09805576 0.29530975 0.17443867 -0.6881856 -0.023088962 -0.13573398 -0.48470783 0.9957022 -0.26787823 0.73935544 0.6708953 0.078738436 -0.6923035 -0.8821404 0.38619557 -0.23570459 0.7025059 -0.5432588 -0.31901821 -0.75213766
49 0.059058398 -0.2007482 -0.4223008 -0.5964732 0.692274 -0.88250387 0.3038596 -0.18213226 0.58772165 0.06558536 0.11192948 -0.2550671 0.18720262 0.45838806 1.0964284 0.38793537 0.7829935 -0.79257685 -0.48476598 -0.21276657
684 0.33593342 0.22439475 0.34571993 -0.48240468 -0.062124263 0.101132 -0.050554786 0.9986673 -0.2928203 0.56913203 0.6116428 0.058531504 -0.5621362 -0.87627274 0.6180264 -0.29487592 1.0343543 -0.19718245 -0.40237343 -0.5075492
469 1.4490501 -0.07959213 -0.7012986 0.40586936 -0.31492403 0.045098867 0.9244378 0.82056576 0.019949457 0.40585 -0.037161086 0.38836566 0.18904413 -0.0024470466 0.24883698 0.20759293 -0.1205819 -0.6874766 -0.8209806 -0.5897252
416 0.118848845 0.028624373 -0.4177837 -0.81790155 -0.5682319 -0.12488572 0.13144548 0.45414528 0.23214048 0.5293162 -0.6068386 0.68192625 -0.57894766 1.1400342 -0.022006707 0.3369933 0.6176425 -0.0022275583 -0.23916489 -1.5892823
409 -0.022943249 0.167421 -0.2983679 -0.9529471 -0.38606954 0.009561011 0.14844254 0.57304287 0.3777809 0.4422872 -0.5853887 0.87718445 -0.22784756 1.0766915 0.25248474 0.24505106 0.69397384 0.037820596 0.1401067 -1.55658
408 0.09986765 -0.00541209 -0.3244283 -0.9273519 -0.39779 0.11652818 0.082379274 0.64475995 0.38846764 0.5038096 -0.56272405 0.8044296 -0.20483528 1.0839727 0.2845004 0.23201087 0.6338649 0.04112147 0.102519356 -1.5011454
304 0.49006292 0.8323215 -0.7739998 0.3566094 -0.70516837 -0.31908712 -0.24192013 0.5060297 0.4228727 0.1928385 0.0562619 1.0702406 0.32259125 0.302292 0.75563544 0.35815555 0.21812348 -0.5168983 -0.08336299 -0.41336328
441 1.4307255 -0.27950984 -1.2632302 0.18225634 -0.25264692 0.008807648 0.38335127 0.75115705 -0.45917767 0.47411487 0.31205726 0.02032093 0.10795681 0.09461032 -0.07780113 0.60353696 0.06135229 -0.5735039 -0.37737283 -0.26022172
52 0.041383587 -0.2805389 -0.40087834 -0.5532969 0.6812936 -0.90130115 0.2744209 -0.08954469 0.65384084 -0.058964465 0.24523748 -0.28642485 0.13856089 0.40826753 1.088515 0.3538858 0.69932735 -0.8742452 -0.52961516 -0.2779215
418 -0.010066726 -0.011470884 -0.39954275 -0.8520823 -0.53778845 -0.052327342 0.21629976 0.42351812 0.19578744 0.48071197 -0.52406174 0.59640235 -0.5479483 1.1002215 -0.017507393 0.3108788 0.5226763 0.10005361 -0.3286518 -1.5987284
700 0.035667136 0.21740392 0.16125374 -0.5883642 -0.03055128 -0.18450318 -0.55292916 1.0350074 -0.34667444 0.6935944 0.59689987 0.058680464 -0.74374795 -0.816954 0.22975302 -0.061254784 0.7853747 -0.46990797 -0.31124836 -0.7558603
652 0.23158203 0.3206869 -0.13816978 -0.34186643 -0.15264478 -0.02656593 -0.016560456 0.282179 -0.55364525 0.6799324 0.7212611 0.13162935 0.14045204 -0.23636274 0.25413364 -0.81624895 1.3003525 -0.032729924 -0.3439055 -0.5356144
401 -0.029565016 0.19084139 -0.5287621 -1.1474724 -0.6288478 0.018700676 -0.022217244 0.5293382 0.33180177 0.64561594 -0.50825757 0.59981287 -0.24803625 1.0463035 0.10884947 0.4194029 0.7819784 -0.017759737 0.27162376 -1.0278797
431 1.3217001 -0.14513446 -1.3180794 0.036700796 -0.45332855 -0.10284124 0.1470509 0.6751328 -0.6500332 0.6813623 0.108951576 -0.14795694 0.15159962 0.07165838 -0.12967865 0.5931136 -0.00023314531 -0.8654264 -0.2454683 -0.30507034
410 0.07251663 0.10334134 -0.32804486 -1.0412836 -0.37691718 -0.026247524 0.13237818 0.5119523 0.36612123 0.44396064 -0.6170557 0.70267886 -0.22932036 1.068091 0.23904365 0.34055418 0.6099476 0.07151519 0.058956746 -1.5267074
51 -0.011441002 -0.21717407 -0.46766934 -0.58945954 0.68517166 -0.8658863 0.2932508 -0.1419477 0.51222354 -0.009261498 0.15316549 -0.39885223 0.113465846 0.5063202 1.0492859 0.28925186 0.72118646 -0.8689064 -0.49159786 -0.2981479
475 1.4951679 -0.032419298 -0.57495433 0.4148513 -0.35642764 0.00048202687 0.96626997 0.7719802 0.031129532 0.33157024 -0.1243324 0.38130534 0.20313393 -0.055982802 0.41004702 0.06573055 -0.124129474 -0.92028195 -0.7534237 -0.56486
50 -0.01799684 -0.31843546 -0.48668766 -0.6226925 0.6874218 -0.95541644 0.39267224 -0.16877356 0.5237309 0.046988383 0.14586021 -0.34912685 0.1619595 0.42319018 1.0896301 0.31729785 0.64021367 -0.84583527 -0.535966 -0.42775023
596 0.4495517 0.5505539 -0.12738337 -0.43491802 -0.319517 0.8954557 -0.091674544 -0.15644145 -0.16130818 -0.28360063 0.5598031 -0.60894716 0.5025203 -0.07726338 0.49020284 0.6705171 0.5460171 -0.1588553 -0.49948263 -1.2162551
694 0.14889361 0.22474942 0.23814033 -0.54259723 -0.12276568 -0.07746998 -0.38892603 1.0699824 -0.15676613 0.6090429 0.6123996 0.078726366 -0.6400869 -0.87920207 0.5000724 -0.3465545 0.7815193 -0.5050744 -0.29693216 -0.64354783
417 0.018167896 0.07009037 -0.3870623 -0.8085447 -0.49413508 -0.079104505 0.17927225 0.45198062 0.30553642 0.510605 -0.5294933 0.66272867 -0.5073702 1.0940013 -0.09009211 0.3487054 0.5780853 0.06565085 -0.290613 -1.5459821
112 -0.03820892 0.50542855 -0.06617863 -0.6161632 0.9713142 -0.5266802 0.8981581 0.4833852 0.83815926 0.24057929 0.97082126 0.08373596 0.0066841524 0.43267587 0.2788632 0.52382624 0.063409306 -0.25284025 -0.23622496 -0.29937243
388 0.15831569 0.2514568 -0.15155093 -1.2886056 -0.7939793 0.19474219 0.12037713 0.6547986 0.18208517 0.67899305 -0.24204428 0.78334683 -0.18578318 1.1794925 0.25309068 0.4052902 0.31029183 -0.2656268 0.12580058 -0.82534456
419 0.09044465 -0.082774416 -0.36143115 -0.88579136 -0.46973085 -0.0012312982 0.24200065 0.46575162 0.30135447 0.44663766 -0.4865068 0.632527 -0.62757254 1.1900816 -0.0031294366 0.30067894 0.5561846 0.075296596 -0.2490189 -1.5903053
439 1.3554 -0.33068642 -1.3135253 0.18956405 -0.2714012 -0.06622696 0.318527 0.8056509 -0.5261942 0.5252009 0.22079623 0.002912456 0.1388815 0.09644133 -0.03867253 0.501153 0.08311681 -0.74889594 -0.3171545 -0.23990978
691 0.13019353 0.19232193 0.28627136 -0.50280416 -0.052089185 -0.09043432 -0.29722318 1.045493 -0.20672642 0.7252175 0.48392606 0.09735118 -0.6356488 -0.9481149 0.6432867 -0.23422469 0.8529909 -0.4444584 -0.31318673 -0.6660162
64 -0.004373364 0.0006218604 -0.5973873 -0.62721413 0.6158518 -0.9535381 0.18940978 -0.19579788 0.72318095 0.0942439 0.41193938 -0.37318027 -0.14435841 0.53900987 0.5162378 0.2974741 0.6263163 -0.9050776 -0.60768986 -0.22879854
305 0.5367103 0.80431086 -0.74165106 0.3600289 -0.7269257 -0.2697098 -0.24747431 0.5528802 0.4516083 0.019109018 -0.051955547 1.0624084 0.45886448 0.35424381 0.76793295 0.39681324 0.2607962 -0.4857877 -0.13163343 -0.46560833
468 1.3930687 -0.12774865 -0.8045474 0.5823647 -0.2757673 0.13553002 0.9192877 0.7371451 0.050834693 0.4484996 -0.08148266 0.3378562 0.24723229 0.05363402 0.25082442 0.28030357 -0.04538916 -0.70995295 -0.7775073 -0.66560245
62 -0.07780664 -0.027834602 -0.5666461 -0.597374 0.6460959 -0.8834546 0.17430188 -0.22816259 0.7009008 -0.003038595 0.39822885 -0.34907076 -0.12489939 0.49048018 0.70055705 0.26368538 0.64223313 -0.9521111 -0.6455453 -0.3026143
399 0.021193119 0.3254766 -0.5359915 -1.1475172 -0.610488 -0.064408325 0.028873114 0.52284664 0.39347583 0.72477454 -0.5303686 0.5721214 -0.3213157 1.0551219 0.06905459 0.40317082 0.74157095 -0.14886211 0.24506773 -0.9759947
463 1.4132591 -0.2723375 -0.99337775 0.471467 -0.099033 0.17771766 0.882235 0.81249803 -0.085490115 0.44425583 -0.03343032 0.33459306 0.16245246 0.18449621 0.2138641 0.23930298 -3.359729e-05 -0.5904209 -0.63686675 -0.6990012
243 0.0017643329 -0.37656927 0.09630125 0.048672255 -0.3888136 -0.21702199 0.27826303 0.98543733 0.32826415 0.3965143 0.71329004 -0.6735238 0.42347172 0.41332677 0.46951753 0.92610854 0.6903626 -0.3270249 0.6486191 0.19199392
65 -0.075344495 -0.030541187 -0.6555595 -0.6091334 0.6621419 -0.8993256 0.100923486 -0.24529423 0.71317315 0.0475578 0.5555077 -0.4009724 -0.17443289 0.41730905 0.51730347 0.40627274 0.7149319 -0.85340387 -0.65903115 -0.21674414
61 0.015709775 -0.17025597 -0.5445359 -0.49340332 0.66519743 -0.9038017 0.19689016 -0.14638893 0.7282906 0.0029171845 0.38367283 -0.37140802 -0.12467116 0.4806438 0.68664974 0.38438672 0.7290768 -0.86340374 -0.6135734 -0.2506831
94 0.27524042 0.22810131 -0.30018312 -0.91129273 0.7760118 -0.6617927 0.58917725 0.22397795 0.6754863 -0.03748873 1.089235 -0.36904526 0.08335088 0.70841265 0.22107261 0.23853832 0.25614136 -0.28811297 -0.5900983 -0.053693175
414 0.015014171 -0.07246512 -0.3064739 -0.83833414 -0.41572276 0.045228064 0.11701072 0.4999321 0.27770582 0.5259929 -0.5066166 0.86314404 -0.41846457 1.1569233 0.17981446 0.37513962 0.58994955 0.025456512 -0.16936931 -1.582829
706 -0.0038615547 0.040130746 0.047754463 -0.36745638 0.026175218 -0.048364587 -0.682249 1.0358071 -0.4125414 0.6449814 0.8721424 0.18176119 -0.9038581 -0.8117159 0.377048 0.085626476 0.8070186 -0.49437693 -0.50675535 -0.7035601
608 0.29612422 0.6098277 -0.09188959 -0.32067162 -0.41457137 0.7843892 0.17265682 -0.3221373 0.115970336 -0.30260652 0.46090907 -0.5537988 0.15605076 -0.12400366 0.42480958 0.47162488 0.4298643 -0.28576458 -0.89557827 -1.5169542
407 0.0700468 0.011132658 -0.390108 -0.9191297 -0.3867672 0.12947504 0.12182003 0.6329029 0.41678518 0.51432025 -0.6126938 0.7979108 -0.20854755 1.0667748 0.21482754 0.2618266 0.7078055 -0.110491395 0.22590928 -1.3704253
440 1.4615008 -0.21250695 -1.3801392 0.15887669 -0.24852131 -0.07806472 0.3375694 0.74418575 -0.45267585 0.4503129 0.22811413 -0.12961711 0.07458757 0.017733116 -0.035185315 0.60069263 0.06943557 -0.6147065 -0.4568886 -0.27735493
465 1.3958194 -0.18034488 -0.7940104 0.4556564 -0.1983658 0.15819131 0.8666637 0.81805795 -0.14624296 0.40247717 -0.07740825 0.3070802 0.21584639 0.036211226 0.18814708 0.33910617 -0.027201684 -0.5835396 -0.69915587 -0.6805718
686 0.27913883 0.18840325 0.1871852 -0.4828543 -0.13590069 -0.0035823153 -0.23237854 0.9642808 -0.4211773 0.5684546 0.52546203 0.17901683 -0.6052771 -0.83384275 0.7694775 -0.26295117 0.9969872 -0.26781794 -0.30955076 -0.51453424
393 0.050623726 0.25450897 -0.4784556 -1.1987116 -0.84857804 0.1453895 0.13539778 0.5235005 0.21674515 0.72521085 -0.32299227 0.6822232 -0.31920585 1.1278828 0.06731715 0.43595573 0.536265 -0.21251391 0.12969762 -0.88528967
398 -0.0087512685 0.281554 -0.5698232 -1.0765827 -0.52981305 0.036200378 0.010068367 0.53309184 0.3568906 0.6434992 -0.5344173 0.55509037 -0.27336472 1.0708528 0.11786235 0.331676 0.63598573 -0.18022943 0.15793999 -0.98502326
321 0.35008687 0.8192321 0.06289828 0.14176227 -0.76010764 0.25650373 0.12633453 0.5770246 0.23223357 -0.3707238 -0.003880476 0.93547684 -0.40843618 0.9460841 0.685228 0.7277782 0.78616214 -0.12186576 -0.4393343 -0.22249128
689 0.2059914 0.21082012 0.31554103 -0.53129023 -0.0885898 -0.10045115 -0.21230367 0.9714379 -0.11321977 0.5907836 0.56359816 -0.010225128 -0.6217747 -0.97294956 0.6867344 -0.35999647 0.83374345 -0.4351368 -0.46397626 -0.610574
446 1.4571726 -0.13637654 -1.2327374 0.31955326 -0.19014457 0.13107333 0.4556972 0.8710854 -0.31045142 0.40483606 0.2678197 0.08177952 -0.016577654 0.17859492 -0.051181547 0.5674581 0.1083759 -0.5752774 -0.45356834 -0.29273787
109 0.037964173 0.47812146 -0.08684486 -0.659436 1.0150341 -0.51519084 0.9251385 0.42701685 0.7144472 0.13691422 1.0692073 0.05127416 0.007053045 0.44649953 0.24637409 0.42508486 0.024872836 -0.3460587 -0.29146394 -0.2934299
307 0.5913784 1.0494099 -0.5289765 0.38732764 -0.66641057 -0.14053869 -0.1275109 0.512685 0.48605418 -0.032079715 -0.18249783 0.9013225 0.16314483 0.5427153 0.9120137 0.5370502 0.45425102 -0.3764846 -0.16158187 -0.28485873
111 0.064411044 0.5661126 0.044709507 -0.53539044 0.9902229 -0.4702264 0.9502605 0.45345217 0.7901752 0.23422104 1.0589445 0.09859259 -0.017557252 0.4231973 0.24626984 0.5025546 0.08447552 -0.31282306 -0.3734076 -0.16872899
384 0.27426416 0.27333862 -0.07493368 -1.2163284 -0.86016554 0.10705825 -0.050602682 0.5775619 0.18775423 0.62258303 -0.18755786 0.7382588 -0.33389682 1.106379 0.18350717 0.40271428 0.33789715 -0.33750853 0.090234295 -0.7370812
394 0.0022476178 0.27888247 -0.45210093 -1.1795037 -0.69730246 0.15667188 0.14587702 0.6330469 0.27478993 0.7299246 -0.44735712 0.67297244 -0.3062871 1.1478481 0.20246981 0.48784485 0.57176924 -0.23231333 0.18205658 -0.8187565
435 1.3894807 -0.10505331 -1.4180493 0.09722496 -0.26672935 -0.18755223 0.31876826 0.64906627 -0.43541327 0.513182 0.10967387 -0.19024639 0.02741662 0.107491575 -0.14084156 0.51077825 0.09513091 -0.7120691 -0.2898243 -0.31929684
340 0.5979763 0.4809557 -0.005942654 -0.560853 -0.57396716 -0.0037390694 0.02047722 0.403161 -0.19537348 -0.31784412 0.23940113 1.0430455 -0.59018666 1.1285776 0.3769322 0.67367184 0.7778512 -0.24833843 0.16682833 -0.24546675
95 0.31002262 0.32403186 -0.35499504 -0.9807657 0.7529686 -0.6316116 0.6024161 0.26751843 0.73255235 0.00647904 0.9844358 -0.32177278 0.14215234 0.64477605 0.15138543 0.22927245 0.20507337 -0.24090584 -0.5298172 -0.05326224
60 -0.05872606 -0.12199545 -0.622479 -0.53416824 0.6539668 -0.87143004 0.15221132 -0.16179352 0.7728945 0.073413864 0.36275557 -0.32657003 -0.06395403 0.43056014 0.71150297 0.29545593 0.7324187 -0.87769127 -0.64600337 -0.2326133
466 1.287924 -0.28776598 -0.83624536 0.57467717 -0.17925806 0.12816231 0.8812857 0.73149806 -0.0045641963 0.5115907 0.015505131 0.36041492 0.15280595 0.023430146 0.21841066 0.312443 -0.012847871 -0.6646972 -0.7880711 -0.6373843
405 -0.047751788 0.028376587 -0.46243104 -0.99995387 -0.40840602 0.12284171 -0.036028538 0.64925814 0.38472322 0.48083097 -0.5537421 0.68259966 -0.26213878 1.0110022 0.29954246 0.29083085 0.7142483 -0.053431567 0.17359543 -1.3168612
283 0.55450636 0.54900056 -0.7920472 -0.07577563 -0.7871285 -0.7893224 -0.18600456 0.16902989 0.2098729 -0.06272199 0.39532617 1.1276451 0.31283033 0.13288736 0.24688798 0.4591089 0.08015822 -0.1708073 -0.38852984 -0.6831595
113 -0.036498696 0.5287202 -0.014753166 -0.5350209 0.96442866 -0.3624403 0.9620494 0.49319723 0.8575774 0.19386053 1.0166569 0.056796126 0.018360296 0.4987475 0.2508893 0.5406816 0.05786604 -0.30630374 -0.45209435 -0.23121057
460 1.3972127 -0.24109943 -1.0458535 0.43673784 -0.09215915 0.042804062 0.9395669 0.6281192 -0.13764952 0.34096503 0.05834186 0.2915203 0.2521411 0.16374674 0.10047921 0.29869938 0.042832427 -0.48542005 -0.6974523 -0.6529807
728 -0.32481414 0.49965584 -0.49319515 -0.13612685 -0.07730394 -0.12526637 0.38479808 1.3934585 -0.3210898 -0.89766306 0.33201042 -0.12822078 0.26249582 0.12490358 -0.18946165 -0.4855243 0.8059036 -0.71152693 -0.2651494 -0.67659426
445 1.4194272 -0.270705 -1.3300643 0.13303329 -0.15037139 0.054545395 0.47370005 0.83692896 -0.36625576 0.36922246 0.2598905 0.076496914 -0.045220904 0.08929327 -0.034254886 0.58538985 0.07973465 -0.61581606 -0.48787853 -0.27989388
359 0.72617346 0.32438093 -0.047743198 -0.971026 -0.8348138 -0.019794924 0.24527574 0.30153736 -0.086505435 -0.106457986 0.09696415 0.84658235 -0.34136188 1.2636226 0.4732421 0.10432921 0.67803866 -0.25716978 0.3869338 -0.39246845
68 0.07684722 0.061286785 -0.6698347 -0.74208117 0.6206501 -0.9458499 0.15297471 -0.12467235 0.67309415 -0.058362976 0.5521925 -0.47004387 -0.2562321 0.38191244 0.44125152 0.509039 0.58856624 -0.80812645 -0.62282443 -0.15922914
387 0.103510916 0.2630934 -0.05621562 -1.2382034 -0.7593627 0.14675727 0.13928421 0.61020374 0.21868563 0.60164285 -0.27876908 0.75074565 -0.32805833 1.1154567 0.133026 0.3138679 0.3356726 -0.40590575 0.03888874 -0.8285495
389 0.06581249 0.23027904 -0.18575719 -1.2701619 -0.84723854 0.18012722 0.18235978 0.67145187 0.19144379 0.6673739 -0.22142734 0.77540714 -0.26370466 1.0592645 0.15315463 0.31914356 0.35768476 -0.2907387 0.10768154 -0.77184266
467 1.3907158 -0.270317 -0.7609256 0.5635996 -0.25362775 0.109490916 0.9620209 0.73470134 0.011726945 0.48586738 -0.0012734787 0.3302115 0.24639851 0.031619456 0.20496677 0.25080344 -0.0029242972 -0.6298622 -0.69318116 -0.6018479
412 0.12475356 -0.054866314 -0.28323087 -0.8760826 -0.42695907 -0.008076226 0.13231504 0.43095544 0.366341 0.54374677 -0.5681051 0.6751688 -0.3680364 1.0816153 0.061463043 0.3219232 0.63345116 0.08527379 -0.18904364 -1.5057164
607 0.39609128 0.59840214 -0.12561719 -0.2666274 -0.41367704 0.7039291 0.16544062 -0.36002642 0.14504172 -0.25916183 0.40156603 -0.65370876 0.33947143 -0.1540555 0.45293853 0.39333585 0.37622207 -0.38318694 -0.7540501 -1.5034362
63 -0.062243633 -0.030384839 -0.6712693 -0.623805 0.6429662 -0.96712786 0.11535117 -0.093537845 0.67822295 -0.07453783 0.46945894 -0.38916144 -0.2575645 0.54832286 0.61168766 0.37227398 0.5945753 -0.9189359 -0.59188086 -0.24889624
695 0.22967738 0.37478298 0.26660833 -0.60456127 0.0032413157 -0.086539604 -0.46473724 1.0810882 -0.17775393 0.60808176 0.63910115 0.118923925 -0.564838 -0.92523587 0.47855607 -0.29465806 0.76717037 -0.60063213 -0.19560476 -0.64513415
358 0.67435 0.37561983 0.028961254 -0.9706764 -0.8818905 -0.018749364 0.23708232 0.2616603 -0.07396855 -0.12111848 0.07348078 0.89863133 -0.31284738 1.2528478 0.40304765 0.2512502 0.77527446 -0.18385072 0.31988633 -0.38001865
472 1.5513694 -0.09759806 -0.6954861 0.48005176 -0.2855067 0.03315205 0.88956904 0.6742691 0.081145145 0.2736734 -0.056772392 0.31200817 0.2789703 -0.12830958 0.37154484 0.13678403 -0.036653977 -0.7845616 -0.8290049 -0.57856935
116 -0.17849816 0.5155062 -0.001432179 -0.5658583 0.9448182 -0.38599584 1.017962 0.57523763 0.8458719 0.1603251 0.94712126 -0.010504293 0.029482257 0.3578403 0.23550044 0.6769928 -0.04272615 -0.273828 -0.3340156 -0.37968117
