749 15
657 -0.33934647 -0.62032086 -0.111834824 -0.6402669 -0.7267534 0.4707079 0.65015423 -0.36619443 -0.2541977 0.27321565 0.43734327 0.107739225 0.06875472 0.53514403 -0.6037654
234 0.40239635 0.23873526 -0.13843898 -0.30941725 -0.8810023 0.20542476 -0.67168504 0.52291954 -0.84908307 0.5313334 0.09953226 0.10382979 -0.54399246 -0.21414785 -0.4191399
265 -0.08867537 -0.22566085 0.63939685 -0.6896225 -0.5865724 -0.7736318 -0.5751811 -0.6826461 -0.16851324 0.28732184 0.8031025 -0.18202782 -0.32932666 0.111884624 0.20281032
15 0.251885 0.5327014 0.37481913 -0.4332203 -0.09877787 0.4575557 -0.45050874 0.4677394 -0.32497278 0.8027577 0.33242172 -0.40737444 0.52800477 0.4492777 -0.47695637
55 -0.23523992 0.36576968 -0.17243944 -0.45129788 0.2651161 0.5389256 -0.7065285 0.33813456 -0.5137228 0.54766214 0.97422624 -0.029555954 0.13876657 0.022672085 -0.18058543
201 0.031096105 -0.21863082 -0.2918054 -0.5486351 -0.6047992 0.27777046 -1.1173363 0.2928415 -0.48269367 0.16051295 -0.059978247 0.100913815 0.38835028 -0.3720114 -0.42442116
16 0.28450826 0.5642099 0.32486084 -0.38270986 -0.22050594 0.42682892 -0.40762886 0.3731738 -0.3948032 0.70330703 0.26346117 -0.41310087 0.6247646 0.41685912 -0.5159539
38 0.00941406 0.8973748 -0.2270672 -0.27007353 -0.25725782 0.13980131 -0.63118505 0.06505128 -0.44211754 0.28258172 0.5178909 -0.27454785 0.7992451 0.17146634 -0.5998498
181 0.68118453 -0.39652 -0.4293379 -0.77012944 -0.31306955 0.51015484 -0.8617313 0.09044049 -0.34480378 0.32994902 0.022935376 -0.10122366 0.10845123 -0.4663267 -0.24869314
31 0.2806893 0.9967537 0.11379663 -0.43758905 -0.33600542 0.31302127 -0.45349035 0.18526328 -0.37726986 0.3717643 0.40932968 -0.42760167 0.8069154 0.08114947 -0.3388345
204 -0.013831574 -0.2519087 -0.2300371 -0.46698284 -0.6903117 0.23571225 -1.0458009 0.2988728 -0.54460967 0.16912608 -0.074691355 0.089817725 0.6177614 -0.24463992 -0.44397599
462 -0.6514109 -0.18172796 -0.8927197 -0.03774686 -0.49696296 -0.026397329 -0.8820856 -0.3560915 0.09904719 -0.0019777925 0.17859542 -0.60388964 -0.14449222 1.0804123 0.119363226
183 0.692071 -0.27847782 -0.43997234 -0.7163467 -0.40277752 0.49762365 -0.89182043 0.08866145 -0.3304044 0.27191752 0.016683863 0.028869567 0.070310645 -0.4225124 -0.21158062
211 0.061670676 -0.2878354 -0.124983005 -0.5364874 -0.7350442 0.4455811 -1.1279094 0.5513046 -0.47526962 -0.062480856 -0.058986805 0.23529887 0.06947878 -0.3158758 -0.2960279
264 -0.092695326 -0.18597618 0.67912036 -0.67888683 -0.6570026 -0.81226045 -0.57932824 -0.64340425 -0.21671838 0.3346937 0.7309792 -0.15489525 -0.28720522 0.14766026 0.18134667
54 -0.22313802 0.44934627 -0.22809587 -0.4164862 0.20555577 0.43937325 -0.6113427 0.31059748 -0.59700227 0.5930503 0.94634265 -0.11614602 0.19265862 -0.007825812 -0.32699993
394 0.1253481 0.22826578 -0.3142619 -1.1248777 -0.04074714 -0.8132138 -0.3747246 -0.5226626 -0.74610734 -0.5018883 0.18096548 0.25284526 -0.510384 0.2699927 0.012580784
112 0.47341996 -0.21153302 -0.29714218 -0.17787303 -0.44923967 0.1203394 -0.28721005 0.41364765 -0.8240216 0.21031913 1.1556687 -0.03138472 0.5566342 0.0049967486 0.0986583
20 0.37089694 0.72655374 0.24300681 -0.4808738 -0.22056547 0.48458743 -0.33121246 0.31710702 -0.44510052 0.6114338 0.24153702 -0.5478916 0.75121593 0.23522183 -0.35935053
203 0.015731966 -0.23615876 -0.2078029 -0.49394736 -0.69801176 0.21727905 -1.0573971 0.2707051 -0.57945544 0.18274514 -0.06572874 0.07490303 0.6241095 -0.31111577 -0.41681615
401 0.007403296 0.33923855 -0.04583994 -1.1153976 0.19846188 -0.6145738 -0.48000437 -0.60907686 -0.78977156 -0.20435376 -0.0010179797 0.074469164 -0.4153129 0.38357905 -0.15129046
19 0.36700374 0.6581172 0.18628646 -0.40900257 -0.22288196 0.5297295 -0.38008675 0.36940148 -0.3381967 0.66739696 0.2317554 -0.5252783 0.7248618 0.3707029 -0.40869343
591 -0.3856564 -0.097472206 -0.0204213 -0.732191 -0.78382564 0.114303105 0.4345359 -0.15665665 -0.1945855 -0.8836942 0.62718326 -0.2671312 0.27478126 0.020634668 -0.70984435
675 -0.14155215 -0.0003990611 -0.25321218 -0.6222381 -0.87905306 0.26116604 0.35918638 -0.63387084 0.09886169 0.37521437 0.2284743 0.3071699 0.024242302 0.4160453 -0.8533063
213 0.21466918 -0.18977815 -0.021383842 -0.51545227 -0.7753113 0.5356807 -1.0932577 0.54998636 -0.39666495 -0.10110468 -0.08005071 0.20219707 -0.14515133 -0.2409422 -0.30188277
388 0.026637333 0.30496785 -0.16256067 -1.0251634 -0.3179559 -0.866273 -0.30995676 -0.5847239 -0.9237818 -0.30368832 0.19190495 0.25431275 -0.25276965 0.22119279 0.15891321
698 -0.6571432 -0.06025331 -0.21788917 -0.9724374 -0.69082415 0.6454117 0.5361547 -0.45462966 -0.14195585 0.41042766 0.2726858 0.25400406 -0.2472311 0.039091963 -0.5061695
230 0.30020872 0.16853727 -0.09813763 -0.32996148 -0.9282209 0.30770028 -0.8820383 0.43134362 -0.3874654 0.38524055 0.089123674 0.13884322 -0.5059574 -0.23994245 -0.46349868
53 -0.19457912 0.53254884 -0.29587704 -0.3792483 0.10163295 0.34427825 -0.62261975 0.2137394 -0.5335884 0.6572287 0.9210315 -0.086293004 0.2148355 -0.034727447 -0.33770475
182 0.6465391 -0.3889601 -0.46385023 -0.7408223 -0.37373823 0.46416205 -0.8309584 0.104686625 -0.25985843 0.33277276 0.05325011 -0.07464191 0.12115372 -0.46037337 -0.25632972
52 -0.12678929 0.4913735 -0.34502277 -0.41348857 0.17206156 0.299229 -0.64655936 0.18050809 -0.48521563 0.5925337 0.9261167 -0.020203417 0.18243793 -0.008178834 -0.3836664
222 0.17318833 0.25043836 0.021683251 -0.5021024 -0.92940646 0.5227313 -1.0469801 0.41871145 -0.22252326 -0.06566404 0.21048026 0.1405746 -0.5069511 -0.5356354 -0.24664761
649 -0.37546375 -0.41401613 -0.2852131 -0.58452076 -0.5939562 0.12246866 0.5863506 -0.41374424 -0.5161401 0.25653914 0.32557583 -0.052454453 0.30569348 0.49051607 -0.8354952
33 0.20807284 0.951337 -0.013173946 -0.44782725 -0.35385877 0.28522387 -0.4189274 0.20055717 -0.41413936 0.27090383 0.42304218 -0.38284296 0.8106612 0.017047208 -0.35187232
287 -0.079049066 -0.17712241 0.22586699 -1.1155095 -0.0019459642 -0.5472236 -0.6469277 -0.73780257 0.0885605 0.24079658 0.33980045 -0.18743451 0.7290252 0.09210992 0.14353794
47 -0.04891632 0.58287394 -0.25139877 -0.35719082 0.12572142 0.41669774 -0.5814059 0.33596036 -0.53494155 0.4256523 0.83088595 -0.07665233 0.29096246 0.14709637 -0.33062035
169 0.93998826 -0.34674892 -0.6019936 -0.6607118 -0.066988386 0.36308986 -0.7462748 0.01523413 -0.3232576 0.2511899 0.33188543 -0.25063056 -0.20581299 -0.37089 -0.49043444
692 -0.45459342 -0.11513257 -0.17912792 -1.0322343 -0.5645476 0.7288279 0.5889885 -0.5326103 0.066559084 0.26638132 0.33705097 0.2712396 -0.39185002 0.22602983 -0.5058214
39 -0.024857411 0.8947428 -0.19318853 -0.25632045 -0.28435436 0.035204597 -0.610068 0.053090114 -0.48549592 0.20096919 0.5171381 -0.2751821 0.7690992 0.17967208 -0.6708687
751 -0.19967917 0.02749782 -0.7076985 -1.1035689 -0.5760777 -0.6353614 0.28331178 0.770183 0.38704067 0.2622491 0.31935295 -0.354073 0.48494753 0.1873882 -0.029390652
18 0.30629295 0.6368646 0.25942436 -0.47407508 -0.08818121 0.48693538 -0.36103073 0.44629535 -0.37729478 0.69773936 0.31105152 -0.50529635 0.66032106 0.36219844 -0.3990387
212 0.064882636 -0.26064318 -0.08592656 -0.4910404 -0.7917133 0.45550573 -1.0801388 0.48209468 -0.48235682 -0.014075044 -0.08451223 0.20866345 0.013476872 -0.2746291 -0.3374337
495 -0.3265366 0.034689754 -0.75146383 -0.21969149 -0.94691765 0.44692641 -0.3851717 -0.2754479 -0.16900001 -0.17158096 -0.065979496 -0.6471855 0.124111064 0.90435666 0.80816567
361 0.17316182 -0.39181322 0.15794283 -1.0611483 0.089071535 -0.6555772 -0.3829537 -0.32279682 -0.8739519 0.021182565 -0.1535359 0.15939374 0.030254824 0.78983986 0.105567016
44 -0.0034253036 0.87117773 -0.32279527 -0.22917074 -0.17222092 0.1067745 -0.56437504 0.05669595 -0.6051882 0.29193348 0.6651653 -0.2433365 0.4670778 0.09592654 -0.5929831
257 -0.3880068 -0.09095426 0.9118336 -0.6774512 -0.5714362 -0.6058003 -0.46944755 -0.3359742 -0.38853395 0.25278333 0.71453726 -0.20667219 -0.27084574 0.2530536 0.37279394
17 0.29523963 0.57821536 0.27591982 -0.4329878 -0.1906478 0.41178045 -0.33731866 0.40059558 -0.44814405 0.7401769 0.24242221 -0.45813212 0.62900656 0.37057197 -0.47237912
26 0.45316672 0.87086356 -0.15037844 -0.64998114 -0.31173548 0.29032952 -0.22532201 0.021477807 -0.44205484 0.48075834 0.14216378 -0.43070656 0.8625677 -0.03368541 -0.29461083
229 0.3254902 0.19106992 -0.002956513 -0.34151715 -0.93512946 0.34261736 -0.907808 0.46945107 -0.326756 0.3327353 0.090634555 0.112285204 -0.4877436 -0.21897149 -0.5233885
358 0.22804904 -0.3769632 0.119619794 -1.0710154 0.003941223 -0.76279116 -0.43730408 -0.36445 -0.79372644 0.38050625 -0.18698323 0.26081997 0.10916857 0.7659893 0.12520464
461 -0.6150326 -0.1863638 -0.8722693 -0.009888584 -0.5279616 0.061102893 -0.8551062 -0.35153934 0.08329316 -0.03287422 0.19852623 -0.53433937 -0.110017404 1.0959244 0.13228823
608 -0.2884414 -0.3960811 0.0043076933 -0.84986603 -0.3980125 0.53535587 0.29296306 -0.11501452 0.117578015 -0.87425697 0.29309154 -0.19816777 0.47220662 0.50915 -0.7756071
271 0.23061308 -0.23735459 0.7874945 -0.8008842 0.056326002 -0.46172532 -0.6326933 -0.58083415 0.08263306 0.19206437 0.92200553 -0.084859826 -0.6487059 0.6308617 0.14406647
256 -0.38480204 -0.18863833 0.9021025 -0.7193142 -0.571803 -0.6673028 -0.5179273 -0.31013417 -0.39952776 0.33293608 0.5840058 -0.2433379 -0.18476069 0.20454565 0.2584888
226 0.28721637 0.21210328 -0.056355312 -0.37496534 -0.9059825 0.32296655 -0.9842647 0.36703575 -0.36830992 0.14071389 0.16037622 0.14584348 -0.45811373 -0.35274675 -0.46149614
168 0.88766867 -0.33807853 -0.5891314 -0.6631273 -0.053535774 0.3464581 -0.77608514 0.008328295 -0.40351668 0.23526299 0.34247082 -0.25499424 -0.17991224 -0.38013995 -0.48199221
62 -0.10006819 0.25461248 -0.29004163 -0.5223182 0.45216122 0.6601725 -0.62429684 0.46687436 -0.5678416 0.19043915 0.9716827 0.16472773 0.09120758 0.21420005 -0.026710834
683 -0.22246964 0.061501224 -0.2983602 -0.8194187 -0.80664295 0.31886658 0.48506966 -0.686983 0.061966106 0.38209987 0.2054049 0.12888023 0.006676509 0.1380188 -0.7652992
175 0.6461243 -0.4871719 -0.4276686 -0.7050403 -0.08974565 0.5162591 -0.91649544 0.15543054 -0.25050068 0.32236066 0.23169841 -0.21369757 -0.17107147 -0.36914906 -0.30468884
43 -0.037339725 0.98065716 -0.2993436 -0.18477106 -0.20808695 0.06083498 -0.6515111 0.089531265 -0.51183105 0.14567001 0.71496373 -0.16805896 0.5197028 0.1636002 -0.6175346
59 -0.23661923 0.29684913 -0.2891734 -0.4880409 0.42052945 0.6376683 -0.72548556 0.39276892 -0.50968516 0.37124163 0.9971616 0.089641914 0.100137554 0.12915681 -0.030460743
231 0.2920757 0.120265685 -0.0907091 -0.36103943 -0.8670345 0.34541085 -0.82193625 0.44930777 -0.49155357 0.36439484 0.06382171 0.13793182 -0.48591465 -0.23027308 -0.39538237
763 -0.39232218 -0.16433449 -0.5697745 -1.1252172 -0.2269581 -0.63800156 0.11914961 0.99127877 0.38995957 0.3273496 0.2984595 -0.3556588 0.2556207 0.44245744 -0.1467064
702 -0.8679818 -0.014808239 -0.10545169 -0.9416563 -0.69308203 0.69268245 0.4905128 -0.42458743 -0.16235822 0.4227141 0.22823803 0.27456936 -0.036741912 0.15780489 -0.45597792
266 -0.06038474 -0.22316085 0.6757856 -0.717909 -0.42724693 -0.6908495 -0.60005903 -0.5580645 -0.13385181 0.20780678 0.7443563 -0.11947913 -0.35995537 0.27298805 0.21739146
393 0.09070671 0.26686808 -0.2266343 -1.1169466 -0.04204454 -0.8104768 -0.32667086 -0.5246453 -0.820919 -0.51021755 0.20679104 0.267133 -0.52336586 0.36622593 0.083663955
475 -0.41071823 -0.008788854 -0.5674887 0.13732344 -0.87995553 0.012572982 -0.6645582 -0.013110966 0.09391714 -0.15063125 0.19956581 -0.6639972 -0.16611409 1.2648966 0.26209432
589 -0.36377522 -0.0033658152 0.13662352 -0.6765471 -0.82931 0.2979777 0.50917387 -0.04496723 -0.17648235 -0.98812455 0.6729262 -0.30396175 0.143516 0.17542925 -0.6919351
261 -0.23340878 -0.16031581 0.8269016 -0.64148563 -0.64692944 -0.69306904 -0.54920614 -0.46535772 -0.30748147 0.22833827 0.7427495 -0.06704054 -0.37665462 0.29376668 0.2816314
209 0.087449655 -0.27712774 -0.087284036 -0.49558964 -0.6854002 0.5197805 -1.0470134 0.5437575 -0.47272196 0.015653847 0.0050332705 0.03103279 0.062841736 -0.32950163 -0.353537
23 0.43547302 0.76909584 0.026179494 -0.5895494 -0.26920605 0.41330835 -0.211597 0.1842975 -0.43484285 0.63222826 0.21955787 -0.50762886 0.8417639 0.10170223 -0.27299863
208 0.06781401 -0.3009535 -0.09633485 -0.51832104 -0.6297998 0.47415784 -1.0843257 0.5004102 -0.53166574 0.027522737 0.022228954 0.12514919 0.1402149 -0.31483448 -0.35741624
441 -0.16560107 -0.12453239 -0.5489707 -0.37488168 -0.33323336 0.40638888 -0.66995424 -0.32306314 0.58791023 0.25012752 -0.17019425 -0.5191277 -0.34789366 1.1754104 0.17989558
759 -0.54948616 -0.07258785 -0.6779159 -0.91275567 -0.4804386 -0.78454864 -0.0041873893 0.85596 0.18160981 0.41291893 0.3547513 -0.3206991 0.32585502 0.225848 -0.27582636
42 -0.070009 0.863618 -0.26363945 -0.19592412 -0.2321044 0.08173252 -0.62843764 0.076308444 -0.5394085 0.22253248 0.71599925 -0.15477663 0.5125856 0.112269476 -0.58951586
672 0.036046468 -0.031691507 -0.14463234 -0.51480454 -1.11113 0.20329127 0.42428654 -0.6328197 0.13687304 0.21343522 0.21822567 0.3428066 0.080033146 0.5991265 -0.7841645
236 0.34803817 0.0734176 -0.18214394 -0.35196972 -0.8058245 0.38081142 -0.7787535 0.5298648 -0.6811872 0.25294906 0.034970872 0.16480398 -0.6148857 -0.15295778 -0.3918699
288 -0.09923212 -0.20483336 0.31926155 -1.1543409 -0.08567144 -0.46608907 -0.5347112 -0.77346635 0.08621904 0.18851013 0.310609 -0.08286843 0.658549 0.10262121 0.20124368
221 0.17656943 0.20526434 -0.016445924 -0.5218896 -0.9492824 0.5303527 -1.0385101 0.40054125 -0.17010595 -0.04548122 0.2173963 0.09657103 -0.517259 -0.59293026 -0.282032
540 -0.16515183 -0.13636945 -0.5942177 -0.37404126 -0.4777113 0.40758848 -0.116526425 -0.3292302 -0.49677536 0.13950993 0.009883305 -1.2324028 -0.33092406 0.53675175 0.47922188
37 0.030790802 0.88691366 -0.009739116 -0.34109792 -0.26685604 0.2497935 -0.52867526 0.18414225 -0.37377262 0.37498847 0.5722654 -0.29214993 0.7588059 0.14711015 -0.4778686
294 0.0007144263 -0.03823521 0.46897966 -1.258917 -0.18356606 -0.44794306 -0.6443569 -0.7155731 0.30513862 -0.003043026 0.37071037 0.034353055 0.43232942 0.055164266 0.38390693
202 0.08912759 -0.22586566 -0.23233402 -0.44718555 -0.6914454 0.21849489 -1.1020739 0.21802306 -0.51185083 0.19350497 -0.07981105 0.06259846 0.54161066 -0.2501097 -0.47619483
35 0.18693022 1.014344 -0.01884796 -0.42958525 -0.20945005 0.31611732 -0.51684064 0.21077602 -0.36860865 0.29010585 0.54582566 -0.318781 0.8244074 0.110050574 -0.39781556
173 0.647787 -0.5802112 -0.589081 -0.7107014 -0.07090966 0.4265417 -0.84993076 0.04780087 -0.35812154 0.41235328 0.25010437 -0.1807636 -0.13847445 -0.4120136 -0.42676845
263 -0.16994418 -0.201451 0.79334784 -0.682692 -0.6480414 -0.7269617 -0.51893586 -0.60197186 -0.26674825 0.29037088 0.7021356 -0.15050188 -0.2821393 0.23714307 0.22987953
389 0.08054164 0.23888417 -0.2783554 -1.1138313 -0.22121084 -0.8705771 -0.21223626 -0.54842216 -0.8755496 -0.3390046 0.26276183 0.34348685 -0.39380482 0.21714449 0.15775035
693 -0.4603905 -0.04320779 -0.18354206 -0.99354935 -0.54576194 0.70176566 0.57236254 -0.5530597 -0.028274136 0.31578737 0.30863136 0.24769585 -0.29918137 0.15997373 -0.5153212
114 0.53690916 -0.24345207 -0.3536805 -0.20457023 -0.3917133 0.122036904 -0.21877383 0.49251583 -0.83480036 0.07814372 1.1616187 -0.09356113 0.43421927 0.0032959704 0.13786742
699 -0.6580131 -0.08702812 -0.13912833 -0.9212631 -0.7198537 0.61327934 0.45384696 -0.5101784 -0.10439452 0.46527147 0.2993431 0.24909042 -0.23938799 0.020440698 -0.4763701
14 0.24348283 0.50628257 0.38461524 -0.43185624 -0.05728647 0.5151383 -0.47637394 0.5536406 -0.30950812 0.7553379 0.32136986 -0.33225706 0.481755 0.49078685 -0.41557017
468 -0.52026063 0.03454083 -0.6816699 0.06381022 -0.7380178 -0.00905127 -0.78799105 -0.16468601 0.005952898 -0.14529204 0.048981026 -0.646064 -0.15345548 1.2480673 0.16112028
757 -0.4280592 -0.011143628 -0.71621865 -0.97334796 -0.47821844 -0.7362654 0.13047178 0.79763085 0.19391672 0.35159373 0.3501898 -0.3725628 0.37521133 0.2264025 -0.13208583
463 -0.67240345 -0.11865586 -0.9088564 0.033918116 -0.50467086 -0.03797257 -0.8178414 -0.2806441 -0.003438698 0.015685927 0.20003127 -0.55419916 -0.16004646 1.1711891 0.08267462
552 -0.2207395 -0.2209681 -0.5267861 -0.46948326 -0.31568956 0.5115466 -0.23484662 -0.1452505 -0.5750658 -0.05955369 0.030583767 -1.4293659 -0.2982549 0.47944093 0.58011174
34 0.1789384 0.9195446 0.062791206 -0.4214419 -0.25165758 0.42980197 -0.5124748 0.32377112 -0.32608005 0.29304487 0.4895671 -0.39434713 0.75178784 0.09952559 -0.33147174
400 -0.02944075 0.3107382 -0.10372166 -1.1020794 0.13583052 -0.63132435 -0.43048143 -0.6128505 -0.80111915 -0.20479435 0.01578737 0.06513963 -0.3756474 0.31601614 -0.1576541
658 -0.37313193 -0.54553646 -0.10835948 -0.66647846 -0.7422485 0.47451925 0.64352524 -0.4450975 -0.2492464 0.2971307 0.40046576 0.0860266 0.08086482 0.50514543 -0.62911224
340 0.64593524 0.13817053 0.34079742 -0.85022354 -0.47553274 -0.772328 -0.3928951 -0.3835433 -0.27667186 -0.26675767 -0.07632863 0.20451039 -0.011935056 0.8870735 0.080031
704 -0.8374908 -0.07379611 -0.077519216 -1.0168271 -0.6360686 0.66047746 0.47281647 -0.38277033 -0.12372747 0.3923474 0.17058073 0.34020534 -0.035266247 0.167011 -0.40921277
29 0.31216872 0.9526334 0.052297115 -0.5143115 -0.28884643 0.39778075 -0.36303812 0.14150883 -0.3451427 0.39265934 0.32650355 -0.39760572 0.8624482 0.1180971 -0.34727177
592 -0.45754308 -0.12785093 0.040488236 -0.69191426 -0.787035 0.20675041 0.3814726 -0.16526152 -0.12787265 -0.90411735 0.7065556 -0.25421607 0.24948396 0.07952566 -0.72251636
650 -0.42173964 -0.46156925 -0.354403 -0.5853713 -0.5875913 0.06467541 0.5585038 -0.41462553 -0.569357 0.30716684 0.36197418 -0.025715541 0.37636438 0.45568964 -0.89941704
673 -0.1113684 -0.053174213 -0.18287134 -0.5889372 -1.0123589 0.3260485 0.4371835 -0.5873654 0.13140912 0.29122254 0.23638229 0.31393132 0.039675344 0.5122335 -0.77459884
58 -0.29738376 0.23892413 -0.178909 -0.54017735 0.49844033 0.685717 -0.7530505 0.44327557 -0.53455555 0.31896052 0.98398024 0.06414343 0.100111686 0.15235889 -0.020180754
233 0.32750615 0.16577215 -0.15089527 -0.2825823 -0.89286226 0.3265254 -0.7717739 0.51897186 -0.7549217 0.4021492 0.14574844 0.13313253 -0.5908518 -0.22092338 -0.43988854
338 0.8352693 0.1578181 0.47242695 -0.82273716 -0.59978855 -0.6940831 -0.37455583 -0.41499606 -0.3396949 -0.28424382 -0.13784727 0.19244221 0.077101775 0.90259403 0.059318084
41 -0.027309343 0.931499 -0.21051577 -0.20515041 -0.29079413 0.08332677 -0.61454386 0.12698017 -0.48118144 0.20422308 0.6338018 -0.22664516 0.58956414 0.15522054 -0.61666274
677 -0.26117083 0.07647224 -0.19710904 -0.69779503 -0.8686679 0.2573033 0.4560951 -0.68550587 0.043828547 0.35880965 0.24888293 0.21750012 0.051770892 0.36039692 -0.76958054
437 -0.12742633 0.007803194 -0.7389076 -0.41385427 -0.16370511 0.3735156 -0.6618633 -0.4013718 0.6320308 0.09190967 -0.15771134 -0.6330586 -0.12624384 1.2625614 0.10951632
339 0.77139795 0.07306543 0.4125982 -0.8185514 -0.58322144 -0.8299867 -0.40210417 -0.38118336 -0.30961958 -0.2938203 -0.11378005 0.1961173 0.08508474 0.9630858 0.026817985
703 -0.8235351 -0.053611048 -0.035508394 -0.9227956 -0.69669 0.64418966 0.4290335 -0.38411674 -0.15043125 0.38714176 0.20494767 0.31331238 0.013702724 0.1788014 -0.4264729
679 -0.26113954 0.03517239 -0.2017405 -0.67106926 -0.8393382 0.33720773 0.37775606 -0.6950015 -0.02532589 0.38557598 0.23666652 0.166246 0.05040546 0.24483474 -0.8447779
360 0.21098447 -0.41918895 0.2385712 -1.0429429 0.0772489 -0.71474564 -0.37236983 -0.3291786 -0.8748885 0.1301913 -0.07840087 0.14471412 0.15043263 0.80543566 0.073757336
113 0.50684476 -0.23552598 -0.27348483 -0.17451312 -0.39835703 0.1475592 -0.2830117 0.4769633 -0.85196763 0.11772319 1.1614897 -0.14600533 0.48730606 -0.015272041 0.08538674
270 0.20942608 -0.2250296 0.8418005 -0.8167526 0.009806173 -0.4695402 -0.6384013 -0.48504832 0.06429941 0.22462265 0.91041046 -0.035804123 -0.62491846 0.59548855 0.20838033
613 -0.12138007 -0.51426417 0.11311459 -0.897481 -0.5005067 0.59047604 0.39266905 0.070411086 0.24075018 -0.77666616 0.21473831 -0.23065023 0.43815932 0.5791228 -0.7756622
359 0.21636231 -0.36471415 0.1383328 -1.0458188 0.05949374 -0.72007823 -0.40899464 -0.36142904 -0.90606385 0.25882187 -0.1468345 0.18091553 0.18785363 0.74821115 0.13180985
167 0.83071846 -0.33333856 -0.52481246 -0.62964046 -0.11430225 0.32580897 -0.7149782 0.06721769 -0.3048466 0.16654529 0.2748572 -0.16689712 -0.20953289 -0.27637267 -0.5461046
235 0.4164205 0.16527897 -0.19415405 -0.2593968 -0.9269548 0.18889926 -0.63934124 0.47880733 -0.8652658 0.5337123 0.13229494 0.079978205 -0.5508299 -0.17492965 -0.4239856
753 -0.22789341 -0.04545151 -0.61172897 -1.1368995 -0.49100298 -0.6419535 0.21229434 0.9364133 0.36223552 0.2035388 0.33138734 -0.36114904 0.3819041 0.18111227 -0.02124962
160 0.7680776 -0.20414293 -0.41914138 -0.37979892 -0.39308432 0.16702797 -0.8085078 0.10539907 -0.17772087 0.018901885 0.39165673 -0.2565369 0.041264676 -0.19296408 -0.7144961
32 0.24394846 1.0321006 0.0023364995 -0.47685066 -0.3274674 0.2248834 -0.34965095 0.14843544 -0.39991754 0.3258442 0.40532538 -0.38947332 0.8117373 0.06008005 -0.4028364
764 -0.34706333 -0.25432006 -0.51927394 -1.0779732 -0.23940167 -0.48604795 0.17696494 1.1152182 0.3781543 0.18370166 0.37704897 -0.40716448 0.16168843 0.44206962 -0.08404175
30 0.25989524 0.90364635 0.101272225 -0.48240077 -0.24736774 0.46713263 -0.45964554 0.3101261 -0.36684582 0.45163503 0.3314842 -0.3910584 0.84023863 0.14908932 -0.3034133
769 -0.3141738 -0.32853758 -0.3652968 -1.075608 -0.30488703 -0.46112347 0.24602395 1.2732713 0.3425374 0.2678171 0.40426254 -0.453337 0.104566954 0.5298184 -0.009875955
57 -0.29459882 0.28705072 -0.16051865 -0.54273695 0.45867866 0.709339 -0.6748628 0.4833678 -0.51607 0.35722888 1.0326226 0.042971097 0.091207914 0.114257395 -0.017341794
668 0.19782807 -0.17703511 -0.12580024 -0.47504652 -1.1888659 0.139836 0.4594348 -0.578742 0.03309333 0.22652806 0.21652482 0.44244877 0.10357705 0.66478366 -0.82710075
585 -0.3517948 0.18247269 0.2423069 -0.66462153 -0.87821907 0.26413465 0.54321563 0.0020778058 -0.19574845 -1.0018884 0.6215869 -0.2584101 0.14745013 0.30595028 -0.6760548
92 0.5480891 0.23754726 -0.52266663 -0.31140265 -0.2711984 0.53604066 -0.44517532 0.19917491 -0.22233291 0.24845402 1.1118448 0.5380273 0.27117565 0.23766889 0.24750602
760 -0.527414 -0.06372955 -0.7039027 -0.90512604 -0.45615828 -0.82191205 -0.08201996 0.82286584 0.20700411 0.40881044 0.3400267 -0.29301846 0.40675822 0.23996006 -0.32482418
36 0.07582995 0.9154935 -0.06454773 -0.37654546 -0.23936561 0.28384206 -0.5216144 0.20733607 -0.36130583 0.2536788 0.506771 -0.3443576 0.77090335 0.11786799 -0.44448134
387 0.0372722 0.3200971 -0.19477916 -1.014854 -0.29531568 -0.9086342 -0.29132286 -0.6156232 -0.8866909 -0.23939826 0.22750317 0.3271279 -0.29238275 0.26671618 0.1242669
643 -0.15411444 -0.5292334 -0.13803416 -0.5516036 -0.36943305 0.33470583 0.63181406 -0.23972128 -0.29576543 0.0012770608 0.50664556 0.022730613 -0.39440525 0.9270631 -1.072148
460 -0.67765725 -0.16635711 -0.8121173 -0.10352748 -0.46588674 0.14540431 -0.8610902 -0.32782054 0.20075686 -0.09790519 0.20210364 -0.58621377 -0.13638008 1.0593553 0.20562537
117 0.56305397 -0.28156677 -0.3243796 -0.1570258 -0.31814027 0.24293375 -0.29826343 0.51664984 -0.6662153 0.045605145 1.1462432 -0.05228 0.34142083 0.14478664 -0.050954144
770 -0.34601444 -0.35018066 -0.38173974 -1.0852525 -0.3092225 -0.5126647 0.21760646 1.227794 0.3510126 0.368604 0.38485783 -0.40306276 0.14379607 0.5058737 -0.058324866
357 0.25176474 -0.34002778 0.2040532 -1.1324189 0.008187728 -0.72366583 -0.33804157 -0.3337896 -0.7800481 0.3159881 -0.17185509 0.26255044 0.048636574 0.782671 0.11485747
172 0.6581267 -0.61505914 -0.5800522 -0.7348643 -0.09038694 0.41428393 -0.83851856 0.011989448 -0.32559657 0.44230312 0.28765902 -0.12501606 -0.13362892 -0.43341136 -0.4360785
45 -0.03678763 0.75604504 -0.28881302 -0.26132047 -0.12801656 0.12522683 -0.5268826 0.099332064 -0.55607283 0.40727156 0.7691088 -0.16553669 0.44723836 0.094265625 -0.6032985
369 -0.19359776 -0.04931715 0.23626302 -1.1675364 -0.06983621 -0.5925378 -0.44839206 0.012047856 -0.80809027 -0.4642904 -0.24639858 0.40512797 -0.18340133 0.8419783 0.20441917
465 -0.7021393 -0.15592578 -0.9211975 -0.023350824 -0.609229 0.018671814 -0.82459563 -0.2561443 -0.044835053 -0.17131169 0.09109927 -0.49618763 -0.19147779 1.1686606 0.1506128
245 0.22382621 -0.025381858 -0.054673616 -0.3528237 -0.60925573 0.50423217 -0.7712332 0.7341007 -0.70641744 0.32518736 -0.056630287 0.11324646 -0.6573445 0.08335894 -0.4758583
553 -0.32919782 -0.21966673 -0.44537717 -0.43471757 -0.3185436 0.43550867 -0.3015782 -0.09663148 -0.55833375 0.009106499 0.04105085 -1.4564835 -0.29756984 0.48364922 0.5431941
51 -0.10507885 0.47908273 -0.3318576 -0.36723822 0.18818681 0.44347325 -0.6340772 0.27878538 -0.5097545 0.39408708 0.9441417 0.006909064 0.07620535 0.061552513 -0.3261121
110 0.3893196 -0.08250888 -0.35065928 -0.18003318 -0.46246037 0.10835061 -0.30249432 0.31124175 -0.74175847 0.24444586 0.98929954 0.018247988 0.5690134 0.020470528 0.007165757
255 -0.38128725 -0.18712963 0.8984295 -0.7448984 -0.5260592 -0.65397364 -0.52794373 -0.3174989 -0.4137716 0.29474372 0.5980663 -0.2702793 -0.15876555 0.14819947 0.23864768
93 0.6096962 0.23012727 -0.4408038 -0.251491 -0.25306374 0.44961435 -0.42059627 0.07608174 -0.25723803 0.21122819 1.1419064 0.5258016 0.23116533 0.29029435 0.17357682
244 0.26464018 -0.043410394 -0.16444825 -0.39858124 -0.64552325 0.40446657 -0.8001436 0.8139125 -0.7178671 0.27677432 -0.10620663 0.1466457 -0.7712774 0.043412797 -0.46296477
600 -0.5352326 -0.25115862 0.18301418 -0.7734457 -0.30260926 0.3707117 0.09443609 -0.1583425 0.19806312 -1.0691963 0.6175401 -0.38783574 0.014293995 0.44793573 -1.0337222
46 -0.026726248 0.68734765 -0.2983976 -0.27135494 -0.025928734 0.17227517 -0.5640805 0.12354613 -0.50200945 0.39691523 0.7760718 -0.16309221 0.42157772 0.139229 -0.49687803
385 0.062174864 0.37399426 -0.07701801 -1.0335382 -0.36399993 -0.83322597 -0.2784165 -0.49183312 -0.9215878 -0.3002748 0.17104852 0.35972708 -0.24996156 0.31900442 0.21945204
749 -0.03481262 0.094531015 -0.8069246 -0.98916376 -0.66873425 -0.69620866 0.18479545 0.5289458 0.22947735 0.37978268 0.21441114 -0.30709952 0.6574163 0.050553877 -0.10257565
262 -0.16053675 -0.16430643 0.80018747 -0.63407725 -0.6689226 -0.7068459 -0.5069224 -0.5312791 -0.25818956 0.31752232 0.73786175 -0.063816965 -0.33410853 0.2745632 0.2246369
11 0.24083921 0.41860524 0.30264348 -0.4106437 -0.13691105 0.34021473 -0.43858773 0.479518 -0.42655462 0.705706 0.15719853 -0.37573308 0.7322511 0.55377394 -0.61473286
651 -0.35062948 -0.55368084 -0.36097476 -0.5418087 -0.56155854 0.08005438 0.4434803 -0.47869626 -0.5321543 0.26498094 0.43176848 0.029429723 0.46054444 0.4364575 -0.91340864
642 -0.18513513 -0.48229587 -0.16772844 -0.57986313 -0.33565906 0.31357017 0.64671636 -0.22497979 -0.295928 -0.026240451 0.5310916 -0.09268134 -0.34844393 0.8687559 -1.0308977
90 0.5711373 0.23958753 -0.46480733 -0.3129456 -0.29796302 0.5560654 -0.4801762 0.20726997 -0.26253837 0.26607615 1.0050957 0.5657958 0.2953307 0.24303252 0.22458714
407 -0.0033140979 0.44303468 -0.09084027 -1.1744444 0.25738853 -0.6804343 -0.54166895 -0.6044325 -0.58497036 -0.066223875 -0.12520604 -0.09063212 -0.50432503 0.36970323 -0.38919267
628 0.09413313 -0.3636101 -0.1826188 -0.93103987 -0.42646414 0.5405348 0.8713164 -0.42675164 -0.07890323 -0.10891023 0.48216885 -0.2005285 0.21476102 0.3744132 -0.6954698
551 -0.25813654 -0.2158715 -0.46203345 -0.4085389 -0.26878607 0.5612842 -0.293739 -0.18842891 -0.5945899 -0.034133833 0.05755484 -1.3767923 -0.2966889 0.49522418 0.5091951
180 0.6896402 -0.4479882 -0.4057609 -0.81572837 -0.24383534 0.53435165 -0.8461016 0.12545635 -0.25673726 0.35658658 0.094409 -0.12166871 0.0036475838 -0.4820591 -0.2786041
676 -0.18108188 0.04505955 -0.22285701 -0.64173955 -0.89278007 0.2308288 0.36180452 -0.6107017 0.06918082 0.34154233 0.276093 0.30869254 0.096870914 0.36789846 -0.86060894
94 0.54357076 0.14818843 -0.3884576 -0.32282734 -0.23309784 0.5657038 -0.4681952 0.19763903 -0.21748085 0.1877434 1.1667414 0.49287233 0.14077978 0.15434426 0.19020236
179 0.6554427 -0.510909 -0.4124428 -0.81870455 -0.22948217 0.5631499 -0.77847254 0.14310403 -0.2045664 0.23783322 0.052745506 -0.090804234 -0.05556306 -0.42353633 -0.30056652
6 0.23152162 0.43256578 0.29014665 -0.31437257 -0.17270058 0.4539605 -0.47429526 0.50237525 -0.49294958 0.8312279 0.21043159 -0.30992883 0.5655554 0.57104546 -0.41916338
478 -0.36474127 0.027179554 -0.46084815 0.123948 -0.9719446 0.19167072 -0.60413116 -0.070727736 0.03894177 -0.1855737 0.17408653 -0.6512465 -0.17441499 1.3462671 0.44568712
56 -0.28011978 0.32688925 -0.2329748 -0.5166538 0.3968101 0.6361997 -0.68448293 0.43263486 -0.41330013 0.3777806 0.9824158 0.06964247 0.09197713 0.11518464 -0.080906555
754 -0.28266343 -0.053378172 -0.5997549 -1.1260829 -0.4627866 -0.5695366 0.20006448 1.0131794 0.34794697 0.29687825 0.30309942 -0.33624965 0.32725668 0.25522488 0.034843296
65 0.09974381 0.28078297 -0.3172953 -0.5271816 0.39552838 0.69301754 -0.5776006 0.5046981 -0.5546372 0.06379634 0.942685 0.24860497 0.0132496795 0.24526717 -0.046346277
380 -0.1394859 0.29452348 0.044120297 -1.1335044 -0.3492593 -0.7409341 -0.41001302 -0.23343995 -0.8044277 -0.38285387 0.0043083285 0.5981025 -0.27485713 0.45987803 0.21390392
758 -0.45921928 -0.06457055 -0.6554984 -0.93722767 -0.48115003 -0.72836894 0.035101537 0.86030626 0.22150685 0.40450236 0.30315244 -0.39042547 0.43118393 0.25733724 -0.2448427
200 0.15905058 -0.19105124 -0.38559482 -0.6540188 -0.62966985 0.39992908 -1.0354116 0.35341984 -0.49692687 -0.066359535 -0.14150535 0.17694914 0.28985897 -0.43692732 -0.28169104
274 0.19913112 -0.27590105 0.76584065 -0.8354887 -0.09368467 -0.6212359 -0.63233733 -0.50712043 0.080802895 0.14977117 0.79006004 -0.1008398 -0.40681946 0.5227899 0.16430311
593 -0.4016093 -0.15896751 0.10839996 -0.72734225 -0.7105869 0.31972373 0.3404058 -0.1377563 -0.034948245 -1.0754223 0.65016377 -0.23063688 0.17624499 0.19921128 -0.7647352
705 -0.83523136 -0.10815039 0.00562524 -1.0681074 -0.6260244 0.83417195 0.53892314 -0.21719831 -0.117695354 0.35534352 0.10138751 0.31463858 -0.1250929 0.253857 -0.34857062
356 0.22010487 -0.20098358 0.24774261 -1.0434837 -0.11098627 -0.6369799 -0.2925075 -0.4265813 -0.8225666 0.31595194 -0.17226435 0.35435867 -0.0501641 0.8803116 0.20505607
384 -0.044736564 0.35512435 -0.057810113 -1.0819842 -0.354995 -0.7951847 -0.26572528 -0.4397868 -0.9249656 -0.34383267 0.17097436 0.47272235 -0.2717451 0.34208906 0.21096174
601 -0.5191077 -0.21562105 0.15263517 -0.8406518 -0.29802954 0.36117175 0.18475409 -0.1326249 0.16779187 -1.0626756 0.61118406 -0.33524412 0.015904866 0.46735314 -1.0437826
22 0.37981924 0.792445 0.11722608 -0.55672395 -0.29856473 0.39447248 -0.23445415 0.19714189 -0.49840412 0.671092 0.2167035 -0.531557 0.8439587 0.1180348 -0.23209721
48 -0.08707604 0.5317989 -0.13266537 -0.38024643 0.18461229 0.5963546 -0.60065246 0.46415323 -0.52025753 0.34107727 0.8745851 -0.045857463 0.13912731 0.16234754 -0.22378944
701 -0.7741478 -0.010452597 -0.100308985 -0.926646 -0.6961192 0.668012 0.463986 -0.3960369 -0.18160899 0.34591353 0.20984666 0.24734311 -0.17516816 0.07930458 -0.43270028
111 0.45819008 -0.12765014 -0.30534267 -0.17431115 -0.47597942 0.09491091 -0.24330811 0.33718756 -0.79461294 0.17334197 1.0609846 -0.028282017 0.55835295 0.013798082 0.026296444
408 -0.047817234 0.43067554 -0.05548334 -1.19603 0.25886017 -0.69570714 -0.53055304 -0.6197283 -0.6550668 -0.11517294 -0.18216704 -0.1513917 -0.3834296 0.32097915 -0.44157833
435 -0.07926996 0.130503 -0.6977347 -0.35107937 -0.15534002 0.3178745 -0.7159599 -0.3402904 0.5275172 0.054853473 -0.24119224 -0.5641437 -0.118637264 1.2270292 -0.0651716
210 0.15660349 -0.2313521 -0.071070515 -0.55419636 -0.7096118 0.47060028 -1.0777851 0.5989597 -0.5163403 -0.06343657 -0.06833388 0.21712765 0.019352902 -0.28199112 -0.31191987
648 -0.26272848 -0.45177168 -0.3368424 -0.6202502 -0.48061255 0.14312582 0.6064828 -0.3899314 -0.43509603 0.18421361 0.3193141 -0.09184017 0.115620404 0.5612771 -0.8867643
205 0.016713185 -0.34279665 -0.24597554 -0.42034677 -0.71209043 0.24365547 -1.0288118 0.3128192 -0.5512936 0.18848534 -0.005762342 0.10120066 0.53135353 -0.2539702 -0.43151104
252 -0.46412638 -0.2728992 0.88173634 -0.7764881 -0.35899067 -0.6273579 -0.52893054 -0.27657303 -0.32418495 0.33946827 0.4490076 -0.446633 -0.052908126 0.18300813 0.032709114
467 -0.6369571 -0.05736596 -0.7401987 0.03877595 -0.67046595 0.049354594 -0.79537624 -0.12254893 0.007832708 -0.2888535 0.1151121 -0.6022665 -0.14548123 1.260629 0.16326901
438 -0.13854896 -0.07627865 -0.70921427 -0.32696018 -0.282207 0.38156736 -0.6352778 -0.38843152 0.4869779 0.08740485 -0.2092258 -0.5759122 -0.20403396 1.2651466 0.030301893
224 0.26273128 0.23215967 -0.037198633 -0.43965203 -0.9417625 0.47679982 -0.98143756 0.3626928 -0.24771765 0.005406492 0.15424277 0.1479631 -0.41815725 -0.4355753 -0.3746907
60 -0.22364634 0.28273654 -0.2978032 -0.53029954 0.4897934 0.7441714 -0.7086802 0.50927436 -0.53505546 0.24215086 0.96637064 0.13221179 0.046987277 0.18915859 -0.045790162
260 -0.18945166 -0.097611 0.92932445 -0.7115785 -0.53592503 -0.57686484 -0.563605 -0.38368583 -0.19686708 0.16761395 0.73045796 -0.06444106 -0.467728 0.34984162 0.35414544
85 0.4794412 0.2937417 -0.58611566 -0.362187 -0.14892268 0.5708403 -0.5571445 0.22391415 -0.2396322 0.12559523 0.94036853 0.7528642 0.20051429 0.3639907 0.12982026
116 0.50671023 -0.31378207 -0.30511287 -0.12358945 -0.33119896 0.2592024 -0.3267574 0.5323415 -0.77043426 0.00011764498 1.1813687 -0.06049941 0.4161464 0.16335648 0.049761362
12 0.23868126 0.45691046 0.37086588 -0.41382152 -0.1532865 0.40517426 -0.4046178 0.47000095 -0.37873068 0.8019902 0.2539841 -0.3138993 0.6265663 0.5249999 -0.5133605
684 -0.31744632 -0.03531865 -0.19598626 -0.940623 -0.63146746 0.67884696 0.6364198 -0.5493489 0.122998394 0.2702405 0.33498618 0.25783113 -0.24299708 0.29058978 -0.5690592
355 0.28959867 -0.13856663 0.23356801 -1.0728924 -0.07608013 -0.58807874 -0.29532987 -0.31648064 -0.81195825 0.2508107 -0.17000136 0.41993085 -0.17769158 0.9209134 0.29263777
761 -0.5289478 -0.05691456 -0.7026473 -0.9086454 -0.48968187 -0.8103787 -0.066168875 0.7607616 0.17360103 0.4569085 0.2600311 -0.29098502 0.42943925 0.2293925 -0.2980909
165 0.89736027 -0.34630752 -0.49831617 -0.6018426 -0.09764443 0.4364761 -0.77331954 0.15054704 -0.21398675 -0.027659968 0.32998288 -0.27028316 -0.27560154 -0.25486726 -0.4731513
184 0.706052 -0.3031465 -0.35644844 -0.79111993 -0.36202633 0.61494035 -0.8666028 0.11382348 -0.32649612 0.15237772 0.017071068 0.0276396 -0.05723879 -0.45876816 -0.1075835
555 -0.2575429 -0.26155126 -0.42423534 -0.4487528 -0.3031369 0.46227103 -0.22771749 -0.17276922 -0.61400265 0.0049534068 -0.014658002 -1.4418533 -0.33130696 0.5106733 0.4593737
63 -0.086518474 0.33015135 -0.3664262 -0.5042373 0.33956864 0.6397442 -0.6117151 0.49341762 -0.49273303 0.17226267 0.94088805 0.19978222 0.11032325 0.17928152 -0.042995773
162 0.7753125 -0.29408267 -0.4214568 -0.48816764 -0.21837544 0.33542433 -0.7789636 0.24120544 -0.19677918 -0.056545503 0.3825337 -0.19242264 -0.13189454 -0.17203797 -0.56414205
289 -0.12004696 -0.16441129 0.41596624 -1.1300114 -0.13670503 -0.4003444 -0.5229866 -0.728774 0.0070398785 0.1373684 0.3148706 -0.07116284 0.62916 0.08055225 0.27426305
176 0.71671444 -0.53911716 -0.4005083 -0.7859985 -0.05640729 0.6138924 -0.88466257 0.2181406 -0.20711629 0.3193074 0.17229028 -0.16258012 -0.18541415 -0.34910974 -0.3108414
524 -0.094411746 0.2103059 -0.7180518 -0.24192877 -0.7214601 0.3456393 -0.20723028 -0.54003316 -0.2245108 -0.011865226 0.17281422 -1.2125661 -0.42234725 0.5645764 0.5156552
399 0.02418735 0.3583702 -0.11125399 -1.1005142 0.086868815 -0.6769775 -0.40744582 -0.5860974 -0.7686281 -0.35324928 0.06302047 0.10837531 -0.37007475 0.33465642 -0.15507549
7 0.2855676 0.40815297 0.33460385 -0.3507058 -0.19381182 0.46831268 -0.46136385 0.6241216 -0.45894825 0.79000026 0.22655675 -0.2804387 0.5951209 0.5669512 -0.40006176
207 0.05218043 -0.33965543 -0.2212281 -0.42193362 -0.69755346 0.24789318 -1.1148925 0.41485122 -0.5495031 0.12573154 0.044413663 0.18844712 0.3578195 -0.2464397 -0.41013265
680 -0.31034148 0.084584594 -0.3238357 -0.6757548 -0.82122725 0.16678579 0.352582 -0.73922163 0.024460344 0.49754855 0.18582901 0.070057474 0.15108392 0.24311018 -0.86448497
666 -0.048735324 -0.28866792 -0.10669782 -0.6262436 -1.0107142 0.38190344 0.56362665 -0.5317116 -0.13003412 0.22528319 0.26461288 0.32865998 -0.005716712 0.4631318 -0.75735384
386 0.03313298 0.341296 -0.13967586 -1.0134302 -0.34022123 -0.8396254 -0.22081482 -0.51037574 -0.953961 -0.2871285 0.17558794 0.34908465 -0.24916002 0.3174948 0.21844198
610 -0.25183254 -0.53784686 -0.018978102 -0.9205865 -0.38243425 0.5816617 0.31239766 -0.049291976 0.13519955 -0.87093055 0.23311545 -0.10504274 0.52312905 0.585079 -0.75160015
405 -0.024512073 0.39188167 -0.07608626 -1.2398171 0.26286554 -0.6268536 -0.44706511 -0.5240115 -0.6529788 -0.15615176 -0.14374456 0.012788056 -0.558685 0.4382883 -0.2706593
302 0.018947134 -0.083404645 0.7321465 -1.2036878 -0.23149318 -0.3053122 -0.45525563 -0.4028391 0.16744544 -0.18870863 0.44391814 0.09413285 0.076248646 0.30383423 0.6311648
251 -0.5152416 -0.23114322 0.9373922 -0.80087405 -0.34502622 -0.54367924 -0.5845397 -0.23208515 -0.3440003 0.3559341 0.41301325 -0.46230564 -0.07605021 0.14675155 0.02340969
491 -0.38766265 0.063177325 -0.60340816 -0.15058704 -0.95517087 0.41129652 -0.42394465 -0.25612953 -0.13641429 0.059619628 -0.023144523 -0.6424158 0.08933679 0.91687953 0.76800454
590 -0.33242005 -0.09719123 0.020511879 -0.7017723 -0.8088173 0.15272292 0.43992475 -0.17591543 -0.1839254 -0.87631726 0.65626425 -0.23862843 0.27477685 0.07012163 -0.6903495
584 -0.45607126 0.068813615 0.2554586 -0.6461514 -0.9409134 0.17876661 0.5007625 0.02142232 -0.15046102 -0.9625596 0.6493678 -0.24790445 0.17176521 0.29581213 -0.67553097
171 0.6758781 -0.53003824 -0.5737797 -0.73542255 -0.034221515 0.44305187 -0.78630537 0.07095036 -0.32427675 0.27329814 0.2691829 -0.17149231 -0.22165361 -0.41289237 -0.4147107
9 0.24176985 0.48681 0.21358174 -0.3653906 -0.18128921 0.29802212 -0.47744095 0.47978362 -0.46854144 0.6593306 0.031875357 -0.30010754 0.6691936 0.62876433 -0.6652721
290 -0.107067265 -0.15087372 0.45960617 -1.1575041 -0.122595884 -0.45690882 -0.53061426 -0.729292 0.052454162 0.18010522 0.30322507 -0.17831767 0.59612685 0.12450032 0.32633185
490 -0.34320638 0.050555233 -0.5851321 -0.1327943 -1.0272195 0.38545185 -0.42462575 -0.26223713 -0.10173685 0.027218716 -0.048338614 -0.6978563 0.022659525 0.94625735 0.7482963
554 -0.37502214 -0.26090306 -0.3989048 -0.44955203 -0.39728162 0.53341407 -0.25546253 -0.15931088 -0.541018 -0.009318499 0.0425417 -1.4755263 -0.33128336 0.45795053 0.5204875
671 0.104664005 0.0046167425 -0.115725696 -0.4805532 -1.2407142 0.25157863 0.4421881 -0.5485341 0.12805045 0.23929842 0.16361874 0.41732347 0.016062738 0.6514048 -0.8138034
291 -0.1075908 -0.14477773 0.38944253 -1.0806404 -0.15756957 -0.50759673 -0.59774363 -0.7398313 0.11795522 0.15382403 0.3580775 -0.10241215 0.6745524 0.13964482 0.20928836
690 -0.31550208 -0.010729218 -0.20563832 -0.9722479 -0.57525575 0.7166097 0.5415068 -0.7176015 0.13804501 0.24783137 0.33480942 0.21200779 -0.36890662 0.19191547 -0.56656295
669 0.15623003 -0.10637246 -0.095324725 -0.45481956 -1.2265924 0.21962294 0.48600185 -0.5261275 0.061258357 0.22220947 0.2823759 0.4349758 -0.017796366 0.6247445 -0.72179866
655 -0.3822864 -0.5835163 -0.16968599 -0.66717803 -0.6646109 0.47035882 0.5657616 -0.36733106 -0.33803493 0.19049503 0.2757105 0.10626847 -0.013534131 0.5213774 -0.7271557
214 0.28652367 -0.15257731 -0.031515844 -0.615579 -0.77167577 0.6292303 -1.0149906 0.6856621 -0.3484889 -0.15138727 -0.086942054 0.20251346 -0.29057065 -0.27527624 -0.20257929
469 -0.5037796 -0.014938346 -0.600534 0.12272641 -0.8329978 -0.04276805 -0.68262714 -0.11377718 -0.0113064 -0.07651531 0.09520137 -0.64859766 -0.037357558 1.2853965 0.1377271
557 -0.2836809 -0.28042582 -0.37109318 -0.45258284 -0.3286242 0.49108645 -0.25829625 -0.16657785 -0.6067801 -0.0059924675 -0.031823292 -1.4289804 -0.3432672 0.46709853 0.45612243
153 0.8046001 -0.14201206 -0.3285826 -0.15914436 -0.43212932 -0.11341269 -0.7729904 0.12593411 -0.16161482 -0.08063447 0.43776125 -0.42606252 0.27482444 0.13766283 -0.9048866
531 0.14055343 0.28449038 -0.7125333 -0.21690157 -0.64012766 0.42850733 -0.082573906 -0.5120369 -0.30880556 0.02233093 0.20852837 -1.1147212 -0.5719406 0.6917088 0.5419143
446 -0.3039268 -0.05961639 -0.6128996 -0.28722703 -0.34750858 0.4470595 -0.7678556 -0.24856363 0.5059783 0.033131775 -0.06707956 -0.5247808 -0.3410833 1.1680828 0.24453706
409 0.023671946 0.4051913 -0.009756329 -1.1481097 0.23026028 -0.6560983 -0.46839055 -0.5814843 -0.63170594 -0.104940124 -0.11799347 -0.116543084 -0.51114416 0.37144056 -0.37916067
700 -0.7679453 -0.038106374 -0.11550244 -0.9456853 -0.7154678 0.7208624 0.525191 -0.37547094 -0.14787053 0.42170218 0.2799573 0.27567548 -0.22664459 0.08766606 -0.39594832
641 -0.10201334 -0.478754 -0.123679884 -0.63949764 -0.31171668 0.38407004 0.6854744 -0.16572498 -0.29753718 -0.022996932 0.47740188 0.003935268 -0.4024949 0.88333005 -1.0468894
656 -0.34185505 -0.6398645 -0.04396624 -0.6161288 -0.7031328 0.51171046 0.6166264 -0.34574214 -0.2152139 0.24983373 0.42308742 0.046606258 -0.0011714518 0.5959964 -0.62255937
223 0.23200643 0.18943562 0.0018875467 -0.48322588 -0.9148827 0.5320622 -1.0523881 0.42364922 -0.27061427 0.009861233 0.20105645 0.1273593 -0.47467357 -0.51166457 -0.33035445
246 0.31942964 0.032673705 -0.10981211 -0.34193736 -0.6136361 0.4741581 -0.7433542 0.7309542 -0.74512964 0.29416636 -0.028950652 0.061640978 -0.66557914 0.049648788 -0.42496055
362 0.17647827 -0.4789795 0.17593868 -1.16877 0.09944498 -0.616108 -0.31248033 -0.20403458 -0.8629895 -0.13469571 -0.13222207 0.29659063 -0.09747032 0.8737682 0.21382393
477 -0.41292325 -0.018004473 -0.43359783 0.13677932 -0.96891725 0.11882288 -0.6413033 -0.020109681 0.11606597 -0.25827423 0.22297584 -0.7004998 -0.16837654 1.3873788 0.38371772
157 0.86067116 -0.23616865 -0.3556712 -0.2777241 -0.3695635 0.09400483 -0.77458304 0.1977215 -0.21377376 -0.000553534 0.4328895 -0.30904287 0.066152945 -0.03628359 -0.76603925
25 0.42911866 0.84487665 -0.15741234 -0.6138946 -0.30134967 0.22804725 -0.1601045 -0.04412895 -0.4862604 0.54202235 0.20293365 -0.43850756 0.84583426 0.007595327 -0.32751578
225 0.28521717 0.21173535 -0.12081342 -0.45312148 -0.8937243 0.41067502 -0.9479366 0.4121683 -0.30476817 0.0066316184 0.157121 0.21100625 -0.45322308 -0.3806245 -0.38573882
87 0.51278937 0.22519526 -0.502705 -0.359167 -0.21776406 0.59262 -0.48113853 0.2369761 -0.29557073 0.18280984 0.9793826 0.7245544 0.33784088 0.326814 0.18822673
166 0.9165068 -0.3516603 -0.46184292 -0.639859 -0.07646845 0.4441307 -0.71153 0.20841427 -0.28255823 -0.017037883 0.32258856 -0.23856525 -0.24818063 -0.24816526 -0.47977963
689 -0.33208904 0.049443696 -0.13564403 -1.0174128 -0.5675101 0.8483254 0.5214075 -0.6587084 0.18083408 0.25724474 0.32029694 0.28660318 -0.44828254 0.20212159 -0.573011
746 -0.0055415425 0.10943314 -0.85878366 -0.99704874 -0.6136304 -0.7381445 0.21793284 0.49354178 0.19588184 0.36193505 0.24495487 -0.2958145 0.5810812 0.02443388 -0.12125532
109 0.47045258 -0.04960626 -0.37430614 -0.20303082 -0.4054668 0.1999189 -0.32059193 0.31161946 -0.62547845 0.11229394 1.0483145 0.11689248 0.48849642 0.070609614 0.00808182
660 -0.13585709 -0.5466073 -0.054905437 -0.6542448 -0.728424 0.51743025 0.61993235 -0.30433732 -0.06509738 0.10963756 0.33534 0.19884777 -0.17946501 0.6871808 -0.67184836
464 -0.67163515 -0.12477343 -0.9613814 -0.02247254 -0.5315778 -0.035064667 -0.84199345 -0.2921423 0.024356876 -0.14445801 0.17988297 -0.47619233 -0.15798225 1.1582687 0.1613549
10 0.24724093 0.4785432 0.23903386 -0.3882755 -0.17741613 0.28014132 -0.46399546 0.5221476 -0.40539962 0.69598544 0.11873827 -0.29748508 0.7306259 0.62452745 -0.7028153
670 0.12180268 -0.087400414 -0.13515244 -0.49352306 -1.2031245 0.31891215 0.5272939 -0.56364775 0.057986587 0.20232685 0.25347194 0.417413 -0.044963792 0.6140636 -0.72172374
476 -0.42462867 0.046559904 -0.50872976 0.10270706 -0.88371885 0.10081288 -0.63275415 0.029823156 0.05211538 -0.21046315 0.16658755 -0.63990223 -0.1366746 1.3715194 0.40238371
756 -0.40059176 0.030643381 -0.6165417 -1.0673853 -0.4776449 -0.64287305 0.14719522 0.96183604 0.27000818 0.3296861 0.31885803 -0.32897747 0.34428066 0.20952757 -0.13973394
599 -0.49988398 -0.24128588 0.16719396 -0.7840701 -0.3002026 0.47958604 0.124930486 -0.10832468 0.20982698 -1.0741944 0.65714556 -0.37645864 0.08317519 0.43339363 -0.95651674
528 0.02376425 0.236128 -0.64210624 -0.19790284 -0.70569366 0.43879604 -0.24266389 -0.5508517 -0.29766732 -0.07096221 0.1292082 -1.0937375 -0.47996306 0.6426915 0.5452003
550 -0.22397897 -0.23386274 -0.47402725 -0.45740968 -0.29552102 0.56442136 -0.21196629 -0.16762422 -0.6028873 -0.011369794 0.0697431 -1.3983537 -0.25303188 0.4920628 0.6191346
470 -0.542521 0.062177785 -0.55372113 0.13353835 -0.8661397 0.0018675678 -0.65392876 -0.06408907 -0.03911617 -0.062169004 0.061276715 -0.6808468 -0.03682452 1.324628 0.18631396
439 -0.16983965 -0.053772423 -0.67154527 -0.3020947 -0.31393155 0.4263215 -0.6572159 -0.344466 0.55239934 0.18632221 -0.122463554 -0.5797796 -0.21445408 1.3085413 0.19358668
174 0.62384194 -0.5577746 -0.5332913 -0.71278 -0.0400191 0.44399917 -0.8527402 0.06854802 -0.35667807 0.33758205 0.31906006 -0.17030604 -0.12823682 -0.43525925 -0.3696318
522 -0.2354029 0.17022523 -0.701527 -0.26563653 -0.7696924 0.3630056 -0.32005286 -0.51646054 -0.20035619 -0.04503662 0.14277378 -1.1598794 -0.4203289 0.50118613 0.5742847
539 -0.023322498 -0.09439646 -0.56496745 -0.3355239 -0.4974084 0.45261604 -0.16237581 -0.37050235 -0.52558887 0.10634893 0.07069911 -1.2375896 -0.41025862 0.6565969 0.6541226
220 0.19995947 0.14915644 -0.050566915 -0.56553304 -0.82285964 0.55284935 -0.97440046 0.47042587 -0.27576268 -0.130751 0.12588207 0.14950663 -0.46831775 -0.4868139 -0.25365087
89 0.5299666 0.21282278 -0.53645086 -0.32394496 -0.2954794 0.5232841 -0.44785798 0.26432443 -0.24789752 0.26379874 1.0519813 0.59317154 0.33432254 0.23973384 0.1995767
750 -0.14700326 0.07951388 -0.7215286 -1.0617807 -0.66392094 -0.74157447 0.27412203 0.5970493 0.25515318 0.31318176 0.34005368 -0.30923203 0.60764307 0.032653727 -0.105272226
623 0.06995945 -0.46160194 -0.06589046 -0.9409387 -0.3773266 0.6149215 0.85926634 -0.40592465 -0.056961868 -0.27369803 0.479822 -0.36648223 0.32528165 0.41354445 -0.6368901
161 0.80067223 -0.16983065 -0.42646497 -0.3677866 -0.33847812 0.21190071 -0.805826 0.077006705 -0.21940285 -0.03182022 0.3945858 -0.3020802 -0.013888066 -0.17954646 -0.692705
529 0.031846028 0.31391954 -0.6298499 -0.20964444 -0.74730957 0.42509788 -0.20473798 -0.55731004 -0.23734513 0.085112624 0.14620723 -1.1461356 -0.53328156 0.64744943 0.5483752
493 -0.33946836 -0.015344035 -0.6650025 -0.13348292 -0.88788027 0.40027303 -0.47967234 -0.20806062 -0.10211455 -0.04408951 -0.0057378537 -0.70759964 0.046463408 0.8315035 0.64373785
285 -0.109967135 -0.24643049 0.15565434 -1.0346698 0.048645537 -0.58546656 -0.5385024 -0.75774354 0.047255926 0.1859738 0.40132093 -0.31700543 0.86715895 0.14377232 -0.031400926
732 0.20760885 0.25093853 -0.34287015 -0.98534244 -0.5913222 -0.40293962 0.3315997 0.83899814 0.74768895 0.1698484 0.56714165 -0.5428856 -0.25447905 0.28537074 -0.014941078
762 -0.464075 -0.049090095 -0.5766331 -0.9988198 -0.3740974 -0.7523881 0.01613537 0.8650051 0.26379815 0.41053447 0.31073567 -0.35293055 0.3858299 0.26899067 -0.24877028
674 -0.15327834 0.053100538 -0.25937653 -0.62181264 -0.89026606 0.3442986 0.44274065 -0.594758 0.200537 0.3006747 0.27438465 0.3737764 -0.008717928 0.55468404 -0.80166876
64 0.06972446 0.33517858 -0.32761565 -0.5115322 0.3694832 0.69467854 -0.54545116 0.4692284 -0.5420756 0.13427335 0.9331991 0.21934982 0.09533567 0.26080233 -0.07931026
366 0.053013757 -0.20515573 0.2779193 -1.0931381 0.052616008 -0.60957956 -0.3818964 -0.104070865 -0.7777312 -0.32390103 -0.06522582 0.29758814 -0.1430683 0.8493706 0.094602875
744 0.0354709 0.09752832 -0.74760777 -1.068028 -0.5215018 -0.6234241 0.26674774 0.7220884 0.4736436 0.29319435 0.3281395 -0.42056254 0.3317949 0.18393348 -0.09087549
101 0.51596403 -0.0050234403 -0.42396268 -0.27266353 -0.23833157 0.39917305 -0.43907636 0.2950072 -0.35462922 -0.021304898 1.2427236 0.4279169 0.17202637 0.17317885 0.18227036
434 -0.15889683 0.10222769 -0.70784277 -0.41258892 -0.14721847 0.37178934 -0.7587856 -0.34984633 0.59326065 -0.016107982 -0.24779966 -0.63662803 -0.15655735 1.1558212 -0.067484535
199 0.2988796 -0.18254438 -0.44505343 -0.7572693 -0.6171277 0.4414378 -0.99662477 0.41245633 -0.58663255 -0.20784774 -0.18421394 0.21678546 0.16909216 -0.49799266 -0.21436337
440 -0.14366122 -0.11807269 -0.58834416 -0.35129184 -0.2540664 0.42044455 -0.7378549 -0.32231075 0.567057 0.23227887 -0.15166585 -0.5202832 -0.22619952 1.2822121 0.250232
364 0.09508246 -0.48495564 0.22850686 -1.1739428 0.103024304 -0.53514796 -0.39133763 -0.08549228 -0.8575866 -0.2592263 -0.20425725 0.3854385 -0.2840831 0.9545375 0.16426098
27 0.4178724 0.89979726 -0.1380774 -0.61366206 -0.29423454 0.31813115 -0.28938594 -0.009771939 -0.3850348 0.4273787 0.13201086 -0.397322 0.88634646 0.03425064 -0.3551124
745 0.0038616627 0.073892765 -0.8471449 -1.0254169 -0.57329756 -0.67865866 0.22423108 0.5607544 0.3832449 0.4269579 0.27084514 -0.41139793 0.5193964 0.12262178 -0.09598809
499 -0.19402769 -0.015601285 -0.99542797 -0.34284592 -1.0254824 0.38075417 -0.18785147 -0.28981987 -0.23251478 -0.19587205 -0.22568224 -0.6104498 0.31538343 0.8224384 0.86263615
286 -0.080411635 -0.22582902 0.18310939 -1.0525353 0.0060254694 -0.6327176 -0.63903284 -0.7335222 0.094753176 0.23403385 0.33379206 -0.25111246 0.80194116 0.15926588 0.024609517
115 0.54408765 -0.23361729 -0.28506637 -0.15642862 -0.313623 0.16477211 -0.28808978 0.45727947 -0.8067708 0.017469238 1.2178733 -0.06067122 0.3409276 0.11938598 0.03800481
697 -0.65423185 -0.0536457 -0.13514955 -1.0026301 -0.5909467 0.69619 0.54672134 -0.5147655 -0.107071444 0.3166688 0.28279483 0.266918 -0.25213104 0.14990394 -0.47691807
303 0.08520662 -0.09991832 0.7238611 -1.236 -0.21600173 -0.27213803 -0.49699375 -0.44344342 0.15182906 -0.26272324 0.40703073 0.12543608 -0.04917035 0.3237961 0.639644
410 0.00054189604 0.51553524 0.007536997 -1.162071 0.25936058 -0.547903 -0.4697211 -0.44399193 -0.6595346 -0.17313743 -0.11485686 -0.018720193 -0.61352867 0.37923944 -0.3057091
489 -0.45365 0.01288496 -0.5423939 -0.17281444 -1.0503901 0.43840104 -0.4446288 -0.18635948 -0.088404946 0.00086087175 -0.058131933 -0.6052681 -0.0009343463 0.95453656 0.8231321
607 -0.34804466 -0.394122 0.09639311 -0.8543492 -0.44755003 0.5776346 0.3316495 -0.07110077 0.122631736 -0.9119875 0.34738708 -0.20756665 0.23387481 0.50347793 -0.7595677
452 -0.468688 -0.25670433 -0.78396094 -0.3239539 -0.42219794 0.43228665 -0.80613524 -0.31861275 0.5246219 -0.11505141 0.1361285 -0.3875879 -0.48523924 1.0348496 0.39503694
771 -0.33305925 -0.35605472 -0.3349815 -1.079574 -0.32746977 -0.5624773 0.23157214 1.1811491 0.30337816 0.3691803 0.39467785 -0.38179362 0.2292201 0.51315165 -0.054754395
293 -0.031619795 -0.063740574 0.3650377 -1.1192367 -0.097116455 -0.44795772 -0.73799235 -0.75058466 0.3079589 0.08760673 0.35157895 -0.0031158137 0.6071621 0.13385394 0.19469827
652 -0.35610017 -0.55639064 -0.32501328 -0.58287555 -0.58482105 0.015035988 0.40834317 -0.58320796 -0.5166022 0.29497853 0.37406534 0.026016334 0.45906836 0.39604494 -0.9380911
28 0.35731646 0.9078685 -0.104026325 -0.5434607 -0.34147486 0.36096197 -0.32488877 -0.021157758 -0.35372394 0.42331496 0.2209604 -0.39140898 0.8796985 0.015527718 -0.38140923
605 -0.33049536 -0.26831406 0.0109354155 -0.8099253 -0.40523094 0.4128724 0.29604557 -0.112805985 0.1002282 -0.89505553 0.410362 -0.25569636 0.26055214 0.49594113 -0.9427307
145 0.74616855 -0.29787678 -0.20335639 -0.16714765 -0.38269824 0.12018076 -0.6526629 0.301711 -0.27458936 0.028978175 0.7449846 -0.12142352 0.24593003 0.115086414 -0.49491742
341 0.69514626 0.1626217 0.41164434 -0.94769484 -0.38294724 -0.66091865 -0.35292202 -0.28975663 -0.29330313 -0.36536127 -0.082795925 0.2736652 -0.1111575 0.9969903 0.15283011
154 0.7150007 -0.092962764 -0.34557995 -0.17433839 -0.47173512 -0.10975807 -0.8102806 0.079833925 -0.091558956 0.08815098 0.3837422 -0.42010462 0.28147775 0.07907825 -0.8968925
398 -0.030162785 0.35996118 -0.14286672 -1.1402864 0.18161175 -0.5896204 -0.46483108 -0.49791163 -0.78476715 -0.43702826 0.033321768 0.17303133 -0.5439883 0.44888568 -0.048484854
100 0.5312227 -0.023785299 -0.37022904 -0.25837776 -0.23680674 0.45466712 -0.43692303 0.24559654 -0.36444065 0.06274825 1.2118359 0.40989006 0.13809516 0.23593524 0.2782514
156 0.8553467 -0.09980597 -0.42791095 -0.20635885 -0.45694333 -0.061512154 -0.7983387 0.08762935 -0.20491505 0.046110623 0.3619263 -0.39113566 0.27632138 0.029159972 -0.8258206
602 -0.41509578 -0.19024529 0.20762824 -0.791862 -0.36740813 0.49576104 0.1940493 -0.122748695 0.15907416 -0.9848658 0.5207174 -0.35273197 0.09250133 0.43247244 -1.0025473
665 -0.17639893 -0.33553553 -8.9960784e-05 -0.6816413 -0.9050011 0.5365805 0.60914934 -0.5274313 -0.030791016 0.21434912 0.26688653 0.28051168 -0.20781983 0.63893974 -0.650722
664 -0.1923798 -0.42589435 -0.013155835 -0.6791733 -0.8530888 0.6339559 0.573615 -0.40450004 -0.06646613 0.14295506 0.31139734 0.31916153 -0.276872 0.60821575 -0.7346777
691 -0.39908323 -0.031957127 -0.17777196 -1.0334256 -0.61516076 0.7990558 0.6007864 -0.6113001 0.09725163 0.30955517 0.3449593 0.21040069 -0.47917014 0.14291233 -0.5152657
653 -0.3087726 -0.569797 -0.2890132 -0.526302 -0.60266143 0.06586591 0.41764334 -0.5793686 -0.5402022 0.3412187 0.39149794 -0.007419799 0.4189441 0.38686806 -0.85160726
21 0.4260624 0.7572146 0.1660058 -0.54543376 -0.2938763 0.4042098 -0.2928777 0.15637997 -0.44533432 0.6444699 0.22314222 -0.511151 0.8535867 0.1479551 -0.39288688
292 -0.11849642 -0.041240364 0.33345592 -1.087785 -0.14048731 -0.4831755 -0.67299116 -0.7717008 0.22644493 0.16160959 0.33588713 -0.073400155 0.65853053 0.13368933 0.21249196
232 0.24516535 0.03832883 -0.10250631 -0.30459368 -0.804259 0.42399213 -0.8019473 0.5254084 -0.6183241 0.3851543 0.100045346 0.100271925 -0.59539366 -0.17765866 -0.43362045
24 0.45552042 0.78827244 -0.0457052 -0.61163336 -0.28402716 0.27712038 -0.24633795 0.062847726 -0.48105145 0.6358655 0.18366456 -0.5012798 0.8153799 0.0056976844 -0.2943622
253 -0.44543126 -0.29281232 0.8952285 -0.7523126 -0.38259313 -0.5477738 -0.5390207 -0.3076291 -0.3423319 0.30037847 0.5132261 -0.37495083 -0.074214555 0.20917618 0.15174337
682 -0.19813266 0.14295332 -0.36791307 -0.72312284 -0.7926582 0.12639278 0.37586898 -0.7538029 -0.0062431437 0.50848675 0.1692938 0.09461907 0.18130864 0.18255027 -0.8409239
40 0.039786372 0.9778603 -0.25247845 -0.2706674 -0.2722048 0.017406056 -0.6528779 0.016496118 -0.45165163 0.19119455 0.5781191 -0.23477589 0.7399344 0.13320506 -0.61339116
638 0.042484857 -0.3654084 0.046250574 -0.6544984 -0.3473937 0.5070809 0.6889727 -0.17328088 -0.078288324 -0.102386914 0.45134303 -0.117590345 -0.38383403 0.90154827 -0.9795975
68 0.26863432 0.34779155 -0.42452705 -0.54501116 0.38699168 0.75727093 -0.5344286 0.52992284 -0.47998014 -0.057463422 0.89999574 0.37104008 0.06110159 0.33791357 -0.0059224237
159 0.88163954 -0.20577615 -0.3941431 -0.33704934 -0.30634937 0.19724281 -0.87170315 0.24248224 -0.1801341 -0.06358949 0.40144747 -0.3363894 0.0026879653 -0.07156891 -0.6942269
681 -0.26959157 0.11421157 -0.29165098 -0.70062643 -0.8250872 0.1124235 0.31152508 -0.7656151 0.053011835 0.54484755 0.17641325 0.077986725 0.22709723 0.18222077 -0.85757536
640 -0.040583 -0.38466904 -0.00763776 -0.63331324 -0.38080266 0.4599219 0.66809803 -0.15770182 -0.23914666 -0.09136777 0.47914508 -0.038222365 -0.45953664 0.85859746 -1.0858676
466 -0.6773402 -0.06282565 -0.82698876 -0.0063637663 -0.57615834 0.003761786 -0.7779746 -0.19051792 -0.008770939 -0.22298376 0.13083291 -0.61316085 -0.12152594 1.1126345 0.103570335
227 0.32198527 0.23589559 -0.073769376 -0.32812184 -0.94148165 0.40473154 -0.9023471 0.41611692 -0.34522834 0.18899043 0.10401574 0.04887118 -0.42663965 -0.31401193 -0.4951362
525 -0.09977165 0.20392366 -0.65494514 -0.22977616 -0.69562936 0.3849349 -0.24618082 -0.40029424 -0.28237307 -0.08515385 0.16497172 -1.1182034 -0.5067241 0.5640782 0.54787433
178 0.6391042 -0.5323044 -0.37369582 -0.79363734 -0.1767319 0.6061031 -0.80585706 0.18345144 -0.17140304 0.26302513 0.08171782 -0.17878698 -0.07520723 -0.42781013 -0.27930325
544 -0.15412885 -0.13811268 -0.52247024 -0.44324374 -0.42156345 0.4725233 -0.083045505 -0.1409328 -0.5699287 -0.033994276 0.11889328 -1.3212947 -0.41095895 0.52578735 0.6767402
612 -0.16093023 -0.6237538 -0.0029523834 -0.9014636 -0.4538844 0.69759506 0.32220808 0.030156353 0.20612448 -0.9150559 0.1808788 -0.09362255 0.4863433 0.6469091 -0.68466276
324 0.6900095 0.10629431 0.522863 -1.249699 -0.23713322 -0.34360108 0.005539617 -0.40664968 -0.3115371 -0.02080351 0.027472297 0.0011784929 -0.13002336 0.54034895 0.57355446
663 -0.20592326 -0.5192447 -0.037630353 -0.62573886 -0.8059857 0.5533592 0.54541636 -0.3416923 -0.031505622 0.11105346 0.33537552 0.2893319 -0.32620317 0.7273245 -0.7332185
118 0.6540661 -0.3050413 -0.31839278 -0.19615908 -0.28238887 0.31474385 -0.35577142 0.60708135 -0.68663293 0.02035917 1.169436 -0.06943116 0.34353936 0.13715573 0.10062411
254 -0.33602878 -0.29992974 0.8895583 -0.7190481 -0.42850122 -0.5644131 -0.5636951 -0.30744672 -0.3783477 0.27427635 0.547525 -0.3611092 -0.11387705 0.1690977 0.1846677
95 0.53361976 0.12137872 -0.39833668 -0.30728364 -0.16843052 0.615724 -0.44746685 0.31132737 -0.25724316 0.0908468 1.1595562 0.5004197 0.048208512 0.28366077 0.18579152
330 0.72606176 0.30380213 0.59997714 -1.1854571 -0.37871474 -0.3604614 -0.018930588 -0.3773814 -0.36666217 -0.3175888 -0.03175465 0.12873395 -0.114248976 0.71518546 0.42063713
376 -0.135758 0.16670871 0.15857957 -1.1252359 -0.20717293 -0.6549035 -0.40719828 -0.086903356 -0.83321583 -0.48216626 -0.09407362 0.44656473 -0.2655148 0.62027866 0.24473529
151 0.7743665 -0.16509166 -0.33548406 -0.18176375 -0.34676442 -0.0846655 -0.8238447 0.06620174 -0.12013517 0.034004875 0.5228491 -0.38143146 0.23185685 0.073947005 -0.8069086
67 0.1770548 0.3112751 -0.33267087 -0.5246552 0.33263212 0.7041657 -0.5742936 0.43848586 -0.54369783 0.05137006 0.90557873 0.3948878 0.09639072 0.3031892 -0.04086249
337 0.85007095 0.21924739 0.51769143 -1.0133876 -0.54697144 -0.6666545 -0.32113862 -0.33105788 -0.32518408 -0.3918973 -0.2263219 0.17394978 -0.06936334 0.868945 0.13075691
718 0.0026233506 0.3001118 -0.5245178 -1.0051432 -0.23743366 -0.5722124 0.18936528 0.46528032 0.68143207 0.3222751 0.7153911 -0.71495134 -0.2553289 0.09749771 -0.29730034
639 0.014798921 -0.44902888 0.028420497 -0.66594565 -0.33795983 0.45773837 0.7000561 -0.12152108 -0.15895161 -0.061867494 0.4921485 -0.12711123 -0.4549795 0.8728005 -1.016101
267 0.05810226 -0.14681873 0.8204403 -0.7775448 -0.33091956 -0.51943403 -0.514264 -0.5754067 -0.09194112 0.20560738 0.73049396 -0.17443511 -0.45927757 0.38960412 0.3330695
604 -0.3051561 -0.22048768 0.008731046 -0.84978575 -0.4257623 0.4836214 0.3409075 -0.12077331 0.1197302 -1.0041416 0.39809144 -0.2523684 0.2885202 0.5222589 -0.9253367
541 -0.19101705 -0.17885277 -0.54526275 -0.409052 -0.42522076 0.4440075 -0.13164851 -0.21837479 -0.53368586 0.06353027 0.06324656 -1.3374939 -0.37667924 0.52393967 0.5668056
349 0.48720294 0.027790979 0.35877222 -1.1264871 -0.2138974 -0.566647 -0.29399204 -0.15119576 -0.46892712 -0.18453145 -0.15794854 0.3907974 -0.2451661 0.93586576 0.27859443
583 -0.46157065 -0.004674478 0.2849157 -0.5508241 -0.95454276 0.3143724 0.40098086 0.098603584 -0.07662886 -0.9061745 0.67859566 -0.3140128 0.10900997 0.2579377 -0.67348653
532 0.14374489 0.22869167 -0.7767255 -0.20461354 -0.66423815 0.41552582 -0.11052689 -0.46042445 -0.30079278 0.067063525 0.21730831 -1.1726305 -0.4992376 0.7116455 0.5989278
581 -0.5327971 0.012160701 0.37820664 -0.5514547 -1.0400803 0.2751575 0.39760146 0.16253595 -0.03177845 -0.858233 0.61784893 -0.30576006 0.16534317 0.34971157 -0.64384556
442 -0.23207346 -0.22331925 -0.5944521 -0.33928764 -0.35840532 0.50817806 -0.6778442 -0.2718898 0.570131 0.18257987 -0.07814987 -0.5367158 -0.34512287 1.2249013 0.29464084
5 0.2257801 0.2761621 0.41572925 -0.3512677 -0.19182402 0.66011095 -0.4270612 0.6259975 -0.33800563 0.96536255 0.25289777 -0.28414956 0.5348146 0.64632684 -0.20528905
497 -0.28667167 0.0334559 -0.8812603 -0.27757952 -0.9906817 0.45727277 -0.3403967 -0.29382047 -0.29813987 -0.26248628 -0.212355 -0.59074897 0.15974163 0.8457153 0.816104
611 -0.21764788 -0.61979485 -0.015554581 -0.9221469 -0.4395538 0.64937466 0.36999026 -0.01708417 0.23277411 -0.9416575 0.22226878 -0.120747335 0.50686324 0.70346963 -0.69122124
755 -0.33154747 -0.04502386 -0.6551563 -1.0766985 -0.49934033 -0.5065714 0.19720969 1.1173804 0.41236672 0.20669803 0.21283774 -0.39149675 0.26386943 0.3620546 -0.00044831008
696 -0.598291 -0.100545034 -0.14533854 -0.9802028 -0.5291612 0.8005698 0.5212594 -0.5184746 -0.018941836 0.3436542 0.3061093 0.22184333 -0.3763837 0.18746443 -0.39138022
445 -0.21027458 -0.089816794 -0.5795943 -0.26473808 -0.3891471 0.44069043 -0.7996199 -0.22362559 0.5897527 0.059795257 -0.044778984 -0.5570378 -0.3305552 1.2331123 0.28016582
533 0.13967712 0.17938098 -0.6782303 -0.2236059 -0.7040214 0.35866094 -0.12976079 -0.48997748 -0.24670137 0.08181162 0.19739228 -1.1798623 -0.573707 0.6842225 0.5669575
404 0.08012579 0.31868926 -0.011079556 -1.2219162 0.28203642 -0.58665365 -0.39613494 -0.44757718 -0.70103157 -0.27820277 -0.085590936 -0.02385836 -0.55795044 0.4893582 -0.1209437
334 0.7779887 0.37285486 0.68609965 -0.9921319 -0.52838033 -0.40217224 -0.10633557 -0.38048983 -0.33174688 -0.41571218 -0.07201863 0.12668322 -0.043259542 0.8929993 0.29752335
694 -0.46567813 -0.01571082 -0.18893099 -0.9819025 -0.5204342 0.6582164 0.56297195 -0.49452007 -0.02964948 0.29736048 0.29151145 0.2607005 -0.365657 0.2126036 -0.49194577
275 0.08951229 -0.2774866 0.6508163 -0.7662224 -0.112891905 -0.63761497 -0.65227693 -0.5681269 0.015722215 0.08084855 0.72099835 -0.16059396 -0.27975452 0.41249257 0.023607705
719 0.093181014 0.29181072 -0.4585575 -1.031283 -0.32018316 -0.61785126 0.27651116 0.5232492 0.6642206 0.25266573 0.7352618 -0.66771996 -0.31955254 0.12262002 -0.27599266
747 0.034513775 0.08511197 -0.86542594 -0.96161383 -0.7067562 -0.777227 0.15627863 0.5117096 0.2782361 0.35969448 0.21362484 -0.28121796 0.6271238 0.075943924 -0.09154831
558 -0.3139511 -0.24610938 -0.4442398 -0.45613292 -0.3457806 0.52460957 -0.21645607 -0.13022529 -0.67354596 -0.09956645 -0.08808547 -1.3980392 -0.34368792 0.547871 0.48589063
381 -0.13700324 0.29238158 0.004426722 -1.0816754 -0.3159546 -0.74020326 -0.4015966 -0.25688505 -0.83941036 -0.38094613 -0.034170505 0.5775227 -0.2515684 0.5566732 0.23840712
472 -0.3952796 -0.041856464 -0.6412646 0.069883995 -0.84833664 0.036617145 -0.65845454 -0.21326634 0.057364527 -0.19132091 0.07048625 -0.671626 -0.14873083 1.2913203 0.2522205
733 0.16755715 0.27590215 -0.3149702 -1.0488002 -0.6526793 -0.43920192 0.41128784 0.80417997 0.735673 0.19771162 0.5580546 -0.54745126 -0.27550647 0.251196 0.014458907
91 0.5688751 0.22918999 -0.5533963 -0.30180922 -0.26019216 0.58719623 -0.47170502 0.13402957 -0.22732681 0.1749826 1.0711669 0.50146806 0.26302564 0.22039452 0.2809945
496 -0.2672524 0.029865282 -0.79450315 -0.25436398 -0.99651664 0.47346866 -0.38271847 -0.2757272 -0.21995533 -0.1644651 -0.15427195 -0.6120922 0.12828709 0.8579514 0.8350217
433 -0.20723619 0.094745934 -0.63399446 -0.473458 -0.23214252 0.442361 -0.74708664 -0.38228458 0.5822948 0.08473919 -0.33143863 -0.57360804 -0.18528004 1.091556 0.03287139
737 0.2231909 0.14875214 -0.40259096 -1.0212349 -0.54664654 -0.4304672 0.41903666 0.90243125 0.6397602 0.329046 0.45276403 -0.5577402 -0.261527 0.42080685 0.072698645
716 -0.16214217 0.39302477 -0.53173614 -1.0175914 -0.32184997 -0.57249624 0.06279837 0.44080368 0.6071953 0.43449026 0.62895805 -0.6343712 -0.05503203 -0.09274076 -0.339235
500 -0.18107776 0.00019862752 -1.0176219 -0.35187608 -0.91879153 0.40282106 -0.2566618 -0.29715598 -0.24744599 -0.26039463 -0.20219415 -0.60501397 0.25847438 0.83094066 0.8656538
431 -0.36360496 0.30870727 -0.5138171 -0.5152873 -0.24064186 0.53464055 -0.7900758 -0.25734496 0.67123747 -0.037875578 -0.30490208 -0.49335206 -0.25615728 1.0830326 0.1900635
572 -0.35999355 -0.22684762 -0.42260006 -0.41148418 -0.30763647 0.48858276 -0.17360806 -0.036629435 -0.6673945 0.14282486 -0.020563439 -1.196664 -0.3509906 0.63345224 0.5565723
395 0.13526525 0.27801275 -0.25222445 -1.1669583 0.06699643 -0.7008778 -0.40083474 -0.54858375 -0.80839485 -0.5872798 0.10084171 0.20687944 -0.49159327 0.35859337 0.07965082
686 -0.18608941 -0.03215392 -0.122440375 -1.0187715 -0.47991708 0.7614124 0.5496487 -0.63035196 0.23013434 0.21546516 0.3632654 0.2699916 -0.43363732 0.25681663 -0.4901101
295 -0.014713004 -0.014551139 0.54186434 -1.3073119 -0.17891741 -0.40500578 -0.58276135 -0.6760757 0.23752558 -0.14610748 0.4207871 0.10678462 0.29146475 0.17305553 0.572077
486 -0.4290214 0.09596732 -0.35697296 -0.12528239 -1.2629317 0.54526716 -0.43305582 -0.17237476 -0.015256192 -0.061845124 -0.07460583 -0.5715761 0.048747785 0.9795529 0.8513026
724 0.14070779 0.5514011 -0.45515007 -1.0273976 -0.5077154 -0.4707563 0.33902267 0.8236539 0.83001804 -0.024284981 0.77618283 -0.45424822 -0.5702319 0.3192877 -0.13334845
333 0.7245908 0.3308761 0.6452524 -1.0623267 -0.50002074 -0.44744465 -0.16491751 -0.40812078 -0.32063437 -0.36577973 -0.07100002 0.12324133 0.0008491628 0.7928098 0.36251435
228 0.2596944 0.2978772 -0.07381412 -0.30405158 -0.9100637 0.38580218 -0.87252027 0.4588364 -0.37784967 0.29568937 0.11688942 0.054247826 -0.46699357 -0.23583932 -0.47002682
609 -0.25909093 -0.53231466 0.034358818 -0.90328044 -0.3851624 0.49810544 0.30808607 -0.04947234 0.07556757 -0.8465667 0.21767114 -0.20416562 0.5688338 0.550804 -0.7668513
86 0.46984923 0.21930629 -0.5512744 -0.359512 -0.16412866 0.54727376 -0.567736 0.2921128 -0.250838 0.08792965 0.9995925 0.728556 0.21529077 0.32774895 0.16605078
707 -0.8055021 -0.13974008 0.12598284 -1.1097422 -0.6260488 0.98771054 0.59689003 -0.12643322 -0.074697495 0.32887688 0.0017889519 0.2366335 -0.11880311 0.3241941 -0.2608395
297 0.07105363 -0.010627439 0.6771079 -1.2791741 -0.21565734 -0.29478905 -0.51524925 -0.5070745 0.23509467 -0.2073652 0.36227226 0.12218965 0.018242363 0.2494559 0.60907245
268 0.082195945 -0.15999591 0.8541817 -0.88429296 -0.20006195 -0.52794355 -0.55608517 -0.5151872 0.015193834 0.12699813 0.7397698 -0.17866445 -0.5597939 0.37982944 0.22632842
198 0.3538759 -0.15423387 -0.4827469 -0.8136707 -0.58957464 0.6024768 -1.031444 0.39949557 -0.56722844 -0.23875599 -0.17286058 0.31370312 0.13139687 -0.52077085 -0.18828474
603 -0.3802026 -0.21743958 0.13156775 -0.815513 -0.3489226 0.51426744 0.19722958 -0.1545108 0.20453341 -1.0016441 0.50489724 -0.28640425 0.08813677 0.49052784 -0.948237
336 0.76712835 0.3752882 0.57345825 -1.0311179 -0.5158384 -0.58618057 -0.19300938 -0.3031597 -0.2915668 -0.43356168 -0.12155279 0.15687092 -0.110876076 0.86337584 0.19906484
8 0.2810228 0.41009703 0.22341104 -0.33554387 -0.2101544 0.36165512 -0.45712325 0.46380848 -0.48178393 0.66878283 0.0923498 -0.20340355 0.62942433 0.58452034 -0.58141094
734 0.19951849 0.24835604 -0.34296176 -1.012861 -0.6361005 -0.41361162 0.4112087 0.9055844 0.71515936 0.22850138 0.54899573 -0.5108528 -0.28104448 0.32442153 0.045888916
272 0.22617872 -0.27764353 0.8048592 -0.7905857 0.018057851 -0.42028284 -0.6176493 -0.6058857 0.1120646 0.07909368 0.9199067 -0.091441646 -0.6524352 0.6038976 0.1722457
84 0.5362239 0.4315401 -0.6089672 -0.4344517 -0.03965148 0.6801316 -0.4986753 0.2821032 -0.18847549 0.09951438 0.9733629 0.77488357 0.16220804 0.4216592 0.1624972
606 -0.354453 -0.27430114 0.024966903 -0.89442325 -0.3963766 0.48459652 0.36599737 -0.09683556 0.17319548 -0.91140735 0.3404635 -0.22260635 0.28815925 0.54186463 -0.852306
752 -0.20408753 0.015657024 -0.6797983 -1.1396569 -0.49351007 -0.5808729 0.21316826 0.9290773 0.39189142 0.16127452 0.28167996 -0.3229109 0.41393948 0.2252722 0.039042395
730 0.31697983 0.39391023 -0.40973142 -1.0578792 -0.57193214 -0.40579015 0.37361997 0.839613 0.7845904 -0.019571645 0.7377247 -0.54053015 -0.33660337 0.24367216 0.06885922
622 -0.025703397 -0.51166904 0.001779651 -0.89386183 -0.47312346 0.6565363 0.70873785 -0.28184053 0.004563382 -0.3173266 0.3547184 -0.31442794 0.3058197 0.4413822 -0.5911972
78 0.44070163 0.42815948 -0.63477385 -0.45765248 0.07667422 0.61754686 -0.54342854 0.5556881 -0.29555643 -0.1207959 0.79957014 0.6534188 0.1848979 0.4907404 0.00013032841
647 -0.16387063 -0.56900567 -0.17948605 -0.6653915 -0.42730424 0.32790413 0.6378451 -0.27222636 -0.39627197 0.027039688 0.39826262 -0.073777705 -0.18634893 0.610968 -0.959669
594 -0.46200335 -0.19468875 0.07058663 -0.7456247 -0.6363633 0.3593759 0.36069015 -0.09719484 0.04065555 -1.028726 0.6252204 -0.19842958 0.14413238 0.31804135 -0.7404678
487 -0.41954 0.054694455 -0.4853869 -0.14198618 -1.1830882 0.48994282 -0.45660344 -0.1639452 -0.03587374 -0.09725443 -0.09253654 -0.5271284 -0.01589266 1.0621374 0.8427769
659 -0.27373913 -0.5434427 -0.11395586 -0.5911127 -0.8545121 0.45540977 0.648927 -0.3778612 -0.21391697 0.23697661 0.3494434 0.100196004 -0.07936873 0.6079345 -0.68584526
561 -0.31179246 -0.15591551 -0.42964914 -0.48179796 -0.33619207 0.62512213 -0.19154344 -0.09687679 -0.64799994 -0.10527216 -0.033227585 -1.3238323 -0.3589802 0.5846229 0.625481
368 -0.13023768 -0.105107106 0.2932544 -1.1763322 -0.0012306159 -0.6008266 -0.40774587 0.036922295 -0.7915348 -0.43966097 -0.15355192 0.36331835 -0.23637426 0.87465394 0.22056176
243 0.26250494 0.019935878 -0.12155048 -0.40316066 -0.7088885 0.50080234 -0.711022 0.8345041 -0.67709607 0.23810324 -0.10362417 0.20153432 -0.7798443 0.06695085 -0.50479424
748 -0.00937222 0.05107614 -0.83203167 -0.9752192 -0.732312 -0.6925704 0.23338725 0.5306349 0.2307543 0.36739647 0.21665038 -0.2861635 0.6630437 0.040144403 -0.11441906
416 -0.11100719 0.65059525 0.16414854 -1.2128228 0.24713822 -0.3991534 -0.3630487 -0.31702513 -0.69189006 -0.17311671 -0.13913783 -0.07415594 -0.7348052 0.43182367 -0.19343293
678 -0.32345334 0.05583342 -0.1299275 -0.6635074 -0.8812236 0.35596964 0.40352586 -0.6482841 0.11759439 0.37051496 0.23357053 0.16539116 -0.026220186 0.35081595 -0.7543424
66 0.07358259 0.26477522 -0.37076378 -0.47134843 0.38295436 0.7168363 -0.5766196 0.4920267 -0.5082578 0.11243124 0.9118384 0.36003056 0.090353586 0.39176923 -0.10770203
731 0.22537157 0.31791058 -0.43460903 -1.0018958 -0.60070187 -0.45828292 0.28532663 0.81070143 0.8291232 0.091005646 0.601321 -0.52656984 -0.2979093 0.278398 -0.07293889
382 -0.14984713 0.3820302 0.03988105 -1.1217121 -0.33727267 -0.6749372 -0.33840397 -0.29167578 -0.7818088 -0.35898435 -0.023877846 0.5484557 -0.33448032 0.46874163 0.260075
323 0.62631214 0.020861221 0.4545536 -1.2770308 -0.16772437 -0.3689498 -0.06754676 -0.39270642 -0.29995996 -0.035275377 0.1082301 0.11889238 -0.12725015 0.5590241 0.6661692
715 -0.16753034 0.33043808 -0.49666166 -1.0122699 -0.30121133 -0.5724345 0.07655874 0.45419496 0.6059689 0.40354574 0.6067321 -0.7071716 -0.05702834 -0.06375274 -0.31699094
708 -0.7897442 -0.11753706 0.1190025 -1.0399375 -0.6367734 0.9994721 0.56560147 -0.15360788 -0.11765454 0.32698572 0.041605055 0.25311512 -0.13775845 0.39005354 -0.32490462
621 -0.04684715 -0.5202002 0.060278956 -0.798952 -0.43502122 0.71653867 0.62169975 -0.11454713 0.032025073 -0.3891372 0.45934847 -0.2457197 0.23242874 0.44662246 -0.5877885
406 0.023534091 0.476478 -0.07976529 -1.2374685 0.28947467 -0.6463602 -0.4917974 -0.5202836 -0.5891606 -0.112812184 -0.13390988 -0.026453568 -0.5909845 0.47779337 -0.20086084
306 0.29258394 -0.106739886 0.71097887 -1.2512934 -0.16699527 -0.19698058 -0.3074408 -0.36879146 0.05933305 -0.2611993 0.27367747 0.017990679 -0.011415806 0.3662105 0.5865331
530 0.051188476 0.2678799 -0.6804254 -0.22012131 -0.6924689 0.39232942 -0.17935969 -0.47486869 -0.32758835 0.052563637 0.16263658 -1.1063969 -0.53012496 0.65479046 0.5890899
667 0.13578764 -0.17599165 -0.1526823 -0.47780493 -1.1837249 0.15472923 0.46977872 -0.66646916 -0.011232142 0.23918541 0.26648274 0.42359406 0.06580873 0.5929659 -0.83610994
367 -0.02749457 -0.1515294 0.25987044 -1.1880965 -0.014547826 -0.6072291 -0.41436827 -0.008802327 -0.7842492 -0.36700135 -0.22068916 0.36230624 -0.20185038 0.8589581 0.23840775
766 -0.29517996 -0.26040062 -0.44819936 -1.0846158 -0.22005218 -0.40831473 0.16517486 1.1742028 0.4685187 0.18848157 0.37218657 -0.3406735 0.0746051 0.51061803 -0.08719938
471 -0.49053314 0.00032487605 -0.6024679 0.1312364 -0.9016445 0.026917899 -0.66221553 -0.119403504 0.024915807 -0.14736196 0.11793555 -0.6897287 -0.113359615 1.353427 0.2725534
729 0.30505934 0.4027367 -0.36632073 -1.0773207 -0.58701 -0.40795946 0.3514032 0.8546785 0.8352742 -0.053816766 0.7473605 -0.486649 -0.3996286 0.23105454 0.061152056
560 -0.28127763 -0.17074583 -0.41709846 -0.45586878 -0.35620755 0.5912193 -0.15529566 -0.09770945 -0.59564596 -0.106178984 -0.056290958 -1.3972961 -0.32938445 0.6115168 0.507929
545 -0.26949957 -0.16110025 -0.38409215 -0.45743212 -0.3398928 0.6024301 -0.17822056 -0.18393694 -0.5770742 -0.11110322 0.073806636 -1.3976302 -0.391955 0.5352832 0.6255374
320 0.58020526 0.059838034 0.5819378 -1.2509309 -0.20939277 -0.27289513 -0.04536377 -0.38863614 -0.3256315 -0.12435863 0.08127953 0.09472043 -0.1496613 0.62004685 0.64421326
88 0.588199 0.28136924 -0.53306794 -0.36621952 -0.2477585 0.6297784 -0.4761431 0.29091766 -0.22396185 0.14498809 1.0226414 0.70557207 0.3048477 0.34450495 0.2404051
206 0.013443763 -0.31439555 -0.23848641 -0.36477584 -0.76707584 0.23173288 -1.0366749 0.33204883 -0.5265341 0.14367627 0.07398701 0.13746049 0.47795746 -0.2251415 -0.42032132
521 -0.24101758 0.36789274 -0.7283831 -0.29084918 -0.76377857 0.42196316 -0.27668503 -0.5571243 -0.19159834 -0.115429774 0.21475555 -1.0792626 -0.42309514 0.46324778 0.6520063
296 0.009304275 -0.07319276 0.62652963 -1.2518069 -0.22185393 -0.32798004 -0.54698795 -0.58307636 0.20936282 -0.1680237 0.39338335 0.10946278 0.11401345 0.2239191 0.6293355
61 -0.15323596 0.29600355 -0.23581423 -0.5223154 0.4211804 0.7247773 -0.65716726 0.48403376 -0.53775036 0.14844824 1.0168198 0.1769632 0.036128804 0.17057298 -0.058226477
717 -0.059913903 0.33428127 -0.5748576 -1.003775 -0.29876116 -0.5836896 0.067220904 0.43493932 0.6483039 0.32561228 0.63793343 -0.69410765 -0.15248373 -0.04844158 -0.33630455
459 -0.6098803 -0.15000775 -0.75152314 -0.16767876 -0.4423524 0.24366887 -0.8498212 -0.29347676 0.27187276 -0.16577744 0.16328451 -0.5443274 -0.180106 0.9859911 0.25005645
321 0.60447854 -0.006330468 0.5628172 -1.2333232 -0.15045872 -0.23743781 -0.0803395 -0.44185516 -0.35450035 -0.13707979 0.13341989 0.0943974 -0.15978585 0.6085382 0.687145
170 0.768414 -0.43646893 -0.57144356 -0.6694553 -0.091356 0.47032368 -0.7793703 0.07581763 -0.32283556 0.19820319 0.23527199 -0.25008273 -0.17171922 -0.37491167 -0.4690498
436 -0.1279761 0.038434997 -0.7393763 -0.36940026 -0.22204103 0.3798157 -0.71903485 -0.36587882 0.519874 -0.03150503 -0.26748002 -0.5928672 -0.12138932 1.2907807 0.06034275
177 0.6575271 -0.47312737 -0.42645913 -0.74020725 -0.18859865 0.6359165 -0.84901327 0.20726322 -0.23969707 0.20117977 0.06536249 -0.19220597 -0.14954065 -0.37764987 -0.37104627
326 0.7765133 0.09417973 0.5252676 -1.2166626 -0.21468158 -0.28054893 0.029809708 -0.37331295 -0.34724045 -0.16278286 0.06413426 0.1133969 -0.14097758 0.62315965 0.49996382
242 0.2611171 -0.012074542 -0.11732523 -0.43323904 -0.63604236 0.58201706 -0.71735775 0.87679625 -0.7419039 0.030476205 -0.13897872 0.13361086 -0.79748344 0.05862258 -0.39756617
571 -0.41273767 -0.14019778 -0.39464507 -0.39052495 -0.40949193 0.48581803 -0.1641484 -0.051138196 -0.73098725 0.20950238 -0.06267503 -1.1955202 -0.47583726 0.6019736 0.55033475
119 0.6010254 -0.26550996 -0.30911437 -0.13258366 -0.2604119 0.31622776 -0.3663107 0.5369125 -0.5751931 -0.0489697 1.0995171 -0.11440905 0.25357136 0.22079726 0.055044778
185 0.67837363 -0.23968697 -0.35766378 -0.88442975 -0.37840697 0.7034414 -0.82385844 0.26403254 -0.28964683 -0.004443348 -0.0010527581 0.06060676 -0.12402178 -0.52857685 -0.13144127
579 -0.5111485 0.00016317594 0.42962444 -0.5942795 -0.88618934 0.3912089 0.37425488 0.061731935 -0.057152975 -0.7277396 0.5399619 -0.27084765 0.13518433 0.3324555 -0.63755876
534 0.1490275 0.16537103 -0.70926154 -0.21779953 -0.66130227 0.40748543 -0.17999129 -0.46564227 -0.28116366 0.05445742 0.17997529 -1.1847115 -0.5490364 0.65973604 0.5339926
363 0.14001793 -0.44208413 0.24330702 -1.1582961 0.048992198 -0.61142796 -0.32780123 -0.13165767 -0.85979503 -0.13609365 -0.14642495 0.33743566 -0.26208976 0.91351444 0.17727041
49 -0.076168336 0.4707618 -0.11985162 -0.39199588 0.3305825 0.6571393 -0.63386494 0.44344467 -0.57448506 0.28578046 0.95623136 0.014013117 0.0062291767 0.22547491 -0.14674194
50 -0.057536628 0.49278048 -0.12818909 -0.3554138 0.2578859 0.67528784 -0.65673494 0.4456125 -0.5131934 0.29021588 0.94923085 -0.014271045 -0.006400001 0.19820501 -0.16936912
518 -0.20190316 0.2715938 -0.763211 -0.28034973 -0.73834383 0.44803777 -0.2550349 -0.47468358 -0.17366017 -0.17557977 0.24036282 -1.0366662 -0.4561698 0.4198538 0.59279025
219 0.2140281 0.1177331 0.03486396 -0.6271664 -0.7585333 0.63237447 -0.98304915 0.5439678 -0.2377878 -0.1888503 0.09093911 0.21169394 -0.49786872 -0.42033884 -0.19945225
473 -0.42403466 -0.099132575 -0.62352383 0.07476387 -0.86362326 0.042917598 -0.6605833 -0.1530972 0.047182865 -0.19789074 0.08002935 -0.63965154 -0.13778007 1.3571222 0.30522722
738 0.19806387 0.11362195 -0.38598183 -1.0456924 -0.5517857 -0.40252456 0.37358442 0.89349955 0.6778067 0.25959086 0.37887874 -0.5299774 -0.17247821 0.38752633 0.07393282
97 0.6014149 -0.037621815 -0.35961583 -0.32904524 -0.22554927 0.6527009 -0.42686653 0.2940072 -0.2576175 -0.05825925 1.3093374 0.46860605 0.100771286 0.18703993 0.36894998
76 0.3794286 0.35334188 -0.5717725 -0.5081825 0.22110523 0.6985519 -0.55457443 0.51862806 -0.31865963 -0.12972948 0.84390205 0.67206645 0.24317831 0.5325637 -0.04997365
307 0.37584636 -0.043364998 0.7323926 -1.2953638 -0.1340107 -0.17098324 -0.25029054 -0.29560813 -0.0049342024 -0.31408817 0.23292062 0.01843545 -0.06744963 0.43965974 0.6562518
402 0.03523684 0.3755617 -0.0550246 -1.1698697 0.23294248 -0.5857024 -0.4841113 -0.5073333 -0.72941226 -0.33413067 -0.04934311 0.079072736 -0.5110034 0.50033075 -0.06742653
498 -0.23937868 -0.020603156 -0.93079406 -0.34006444 -1.0301906 0.46880814 -0.2977746 -0.36224923 -0.24262871 -0.19963388 -0.27321565 -0.5721862 0.19989915 0.84363544 0.87615675
77 0.43170577 0.3609518 -0.5556867 -0.50239176 0.18884881 0.71435463 -0.50807345 0.5252599 -0.3196663 -0.11190215 0.91044205 0.6780346 0.20112765 0.50808984 -0.009266667
241 0.2923915 0.02711015 -0.0886302 -0.5079507 -0.6084307 0.6392847 -0.75187945 0.90700644 -0.60866904 -0.0379322 -0.10682865 0.15458086 -0.80411524 0.0011920463 -0.35746184
379 -0.1741437 0.29210773 0.0949052 -1.1258144 -0.3060311 -0.6763726 -0.40278423 -0.19035333 -0.7878538 -0.4694536 -0.07772379 0.5887667 -0.35604528 0.6682416 0.2769156
155 0.7694232 0.008575098 -0.3318294 -0.14382663 -0.443411 -0.17812364 -0.85903215 0.013248688 -0.15756373 0.07634809 0.4254898 -0.45435414 0.2824959 0.09717189 -0.8783693
772 -0.18222517 -0.35513863 -0.23465936 -1.0563713 -0.4184817 -0.43466738 0.3074606 1.2107165 0.4382149 0.36570457 0.4392514 -0.48534885 0.12936968 0.52056473 0.027224075
536 -0.012520701 0.08997375 -0.59752697 -0.2505516 -0.64834225 0.44311213 -0.16498594 -0.36310533 -0.31082702 0.0013942528 0.17257696 -1.2216586 -0.39048874 0.68609685 0.6584892
350 0.38800418 0.014460656 0.3930968 -1.2033089 -0.14437845 -0.49836048 -0.29729822 -0.19927137 -0.5926874 -0.13947417 -0.12693618 0.5486357 -0.21882065 0.86709875 0.25937253
158 0.91082597 -0.2325431 -0.37978753 -0.30573255 -0.32041478 0.15299639 -0.8416926 0.16436067 -0.24401136 -0.061199576 0.43535012 -0.37937337 0.004237834 -0.0904182 -0.66521835
284 -0.12751046 -0.2673375 0.11391079 -0.98931825 0.080162175 -0.5991851 -0.5330617 -0.7551143 0.069954135 0.16809233 0.43358785 -0.43698463 0.9181705 0.17378518 -0.021114076
765 -0.30104953 -0.27567324 -0.45320755 -1.1373494 -0.15437041 -0.43974572 0.15418655 1.2046136 0.46860915 0.1873933 0.39580747 -0.29121697 0.09732458 0.54080683 -0.056973655
432 -0.28740177 0.2545201 -0.60768324 -0.5144115 -0.22241244 0.49486434 -0.7647281 -0.32639223 0.58932835 0.009560716 -0.34933367 -0.54074585 -0.28230956 1.0864472 0.18926784
492 -0.34828204 0.02912761 -0.57662016 -0.105572976 -0.91854435 0.30437294 -0.46970272 -0.25812942 -0.12943524 -0.06108684 0.011745089 -0.6628073 0.038066115 0.86014307 0.62886065
397 0.048935063 0.34157544 -0.105719306 -1.21799 0.12003267 -0.58490247 -0.3929703 -0.46288252 -0.78370464 -0.48063785 0.009605406 0.24919881 -0.5260519 0.4572063 0.027237415
301 0.111675456 -0.091322176 0.74366486 -1.269947 -0.28945595 -0.16468336 -0.45890146 -0.42051855 0.18414997 -0.31085283 0.38855955 0.15768081 -0.09446581 0.25699586 0.6921317
258 -0.20811991 -0.10303031 0.9805457 -0.7483674 -0.50330794 -0.5304163 -0.45213103 -0.29942766 -0.27468747 0.120804355 0.7283895 -0.17060675 -0.43389475 0.325981 0.43333164
413 -0.19432563 0.68665254 0.19181097 -1.280391 0.22271629 -0.35557416 -0.44836152 -0.3403235 -0.5952164 -0.34230906 -0.21245272 -0.02683603 -0.8070464 0.4252078 -0.19532749
417 -0.16904384 0.5999515 0.19138241 -1.2492361 0.16260739 -0.4796728 -0.3858612 -0.41474894 -0.683541 -0.036673963 -0.19963673 -0.11537108 -0.72650224 0.3447449 -0.14246127
556 -0.26245686 -0.27425525 -0.4130858 -0.43713185 -0.34595641 0.5030895 -0.23321755 -0.19655234 -0.58242357 -0.0033457011 -0.021724805 -1.4474219 -0.2619372 0.4995269 0.4690154
444 -0.18537353 -0.11214983 -0.5954977 -0.31328374 -0.39925522 0.44933286 -0.7651021 -0.23598072 0.5641535 0.104253076 -0.06921135 -0.45571953 -0.3508512 1.2248935 0.38693252
453 -0.46159238 -0.26040146 -0.68117297 -0.29984656 -0.40437225 0.3772929 -0.89145327 -0.26063383 0.4733126 -0.07899467 0.098992266 -0.46609697 -0.43301016 1.0282339 0.42563102
479 -0.3860477 -0.041964382 -0.4696221 0.06304412 -1.035444 0.20892833 -0.61896044 -0.013938026 0.009651879 -0.14169863 0.021355765 -0.60644156 -0.1260973 1.3175623 0.5550745
152 0.77448165 -0.19224633 -0.2423664 -0.1955219 -0.31795084 -0.004701772 -0.8194856 0.107266694 -0.21190175 0.020141734 0.58144796 -0.37072352 0.21549691 0.052134395 -0.7583097
630 0.043008134 -0.3018327 -0.12418171 -0.83282346 -0.32432353 0.57491285 0.7915607 -0.34311247 -0.049591538 -0.27167577 0.47433713 -0.14342909 -0.05381879 0.6056259 -0.73895454
735 0.2465532 0.27360237 -0.24524641 -1.0077201 -0.6185954 -0.34778282 0.3656007 0.9849412 0.7104813 0.1978128 0.48318014 -0.58252454 -0.31447703 0.3151157 0.029942662
4 0.14450826 0.27270845 0.40581286 -0.39509293 -0.17449915 0.6882388 -0.39057964 0.7076638 -0.30429927 1.0331995 0.2204861 -0.30901343 0.5309199 0.67244345 -0.22619295
237 0.38617757 0.02324429 -0.12908253 -0.42678645 -0.7619007 0.5573634 -0.74257565 0.73679733 -0.6344928 0.08186068 0.015820779 0.20330851 -0.7448857 -0.08930151 -0.3580892
620 0.39762828 -0.52039784 0.013079124 -0.4560002 -0.3148169 0.72786516 -0.04488842 0.32185692 -0.08980231 -0.2708642 0.51468897 -0.107900515 0.10065497 0.23266408 -0.4882404
526 -0.059697527 0.19610439 -0.7324014 -0.21956202 -0.7019889 0.46957183 -0.3038844 -0.44940597 -0.24383046 -0.11076424 0.17008242 -1.1671743 -0.48596177 0.55916476 0.5775772
163 0.992155 -0.31512552 -0.49639952 -0.5812588 -0.10623312 0.49971798 -0.74076164 0.35786343 -0.18958774 -0.17127603 0.33259532 -0.2807156 -0.2690002 -0.16038023 -0.5444849
347 0.45865524 0.09584469 0.3367537 -1.0946684 -0.23334637 -0.52472144 -0.21881907 -0.21538934 -0.5533587 -0.2211038 -0.19417872 0.42885676 -0.22403145 1.0089912 0.25686297
727 0.19156098 0.44347265 -0.39535832 -0.9866227 -0.5647373 -0.3998703 0.36939168 0.8705606 0.7607254 -0.054753955 0.6823402 -0.5098836 -0.46740085 0.33667487 0.012699062
218 0.27888307 0.105793096 0.020944173 -0.6643787 -0.7694512 0.71355283 -0.9293998 0.6280496 -0.29106602 -0.23201461 0.041100707 0.1413052 -0.50100815 -0.44472435 -0.18690325
725 0.11487055 0.57851744 -0.41102394 -0.9549748 -0.5951476 -0.488314 0.34065014 0.8827179 0.82176054 -0.06898099 0.7518507 -0.46538493 -0.5958 0.4452392 -0.09191514
654 -0.27617115 -0.59880924 -0.27401945 -0.6129153 -0.56980973 0.1594929 0.47429934 -0.49412695 -0.42630047 0.239505 0.41301766 0.11666415 0.30159202 0.44026905 -0.7798652
569 -0.33881003 -0.1042644 -0.40511876 -0.50301623 -0.33247367 0.6270134 -0.114029095 0.057356324 -0.7093898 0.1579339 -0.13140437 -1.1548256 -0.5258462 0.6719446 0.66119194
582 -0.54465955 -0.01542901 0.38799134 -0.5450504 -1.0225314 0.28627494 0.3906782 0.22000344 -0.06746073 -0.90737736 0.6510154 -0.25826153 0.13269703 0.34613967 -0.60152596
383 -0.094046675 0.3566317 -0.048545126 -1.0789909 -0.38700527 -0.7097987 -0.37039176 -0.37340045 -0.78143984 -0.38002643 0.03211548 0.5848425 -0.31617886 0.4150418 0.23379909
414 -0.16974631 0.6838177 0.28118944 -1.2774122 0.25750312 -0.36591083 -0.47093913 -0.3114005 -0.60193694 -0.30923846 -0.20023343 -0.0783608 -0.7948928 0.46779537 -0.21525115
559 -0.22679147 -0.14766115 -0.36389047 -0.46822748 -0.33647996 0.5502187 -0.18557976 -0.18287888 -0.6445617 -0.07486054 -0.011721756 -1.4255916 -0.34149563 0.5869226 0.57630134
429 -0.33685336 0.4375098 -0.44656608 -0.654022 -0.2253813 0.6964686 -0.8516911 -0.122635074 0.8326671 -0.21470997 -0.39725947 -0.39552933 -0.32059643 1.0414464 0.21362136
411 -0.014663986 0.5493505 0.06403713 -1.2060672 0.21460861 -0.5053109 -0.48752257 -0.39357513 -0.6603415 -0.30764347 -0.1623274 -0.03481105 -0.73498625 0.4475704 -0.20506987
443 -0.24902312 -0.09712826 -0.64468974 -0.35536748 -0.34783256 0.5118991 -0.71381897 -0.18873422 0.5827831 0.094609566 -0.11639778 -0.43063232 -0.36879766 1.289654 0.3493978
150 0.78246176 -0.13520138 -0.2805582 -0.14515544 -0.36137313 -0.19796419 -0.84119046 0.11857923 -0.12374881 0.06895787 0.54040295 -0.31512237 0.24993658 0.17373289 -0.80687505
709 -0.8093042 -0.13106827 0.21006411 -1.1409575 -0.61877155 0.9734494 0.5986375 -0.10317835 -0.075825095 0.37708214 -0.00093570363 0.25127682 -0.13426316 0.3581471 -0.33653244
570 -0.40094158 -0.079809286 -0.41955754 -0.47691926 -0.34720573 0.573302 -0.11888473 0.11348092 -0.75413644 0.08831314 -0.11071184 -1.1675091 -0.54508644 0.6403682 0.6160594
375 -0.105683155 0.23712468 0.22870052 -1.1638219 -0.14981444 -0.57242525 -0.38904357 -0.07901887 -0.8771496 -0.529816 -0.15319866 0.44314307 -0.28920805 0.72575593 0.23409998
186 0.6755687 -0.1463599 -0.474072 -0.86935633 -0.3288574 0.75252074 -0.78317106 0.22533362 -0.22985844 -0.15853353 0.020984182 0.02400127 -0.17764789 -0.52347976 -0.11938091
314 0.48930356 0.038293596 0.66645473 -1.338408 -0.1073321 -0.27434388 -0.06465252 -0.32835606 -0.23821844 -0.30895504 0.25987318 0.012753207 -0.14492793 0.46668014 0.6326921
527 -0.045259763 0.2701648 -0.6002728 -0.23541072 -0.6871297 0.40294814 -0.29534465 -0.6034953 -0.264541 -0.056478683 0.21808177 -1.1493517 -0.43190676 0.6013274 0.6631232
329 0.76055545 0.25777277 0.61597157 -1.2044368 -0.29857913 -0.27394974 0.045479324 -0.3617601 -0.3468503 -0.30792326 -0.0060292855 0.09500688 -0.090486474 0.72745144 0.4810445
723 0.18501389 0.47155097 -0.44217426 -0.9585721 -0.5145664 -0.40049505 0.393209 0.86111546 0.7740042 0.07431383 0.77806276 -0.45412877 -0.59464055 0.34814146 -0.112417825
396 0.11317222 0.32763183 -0.21933343 -1.1710871 0.093061894 -0.5855139 -0.41446465 -0.57645255 -0.8051176 -0.5314766 0.032993067 0.27256337 -0.54534703 0.39958575 -0.008590913
586 -0.3997687 0.09678531 0.3275222 -0.68455774 -0.80887765 0.36212444 0.4862622 0.04451142 -0.113722205 -1.0855459 0.6509514 -0.22475724 0.01750516 0.42424765 -0.6634252
688 -0.3005009 0.004813806 -0.11208381 -1.0609415 -0.4047384 0.84901434 0.5788764 -0.70206827 0.22244646 0.27161315 0.370797 0.2290295 -0.47790354 0.32412264 -0.526194
107 0.5628579 -0.098545134 -0.3752881 -0.26439366 -0.24203564 0.51320165 -0.34132084 0.50360435 -0.52151465 -0.26377767 1.2271693 0.25281805 0.24709333 0.1928362 0.33002704
82 0.5915481 0.3622908 -0.60650223 -0.4782752 0.01756921 0.62321424 -0.468242 0.29769814 -0.21933205 0.027058287 0.91152686 0.72055745 0.15373793 0.4469655 0.11414609
392 0.092557676 0.26628208 -0.25442994 -1.2123312 -0.010559446 -0.70140314 -0.22196274 -0.47410434 -0.87121314 -0.5385997 0.16942303 0.2779218 -0.54397196 0.36033145 0.19129148
70 0.31534824 0.43268284 -0.45986125 -0.49871457 0.3383589 0.7686598 -0.57976544 0.48071402 -0.41637126 -0.13749148 0.943948 0.34570062 0.05841347 0.35251045 -0.018030507
390 0.12991661 0.19867586 -0.36708736 -1.1295725 -0.20743649 -0.84839416 -0.13867456 -0.5568407 -0.9582889 -0.4704397 0.25971594 0.28332722 -0.51981825 0.25148126 0.25405842
98 0.60750157 -0.04162516 -0.3809402 -0.33672395 -0.22909252 0.72372675 -0.40280473 0.32749718 -0.26644704 -0.097752444 1.2657166 0.49646968 0.13999026 0.2406768 0.3000627
517 -0.27099404 0.32106942 -0.78107 -0.25660256 -0.79733235 0.5091812 -0.3247181 -0.61198705 -0.2019856 -0.20548017 0.24934052 -0.99939543 -0.37686014 0.49992135 0.71136636
728 0.28781307 0.41072032 -0.4000886 -1.0382687 -0.64666826 -0.30860877 0.38123724 0.82385606 0.8587741 -0.026471991 0.705284 -0.5156931 -0.41365263 0.2148966 0.03269579
247 0.38702896 0.041975398 -0.11648639 -0.42787796 -0.57883704 0.5209889 -0.6708151 0.7379362 -0.71707684 0.17672935 -0.047012977 0.092462264 -0.7126856 0.0012079256 -0.35919335
687 -0.23985717 -0.051194523 -0.091210686 -1.0221448 -0.54464805 0.78003234 0.6025105 -0.7150423 0.19069254 0.2158847 0.36771795 0.20868479 -0.49261194 0.23267005 -0.52965987
662 -0.2555419 -0.53625876 -0.014171633 -0.60803133 -0.78723705 0.6405557 0.5813798 -0.24789509 -0.01215187 0.105383664 0.3517767 0.2879341 -0.35172617 0.8320426 -0.65635175
720 0.21302979 0.4390283 -0.50599474 -1.0251969 -0.33870003 -0.5241163 0.29751658 0.614529 0.6969572 0.044598956 0.75809216 -0.55703145 -0.50815445 0.20105831 -0.103269145
537 -0.012791654 0.0050645713 -0.578359 -0.388947 -0.57288426 0.4132924 -0.15214759 -0.3892997 -0.42389476 0.08095281 0.07315911 -1.2663343 -0.4532962 0.60690296 0.71966076
351 0.39920494 0.016278176 0.35168216 -1.2135569 -0.14868931 -0.3973739 -0.22182494 -0.15864311 -0.6128866 -0.13905089 -0.23468633 0.52927285 -0.31208104 0.92861414 0.31745878
332 0.7366043 0.34411147 0.6746006 -1.0962533 -0.4914744 -0.41609687 -0.0035294634 -0.34207332 -0.32540238 -0.37291053 -0.03625519 0.06418833 -0.10704923 0.79810625 0.37134078
485 -0.42015365 0.06388386 -0.42849153 -0.12226539 -1.2201673 0.40676787 -0.41589087 -0.2016838 0.022698784 -0.05353307 -0.00981719 -0.57931644 -0.0044641923 1.0068226 0.8719334
335 0.74234074 0.3669506 0.6356234 -0.99722236 -0.48820424 -0.45860535 -0.2344573 -0.35204676 -0.35714787 -0.35582283 -0.11490321 0.14693753 -0.07512982 0.88142085 0.3406189
192 0.6134899 0.05125129 -0.40601066 -0.9332298 -0.43661517 0.7287458 -0.81874293 0.4123337 -0.36884034 -0.3648983 -0.08524872 0.020974869 -0.15394707 -0.62376434 -0.12991787
325 0.72572243 0.09371494 0.5052691 -1.2944461 -0.22824179 -0.34742495 -0.062906615 -0.416233 -0.36830452 -0.1784949 0.058641896 0.13292876 -0.12608051 0.588222 0.6384773
451 -0.4472289 -0.25605872 -0.7647448 -0.30227998 -0.42177388 0.33522904 -0.79058427 -0.3465652 0.51482886 -0.16495441 0.15331294 -0.35602835 -0.4780194 0.994644 0.36338398
120 0.6727017 -0.35381863 -0.26336712 -0.1264499 -0.29809132 0.28357995 -0.448845 0.50552577 -0.4579701 0.049056776 1.0168284 -0.11144372 0.26108795 0.2243431 -0.098731145
215 0.30978042 -0.1081365 -0.008943654 -0.6704694 -0.69379705 0.69920105 -0.96307886 0.6562035 -0.3813658 -0.16446276 -0.06152401 0.20546147 -0.36567503 -0.3244059 -0.2125962
632 0.11247916 -0.44966114 0.12692274 -0.7575929 -0.32338375 0.6566972 0.7190677 -0.3397414 -0.013692198 -0.21085896 0.528967 -0.21672443 -0.3233273 0.782512 -0.88641906
217 0.25877786 0.06472797 -0.045297164 -0.608389 -0.75550246 0.65023106 -0.9343607 0.7132596 -0.29882935 -0.17504972 0.060741045 0.14532682 -0.44382814 -0.37154302 -0.1966124
736 0.24143538 0.21030296 -0.3354019 -1.0622394 -0.602709 -0.43680152 0.39551404 0.99391174 0.7016946 0.26069716 0.43629453 -0.5794528 -0.30780616 0.38376662 0.079146326
488 -0.46813244 0.05856582 -0.5003267 -0.16553132 -1.1980742 0.5026738 -0.46580198 -0.20274614 -0.054403186 0.014582237 -0.024070349 -0.546241 0.0077421567 0.889544 0.9358541
193 0.53085583 0.028691791 -0.4291904 -0.9638342 -0.4455524 0.73805577 -0.79833627 0.39962602 -0.3868919 -0.30720192 -0.16909689 0.07900315 -0.12015442 -0.6030192 -0.13586791
588 -0.36399007 0.060784888 0.23296024 -0.72601265 -0.82677305 0.4074225 0.5261885 0.022385038 -0.15054926 -1.0821601 0.64654595 -0.22220162 0.053024024 0.28221506 -0.69883263
519 -0.26266906 0.27525717 -0.7743062 -0.28101736 -0.8223098 0.47360945 -0.35380903 -0.60003793 -0.27133748 -0.21370116 0.20238492 -1.0640333 -0.45479277 0.4246738 0.690987
108 0.566677 -0.14895633 -0.37641636 -0.30872497 -0.2304489 0.42343834 -0.3187539 0.5102097 -0.553826 -0.16519158 1.1500783 0.1722134 0.31314567 0.14566208 0.28519163
75 0.3542957 0.2897407 -0.4955775 -0.48758698 0.16687992 0.80516374 -0.48041558 0.48900107 -0.38696295 -0.032488953 0.8312754 0.66357046 0.18892984 0.52114254 0.10974911
430 -0.32716268 0.33840284 -0.53504366 -0.603948 -0.1849492 0.68144804 -0.8020633 -0.26257077 0.67212886 -0.18784016 -0.37932175 -0.5062435 -0.31998998 1.1593164 0.24371003
506 -0.21002418 0.08677887 -0.82819766 -0.36923054 -0.883728 0.54649645 -0.24514987 -0.36120972 -0.11623392 -0.3853101 0.029609757 -0.7363033 -0.05122716 0.62396 0.8662715
538 -0.084573805 -0.030768264 -0.5842235 -0.34588364 -0.60921687 0.47733524 -0.17052166 -0.343184 -0.4517426 0.033931524 0.10259365 -1.22613 -0.3677147 0.58292294 0.7284707
596 -0.5186204 -0.22977072 0.11275425 -0.7620095 -0.5328517 0.4248831 0.22228836 -0.05326538 0.19643746 -1.0379192 0.676028 -0.3558438 0.10769125 0.29737622 -0.90922433
377 -0.12791295 0.18168165 0.20876175 -1.1753141 -0.20393111 -0.6070161 -0.42402315 -0.11412469 -0.8454618 -0.5606665 -0.1371486 0.52442694 -0.3382211 0.66067713 0.2204811
447 -0.33772773 -0.03588799 -0.5517811 -0.2905933 -0.42635807 0.5170199 -0.80056626 -0.28121766 0.46172848 -0.05017309 -0.036636002 -0.45705992 -0.42215854 1.2069945 0.41780546
501 -0.17237768 0.042786684 -0.96936005 -0.3395379 -0.9639069 0.44684765 -0.28530753 -0.41061273 -0.22685869 -0.27903417 -0.10278767 -0.64806265 0.08524999 0.7284886 0.9015283
378 -0.17581585 0.32673207 0.12236964 -1.1816916 -0.26314422 -0.62665874 -0.37437198 -0.19391301 -0.7488099 -0.46276832 -0.13113555 0.53973836 -0.2608658 0.6069761 0.23514047
79 0.4763451 0.3945542 -0.6605559 -0.47606203 0.11217052 0.6585979 -0.49156797 0.47744805 -0.2657869 -0.17614166 0.81705576 0.7311634 0.16083755 0.56457883 0.03455414
711 -0.81393045 -0.10412733 0.24241789 -1.1362236 -0.65854335 1.0163805 0.58158225 -0.06763999 -0.086075604 0.41309464 -0.083079554 0.24132083 -0.05837787 0.3510161 -0.2176489
695 -0.4888836 -0.16460034 -0.20837095 -0.9193639 -0.5690424 0.76605743 0.5225594 -0.44256526 -0.017906344 0.26154628 0.31771925 0.32704794 -0.4807024 0.2507122 -0.4543317
99 0.61879367 -0.06039765 -0.37416813 -0.33822381 -0.21699108 0.65189457 -0.36332428 0.31911004 -0.32293963 -0.021555329 1.2453301 0.47203395 0.12009169 0.23549032 0.32225385
457 -0.63027936 -0.18405628 -0.7814249 -0.30459872 -0.45461446 0.2874379 -0.8130801 -0.22884254 0.3757699 -0.22603443 0.17667049 -0.46599516 -0.35193825 1.0309198 0.5176881
322 0.65090895 -0.03723977 0.56470096 -1.3103925 -0.16860713 -0.22664219 -0.009265251 -0.39754283 -0.31752756 -0.17087272 0.05185239 0.068584695 -0.10165318 0.60365134 0.68445224
739 0.1765154 0.10797854 -0.39052835 -1.1180861 -0.5361275 -0.4132432 0.39975718 0.9165431 0.6561301 0.22992569 0.38153413 -0.54691565 -0.14956664 0.30710256 0.04084164
164 0.98835725 -0.29799598 -0.39177558 -0.58464444 -0.084517576 0.4992308 -0.75618875 0.3640621 -0.14061032 -0.10476697 0.31204545 -0.2707141 -0.25582856 -0.10117143 -0.5239835
502 -0.2807015 0.0462679 -0.8716669 -0.36516398 -0.8730374 0.5355522 -0.3835008 -0.43572566 -0.22655633 -0.2198033 -0.012429062 -0.5667942 0.12361624 0.6983674 1.0652239
507 -0.28399783 0.12559186 -0.8610217 -0.41798255 -0.7964951 0.49278033 -0.278065 -0.34060052 -0.17601088 -0.31514677 -0.017566103 -0.7163394 -0.015518413 0.6359636 0.9326778
240 0.35989088 -0.019454854 -0.029187724 -0.47362792 -0.6497728 0.64464706 -0.7366653 0.87290514 -0.6353706 0.015156782 -0.13131118 0.18145634 -0.8174423 0.056374315 -0.3326694
372 -0.10729434 0.047583725 0.34311527 -1.2154763 0.043049417 -0.49217662 -0.47200122 -0.02288961 -0.88273644 -0.6216793 -0.09360271 0.45588094 -0.30202633 0.80913675 0.15731364
428 -0.28384095 0.45999116 -0.4433409 -0.68627626 -0.22709341 0.70159215 -0.8124274 -0.087062635 0.81259346 -0.27536964 -0.42173013 -0.3783574 -0.3695524 1.0729557 0.23371951
546 -0.3038681 -0.18926144 -0.4128509 -0.5114221 -0.4179977 0.6323186 -0.15796329 -0.12729336 -0.5673206 -0.10640769 -0.031079063 -1.3730083 -0.38396275 0.53859574 0.6723502
595 -0.5064206 -0.25366652 0.07355844 -0.7941415 -0.59533453 0.33133566 0.2646405 -0.09461069 0.09930396 -1.1204599 0.62854207 -0.22112292 0.067955874 0.314654 -0.8535041
277 0.15914826 -0.27261037 0.5331371 -0.80544394 0.0061885864 -0.6745516 -0.75892067 -0.5096054 0.2909265 0.24018112 0.6138431 -0.14562489 -0.025941178 0.51999444 -0.08615517
543 -0.18301268 -0.21092784 -0.46630284 -0.53408474 -0.38858482 0.6077384 -0.1294539 -0.18855989 -0.47468188 -0.08668267 0.034083538 -1.3445292 -0.43174684 0.46116748 0.67966855
774 -0.17956933 -0.35930476 -0.26805255 -1.0460473 -0.58694035 -0.44496587 0.27124676 1.1670551 0.40236774 0.43809795 0.26498884 -0.5414282 0.19854018 0.41688478 0.052969143
458 -0.61357135 -0.2837666 -0.82540685 -0.23929937 -0.4525563 0.33635345 -0.8679952 -0.2304338 0.35596344 -0.22249863 0.19356938 -0.5126028 -0.26636407 0.99956286 0.4096515
273 0.22056794 -0.26805243 0.81265306 -0.8685768 0.026937459 -0.44881135 -0.6153026 -0.5344719 0.11008852 0.05863435 0.8710275 -0.087137245 -0.6496583 0.6062946 0.2230141
371 -0.083116025 -0.028137475 0.32188463 -1.2075249 0.025334748 -0.5491386 -0.48297188 0.09898758 -0.84514534 -0.5390693 -0.12642965 0.44374108 -0.22612505 0.8686199 0.25941855
412 -0.07987042 0.62758386 0.16530159 -1.252071 0.24822898 -0.4517202 -0.49264055 -0.2825699 -0.65967196 -0.37432227 -0.1779844 -0.028647343 -0.77992487 0.45308554 -0.22531174
197 0.3995436 -0.08601159 -0.40678015 -0.8869019 -0.573176 0.67265534 -0.82032424 0.4933218 -0.55782044 -0.3241107 -0.17747667 0.2775003 -0.011971951 -0.5243103 -0.13692613
535 0.07509083 0.19482625 -0.7314407 -0.22027752 -0.65896094 0.38121092 -0.14291301 -0.4531787 -0.31786495 -0.028735079 0.2019781 -1.1923674 -0.4853716 0.77728933 0.660927
516 -0.2624035 0.35215962 -0.8126066 -0.3095072 -0.84300685 0.34316424 -0.33711785 -0.4722677 -0.21144657 -0.29895395 0.13508384 -1.0036097 -0.3618963 0.5144768 0.7405962
