749 20
657 0.46551704 0.65101033 -0.42041105 0.62715244 0.24923684 -0.5661718 -0.20520073 1.0686027 -0.053176697 0.10149703 0.41247278 0.207558 0.14456102 0.17635871 0.007818897 0.2973305 0.24921823 -0.20927562 -0.27825293 -0.30116308
265 0.24743155 -0.36188734 0.91447586 0.026577821 0.21500236 -0.01218779 0.3084849 0.82936203 0.016219076 0.2898992 -0.39058328 -0.3983114 -0.3137053 0.2424074 -0.5089006 0.6247768 0.789745 0.049005117 -0.10548093 -0.514411
234 -0.23199402 -0.4549087 -0.02640013 0.415432 -0.5853714 0.27896202 -0.21482942 0.4976578 -0.8005413 -0.57451206 -0.01744655 0.02928863 0.4474387 -0.5846864 0.25809667 0.24552323 -0.08042644 -0.038375735 -0.35029113 -0.8846535
201 -0.5135802 -0.66958946 -0.4684255 -0.17089306 -0.23964821 -0.106885605 0.28783438 0.7064321 -0.56148446 -0.503631 0.012142543 0.05464086 0.002888125 -0.37294084 0.12151861 0.22958519 0.56961054 -0.25075376 -0.08271738 -0.62325746
55 -0.20629951 -0.15886617 -0.16090155 0.34894532 -0.1181444 0.50243735 -0.47965944 0.5952928 -0.61325085 -0.25079805 -0.35713035 -0.2665671 0.0051316298 -0.125428 0.62686074 0.7458855 0.66662073 -0.24097824 -0.095673844 0.4285593
264 0.21892168 -0.31590658 0.9522706 0.0319213 0.17515688 -0.06930641 0.22334464 0.7929392 -0.022824403 0.2666653 -0.4823492 -0.45494238 -0.31148213 0.18271278 -0.49598852 0.6454527 0.7662366 0.013518971 -0.04026878 -0.5179656
388 0.14041758 0.07788343 0.85425645 0.18104039 -1.037541 -0.21870315 0.10037038 0.49390486 -0.10958806 -0.32755375 0.16171595 -0.21533547 0.2456574 -0.17232047 -0.6462189 0.77786034 0.3446974 0.30204353 0.13818182 -0.04431941
15 -0.38060647 -0.48737493 -0.23622134 -0.10858791 -0.42029446 0.35363272 -0.35424584 0.740672 0.14847332 0.09187272 0.09734709 -0.18646021 0.55950147 -0.11363006 0.6732282 0.7986486 0.25001183 -0.04700197 0.37099448 -0.190067
38 -0.38592514 -0.38463485 -0.3958807 0.3127911 -0.25173426 -0.2854967 -0.16912039 0.17470056 -0.36066315 0.09039566 -0.051854786 -0.35926643 0.30882856 0.0069839526 0.6995746 0.89607954 0.6773631 -0.3229025 0.69188446 -0.09762587
401 -0.21647097 0.1438419 0.92491204 0.3000667 -0.54140973 -0.16229282 -0.08236566 0.66328466 -0.035694618 -0.6332082 0.16290851 0.23168133 0.16685784 0.16378766 -0.60272956 0.5882557 0.6480205 0.2772917 0.21273686 -0.11305833
16 -0.4323064 -0.47952703 -0.31906483 0.008326762 -0.36712757 0.26374283 -0.43917027 0.6443749 0.09960287 0.09272249 0.15627861 -0.071107365 0.5548334 -0.07507792 0.62684053 0.8215925 0.34207976 -0.028542103 0.2942295 -0.30335674
181 0.099339455 -0.5398354 -0.55632365 0.21610802 -0.24757811 -0.23731965 0.3438111 0.7632397 -0.61869454 -0.29491052 -0.023519285 -0.02759021 0.31798276 -1.0537896 0.08626137 0.14022179 0.3877249 0.15448244 0.037581082 -0.106280394
211 -0.41868562 -0.51623905 -0.28690916 0.12350182 -0.39695466 0.21695316 0.5391717 0.8898658 -0.9303193 -0.38363662 0.014441671 -0.10347187 0.05081466 -0.2169256 -0.0052028154 -0.06859627 0.29477808 -0.51299113 0.116291925 -0.44810343
31 -0.65561634 -0.31498033 -0.43334085 0.33728287 -0.11469221 -0.1086174 -0.19435222 0.18880315 0.046532944 -0.1481183 -0.021560298 -0.006939094 0.42066732 -0.046453465 0.87501466 0.94166875 0.60616 -0.07913703 0.40309268 -0.35196608
112 0.017766224 -0.24732983 -0.08852028 0.12450021 -0.1851459 -0.14847806 -0.49487147 0.80339897 -0.27421924 -0.09740373 -0.66301924 0.44729927 0.4904271 -0.3929276 0.41341558 0.04175296 0.7559381 -0.51500833 0.2483347 0.20319824
213 -0.4268259 -0.5129593 -0.25099713 0.40180048 -0.43683434 0.19433637 0.5256667 0.9173664 -0.8872203 -0.43334484 -0.10838102 -0.13815501 0.029549837 -0.24810295 0.089078754 -0.10276874 0.13948566 -0.329206 0.15581335 -0.49082717
751 0.27702868 0.10877466 -0.42494416 -0.2389835 -0.029002173 0.48209214 0.38719082 0.19456121 -0.068083316 0.2556126 -0.23596863 0.17203969 1.2302547 0.21792436 -0.19184127 0.3551613 0.95455855 0.11202472 -0.30762535 -0.25749335
462 0.2623147 0.26729363 -0.2311257 -0.68804276 0.31221434 -0.2030732 0.03718618 0.48054886 -0.5414953 -0.68615216 -0.49373612 -0.42155486 0.12939233 0.31092346 -0.12178936 1.1123712 -0.2902755 0.5777568 0.08899543 -0.25002557
394 -0.15167491 0.08301403 0.7318497 0.42072514 -0.9578829 -0.4447327 0.13612697 0.6206296 0.09325572 -0.38352805 -0.0046341233 0.11684586 0.14628848 0.008965264 -0.6650225 0.7067076 0.45511797 0.6005531 0.13470443 -0.023706438
204 -0.5324159 -0.5703523 -0.535467 -0.27014425 -0.13800433 -0.052355237 0.33989236 0.7189468 -0.551041 -0.52802956 0.17257802 -0.021201106 -0.009199147 -0.42644244 0.19785433 0.31671843 0.6232684 -0.42249483 -0.003637815 -0.58749664
266 0.24363512 -0.35815078 0.93888116 0.15790154 0.18328695 -0.069516875 0.2896337 0.7859644 0.10510086 0.23857999 -0.42009434 -0.3087461 -0.29452273 0.1857522 -0.40188375 0.6363111 0.7025317 0.07957912 -0.03791629 -0.49323374
54 -0.36175984 -0.1619249 -0.17558564 0.35681194 -0.14789943 0.39952508 -0.47582215 0.54952383 -0.6265374 -0.18930276 -0.2944259 -0.31389752 0.07583412 -0.1479582 0.53451484 0.7663163 0.64787453 -0.26167145 -0.05526088 0.2953265
229 0.014704756 -0.45866346 -0.07611562 0.23917326 -0.51484764 0.42287815 0.14133061 0.5558024 -0.72378796 -0.547218 0.104255535 0.30390257 0.2514891 -0.59729505 0.49197376 0.1938176 -0.057679772 -0.30626613 -0.23460183 -0.6741538
261 0.21447256 -0.2986184 1.0166042 0.09337963 -0.008275836 -0.13858314 0.22971901 0.7753902 0.07824283 0.16130947 -0.50332266 -0.3807046 -0.37326393 0.47933367 -0.33271664 0.61133134 0.6274836 -0.088864386 -0.16425371 -0.5866006
44 -0.1316151 -0.43477252 -0.29530364 0.3906148 -0.2559996 -0.14157207 -0.36836046 0.12749884 -0.6135578 0.17630793 -0.106748365 -0.49656156 0.4414969 -0.10560709 0.51976025 0.8493065 0.651325 -0.37515458 0.45215598 0.028685007
675 0.5624758 0.11677263 -0.34918582 0.27617034 -0.22506805 -0.27032775 -0.28336927 0.74494004 -0.381368 0.34528297 0.38257065 0.33993798 -0.01764518 0.5336638 -0.28520015 0.60240924 0.08912755 -0.52529246 -0.40373132 -0.31522045
20 -0.5312306 -0.5719676 -0.50585705 0.18222694 -0.21886669 0.1985194 -0.4742587 0.6141816 0.21812652 0.079243734 0.055519085 -0.017053297 0.49185202 -0.15844339 0.55704826 0.95208454 0.45769495 0.0663184 0.3009407 -0.28885254
47 -0.2154798 -0.21278416 -0.19133902 0.4696237 -0.2836234 0.2756313 -0.2965542 0.45651126 -0.3905939 -0.046619024 -0.30182925 -0.39885724 0.2242018 -0.106046245 0.5965243 0.68220997 0.55549496 -0.31706643 0.22019999 0.24600992
226 0.0025480345 -0.7681508 -0.11523174 0.3746926 -0.22795068 0.43882507 0.29367045 0.58921385 -0.7321535 -0.40728584 0.1305268 0.43569383 0.17795978 -0.44160157 0.4292524 0.136248 0.039420553 -0.25392047 -0.12544894 -0.69776237
358 0.33104864 0.26011276 0.9244836 0.34161046 -0.4438716 -0.38285816 0.21775793 0.109077744 -0.65979546 -0.08707001 -0.0029421917 0.29724726 -0.2712543 -0.10121555 -0.23839572 0.7375862 0.9369611 0.076288715 0.3265447 -0.22147796
53 -0.34739 -0.19505002 -0.15386969 0.39259437 -0.19215278 0.32082635 -0.45136005 0.5173751 -0.64816767 -0.019269852 -0.34508854 -0.30175996 0.098942295 -0.18047982 0.42698377 0.75264055 0.743885 -0.17761034 0.009853793 0.30610108
361 0.17402418 0.2242936 0.8933594 0.52584887 -0.4720795 -0.30522677 0.42118835 -0.001610657 -0.5673263 -0.28758112 0.060766287 0.21092744 -0.19149475 -0.033638444 -0.39363575 0.8122809 0.83415586 0.014532323 0.19988388 -0.17038852
677 0.39123183 0.20520414 -0.36991283 0.24974057 -0.29592437 -0.3539328 -0.3234984 0.61523205 -0.43170488 0.22760582 0.4083685 0.3376302 -0.12182289 0.579465 -0.18891926 0.6904909 0.09712254 -0.5206175 -0.47355607 -0.4889497
287 0.59053904 -0.4080911 0.9405485 0.10130565 -0.037042726 -0.7150681 0.19159004 0.06574931 0.38474032 -0.16567676 -0.021731982 -0.22039005 0.50246423 -0.20304611 0.11251324 0.725441 0.7351592 -0.17558585 -0.23397152 -0.53055936
62 0.08220871 -0.29177794 -0.32124248 0.37312332 -0.058460403 0.53020656 -0.2644598 0.6623527 -0.19538791 -0.55356294 -0.4273079 -0.21454492 -0.14419223 -0.10471161 0.64142716 0.59028447 0.6626454 -0.31831446 -0.03382441 0.41399607
389 -0.012602986 0.11570367 0.85949665 0.34133583 -1.1119772 -0.2778988 0.19827814 0.44960377 -0.07833592 -0.32389313 0.058947433 -0.1426756 0.26131374 -0.16527992 -0.6245486 0.85256076 0.21400198 0.4513564 0.14249547 -0.0015776936
222 0.07915863 -0.9470291 -0.37886357 0.7001025 -0.18567854 0.42504385 0.55639505 0.59991693 -0.83017063 -0.23147394 -0.0679011 0.36091027 0.15592892 -0.28271416 0.27128643 -0.010152033 0.018991048 -0.33432257 0.040569287 -0.71594024
591 0.35087106 0.75417674 -0.38283175 0.25273937 0.23004442 -0.435447 0.038133968 0.5631887 -0.27377602 0.12541121 -0.05741774 -0.3144363 0.37694725 -0.44727862 -0.57792205 0.6040901 0.10417773 -0.8383986 0.23406173 -0.36783478
461 0.27560768 0.22885051 -0.20198697 -0.6025399 0.38996845 -0.19067806 0.063213654 0.54138476 -0.4628732 -0.60699344 -0.42024976 -0.42184976 0.13198887 0.29369825 -0.054605443 1.0522432 -0.3219094 0.6272963 0.1137312 -0.38195395
183 0.021938156 -0.63746375 -0.46160015 0.16129163 -0.16185553 -0.18690799 0.3920404 0.66562045 -0.6457943 -0.3464021 -0.11923697 -0.069178104 0.39556247 -1.040181 0.0800156 0.2000835 0.3833958 0.13612193 -0.073888354 -0.05326679
182 0.059013836 -0.552437 -0.5444125 0.2105854 -0.20444715 -0.27377212 0.36543247 0.67820096 -0.6102301 -0.34310398 -0.065255225 0.03218759 0.33365074 -1.0717372 0.09194236 0.18370004 0.40864596 0.15889707 0.017432256 -0.051379137
256 0.21033743 -0.08786513 1.1348968 0.05482449 -0.271142 0.27943814 0.34834927 0.60163003 0.031822015 0.037813067 -0.34320605 -0.28787372 -0.31595907 0.50683206 -0.013921138 0.66598743 0.42601714 -0.191047 -0.29407844 -0.6428192
230 -0.027898556 -0.4577094 -0.071114115 0.28152743 -0.499216 0.39847288 0.14895451 0.5578581 -0.72603345 -0.48339835 0.04108024 0.27510953 0.2765532 -0.563667 0.5221041 0.16398165 -0.06210158 -0.2616192 -0.29702336 -0.7349899
270 0.50111103 -0.26112998 1.0346565 0.59984785 0.13551623 0.20288353 0.38548374 0.9150516 0.29482695 0.46836618 -0.4058953 0.006505464 -0.14868797 -0.05517315 -0.15927988 0.50230443 0.46499994 0.4280855 0.041817993 -0.55445886
257 0.23001918 -0.11606585 1.1578692 0.109733045 -0.2171352 0.23196846 0.32690078 0.60453886 0.0424262 0.05570612 -0.42130503 -0.25459823 -0.2815555 0.5389069 -0.01038452 0.60810494 0.3985344 -0.22460978 -0.25131112 -0.6297141
759 0.42345467 0.35820213 -0.28980795 -0.22269252 -0.052157506 0.67981315 0.26702383 0.11316285 -0.3880285 0.41068855 -0.15521745 0.20830312 0.92614555 0.04133345 0.04497375 0.44528484 1.108012 0.21573137 -0.30346867 -0.5172828
203 -0.5264914 -0.5801876 -0.43103454 -0.27480903 -0.1925045 -0.10004903 0.36398402 0.7093153 -0.59353036 -0.50324684 0.13984917 -0.028369883 -0.040998872 -0.38597196 0.15908559 0.2933545 0.59509337 -0.41859597 -0.028754849 -0.56941324
30 -0.5848049 -0.3346472 -0.449451 0.34054083 -0.18050644 -0.0113526825 -0.25386852 0.2881076 0.1758663 -0.18891333 -0.04110217 -0.023006383 0.3980685 -0.07602481 0.9114152 0.9168517 0.6113242 -0.117618866 0.31227782 -0.314494
649 0.55370605 0.34597418 -0.33586934 0.6876596 0.4731691 -0.45431188 -0.34310338 0.6295716 -0.194569 0.09614278 0.4182899 0.3005278 0.24285859 0.08211626 -0.08865906 0.4750895 0.36086226 -0.42147577 -0.22500023 -0.4833423
19 -0.5545155 -0.571484 -0.347854 0.16390163 -0.21560785 0.21368922 -0.41870174 0.59107655 0.19246438 0.12686236 0.07397345 -0.123246476 0.6161721 -0.084534116 0.564071 0.923719 0.40933532 0.02292241 0.24852538 -0.24620077
702 0.34853843 0.36962202 -0.43411246 0.23854451 0.31611905 -0.29464123 0.27154425 0.7705061 -0.111804016 -0.09277479 0.73030794 0.09335711 -0.018258927 0.42314965 0.027777843 0.7860543 0.3355101 -0.53003293 -0.7056068 0.122408226
262 0.25183952 -0.38472727 1.0080004 0.12446623 -0.05676327 -0.12632048 0.26170987 0.81746376 0.04226953 0.18271714 -0.51867235 -0.4338848 -0.41677067 0.39306608 -0.34737915 0.58100486 0.65286285 -0.090367675 -0.17426485 -0.60702264
340 0.6043728 -0.40317693 0.5194283 -0.012863304 -0.56676096 0.16128492 0.57398564 0.2064273 0.13145213 -0.2970671 0.2269217 0.32652774 -0.24825509 -0.05164623 -0.48207226 1.0552565 0.62136704 0.15978678 0.35003167 -0.140505
698 0.44910765 0.24152069 -0.5090622 0.34985635 0.12218475 -0.39498743 0.37279725 0.6810739 -0.04784168 -0.19485353 0.7834871 0.002489519 -0.017867535 0.5161239 -0.08705989 0.7302073 0.26167944 -0.5526721 -0.62317014 0.010700015
393 -0.0854251 0.14570321 0.77752346 0.4426964 -0.9622266 -0.35871542 0.20254175 0.53058726 0.035786003 -0.41936624 0.010374898 0.07951666 0.18914871 -0.028219396 -0.6530399 0.7576044 0.3255346 0.5827442 0.11311483 0.016450806
757 0.32251883 0.33446494 -0.3382345 -0.24671037 -0.07575076 0.6075176 0.3220235 0.15125626 -0.2417325 0.30828643 -0.22912644 0.24277243 1.0277294 0.170729 -0.045444593 0.41622624 1.0406051 0.26026523 -0.42731097 -0.39201897
212 -0.37394023 -0.5121654 -0.27223435 0.19212207 -0.44632038 0.09911443 0.43882066 0.86358196 -0.9121822 -0.31862357 -0.05927103 -0.09494905 0.009847825 -0.21380481 0.012300297 -0.06807459 0.2684156 -0.44654337 0.13014826 -0.5695961
34 -0.47924942 -0.24322197 -0.44369385 0.35972047 -0.24016896 -0.080242954 -0.15534149 0.24781974 -0.02468142 -0.09848767 -0.03382103 -0.15668114 0.34836328 -0.03659532 0.93029207 0.9264645 0.58783215 -0.22499269 0.49396402 -0.05749804
168 0.08092438 -0.599528 -0.43259582 0.12983686 -0.6604093 -0.35440886 0.460336 0.89106756 -0.6016671 0.06610893 -0.41719007 0.019984977 -0.18410449 -0.43840882 0.5026832 0.17928131 0.27373695 0.34888798 -0.3936816 -0.060447823
245 -0.38217306 -0.2073745 0.048375174 0.6731098 -0.19733547 -0.097019605 0.3380444 0.49500835 -0.70230484 -0.8709966 -0.026951328 -0.17833091 0.39887533 -0.44612554 0.6508571 0.038057007 0.061484993 -0.21634215 -0.4274522 -0.561107
39 -0.23527873 -0.38426238 -0.40720403 0.31699392 -0.31506416 -0.29563177 -0.20375158 0.06794812 -0.47803363 0.1367672 -0.067873776 -0.37756988 0.2994488 -0.019169612 0.63866055 0.8856382 0.65843445 -0.30761898 0.70482415 -0.16081636
658 0.45079255 0.6243823 -0.40692192 0.611417 0.22894312 -0.512885 -0.22924761 1.0435827 -0.032520216 0.13489671 0.35729492 0.22574823 0.10195269 0.22829725 -0.0258842 0.31183252 0.2887052 -0.20469092 -0.27527 -0.29043624
475 0.3206685 0.17329082 -0.08930382 -0.5230451 0.3587979 -0.26791164 0.21969165 0.14892898 -0.22294627 -0.8195347 -0.4279203 0.13378845 0.36796412 0.2516412 0.20174462 1.2393912 -0.49431401 0.6297876 -0.17360671 -0.40009028
271 0.5432061 -0.24128447 1.0148288 0.6115317 0.14532359 0.24693353 0.32617787 0.92553484 0.27690533 0.5329543 -0.4742479 0.043919522 -0.099421896 -0.11988118 -0.11621903 0.48785502 0.50527126 0.59516346 -0.0018431742 -0.5308678
355 0.4499466 0.18466438 0.8015603 0.50151634 -0.58736634 -0.18030803 0.337922 0.18070526 -0.47443736 -0.2454257 0.0014697162 0.44190598 -0.32476965 0.016052008 -0.34868717 0.7057223 0.72674155 0.1844267 0.5618331 -0.23362708
35 -0.46945918 -0.23472922 -0.4738277 0.3770404 -0.18132778 -0.15190646 -0.17116371 0.16760604 -0.10357797 -0.04553207 -0.08177422 -0.14043635 0.27721798 -0.1260628 0.82904875 0.9784205 0.6344845 -0.28333664 0.5572861 -0.11075122
294 0.68625027 -0.22644848 0.95334274 -0.1488748 -0.040731773 -0.5675075 0.6625391 0.5256832 0.29651514 -0.033752553 0.012675889 -0.110514104 0.027687894 -0.11308483 0.22977352 0.49465358 0.8754392 -0.08179642 0.13421904 -0.27197734
339 0.65956974 -0.45248938 0.42814383 -0.12158452 -0.5132984 0.15699998 0.6022234 0.22941376 0.1314279 -0.18905573 0.22006938 0.3784902 -0.37088132 -0.09337874 -0.62287414 1.1261369 0.7355858 0.17079252 0.24737099 -0.19227374
692 0.3126972 0.4102418 -0.6320938 0.43362096 -0.033852905 -0.5398277 0.326657 0.78302294 -0.075605 -0.29080918 0.61062646 0.13787164 -0.024868716 0.64501905 -0.23725142 0.5333732 0.12210733 -0.5624089 -0.44423708 -0.053982176
235 -0.16850983 -0.40260446 -0.035165545 0.35358062 -0.55858696 0.14267504 -0.19725117 0.4798285 -0.8135382 -0.56699145 -0.060043268 0.07025465 0.40006354 -0.5644763 0.19667071 0.19451942 -0.032552756 -0.19624786 -0.3506934 -0.8826923
288 0.6360955 -0.29340237 0.9162205 0.04538007 -0.07137366 -0.6625589 0.29666957 0.15598723 0.42614487 -0.20335652 -0.03770416 -0.25808194 0.37871337 -0.16991359 0.16435696 0.6471259 0.7400347 -0.16267726 -0.15103151 -0.545737
769 0.39415944 0.69793737 -0.30344725 0.033626057 -0.22111963 0.38041764 0.7458074 0.05681602 -0.10236178 0.09766934 -0.31187257 0.4029978 1.2110281 0.2074129 0.42673835 0.17482172 0.80244833 0.14674473 -0.1530425 -0.22505036
763 0.42186075 0.5036473 -0.27909422 -0.14523703 -0.24230243 0.42898518 0.33346155 0.0054661413 -0.31965753 0.2950853 -0.3205953 0.37326404 1.0462563 0.13565595 0.16273303 0.3379724 1.0093971 0.25285956 -0.25790033 -0.41250923
59 0.0056989416 -0.17472446 -0.29579705 0.34788227 -0.10782812 0.7172536 -0.2073106 0.596622 -0.41606188 -0.39393523 -0.4800364 -0.22353587 -0.123468705 -0.16478094 0.6201156 0.69155973 0.53645647 -0.34473833 -0.09381126 0.42383224
400 -0.28259486 0.12518154 0.8965238 0.24731198 -0.5409037 -0.22823116 -0.14938608 0.6604689 -0.059132624 -0.5873172 0.22691429 0.27717018 0.17021416 0.097177416 -0.5715337 0.56372505 0.6826743 0.22790644 0.11503091 -0.2326835
169 0.06794679 -0.6402713 -0.42344886 0.13730784 -0.67787504 -0.4181155 0.37859473 0.89810413 -0.5933815 0.010116995 -0.36865845 0.07415266 -0.18472126 -0.43124324 0.51566464 0.19798473 0.32137996 0.41898683 -0.38795307 -0.0022893366
369 0.16815753 0.18071975 0.5860927 0.75935674 -0.43861616 -0.07556191 0.5245821 0.15230273 -0.02666897 -0.7571153 0.035368152 -0.071490064 -0.22036716 0.00317964 -0.53817517 0.8657455 0.7359969 0.4172938 0.119720995 -0.11090955
357 0.28942698 0.18556896 0.9303249 0.34702104 -0.43652153 -0.32541594 0.2535076 0.13738182 -0.57161117 -0.11396632 0.0031820252 0.34058577 -0.27144113 -0.038858753 -0.2909965 0.77650964 0.89028966 0.10625676 0.4310905 -0.21885796
589 0.4604025 0.8162782 -0.4637695 0.24588718 0.15033476 -0.2491911 0.23503369 0.5663083 -0.23970646 0.116926976 -0.026826939 -0.28942147 0.30405325 -0.46840793 -0.53221846 0.6157008 0.08740731 -0.9336433 0.31557617 -0.24522334
387 0.27696297 0.09162205 0.8780405 0.14316106 -1.0776916 -0.15468466 0.15058607 0.48569858 -0.14855854 -0.2960132 0.19460098 -0.18391283 0.27034044 -0.1931923 -0.5963125 0.6996527 0.3701125 0.29482567 0.12944253 -0.08486495
463 0.2584591 0.15185428 -0.2154016 -0.6821271 0.26346108 -0.25169557 0.0010885365 0.4832215 -0.5779976 -0.6782266 -0.53121793 -0.40003833 0.16709885 0.3727531 -0.16523384 1.0583405 -0.3042454 0.6328032 -0.02897119 -0.24812566
231 -0.16543081 -0.48447743 -0.07193315 0.3407626 -0.4904091 0.35306773 0.12908833 0.5838068 -0.7162942 -0.585597 0.0094522275 0.1709934 0.25105822 -0.5525515 0.3595959 0.18289293 -0.07544058 -0.15252215 -0.2859615 -0.746076
693 0.3701683 0.38051873 -0.61563236 0.44840693 -0.061383426 -0.49666154 0.28817716 0.743903 -0.073578335 -0.24747053 0.6579432 0.107320845 0.04438168 0.6872141 -0.22256069 0.5610573 0.10255556 -0.5198055 -0.43637004 -0.038351174
683 0.27582896 0.39838308 -0.34709662 0.15738933 -0.130495 -0.5742066 -0.2203844 0.5229342 -0.37791437 -0.011695998 0.46568808 0.41742936 -0.017092109 0.5757837 -0.19375914 0.6866999 0.20637949 -0.7097007 -0.37862873 -0.4549116
208 -0.48248023 -0.52706623 -0.30757755 0.035264324 -0.30856597 0.23763338 0.60035974 0.81447655 -0.764648 -0.39815617 0.007920943 -0.0058630765 0.005020876 -0.32478386 0.14904228 0.07199423 0.33210713 -0.4670451 0.022671552 -0.44992185
385 0.482088 0.09928092 0.91569155 0.22056541 -1.0071574 -0.073696874 0.23515327 0.4890199 -0.212169 -0.48231962 0.27683562 -0.18207136 0.31167102 -0.021553777 -0.6899903 0.5738215 0.4715086 0.21755257 0.11596316 0.022905821
209 -0.4273493 -0.5307796 -0.2980775 0.07083646 -0.33878866 0.1605086 0.56925446 0.9436062 -0.71544856 -0.41915745 -0.050813712 -0.06421832 0.09989329 -0.39111385 0.20982586 -0.053864956 0.3355188 -0.4498493 0.0693428 -0.45426354
202 -0.4482962 -0.67044836 -0.44803748 -0.28934023 -0.22181 -0.13369425 0.3408263 0.66534007 -0.552872 -0.47482768 0.09582796 -0.04075466 0.041052762 -0.4230235 0.096548975 0.31694484 0.62551075 -0.39317036 -0.05750157 -0.5240057
33 -0.5609048 -0.24044812 -0.4736938 0.3054661 -0.16969134 -0.21971677 -0.112600245 0.11829188 -0.0005349926 -0.07970029 -0.10062899 -0.19139735 0.3440081 -0.1102698 0.8417252 0.9874224 0.5700383 -0.22724395 0.43828535 -0.28022873
608 0.3058549 0.50604635 -0.5837007 0.48592043 0.22213739 0.10536855 0.10823501 0.55435246 0.1732647 0.282663 -0.18106209 0.18649523 0.11824215 -0.37824938 -0.5543872 0.8776263 -0.12767152 -0.6604571 -0.0831073 -0.5332938
441 0.7983898 0.38325882 -0.049695 -0.44413054 0.08505274 -0.21564144 0.11119802 0.43616113 -0.42421374 -0.93853724 -0.31643787 -0.073581606 0.44656545 0.39604953 0.4008214 0.4747682 -0.32823128 0.4147439 0.39057142 -0.5137598
200 -0.40517268 -0.78537714 -0.5251926 -0.07817137 -0.27647305 -0.11440793 0.33814335 0.79533637 -0.49440527 -0.59383553 -0.15112515 -0.085996285 0.0024530648 -0.30895567 -0.10574475 0.18487087 0.34981734 -0.17277667 -0.193244 -0.5118628
45 -0.20148525 -0.4069396 -0.27533785 0.35220245 -0.16191567 -0.075716816 -0.38173965 0.25882873 -0.59874815 0.14689991 -0.15489203 -0.41550413 0.43574256 -0.13596393 0.4862139 0.7832261 0.5839804 -0.3441944 0.3797799 0.044428073
274 0.43984047 -0.260695 0.98580974 0.43822783 0.06606528 0.066921994 0.42166716 0.71957093 0.33144277 0.3808059 -0.35258353 0.087013 -0.10653864 -0.119184606 -0.05589936 0.60929155 0.48131537 0.50938845 -0.06732367 -0.60778004
52 -0.27626082 -0.1890205 -0.15772411 0.40397766 -0.2026495 0.30373564 -0.47257012 0.5083475 -0.68985504 -0.04324898 -0.41145775 -0.42306653 0.06581742 -0.22282277 0.43545377 0.7471179 0.6336159 -0.23173475 -0.035575338 0.27413917
221 -0.012254139 -0.8427416 -0.40151474 0.7627768 -0.18203717 0.4861066 0.54454887 0.6616847 -0.78932106 -0.27948877 -0.10783517 0.35236207 0.11561005 -0.31874487 0.30237925 -0.034879383 0.062437765 -0.3171554 0.08512252 -0.6640193
17 -0.46429545 -0.55392426 -0.33958107 0.116112985 -0.32673162 0.27964818 -0.43231744 0.6501646 0.1476309 0.049116183 0.14309625 -0.110334545 0.62347776 -0.16174345 0.62360734 0.8528348 0.35956845 0.0026579457 0.28225082 -0.25721323
92 0.08548437 -0.47050005 -0.16079953 0.19423811 -0.78688955 -0.16331235 -0.29835695 0.48017362 -0.3196383 -0.495299 -0.7544926 0.051960617 0.4366183 0.10331719 0.35884917 0.32813904 0.344592 -0.6285526 -0.16361964 0.54179853
380 0.5074372 -0.023649242 0.7855349 0.65462846 -0.73284376 0.13967197 0.18546805 0.48883966 -0.1106514 -0.5820123 0.26311404 -0.1185408 0.37274316 0.13338642 -0.70619106 0.42165485 0.6116511 0.36564115 0.4635257 -0.035456024
29 -0.60286343 -0.3481275 -0.49509922 0.40452373 -0.17350677 -0.022428649 -0.28651658 0.13832018 0.16778855 -0.19859686 -0.0113011915 0.0103010675 0.42289305 -0.05066327 0.76670873 1.0197872 0.5778508 -0.07480874 0.2575534 -0.39313757
753 0.37581396 0.2036199 -0.3663326 -0.1836752 -0.006952088 0.5630142 0.50456375 0.28557637 0.00084559835 0.3248414 -0.26617387 0.18417346 1.2694429 0.16921024 -0.15425399 0.28147274 0.9875089 0.203799 -0.2440808 -0.19959794
26 -0.4963766 -0.6530487 -0.42991617 0.48323742 0.054115523 -0.089151286 -0.5134262 0.14062473 0.04628838 -0.0039431895 -0.06436357 0.13447283 0.4457192 0.099964984 0.5309536 0.99880815 0.5620758 0.06796707 0.059234012 -0.50172687
650 0.5898708 0.35938498 -0.42300898 0.6637764 0.52622247 -0.42316973 -0.41189647 0.56227314 -0.27300128 0.031664256 0.38922274 0.35490754 0.253999 0.09225725 -0.06655979 0.42273793 0.42706668 -0.3732665 -0.18426119 -0.5792745
37 -0.3866731 -0.3811874 -0.38898033 0.29529282 -0.17881303 -0.18311793 -0.15676254 0.26195887 -0.19631214 0.070849694 0.016282815 -0.32333532 0.35163036 0.01181144 0.7607739 0.87882537 0.66228867 -0.23790275 0.5405726 -0.059021752
764 0.43679547 0.6223483 -0.29422766 -0.0600253 -0.29501468 0.39198613 0.5234442 0.061208844 -0.20995514 0.25457868 -0.4145172 0.4832473 1.0796227 0.12124256 0.2570946 0.24748538 0.90834373 0.28667703 -0.18038407 -0.30950958
43 -0.15628201 -0.5020633 -0.34065953 0.38945928 -0.29794255 -0.2247993 -0.30487156 0.14897539 -0.69068474 0.2059966 -0.14722477 -0.5672222 0.42505753 -0.019803764 0.48772514 0.7951951 0.61039245 -0.38034776 0.5440729 -0.06867089
758 0.33307695 0.29080638 -0.26957864 -0.30453253 -0.09292278 0.6748072 0.2928498 0.1122078 -0.35438618 0.37850383 -0.22364481 0.22934021 0.93376774 0.0987836 0.02748331 0.47288343 1.0127051 0.16902648 -0.33391052 -0.4323138
42 -0.110516325 -0.4809229 -0.33228052 0.23858394 -0.3184452 -0.1660805 -0.24112116 0.152086 -0.66279495 0.13276802 -0.18773253 -0.5457879 0.37328246 -0.010259339 0.56591356 0.76673526 0.64680266 -0.39334303 0.48819348 -0.040246278
405 -0.22098339 0.19344373 0.88319063 0.12593138 -0.2932699 -0.028512282 -0.034431998 0.789754 0.067208216 -0.7231634 0.20119205 0.41038835 0.053534865 -0.13495477 -0.66762674 0.5853887 0.75168765 0.142331 0.19735412 -0.014194019
255 0.16993861 -0.10420725 1.1765685 0.05470753 -0.29529583 0.15207283 0.28768653 0.5409531 0.029240087 0.0076877633 -0.34349126 -0.2664554 -0.21113832 0.44821945 0.098634794 0.6316072 0.4349932 -0.23632155 -0.34458977 -0.5998416
360 0.17794482 0.24706279 0.87936586 0.5024539 -0.4508249 -0.3580798 0.42211986 0.00872877 -0.6448341 -0.22778097 -0.010673193 0.2693746 -0.225139 -0.06929708 -0.33138394 0.73676217 0.8664942 0.021784566 0.28578788 -0.13890861
179 0.123135515 -0.60916364 -0.5524481 0.21147132 -0.3165253 -0.23543039 0.52838016 0.77404815 -0.5774899 -0.27804583 -0.15710777 -0.031089664 0.33226827 -0.8802167 0.23540801 0.108096115 0.2440628 0.11604818 -0.0375242 0.0720122
495 0.23689884 0.14409408 -0.1323687 -0.20806262 0.97980434 -0.1242677 0.4284305 0.34409454 -0.6137184 -0.6728716 -0.444773 0.33827445 0.23021755 0.3917123 0.08641303 0.9491154 -0.11073497 0.47141528 0.37798545 -0.060814604
32 -0.6420761 -0.3075154 -0.4103835 0.32321733 -0.104229294 -0.19489661 -0.12135684 0.13012505 0.04891039 -0.102111965 -0.113870606 -0.016932951 0.31195968 -0.12067121 0.8293889 0.9688858 0.6178244 -0.2286921 0.3896277 -0.40171197
180 0.103444405 -0.5821848 -0.5889172 0.16229363 -0.37071726 -0.25033623 0.43177164 0.7005954 -0.6136272 -0.35392228 -0.08451957 -0.019871725 0.37658376 -0.9928728 0.16560432 0.13008423 0.41477528 0.11619364 -0.01639073 0.00046282224
263 0.24368517 -0.42159516 0.98814374 0.044740446 0.07993784 -0.12687905 0.24564871 0.7680765 0.064574346 0.23167917 -0.41674784 -0.34547836 -0.28581375 0.26075593 -0.39089158 0.6464281 0.6777463 -0.030030215 -0.14272675 -0.53107184
760 0.46835366 0.29522973 -0.32226336 -0.28301036 -0.051742677 0.64797145 0.21718249 0.09130415 -0.42983317 0.40697375 -0.19728659 0.19727483 0.82361895 0.0141078895 0.08177376 0.48895228 1.0893946 0.25695017 -0.34012952 -0.5196131
117 -0.024088707 -0.26491886 -0.09661802 0.13148208 -0.14911625 -0.030249093 -0.31750426 0.7614769 -0.258208 -0.23699565 -0.76759356 0.7387986 0.31675926 -0.42607528 0.50611734 0.09429667 0.5889815 -0.48344803 0.19035535 0.22635537
236 -0.16165541 -0.40699416 -0.09591037 0.57039315 -0.4909551 0.16662839 0.021022113 0.5441739 -0.81324786 -0.6254405 -0.10624936 -0.014791972 0.36243355 -0.47962612 0.31035894 0.099298894 -0.10658342 -0.13673492 -0.40029314 -0.7130175
58 -0.04489007 -0.15768582 -0.27809164 0.4576869 -0.09580363 0.6509526 -0.22731565 0.66609776 -0.4475555 -0.30518 -0.54216516 -0.26311892 -0.074477926 -0.08534581 0.7576632 0.6249255 0.55978525 -0.26063454 -0.09381892 0.49341372
18 -0.56539834 -0.46272925 -0.36492226 0.14174668 -0.2476389 0.29074392 -0.35634536 0.7257022 0.21035632 0.0771544 0.1036258 -0.17628677 0.6522548 -0.15124446 0.6761532 0.84157705 0.38045198 0.0025000852 0.2676917 -0.17180781
113 0.02300014 -0.3064947 -0.09163168 0.08735346 -0.10565109 -0.13610706 -0.47539973 0.7756313 -0.30655506 -0.2196887 -0.76668525 0.52715206 0.46524912 -0.40438434 0.4469949 0.049545348 0.7188962 -0.56953907 0.25872722 0.20571402
289 0.55195963 -0.16520761 0.9220473 0.03048728 -0.02564418 -0.61761224 0.37454772 0.2019789 0.34960854 -0.18538703 -0.025609164 -0.29296044 0.2888043 -0.08093505 0.17305037 0.62456536 0.68222576 -0.19866443 -0.048069432 -0.5667421
116 -0.033051897 -0.23872699 -0.15360525 0.14567144 -0.10260712 -0.0833935 -0.34140205 0.8102201 -0.16993089 -0.2917142 -0.7593562 0.61442244 0.32362467 -0.46195483 0.5325902 0.11273447 0.57633096 -0.51615506 0.16044725 0.20940317
704 0.3489043 0.43826103 -0.40788978 0.20299958 0.18358877 -0.19044854 0.27915564 0.81800485 -0.05093055 -0.15606056 0.7635812 0.15894973 -0.04938638 0.38000563 -0.012898945 0.7577754 0.2533752 -0.59416515 -0.626712 0.13378403
468 0.2680563 0.14013515 -0.19991992 -0.68511045 0.26977128 -0.39261582 0.13745746 0.2897927 -0.41430447 -0.70698106 -0.5371106 -0.07025816 0.2781181 0.24175422 -0.030865394 1.098361 -0.3179818 0.6079285 -0.08614817 -0.29362264
613 0.17817071 0.8606032 -0.58670133 0.49997303 0.22204612 0.06729153 0.20023604 0.6119416 0.15786952 0.2938233 -0.27778548 0.34233078 -0.06833679 -0.33689657 -0.3561532 0.90520376 -0.18626301 -0.6585144 -0.08797228 -0.5903579
356 0.31792802 0.21671796 0.8000219 0.40870354 -0.48197713 -0.2783942 0.28198087 0.18922986 -0.5662623 -0.12265812 0.017334372 0.3845278 -0.3583267 0.021929901 -0.2600474 0.7179874 0.83307415 0.15898426 0.48760438 -0.2231174
260 0.2099105 -0.18136458 0.9776388 0.2406905 -0.052309204 0.10364757 0.42548177 0.78811693 0.1639409 0.1242986 -0.37553883 -0.23084018 -0.3546211 0.59259427 -0.20709787 0.5358568 0.46667287 -0.06525373 -0.22121982 -0.5154467
585 0.6485779 0.8703762 -0.33759022 0.12673809 0.105810426 -0.055909406 0.3386536 0.69882977 -0.19562659 0.28669623 0.025647396 -0.33452004 0.2771088 -0.5197349 -0.40537488 0.67430145 -0.089502014 -0.8489447 0.27446887 -0.20778686
175 0.17115599 -0.5750035 -0.44437787 0.18977858 -0.50191545 -0.3062881 0.549069 0.8043816 -0.67557436 -0.18533932 -0.1810585 0.07064088 0.13899218 -0.71972924 0.41347522 0.07944626 0.22846106 0.20491152 -0.17033538 0.08026208
553 0.43013242 -0.16789946 0.39431798 -0.19618419 0.4699096 -0.110979244 0.45484474 0.55637014 -0.88874567 -0.2282806 -0.042151008 0.205307 0.80647945 0.46084356 0.068756424 0.8023066 -0.5392478 0.19588576 0.22755836 0.47112405
36 -0.43430877 -0.2899499 -0.4417834 0.30034932 -0.22683181 -0.20847309 -0.15810807 0.17780016 -0.16702533 0.038405158 -0.039271366 -0.1912047 0.36200815 -0.12201489 0.705109 0.9014173 0.65479213 -0.28740066 0.50950646 -0.14983009
770 0.3416928 0.71417284 -0.22988197 0.027451353 -0.20211269 0.3875651 0.6286656 -0.03725842 -0.18610902 0.14306198 -0.31612092 0.42801377 1.2539816 0.1655117 0.41993022 0.24008137 0.8432109 0.06206175 -0.2275321 -0.304594
673 0.61620283 0.09296168 -0.44783327 0.23239481 -0.2012039 -0.26530927 -0.20094228 0.9041109 -0.31758818 0.48428014 0.4089161 0.32710034 -0.05343267 0.5574837 -0.32843855 0.6131319 0.032120753 -0.4551403 -0.33290955 -0.24502918
90 0.08082707 -0.5769082 -0.20143664 0.19143127 -0.708976 -0.002449538 -0.25674018 0.5118202 -0.28937757 -0.57038695 -0.6773203 0.05049665 0.37633017 0.14768243 0.21924384 0.4001725 0.28758603 -0.70566416 -0.09767455 0.6012973
672 0.7114595 -0.03197094 -0.4104229 0.12935211 -0.15014224 -0.28471452 -0.32645065 0.9591517 -0.24861223 0.5470194 0.3952046 0.3641473 -0.0015642511 0.4324064 -0.45759922 0.6361004 0.13485181 -0.47144344 -0.3018206 -0.25060055
173 0.2588226 -0.70249236 -0.5063034 0.1444469 -0.6171011 -0.40438414 0.41454178 0.716246 -0.7423129 -0.08489444 -0.229376 0.045309093 0.032368112 -0.5582216 0.34481427 0.12956399 0.414732 0.40021276 -0.12991375 0.040033516
65 0.1526907 -0.4528882 -0.27603596 0.41633672 0.07493834 0.5223792 -0.23694709 0.6821585 -0.098942176 -0.6586625 -0.48194736 -0.28704497 0.033046834 -0.1565446 0.46443233 0.52469724 0.5882243 -0.42306492 0.06524333 0.4290466
111 0.05063383 -0.30166197 -0.013582481 0.15329924 -0.20375077 -0.20746747 -0.62487155 0.7285455 -0.38660562 -0.087979324 -0.694979 0.36395317 0.49049625 -0.38155216 0.32333586 0.093865335 0.75882655 -0.45556474 0.22810738 0.1921909
749 0.29873517 -0.15855812 -0.47631544 -0.30841732 0.14438148 0.22816835 0.23454252 -0.03743407 -0.08427901 0.056818653 -0.08168134 0.2227323 1.1490567 0.15799946 -0.3971697 0.4891444 1.112017 -0.08153771 -0.34551173 -0.43659848
552 0.45381787 -0.19925082 0.40177545 -0.13878798 0.5218505 -0.12401957 0.42256695 0.57061476 -0.96428245 -0.0809674 -0.06391293 0.17589547 0.8444067 0.4256529 0.09192704 0.7678259 -0.5544251 0.21650012 0.2872118 0.41918945
57 -0.027208518 -0.22819 -0.27669257 0.50538117 -0.09322279 0.70604634 -0.24779256 0.6663074 -0.48244074 -0.2783459 -0.44408798 -0.23543042 -0.1004261 -0.0970368 0.7407962 0.6636101 0.6273995 -0.27333987 -0.09551481 0.51758415
233 -0.09592109 -0.44526535 -0.0040983153 0.41153392 -0.64467 0.3457441 -0.05398877 0.5038463 -0.7729335 -0.5665592 0.007135093 0.1283712 0.41145265 -0.570061 0.30257812 0.1593019 -0.08676341 -0.092331365 -0.32274953 -0.8223533
110 0.034459412 -0.30196854 -0.09688337 0.1632483 -0.20084487 -0.26145 -0.67729515 0.6892904 -0.40630496 -0.20004658 -0.7019641 0.34466457 0.42904204 -0.33911303 0.39700884 0.08337044 0.72274125 -0.42452714 0.18250307 0.024675205
184 -0.0062192543 -0.75432765 -0.49451044 0.28700766 -0.20291558 -0.14052099 0.48032352 0.7019105 -0.58659345 -0.4017348 -0.12150333 -0.046759292 0.39880234 -0.9809075 -0.007983297 0.18476509 0.24345125 0.10984161 -0.12703024 -0.04215947
46 -0.27245042 -0.33406645 -0.1837929 0.36533055 -0.16583364 0.049938504 -0.40341148 0.34378758 -0.60226715 0.07385314 -0.15482435 -0.42508134 0.3619359 -0.20637211 0.4608592 0.7559927 0.6766684 -0.32590345 0.26734343 0.10108181
205 -0.46144307 -0.58230144 -0.4348988 -0.2714062 -0.18640177 -0.074009754 0.26478553 0.6739284 -0.6035469 -0.51326394 0.09396505 0.055947736 0.004292884 -0.44608667 0.18318005 0.29051667 0.6405672 -0.45439732 0.031680036 -0.56739426
407 -0.2983423 0.18532148 0.86151695 0.036063407 -0.19978122 -0.037661806 -0.03666924 0.7682442 -0.043387238 -0.67398524 0.2536221 0.34478518 0.11197994 -0.19837466 -0.6749002 0.56843996 0.8311742 0.088503845 0.22638227 -0.061351914
60 -0.0012687815 -0.17821538 -0.30129364 0.3843727 -0.1322226 0.7271449 -0.24446343 0.6929035 -0.33510092 -0.50533485 -0.55451757 -0.2867457 -0.17817862 -0.21689308 0.71667343 0.6836738 0.6333811 -0.23669675 -0.08200013 0.49619427
244 -0.31367394 -0.21791723 0.04710843 0.75471294 -0.18257439 -0.042274754 0.32439163 0.5311416 -0.789201 -0.820931 -0.052393947 -0.16718507 0.36429 -0.44335714 0.59216416 0.0070697037 0.077895395 -0.23055187 -0.51426953 -0.47883552
94 -0.014945594 -0.43457094 -0.15649219 0.3364398 -0.5980003 -0.14205988 -0.2807438 0.4811013 -0.21981455 -0.5604129 -0.9383805 0.20449466 0.27184334 0.0744984 0.39909232 0.37888625 0.30453944 -0.5046285 -0.01016732 0.5019647
531 -0.22386184 0.006641008 0.21020035 -0.28148326 0.5800816 -0.44589517 0.5582165 0.5120673 -0.5488774 -0.561423 -0.33327308 0.05800328 0.8290295 0.6510725 0.081398845 0.72160566 -0.44928342 0.02020832 0.3785273 0.10153249
676 0.42764932 0.11213436 -0.3405112 0.24793994 -0.26186925 -0.32875156 -0.4234546 0.6377797 -0.47081736 0.2850145 0.41692176 0.3170229 -0.04929982 0.5072805 -0.29466295 0.68193775 0.18512866 -0.47528958 -0.47376916 -0.42244425
22 -0.59916073 -0.6568618 -0.44106844 0.21853122 -0.097382024 0.09184852 -0.569446 0.46859512 0.1822751 0.13984416 0.022011993 0.054248303 0.53370297 -0.047627326 0.32564154 1.0709505 0.49241406 0.091397755 0.21626958 -0.28676245
14 -0.33564606 -0.4328391 -0.2856042 -0.04533703 -0.4067452 0.3708595 -0.3252082 0.8378549 0.25372028 0.0888279 0.10977394 -0.246413 0.5494275 -0.122345895 0.72455 0.73286164 0.25023156 -0.06620929 0.37295792 -0.19628297
648 0.79061705 0.33015355 -0.3827962 0.68271005 0.2232535 -0.5133874 -0.33657664 0.46206877 -0.11559742 0.059066545 0.30845875 0.3788884 0.19471471 0.090823814 -0.10611496 0.5728135 0.26677257 -0.34873828 -0.24509741 -0.42851397
167 -0.11385318 -0.5485255 -0.42321917 0.07611596 -0.62823457 -0.31146666 0.42268807 0.8639406 -0.5876025 0.013433851 -0.40329617 0.1662557 -0.056221463 -0.48961115 0.35994536 0.20934527 0.15160753 0.24111407 -0.29635376 -0.029547336
63 0.09819975 -0.30831113 -0.32773337 0.4433468 -0.046009418 0.49659956 -0.24515797 0.6427776 -0.21455495 -0.5564473 -0.48936 -0.27222246 -0.044034857 -0.1991844 0.56594497 0.5417515 0.6322298 -0.2848766 0.015527751 0.39933786
699 0.39497444 0.26347932 -0.41810656 0.3019655 0.16650224 -0.35439238 0.25632995 0.69475406 -0.092611976 -0.15587929 0.7807625 -0.027968567 -0.044746052 0.49594572 -0.012633093 0.7350753 0.26850623 -0.55541146 -0.58254325 -0.014015071
703 0.30779225 0.38929236 -0.41138104 0.18080133 0.19952294 -0.2780886 0.24621493 0.77468187 -0.10009137 -0.13034785 0.7916561 0.08325613 -0.03445971 0.38304546 -0.04269343 0.79034734 0.33696118 -0.5335261 -0.67636955 0.09980404
6 -0.38693932 -0.31566775 -0.057492774 0.07626997 -0.5193452 0.20897625 -0.23728156 0.7334571 0.046941206 0.07917878 0.23024823 -0.26514086 0.73456484 -0.06335885 0.9387984 0.5857029 0.2856228 -0.13700667 0.29208365 -0.14726134
460 0.23511939 0.19083121 -0.21526317 -0.601393 0.26095414 -0.24143775 0.05428874 0.5511354 -0.3946738 -0.6627396 -0.4580884 -0.39814305 0.22079846 0.43275514 -0.054860916 1.0096939 -0.3555878 0.66153765 0.24155286 -0.3607885
160 -0.34256473 -0.4231126 -0.34284732 -0.015571713 -0.5139186 -0.32197356 0.3271581 0.43147385 -0.5613023 0.04744944 -0.41968617 0.29557875 0.088442855 -0.61404586 0.30096218 0.5689736 0.21140206 -0.105132796 -0.3098914 -0.05040671
761 0.41707867 0.33895522 -0.2779944 -0.23994857 -0.06828122 0.6135524 0.17045753 0.05030083 -0.49724254 0.38688484 -0.17163196 0.18042159 0.82399726 0.006448575 0.067371696 0.49505913 1.046869 0.20408462 -0.37515938 -0.55744
56 -0.09297602 -0.19724509 -0.19812243 0.48145142 -0.16948651 0.68267363 -0.34989268 0.6437886 -0.5363886 -0.27094012 -0.41700384 -0.24699764 -0.09707759 -0.07014305 0.6582711 0.7074291 0.5987923 -0.23309197 -0.07781277 0.5096066
359 0.29819658 0.20717695 0.9340337 0.5003532 -0.4670402 -0.37775627 0.30346426 0.11115985 -0.7542293 -0.110224456 0.06683386 0.32864684 -0.29311526 -0.097584724 -0.27918354 0.7038527 0.9539216 0.07056805 0.30127993 -0.15488884
41 -0.16969039 -0.48658517 -0.30808485 0.35567 -0.31765294 -0.2489055 -0.26185673 0.14029644 -0.6333874 0.11824379 -0.1834353 -0.51426035 0.37311232 -0.067407355 0.4912701 0.78302634 0.59120387 -0.38645223 0.513401 -0.080705516
338 0.7303581 -0.44908878 0.41294855 -0.068870775 -0.5006693 0.2089999 0.5190032 0.2118763 0.13690509 -0.121071555 0.18657652 0.44132954 -0.32393587 -0.07981993 -0.64372385 1.1107955 0.71817505 0.11420932 0.37044048 -0.20138809
754 0.3473825 0.27204368 -0.3960644 -0.20006531 -0.0075195995 0.5146722 0.49492332 0.3115472 -0.06875948 0.38305196 -0.31617233 0.1803885 1.2440937 0.17535034 -0.0805875 0.29463348 0.88791656 0.28339854 -0.22732113 -0.17993246
384 0.38762528 0.12547082 0.902271 0.25869614 -0.9122036 0.015809283 0.22239162 0.5117374 -0.19310252 -0.50359094 0.20785004 -0.18166469 0.31805095 -0.027860329 -0.7085603 0.57617694 0.42607313 0.23724943 0.24863006 0.00051460793
23 -0.54420245 -0.6447933 -0.37713054 0.33054215 -0.095166415 0.013486799 -0.5917617 0.408726 0.20872088 0.08887747 0.010859636 0.0109472005 0.48058164 0.06211537 0.34985527 1.0187569 0.56611717 0.09982858 0.19288124 -0.32612032
465 0.31165427 0.13481548 -0.24225335 -0.7865472 0.25224093 -0.26759306 0.105283596 0.44206843 -0.5430913 -0.7308433 -0.63912225 -0.25362715 0.19606586 0.3833114 -0.18824583 1.0818619 -0.3085434 0.60397935 -0.038034793 -0.21333794
701 0.35986573 0.36791798 -0.43072706 0.31646785 0.24692404 -0.28152287 0.36814156 0.8097561 -0.12824531 -0.12831633 0.76813805 0.04394499 -0.113363706 0.3939277 -0.008145623 0.74709743 0.19054374 -0.4552076 -0.5962982 0.09228023
628 0.45891944 0.6260869 -0.37741336 0.60180885 0.04294876 -0.437273 -0.23737095 0.65830904 -0.08767103 0.21499944 0.010153666 -0.123787224 0.16949625 -0.08701032 -0.38539302 0.8020044 0.033749573 -0.19834948 -0.89600575 -0.1835686
93 0.07220635 -0.4601094 -0.17606525 0.12959602 -0.7059006 -0.17315681 -0.32933062 0.45945087 -0.25018376 -0.48497012 -0.80200595 0.06591873 0.34798345 0.12938207 0.34079817 0.392732 0.3155165 -0.5881003 -0.040448476 0.4781983
601 0.32622355 0.5917948 -0.28215796 0.3605218 -0.037240583 -0.19112593 0.05182508 0.58375484 0.38885722 -0.065152176 -0.27463892 0.12177634 0.7231954 -0.3994242 -0.65383255 0.6626122 -0.41961265 -0.94103676 -0.19355801 -0.53221273
399 -0.2305121 0.10357891 0.76070046 0.26289487 -0.65531373 -0.34439495 -0.0478912 0.63301975 -0.02240766 -0.5499372 0.17408864 0.25775802 0.14437976 0.15546323 -0.562488 0.55039775 0.65149254 0.3865092 0.16051058 -0.17073967
114 -0.0007030022 -0.30365947 -0.05177409 0.1460213 -0.074894935 -0.15161677 -0.46218425 0.8319772 -0.25750595 -0.2781254 -0.717647 0.52436405 0.46229336 -0.5620221 0.4704532 0.04095603 0.6728992 -0.481138 0.22563101 0.1962212
408 -0.29887953 0.16190699 0.9455573 0.0041968473 -0.19731298 -0.047507793 -0.056618065 0.7522846 -0.05914154 -0.5956335 0.30750594 0.37543267 0.15927328 -0.23030601 -0.5713427 0.59511614 0.8394168 0.081883624 0.11368919 -0.08291618
592 0.3530123 0.80912703 -0.36574024 0.23278508 0.17313713 -0.40264004 0.031506974 0.6193362 -0.22733305 0.13769798 -0.039774653 -0.28582296 0.38511744 -0.46825308 -0.59535027 0.63744736 0.08736936 -0.8430844 0.2141824 -0.3342779
386 0.39979023 0.096902415 0.9023239 0.18154982 -1.0130457 -0.071218304 0.23735198 0.49260947 -0.2188645 -0.42527026 0.25441262 -0.17923795 0.23581953 -0.07435125 -0.6194366 0.6184457 0.46371835 0.24838246 0.13829118 -0.00725361
302 0.33052137 0.029723693 0.80173427 0.18731633 -0.1474383 -0.35840383 0.89567584 0.6622156 0.56044483 0.058700707 -0.17314559 -0.07706378 -0.03356284 0.12332309 0.06252877 0.43971452 0.66998464 -0.013908421 0.48131534 -0.25091797
437 0.57852924 0.5790626 0.08513321 -0.520806 0.07842364 -0.2708148 0.040869445 0.553334 -0.62750834 -0.8173793 -0.41135287 -0.1735769 0.3100782 0.35192764 0.514426 0.4162097 -0.23166725 0.42269894 0.34032306 -0.53863496
165 -0.26738647 -0.4128813 -0.3938175 0.09978775 -0.6727071 -0.16420066 0.5947957 0.88855636 -0.49046272 -0.032230034 -0.5432174 0.17463663 -0.0514997 -0.52266216 0.41000977 0.23312205 0.023446776 0.1548629 -0.3356644 0.07158618
522 -0.024953164 -0.020982707 0.17551906 -0.35778177 0.79095364 -0.19241703 0.27887294 0.6671564 -0.5205964 -0.5109709 -0.18830879 0.36262792 0.755046 0.41930372 -0.10346177 0.757426 -0.38047883 0.20416275 0.4381825 0.030231291
246 -0.38304272 -0.26656932 0.06669787 0.6777409 -0.208389 -0.087569036 0.37712798 0.46989095 -0.76789486 -0.87320405 -0.110637546 -0.17668065 0.37040097 -0.46014732 0.6034284 0.03278473 0.08279588 -0.27144343 -0.46690038 -0.50462526
700 0.44091004 0.33337912 -0.40970057 0.27388015 0.24628665 -0.27321663 0.3213501 0.808092 -0.061983135 -0.13347831 0.7675743 0.03468674 -0.087019816 0.47820422 0.0071078064 0.74376035 0.18033482 -0.49066994 -0.641619 0.039964397
478 0.3618933 0.051407915 -0.13496144 -0.41128477 0.4325113 -0.24708143 0.35626858 0.2321442 -0.11424229 -0.98045915 -0.6224863 0.22776322 0.4575687 0.38757783 0.25497812 1.1654117 -0.57439554 0.691498 -0.08992074 -0.31348392
476 0.399412 0.12087517 -0.121004686 -0.44210517 0.2777456 -0.25501874 0.31613842 0.1619763 -0.15942694 -0.8461071 -0.49466732 0.15692988 0.40894833 0.2305358 0.15842079 1.157522 -0.55042213 0.66060466 -0.13389349 -0.31787372
499 0.1247198 0.20700203 -0.0045729456 -0.0021062905 1.0502024 -0.12293212 0.4017763 0.32221305 -0.85929495 -0.68918395 -0.6933175 0.44591954 -0.0034438758 0.58620435 0.07545469 0.9009778 -0.1641947 0.26514062 0.33263084 -0.20990668
668 0.8548577 -0.2564408 -0.5501124 0.24040848 -0.031605117 -0.37370023 -0.39819974 0.9331822 -0.13752845 0.3445582 0.4008211 0.43243486 0.20040847 0.25855574 -0.71863467 0.6335519 0.046828147 -0.35999817 -0.16136202 -0.09979798
210 -0.395398 -0.57302064 -0.25205982 0.17614973 -0.38646895 0.20173241 0.5858193 0.91287816 -0.82486576 -0.39391956 -0.040625736 -0.09673638 0.08708086 -0.33281684 0.07945632 -0.07240718 0.2697416 -0.47397998 0.10439546 -0.43539247
490 0.2032632 0.12687747 -0.20535988 -0.1883325 1.0119815 -0.08985535 0.48970652 0.54271626 -0.40157276 -0.66105986 -0.337327 0.08780931 0.39177957 0.17578523 0.22419351 0.9619857 -0.23775868 0.65419555 0.40660185 0.034069095
600 0.29430607 0.6293966 -0.3045914 0.30922627 -0.093018524 -0.2200131 -0.011558367 0.532083 0.4197773 -0.08754886 -0.22783472 0.078632705 0.7787168 -0.4135662 -0.6512596 0.6920573 -0.386862 -0.9030944 -0.17081913 -0.5516281
11 -0.3628967 -0.4867559 -0.2619666 -0.18587999 -0.6439382 0.316203 -0.43780047 0.65649116 0.019692624 0.14849441 0.21342185 -0.14894696 0.64821565 -0.035900563 0.5963203 0.81709343 0.3246443 -0.19009565 0.33698493 -0.30527326
85 0.18850777 -0.7036214 -0.2217514 0.25545454 -0.5541069 0.16630374 -0.05283279 0.3202807 -0.09801826 -0.5808548 -0.7556194 0.01768166 0.34305957 0.0136714345 0.36909318 0.6110127 0.22010542 -0.7170621 -0.13876644 0.5778944
651 0.6562578 0.2738217 -0.33502272 0.6334407 0.59036195 -0.4328787 -0.5696229 0.57838273 -0.18251044 -0.017280858 0.3159724 0.33541876 0.31855312 0.07228815 -0.08542889 0.41977236 0.4180136 -0.41278163 -0.1729586 -0.6588974
291 0.61967695 -0.22747585 0.9205819 -0.05205061 -0.054483682 -0.597312 0.34174445 0.2304467 0.27246907 -0.1559472 0.066294774 -0.14593504 0.26255146 -0.15019038 0.23643577 0.574772 0.8702555 -0.15192172 -0.021230726 -0.5575865
290 0.57097197 -0.15272792 0.89941686 0.06313588 0.043612875 -0.5506866 0.35411417 0.22252075 0.35553375 -0.20351487 -0.051003236 -0.25501218 0.29975146 -0.085694514 0.2277182 0.5620106 0.7180682 -0.16008587 -0.04555016 -0.53356194
679 0.38141266 0.2805612 -0.28865123 0.19482875 -0.14239019 -0.49147657 -0.2967729 0.49401575 -0.39945394 0.17786077 0.4088902 0.38639572 -0.059576098 0.50642216 -0.14515713 0.7596356 0.1681863 -0.63317037 -0.41803607 -0.43996716
680 0.2980362 0.23039135 -0.3172696 0.15137407 -0.14025523 -0.53255814 -0.38082767 0.45572293 -0.41726837 0.1461461 0.43031418 0.38071397 -0.0032491346 0.5360579 -0.06746108 0.7405759 0.2749193 -0.6338874 -0.43837675 -0.52964234
705 0.34394038 0.57722324 -0.41357177 0.16363971 0.116391286 -0.14237767 0.38151312 0.8972925 0.1135484 -0.20480083 0.6967515 0.31566384 -0.09236194 0.40860602 0.12418538 0.7369135 0.11026964 -0.5656255 -0.64672893 0.0764974
115 -0.013909647 -0.2261228 -0.09798168 0.17142853 -0.104525946 -0.096149035 -0.38179386 0.7691191 -0.25262976 -0.3867582 -0.80441797 0.5570668 0.38650596 -0.43052438 0.475576 0.068553045 0.5670721 -0.48499203 0.1372264 0.29346898
540 0.085065246 -0.041867256 0.30531988 -0.07628163 0.4527236 -0.39654267 0.43252382 0.50239277 -0.86615133 -0.085042045 -0.20869637 -0.0052647884 0.77044 0.52204585 0.1485086 0.68734425 -0.49086457 0.122121006 0.28304127 0.24782671
477 0.3988859 0.09429117 -0.10146012 -0.41480067 0.34230074 -0.29912546 0.28026974 0.21092187 -0.08539881 -0.92617494 -0.50528425 0.24243128 0.42986646 0.29194143 0.30984157 1.2035019 -0.6068648 0.63591725 -0.15063801 -0.24439614
491 0.19625773 0.15453298 -0.1191919 -0.23439898 0.91318935 -0.21175507 0.48244908 0.4015534 -0.49530813 -0.67639345 -0.36536804 0.11593844 0.32505274 0.18747157 0.13769831 0.98032993 -0.2322695 0.5828682 0.36836615 -0.097629786
762 0.46541902 0.3839677 -0.29729792 -0.18109316 -0.16379194 0.50179607 0.16016012 -0.005520691 -0.38308412 0.3618655 -0.22797433 0.2813818 0.88012093 0.11159383 0.13390657 0.4777001 1.0660233 0.24223481 -0.3362605 -0.43676707
207 -0.39968455 -0.55542177 -0.37759534 -0.15855792 -0.25791284 -0.012669695 0.4027958 0.69492 -0.6479866 -0.58598495 0.05010451 0.014007638 0.020367881 -0.48565826 0.17939918 0.17235604 0.50135183 -0.43808445 0.05491917 -0.5365745
446 0.74922127 0.2544533 -0.16341788 -0.43990386 0.11675093 -0.08072586 0.080062754 0.5430429 -0.29321393 -0.8001386 -0.40221357 -0.016076127 0.3244612 0.39572763 0.27150846 0.58562064 -0.43914646 0.5053052 0.48112553 -0.55186886
671 0.7062512 -0.12555707 -0.47092402 0.1227433 -0.09560834 -0.3463503 -0.34546077 0.96197844 -0.18318076 0.5002772 0.31799486 0.41327453 0.0183063 0.4574419 -0.62611645 0.65299404 0.10034994 -0.39562312 -0.22069006 -0.21007508
12 -0.36006114 -0.40448803 -0.30109128 -0.09102982 -0.5151724 0.38675287 -0.37974074 0.73306686 0.07436016 0.14074427 0.09195397 -0.13687181 0.5728675 -0.07760983 0.6615333 0.73551935 0.2928479 -0.19765797 0.32433882 -0.2653708
252 0.16430172 -0.04913904 1.1729809 -0.104859844 -0.28529683 0.19675735 0.3726674 0.43125102 0.092896104 0.0776759 -0.200794 -0.18813339 -0.10334655 0.35519418 0.263428 0.7722945 0.36211428 -0.25601837 -0.49483594 -0.6258879
643 0.98039144 0.48530507 -0.43887576 0.8750144 -0.115556374 -0.63223857 0.01981179 0.3950892 0.042500746 0.12299107 0.18767554 0.3854641 0.2872046 -0.066865616 0.03164567 0.6632165 -0.2302141 -0.2351188 -0.29950547 -0.2729323
51 -0.15708287 -0.21001412 -0.15595187 0.52625513 -0.28006232 0.32713005 -0.38797566 0.4886063 -0.5131294 -0.13957451 -0.4336824 -0.38331503 0.07764066 -0.202389 0.5101401 0.7143786 0.54060334 -0.19021383 -0.021398515 0.30803776
162 -0.23527142 -0.43465713 -0.34939224 0.11584787 -0.5648833 -0.15831766 0.49133578 0.71743464 -0.4997996 0.013981481 -0.51451343 0.25857314 -0.006766713 -0.610992 0.4603294 0.36268067 0.07009011 -0.025511634 -0.38235453 0.046774626
750 0.34343463 -0.08618474 -0.42635006 -0.30286166 0.10223209 0.34440938 0.30204335 0.05347546 -0.119142495 0.10904606 -0.17123677 0.16372941 1.2029212 0.17125566 -0.41762123 0.40950176 1.0731535 0.0068952437 -0.3301028 -0.37452883
554 0.41540873 -0.13428956 0.3746658 -0.22326235 0.43204036 -0.010559818 0.542537 0.54259515 -0.9352105 -0.23103088 -0.06123417 0.12268554 0.7798022 0.35401314 0.087724224 0.79412794 -0.58705896 0.09238989 0.15206848 0.50654364
684 0.33024126 0.48275557 -0.45131576 0.37510756 -0.09908874 -0.51487726 0.16120997 0.80140865 -0.15442382 -0.04521069 0.4544035 0.3081366 -0.13132688 0.58818597 -0.16037121 0.61256295 -0.02790533 -0.6872211 -0.42814136 -0.19916081
87 0.21966621 -0.6389492 -0.16859314 0.21846755 -0.68046796 0.070412144 -0.18409106 0.48951033 -0.08530086 -0.5745715 -0.73096734 -0.01472486 0.40225857 0.116741695 0.37819168 0.4223271 0.24585634 -0.67631775 -0.14023255 0.56890315
756 0.42507958 0.28905743 -0.36669588 -0.24067394 -0.16516568 0.55855685 0.3366548 0.22124194 -0.1222479 0.31249028 -0.23148517 0.2288364 1.0357215 0.12843925 -0.03869755 0.35217202 0.9572851 0.22637057 -0.4111708 -0.33238903
362 0.22213764 0.17156091 0.8662003 0.70962876 -0.48362973 -0.24759461 0.5496126 0.019212933 -0.45228392 -0.45604762 -0.11497376 0.23338613 -0.2286813 0.0036611808 -0.44819123 0.7458194 0.7614047 0.11216274 0.25630307 -0.11427451
610 0.22457214 0.5824739 -0.52215594 0.61115384 0.28617138 0.16798688 0.061815128 0.4570052 0.1434547 0.30496073 -0.28463787 0.3322549 0.03162583 -0.36652038 -0.6452048 1.0604547 -0.19159326 -0.6445927 -0.04034272 -0.48239002
550 0.282706 0.0030378227 0.42362112 -0.05638253 0.44699115 -0.17734267 0.35962945 0.5804504 -0.991853 -0.100839555 -0.14996357 0.30921957 0.9157047 0.47485504 0.116353676 0.6787823 -0.50132674 0.3160381 0.19739208 0.4940033
470 0.28501934 0.16464071 -0.1287573 -0.57142836 0.31958812 -0.34234264 0.30679932 0.1214131 -0.31206423 -0.8266225 -0.460916 0.039635886 0.37338164 0.16055286 0.1602371 1.2173603 -0.39321363 0.6037846 -0.12833013 -0.23887815
21 -0.5458637 -0.6133688 -0.5359464 0.18557154 -0.16731097 0.07095197 -0.5774459 0.48289722 0.16552454 0.1115003 0.065441675 0.018873412 0.545643 -0.053351674 0.34694892 1.0300831 0.4804658 0.0649991 0.26205292 -0.31567192
157 -0.30853364 -0.5393247 -0.19638693 -0.13387173 -0.54670393 -0.26406094 0.43159974 0.39608008 -0.5122507 0.12325505 -0.42517355 0.29366082 0.08935039 -0.6433937 0.37083292 0.6940098 0.07900424 -0.21312034 -0.4039686 -0.024381476
435 0.5175412 0.6693863 0.07768384 -0.52376795 0.0092475545 -0.35278684 0.092658535 0.52387863 -0.606238 -0.6571796 -0.41667357 -0.12149872 0.1437346 0.3045578 0.52407515 0.5590213 -0.24905217 0.44763654 0.39046136 -0.5042691
109 0.04099942 -0.30370644 -0.14477652 0.14636548 -0.3271179 -0.1942433 -0.5681502 0.6879095 -0.32135567 -0.25652036 -0.83926207 0.24682793 0.31840867 -0.2053101 0.32044575 0.1234194 0.6351272 -0.46329898 0.20751211 0.10160664
593 0.33384162 0.88736826 -0.3993341 0.2557885 0.0037494006 -0.37646747 0.19856593 0.67777276 -0.07775942 0.19219251 -0.117890775 -0.22433117 0.41044363 -0.43967396 -0.5995078 0.63635767 -0.106287844 -0.82839435 0.17522821 -0.2878716
746 0.2614039 -0.17379613 -0.4500416 -0.29201028 0.123165615 0.32215813 0.33433452 -0.09927972 -0.1372881 -0.028843114 -0.2377862 0.23354505 1.0016448 0.077319436 -0.42620283 0.50337344 1.1686425 -0.07251746 -0.30285272 -0.46278173
214 -0.42674297 -0.53277385 -0.3499967 0.56459814 -0.4838708 0.23996155 0.5241394 0.9483754 -0.8263055 -0.4175926 -0.26425222 -0.1222502 0.11463652 -0.21282391 0.062082075 -0.14798994 0.029743161 -0.18214501 0.07976306 -0.44470248
745 0.23892248 0.037117865 -0.50129426 -0.27620944 0.07110263 0.30916232 0.4747681 -0.06758434 -0.121245034 -0.0042732735 -0.22972372 0.20844808 1.1121243 0.18033193 -0.3461728 0.40350378 1.0600697 -0.08846901 -0.31141323 -0.46321145
670 0.8113941 -0.1448773 -0.5354051 0.1012658 -0.10027705 -0.2980005 -0.2660739 0.95934296 -0.19189724 0.4371662 0.316076 0.40780255 0.022699602 0.3950182 -0.6889728 0.5921124 0.08755424 -0.35146707 -0.165375 -0.13054979
48 -0.2418599 -0.123016216 -0.14472346 0.58137715 -0.2542041 0.46567234 -0.19956097 0.5826184 -0.30736005 -0.16158938 -0.3636543 -0.3998631 0.15951398 -0.14507343 0.6336072 0.67061937 0.4687229 -0.25751328 0.11227475 0.44271886
551 0.40405014 -0.15061842 0.3784012 -0.13330874 0.50330424 -0.17981109 0.38979676 0.51220334 -1.0035232 -0.06545549 -0.014856169 0.1808738 0.8512159 0.49891892 0.10034292 0.7386568 -0.50352615 0.18793173 0.2001301 0.3329848
303 0.30972293 -0.036826696 0.7514777 0.16819426 -0.14978689 -0.4506998 0.9214678 0.6796537 0.53651637 0.086705945 -0.18731312 -0.05986931 -0.098592274 0.081660554 0.018156102 0.46968937 0.5952818 -0.07055706 0.55671656 -0.24296905
153 -0.43868926 -0.4598402 -0.13049392 -0.2525441 -0.40406874 -0.23289157 0.23611358 0.37159505 -0.53530204 0.27466586 -0.43561187 0.37197784 0.15991223 -0.68821114 0.30292308 0.7841152 0.23532534 -0.27557772 -0.28322917 -0.090438634
409 -0.2269521 0.22052836 0.9904305 0.10497186 -0.24875595 0.0053667417 0.0037788204 0.73313355 -0.02941875 -0.61079615 0.31082976 0.485107 0.1417817 -0.16587687 -0.50079525 0.60544616 0.7494591 0.17355272 0.054130677 -0.03864756
293 0.6546687 -0.2704138 0.89347756 -0.15052848 -0.08722091 -0.60779035 0.37017485 0.38334325 0.2388951 -0.021598095 0.09069518 -0.07080248 0.17395248 -0.22556366 0.20460553 0.5393376 0.9190457 -0.10935496 0.06040167 -0.49882108
669 0.83635247 -0.14989042 -0.60382986 0.19638921 -0.08943561 -0.37385556 -0.29326332 1.0042446 -0.095611975 0.48727542 0.35848773 0.43123835 0.12943512 0.39101696 -0.64071536 0.58860826 0.12463119 -0.36489645 -0.1681488 -0.10631321
398 -0.1893305 0.106333286 0.81452155 0.46004605 -0.7765065 -0.2753328 0.017030206 0.6986018 -0.013933411 -0.60997754 0.13395269 0.36289635 0.08630509 0.25037894 -0.59468687 0.55902606 0.53250223 0.52956545 0.18805431 -0.07445688
220 -0.08463798 -0.7422664 -0.34495988 0.7654163 -0.29626077 0.33566156 0.48147887 0.68345875 -0.773384 -0.29042286 -0.057727724 0.2313773 0.16284035 -0.27041185 0.23492683 -0.034331493 0.036886964 -0.18054827 0.043460228 -0.57216424
642 1.0007418 0.48099804 -0.40141976 0.9332139 -0.1519454 -0.65698737 -0.035925746 0.33510667 0.017974807 0.13937484 0.13673547 0.29912063 0.30167696 -0.06629188 0.037086852 0.7388077 -0.25354397 -0.3016431 -0.3358891 -0.24697946
223 0.024687892 -0.8326803 -0.32163692 0.6310192 -0.25265113 0.46125966 0.4897801 0.61399794 -0.7861585 -0.3032879 0.036710404 0.34914508 0.15865973 -0.3177649 0.30799824 0.011330791 0.0605348 -0.2881444 0.024006203 -0.70247656
655 0.54320765 0.52997917 -0.50786823 0.58349365 0.28809556 -0.51414406 -0.1938991 0.97142726 0.059949722 -0.008716739 0.39521587 0.26653227 0.07455983 0.15383576 0.011730525 0.36814785 0.25199208 -0.23857756 -0.121345006 -0.3155704
557 0.40822685 -0.052341003 0.43004343 -0.26259091 0.44711846 0.070904344 0.48588863 0.55260414 -0.8896354 -0.14419743 -0.09675311 0.09518198 0.82725126 0.45312408 0.098881915 0.6802 -0.47576487 0.096721634 0.100318626 0.39423648
10 -0.35089886 -0.5518064 -0.23743987 -0.18728514 -0.6589659 0.28523296 -0.45925528 0.68340665 -0.0022356883 0.18344316 0.24206878 -0.16251586 0.67697924 0.0131451385 0.4957721 0.7767516 0.31123295 -0.20657098 0.31698522 -0.33720222
224 -0.014076248 -0.78149253 -0.2796353 0.5057089 -0.22096519 0.43823412 0.41940245 0.58041394 -0.7980028 -0.38763598 0.009025015 0.393654 0.19812432 -0.33768702 0.38750976 0.02208327 0.109750025 -0.29670158 -0.044980224 -0.65648115
7 -0.42734143 -0.39873114 -0.14489186 0.0023384278 -0.49808446 0.30520245 -0.20482118 0.7493946 0.14379914 0.010708504 0.18544011 -0.17137572 0.7032048 0.008654963 0.86804855 0.6118052 0.27626655 -0.1959823 0.34526068 -0.1747006
697 0.49948207 0.2978256 -0.52765906 0.36547047 0.06419842 -0.38946047 0.36639363 0.7169411 0.016816182 -0.22774823 0.6968206 0.06799691 -0.04179414 0.51512784 -0.08488747 0.6610148 0.19727479 -0.60930145 -0.6298701 -0.058198012
524 -0.0023021118 0.05200362 0.32336178 -0.42040804 0.7355786 -0.20766692 0.32831493 0.7269683 -0.5101147 -0.4682807 -0.3390063 0.29145896 0.80506605 0.42112973 -0.030874135 0.676742 -0.44785306 0.13972196 0.4302356 0.067899995
732 -0.060700666 0.5883319 -0.5029518 -0.09474554 -0.08951304 -0.028154166 0.63097 0.42189723 -0.06713552 0.14398386 -0.7181539 -0.25817242 0.9155353 0.5469857 -0.19641776 0.062488347 0.94566333 0.08763919 -0.18269965 -0.28923652
467 0.27805507 0.17529798 -0.16964616 -0.7368242 0.2559937 -0.24391241 0.12496337 0.32890493 -0.42054346 -0.6917927 -0.6302428 -0.13486658 0.3049548 0.29766628 -0.12763171 1.1711315 -0.36250922 0.59152 -0.039998382 -0.18109171
286 0.5768927 -0.46118104 0.96670055 0.033301987 -0.0015584567 -0.57670695 0.0716965 0.032103308 0.26410753 -0.13438152 0.113155775 -0.16463965 0.5700205 -0.20700309 0.049079917 0.7919207 0.76931655 -0.105998755 -0.29845664 -0.5350366
440 0.8147701 0.3764548 -0.011205058 -0.42856702 0.07870972 -0.16939192 0.01630087 0.5023862 -0.48690993 -0.9654849 -0.29674298 -0.06789956 0.4151513 0.3576921 0.40220746 0.43520662 -0.32357568 0.4301846 0.36630234 -0.44275436
285 0.56056225 -0.49827597 0.8886846 0.05244823 0.004068894 -0.584157 0.08915525 0.0010069537 0.23519118 -0.1267892 0.08879084 -0.14439376 0.61703557 -0.25603417 0.03478895 0.76903737 0.81245565 -0.1962274 -0.32287514 -0.49376237
172 0.17942181 -0.6695107 -0.5490027 0.19803213 -0.7316217 -0.35342556 0.46073073 0.72705024 -0.75367564 -0.077515095 -0.24491662 0.028449625 0.004091165 -0.5191585 0.38768288 0.14572628 0.40611124 0.33092797 -0.21590936 0.03719022
438 0.6721156 0.47684237 0.07683708 -0.5209224 0.09961604 -0.28621146 0.0062937094 0.5630377 -0.5676339 -0.80088186 -0.3711411 -0.22015226 0.3380959 0.3046763 0.43331078 0.45594975 -0.24920207 0.49127898 0.37825996 -0.5250309
89 0.10483814 -0.6083642 -0.17951734 0.11725346 -0.6636312 -0.044238582 -0.26982352 0.5001232 -0.25757468 -0.5345231 -0.68277776 -0.070359185 0.4448427 0.12651709 0.2734006 0.38881117 0.31157243 -0.7114771 -0.1226517 0.5446552
656 0.56077546 0.6405008 -0.43997085 0.58059883 0.26316822 -0.6090499 -0.22083707 1.0814023 0.089011885 0.014953614 0.31328848 0.31459507 0.12705785 0.19463286 -0.0031906331 0.32476866 0.15377206 -0.21893899 -0.15490262 -0.26218176
9 -0.27326486 -0.55617523 -0.28312296 -0.2048132 -0.6490981 0.15333194 -0.4368087 0.6254131 -0.055511758 0.21889862 0.2228828 -0.23061499 0.68325824 -0.09948944 0.5170006 0.801461 0.28098848 -0.18770161 0.26945436 -0.29778796
251 0.10309658 0.0025720475 1.1717031 -0.097955026 -0.3144667 0.24771687 0.36411917 0.40543538 0.098326296 0.037814993 -0.20085995 -0.25084293 -0.10166209 0.26965255 0.22227187 0.8337083 0.3528381 -0.19095828 -0.48985437 -0.6705368
225 0.054391477 -0.77518743 -0.18726397 0.520902 -0.15964104 0.5384117 0.35468158 0.582728 -0.74859357 -0.394307 0.0703531 0.39280677 0.28596622 -0.36443517 0.39389926 0.032191332 0.050509863 -0.19104609 -0.08627307 -0.6440351
442 0.8074609 0.30998725 -0.032033958 -0.36388484 0.10495374 -0.15964618 0.1165618 0.51229507 -0.44408506 -0.9178488 -0.36381808 -0.120024614 0.39323837 0.47446477 0.36662388 0.45449778 -0.38305837 0.51939917 0.39829087 -0.5291479
166 -0.17715518 -0.4456965 -0.42012256 0.12633176 -0.5521969 -0.20257533 0.57090837 0.8881068 -0.47260767 0.014216075 -0.500411 0.18135905 -0.06898736 -0.5343396 0.34986955 0.2420259 0.09760223 0.16064367 -0.37630948 0.102130905
528 -0.15006372 0.008519796 0.15115568 -0.34163895 0.61730534 -0.35015386 0.5154651 0.70731145 -0.5154379 -0.52974033 -0.31066456 0.18864442 0.7267903 0.613805 -0.0030345453 0.6765464 -0.4589421 0.08106896 0.42311752 0.17367369
366 0.035508897 0.14578816 0.6762164 0.7138039 -0.40071434 -0.17915127 0.588412 0.09981853 -0.21764675 -0.53991705 -0.112027444 0.099396795 -0.23353845 -0.01738131 -0.59082544 0.83732855 0.77093816 0.30517846 0.1867335 -0.07571702
771 0.32608408 0.6725416 -0.2779226 0.06574679 -0.15664884 0.3789788 0.6532703 -0.02965668 -0.18748319 0.1460925 -0.3001107 0.398888 1.3139652 0.1284716 0.36407033 0.23548895 0.8006394 0.020366797 -0.17013307 -0.20843594
349 0.5003244 0.08209201 0.6709833 0.6089789 -0.73544014 0.15798824 0.4005049 0.27705818 -0.13392764 -0.35922158 0.11365826 0.47846663 -0.30586103 0.020063337 -0.20643382 0.7431852 0.65670305 0.30583763 0.6473586 -0.204621
145 -0.30177143 -0.39469686 -0.18690173 -0.09457301 -0.21163727 -0.13978083 0.07070674 0.59002656 -0.28757402 -0.023718625 -0.52157754 0.6500341 0.1276279 -0.6239457 0.53133035 0.4452317 0.39794454 -0.39358866 -0.14086206 -0.021663869
584 0.71663946 0.8116374 -0.25935808 0.04743883 0.041344054 0.005018941 0.19144453 0.66552067 -0.22846584 0.15039466 0.020514749 -0.3701933 0.23490226 -0.5116101 -0.352768 0.64423156 -0.041187685 -0.8778982 0.16211857 -0.26303166
690 0.23980859 0.32159564 -0.5705908 0.46098736 -0.13561586 -0.63617235 0.17132105 0.72126 -0.011138042 -0.29898342 0.524427 0.22392894 -0.05995173 0.6316202 -0.27381447 0.6392965 0.07380507 -0.71414465 -0.34163415 -0.08022277
493 0.15174644 0.1958551 -0.1187381 -0.25341928 0.93175817 -0.24037385 0.3932841 0.46156037 -0.52235013 -0.5808006 -0.36582947 0.21820687 0.33751178 0.31318414 0.11435567 0.89000064 -0.1354346 0.5299821 0.3896874 -0.100697726
364 0.107013546 0.2814996 0.75720346 0.8153501 -0.43383643 -0.27694324 0.6935155 0.016062636 -0.31642157 -0.6424195 -0.20065112 0.15999533 -0.2734965 -0.04012552 -0.6181831 0.77987653 0.80586594 0.18532546 0.1861286 -0.1441848
590 0.35758078 0.67251587 -0.38269818 0.20971483 0.19847734 -0.35150734 0.082082555 0.5818461 -0.30151635 0.087357454 0.01938911 -0.23258367 0.2896679 -0.46257168 -0.51913464 0.5910605 0.10200661 -0.8991157 0.19951652 -0.31444573
156 -0.3350801 -0.44137785 -0.21863757 -0.24084064 -0.4524589 -0.34202534 0.24632263 0.29556578 -0.562741 0.28463456 -0.29967323 0.3392662 0.14337634 -0.74431247 0.33494592 0.8150559 0.24198408 -0.1747903 -0.36627597 -0.21683648
292 0.6079199 -0.34531823 0.8522824 -0.14992832 -0.056701966 -0.6667116 0.28256488 0.31028137 0.21957631 -0.09307466 0.09985252 -0.10900447 0.23988657 -0.19269073 0.20858902 0.53938013 0.8836284 -0.059688564 -0.10592868 -0.5831685
555 0.45588022 -0.09881072 0.3809888 -0.27490845 0.49231356 0.0046007754 0.45040968 0.5728895 -0.9488324 -0.12400202 -0.06474778 0.1867217 0.7998756 0.42521054 0.07442747 0.7625514 -0.53718245 0.11136149 0.1090836 0.40370035
95 0.013552922 -0.41164687 -0.24394347 0.4060064 -0.5896809 -0.04199432 -0.2264109 0.49200183 -0.07079563 -0.5107757 -1.0986698 0.23060697 0.29923394 0.09099666 0.38771865 0.36577785 0.253822 -0.5020912 -0.041308936 0.4778128
199 -0.39655453 -0.9360394 -0.51248467 0.16835359 -0.17293482 -0.141442 0.38467067 0.93727213 -0.38898915 -0.6683445 -0.22586538 -0.14856972 0.042246506 -0.2772468 -0.21465795 0.07217528 0.2328047 -0.16709341 -0.347548 -0.48260066
64 0.1030271 -0.35696658 -0.30302942 0.44768843 -0.0039534266 0.5316942 -0.19740945 0.725701 -0.094890565 -0.69520724 -0.44287863 -0.30857408 0.043520972 -0.23654768 0.5238719 0.48241633 0.61054444 -0.40625855 0.06450578 0.46170846
439 0.6562213 0.4545651 0.0042557553 -0.43482015 0.14427519 -0.23597924 0.050845504 0.5469621 -0.49669734 -0.97098017 -0.35656884 -0.1369448 0.35053277 0.32739204 0.3972625 0.4789648 -0.31958488 0.4594163 0.3816255 -0.49423337
174 0.26170823 -0.64245766 -0.47840998 0.15873298 -0.5823231 -0.38348392 0.40040964 0.7395651 -0.7658152 -0.1804139 -0.22950633 0.00910459 0.05494674 -0.5823197 0.34636664 0.08085867 0.3729055 0.23612443 -0.15512107 0.039943594
376 0.29338852 -0.032909263 0.74704397 0.8118136 -0.45774618 0.10921321 0.28169495 0.40642047 -0.10177573 -0.6263373 0.31023183 0.0033647814 0.18022294 0.17855562 -0.70153207 0.61246735 0.65911627 0.43736494 0.4639087 -0.19814613
489 0.25059724 0.1291496 -0.17117274 -0.15740229 0.9604875 -0.095362306 0.49275473 0.53302854 -0.35131454 -0.70767254 -0.44248387 0.16973758 0.3734878 0.2536896 0.28492543 0.9279652 -0.25444427 0.72066677 0.34172317 0.010875838
227 -0.012636255 -0.7113596 -0.17209943 0.36403048 -0.31073427 0.5555048 0.25915474 0.60950243 -0.6917799 -0.44403058 0.080524646 0.42693922 0.19691944 -0.43699187 0.45345724 0.1613817 -0.07033009 -0.25455356 -0.25658846 -0.6876572
171 0.09210681 -0.57442623 -0.5418534 0.2113931 -0.65961283 -0.30122796 0.38856474 0.82279557 -0.63860494 0.007649541 -0.29408947 0.07262078 -0.016164761 -0.54122937 0.33672652 0.1709445 0.3018903 0.33265767 -0.27237773 0.060524687
469 0.21358822 0.17204821 -0.14428733 -0.59806406 0.32746717 -0.35088313 0.24684988 0.16610503 -0.30958673 -0.6879644 -0.5130899 -0.00714818 0.42930806 0.17434183 0.10257659 1.2067392 -0.38820574 0.633258 -0.067964286 -0.30424204
25 -0.4713287 -0.7526186 -0.45648968 0.43771195 -0.04587215 -0.09975155 -0.4840672 0.19803992 0.04927269 0.013734582 -0.061096117 0.12294744 0.48375466 0.10233247 0.45935795 1.0032948 0.5054716 0.17773251 0.072445825 -0.35231507
674 0.59190196 0.206044 -0.34415317 0.271079 -0.24016738 -0.2123946 -0.26529202 0.8216397 -0.33892924 0.43148935 0.32430696 0.31844187 -0.029989105 0.5703228 -0.3499176 0.6067561 -0.0037720066 -0.47831547 -0.35953358 -0.32059827
101 0.23806174 -0.5149738 -0.35232598 0.3082626 -0.55230725 0.025451547 -0.47117293 0.50651455 -0.12942077 -0.49415642 -1.1626016 0.2793873 0.08158771 -0.16657527 0.14381357 0.34790552 0.2868652 -0.39051864 0.015518413 0.0955916
529 -0.17853218 0.04067866 0.20188062 -0.2774512 0.66953737 -0.41336662 0.53683674 0.6692696 -0.54465973 -0.63526356 -0.31734943 0.16878909 0.75619197 0.61352015 0.029614972 0.6308132 -0.48377165 -0.032656536 0.40653613 0.12451006
68 0.14892484 -0.50838965 -0.3368253 0.49727964 -0.07554207 0.52748954 -0.13665155 0.71958256 0.0066553256 -0.6812695 -0.574332 -0.3299704 0.1424687 -0.20276995 0.39814028 0.48955286 0.4819869 -0.42053357 0.022861272 0.56313956
464 0.27198875 0.17761183 -0.23387979 -0.7173835 0.31452963 -0.25643137 0.10693501 0.5174675 -0.57714653 -0.77088696 -0.5913754 -0.3633052 0.17158832 0.3940943 -0.17363644 1.0910538 -0.33824533 0.69470376 -0.095299505 -0.20778656
434 0.46287858 0.64963835 0.08948494 -0.5195943 -0.018312726 -0.31165794 0.13217537 0.5956727 -0.6464872 -0.74345213 -0.47292665 -0.11117601 0.13457896 0.3521461 0.5323297 0.52909905 -0.3131093 0.5132517 0.35874775 -0.4644069
381 0.491871 -0.019511126 0.88051254 0.6362999 -0.7368627 0.08855251 0.25776678 0.5369473 -0.12121593 -0.57499665 0.19169714 -0.071302265 0.31393912 0.087542094 -0.73063433 0.4244381 0.5195328 0.27316687 0.4298447 0.007102226
232 -0.19180349 -0.45203605 -0.027001306 0.42187023 -0.48351836 0.31714472 0.028280072 0.6568789 -0.7918914 -0.58902806 -0.0006423195 0.071035594 0.29152414 -0.51573926 0.36988086 0.100872606 -0.0969935 -0.13244589 -0.26386064 -0.7735592
602 0.28583422 0.58582354 -0.36070433 0.3079088 0.029267697 -0.24423963 0.093958534 0.583848 0.39583358 -0.08640728 -0.19250444 0.102948636 0.66511667 -0.43107793 -0.6826489 0.73248094 -0.39275843 -0.949051 -0.10510652 -0.46669376
28 -0.5895305 -0.47081438 -0.34055024 0.4426531 -0.10010958 -0.22751914 -0.31358156 0.07381424 0.030131908 -0.07450046 0.007794936 0.108215585 0.45733032 -0.03202671 0.6426337 0.9711197 0.55362654 -0.0026132243 0.17031331 -0.4235658
410 -0.23109537 0.22933996 0.9698259 0.2580767 -0.31235406 0.06750549 0.07772382 0.6992617 0.10580295 -0.696255 0.24388158 0.49279103 0.21377745 -0.095590115 -0.4704769 0.5730691 0.5810073 0.23443384 -0.044785246 -0.06497776
744 0.21386789 0.18193774 -0.49604186 -0.19113255 0.009187106 0.28517494 0.5133062 -0.015064867 -0.09189014 0.038856264 -0.36012632 0.2560887 1.0243118 0.21819831 -0.23305465 0.34425688 1.080516 -0.051156968 -0.18482469 -0.38241377
604 0.34970978 0.5191347 -0.48920974 0.38847134 0.07803119 -0.13212727 0.14168535 0.5481713 0.32600078 0.029895943 -0.19293915 0.09185902 0.46707693 -0.43659666 -0.6454698 0.80751514 -0.34807152 -0.79717195 -0.09562995 -0.4566653
660 0.52744746 0.5077327 -0.49981603 0.6680325 0.09301353 -0.5499816 -0.063748226 1.1206945 0.09558903 0.21171303 0.31621557 0.27018428 0.20191458 0.41112366 -0.13689555 0.32329136 -0.08754737 -0.23388693 -0.15920274 -0.25552922
67 0.13572499 -0.4924307 -0.33557457 0.45794964 -0.057094984 0.49577075 -0.16874288 0.6892809 0.0073351874 -0.60430294 -0.5069647 -0.32703343 0.057433747 -0.21058482 0.37042177 0.5255104 0.5741225 -0.3647138 0.05828049 0.43540913
404 -0.14571479 0.24359815 0.8419552 0.26586887 -0.3822049 0.052376673 0.06450048 0.7494182 0.13750577 -0.7340209 0.16516131 0.35671794 0.119299844 -0.037301835 -0.66876435 0.5514853 0.73772174 0.21162388 0.23487478 -0.060725734
623 0.32446894 0.7994347 -0.42836735 0.5711772 0.2148535 -0.37485105 -0.19659975 0.76616704 0.008184975 0.10678892 -0.15726385 0.033799525 0.044061173 -0.23702791 -0.44193894 0.79026383 0.076397516 -0.23940949 -0.779823 -0.09725783
100 0.21375814 -0.4910323 -0.3034617 0.38289264 -0.5388927 -0.0038870403 -0.49217513 0.49737594 -0.12140851 -0.4289333 -1.1280223 0.25461662 0.06050116 -0.13759597 0.20932674 0.37609416 0.34057876 -0.43782434 0.041538723 0.090861
539 0.068120636 -0.048342597 0.30496335 -0.092835315 0.56073767 -0.36959884 0.5387801 0.56604254 -0.78814536 -0.13525334 -0.33534893 0.12917295 0.80831134 0.5531933 -0.02633664 0.7159146 -0.54846466 0.1813726 0.36264825 0.2071002
581 0.7306512 0.89338815 -0.22247444 -0.045929104 -0.11828398 0.17989631 0.096412964 0.6523028 -0.13941236 0.05849263 0.070854016 -0.28648314 0.24178703 -0.46524325 -0.34052938 0.6722274 -0.07122995 -0.90186566 0.2132213 -0.3368337
253 0.20101382 -0.10444113 1.14405 -0.02047777 -0.21523124 0.2060205 0.31383428 0.4406329 0.015173446 0.07332699 -0.2582004 -0.30250657 -0.11878809 0.32401973 0.19077632 0.7261678 0.436159 -0.2138759 -0.3945319 -0.57447237
653 0.69104207 0.22643779 -0.4197626 0.53774494 0.34193337 -0.512497 -0.5223141 0.6488426 -0.0709634 -0.07354719 0.3375299 0.40225145 0.19464646 0.086519144 -0.153444 0.3382725 0.53521025 -0.28374782 -0.12721549 -0.6255381
599 0.19477923 0.7043944 -0.3624169 0.32280928 -0.07274604 -0.30032697 0.016736833 0.65332824 0.33542612 -0.11288784 -0.22344068 0.019710388 0.6288027 -0.43977925 -0.6384126 0.68804663 -0.45701513 -0.9227498 -0.11090681 -0.56652653
681 0.3226924 0.19016911 -0.31005672 0.0934252 -0.1627147 -0.59573686 -0.3833425 0.4011143 -0.48981693 0.08559823 0.39401123 0.49014813 -0.0035442542 0.5467097 -0.04408816 0.6678213 0.33015418 -0.6593712 -0.49768567 -0.583194
682 0.28190982 0.2841252 -0.23719366 0.08029669 -0.14475702 -0.6465539 -0.3678073 0.37703285 -0.37836567 -0.010452029 0.35830393 0.47207344 -0.005587756 0.49031186 -0.13042313 0.69252306 0.3307118 -0.7221503 -0.43666387 -0.6041721
607 0.28507873 0.62894464 -0.49615258 0.46234587 0.16264822 0.09279524 0.14935419 0.6089783 0.24253911 0.21563578 -0.13341443 0.15305395 0.25654995 -0.35102957 -0.6037697 0.84357256 -0.19560155 -0.76489246 -0.07728292 -0.42318222
666 0.668213 0.089327626 -0.44294327 0.335103 0.11737264 -0.49997026 -0.26002586 1.0247053 -0.008642965 0.2507958 0.4380978 0.33820295 0.23758206 0.30988204 -0.4043669 0.45552364 0.1192746 -0.33880273 -0.25267208 -0.14664005
154 -0.40712538 -0.4715509 -0.060626287 -0.17663905 -0.40952975 -0.30227783 0.21877061 0.25020424 -0.6375607 0.3156711 -0.4405475 0.27618834 0.1820532 -0.6604601 0.25845537 0.80278623 0.27605748 -0.2689303 -0.30765012 -0.16109313
275 0.3550353 -0.2401905 1.008221 0.2616006 0.052900728 -0.076960035 0.24632734 0.5720836 0.2490312 0.3471976 -0.29626742 0.09781808 -0.032417882 -0.13104789 0.008547276 0.70737284 0.5180252 0.3775897 -0.04564689 -0.6024517
747 0.26091996 -0.16895539 -0.4168931 -0.29831037 0.13349716 0.25692368 0.22767828 -0.12007535 -0.1344262 -0.01607961 -0.2118784 0.2730264 1.0739611 0.12936786 -0.42836925 0.50640243 1.1921319 -0.18655407 -0.30653736 -0.4813332
689 0.26992738 0.43898788 -0.63771933 0.5676913 -0.1532241 -0.628919 0.25729117 0.71131426 -0.124596834 -0.21072304 0.5124106 0.27204508 -0.069990896 0.67356455 -0.19265157 0.6168395 0.00017410825 -0.6746191 -0.29387435 -0.024040071
663 0.4967036 0.44684485 -0.5430976 0.65384823 -0.025553955 -0.5949685 -0.025508588 1.1990907 0.1778258 0.2808027 0.30456284 0.2603816 0.20340969 0.45253995 -0.26706344 0.33401585 -0.12967359 -0.27001542 -0.09342422 -0.1294666
161 -0.26854327 -0.4712582 -0.30725303 0.018070724 -0.503007 -0.258731 0.37266463 0.5004903 -0.5225817 0.073720254 -0.44776234 0.27661493 0.065996416 -0.69044906 0.34157044 0.5204969 0.20458493 -0.10275135 -0.29992718 -0.025753526
91 0.13438067 -0.57327807 -0.18414627 0.13126928 -0.80347306 0.007957502 -0.28008807 0.5460643 -0.31110522 -0.49545285 -0.75955313 0.06603953 0.41906694 0.20308526 0.30868784 0.36280102 0.2421699 -0.6967487 -0.17351905 0.609056
733 -0.12072256 0.670863 -0.5345463 -0.04340961 -0.14170937 0.0037569976 0.66562766 0.36497614 -0.075792395 0.16833317 -0.73168176 -0.2803903 0.9496386 0.47324172 -0.19363804 0.10020697 0.97288024 0.060929574 -0.1810618 -0.2780087
691 0.2284719 0.35668385 -0.6117644 0.48714083 -0.12950617 -0.6356028 0.38189346 0.7426844 -0.053486664 -0.20534945 0.5973386 0.25099456 -0.08475577 0.7291747 -0.20508903 0.62197495 0.026302662 -0.63116837 -0.33069965 -0.056998465
525 0.0051038326 -0.013331411 0.30351934 -0.37117225 0.7474957 -0.26244366 0.41351005 0.71657735 -0.48802045 -0.5342463 -0.36798862 0.22285028 0.7324718 0.3734872 0.05024952 0.6319696 -0.46575534 0.10482532 0.34866455 0.023447016
40 -0.23715456 -0.43540207 -0.38757622 0.33879054 -0.2782456 -0.3197095 -0.195312 0.07596277 -0.54483986 0.12967448 -0.13812402 -0.44774982 0.33361775 -0.05573079 0.5402205 0.84536856 0.6392695 -0.36071754 0.62913424 -0.11701555
647 0.87403446 0.5089801 -0.46056703 0.8878696 0.09971296 -0.51935905 -0.16272359 0.50017023 0.012041673 0.119940236 0.26010814 0.47784817 0.30335444 0.07766113 0.014882462 0.60508764 -0.023082918 -0.30126557 -0.21815588 -0.26970804
652 0.6752113 0.22107255 -0.37081626 0.59021086 0.49664456 -0.5193614 -0.5417167 0.5982921 -0.15108612 -0.03250428 0.34174892 0.30162686 0.31142655 0.045437895 -0.11545653 0.36141324 0.46168795 -0.3667971 -0.1202145 -0.66821647
730 -0.13073303 0.5691264 -0.5676733 0.07074935 -0.25095448 0.21616514 0.6017544 0.51254714 -0.09841058 0.18537754 -0.9063168 -0.17590988 0.75302213 0.7250829 -0.3129574 0.04939168 0.9680594 0.16746466 -0.04101628 -0.20030162
159 -0.37303123 -0.4478408 -0.3521784 -0.013691855 -0.57557625 -0.245843 0.467471 0.53332335 -0.4689517 0.075865895 -0.45674878 0.34911963 0.085108586 -0.6570095 0.37165368 0.5637874 0.09788661 -0.063003555 -0.3767271 0.023775497
486 0.26655218 0.18466459 -0.26526612 -0.04745814 1.0430539 -0.08676596 0.6467394 0.537983 -0.21285427 -0.74045914 -0.6375304 0.26186797 0.37701014 0.20687887 0.35299864 0.92209804 -0.33898333 0.7814255 0.17380066 0.025858598
341 0.6487593 -0.3229643 0.4828985 0.17717436 -0.58573174 0.2646426 0.6174664 0.27441603 0.1769141 -0.3413337 0.16959801 0.34655622 -0.30427945 0.028672017 -0.49985948 0.9669792 0.61258066 0.19201025 0.51918125 -0.16175546
737 0.034525376 0.6226695 -0.640951 0.0511568 -0.13436137 0.13359438 0.8554293 0.20652892 0.13374734 0.026715714 -0.652696 -0.27446097 1.0139898 0.38169906 -0.025567293 0.19925791 0.96796656 0.1273572 -0.19364531 -0.25743344
719 -0.03702741 0.2512253 -0.39046675 0.07625091 -0.40596637 0.12847628 0.33419982 -0.0060307 -0.097150184 0.20853902 -0.7945231 -0.014451714 0.99429333 0.7824939 -0.21582751 0.2974421 0.60593694 -0.12666629 -0.31015885 -0.67186606
254 0.18005109 -0.10063948 1.1778758 0.023192666 -0.20146093 0.2302466 0.2745155 0.49705556 0.023622327 0.09956558 -0.29821134 -0.26815245 -0.1974101 0.42135593 0.15310207 0.7242542 0.4136721 -0.2165063 -0.33279622 -0.6168635
716 -0.10449181 0.2555812 -0.33039302 -0.11067278 -0.50878435 0.09370685 0.3563753 -0.22921346 -0.1770985 0.09987541 -0.563055 -0.05487319 0.96030116 0.5950964 -0.14581068 0.53494436 0.68763953 -0.18664691 -0.49110684 -0.7320316
718 -0.08268223 0.288251 -0.4191158 0.032243326 -0.43422392 0.1224385 0.3773894 -0.04437678 -0.11990846 0.14301631 -0.71092427 -0.098857835 0.89500964 0.76934224 -0.1668833 0.36976406 0.6513965 -0.10930425 -0.41521943 -0.68517077
533 -0.14878923 -0.0034052373 0.26850206 -0.18369748 0.5441873 -0.4681653 0.47598356 0.6235965 -0.632478 -0.6295085 -0.3753911 0.08676023 0.8332284 0.73107433 -0.09948669 0.55159354 -0.47163665 0.053772572 0.36358747 0.10915225
497 0.12431655 0.10471461 -0.11847958 -0.08215631 1.1248121 -0.032020073 0.487177 0.35337305 -0.7655751 -0.6528412 -0.5850543 0.42825416 0.13218014 0.4727369 0.051609077 0.9561939 -0.19697447 0.35842913 0.38773146 -0.20052552
24 -0.4827211 -0.718339 -0.4266831 0.3954114 -0.053252503 -0.06626764 -0.49505493 0.22979273 0.08848793 0.08588853 -0.035553265 0.06299236 0.49498218 0.08004143 0.36929604 1.0302724 0.5795421 0.11651157 0.12202263 -0.36396474
267 0.31709704 -0.22050445 0.97182286 0.36244404 0.07564864 -0.015868712 0.3751111 0.82846093 0.23664351 0.3497193 -0.41104713 -0.1771397 -0.22058412 0.24140818 -0.20920907 0.54215074 0.61037576 0.19224308 0.026679656 -0.39482194
541 0.18211691 -0.054720055 0.28525048 0.004622372 0.39470297 -0.36907253 0.42179224 0.5777906 -0.823267 0.095300384 -0.30361825 -0.029424416 0.7886396 0.5134541 0.0860595 0.7309456 -0.59032685 0.2975585 0.36061925 0.3050055
445 0.8430844 0.19657376 -0.1498507 -0.40980333 0.08184292 -0.07075432 0.13795404 0.52890694 -0.2878828 -0.8354502 -0.38615516 -0.03486246 0.36347434 0.37577534 0.2376637 0.51846015 -0.4884143 0.3944634 0.52118367 -0.52917445
176 0.16379535 -0.6293948 -0.45851243 0.20778513 -0.47556368 -0.18416208 0.6129384 0.85592145 -0.6059825 -0.19460626 -0.20573448 -0.020878384 0.17470069 -0.68972117 0.35883242 0.046467446 0.17985368 0.17274447 -0.14094569 0.08087756
395 -0.12653211 0.18875517 0.7642168 0.54137224 -0.8836222 -0.41701958 0.18128106 0.6078322 0.1111533 -0.46876037 -0.05101654 0.19861144 0.0791603 0.07672908 -0.6152136 0.6987777 0.3818519 0.5905564 0.15191658 0.036373638
532 -0.18083882 0.016209364 0.2398183 -0.20843849 0.5702726 -0.42853877 0.47776756 0.612093 -0.58458865 -0.6289993 -0.36702865 0.09583576 0.83046323 0.66396034 -0.0006766507 0.6454982 -0.5462269 0.0345002 0.45357123 0.06958345
337 0.629033 -0.41310158 0.5180313 0.091174595 -0.54952794 0.18437982 0.65359867 0.23620464 0.23781702 -0.16820508 0.075292505 0.52143043 -0.26959708 0.035197295 -0.60985947 1.0723637 0.6116567 0.14685653 0.4283718 -0.07763602
641 1.0051047 0.38002354 -0.46563715 0.94741434 -0.1352171 -0.65842676 0.06903466 0.37824255 0.032433067 0.22474049 0.07880856 0.24337862 0.22092117 0.087496504 -0.014468132 0.69817996 -0.2718992 -0.2771401 -0.35823599 -0.26264578
27 -0.6004593 -0.5994793 -0.37195095 0.53582907 -0.03789205 -0.17858118 -0.36585414 0.12895414 0.064902954 0.023759373 -0.029187635 0.12037801 0.4301056 0.0026120848 0.5637646 0.9957677 0.60109025 0.022747854 0.07457885 -0.47713473
766 0.49048218 0.61698985 -0.34198445 -0.0336377 -0.33772334 0.3252563 0.63143504 0.030033085 -0.06086735 0.056747206 -0.42673963 0.53639686 1.1027426 0.1536208 0.33675542 0.1377511 0.88584936 0.17606099 -0.16647452 -0.268
324 0.34836397 -0.3695198 0.7324468 0.45108846 -0.66620404 -0.17645626 0.55669403 0.2376004 0.33435136 -0.19071811 -0.20154715 0.54153657 0.0714824 0.32384694 -0.26984614 0.5963269 0.3846315 -0.1514508 0.6950408 -0.4206161
664 0.61459196 0.34835067 -0.47012714 0.5405983 -0.06308589 -0.5798592 -0.063926704 1.1929061 0.1483338 0.2651671 0.38544354 0.2849038 0.15027623 0.41516486 -0.24613115 0.39663163 -0.07653452 -0.3354863 -0.19645289 -0.07125768
118 0.0030013823 -0.22876821 -0.16540976 0.14153002 -0.094305605 0.087994516 -0.2057065 0.7065022 -0.15688765 -0.3293495 -0.8545356 0.7592902 0.28083286 -0.346497 0.5885084 0.13389757 0.56014293 -0.4716267 0.19377925 0.27997243
466 0.32801875 0.08472218 -0.16830677 -0.6763075 0.23179136 -0.2597956 0.1434048 0.36901906 -0.4437254 -0.7161663 -0.57164633 -0.15948977 0.21819772 0.30502853 -0.18133563 1.0450957 -0.33875167 0.58177006 0.0064592585 -0.2794797
416 -0.17794244 0.20469765 0.8985706 0.5120889 -0.47244915 0.20383795 0.20414622 0.64583075 0.31302655 -0.7110444 0.20893858 0.6305136 0.18031785 0.052550837 -0.32255417 0.59567016 0.50059843 0.41355363 -0.17080452 -0.040077314
406 -0.328374 0.24517186 0.8841365 0.095231034 -0.1908189 -0.020193523 0.044401787 0.846765 0.031535298 -0.66665256 0.24353638 0.40859473 0.13166544 -0.14637174 -0.71431094 0.5837877 0.76075244 0.122616395 0.23662007 0.04833134
431 0.38263488 0.6321599 -0.0432486 -0.58330613 -0.0970248 -0.06893302 0.20974423 0.7943823 -0.4414961 -0.56302065 -0.52886117 0.28476176 0.08307299 0.44472972 0.50430435 0.50882787 -0.46995234 0.6088234 0.42838466 -0.5146304
487 0.32288775 0.20805998 -0.31057453 -0.04760681 0.94816405 -0.097441435 0.51757896 0.54374313 -0.29258794 -0.74652356 -0.5409618 0.19872428 0.4374569 0.13432804 0.35134348 0.887249 -0.32246485 0.82379097 0.26330563 0.09955373
326 0.34350395 -0.33842424 0.6007625 0.42489186 -0.6598561 -0.13939069 0.65489393 0.17855881 0.3996869 -0.14643942 -0.23941036 0.5997652 -0.019643664 0.26898682 -0.4351385 0.7278405 0.34932968 -0.14150582 0.565723 -0.44799528
605 0.33007848 0.48704004 -0.49788833 0.37989473 0.14079136 -0.11776941 0.054739695 0.58014536 0.2866393 0.07770953 -0.125697 0.110533915 0.3725254 -0.42247888 -0.5900953 0.7973713 -0.22397098 -0.80995786 -0.08792677 -0.53462857
268 0.35198978 -0.27929455 1.046612 0.4454255 0.050407212 0.006461922 0.44288343 0.904493 0.3057265 0.35637784 -0.4219224 -0.10982462 -0.19079125 0.21563363 -0.19551574 0.5370383 0.49139675 0.34803 3.2620264e-06 -0.39796218
583 0.741043 0.883567 -0.32359114 0.0032609126 -0.04972374 0.053581517 0.14916334 0.67882967 -0.18559764 0.09199831 0.053601846 -0.24863371 0.2761348 -0.4672816 -0.3435348 0.6020336 -0.0061432417 -0.9068432 0.14803371 -0.2579705
611 0.21062583 0.79051846 -0.54690856 0.5594971 0.25878015 0.24761917 0.1798329 0.6097957 0.20982137 0.3096986 -0.23153836 0.309962 0.0421237 -0.341136 -0.50153655 1.0031576 -0.26201132 -0.6345365 -0.03741641 -0.51307565
178 0.12085794 -0.5884574 -0.5211348 0.23233004 -0.44876313 -0.23096474 0.5909375 0.83791393 -0.5581188 -0.23385255 -0.11081406 -0.037519526 0.25839636 -0.83903867 0.32822818 0.091315344 0.19571444 0.114293955 -0.07612071 0.057863794
558 0.40700543 -0.04015624 0.38457796 -0.117258154 0.49901447 -0.016782472 0.52699935 0.6052835 -0.884621 -0.18239088 -0.10318447 0.12376331 0.80821097 0.47142038 0.08417108 0.70286983 -0.58685213 0.16490729 0.07466244 0.4300615
606 0.35003507 0.6598385 -0.4914928 0.4516894 0.17828092 0.00923997 0.09286152 0.5254665 0.2650703 0.08033929 -0.18596385 0.13197374 0.39363152 -0.31098673 -0.62579566 0.8447396 -0.22480062 -0.7963776 -0.106774904 -0.40667915
715 -0.0895725 0.27795172 -0.26533744 -0.1354047 -0.47831252 0.10685285 0.38652763 -0.20969628 -0.1457238 0.100223675 -0.5608451 -0.09818475 0.9443091 0.54616684 -0.18395488 0.53896236 0.7149129 -0.20987599 -0.518802 -0.7210551
748 0.31018156 -0.19979581 -0.4484582 -0.30587393 0.12565911 0.2742238 0.25345108 -0.08942548 -0.16532764 0.02687753 -0.123894155 0.25970978 1.074959 0.12880772 -0.3597454 0.47143605 1.1784177 -0.16501918 -0.29029495 -0.45224506
665 0.5791646 0.2772304 -0.4889336 0.48155862 -0.03268205 -0.5016239 -0.11134992 1.1345187 0.11116129 0.20789658 0.34868374 0.3571308 0.24387804 0.47200024 -0.3749605 0.36202374 -0.06706418 -0.3339415 -0.19338343 -0.009903581
8 -0.32731327 -0.4885883 -0.1773593 -0.16409884 -0.6198714 0.21152478 -0.30116162 0.67016107 0.0052093477 0.17621616 0.18588579 -0.2127815 0.6710013 -0.017451314 0.52609193 0.6894754 0.28621358 -0.23622741 0.24848165 -0.23487675
228 -0.09719212 -0.5452756 -0.1274323 0.301481 -0.36752984 0.4721151 0.19794069 0.59517974 -0.6597229 -0.44926316 0.075794846 0.36154103 0.32806963 -0.5560979 0.53055876 0.20083086 -0.07660697 -0.25933242 -0.287196 -0.69643587
603 0.36683068 0.59707224 -0.32825935 0.36912102 0.06642525 -0.10848744 0.1456953 0.57072896 0.36209524 -0.016259933 -0.2533985 0.038971104 0.54346824 -0.40815237 -0.69410026 0.73144096 -0.3469153 -0.91531706 -0.09577112 -0.49293914
659 0.48562533 0.56620884 -0.5212062 0.55767226 0.14103843 -0.5359066 -0.1974653 1.0312046 0.032785118 0.12545715 0.32016346 0.2716296 0.10319868 0.2369424 -0.092494674 0.3976608 0.13038471 -0.20535098 -0.27726328 -0.26949582
5 -0.41660848 -0.104994506 -0.07781942 0.09527282 -0.44849628 0.37172702 -0.082283184 0.8674967 0.19271104 0.013140072 0.25289026 -0.28718954 0.8293714 -0.15436198 0.9860697 0.56984836 0.122963175 -0.15518422 0.29701978 0.036433302
694 0.37954015 0.32967412 -0.59552586 0.4986844 -0.037811544 -0.46854457 0.33531058 0.7504753 0.034733616 -0.2681538 0.67644876 0.13064173 0.018152427 0.6004465 -0.21048523 0.5957791 0.06929776 -0.5773399 -0.40052024 -0.063526414
752 0.31727543 0.16169311 -0.41562483 -0.11783126 -0.0026491415 0.57859206 0.5192913 0.28624925 0.014030317 0.30618587 -0.3050207 0.23158213 1.222827 0.2310943 -0.21766101 0.27346325 0.8835985 0.23481183 -0.29550633 -0.14896378
544 0.16263562 -0.02717544 0.2783628 0.096618906 0.37933883 -0.3908991 0.45825085 0.5525094 -0.9393802 0.040552806 -0.30505475 0.15758368 0.8955302 0.56242794 0.11623767 0.74914515 -0.67398936 0.38603136 0.38022965 0.3469477
609 0.19991529 0.5364017 -0.5025715 0.53661877 0.34954965 0.12783982 0.09533999 0.51587373 0.10560957 0.2847163 -0.22809683 0.28077626 -0.023030557 -0.3316399 -0.6914293 1.0106841 -0.144433 -0.66910684 -0.05128735 -0.5648209
295 0.5959946 -0.18217677 0.9142224 -0.07884722 -0.011754122 -0.52185816 0.7037781 0.59986025 0.36011308 0.00079634134 -0.034365706 -0.09101037 0.024960825 -0.032036025 0.21555847 0.44195056 0.807904 -0.0864603 0.2719382 -0.23630828
638 0.85610944 0.47350028 -0.5376456 1.0329809 -0.1522335 -0.48951522 0.09112011 0.43997985 0.06552692 0.31694385 -0.0046524927 0.091626026 0.20769764 0.055027038 -0.114050545 0.72584194 -0.3072608 -0.18813731 -0.33802578 -0.31081337
500 0.10187812 0.21294178 0.115921386 -0.012108438 0.98085743 -0.18695113 0.3911012 0.33742672 -0.8939981 -0.66238225 -0.6592662 0.43977234 0.024014879 0.5740059 0.025285993 0.8614795 -0.19304003 0.27277437 0.27691516 -0.18933538
382 0.5493322 0.04383062 0.8123032 0.53150445 -0.7842111 0.14207412 0.2287815 0.5471863 -0.1259013 -0.62439793 0.24545364 -0.05187182 0.27477902 0.028354257 -0.6603325 0.42614877 0.46256912 0.28868738 0.28927186 -0.011206638
66 0.18268186 -0.4813897 -0.33296582 0.4642254 -0.03531014 0.57662845 -0.2366772 0.70833594 -0.10181132 -0.65128756 -0.5220911 -0.28483152 0.057191294 -0.17383415 0.44032285 0.5134824 0.49699238 -0.39671132 0.0850095 0.456502
334 0.42817074 -0.33185497 0.5361658 0.30306393 -0.49189374 0.04804382 0.84446764 0.30098426 0.29958692 -0.017267495 -0.044843853 0.5116215 -0.21487759 0.057935447 -0.6321201 1.0081605 0.47939634 0.035201777 0.57664585 -0.011597787
572 0.09110729 0.19730741 0.38705534 0.042672742 0.32820198 0.17242259 0.59956867 0.39656335 -0.9052184 -0.18136908 -0.07164714 0.07488113 0.7436199 0.57011455 0.122611545 0.8018313 -0.68417704 0.011985738 0.23169266 0.18245406
272 0.5504859 -0.25733396 1.0291117 0.61771315 0.07530371 0.20503367 0.3686913 0.9002053 0.3044343 0.5067198 -0.50990385 0.05389166 -0.10887878 -0.14953233 -0.12577142 0.5247038 0.43902975 0.565045 0.093191676 -0.54812557
198 -0.37071246 -0.97416246 -0.5681441 0.20876616 -0.17221516 -0.09832926 0.44036567 0.97835237 -0.3652455 -0.6431785 -0.28171465 -0.16783449 0.06725792 -0.29751623 -0.22485581 0.055396106 0.21532543 -0.08943176 -0.35042605 -0.4386378
594 0.34105098 0.91187334 -0.32871836 0.28758866 -0.016918419 -0.37135494 0.15012029 0.68713266 0.00036513296 0.11875803 -0.20376116 -0.07831049 0.44406384 -0.40625948 -0.5285712 0.59027606 -0.21724097 -0.90570223 0.1316293 -0.30254745
472 0.3304276 0.15991256 -0.17487407 -0.5379771 0.3542898 -0.25751224 0.33427742 0.179856 -0.34436387 -0.8329677 -0.47149602 0.072875515 0.3939352 0.3014843 0.16719306 1.1662767 -0.49289787 0.6285339 0.0010768169 -0.3454588
678 0.37457132 0.35293728 -0.3455362 0.23291704 -0.25874338 -0.4361653 -0.24003103 0.6345479 -0.33536425 0.192513 0.40119475 0.29496902 -0.085274495 0.60079056 -0.15565977 0.7404178 0.034792364 -0.55551714 -0.4210675 -0.38221076
496 0.1303212 0.17983711 -0.06904944 -0.15887687 1.011107 -0.084112875 0.4451318 0.35089132 -0.7464401 -0.6865485 -0.5121092 0.30439165 0.14197722 0.42935765 0.07190426 1.0141491 -0.20326751 0.40501082 0.4048671 -0.09424449
330 0.33471537 -0.31029925 0.63267595 0.4045583 -0.6260817 0.015176396 0.8208329 0.13428833 0.32979724 -0.08929022 -0.12817754 0.51934314 -0.017426481 0.23280121 -0.55152774 0.9953253 0.23088712 -0.065929316 0.6657021 -0.264516
78 0.48300207 -0.684089 -0.2479734 0.4829247 -0.33277342 0.2976692 0.08397228 0.14954765 -0.044869106 -0.6137274 -0.68445307 -0.0040929806 0.29991683 -0.19719651 0.55091697 0.62811726 0.32146797 -0.7412029 -0.027077528 0.50395846
612 0.13067538 0.8481259 -0.5110713 0.53141046 0.2297869 0.2070434 0.1674061 0.6369166 0.1764652 0.2515159 -0.21099336 0.3001189 0.0012204746 -0.40801314 -0.45437804 0.9832046 -0.24536988 -0.59622484 -0.17517008 -0.48598236
686 0.21642683 0.4704336 -0.6003543 0.58935666 -0.32640973 -0.66799873 0.30732775 0.74792874 -0.07283154 -0.19156294 0.5135853 0.28282097 -0.09119366 0.6948166 -0.17349075 0.6064044 -0.098306134 -0.7115743 -0.21423545 -0.07410005
379 0.5204803 0.014968218 0.76320976 0.74533904 -0.5734072 0.18444036 0.25285313 0.48086125 -0.027644208 -0.66024905 0.20537025 -0.14502898 0.33701235 0.16777837 -0.73817456 0.43193313 0.63198113 0.36076394 0.5211387 -0.102577284
498 0.14333795 0.16250564 -0.054443453 0.003604376 1.09833 -0.13523993 0.4917383 0.39362034 -0.7938347 -0.6769395 -0.6583595 0.4194129 0.056226395 0.5896148 0.022288121 0.87973326 -0.21242352 0.34619462 0.3105607 -0.20377181
696 0.47036827 0.37296018 -0.6233243 0.44393626 -0.0051811025 -0.44244668 0.4265381 0.7723945 0.030170191 -0.22779752 0.72024953 0.0087490305 -0.020371018 0.63385576 -0.12969212 0.63859296 0.0416022 -0.49896204 -0.47026253 -0.08574904
530 -0.13522454 0.051034756 0.20438589 -0.32971787 0.64516556 -0.41988835 0.5062844 0.57781434 -0.54268545 -0.6104677 -0.30268684 0.14885564 0.80809903 0.6615137 0.023348643 0.70216817 -0.4877903 -0.03706286 0.41780472 0.07577852
731 -0.12467967 0.5931769 -0.5047973 0.014977901 -0.10962522 0.09111921 0.62596816 0.42121038 -0.10544519 0.20106085 -0.74753946 -0.19975981 0.90482026 0.60286695 -0.22887345 0.07699924 0.97537214 0.10622112 -0.13227512 -0.3177592
452 0.65020317 0.052526157 -0.2912809 -0.6432487 0.1429865 0.10097785 0.26860368 0.58581555 -0.24964745 -0.7417596 -0.46883288 -0.036110137 0.16595271 0.5877946 0.11124112 0.7765413 -0.5230034 0.35187805 0.5125946 -0.516723
336 0.4631445 -0.34796983 0.514644 0.09685314 -0.5613295 0.17739975 0.7069296 0.26789254 0.29656905 -0.12101455 0.020558132 0.4975046 -0.17370185 0.003173637 -0.55330586 0.9865371 0.592077 0.073825136 0.5023069 -0.1353336
724 -0.051726334 0.4899461 -0.5793236 0.29131866 -0.39309606 0.2613212 0.66205055 0.3062601 -0.05400494 0.3820186 -1.0425909 0.16018565 0.7382587 0.78661615 -0.30904073 0.1659031 0.6322194 0.10522776 -0.014576397 -0.39551324
734 -0.05916463 0.63785535 -0.53030795 -0.016013123 -0.15553248 -0.025577268 0.70654327 0.34688672 0.0029146606 0.09501877 -0.7127605 -0.28069654 1.0047184 0.45247817 -0.11851134 0.089825496 0.99512106 0.12410517 -0.2279442 -0.24243432
368 0.12230896 0.20017025 0.6155076 0.8131155 -0.4284896 -0.08631216 0.59188044 0.15027931 -0.019920476 -0.72182655 0.010022489 0.003678092 -0.28293154 -0.007695478 -0.5411758 0.91887003 0.72572136 0.40897316 0.17664507 -0.09353738
717 -0.06537795 0.21928693 -0.32317337 -0.044119757 -0.4331799 0.10223603 0.3842947 -0.20952436 -0.14227758 0.078380555 -0.57803524 -0.100419015 0.9565337 0.64046425 -0.18979606 0.48995012 0.62586445 -0.18565883 -0.46885383 -0.6978161
639 0.983749 0.4241054 -0.5680777 1.0353335 -0.13706146 -0.47898003 0.11894722 0.43445244 0.06754286 0.26106036 0.03493498 0.04188551 0.19709097 0.038275268 -0.0969177 0.7208247 -0.37439176 -0.23416497 -0.3476311 -0.35143954
545 0.2545237 -0.07497231 0.3542306 0.09592117 0.39012548 -0.27048305 0.48628855 0.5769319 -0.8749847 -0.021072194 -0.22673778 0.10116749 0.8652341 0.5289169 0.06976727 0.6802021 -0.6408712 0.41593787 0.34057093 0.31906214
432 0.5152361 0.61742073 0.0034752174 -0.5597867 -0.07675547 -0.23915191 0.19925545 0.73591065 -0.48131928 -0.67964643 -0.49853432 0.12042206 0.059700504 0.42724004 0.5483927 0.5101922 -0.39725035 0.5536539 0.38097203 -0.4103952
323 0.3714173 -0.2666147 0.70636886 0.4365012 -0.57303613 -0.24660924 0.6622335 0.21770866 0.27637994 -0.21276137 -0.07421794 0.5191134 0.017392129 0.30079687 -0.27914888 0.59356874 0.49530977 -0.0675841 0.65165746 -0.47228658
50 -0.22060142 -0.075516775 -0.24882028 0.5674873 -0.29056123 0.5680962 -0.15625983 0.5564632 -0.32934272 -0.21525314 -0.5708141 -0.34951404 0.10918245 -0.19433698 0.63756275 0.68226993 0.37645373 -0.18830268 0.15674749 0.4527737
755 0.31824884 0.33328602 -0.36404422 -0.16377278 -0.10148464 0.59319896 0.48797625 0.3167405 0.027080445 0.29743418 -0.33810416 0.2626808 1.2360028 0.17217219 -0.024475288 0.26381433 0.9280363 0.3199652 -0.32323378 -0.19201548
333 0.3972311 -0.34528264 0.5884076 0.3401554 -0.48172572 0.070720516 0.806832 0.27511463 0.28980774 -0.0739633 -0.09296036 0.5120507 -0.16179459 0.1684509 -0.6417727 0.9601718 0.49509642 0.040279422 0.52852273 -0.040981874
433 0.4452861 0.67935467 0.05721053 -0.45699406 -0.015820468 -0.2975013 0.1451866 0.6265611 -0.6263042 -0.7032626 -0.43015704 -0.006016026 0.06409263 0.3985967 0.5055443 0.4525549 -0.21087284 0.5248294 0.35075164 -0.45911193
151 -0.46555957 -0.43558952 -0.074631296 -0.14912604 -0.2791505 -0.27912626 0.18752366 0.32075652 -0.5186048 0.21427579 -0.43794048 0.40655458 0.16742983 -0.6766465 0.34668955 0.7726938 0.26926845 -0.2453942 -0.43956763 -0.123915814
459 0.33846593 0.23846608 -0.24214396 -0.51281726 0.27119675 -0.063665666 0.10858883 0.63896036 -0.33182758 -0.68002135 -0.504204 -0.2703176 0.28464785 0.464633 -0.07593979 0.88912934 -0.45554748 0.6486187 0.3094506 -0.35579455
321 0.41721874 -0.22839125 0.65096766 0.42871323 -0.5740989 -0.24431631 0.63285893 0.26134905 0.34067294 -0.214527 -0.24470982 0.44992256 -0.11593594 0.36087817 -0.27982956 0.57892936 0.5117948 -0.04598784 0.6777692 -0.50923073
707 0.34244215 0.5704141 -0.49218172 0.1827012 0.0954849 -0.08150423 0.4673806 1.064004 0.24780172 -0.22637206 0.74110407 0.42884347 -0.079293884 0.4017944 0.100775175 0.677559 0.0011717712 -0.51064974 -0.58628184 0.09770145
729 -0.11546115 0.57679296 -0.56941676 0.09808168 -0.23827142 0.2642239 0.56166273 0.64214873 -0.16240975 0.21833129 -0.9570185 -0.12859134 0.7036813 0.8101215 -0.2930237 -0.093626395 0.89273524 0.14165963 0.035429176 -0.24679492
471 0.24786945 0.083773576 -0.12257001 -0.540911 0.40854836 -0.34117156 0.3291903 0.1759145 -0.25701302 -0.79385394 -0.5047675 0.059545524 0.34327257 0.22176746 0.17661045 1.2224264 -0.46467328 0.63397336 -0.120415576 -0.32703155
306 0.3058027 -0.0221541 0.6883248 0.37065914 -0.27268213 -0.3216688 0.8662099 0.5662533 0.59090894 -0.029010454 -0.19554016 0.069074415 -0.14387186 0.050613325 -0.034111217 0.50536716 0.5991809 0.02037186 0.4323153 -0.3939395
560 0.2717812 0.013849826 0.4082549 -0.059351474 0.42060745 0.040148187 0.522402 0.56945777 -0.8050885 -0.16007839 -0.1233833 0.13055062 0.796971 0.47338402 0.06303504 0.7932407 -0.6334956 0.16229855 0.18428405 0.44695154
640 0.95206046 0.39129958 -0.5043873 1.0099221 -0.17751345 -0.5242228 0.030946536 0.45042813 0.009775743 0.2780628 0.082038134 0.13627045 0.21121503 0.020607678 -0.06474947 0.7453539 -0.34584814 -0.19762874 -0.42405343 -0.24193956
320 0.40477416 -0.15179539 0.5950767 0.43745747 -0.56340325 -0.21660781 0.6864885 0.25539345 0.295291 -0.2884761 -0.19168648 0.42807582 -0.09619252 0.34250194 -0.23953737 0.5211597 0.49694055 -0.012685321 0.7129091 -0.5280828
77 0.54938376 -0.6365692 -0.3113179 0.5656318 -0.2644489 0.3616784 0.044092197 0.17027499 -0.038342085 -0.6145952 -0.66600853 -0.019814327 0.29584935 -0.22239894 0.5521437 0.6036923 0.30954945 -0.6010226 -0.038404774 0.49815595
86 0.23319626 -0.6214394 -0.18465404 0.22200608 -0.59841686 0.1782137 -0.12383634 0.42721376 -0.11722349 -0.5888028 -0.6915754 0.028916972 0.32255763 0.06953819 0.3941933 0.53069305 0.2422781 -0.6634323 -0.14478156 0.6160299
61 -0.009194815 -0.21656656 -0.27526492 0.42887366 -0.109097846 0.712844 -0.2338576 0.7106171 -0.23536971 -0.5175667 -0.5446755 -0.23403238 -0.13849807 -0.23563543 0.59406817 0.65059876 0.6115427 -0.3850579 -0.08617888 0.4972661
738 0.07239479 0.62787616 -0.6007671 0.0073621836 -0.1664476 0.16463807 0.767279 0.20969303 0.095791794 0.0012796749 -0.6754661 -0.22379775 0.9845223 0.4030481 0.061855223 0.2036238 0.9472239 0.11607133 -0.26153556 -0.22375764
297 0.4946724 -0.05619902 0.8418977 0.23655419 -0.084111564 -0.34403414 0.8364174 0.6616499 0.5687145 -0.043502793 -0.22609262 -0.10665026 -0.07212151 0.0033633213 0.11416455 0.42752773 0.66604626 -0.06014306 0.43612915 -0.24252209
350 0.5150265 0.18675825 0.7303878 0.64110214 -0.65514636 0.12007624 0.42650083 0.2565227 -0.16214807 -0.30085108 -0.014897793 0.5225404 -0.28996974 0.1168676 -0.23208901 0.71061283 0.6421699 0.2972276 0.708091 -0.14917141
417 -0.15815017 0.16641214 0.9261567 0.44864762 -0.4207798 0.22422923 0.14793019 0.6409906 0.2599196 -0.6149095 0.23314565 0.6385245 0.2424807 0.080429845 -0.2323467 0.59359914 0.47679207 0.36463755 -0.2135073 0.0013637629
521 -0.061303545 -0.012586068 0.23066261 -0.32943237 0.8140658 -0.027823536 0.19966902 0.66413265 -0.50417227 -0.6102385 -0.31323406 0.3627617 0.8646904 0.44328666 -0.092170276 0.6941608 -0.39466742 0.21479982 0.43653363 -0.085104235
708 0.36440188 0.6066537 -0.42986995 0.17184937 0.056413382 -0.09415931 0.43922165 1.026785 0.2679274 -0.1752899 0.7113346 0.41162747 -0.0365188 0.38444 0.15446523 0.69044185 -0.04116016 -0.4965651 -0.62485397 0.040464096
307 0.35042998 -0.039447475 0.6212315 0.3550184 -0.20410384 -0.30217665 0.9388528 0.47983775 0.62190855 -0.15934007 -0.30560696 0.2333511 -0.1965327 0.050714303 -0.11376073 0.5938632 0.5272819 0.013913411 0.5208009 -0.2738806
