400 10
201 0.3549923 -1.1632929 0.45747542 -0.030822719 -0.36063743 -0.0024607342 1.175027 0.24829625 -0.14056323 -0.58381325
156 -0.085417286 -0.10558131 0.7009609 -0.7344947 -0.111602314 0.6923118 1.1601185 0.20611057 -0.6291105 -0.42866856
204 0.32104585 -1.1892515 0.45479816 -0.044061765 -0.4528688 -0.046964254 1.0941913 0.18426754 -0.17180079 -0.60055935
203 0.29963434 -1.2321142 0.4416846 -0.054271486 -0.42541802 0.014290816 1.1358149 0.1517391 -0.13203686 -0.57661426
228 -0.35393846 -1.2683108 0.64110196 0.09417608 0.08510921 -0.25633428 0.92135334 0.6558119 -0.3040248 -0.39763832
202 0.35112712 -1.1221535 0.42163035 -0.064763755 -0.3848976 0.010602053 1.1408131 0.12957367 -0.08470027 -0.5352271
226 -0.37940326 -1.2329661 0.62025195 0.09248241 -0.0574539 -0.2712784 0.9017623 0.5724825 -0.36900225 -0.412833
230 -0.4269173 -1.2050976 0.66097945 0.046936084 0.12878631 -0.26130775 0.91130126 0.6731454 -0.37866947 -0.37683666
205 0.32274264 -1.244904 0.4640928 -0.111036256 -0.42237037 -0.0520642 1.0537983 0.22211026 -0.12304794 -0.5817744
229 -0.41613206 -1.2360919 0.62452054 0.061200242 0.088792965 -0.20197889 0.9167514 0.6697931 -0.41107357 -0.36506867
208 0.21506202 -1.3090806 0.4749768 -0.03488044 -0.34002632 0.027958445 1.0009643 0.25161657 -0.20906523 -0.60246253
234 -0.59680015 -1.1235645 0.760184 0.1219691 -0.051913597 -0.20140755 0.89823925 0.75571394 -0.25966257 -0.45685902
155 -0.11055798 -0.09221679 0.77425593 -0.8187913 -0.08530865 0.7502271 1.0891877 0.20179705 -0.6071676 -0.50106287
181 0.4866714 -0.40901336 0.46778628 -0.009716562 -0.20377077 0.41276625 1.4047287 0.36398977 -0.23030746 -0.51798356
175 0.35485095 -0.32876107 0.5167204 -0.12783287 -0.12775937 0.58718604 1.4836128 0.37920672 -0.29378644 -0.4889257
293 0.75791913 -0.6333296 1.0138315 0.7371573 0.07989198 0.76832634 -0.36559138 -0.51638496 -0.9310402 0.17358917
209 0.22860163 -1.2369045 0.48858327 -0.02507244 -0.32767835 -0.123777814 0.9905157 0.26075512 -0.21725175 -0.60540664
231 -0.42240706 -1.1755563 0.67258424 0.14036871 0.08756589 -0.28145254 0.90920335 0.6861642 -0.38215134 -0.4338362
154 -0.11825357 -0.09070476 0.78650886 -0.8399544 -0.18954962 0.67327213 1.080697 0.13210581 -0.6535826 -0.53917617
160 0.047757074 -0.04316473 0.70146096 -0.5459236 -0.04164575 0.63888985 1.3081398 0.23360293 -0.52258205 -0.52762675
227 -0.36366856 -1.2200186 0.6201891 0.12004817 -0.09579702 -0.23703125 0.9030272 0.6292821 -0.36719114 -0.38812727
212 0.06269995 -1.3273227 0.4762828 -0.08031911 -0.40880352 -0.12990782 0.99185675 0.332617 -0.33999977 -0.46305576
165 0.16329369 -0.060223598 0.6043565 -0.41706362 -0.08082514 0.607815 1.4344565 0.2867018 -0.4816175 -0.39022318
214 -0.052214187 -1.253397 0.482356 0.016772522 -0.3940309 -0.19047025 1.0090197 0.3118415 -0.3335966 -0.43398234
182 0.49776965 -0.43303496 0.4555129 0.012149354 -0.14700618 0.46431753 1.3901757 0.34979835 -0.25323316 -0.5271821
211 0.1198176 -1.2616209 0.46592093 -0.021218523 -0.42687777 -0.15225205 1.0107168 0.33294588 -0.31024045 -0.47502682
232 -0.44954917 -1.2576164 0.6794831 0.13087784 0.10015744 -0.29040703 0.94646764 0.6469157 -0.30936652 -0.39766786
153 -0.13422965 -0.109695174 0.7874236 -0.83126885 -0.17371398 0.7152221 1.1289867 0.15640947 -0.5772498 -0.52667654
223 -0.23468988 -1.256605 0.5852663 0.020012932 -0.14429839 -0.3111325 0.99900323 0.59524363 -0.36877397 -0.38605866
157 -0.028896812 -0.055246484 0.7238884 -0.69006217 -0.096035734 0.722552 1.220933 0.18774216 -0.5516874 -0.49034414
151 -0.08539769 -0.10642889 0.8100114 -0.83423686 -0.107733674 0.642637 1.029106 0.13255623 -0.56441605 -0.6240313
200 0.29833135 -1.0667958 0.44810343 0.02089054 -0.5076883 0.0075888466 1.1974444 0.15573047 -0.115233555 -0.575396
213 0.08314008 -1.2446929 0.48119846 -0.071261205 -0.36333045 -0.19596867 1.0433536 0.35272998 -0.30307615 -0.46348485
167 0.2094751 -0.12627509 0.59082407 -0.36710858 -0.06234296 0.70111555 1.3510156 0.304694 -0.4873986 -0.46667543
235 -0.5258522 -1.165113 0.73173416 0.18573084 0.12722668 -0.2537452 0.9922401 0.73965585 -0.3127706 -0.45334417
210 0.15738815 -1.2477235 0.4533703 -0.066456266 -0.3872014 -0.11917138 0.99484795 0.27329955 -0.27578413 -0.47272363
236 -0.47264656 -1.142716 0.7323562 0.11499559 0.2239628 -0.26940173 0.97371376 0.63389117 -0.212494 -0.48989886
290 0.8190748 -0.6838148 1.0406595 0.84056914 0.18780555 0.77405494 -0.37759045 -0.47991872 -0.8028796 0.15353288
224 -0.33464897 -1.2729119 0.57554543 0.06464134 -0.06353515 -0.18452989 0.9140235 0.56716144 -0.36062232 -0.35600474
291 0.8274526 -0.6559702 1.0364004 0.7871216 0.13908102 0.81285983 -0.39155892 -0.47747067 -0.8204028 0.19728039
177 0.34883004 -0.33451763 0.48163983 -0.064712964 -0.14009896 0.4991632 1.4629759 0.3513899 -0.27798402 -0.44090825
180 0.49500093 -0.4102205 0.43770647 -0.064985916 -0.20182703 0.44397637 1.4568821 0.3080782 -0.23528466 -0.4591919
225 -0.34576523 -1.2924833 0.6254177 0.11846554 -0.07588169 -0.1941325 0.9572656 0.64734054 -0.36718068 -0.44221443
220 -0.21803309 -1.3076135 0.56919193 -0.029414147 -0.21183537 -0.25495943 0.93931633 0.4293624 -0.3229325 -0.43718487
233 -0.5001217 -1.1973695 0.672407 0.13626477 0.07923167 -0.27875218 0.9815361 0.6848684 -0.35991576 -0.37812948
183 0.486354 -0.43217754 0.47439817 0.120365165 -0.18191063 0.3948781 1.4611045 0.4096073 -0.22399452 -0.56624347
161 0.022476213 -0.14640933 0.6943751 -0.61841494 -0.10168309 0.66628426 1.3794514 0.29588103 -0.43763685 -0.43838498
215 0.05425748 -1.2720759 0.49575764 -0.063325465 -0.26372766 -0.24896081 1.0834808 0.3306015 -0.34466478 -0.4702786
207 0.25159922 -1.2615591 0.44311485 -0.09792672 -0.39261493 -0.056493763 1.0177125 0.1854267 -0.18917523 -0.5231942
179 0.43625796 -0.36709446 0.45971707 -0.043872543 -0.17027518 0.49996954 1.4112446 0.29951805 -0.2540952 -0.46575204
221 -0.21373746 -1.2621864 0.5814479 -0.017232474 -0.21770208 -0.19074906 0.977352 0.48390186 -0.33493662 -0.46742687
162 0.09141794 -0.10180915 0.65239114 -0.5586576 -0.078033395 0.6438258 1.3264067 0.22157349 -0.51540285 -0.45098495
222 -0.25222033 -1.2607957 0.5966675 0.025908245 -0.18690732 -0.21382138 0.9458069 0.5495087 -0.3451038 -0.44356915
289 0.766192 -0.6764436 1.0132252 0.7650189 0.17145199 0.79296076 -0.38473612 -0.43919715 -0.8260418 0.13183929
178 0.3583011 -0.31641176 0.47569826 -0.0515691 -0.15218349 0.47075745 1.5129156 0.4171703 -0.29384863 -0.41159242
159 -0.013500771 -0.09639757 0.7269749 -0.64901483 -0.085473016 0.71651083 1.2759796 0.3007474 -0.5319974 -0.49305502
308 0.5002342 -0.67819434 1.299691 0.27199796 -0.1928783 0.3052063 -0.65308845 -0.9326119 -0.9955556 -0.13652731
168 0.21696211 -0.111987256 0.5572655 -0.27531675 -0.107745655 0.6763338 1.4367069 0.33937407 -0.4055944 -0.383263
184 0.5098517 -0.49543235 0.4764922 0.08281824 -0.19631115 0.4334942 1.4443395 0.39925727 -0.16492358 -0.6168943
166 0.17563647 -0.07438948 0.61237377 -0.3603598 -0.16093585 0.6550265 1.4371668 0.3756538 -0.45976746 -0.4248966
292 0.8511619 -0.6031669 1.0551697 0.7343032 0.1512091 0.7958854 -0.37460324 -0.5583294 -0.83175266 0.12012325
286 0.8135939 -0.7035446 1.0431794 0.8505801 0.29841095 0.7657996 -0.3737984 -0.39542046 -0.73777914 0.17278443
164 0.22327165 -0.09470069 0.6039232 -0.52466947 -0.022967739 0.5817731 1.3936402 0.28189096 -0.46909466 -0.38442793
176 0.44498435 -0.31482336 0.47992608 -0.06844049 -0.106987685 0.57186717 1.4379605 0.41778547 -0.31310144 -0.4611984
287 0.7441476 -0.7873514 1.0364983 0.873956 0.2880344 0.8123744 -0.41554093 -0.34819514 -0.78801745 0.2326341
218 -0.12333965 -1.2898071 0.5307149 -0.036361754 -0.2773256 -0.23996045 0.99438965 0.3985765 -0.36995885 -0.45292318
171 0.28679878 -0.20649445 0.52246577 -0.18333504 -0.05461651 0.5524638 1.4799984 0.304114 -0.36843127 -0.43131635
294 0.8338027 -0.64979166 1.0015342 0.7705949 0.005719492 0.7762183 -0.3921297 -0.5491655 -0.8290364 0.1405697
173 0.33305013 -0.19096492 0.5285969 -0.16632432 -0.12030486 0.604062 1.4899492 0.34384114 -0.33324146 -0.43292627
219 -0.12330265 -1.2754124 0.54172117 -0.055452 -0.285773 -0.21831256 0.95410913 0.44072238 -0.33352503 -0.40739614
152 -0.116961546 -0.051050425 0.83012563 -0.83344734 -0.17388856 0.7007398 1.1149162 0.16931714 -0.5585992 -0.5885387
257 -0.0024391199 -0.036983326 1.5008148 0.9291746 0.9337245 0.6349177 -0.1670862 -0.19329001 -0.61122084 -0.10950826
158 -0.03690775 -0.12859803 0.7116524 -0.71328396 -0.108852945 0.6749819 1.2124435 0.21043575 -0.52781206 -0.45636624
253 -0.037055533 -0.034500428 1.4565554 0.9353454 0.87245864 0.6805247 -0.11327178 -0.24932706 -0.6701147 -0.13305187
217 -0.06529701 -1.3352264 0.50741106 -0.034923594 -0.25235063 -0.1610084 1.0019612 0.4101292 -0.28651208 -0.41719022
16 -0.4558893 -0.028736737 1.3972161 0.42998466 -1.072937 0.30213243 0.13583758 0.9503339 0.29948467 0.18289837
237 -0.56200737 -1.098277 0.796608 0.07656025 0.15734108 -0.27519506 0.96625185 0.61184716 -0.24318527 -0.568438
264 0.19152385 -0.38556382 1.3739733 1.0469855 0.9321845 0.5671872 -0.25594684 -0.103094086 -0.48099566 -0.037685618
240 -0.58241177 -0.9767158 0.87988186 -0.03289877 0.14716196 -0.3754891 0.8408443 0.63399535 -0.26357564 -0.6385864
199 0.3891993 -1.118226 0.400012 0.003941476 -0.3795536 0.091637984 1.0908021 0.122142516 -0.14146823 -0.58156157
17 -0.3456744 -0.07176306 1.3877336 0.44171113 -1.1142861 0.31801665 0.15395555 0.9739652 0.35573798 0.15133303
284 0.7979326 -0.75481254 1.0573425 0.81652343 0.45392886 0.75769204 -0.36592945 -0.4308078 -0.6693598 0.15724392
265 0.19521329 -0.47611156 1.3228875 1.0200877 0.9149701 0.59710896 -0.2597534 -0.16184805 -0.44385818 -0.0049716593
163 0.108427145 -0.09247037 0.6123162 -0.5151525 -0.079507366 0.5814147 1.4141077 0.23614131 -0.46438724 -0.36902657
169 0.30747098 -0.05110351 0.54989785 -0.22732757 -0.060131643 0.5962712 1.485161 0.3654994 -0.43622443 -0.41081828
172 0.32117766 -0.15112254 0.5342142 -0.15056545 -0.13358581 0.54626656 1.4869955 0.29390624 -0.37803385 -0.4623181
285 0.81843835 -0.68406105 1.0473253 0.88662016 0.3856232 0.7535248 -0.32271862 -0.40278992 -0.7125684 0.154167
255 -0.043514386 -0.011902028 1.4637444 0.95178694 0.88287854 0.72610086 -0.11203385 -0.21751036 -0.54527223 -0.1320702
254 -0.028181678 0.0543981 1.5077438 0.90897554 0.97074044 0.6585201 -0.1307766 -0.20145634 -0.66686624 -0.10032629
174 0.4732191 -0.22790585 0.4755596 -0.10738291 -0.15702213 0.5828995 1.4133075 0.3775282 -0.45378378 -0.46284622
251 -0.0683723 0.099262044 1.4770496 0.92411786 0.80664486 0.64572865 -0.16902971 -0.19275513 -0.58757246 -0.07634597
170 0.26705673 -0.1563966 0.5069805 -0.24111791 -0.059890285 0.5840569 1.48356 0.37698895 -0.45735955 -0.3447632
19 -0.27311048 0.029661793 1.3772072 0.46288905 -1.0765623 0.25680152 0.21862741 0.933053 0.4134118 0.13254084
37 0.13158366 -0.20845684 1.4688592 -0.121485345 -1.0291425 0.36033052 0.11148508 0.58198017 0.97817004 0.042454064
266 0.23800221 -0.44529277 1.3698018 1.0671879 0.8891195 0.55526394 -0.28010756 -0.204059 -0.4837155 0.009456345
18 -0.3584473 0.0043794815 1.4376225 0.40735438 -1.0823872 0.2487253 0.11078758 0.8538631 0.42730594 0.16812816
185 0.5071216 -0.49158016 0.4532383 0.048537694 -0.14382926 0.39637828 1.4762095 0.3481261 -0.18404616 -0.5392353
263 0.08218477 -0.32939726 1.3938111 0.9957961 0.9161276 0.64520127 -0.2674692 -0.15646218 -0.4441515 0.02151585
256 -0.05596319 -0.066393234 1.4898853 0.9360514 0.97405136 0.61782086 -0.13619168 -0.21343417 -0.61562526 -0.1165205
252 -0.112589434 -0.010384719 1.4879272 0.9834387 0.8519861 0.73922276 -0.09951813 -0.25080907 -0.5897442 -0.10135059
6 -0.52365303 -0.22475336 1.2568026 0.20319849 -1.487865 0.5056164 0.17937486 0.8151548 0.04599205 0.53689235
216 -0.09299716 -1.2696698 0.52246666 -0.0482478 -0.31810263 -0.15278278 0.97778416 0.3598099 -0.3343054 -0.48010045
238 -0.55602854 -1.1042112 0.80449444 0.03855665 0.15160638 -0.3886423 0.9238647 0.63885176 -0.281146 -0.5267301
288 0.73650396 -0.7925821 1.0372028 0.83082885 0.31078598 0.8109414 -0.36602092 -0.44658566 -0.73687136 0.12540506
22 -0.07783326 -0.05970745 1.4094564 0.49453104 -1.1556801 0.27826867 0.10235724 0.87298095 0.53993595 0.057138182
32 0.17872532 -0.11622477 1.3663722 0.27536052 -1.1591408 0.24615604 0.15365183 0.6343149 0.8277857 0.095388226
260 0.016311627 -0.2245863 1.4716469 1.0048116 0.9297047 0.58909 -0.20863509 -0.25872087 -0.5045767 -0.13334398
261 0.013395986 -0.2092922 1.4490683 0.9845164 0.9433009 0.57874256 -0.23057537 -0.13574016 -0.5718716 -0.050349448
30 0.10735761 -0.098288015 1.3751879 0.26272908 -1.0807558 0.30575648 0.09219164 0.6208831 0.77560043 0.09496498
26 0.09601037 -0.029659739 1.4459852 0.40677258 -1.2040735 0.2648788 0.11320763 0.81024224 0.6708463 0.05072233
31 0.112553984 -0.14336552 1.3934461 0.21185133 -1.112472 0.26420662 0.07382301 0.5912911 0.82372445 0.06402202
27 0.13315265 -0.046888795 1.3281232 0.38397327 -1.1254804 0.24828185 0.15178666 0.6789879 0.6881468 0.10335156
206 0.28672656 -1.269122 0.49367177 -0.170222 -0.35923076 0.010675387 0.98005754 0.22070926 -0.18491814 -0.6377842
11 -0.534637 -0.10583115 1.3703091 0.3159304 -1.2467147 0.4411609 0.062315453 0.904744 0.09759393 0.32451093
150 -0.092847325 -0.050853997 0.8259003 -0.8143801 -0.06593035 0.57452404 1.0065018 0.1641087 -0.6247624 -0.6315395
239 -0.547591 -1.019947 0.82607955 0.017504526 0.18162717 -0.34786284 0.9289601 0.6187388 -0.21961722 -0.5815093
2 -0.52572006 -0.29938677 1.2230927 0.14867136 -1.5182191 0.4573901 0.11513362 0.7404147 0.012791261 0.67346597
15 -0.4527227 -0.124550074 1.387545 0.34655878 -1.1801815 0.38125244 0.12440577 0.93312806 0.25351766 0.14490305
267 0.22159746 -0.4462263 1.3677624 0.9562298 1.0032494 0.57010967 -0.27860275 -0.16559947 -0.4345392 -0.011289658
23 -0.043810815 -0.039454266 1.3802352 0.50233626 -1.1346232 0.25664902 0.13510755 0.80822945 0.6006518 0.14471681
5 -0.49218744 -0.20822515 1.2523198 0.19170254 -1.4509993 0.3934903 0.110666335 0.79616225 0.028338168 0.6184698
44 0.1251989 -0.32558182 1.4071261 -0.3064484 -0.76288533 0.30132446 0.05519906 0.4963337 1.0398042 0.042595286
198 0.44678074 -1.1111281 0.43161005 0.049585797 -0.32180735 0.07749338 1.1734074 0.22347437 -0.13960557 -0.61200583
4 -0.4793229 -0.23161712 1.2500454 0.1485696 -1.5011251 0.4511077 0.15680422 0.83959603 0.019678632 0.6227305
271 0.4494804 -0.49540943 1.2369541 0.90189564 0.8866921 0.5535857 -0.26254848 -0.21370599 -0.4671475 -0.039931074
295 0.81930506 -0.5630316 1.0935714 0.71614814 -0.061450794 0.82509273 -0.4227679 -0.621477 -0.9171826 0.11679494
3 -0.48629606 -0.29293504 1.2143806 0.114023015 -1.5418246 0.46253872 0.19092046 0.79632974 0.0139926085 0.6772405
20 -0.23838702 0.049814925 1.4037473 0.46182418 -1.1135718 0.1951417 0.19104962 0.88538474 0.46682572 0.13738708
186 0.5714833 -0.59571445 0.40992862 0.13645196 -0.19800186 0.4556738 1.3073 0.31063437 -0.20251839 -0.6008963
38 0.13237692 -0.28806654 1.3875517 -0.08397585 -1.0294933 0.25986588 0.09477301 0.57547724 0.9453609 0.06114739
296 0.7125206 -0.6114306 1.0731268 0.7204707 -0.06735986 0.7632415 -0.40113023 -0.647861 -0.9914237 0.10067869
197 0.4605326 -0.95377433 0.403352 0.011431868 -0.36797297 0.13785973 1.133459 0.19309908 -0.17350566 -0.56694895
302 0.62191004 -0.5975472 1.1308607 0.501423 -0.20101696 0.5557047 -0.5027958 -0.68402135 -1.206602 0.055101503
270 0.35112384 -0.51095164 1.2984141 0.9222132 0.9056867 0.5833634 -0.3008528 -0.21551621 -0.4005527 -0.054770503
33 0.095781885 -0.138198 1.4175733 0.13176322 -1.0254394 0.1084959 0.13146502 0.60266346 0.8767708 0.09174652
9 -0.5778263 -0.15019417 1.323187 0.30282426 -1.2936281 0.37427232 0.18998928 0.8756959 0.1561161 0.518963
262 -0.054798782 -0.33616114 1.4545964 1.0417653 0.8810861 0.57649213 -0.2494187 -0.24186032 -0.5072107 -0.034441203
193 0.46966532 -0.8637754 0.40632275 -0.00040772645 -0.28386799 0.21760438 1.3523846 0.22227448 -0.15995705 -0.53620553
268 0.36087433 -0.5347653 1.3591437 1.0016448 0.9764019 0.52680427 -0.28137398 -0.23026009 -0.55037796 -0.051074766
192 0.47669128 -0.78531027 0.44419336 0.0452272 -0.30239087 0.1669747 1.3569701 0.22179359 -0.15068105 -0.6108687
21 -0.19660477 0.04747691 1.4111067 0.48339343 -1.115364 0.1736609 0.20672113 0.89562994 0.4789879 0.08831006
34 0.15275286 -0.20822069 1.3651978 0.12877007 -1.0392112 0.27822497 0.16146852 0.66512233 0.88534033 0.13815077
187 0.54710525 -0.6534902 0.45406544 0.11722978 -0.16208187 0.3922492 1.3223184 0.29004657 -0.1550406 -0.66071355
36 0.16335508 -0.22771533 1.3636945 -0.0095523 -1.0060104 0.23776536 0.1578999 0.60246503 0.92454153 0.0837216
274 0.5558684 -0.53243357 1.2318608 0.82939094 0.9561302 0.6168035 -0.27985972 -0.222183 -0.54996306 -0.03390473
7 -0.48723993 -0.27249143 1.2148182 0.18926285 -1.3701065 0.4804608 0.17009225 0.83899647 0.07410905 0.58331275
43 0.08516703 -0.2586225 1.4149206 -0.35712832 -0.74971473 0.18678373 0.11835741 0.49441516 1.0337989 0.15714101
41 0.068562984 -0.28158894 1.4052796 -0.18453054 -0.91118807 0.21051918 0.14327927 0.55539745 0.98609126 0.1189133
245 -0.7127812 -0.46159425 1.0745658 -0.11452694 0.045699686 -0.45219687 1.1141666 0.3609987 -0.028778147 -0.88568676
258 0.04539486 -0.051412493 1.4700669 0.9232514 0.9276374 0.6808947 -0.16311505 -0.22277401 -0.49660954 -0.12388613
28 0.1612462 -0.025475876 1.3670359 0.3503257 -1.1600015 0.24218763 0.08688601 0.69627374 0.6478352 0.024405012
303 0.6480879 -0.57683235 1.1596336 0.47650498 -0.23664546 0.5406682 -0.54816127 -0.71567816 -1.2109445 -0.010209785
10 -0.601345 -0.11560414 1.352307 0.32056823 -1.2312832 0.39763284 0.10327743 0.9014967 0.10653861 0.36279947
297 0.7709875 -0.54601467 1.1098684 0.71402496 -0.079171725 0.759357 -0.42774454 -0.6532845 -0.98948246 0.057939444
54 0.14435099 -0.30604327 1.3258897 -0.45583972 -0.420711 0.2926641 0.25631374 0.6999293 1.0661536 0.3163483
45 0.11933458 -0.27527913 1.3475274 -0.30820784 -0.74278307 0.297883 0.1437526 0.5038391 1.0195361 0.18353853
39 0.16160136 -0.24694699 1.3692998 -0.1466083 -0.9049588 0.18726467 0.1360475 0.5043317 1.0189787 0.19419275
40 0.1066973 -0.28293878 1.4504277 -0.1679185 -0.91932714 0.25763798 0.06486598 0.48026884 1.043625 0.059322633
1 -0.49694604 -0.2717449 1.1973782 0.10625383 -1.5236098 0.47180173 0.115777016 0.74958116 -0.077389754 0.6344819
24 0.037201103 -0.04723137 1.3970443 0.46455503 -1.156769 0.18395896 0.10259951 0.7830543 0.60478616 0.0626922
259 -0.046927076 -0.12611398 1.4608309 1.0251912 0.902637 0.6605444 -0.14889011 -0.19351631 -0.4849916 -0.052629765
269 0.30293378 -0.5208487 1.3415916 0.9562928 0.89040995 0.52653915 -0.34255412 -0.21450141 -0.39877447 0.004551085
29 0.12848225 -0.1409842 1.3571357 0.339258 -1.1681055 0.20612957 0.16878536 0.63604444 0.78337413 0.026110992
48 0.1753412 -0.34952956 1.3412956 -0.39410448 -0.56698245 0.29505467 0.16589144 0.60718447 1.063404 0.18006864
55 0.17175053 -0.26798353 1.3273684 -0.48546687 -0.3308972 0.23091964 0.18942022 0.7266523 0.9918198 0.3201241
188 0.5002498 -0.6567432 0.44377825 0.0072588585 -0.2470242 0.34601977 1.3909911 0.30029318 -0.13907026 -0.56404406
25 0.05076015 0.0010835645 1.4096909 0.49189565 -1.1481518 0.30098832 0.16887186 0.80139244 0.67089367 0.041878164
42 0.0062957695 -0.31645614 1.4133564 -0.27548486 -0.87811893 0.20812714 0.13090739 0.5179137 0.99494034 0.10025295
12 -0.4852924 -0.17947882 1.3757068 0.3044126 -1.2143044 0.33554977 0.06491763 0.9181712 0.2126113 0.27489626
35 0.14875373 -0.18332966 1.3550726 0.09352439 -0.98344606 0.24184988 0.1402092 0.59520245 0.9227005 0.1417953
275 0.5695642 -0.61424285 1.2585462 0.8778603 0.8883492 0.6197077 -0.3368129 -0.22618695 -0.48773563 0.061201807
244 -0.7270477 -0.54112744 1.1007661 -0.16663504 0.1455129 -0.43635195 1.0953991 0.33479723 -0.00953681 -0.92301184
194 0.5222608 -0.89382315 0.4315578 0.008013776 -0.28459767 0.21657354 1.2414296 0.2309589 -0.11531931 -0.63044584
301 0.69717854 -0.5940179 1.1323355 0.5897222 -0.21097732 0.5951228 -0.4699667 -0.7319764 -1.169767 0.0040499493
241 -0.58552253 -0.79402465 0.94423383 -0.014348827 0.1225547 -0.37432158 0.95305234 0.52006555 -0.15211993 -0.7779493
191 0.505993 -0.72869974 0.4322267 0.052558884 -0.3154234 0.28031042 1.386476 0.28184816 -0.13721967 -0.5990822
190 0.5260693 -0.743845 0.41782117 0.112618774 -0.20776725 0.27224803 1.3701587 0.31654084 -0.16193658 -0.5681467
14 -0.41409326 -0.03629709 1.3966842 0.38113248 -1.1215057 0.40909263 0.0839382 0.92526454 0.2624696 0.23541845
272 0.47555184 -0.5435909 1.2534873 0.8255993 0.90865 0.6564632 -0.29226527 -0.25612882 -0.5597146 0.033110898
47 0.11269616 -0.3039132 1.3779509 -0.33473215 -0.6022673 0.26524788 0.070237234 0.53627104 1.0371189 0.2057602
145 -0.123385735 -0.30987093 0.8750993 -0.75398785 -0.018566746 0.06746032 0.68147206 0.52923125 -0.62486625 -0.71451485
277 0.65062284 -0.6457633 1.1921886 0.8826594 0.785567 0.658055 -0.31339487 -0.26518935 -0.6353693 0.097358294
53 0.1050139 -0.3098866 1.3540016 -0.45357102 -0.3581533 0.22322834 0.17304638 0.6940118 1.0670836 0.26862508
196 0.43224064 -1.0035061 0.40734643 -0.026451325 -0.32405725 0.17226353 1.2124065 0.15841345 -0.06939356 -0.52908117
110 0.9135939 0.11116865 1.2493621 -0.939938 -0.25191692 -0.34342065 0.011961488 1.0027397 -0.40760377 -0.18073691
189 0.5944656 -0.67643625 0.4219258 0.11443918 -0.25838456 0.25009158 1.3312104 0.3171578 -0.19809589 -0.6204945
46 0.09409244 -0.34313965 1.3737191 -0.37527487 -0.67272955 0.28538007 0.124361545 0.5659786 1.0264902 0.14730142
8 -0.5363175 -0.23568965 1.2903842 0.22403196 -1.353118 0.39220443 0.1793885 0.9051569 0.1314808 0.58218515
273 0.508744 -0.56443816 1.2686456 0.93080914 0.82125497 0.617758 -0.36005464 -0.2190925 -0.4633984 0.047043253
250 -0.057697322 0.08748373 1.5214477 0.9053196 0.90406644 0.7092645 -0.14384277 -0.22581477 -0.56243265 -0.087008946
195 0.5138145 -0.9263099 0.43616515 -0.038035758 -0.42800155 0.08420073 1.285895 0.27273706 -0.09799789 -0.5947366
246 -0.6716447 -0.48262236 1.0810851 -0.10964311 0.13546506 -0.4874576 1.1112809 0.28354576 -0.08992173 -0.95641965
306 0.55575526 -0.6271736 1.2349517 0.42108452 -0.25511104 0.38677832 -0.6008723 -0.8193066 -1.128882 -0.049650874
300 0.75543076 -0.5437808 1.1544312 0.5641632 -0.11684746 0.6098244 -0.50778204 -0.6321277 -1.1861383 0.030470377
59 0.29522902 -0.30497432 1.2452081 -0.4238928 -0.19968599 0.29877952 0.18236263 0.8100354 0.96158177 0.3823226
242 -0.69858897 -0.6164395 1.0355679 -0.13489242 0.1785273 -0.29862407 1.0606527 0.38469243 -0.15019085 -0.8986423
299 0.6435514 -0.57757473 1.1633406 0.60398823 -0.083174095 0.6773729 -0.46855134 -0.70029217 -1.110214 0.08366384
298 0.6385928 -0.6591974 1.1031129 0.6434263 -0.06801712 0.70725155 -0.43529162 -0.6648419 -1.1305046 0.09748667
409 0.4398462 0.38236526 1.2492278 0.93959665 -0.13854842 -0.73732084 0.96168405 -0.85587716 -0.29522178 0.56896967
247 -0.6877051 -0.51262385 1.0700136 -0.1358511 0.08106018 -0.48520774 1.1251967 0.33471873 -0.08011169 -0.90304893
276 0.617439 -0.68259126 1.255986 0.8912866 0.87271774 0.6948559 -0.33023044 -0.3414422 -0.5016489 0.034406353
408 0.5264843 0.3097499 1.2592133 0.967194 -0.18516229 -0.75418353 0.9133481 -0.8733119 -0.27407506 0.6903747
416 0.43571863 0.75040835 1.4916524 0.704464 0.009003951 -0.7828254 0.8579474 -0.850366 -0.32970974 0.43542627
56 0.21667866 -0.26629645 1.3390275 -0.44790864 -0.22668993 0.31704566 0.15027343 0.7693494 1.0281019 0.29149055
400 0.81484437 0.09178096 1.0681573 0.86394125 0.0144123705 -0.6539023 0.8624366 -0.72428924 -0.15929656 0.98123044
304 0.5755905 -0.64780635 1.168249 0.49185228 -0.2920371 0.52518797 -0.5634691 -0.768807 -1.110592 -0.07509506
418 0.5170055 0.7569608 1.4743359 0.6966573 -0.0037207562 -0.821938 0.8554121 -0.78789055 -0.38418615 0.48192573
49 0.19072296 -0.30885375 1.3401601 -0.28811544 -0.59981465 0.21666418 0.14433187 0.66290593 1.0155809 0.22038828
52 0.11772435 -0.31319687 1.3709934 -0.4917131 -0.4688288 0.17792766 0.22245769 0.6770301 1.0757313 0.30494863
401 0.7328266 0.0856118 1.0912914 0.89457184 0.026821064 -0.75781584 0.8617841 -0.67959774 -0.13439445 0.92241967
57 0.25745183 -0.19397394 1.3389374 -0.42117563 -0.24223301 0.2654434 0.25610307 0.82818717 1.0446388 0.3442934
388 0.37860203 -0.1632683 1.1517464 0.5261733 0.260426 -1.0185974 0.66869324 -0.56345063 -0.4857018 1.0570941
58 0.2921088 -0.2846516 1.2797521 -0.420093 -0.20529452 0.37919766 0.21131371 0.82347125 1.0072585 0.35677427
410 0.39476272 0.42835388 1.2913125 0.9159377 -0.17719604 -0.72224915 0.9669452 -0.92175955 -0.2944909 0.5490357
305 0.57607627 -0.5849617 1.2412564 0.47277138 -0.299601 0.5515923 -0.56416047 -0.859453 -1.1604687 -0.0780755
112 0.94669145 0.17838533 1.2988105 -0.8428587 -0.19357917 -0.33411184 -0.08105415 0.95774645 -0.37835628 -0.29742834
414 0.44270766 0.6356856 1.4534804 0.67307866 -0.14701715 -0.8446596 0.950263 -0.931297 -0.28921255 0.56711197
398 0.7257418 0.06846861 1.0991307 0.7243433 0.22950998 -0.7467405 0.906726 -0.69878876 -0.1441879 0.9853489
243 -0.67110854 -0.5854972 1.0765146 -0.18534143 0.16942602 -0.46567097 1.041596 0.33017036 -0.08852881 -0.94813913
51 0.16814019 -0.26540002 1.3538003 -0.3353133 -0.50278825 0.28559425 0.08418551 0.62849903 1.0017984 0.3484491
307 0.4349882 -0.6680858 1.3600948 0.14114845 -0.22892492 0.22509386 -0.6318614 -1.0947704 -0.8709112 -0.08383688
417 0.51209354 0.74925864 1.4814337 0.66502947 -0.019719431 -0.74764633 0.89281976 -0.86756736 -0.33002162 0.54715645
399 0.75081813 0.104990624 1.0824897 0.7311807 0.13506986 -0.72677547 0.81318015 -0.64868253 -0.2505291 0.9743797
358 -0.20351782 -0.37534085 1.1066856 0.034098838 0.19486852 -0.07163519 0.49252895 -0.9210494 -0.5402504 1.3886452
407 0.5141756 0.2671065 1.2294477 0.9498087 -0.23180886 -0.78257674 0.9302451 -0.8789599 -0.28154412 0.67568815
111 1.0038189 0.0720325 1.2590739 -0.8197349 -0.1929196 -0.37248895 -0.05663949 1.0068169 -0.38804463 -0.2517059
419 0.47777778 0.781007 1.5367539 0.7330947 -0.013192494 -0.7727031 0.85434645 -0.8221499 -0.35883895 0.54745185
387 0.40223047 -0.15871029 1.1125613 0.54316574 0.24479897 -0.8927584 0.6302652 -0.58678144 -0.54559714 1.0511706
405 0.55525565 0.23745017 1.205665 0.9256916 -0.11703851 -0.71343005 0.90908253 -0.83210045 -0.25558612 0.77202904
406 0.6127461 0.2880508 1.1740842 0.92790437 -0.1818917 -0.6642481 0.9460518 -0.8594653 -0.23375057 0.7301934
62 0.2474701 -0.21089485 1.2221422 -0.37467903 -0.06527115 0.37852085 0.20920616 0.8902389 0.8572512 0.39788198
321 0.30650717 -0.56663376 1.4358938 -0.46542028 0.087666735 -0.064224295 -0.23796272 -1.4886428 -0.30089292 0.10510885
61 0.29073945 -0.267676 1.2706693 -0.4036684 -0.08268742 0.2810331 0.21354221 0.8450538 0.9985972 0.4134075
50 0.10729755 -0.30055532 1.3271389 -0.3425383 -0.5279136 0.27545467 0.1264632 0.62451434 0.96255416 0.19835727
109 0.98098904 0.11756599 1.260474 -0.9168487 -0.27551174 -0.33330598 -0.013956211 0.99263483 -0.40823025 -0.14627141
411 0.4411652 0.52782816 1.3781931 0.88562393 -0.13956128 -0.7828423 0.93001455 -0.85785186 -0.31914127 0.6206483
113 0.9590371 0.19843008 1.2828974 -0.7959905 -0.24453363 -0.32516035 -0.0687521 0.98691165 -0.4818187 -0.3013307
389 0.41217047 -0.15133576 1.1380333 0.5640001 0.24566819 -1.0053669 0.6590922 -0.57386875 -0.5087197 1.0139481
94 0.9454009 -0.2399087 0.98661655 -0.8532368 -0.161969 0.14054067 0.071386464 1.1378306 -0.13186789 0.46467447
340 0.0926169 -0.56789833 1.211992 -0.16241248 0.2712662 0.22916177 0.2764688 -1.3895683 -0.18071665 0.89434767
116 0.8661146 0.22137964 1.348445 -0.9118771 -0.18743011 -0.3708596 -0.06664859 0.90575624 -0.41172445 -0.40062803
413 0.4978707 0.66544384 1.3781523 0.808859 -0.103002235 -0.7738111 0.93771815 -0.8384364 -0.30099577 0.5528069
117 0.856214 0.23467429 1.3419105 -0.8667107 -0.218845 -0.38704622 -0.045671284 0.83710486 -0.43199396 -0.5039121
394 0.70395017 -0.034577608 1.1684088 0.64799064 0.28200597 -0.96196824 0.8072662 -0.6629367 -0.29979435 1.013252
64 0.3525436 -0.1617956 1.2528172 -0.48107857 -0.080154955 0.32321602 0.28360242 0.9989614 0.83334875 0.5079609
393 0.54906124 -0.06748201 1.1734283 0.60075176 0.3093376 -1.029681 0.7472493 -0.5897422 -0.2566808 0.9811331
283 0.76541656 -0.70179915 1.0740327 0.9254075 0.3826944 0.8516275 -0.33079627 -0.42090687 -0.6655933 0.25742877
65 0.3987597 -0.11285179 1.2334291 -0.43330497 -0.0035932972 0.20957601 0.20743051 0.9016115 0.8283684 0.4945019
95 0.9973808 -0.20559224 0.99440145 -0.82145566 -0.17045693 0.087856404 0.067709975 1.1158462 -0.121807374 0.38295567
412 0.46897182 0.5522944 1.3601378 0.83030635 -0.10903223 -0.7981994 0.9183632 -0.855736 -0.30662394 0.511588
402 0.6972146 0.08589049 1.089454 0.84770733 -0.08779815 -0.77426744 0.8598948 -0.7341533 -0.2141791 0.93452024
360 -0.09447369 -0.28643903 1.0360466 0.09647176 0.20835164 -0.010630623 0.59954196 -0.91048914 -0.59124285 1.3474748
361 -0.158689 -0.30056414 1.1245245 0.003257491 0.20343302 -0.10957838 0.49005893 -0.88356596 -0.5991766 1.3866497
314 0.28759086 -0.77736443 1.4921807 -0.23694864 -0.15662625 -0.26952282 -0.54216677 -1.3965905 -0.44647068 -0.02293495
404 0.58054966 0.18238601 1.1273464 0.9119297 -0.039618913 -0.70113325 0.9939446 -0.8351735 -0.15903205 0.76643115
359 -0.2206964 -0.3383008 1.1035082 0.01753297 0.1354857 -0.15908931 0.48418868 -0.8818103 -0.4936367 1.3321836
384 0.22644307 -0.17711198 1.129945 0.46227467 0.19998594 -0.847025 0.50384563 -0.5502137 -0.6176184 1.1212381
68 0.4679141 -0.15372562 1.181746 -0.4864861 -0.04694583 0.29767087 0.34908107 1.0558444 0.7963094 0.61636186
381 0.1714545 -0.22508065 1.1386907 0.37422904 0.18053521 -0.8144838 0.48692998 -0.612319 -0.61523 1.1625117
362 -0.16043133 -0.2737499 1.1383502 0.011216009 0.15362781 -0.14992519 0.5044459 -0.91003174 -0.63015205 1.3663977
385 0.3591743 -0.23024802 1.1008947 0.5351174 0.21185392 -0.88018095 0.60225594 -0.61251044 -0.67666227 1.0982873
320 0.37621176 -0.670549 1.4275153 -0.50422734 0.111526296 -0.05918397 -0.28307113 -1.4784491 -0.27892804 0.13482308
92 0.8855617 -0.27057874 0.9540629 -0.75958985 -0.10486694 0.13979618 0.04149246 1.156142 -0.11245165 0.46366403
357 -0.14766026 -0.28026164 1.1094158 0.042754054 0.18915732 -0.045977656 0.4782525 -0.8788005 -0.48678753 1.3982224
386 0.37292367 -0.16280682 1.1218226 0.55109435 0.21465452 -0.9213607 0.61939526 -0.5597499 -0.50902426 1.0963745
382 0.15916666 -0.22438116 1.1818279 0.45501754 0.18788908 -0.8570717 0.55821073 -0.6551231 -0.5864523 1.1412748
63 0.41535288 -0.2252381 1.191134 -0.37843943 -0.048322942 0.2885629 0.23381291 0.911197 0.8976387 0.5049367
60 0.2922409 -0.2899038 1.2675382 -0.4411714 -0.098152675 0.3582673 0.19582348 0.89865637 0.94235694 0.34454468
380 0.2311702 -0.19159095 1.1047195 0.39930364 0.18926476 -0.7726617 0.49869683 -0.56313777 -0.6105475 1.2061802
415 0.45679936 0.6437634 1.3984547 0.6659228 -0.03575363 -0.75359344 0.8913532 -0.8416045 -0.3341081 0.5277295
369 0.017382666 -0.20948003 1.0931345 0.117406 0.28234604 -0.39230746 0.6191533 -0.7928545 -0.79587233 1.3064904
85 0.72354996 -0.28822932 0.95810443 -0.70418704 0.019351546 0.1854555 0.15959461 1.1817033 0.08502614 0.5659557
114 0.9356246 0.14649984 1.2741421 -0.91649824 -0.31885424 -0.3378085 -0.024501031 0.9251191 -0.4830854 -0.36150423
356 -0.15643822 -0.2931182 1.1334038 -0.038340066 0.16249767 -0.049669906 0.46652883 -0.9922888 -0.5000048 1.3001109
420 0.43627104 0.69345945 1.4021114 0.7277595 -0.04778076 -0.7511815 0.8370367 -0.744639 -0.26689538 0.4559577
319 0.35742465 -0.6699148 1.4820961 -0.3653346 0.07722544 -0.17172107 -0.37150368 -1.466804 -0.29099536 0.0483076
355 -0.17250022 -0.33709612 1.1583073 0.008912233 0.25584486 -0.030882215 0.49030346 -1.0259619 -0.525743 1.2610362
397 0.70531523 0.08419062 1.1513963 0.70202893 0.25202033 -0.8200365 0.85136205 -0.66956407 -0.14323115 0.92268676
322 0.34209293 -0.7397229 1.3611434 -0.39215422 0.17291011 -0.023922445 -0.13886657 -1.5177089 -0.29530755 0.16662556
339 0.14224297 -0.6036162 1.0878671 -0.26220927 0.31143272 0.23294297 0.33734253 -1.3263137 -0.06498152 0.8719787
115 0.90167683 0.14746746 1.3532954 -0.9115899 -0.14965902 -0.27554652 -0.15813142 0.9343256 -0.46166822 -0.45431492
368 0.0019835865 -0.21713875 1.1400658 0.16622637 0.3341129 -0.34832078 0.5518041 -0.76661664 -0.7722306 1.3609579
67 0.47485772 -0.17813396 1.167154 -0.41388977 -0.015928686 0.25968504 0.27879128 0.9621886 0.84431654 0.53034997
341 0.12653066 -0.5583572 1.1347188 -0.20748195 0.20623432 0.28109956 0.3472377 -1.3668736 -0.15432565 0.9361245
338 0.13888735 -0.6524062 1.1545122 -0.15503868 0.2779738 0.24097592 0.34902626 -1.4409959 -0.06679671 0.86183304
87 0.86570907 -0.27111554 0.95243865 -0.7815328 -0.091687724 0.18610539 0.15860713 1.1593198 0.023209015 0.6269771
349 -0.11582585 -0.44994462 1.0932992 -0.048126515 0.16193034 0.10206793 0.48167887 -1.2213964 -0.37397918 1.1180307
90 0.8759909 -0.26473728 0.9616165 -0.7971642 -0.13531902 0.12042478 0.086927585 1.1003525 -0.032183178 0.5352423
383 0.23455472 -0.23754762 1.1377174 0.49540263 0.23041186 -0.8655679 0.5050562 -0.5739618 -0.55144083 1.1061087
395 0.6136211 -0.012461425 1.1778818 0.7401369 0.23280595 -0.9067975 0.7596652 -0.63935375 -0.1776722 0.96256846
336 0.110548615 -0.58994853 1.2318659 -0.34040475 0.33051634 0.18406719 0.2232594 -1.4023142 -0.12039282 0.7738913
77 0.69667435 -0.30883396 1.0440909 -0.5552142 0.059352905 0.27225497 0.118222535 1.1358818 0.41376558 0.5520697
375 0.15531059 -0.1731701 1.1339087 0.2540239 0.3156054 -0.659378 0.5753058 -0.643459 -0.7512373 1.2728711
89 0.90074867 -0.27254516 1.0002075 -0.8279587 -0.11825028 0.16749442 0.054239698 1.1106858 0.005426975 0.54928553
392 0.59861904 0.053041853 1.1805593 0.57202435 0.23515686 -0.92406946 0.699095 -0.599125 -0.42976496 1.0380324
333 0.27031463 -0.67146593 1.2170887 -0.30148542 0.27691597 0.20472068 0.17180724 -1.4563415 -0.08421534 0.65736914
364 -0.11946237 -0.25178528 1.1319296 0.062617294 0.23472507 -0.23754624 0.51582235 -0.8773512 -0.6794211 1.3293132
396 0.6749915 0.056253973 1.1266909 0.68204445 0.15942307 -0.86467063 0.83630633 -0.67678946 -0.19339062 0.9633901
88 0.8556948 -0.26899627 0.9856776 -0.8218405 -0.11603433 0.22110963 0.106179774 1.1610264 0.0031081552 0.61041677
91 0.8959375 -0.2644477 0.9964765 -0.84240943 -0.124314815 0.18035251 0.14657938 1.1997626 -0.02624184 0.50550944
367 -0.058398668 -0.2020565 1.1375093 0.20248565 0.25031474 -0.30321413 0.5653311 -0.828381 -0.83337784 1.3285927
376 0.22441891 -0.14058417 1.104116 0.25942358 0.26306015 -0.6307818 0.5841463 -0.62564486 -0.8166716 1.2615741
366 -0.0745898 -0.25824 1.09385 0.10974813 0.098267965 -0.27398115 0.5968441 -0.8849785 -0.73823446 1.3402336
78 0.70391786 -0.2543853 1.0138344 -0.5783426 0.025371661 0.31646913 0.2318495 1.1376243 0.43374896 0.6360452
315 0.24721715 -0.73465 1.5118654 -0.3061057 -0.117134996 -0.21664113 -0.46137628 -1.4515502 -0.48495153 0.0037185156
337 0.23059951 -0.5566787 1.1478684 -0.255672 0.22484732 0.2300361 0.31930476 -1.44255 -0.21712291 0.820431
93 0.873995 -0.27892327 1.0310944 -0.88107795 -0.15112275 0.16170141 0.016343806 1.1724893 -0.12588066 0.49583086
101 0.8939646 -0.14471146 1.1360011 -0.9714416 -0.21790889 -0.036770213 -0.047598314 1.1040262 -0.2950767 0.16870779
334 0.18080352 -0.63242334 1.2240074 -0.29859543 0.32819274 0.139725 0.18223533 -1.4020879 -0.042557757 0.7025689
118 0.8466779 0.29484427 1.3510487 -0.89209425 -0.14509428 -0.33898488 -0.07193735 0.8259874 -0.43000698 -0.50557226
324 0.3658995 -0.65066886 1.3053244 -0.49961445 0.31322294 0.07101365 0.0018059759 -1.5209134 -0.23026296 0.27067634
347 -0.10411965 -0.51065177 1.0974461 -0.10492926 0.18088327 0.16592596 0.43232858 -1.2490529 -0.3000132 1.0591726
75 0.5770995 -0.2648408 1.0407248 -0.5531517 0.061856642 0.3539884 0.21243602 1.1022036 0.5185619 0.64443517
326 0.3742753 -0.671908 1.297152 -0.39777336 0.2707086 0.08307418 -0.024123294 -1.4921029 -0.20056058 0.42142004
66 0.37070513 -0.17910738 1.2342756 -0.4568044 -0.037249047 0.3624856 0.275834 0.9789805 0.85714275 0.5494339
76 0.7058677 -0.27238882 1.0262332 -0.5159162 0.07349552 0.29637694 0.28653055 1.1725171 0.5226931 0.5653897
363 -0.13449226 -0.28484014 1.1097614 0.049369335 0.18235043 -0.21919239 0.47426447 -0.8210135 -0.7171574 1.3365954
379 0.20376052 -0.2596321 1.1330783 0.38685155 0.24518932 -0.81322956 0.5051875 -0.59484094 -0.64209825 1.1802845
335 0.21892223 -0.48959282 1.227701 -0.25348747 0.26941624 0.24262771 0.31616303 -1.5120575 -0.094452165 0.6846262
100 0.92171556 -0.21446507 1.0878524 -0.99238425 -0.13885622 -0.1393948 0.006113685 1.0721513 -0.23531768 0.20798922
403 0.66810364 0.06137146 1.0230231 0.92671657 -0.048584156 -0.709321 0.90953463 -0.7523637 -0.20846228 0.76048857
371 0.0387768 -0.2114301 1.0961193 0.13958539 0.27655447 -0.5078291 0.54533863 -0.6900495 -0.7057745 1.2768191
96 0.8932458 -0.1756712 1.0259337 -0.8506096 -0.17403813 0.09785728 0.031123774 1.1474426 -0.1915638 0.41388738
377 0.26733154 -0.20772623 1.1081358 0.29166543 0.20742711 -0.69927293 0.5940838 -0.67415327 -0.768365 1.250035
330 0.31940988 -0.57875454 1.2357355 -0.43556044 0.30438128 0.21014695 0.12992093 -1.4401731 -0.11719945 0.5931804
84 0.76270014 -0.26024607 0.9687764 -0.6794048 -0.03991032 0.1957108 0.19317302 1.1754628 0.17645666 0.68027467
350 -0.15556681 -0.34270093 1.0983226 -0.103843264 0.16781747 0.15063764 0.47924992 -1.109319 -0.37555084 1.2100592
390 0.46670753 -0.08235247 1.14252 0.5196233 0.24002759 -0.99082947 0.6892687 -0.6103452 -0.49939242 0.981209
374 0.1429867 -0.18420915 1.0404745 0.21614578 0.19755968 -0.4925625 0.64930195 -0.726282 -0.7555179 1.2769768
71 0.571462 -0.17299838 1.1464818 -0.42028704 0.00066552305 0.24036428 0.2684861 1.1094714 0.70509994 0.53109235
378 0.22662006 -0.19201262 1.0760633 0.2555618 0.23649183 -0.7596032 0.5550986 -0.5551946 -0.6620047 1.2374468
107 0.90422326 -0.014980577 1.2183731 -0.8982688 -0.23563789 -0.257437 -0.063905105 1.054876 -0.3857208 -0.15512267
372 0.0896295 -0.19604911 1.1402351 0.18288618 0.3132383 -0.5740477 0.5884217 -0.6566333 -0.78660065 1.3269013
70 0.5634198 -0.24115984 1.1505495 -0.48206994 -0.014308473 0.28755066 0.2761646 1.1008238 0.71587396 0.5217662
69 0.5199824 -0.21039893 1.1330225 -0.4698019 0.04990413 0.38052693 0.2838809 0.9805557 0.80465597 0.5682507
82 0.80266285 -0.22080714 0.97101295 -0.68654376 0.06674684 0.22334187 0.19719276 1.1341193 0.21237853 0.63733965
119 0.77808654 0.16031885 1.2969682 -0.9469542 -0.20240442 -0.4335854 -0.004265395 0.8150885 -0.45130315 -0.47807023
316 0.2630825 -0.7756145 1.371343 -0.32092163 -0.090542644 -0.23827803 -0.3376199 -1.4433333 -0.4777366 -0.012123524
332 0.29110795 -0.55804825 1.2154468 -0.32840684 0.31381404 0.25236085 0.18095498 -1.4288709 -0.06537316 0.6812876
248 -0.63677424 -0.51149786 1.0617826 -0.053792972 0.14619333 -0.5078074 1.0902737 0.34415236 -0.09832288 -0.95268756
86 0.82271135 -0.28954127 0.9692258 -0.69715136 -0.091173485 0.15428703 0.13781811 1.203185 0.05286084 0.57894754
391 0.63647753 -0.060105264 1.1419325 0.5997468 0.30715638 -0.9806442 0.70856553 -0.56575227 -0.37520906 1.0066401
329 0.4271919 -0.64447874 1.2532738 -0.54353565 0.3621588 0.17140171 0.028373975 -1.405397 -0.20114557 0.5529227
323 0.45894745 -0.62349814 1.2880224 -0.47929886 0.2980037 -0.04152643 -0.065235995 -1.4178303 -0.2960963 0.26168528
99 0.9487603 -0.17740704 1.0696429 -0.8978599 -0.0712841 -0.119743176 0.023575345 1.0991405 -0.20221639 0.23226623
97 0.9615226 -0.25510612 0.9994967 -0.7910848 -0.113530055 0.12533031 -0.03786317 1.1134363 -0.20903286 0.32656106
373 0.15569977 -0.13428251 1.0742173 0.123097174 0.23944268 -0.5677156 0.570246 -0.6373738 -0.87710935 1.3161677
325 0.35968435 -0.62807745 1.3331132 -0.43909293 0.23587236 0.015724499 -0.047461163 -1.481284 -0.20886661 0.40112835
328 0.27452806 -0.7106277 1.2240763 -0.4282795 0.30104026 0.15234923 0.083756305 -1.4678062 -0.24864477 0.44211653
354 -0.08641046 -0.38924977 1.0845557 -0.06641679 0.2732834 0.057258017 0.5251158 -1.0729864 -0.51205313 1.2172616
79 0.69414574 -0.2473302 0.98689747 -0.5489867 0.116954714 0.25334102 0.2595908 1.1920584 0.35413855 0.5490508
342 0.091255076 -0.53338426 1.1232712 -0.17269377 0.27903968 0.21841195 0.40060273 -1.3325275 -0.123100914 0.9607008
74 0.54837054 -0.20902558 1.1033914 -0.5544754 0.028308082 0.22681068 0.26851174 1.1867471 0.49884707 0.61711603
327 0.28890514 -0.6570551 1.2942295 -0.48673376 0.31385872 0.055643607 -0.026834508 -1.4130223 -0.24892016 0.45599237
351 -0.1858397 -0.48555306 1.0509592 -0.111590415 0.17260803 0.07883369 0.47238746 -1.1123787 -0.35810164 1.1400714
370 0.16783084 -0.19638517 1.1217221 0.043901168 0.28158414 -0.4602595 0.5562036 -0.780599 -0.836642 1.3387316
108 0.9176742 0.020778995 1.2409358 -0.97687566 -0.25951123 -0.3176536 -0.029524285 1.0003781 -0.37483642 -0.10112904
343 0.13658622 -0.49579898 1.1345878 -0.17578742 0.28359693 0.25229436 0.38573763 -1.305701 -0.12624308 1.0423279
348 -0.015504912 -0.48053735 1.1080483 -0.046540935 0.19271882 0.18807332 0.48158637 -1.2698165 -0.36320075 1.1053299
80 0.83527476 -0.23159838 1.0064952 -0.5759952 0.04333437 0.293786 0.20999722 1.2197857 0.33385667 0.5664432
81 0.77138704 -0.2819703 1.0070277 -0.7297084 -0.012037956 0.23662703 0.19289199 1.1475701 0.28077435 0.66567904
331 0.34090766 -0.6174337 1.2169513 -0.40936446 0.32263243 0.23504815 0.19683062 -1.5005101 -0.15527289 0.63121057
365 -0.076912306 -0.1981756 1.1830449 0.09692237 0.32292303 -0.2742116 0.5735662 -0.8678188 -0.72772086 1.3316631
98 0.9733079 -0.26622534 1.0568118 -0.90825117 -0.20088553 0.05481352 -0.0058595296 1.1318539 -0.2367361 0.24080202
149 -0.029369082 0.0034225886 0.9312142 -0.90531415 -0.14783207 0.37710676 0.87415844 0.26708105 -0.5394676 -0.7270104
346 -0.07098497 -0.534039 1.0816661 -0.05341794 0.23161413 0.12526175 0.4753704 -1.2703639 -0.27008432 1.0374779
353 -0.16290624 -0.34283718 1.0906532 -0.10887131 0.15591384 0.040400073 0.44219783 -1.0316645 -0.5881209 1.2120553
72 0.46933135 -0.22451226 1.1652442 -0.5265898 -0.02068448 0.32918292 0.23832327 1.117572 0.6283889 0.53503346
147 -0.18107527 -0.14126676 0.89998674 -0.7947874 -0.10154292 0.5311411 0.8609186 0.26306942 -0.53566533 -0.7309645
73 0.5262791 -0.29189503 1.1345085 -0.49667206 0.025609188 0.3054893 0.22306813 1.2031181 0.6096886 0.5640449
102 1.0071224 -0.19610168 1.1127217 -0.97688764 -0.20388097 -0.06841617 -0.094235174 1.024117 -0.27740148 0.08046054
106 0.9184341 -0.03943472 1.1668602 -0.95514494 -0.27509874 -0.24396622 0.03808675 1.0773565 -0.35822988 -0.026144385
318 0.20827018 -0.6731334 1.4517158 -0.31478876 0.011368982 -0.11068935 -0.33870023 -1.4587877 -0.38373455 0.13918242
313 0.33514118 -0.8301132 1.4786319 -0.19999978 -0.108799495 -0.18797132 -0.57279927 -1.3554265 -0.58756423 -0.029627535
83 0.7702259 -0.26552403 0.96579313 -0.5626132 -0.027989952 0.25739223 0.18690906 1.2488117 0.18117994 0.667354
352 -0.09827303 -0.44975534 1.1264582 -0.079580694 0.22972241 0.071370274 0.4590755 -1.1041355 -0.43270898 1.270882
344 -0.06623867 -0.5223704 1.1417661 -0.11724715 0.20213169 0.2746423 0.3915065 -1.3233883 -0.20143248 1.0098258
105 0.84686023 -0.11217645 1.1397195 -0.8434202 -0.17313902 -0.33854222 -0.040593628 1.1096296 -0.3522074 -0.037244525
120 0.6931772 0.25523505 1.2481918 -1.0038769 -0.2389667 -0.32763618 0.11425961 0.7591418 -0.5009013 -0.533884
317 0.32079896 -0.74698156 1.4821413 -0.30747205 0.06267019 -0.20709457 -0.40196514 -1.4175122 -0.37153083 0.086885825
146 -0.14867401 -0.07826343 0.9201326 -0.8274737 -0.09609547 0.6084919 0.87174 0.220734 -0.5653516 -0.760274
121 0.8051384 0.16711427 1.127484 -0.82371646 -0.030638516 -0.32620707 -0.029453432 0.5089792 -0.45807183 -0.56241626
278 0.5828691 -0.65254706 1.2245363 0.9750021 0.63951206 0.6901226 -0.38137037 -0.28805232 -0.6172973 0.055608463
312 0.31106067 -0.73589057 1.4279957 -0.21557066 -0.20035638 -0.14252998 -0.5881998 -1.2930408 -0.6299027 -0.091699705
345 -0.02736355 -0.57222706 1.0521272 -0.09419576 0.22034097 0.28746822 0.47300938 -1.3040894 -0.30162403 1.0237588
144 0.22762258 -0.25875476 0.9273884 -0.8704092 -0.017976759 -0.11934886 0.49182618 0.5381807 -0.4994279 -0.7620551
104 0.96558267 0.010298236 1.2507422 -0.9658073 -0.13041072 -0.18499324 -0.048454463 1.0606654 -0.29911503 0.093764655
103 0.9263324 -0.052046888 1.1637965 -0.948854 -0.18410394 -0.14938997 -0.09413331 0.9988238 -0.30623293 0.11374253
0 -0.5741722 -0.2414107 1.253737 0.09450198 -1.5056039 0.45312762 0.0073046605 0.62416965 -0.1025921 0.7212213
13 -0.45888504 -0.08725871 1.3666518 0.48236763 -1.0277616 0.35414943 -0.0047586025 0.9458126 0.19343583 0.24211536
148 -0.28753144 -0.32343084 0.8741002 -0.7962811 0.016216625 0.21004887 0.7551307 0.40667036 -0.57634777 -0.6674995
249 -0.648915 -0.4148003 1.1442088 -0.27068618 0.2519428 -0.5278791 1.1377617 0.36346433 -0.062661394 -0.99894005
143 0.032311298 -0.19554798 0.87479085 -0.80202246 -0.119991586 0.2308126 0.46963167 -0.013558423 -0.44437668 -0.8229714
282 0.6100945 -0.7147968 1.0338061 1.0696394 0.3104413 0.62004656 -0.29853913 -0.35970202 -0.6483502 0.16162877
311 0.5626166 -0.42375627 1.5270245 -0.64487374 -0.14690962 -0.044092447 -0.8810647 -1.0208524 -0.56378025 -0.24475968
279 0.7852783 -0.46035472 0.8879581 0.8549832 0.6994634 0.7481534 0.03342869 -0.2377073 -0.7685268 0.15408868
142 0.053572074 -0.2492571 0.9767851 -0.9744736 -0.18009403 0.28255337 -0.16871421 -0.63185996 -0.33150047 -0.5952507
421 -0.2135386 0.2797268 1.1376777 0.5698374 -1.0155011 -0.2734159 0.04532535 0.20344293 0.020623919 0.63033116
281 0.44776312 -0.3455693 1.2452582 0.66667706 0.58592534 0.59252286 -0.30803636 -0.5726933 -0.66083986 0.14862682
280 0.41859335 -0.24749224 1.3093624 0.15613937 0.44056407 0.29991668 -0.5970287 -0.41513538 -0.67854786 0.12256822
