322 10
308 -0.16148579 -0.26075688 0.97060937 0.18776709 -0.0005864878 -0.34421816 0.5987981 0.20081627 -0.8652493 -0.48286492
293 0.51757395 -0.43569562 0.90014815 -0.13517559 0.6177613 -0.18834525 0.5202981 0.23573965 -0.88761765 -0.08258996
291 0.5696801 -0.4175358 0.8771063 -0.09435587 0.6288609 -0.1743737 0.51133806 0.26780054 -0.8260935 0.0058427686
290 0.61618483 -0.38694283 0.84850645 -0.16677235 0.6292484 -0.14115539 0.5202382 0.25809196 -0.88675064 -0.05914682
292 0.5632447 -0.34486583 0.80064243 -0.08303676 0.589785 -0.24143696 0.5017066 0.20218691 -0.91131246 -0.043624125
287 0.648336 -0.40920886 0.81706965 -0.108545996 0.6074665 -0.18304029 0.53709745 0.3451657 -0.7936353 0.055818424
289 0.6231277 -0.38941413 0.7990039 -0.06834669 0.59310037 -0.18105592 0.5800293 0.33552134 -0.86018056 0.046198566
286 0.6912304 -0.34822983 0.7836168 -0.0801123 0.6560771 -0.17063023 0.5893223 0.32182828 -0.76673496 0.017390862
294 0.49385557 -0.37511384 0.89348763 -0.106005244 0.58219314 -0.20473398 0.45143884 0.21264392 -0.9205756 -0.056763504
285 0.6672719 -0.39803368 0.72471434 -0.061132964 0.60595787 -0.20931697 0.5844303 0.33543408 -0.7794431 0.05463409
264 0.8865507 -0.13884304 0.3584134 0.20025438 0.5128793 0.22486074 1.1884347 0.20949174 -0.36928308 -0.120994814
257 0.9540758 -0.08132088 0.41845196 0.15119529 0.35601848 0.35776964 1.2993172 0.10774297 -0.31098893 -0.1637354
284 0.73394185 -0.36260572 0.68409145 -0.11137006 0.6146822 -0.14656134 0.6429693 0.36059743 -0.75553626 -0.005408526
253 0.9491711 -0.06010385 0.45926374 0.0504543 0.35679436 0.43173838 1.2951006 -0.05286217 -0.38533646 -0.27375486
255 0.9456488 -0.040171176 0.46307883 0.12893528 0.4151881 0.41544005 1.3001142 -0.0070323003 -0.35406107 -0.21231069
256 0.9543971 -0.09233275 0.41605768 0.124677494 0.39135632 0.41344962 1.2942961 -0.00048561982 -0.32385105 -0.20414886
265 0.9195315 -0.16907872 0.38945335 0.09443103 0.5054246 0.23899908 1.1915411 0.2767727 -0.3619857 -0.1512459
295 0.461609 -0.39821163 0.87449723 -0.100048415 0.5163992 -0.1743868 0.5165034 0.26537913 -0.9251413 -0.097415544
288 0.6327254 -0.4215233 0.7819195 -0.11473447 0.6495602 -0.13164735 0.604586 0.34117126 -0.86356074 -0.023792554
266 0.86123496 -0.19920507 0.3675628 0.13894105 0.5037531 0.2236225 1.1874756 0.30059305 -0.40244767 -0.17572896
302 0.15120873 -0.32290283 0.88016546 0.100761935 0.44671485 -0.2348721 0.43882972 0.121831894 -1.1029694 -0.23230325
254 0.92126 -0.07590824 0.46831834 0.12219135 0.41899475 0.39215463 1.278185 0.010167254 -0.35919866 -0.21765433
296 0.36166704 -0.38685998 0.85277385 0.010400756 0.5253866 -0.23483635 0.46101683 0.25792536 -0.9582862 -0.09153479
263 0.9704448 -0.0940035 0.43862417 0.08970853 0.482928 0.26759174 1.2285197 0.23684306 -0.38048628 -0.13336623
260 0.90199786 -0.0871295 0.43831062 0.16688076 0.41161773 0.3067329 1.2796975 0.13869773 -0.31137764 -0.16508761
261 0.9540509 -0.09001573 0.44070232 0.07024071 0.42553312 0.35410455 1.274949 0.20675953 -0.42065546 -0.16532645
267 0.91966164 -0.11197882 0.38311416 0.09356514 0.49537686 0.17076242 1.15269 0.39148968 -0.46177232 -0.110973194
270 0.84869325 -0.16872136 0.4343297 0.10295943 0.5607694 0.13754612 1.1065176 0.5335854 -0.46653175 -0.08392849
297 0.35884875 -0.39805973 0.9074287 -0.046630263 0.52678055 -0.17690675 0.43877307 0.18145522 -0.9926003 -0.12938532
262 0.93222487 -0.12496903 0.3506264 0.13099058 0.39079398 0.24664158 1.297585 0.25400347 -0.41435188 -0.16825113
271 0.92639464 -0.12484976 0.4375765 0.067496866 0.5828234 0.0327207 1.0346167 0.48468646 -0.46041423 -0.051217582
303 0.10688842 -0.28858873 0.9589528 0.12421045 0.4264817 -0.19662274 0.52365196 0.1378581 -1.0645266 -0.25900453
252 0.9413232 -0.078879 0.39731872 0.097462736 0.31847662 0.4689339 1.2610884 0.032835875 -0.35312447 -0.21409658
251 0.9599764 -0.07212981 0.41835904 0.03563061 0.38658234 0.41932282 1.2339778 -0.03672963 -0.30557755 -0.2834347
274 0.8588833 -0.21327001 0.49433124 0.052047 0.62549144 0.10211361 0.93234026 0.4913226 -0.45123252 -0.04871444
258 0.94807756 -0.07861565 0.38541183 0.12034963 0.45114836 0.34281906 1.2407761 0.10060193 -0.278486 -0.23296435
268 0.93787456 -0.11715722 0.43632513 0.10890043 0.5629266 0.08353908 1.1294774 0.39094296 -0.45970073 -0.054233946
461 0.35859233 -0.7071837 0.9188043 0.28051844 -0.06186174 0.7901189 -0.32642812 0.7786281 0.15015306 -0.7800886
275 0.8434977 -0.18854575 0.54394805 0.058933996 0.5954174 -0.03687356 0.91214335 0.49850625 -0.39332438 -0.0037094434
301 0.16919792 -0.30997354 0.8887053 0.11501118 0.37771004 -0.2082467 0.47746238 0.17606308 -1.0604205 -0.18821132
269 0.8948456 -0.17852236 0.401629 0.14357056 0.55352044 0.10848954 1.0864079 0.44078806 -0.43523112 -0.038579036
259 0.9268513 -0.013516625 0.4364139 0.113442585 0.45328867 0.3316204 1.2665384 0.203213 -0.3217635 -0.22712821
277 0.7835574 -0.26047704 0.5807094 -0.012094259 0.59253275 -0.044357836 0.8762157 0.5387912 -0.4997615 -0.050610926
273 0.8730206 -0.109860875 0.51539487 0.022196513 0.6142473 0.05807613 1.0076535 0.5156631 -0.47777036 -0.10226123
272 0.92915684 -0.1114538 0.4343061 0.040976357 0.5631597 0.028077405 1.0487708 0.51858765 -0.48261186 -0.06540873
299 0.30370507 -0.4428106 0.93189174 -0.08787938 0.3690665 -0.27548283 0.4683884 0.24498977 -0.9815659 -0.14970663
306 0.021935213 -0.22296856 1.0089447 0.1150654 0.22837868 -0.3088389 0.515109 0.07595456 -0.99314016 -0.37049365
462 0.3314067 -0.70468104 0.84884584 0.26873872 -0.033235487 0.82097584 -0.2911642 0.70910245 0.10899827 -0.85509723
300 0.26540378 -0.40961796 0.92799425 -0.006201927 0.43558037 -0.2206093 0.4991101 0.12815592 -1.0640031 -0.1540593
276 0.85691166 -0.19719186 0.5672515 0.034032866 0.649547 -0.039598893 0.9102527 0.4452304 -0.44122222 -0.032056738
408 1.4405733 0.6159504 -0.15823242 -0.09410006 -0.12979245 -0.31427065 -0.36147472 0.1710332 -0.8360293 -0.92643905
470 0.14833735 -1.0021325 0.6609008 0.3273283 -0.12981392 0.7253145 -0.14330737 0.60907 0.04297548 -1.0706785
298 0.27371138 -0.37673905 0.895084 0.011513376 0.45455885 -0.31025186 0.5199431 0.15832123 -1.0300882 -0.20312586
400 1.3873957 0.9019908 0.07680931 0.20198613 0.17150785 -0.2232737 -0.4425969 -0.023227885 -0.7920311 -0.72596365
409 1.4251015 0.6295733 -0.18185619 -0.08961577 -0.15315971 -0.28682965 -0.33207828 0.17553312 -0.8943806 -1.0046829
416 1.4189017 0.730651 -0.024636395 -0.2078051 -0.30924612 -0.08212294 -0.1497947 -0.12545934 -0.7598141 -1.1925194
410 1.3618888 0.6868315 -0.14347492 -0.07851407 -0.22867012 -0.2647543 -0.31070757 0.15681683 -0.8742018 -1.0584222
304 0.10312731 -0.27718902 0.98109895 0.11515659 0.31497112 -0.2733196 0.51669383 0.088877596 -1.0587509 -0.23847155
401 1.4595081 0.83214366 0.050088592 0.13744904 0.21976742 -0.25809357 -0.45865873 -0.08237953 -0.75842553 -0.74507886
418 1.4820378 0.6726512 -0.06500379 -0.24905078 -0.3373225 -0.058376297 -0.12197407 -0.19739439 -0.8653218 -1.2057785
441 0.40289235 -0.23556499 1.1986581 0.8256522 0.198656 0.86441725 -0.29065737 0.507184 0.38757387 -0.40894794
417 1.4641215 0.6727983 -0.105218686 -0.25759402 -0.36371484 -0.0330035 -0.13189621 -0.13486895 -0.7452188 -1.2768569
305 0.040690232 -0.27022594 1.0100414 0.10511738 0.22494784 -0.2791872 0.5501963 0.07603364 -1.0551947 -0.3221541
389 1.0750929 0.9139172 -0.095448166 0.70312774 0.16841401 -0.2670497 -0.16583472 -0.21413647 -0.7153781 -0.76390547
469 0.2068583 -1.0476787 0.6834319 0.3205909 -0.12629165 0.745153 -0.1687828 0.6554192 0.07194495 -1.0446978
307 -0.07823788 -0.06464515 1.1297373 0.20625107 0.052006155 -0.4905895 0.5446001 -0.045912705 -0.7804451 -0.4988909
399 1.4085159 0.92403114 0.11758521 0.21958381 0.19875003 -0.29295254 -0.48044032 -0.05482153 -0.8087071 -0.67282903
431 0.32679215 -0.2688917 1.080885 1.0997938 0.5447558 0.9457836 -0.3918256 0.331891 0.24368922 -0.3566472
419 1.4342091 0.6794637 -0.04208613 -0.19976933 -0.321522 0.008281561 -0.124397956 -0.24759813 -0.742991 -1.2403898
388 1.0839344 0.85291326 -0.19055815 0.6771156 0.17392507 -0.33206102 -0.0940118 -0.13129264 -0.7912992 -0.80273163
407 1.4451531 0.68078077 -0.13737038 -0.042954843 -0.009997888 -0.30551603 -0.4072164 0.16478518 -0.75347656 -0.9858286
398 1.433025 0.9021123 0.055538587 0.25898924 0.19907072 -0.22934464 -0.3952192 -0.14514925 -0.8113268 -0.693411
414 1.4715755 0.6404329 -0.04464522 -0.25260213 -0.2667116 -0.14517517 -0.20418891 -0.109669805 -0.7886605 -1.1133306
340 0.66742164 -0.06422159 0.29072854 0.26229858 0.4089932 -1.3077135 0.17776121 -0.07587152 -0.13821904 -0.9981268
475 -0.10753218 -1.1096219 0.6757312 0.52723765 -0.24340186 0.73311347 0.11646987 0.49244943 -0.07609096 -1.1250584
439 0.40513894 -0.27618644 1.2144122 0.87086713 0.2740638 0.86208117 -0.30922452 0.5306673 0.37080476 -0.4086797
440 0.39389437 -0.20587763 1.2171141 0.84597605 0.23586866 0.8450235 -0.2896749 0.52792424 0.423347 -0.45108637
361 0.8895877 0.04360128 -0.037061658 0.54952854 0.58326304 -0.72252554 0.0026130192 -0.76583564 -0.4226525 -0.95564115
468 0.23223874 -1.046388 0.72842306 0.29348826 -0.079249024 0.7415834 -0.13352418 0.60933113 0.101246335 -0.9606977
360 0.9847495 0.018302055 -0.04762516 0.48169687 0.63730776 -0.7397489 0.070681125 -0.72952646 -0.39234266 -0.9154684
465 0.35347775 -0.8805364 0.74422497 0.21908501 -0.0821 0.74520504 -0.30882287 0.6620361 0.07614032 -0.82605875
394 1.2513809 0.9532203 0.06791308 0.44261926 0.21714032 -0.3055911 -0.22773112 -0.15396562 -0.77593976 -0.7356234
460 0.36916798 -0.63883924 0.9662532 0.21942225 -0.069371626 0.7048858 -0.36165318 0.72884643 0.22819173 -0.83331406
387 1.0309228 0.825264 -0.20938608 0.68512404 0.25743407 -0.24886048 -0.14538656 -0.09430012 -0.7747435 -0.84087104
357 0.9682766 0.02180254 -0.0687631 0.5089462 0.5272531 -0.80772656 0.0088390205 -0.68171495 -0.25529307 -0.9191355
413 1.4960377 0.6599839 -0.12184812 -0.22339155 -0.28607586 -0.16637187 -0.13872272 -0.03474056 -0.8551972 -1.1166328
405 1.3666292 0.7282353 -0.054331806 -0.00031280026 0.107819095 -0.33021104 -0.41965342 0.20029905 -0.75061613 -0.96726626
358 1.0213464 0.03163899 -0.018787416 0.50905144 0.5769978 -0.80384797 0.00279984 -0.7330756 -0.2621005 -0.8601988
435 0.36815637 -0.29355648 1.2050296 1.01631 0.4336621 0.87186706 -0.34881765 0.4037294 0.3262377 -0.31864294
463 0.36870995 -0.7772325 0.90066564 0.20874952 -0.06333978 0.7703643 -0.29971722 0.73146546 0.17655165 -0.8616991
321 0.3436623 0.4004869 1.0918221 0.35411492 -0.02580525 -1.0887146 0.48126876 -0.27040333 -0.14981033 -0.6770725
283 0.6468121 -0.40585637 0.6899168 -0.03263614 0.5835445 -0.1399241 0.573791 0.34719607 -0.75201136 0.03780055
393 1.3283677 0.9374167 -0.052631825 0.4808454 0.16552666 -0.27836978 -0.21121919 -0.14024237 -0.751532 -0.68900543
438 0.46019873 -0.24949758 1.2417685 0.83363616 0.3548031 0.8250963 -0.33136594 0.46996567 0.4940922 -0.38474977
466 0.2796581 -0.85286206 0.7588988 0.28512514 -0.15164493 0.7190412 -0.21207394 0.6865741 0.12015583 -0.91114825
359 0.9472356 -0.017336216 -0.027321734 0.4446321 0.5137289 -0.70996207 -0.013823735 -0.757622 -0.31947488 -0.8705108
404 1.393222 0.8224566 -0.034107868 0.072917454 0.075850315 -0.27696955 -0.4592442 0.17974198 -0.6813219 -0.90845066
320 0.36888304 0.38742912 1.1012344 0.26116797 -0.12308689 -1.0933576 0.5067595 -0.2642069 -0.1552908 -0.74052936
411 1.4153482 0.640138 -0.18474764 -0.1793089 -0.23651882 -0.21047108 -0.26600882 0.13621809 -0.83496857 -1.1165962
467 0.27047065 -0.9465755 0.7407571 0.252967 -0.12501985 0.8014798 -0.26156467 0.70439214 0.025179375 -0.95286757
406 1.3769734 0.7605273 -0.06993617 0.016461648 0.0045942534 -0.3824835 -0.39232433 0.24858353 -0.78683317 -0.937974
356 0.9330289 0.016893623 0.008574801 0.3941363 0.54218394 -0.7769225 0.034832668 -0.66985905 -0.29696363 -1.0541784
446 0.39211452 -0.25338078 1.1103282 0.58771884 0.12596054 0.8151127 -0.34416786 0.6721264 0.31239298 -0.5402271
362 0.92443585 0.1161058 -0.0075720293 0.534809 0.5692815 -0.6257271 0.007681892 -0.78037184 -0.42813146 -0.9321939
402 1.3363047 0.82381845 0.021553306 0.15690958 0.12714714 -0.29678398 -0.45828497 0.048047397 -0.8241529 -0.78077906
412 1.4897177 0.6132313 -0.16076645 -0.1831908 -0.29225066 -0.24322917 -0.2841308 0.041080095 -0.8340328 -1.0679421
314 0.07175815 0.3107434 1.2323848 0.28274786 -0.15360098 -0.850746 0.5767068 -0.36965802 -0.3738045 -0.81231064
386 1.0500075 0.7552927 -0.25517762 0.7064462 0.19299936 -0.33258465 -0.1419296 -0.14117755 -0.8328101 -0.8179812
384 0.8972472 0.71783656 -0.25742137 0.70358616 0.29335436 -0.38731295 -0.08631641 -0.051787823 -0.85140127 -0.9382481
369 0.7638201 0.25460634 -0.16008359 0.65222955 0.44483274 -0.5500058 -0.0021835265 -0.5407725 -0.67792016 -1.0476699
380 0.9257082 0.6088372 -0.29860416 0.72466415 0.31728223 -0.46573102 -0.094529934 -0.19373533 -0.8186255 -1.033679
385 1.0127536 0.6987636 -0.26552686 0.6659319 0.3216832 -0.37107295 -0.095546685 -0.11068229 -0.83653516 -0.88618016
445 0.4455388 -0.19150253 1.2062008 0.6704174 0.100132465 0.82644415 -0.34879503 0.5562111 0.4252672 -0.48485872
395 1.3463262 0.8616624 0.036668044 0.39479196 0.19999053 -0.34841102 -0.32326373 -0.14966765 -0.7496797 -0.60813653
472 0.10191809 -0.98976815 0.6533316 0.4102226 -0.124313116 0.85511225 -0.119709104 0.5606225 -0.05000047 -1.0485587
338 0.6935601 -0.025901513 0.34397912 0.29505306 0.4244784 -1.2355952 0.25338757 -0.102048896 0.023826793 -0.9122803
442 0.39913893 -0.2043862 1.1545081 0.80295706 0.16302934 0.77075267 -0.31278002 0.64687955 0.43185985 -0.43458715
420 1.4038795 0.69231045 -0.015588976 -0.21664429 -0.32847598 -0.024128264 -0.1149741 -0.20235334 -0.7474979 -1.179954
432 0.39540288 -0.294138 1.1587012 1.0986856 0.5435263 0.9576046 -0.38579392 0.35760316 0.28161576 -0.29653504
381 0.8958168 0.6124231 -0.2739054 0.70350194 0.39296296 -0.44674185 -0.14152995 -0.09598827 -0.8001035 -0.9918154
355 0.9725039 -0.008148237 -0.01745178 0.40608907 0.5592078 -0.8521791 0.1123632 -0.61211705 -0.26415274 -0.93889517
452 0.43506083 -0.49621204 1.0186514 0.4559695 0.071260676 0.8140952 -0.42790866 0.6915261 0.27424824 -0.64955175
397 1.4348714 0.941907 0.09753127 0.30663654 0.19182602 -0.31224567 -0.38187775 -0.109638214 -0.7367153 -0.60921013
437 0.46995056 -0.124856986 1.1543722 0.866745 0.28674138 0.82887185 -0.33876097 0.44448873 0.44975188 -0.35581917
464 0.33314598 -0.8163149 0.84365183 0.2882236 -0.114006765 0.78965974 -0.3505104 0.6832196 0.11138961 -0.85881984
476 -0.13243471 -1.065796 0.6359581 0.5113368 -0.2282064 0.59075755 0.023877578 0.44678488 -0.07782262 -1.1534929
375 0.87038666 0.4098283 -0.25785336 0.7118586 0.37885222 -0.47805429 -0.09947499 -0.39731324 -0.71321905 -0.9822321
382 0.99054986 0.70690167 -0.2865718 0.7092522 0.32722023 -0.42645854 -0.107443534 -0.10756945 -0.8010481 -0.98540056
434 0.404873 -0.19776279 1.1559331 0.9880669 0.39756808 0.8670789 -0.386366 0.38823915 0.37082133 -0.34574664
322 0.4149413 0.3922763 1.033969 0.32511094 0.029704805 -1.1672168 0.4525015 -0.23604707 -0.1162213 -0.7105224
368 0.79097927 0.22654064 -0.19799411 0.62687486 0.47377023 -0.42519066 -0.0074458676 -0.59263617 -0.5269477 -1.1087588
383 0.9814527 0.7307777 -0.2577181 0.6205117 0.3518702 -0.38936517 -0.10502428 -0.0564505 -0.7991308 -1.0655171
341 0.71430635 -0.04418397 0.22695039 0.29402938 0.41409117 -1.228904 0.16633968 -0.13701147 -0.053614877 -1.0411308
444 0.4297998 -0.16836873 1.2451308 0.7004977 0.017387828 0.90831214 -0.366744 0.5939342 0.39946947 -0.51184946
349 0.87153333 -0.07951017 0.10265795 0.27362105 0.5090956 -0.9935744 0.11708825 -0.4546439 -0.15308914 -1.0396253
319 0.27387062 0.38094407 1.1394595 0.29804707 -0.1235903 -1.0868547 0.45905262 -0.3078528 -0.19769694 -0.76841724
415 1.4572666 0.69469136 -0.045484103 -0.25486374 -0.3275468 -0.021942854 -0.1638448 -0.13110663 -0.7510269 -1.2395072
459 0.37289533 -0.61934626 0.92054224 0.3140471 -0.04599495 0.7358255 -0.25421453 0.7305507 0.2751205 -0.78092223
471 0.088587515 -1.0831487 0.698351 0.32925403 -0.10629652 0.7549594 -0.05990744 0.45324135 -0.023202661 -1.0557817
403 1.4113605 0.8566485 0.06375365 0.054528818 0.0905412 -0.30838522 -0.44198456 0.12097669 -0.78207976 -0.84746796
339 0.7270828 -0.064630054 0.29634663 0.267922 0.38181692 -1.3330433 0.30142358 -0.11513949 -0.041325536 -0.95456666
433 0.35974124 -0.26143324 1.047783 1.0293933 0.5376926 0.8776803 -0.40559414 0.3411837 0.33580682 -0.3987037
324 0.47783032 0.29119596 0.84915406 0.3517918 0.093667865 -1.300061 0.38404158 -0.16453002 -0.09486671 -0.76325184
336 0.70169216 0.0028238443 0.40175703 0.215914 0.35694963 -1.2839024 0.28853655 -0.057899002 -0.0032416366 -0.92017365
453 0.43756413 -0.450835 1.0909618 0.40860835 0.073986165 0.76928806 -0.39531156 0.7575859 0.34313983 -0.64964366
396 1.423963 0.9447853 0.004508002 0.38789016 0.11086644 -0.3612011 -0.31942126 -0.08290002 -0.78729993 -0.62860894
443 0.40583676 -0.21344116 1.2597926 0.70128685 0.13646303 0.80068266 -0.33997738 0.5399368 0.35527444 -0.4232367
337 0.7186356 0.061025433 0.33241796 0.2846593 0.299351 -1.2530242 0.27599794 -0.020775607 0.09849926 -0.9539743
392 1.227358 0.93414706 -0.06216296 0.50829923 0.18151392 -0.22208335 -0.1810115 -0.1427324 -0.84602785 -0.7245373
376 0.8361654 0.5142219 -0.21956882 0.636741 0.44995898 -0.41339815 -0.039718784 -0.29258284 -0.8165511 -1.1155735
315 0.10119416 0.3199782 1.243823 0.25172117 -0.21050818 -0.9412328 0.5975915 -0.30463016 -0.33640927 -0.82616323
428 0.38660458 -0.34705302 0.9848815 1.0561831 0.63052434 0.93974876 -0.40278515 0.36062506 0.21263842 -0.27807215
458 0.3436062 -0.63648087 1.0245123 0.35568172 0.0019487682 0.77417636 -0.3158317 0.6998204 0.21750855 -0.75703657
390 1.1566985 0.8941274 -0.10882149 0.61046636 0.17920904 -0.3141346 -0.090228215 -0.20826446 -0.78038704 -0.7269127
364 0.8096959 0.09325741 -0.06685273 0.5188731 0.480192 -0.48054135 -0.054870706 -0.7516113 -0.4060999 -1.0385853
333 0.6283413 0.06804446 0.457548 0.31112152 0.31961003 -1.3322939 0.3218352 -0.010773897 0.00450886 -0.92287
436 0.463818 -0.27065492 1.0935948 0.9050693 0.33352935 0.94016546 -0.3361059 0.42711985 0.36853832 -0.36160982
366 0.8436764 0.16979235 -0.1667508 0.6395442 0.50635517 -0.5590654 -0.024761088 -0.6499943 -0.52420235 -1.005736
335 0.6271498 0.06666627 0.40906805 0.33249608 0.3024049 -1.2918439 0.2586756 -0.054612037 -0.008384623 -0.91817254
447 0.45777506 -0.30368507 1.1680189 0.6191239 0.13779694 0.7410258 -0.3842324 0.752005 0.3885482 -0.47715914
367 0.8113878 0.24682963 -0.14623283 0.5970125 0.41583785 -0.4868773 -0.03917186 -0.64609915 -0.5709786 -1.0875385
457 0.43007433 -0.67128456 0.88780475 0.3746765 0.015640717 0.7709328 -0.38964424 0.68155056 0.26994228 -0.7044422
429 0.43023595 -0.36990908 1.0055959 1.081138 0.61124647 0.9237282 -0.4406012 0.42798433 0.25809222 -0.26771012
334 0.61549044 0.09280943 0.41364804 0.32901105 0.23904505 -1.3333426 0.3304776 -0.020026576 -0.043880366 -0.93243164
430 0.37819436 -0.34488595 1.0268264 1.1325551 0.5967675 0.92010045 -0.44242603 0.33043888 0.24845634 -0.28589615
350 0.85925025 -0.089369826 0.04683485 0.31879306 0.4263666 -0.9310572 0.07285671 -0.44892764 -0.06192112 -0.99814045
377 0.85561836 0.5018198 -0.32428238 0.7332026 0.35089874 -0.37051463 -0.13015948 -0.26730022 -0.7825782 -0.98703176
379 0.92012745 0.5353638 -0.30158773 0.69436944 0.31381416 -0.4563084 -0.06859648 -0.2556439 -0.9232794 -0.91294456
448 0.38185182 -0.3779467 1.1847936 0.5557731 0.09001959 0.75618166 -0.33589917 0.66692185 0.345944 -0.542056
330 0.5325708 0.20755114 0.5950027 0.3475761 0.29845762 -1.2544174 0.33915132 0.038727567 -0.025700621 -0.82616144
374 0.776162 0.42059064 -0.17468488 0.6532197 0.45426035 -0.39942122 -0.06974954 -0.41976783 -0.75901794 -1.0268528
372 0.77286637 0.38366908 -0.19431534 0.704772 0.4223287 -0.41369876 -0.074617356 -0.5141552 -0.7200643 -1.0651677
454 0.42939746 -0.54132783 1.0705419 0.39587063 0.046088245 0.8023812 -0.29500744 0.8169817 0.2974701 -0.65609825
477 -0.17475733 -1.1211687 0.5838229 0.66851 -0.16098863 0.5749488 0.09272707 0.4844144 -0.044313073 -1.1426307
373 0.779402 0.3812697 -0.21191162 0.6766167 0.3920019 -0.46547163 -0.017259322 -0.45670936 -0.7471077 -1.04891
449 0.39601654 -0.42008838 1.1895611 0.53118694 0.09829923 0.75583863 -0.31075287 0.7217917 0.3434822 -0.53307897
326 0.5089033 0.22859077 0.72710246 0.31469452 0.12911852 -1.3049773 0.40848407 -0.036415353 -0.042056743 -0.8446139
347 0.88281345 -0.06138268 0.14700812 0.28163326 0.54097193 -1.0556661 0.091451086 -0.38173524 -0.1283186 -0.96735215
363 0.87925595 0.18460104 0.014752698 0.4921833 0.57329243 -0.5488933 -0.050050635 -0.6631445 -0.5151651 -0.96682864
371 0.82184464 0.32868975 -0.17436405 0.6222916 0.4281805 -0.48569912 0.0658951 -0.55868167 -0.67091376 -1.0701196
378 0.8693592 0.46847036 -0.28921056 0.66307914 0.33456022 -0.36961058 -0.089008935 -0.31833866 -0.856719 -0.93974304
455 0.3978327 -0.5448857 1.0078118 0.37232748 0.011967179 0.74944454 -0.38375768 0.76481056 0.2777336 -0.7081603
456 0.3736785 -0.60897243 0.9798348 0.33701634 0.035136435 0.686383 -0.3396099 0.7481439 0.2618268 -0.70338076
323 0.44053638 0.290848 0.93596256 0.30778223 0.10612945 -1.2275865 0.41680613 -0.1524135 -0.08688797 -0.71786064
351 0.8849385 -0.12188663 0.045530636 0.3558505 0.5190781 -0.93562025 0.08022642 -0.57938266 -0.12166322 -1.0001823
391 1.1640913 0.90936494 -0.07238183 0.61581284 0.1097369 -0.27744073 -0.21573822 -0.21805044 -0.82514054 -0.7192947
450 0.42750686 -0.45334056 1.0518558 0.52889085 0.0951833 0.70832163 -0.41265142 0.70951724 0.34586358 -0.55894434
370 0.898919 0.29864782 -0.22055878 0.6597005 0.41629928 -0.6151675 0.040852744 -0.5267692 -0.65802145 -1.0137098
354 0.884665 -0.035174157 0.020332232 0.43445465 0.5437204 -0.930277 -0.0128903 -0.5846132 -0.28265896 -0.9533624
342 0.71905047 -0.08777008 0.17820992 0.30121315 0.50179696 -1.197755 0.1251718 -0.09199475 -0.035879552 -1.0375894
478 -0.18777388 -1.0353616 0.6444016 0.6426183 -0.17195502 0.5340024 0.14884952 0.45832518 -0.04275851 -1.0689676
325 0.48249513 0.28878036 0.7835027 0.33646256 0.13306631 -1.3011793 0.33824018 -0.02147076 -0.17641151 -0.7605636
451 0.388061 -0.42218608 1.1675143 0.45355725 0.12085206 0.7255936 -0.39008602 0.73897463 0.29563728 -0.602136
473 -0.026950898 -1.0307124 0.64187074 0.5077739 -0.08384148 0.685158 -0.054209027 0.5209349 -0.038272727 -1.0611718
316 0.16091077 0.33982447 1.2426269 0.26230016 -0.1396828 -0.94664615 0.5245626 -0.3429575 -0.29533184 -0.7731326
348 0.84133965 -0.041474286 0.18957062 0.26112995 0.6368947 -0.93418384 0.016377682 -0.40885824 -0.0989664 -1.0542057
329 0.5073609 0.2172986 0.5522111 0.39400092 0.23445606 -1.2790159 0.3934062 0.07857145 -0.022474619 -0.847643
332 0.6029794 0.14277752 0.53487 0.3241369 0.25750685 -1.3125997 0.36220914 -0.020474559 -0.0060955845 -0.87497264
427 0.37104207 -0.45537806 0.98463446 1.1424983 0.6315308 0.83103335 -0.38757262 0.4054407 0.31056368 -0.25971752
365 0.89708793 0.19304194 -0.066632 0.51936483 0.5463534 -0.6033167 0.030073745 -0.70171523 -0.5712131 -1.0925567
343 0.801919 -0.062258806 0.21455516 0.25797564 0.46572247 -1.1807059 0.1764384 -0.23642127 -0.060721833 -1.0156437
327 0.44157848 0.24835485 0.70594573 0.40382448 0.19503236 -1.2663463 0.38010806 0.025149716 -0.0627816 -0.7720112
346 0.8025579 -0.14314543 0.14749436 0.29586613 0.47883546 -1.0650647 0.1503996 -0.4117947 -0.1080158 -1.0072893
328 0.5516975 0.23211163 0.66314137 0.3614269 0.20640805 -1.3097739 0.35168278 -0.0221343 -0.0561561 -0.78771615
331 0.56569445 0.1295071 0.5030279 0.35207948 0.22144616 -1.3265978 0.40640333 0.05801932 -0.033865355 -0.8844271
479 -0.21984018 -1.1199945 0.518751 0.718511 -0.26408303 0.51643807 0.21446036 0.4730654 -0.08637509 -1.0627373
426 0.40721974 -0.36053985 0.9821326 1.1276274 0.5240862 0.9421102 -0.42499763 0.2986825 0.2425996 -0.25047144
353 0.88717896 -0.08557695 0.03674384 0.3953552 0.5212424 -0.90732723 0.022625785 -0.5990175 -0.22363491 -0.94562715
313 0.018171573 0.27127632 1.2184824 0.2980503 -0.11908938 -0.82114184 0.65243447 -0.24187838 -0.5152444 -0.72308224
425 0.39065313 -0.27771226 0.99693257 1.1286888 0.63043076 0.8322216 -0.35745433 0.26669306 0.33884522 -0.25236765
344 0.78785783 -0.14549302 0.24848637 0.17718276 0.5347843 -1.17932 0.12726508 -0.21592367 -0.12930353 -0.97880363
318 0.24509779 0.34980282 1.157715 0.3043627 -0.122458674 -1.0264558 0.46498892 -0.29277736 -0.18757384 -0.7278826
352 0.89079404 -0.022602284 0.05159865 0.4128356 0.59255576 -0.8866545 0.12672132 -0.55634534 -0.19115947 -0.9876623
317 0.18170027 0.32588312 1.1701797 0.2382594 -0.17624184 -0.95151305 0.57690865 -0.32398224 -0.2600544 -0.78704005
490 0.087917425 -0.67563015 0.26111466 1.3003517 -1.0299543 0.2071005 0.09998665 1.0629501 -0.4512641 -0.4278058
345 0.74331266 -0.15384391 0.14296068 0.3054781 0.48612615 -1.1059487 0.14961626 -0.30031672 -0.032600388 -1.03234
278 0.84640294 -0.23670878 0.6613198 -0.063685715 0.5446034 -0.1212657 0.86140484 0.5353222 -0.53351533 0.053615443
312 -0.05869839 0.13677774 1.1445227 0.25705448 -0.118682235 -0.7029513 0.5965753 -0.22414725 -0.62473357 -0.7199392
572 1.1601905 -0.79101527 0.90465903 0.87831473 -1.2058694 0.4029148 -0.738282 -0.46727276 -0.56526387 0.35539532
540 1.2743579 -0.82011086 0.45011726 0.99354136 -1.2492791 0.010225522 -0.15284795 0.15872066 0.3368864 0.13532418
484 -0.28106737 -0.6932511 0.49243352 0.7927818 -0.6273814 0.056299318 0.42455414 0.77088875 -0.5957333 -0.452152
528 1.1824424 -1.1047782 0.21578082 1.0743226 -0.9153134 -0.2368891 -0.3529403 0.5460178 0.2908451 0.13248986
489 0.002742975 -0.59977686 0.3007376 1.3410469 -1.0437706 0.15247153 0.14464201 1.053655 -0.4679785 -0.44306594
551 1.2432003 -0.84733963 0.4468778 1.162226 -1.2299601 0.41962668 -0.15542078 -0.31723922 0.19062288 0.056517262
550 1.2084092 -0.8939539 0.44816333 1.1645241 -1.1776713 0.31112197 -0.08911561 -0.40740007 0.1785969 0.09075904
491 0.11728217 -0.57954293 0.23806408 1.28397 -1.0959395 0.11995933 0.017736671 1.0627468 -0.4262241 -0.4153851
554 1.2812893 -0.8625796 0.4727603 1.2800323 -1.1911294 0.4671246 -0.1550693 -0.43656906 0.10214385 0.13710515
531 1.192064 -1.133591 0.3496946 0.99537015 -0.9828797 -0.17917429 -0.3812198 0.48962224 0.23118262 0.17564863
493 0.21782583 -0.6877357 0.23409672 1.342067 -1.0472556 0.10181047 0.021791639 1.0743473 -0.41393062 -0.28410235
575 1.2298194 -0.78504604 0.9338615 0.812051 -1.22314 0.5192473 -0.7059256 -0.34470335 -0.6642343 0.42959327
574 1.260303 -0.8267542 0.83668554 0.8299007 -1.2432076 0.4859065 -0.71641743 -0.37101477 -0.68609214 0.3927669
557 1.2107065 -0.97233903 0.4545483 1.1777332 -1.2288613 0.36620334 -0.15720536 -0.52223563 -0.016168326 0.0939108
495 0.22773664 -0.579795 0.13139758 1.3477857 -0.9372084 0.14411129 -0.121753894 1.059086 -0.43545532 -0.31614116
525 1.1496394 -1.1738983 0.18094197 1.0518034 -0.7981013 -0.17628291 -0.36525053 0.5601282 0.09647221 0.2311533
529 1.2012651 -1.1761719 0.2112531 1.0867563 -0.8480988 -0.15828903 -0.31784636 0.52184236 0.22545522 0.2117744
522 0.9539191 -1.181898 0.15529993 1.1318419 -0.71223426 -0.17180955 -0.45954508 0.58062583 0.07026926 0.09317242
555 1.2819765 -0.9622487 0.39678043 1.1178654 -1.2289515 0.50786626 -0.057683095 -0.4156602 -0.012723181 0.11837879
553 1.3501337 -0.83465517 0.40130505 1.1422936 -1.2411636 0.52571756 -0.11456843 -0.46081975 0.080957375 0.08077193
532 1.1851587 -1.1220645 0.3498171 1.0394963 -0.9877803 -0.238861 -0.3134084 0.3391123 0.30386502 0.16456689
561 1.0899211 -0.99398774 0.5474375 1.2426865 -1.1845367 0.2992526 -0.30219397 -0.6848574 -0.19149677 0.11716507
533 1.2500588 -1.0388505 0.39810866 0.9580837 -1.0746953 -0.13933997 -0.37364712 0.38119748 0.27787542 0.16883269
552 1.202098 -0.9004625 0.4433125 1.1090897 -1.3145697 0.43923557 -0.07174448 -0.34845 0.09073737 0.011133155
571 1.1462464 -0.8609638 0.85275877 0.9007514 -1.1392154 0.4412086 -0.76459897 -0.53587395 -0.5320913 0.28273335
558 1.1209351 -0.9356496 0.5853424 1.1939324 -1.1662428 0.44408783 -0.17283289 -0.57401025 -0.12745927 0.17755081
492 0.13808915 -0.6070952 0.23085757 1.2652048 -1.0398142 0.1040792 0.045492858 1.1392605 -0.4606014 -0.34166917
544 1.2457376 -0.7305292 0.46903363 1.0481306 -1.2406702 0.04090913 -0.12690404 -0.065950654 0.25193137 0.19286199
524 1.0489392 -1.1497077 0.043400984 1.1484972 -0.7835443 -0.19575502 -0.3592146 0.63355356 0.16409215 0.057449326
541 1.3148564 -0.8116582 0.5483984 0.971268 -1.2499663 0.024946768 -0.13223387 0.123581015 0.26029477 0.2695742
521 0.9166958 -1.1486363 0.04911169 1.172427 -0.7758787 -0.10135229 -0.4228388 0.62338483 0.06459913 -0.017748259
534 1.1990036 -0.9327405 0.40216857 0.90192384 -1.182143 -0.17326967 -0.3406828 0.33293378 0.31277892 0.06554199
539 1.2645329 -0.84841704 0.48875937 1.0737382 -1.216907 -0.011319103 -0.1568889 0.26400232 0.35863614 0.18984568
486 -0.07987611 -0.6757736 0.4209356 1.2400855 -1.067555 0.22180916 0.22321843 0.97028947 -0.39478934 -0.5453636
569 1.134418 -0.8892425 0.8431752 0.962357 -1.1571556 0.46898425 -0.6111893 -0.56813854 -0.45902815 0.2902048
527 1.1015571 -1.1023805 0.2379903 0.9994497 -0.88015383 -0.220343 -0.31966868 0.60448027 0.16175061 0.1980227
545 1.2970092 -0.6973028 0.48285332 1.0913161 -1.2494031 0.16180739 -0.17898796 -0.14033313 0.1929164 0.17202872
560 1.1136826 -0.89877033 0.5089152 1.1614532 -1.1627126 0.38005385 -0.2497635 -0.60222334 -0.06367593 0.06516115
559 1.113982 -0.99271256 0.6547105 1.1684247 -1.1971266 0.33025697 -0.1709263 -0.61427706 -0.07322233 0.17054097
499 0.37464848 -0.7363863 0.08817217 1.3351011 -0.9223941 -0.0120450705 -0.14446302 1.015852 -0.37784246 -0.18086337
530 1.2427205 -1.0581833 0.22116327 1.0434546 -0.9550039 -0.1352249 -0.31780675 0.52738464 0.24327427 0.18158801
573 1.1930498 -0.8389848 0.86583817 0.8583632 -1.1047112 0.4707 -0.83377236 -0.49164274 -0.6015368 0.33121535
487 -0.01613199 -0.667961 0.38669258 1.3515679 -1.0744194 0.217681 0.16682324 0.9695373 -0.39385396 -0.44873494
497 0.27562448 -0.710149 0.08531367 1.3899045 -0.86857 0.123402864 -0.08706286 1.0387986 -0.3893781 -0.25657275
526 1.0795381 -1.0565095 0.21733157 1.1179754 -0.85189456 -0.25322625 -0.42481148 0.5533744 0.20959893 0.1376623
556 1.28842 -0.917072 0.33229345 1.1825814 -1.1663018 0.46650967 -0.079832 -0.5689459 -0.0019688474 0.12549587
543 1.323304 -0.739575 0.49552026 1.0636004 -1.2114699 0.2046301 -0.19538324 0.03912481 0.319603 0.17298354
496 0.24982414 -0.68548805 0.17313118 1.4150528 -0.92423177 0.014806841 -0.19097917 1.0361538 -0.35707408 -0.28317592
566 1.0759689 -1.0445446 0.7635355 1.0514284 -1.1027057 0.38565975 -0.55408746 -0.73795396 -0.2953783 0.14460547
498 0.3177254 -0.72002226 0.13020869 1.3700774 -0.90391475 0.17257844 -0.18502305 1.0196402 -0.42717266 -0.26104832
500 0.3457074 -0.76453876 0.051156364 1.4195322 -0.8415131 0.039262775 -0.20593052 0.93488586 -0.42270026 -0.1979659
518 0.91500515 -1.1578159 0.08365582 1.2628098 -0.741845 -0.118405595 -0.49962926 0.7294332 0.0024437266 0.040573444
538 1.2627583 -0.87937754 0.37606886 0.98077697 -1.182626 0.03440151 -0.20332801 0.25722623 0.41581517 0.06055687
568 1.1082662 -1.0303915 0.76737094 0.9370988 -1.1574262 0.32579815 -0.5577015 -0.617938 -0.44940057 0.2427657
567 1.0783386 -0.98644274 0.7302229 0.9212229 -1.1016526 0.35199562 -0.4695953 -0.5420246 -0.36260507 0.23482668
488 -0.08071535 -0.591607 0.35587767 1.3758557 -1.074497 0.0653093 0.0743963 0.969931 -0.41555074 -0.5211491
546 1.275202 -0.78364867 0.49690062 1.0292 -1.2200565 0.18033911 -0.13677457 -0.23141819 0.27385807 0.1303163
537 1.2837487 -0.92460376 0.36491603 0.9976517 -1.1053766 -0.023906302 -0.15326925 0.20947698 0.30424762 0.19905782
519 0.94597644 -1.2611784 -0.012863597 1.2263715 -0.73164105 -0.013322513 -0.40165085 0.6354753 -0.066690564 0.024012348
564 1.0638093 -0.9457967 0.6062236 1.1543481 -1.0988663 0.3175525 -0.4681381 -0.6823375 -0.28511548 0.14724563
549 1.1833183 -0.84225875 0.5446247 1.1944067 -1.0995708 0.31689212 -0.076092444 -0.31444332 0.16209678 0.23579885
570 1.1477529 -0.96756935 0.8590693 0.89149225 -1.1900605 0.5089217 -0.7481124 -0.5966264 -0.48591885 0.18860537
485 -0.16521654 -0.67382365 0.42602134 1.1842731 -0.98974556 0.043978818 0.12695171 0.9481055 -0.40579408 -0.56742316
536 1.3094193 -0.9178752 0.42751348 0.96507525 -1.1563172 -0.0075997133 -0.18809067 0.3697363 0.2824473 0.22586495
520 1.140941 -1.0990438 -0.05188022 1.1482898 -0.8212189 0.005081013 -0.4472218 0.70932287 0.07136014 0.026908088
563 1.0894948 -0.9190057 0.66554654 1.1435871 -1.243922 0.3599099 -0.45815888 -0.6457298 -0.12776616 0.04229776
517 0.930491 -1.2114778 -0.038666435 1.3234091 -0.61637515 -0.10781576 -0.40441537 0.7485192 -0.018657302 0.09094224
547 1.257715 -0.7945024 0.6232427 1.0852646 -1.2506504 0.12192596 -0.11027138 -0.2173899 0.24692963 0.20820582
542 1.2702523 -0.7865786 0.51436335 1.0907999 -1.2429519 0.014620105 -0.21960044 0.032017834 0.3071846 0.1711723
501 0.40125957 -0.8231764 0.0815447 1.4488051 -0.68552697 0.16359724 -0.19022247 1.0371112 -0.34956482 -0.14369477
516 0.88606596 -1.1732082 0.002266053 1.3015994 -0.6215506 -0.045458864 -0.29491767 0.7209428 0.013287993 0.084810786
535 1.2157081 -0.89386994 0.44332713 0.9726671 -1.155643 -0.14358956 -0.28451964 0.30326894 0.32201463 0.12790745
507 0.62785554 -0.9266554 0.02284845 1.5202103 -0.68755734 0.13245043 -0.3619657 0.8722774 -0.26972717 -0.011368976
502 0.4459149 -0.8751911 0.10340889 1.5152718 -0.7200338 0.13857538 -0.24150397 0.9677865 -0.41626683 -0.030174235
504 0.4995669 -0.8370849 0.024798965 1.5138017 -0.66920507 0.079431914 -0.27931085 0.9277555 -0.3599397 -0.03427513
548 1.2492478 -0.8510427 0.50027657 1.1264728 -1.2283411 0.22334275 -0.15930764 -0.27585945 0.18922816 0.16276914
506 0.5378389 -0.96290076 -0.020774482 1.5331533 -0.63610005 0.05954387 -0.28651428 0.89683515 -0.29581198 -0.04141424
505 0.45011666 -0.8419973 -0.040059555 1.5419229 -0.6817561 0.036437143 -0.37284017 0.8496051 -0.32631975 -0.13343213
515 0.82344717 -1.1073732 0.032206696 1.3723211 -0.5556838 -0.12746468 -0.3989732 0.73458546 0.0016850487 0.10928392
503 0.47806343 -0.78155035 0.05095671 1.4469041 -0.69411445 -0.036410812 -0.3108384 0.96569604 -0.35008654 -0.03607989
480 -0.30758128 -1.1272451 0.63323754 0.7481463 -0.240353 0.44369873 0.26332435 0.3725937 -0.10915376 -1.0225391
474 -0.05273613 -1.0798737 0.662197 0.46060568 -0.1688743 0.68941915 -0.013166637 0.43108222 -0.038843207 -1.1234368
509 0.61132616 -1.0181627 0.07881636 1.4515972 -0.70053095 -0.09111912 -0.4079528 0.8293045 -0.19496308 -0.01786254
494 0.23554595 -0.6397788 0.073456086 1.3015236 -0.88665575 0.13535629 0.056442328 1.0172844 -0.3769064 -0.30902416
508 0.5817075 -0.91249794 0.027755015 1.4513143 -0.6493601 -0.049855392 -0.49327356 0.8342133 -0.28279182 -0.008431685
523 1.0099214 -1.1080157 0.08847325 1.1416984 -0.82475233 -0.22184214 -0.45186093 0.6457957 0.17022482 -0.013590599
565 1.0992785 -0.9189719 0.802938 1.0398642 -1.2173058 0.24121854 -0.7243048 -0.66632307 -0.18405753 0.039528072
514 0.8269512 -1.0610942 -0.05665464 1.3491298 -0.6186335 -0.22571811 -0.38575184 0.731116 -0.10712589 0.110422574
562 1.0813513 -0.9348413 0.5898875 1.141907 -1.1056433 0.33393514 -0.38676068 -0.7428203 -0.2432146 0.12767835
576 1.1438869 -0.71639615 0.8744808 0.9470614 -1.1447408 0.6132004 -0.6989828 -0.44340858 -0.666119 0.38366318
512 0.7285886 -1.0697995 0.026783012 1.3318654 -0.6972373 -0.19545999 -0.47173613 0.7344581 -0.13326539 0.0101373885
510 0.655229 -1.0350869 0.07551955 1.424974 -0.7111224 -0.12181705 -0.4360501 0.8377104 -0.20598978 0.009465342
424 0.37582704 -0.35817605 0.93753946 1.1163702 0.5946985 0.9038549 -0.45137814 0.30265382 0.17642216 -0.2362311
513 0.76663435 -1.0924501 0.062229637 1.3460561 -0.6552863 -0.15830454 -0.4390905 0.6971004 -0.22031593 0.1227656
483 -0.35291347 -0.7875044 0.5174821 0.77880406 -0.630711 0.06506061 0.4282654 0.75584775 -0.43561488 -0.68745863
511 0.5859239 -0.9607224 0.082811415 1.3313215 -0.7094287 -0.22676627 -0.43664345 0.8918923 -0.12706153 -0.080252565
282 0.7636346 -0.28068915 0.7137513 -0.15686718 0.59644425 -0.13495235 0.61813337 0.36903816 -0.64034706 -0.046086147
311 -0.13512506 0.14808205 1.135024 0.5255901 -0.037857264 -0.8603837 0.55012214 -0.21242718 -0.6262665 -0.547602
279 0.7410366 -0.40971205 0.47036257 -0.07699008 0.55802095 0.053009953 0.9718782 0.39849153 -0.558071 -0.22927725
281 0.57376486 -0.25422487 0.5416777 -0.17413397 0.26123676 0.037516225 0.44349453 0.61833364 -0.6654637 -0.15781364
421 1.2101109 0.5319878 0.0972533 -0.21133709 -0.40180916 -0.11708883 -0.24468091 0.14961636 -0.49741143 -0.79479146
423 0.08140584 0.015104341 -0.087958895 -0.07597166 0.015720785 -0.09527631 -0.07410209 0.020241236 -0.029211689 -0.0915701
577 0.8755954 -1.0020419 0.6048022 0.80425113 -0.8381584 0.11023263 -0.1706726 -0.38470232 -0.09198152 0.20164098
280 0.544449 -0.20796086 0.42167506 0.22906768 0.03806121 0.17107612 0.39045793 0.10241751 -0.24426407 -0.02412205
