286 10
680 -0.4416109 1.0123769 0.45764402 0.45875716 0.0022795862 0.48969796 0.11319389 -0.1088626 -0.8983764 -0.40402588
677 -0.49775138 0.9789737 0.5088886 0.4634749 -0.06919316 0.48839068 0.11092215 -0.024421342 -0.99081707 -0.3919246
676 -0.46006447 0.9907079 0.5460091 0.45974824 0.010649064 0.47530562 0.12598284 -0.02864141 -0.98905873 -0.35234576
681 -0.48882636 1.1305321 0.36756617 0.53643197 -0.13614549 0.4954036 0.19575797 -0.12703614 -0.8521508 -0.4207294
682 -0.45229053 1.0279914 0.47747114 0.5379805 -0.09830546 0.39771378 0.17620319 -0.1602455 -0.8954484 -0.3702595
658 -0.2540428 0.7453704 0.8433947 0.24903637 0.42594305 0.51451004 0.42839023 -0.278048 -0.9990434 -0.12393784
591 -0.14051723 -0.26829696 -0.40865257 0.6282891 0.3127895 -0.17494863 1.0799913 0.17903593 -1.0857126 -0.70617634
675 -0.3879446 0.9977985 0.58200145 0.47910604 0.0080209905 0.4281601 0.13264813 -0.070222914 -1.0144793 -0.267612
590 -0.1573413 -0.25152808 -0.46855736 0.50117344 0.359987 -0.14446609 1.1453321 0.24848245 -1.0900885 -0.77713716
657 -0.26732743 0.7876882 0.7896568 0.32460883 0.4324944 0.51105154 0.5059033 -0.2349796 -0.97174764 -0.11140719
592 -0.17696874 -0.36051914 -0.33746952 0.60257256 0.26800856 -0.1554613 1.1612805 0.20851801 -1.1414003 -0.7158468
679 -0.44524187 1.0522491 0.44699153 0.42644265 -0.13971682 0.51872236 0.17958121 -0.07044845 -0.94818443 -0.35033053
673 -0.42243487 0.87399495 0.62832266 0.52291256 0.028547676 0.42447066 0.121122256 0.019448556 -1.015138 -0.2913825
589 -0.23644 -0.2311623 -0.36036935 0.49961823 0.2973381 -0.29354516 1.1896833 0.15355742 -1.2026889 -0.70731825
678 -0.41992858 0.9952226 0.4219385 0.45923004 -0.073164046 0.51302505 0.16186553 -0.09451364 -0.86904204 -0.39615825
584 -0.21915966 -0.03692023 -0.53104794 0.4081438 0.24563521 -0.37947014 1.0589627 0.35185802 -1.1671125 -0.7302187
593 -0.14980383 -0.38871104 -0.33117792 0.6171081 0.2706003 -0.13100022 1.0685472 0.25362816 -1.0823598 -0.7640234
665 -0.26495025 0.76814765 0.7282133 0.45375383 0.2072446 0.47405797 0.27193767 -0.085062966 -1.0868986 -0.12448048
672 -0.33943912 0.8874651 0.66705835 0.4258896 0.0020804708 0.4323714 0.111930616 0.014751384 -1.0351743 -0.21814224
666 -0.30327597 0.76464957 0.8354936 0.4822115 0.09372477 0.45990127 0.27253455 -0.058322217 -1.1403642 -0.08891175
585 -0.15028985 -0.04641531 -0.602144 0.40208024 0.1613865 -0.3452557 1.1183146 0.3104953 -1.1782734 -0.7101352
581 -0.24540488 0.028225327 -0.6162442 0.3524264 0.15451835 -0.37080407 1.1030718 0.35420465 -1.2313312 -0.75324655
583 -0.2578893 0.030543592 -0.60573745 0.30294868 0.153476 -0.33336377 1.0598367 0.4092464 -1.1673973 -0.77686274
586 -0.28820628 -0.054580804 -0.52833915 0.51242197 0.20095783 -0.2750708 1.1428087 0.34933856 -1.248065 -0.742804
655 -0.22812244 0.6843725 0.8657302 0.27084708 0.41543272 0.45602483 0.5208158 -0.34122127 -0.965623 -0.08134748
628 -0.6072588 0.46014345 0.4342865 0.9356206 -0.0016210582 0.19139369 1.0549047 0.5709388 -0.18558636 -0.44613546
648 -0.5906395 0.8369932 0.7277016 0.20971078 0.00042775398 0.485372 0.6785837 -0.24746968 -0.7521984 -0.32234976
594 -0.17178148 -0.4432547 -0.3440719 0.6661344 0.20160118 -0.060443185 1.0549049 0.23215044 -1.0880328 -0.8042598
664 -0.33181414 0.79146767 0.76902574 0.33370152 0.27306715 0.386871 0.2388274 -0.10256469 -1.1554714 -0.15142885
670 -0.3337396 0.8574482 0.73686343 0.4661809 0.05422197 0.35665387 0.124654755 -0.07690776 -1.0946246 -0.18689457
674 -0.41094804 0.931521 0.65349376 0.5362348 0.0049530575 0.4698757 0.102319635 -0.08512928 -1.027117 -0.29344797
663 -0.2554113 0.7490131 0.80983365 0.42375615 0.29687566 0.43334326 0.2761182 -0.123061374 -1.0463502 -0.110979676
653 -0.2878019 0.696228 0.8763267 0.2181215 0.3658083 0.4906951 0.5981598 -0.31607163 -0.9775119 -0.082769856
669 -0.38442174 0.8294611 0.7410839 0.47204247 0.116080984 0.30645567 0.17120852 -0.14165553 -1.1485819 -0.20374456
671 -0.32768965 0.8398497 0.67620337 0.4999579 0.072012104 0.4234655 0.13793172 -0.055314068 -1.1291682 -0.18908231
668 -0.30826715 0.7961817 0.7542343 0.36753732 0.13058734 0.40740362 0.20487261 -0.114362605 -1.1221999 -0.14930925
654 -0.25341117 0.7680107 0.7931002 0.2657036 0.43833497 0.5317482 0.5987544 -0.31826517 -0.93744534 -0.09601207
621 -0.45623338 0.29973367 0.2556912 0.9737861 0.10529403 0.26393616 1.0504649 0.75064194 -0.19922337 -0.466113
579 -0.23009409 -0.013328207 -0.58392864 0.36718458 0.16605468 -0.38769054 1.1498867 0.3835089 -1.1854059 -0.7483693
656 -0.28720102 0.71578556 0.85779184 0.31846386 0.35474256 0.46735245 0.44224337 -0.31279665 -0.99258626 -0.13011006
588 -0.24359682 -0.204769 -0.44422096 0.52038026 0.20352854 -0.19572915 1.1282021 0.22193922 -1.1770563 -0.7457452
622 -0.4953386 0.31799805 0.3655262 1.0331359 0.104133435 0.2045616 1.0414889 0.7243566 -0.27839655 -0.40907833
660 -0.21958978 0.7934486 0.81562907 0.3423617 0.23467568 0.5323306 0.4558476 -0.22452347 -1.0819017 -0.040145155
662 -0.28810155 0.75416225 0.8379961 0.45802337 0.33669046 0.44784784 0.3791814 -0.13704105 -1.0667244 -0.097034745
582 -0.24944933 0.056451775 -0.6100252 0.361453 0.1986989 -0.36886075 1.0558175 0.356249 -1.1467668 -0.7558179
580 -0.23787795 0.0039271745 -0.58415544 0.35092616 0.11030931 -0.33617893 1.0493987 0.32635677 -1.270382 -0.7350582
623 -0.47353694 0.37225804 0.32307208 1.0363004 0.10951154 0.17382596 1.0305064 0.7785539 -0.22868142 -0.41895995
642 -0.7086763 0.8240851 0.6994942 0.26820633 -0.04814658 0.28825307 0.7707863 -0.23313683 -0.6537427 -0.37879944
614 -0.21635263 -0.43154547 -0.16515282 0.8386296 0.26067144 0.20154533 0.7828788 0.6446833 -1.0577036 -0.7943669
647 -0.58499223 0.83433 0.6739914 0.16738704 -0.065659024 0.48800772 0.6681789 -0.24520314 -0.72463906 -0.3494441
643 -0.6350141 0.74642026 0.6520227 0.18018515 -0.07375833 0.3404868 0.73489493 -0.1972961 -0.5943376 -0.39126515
587 -0.20562977 -0.16309287 -0.52042717 0.435363 0.2679951 -0.31713843 1.1095095 0.2680575 -1.1730285 -0.78756624
661 -0.27241597 0.70563823 0.8282062 0.3492164 0.28015873 0.5081457 0.3489424 -0.13073042 -1.101243 -0.102551304
667 -0.2955566 0.7153949 0.8401935 0.48499593 0.05989721 0.37622866 0.2593879 -0.104901396 -1.1123617 -0.086066574
615 -0.19404365 -0.44245234 -0.08514744 0.8428166 0.16942117 0.15826733 0.89857906 0.6354515 -0.9406627 -0.72436905
641 -0.6955909 0.77661437 0.6474341 0.267551 -0.095397465 0.29860696 0.86617523 -0.16955884 -0.56839484 -0.3734494
646 -0.59801346 0.79993254 0.74093556 0.22958377 -0.099408865 0.41239572 0.63897264 -0.16812356 -0.70694005 -0.320645
639 -0.7056443 0.71351564 0.64368826 0.3384981 -0.06889176 0.29847208 0.8791609 -0.13772802 -0.5523605 -0.3794609
461 0.55759037 0.51366526 0.2945536 -0.30184418 0.23821828 -0.75758207 -0.08350162 0.21425255 -0.006839412 -1.4762856
640 -0.710778 0.7767834 0.678466 0.35927093 -0.10314182 0.2785711 0.83117247 -0.13049394 -0.4960629 -0.3947133
595 -0.16396959 -0.44028896 -0.28887904 0.6772904 0.22008619 -0.043842666 1.094903 0.2542518 -1.1416086 -0.7403824
645 -0.68052286 0.7886108 0.69732374 0.22818498 -0.068579406 0.38791776 0.7118322 -0.1727704 -0.67333055 -0.3791704
659 -0.2732284 0.76894903 0.83032924 0.34524477 0.40545464 0.5728621 0.49132535 -0.29118314 -1.0242035 -0.116016105
712 -0.1386974 0.77012455 0.4360952 1.3210224 0.10193001 0.5438671 -0.2312558 -0.9650177 -0.62990665 -0.72975224
462 0.5488921 0.6030886 0.32345554 -0.21047238 0.19328836 -0.7957168 -0.11587852 0.3198239 0.095184565 -1.4941088
470 0.5259316 0.35927936 0.5197252 -0.1929811 -0.06919574 -0.76571685 -0.35385317 0.40152323 -0.10326365 -1.573274
613 -0.21338634 -0.51011807 -0.100085974 0.68753034 0.093831815 0.27729645 0.87155944 0.672738 -1.0922024 -0.80113846
638 -0.74918514 0.72809994 0.62212497 0.37042943 -0.1668989 0.3061645 0.88010895 -0.137509 -0.46033278 -0.44522965
704 -0.07000979 1.048896 0.13552266 1.0878084 0.15492992 0.65179 -0.13910006 -0.880178 -0.66087765 -0.68705624
644 -0.5989657 0.8815115 0.6120741 0.21088512 -0.08991818 0.4220544 0.7344334 -0.21767125 -0.7163686 -0.32920042
630 -0.66511303 0.419066 0.53558904 0.9571566 -0.09085 0.14695892 0.9614302 0.5810188 -0.2773598 -0.44393152
710 -0.11047201 0.7900432 0.33619422 1.227561 0.12368277 0.60354006 -0.2941936 -0.9243203 -0.738108 -0.72593725
683 -0.29577374 1.1580464 0.3630481 0.7345607 -0.1000405 0.4093843 -0.048973955 -0.2835449 -0.9451792 -0.38477013
441 0.70753413 0.299589 0.5804914 -0.48012093 0.92742646 -0.15042703 0.16464694 0.25989142 -0.003925214 -1.2771547
469 0.53649044 0.37242645 0.4749211 -0.20128128 -0.07215062 -0.748307 -0.2826528 0.4233584 -0.071278445 -1.5353115
703 -0.0997953 1.049468 0.12755696 1.0799817 0.16849439 0.69703877 -0.13088174 -0.80161256 -0.7410099 -0.6743957
431 0.8586104 0.2490573 0.5186008 -0.030618174 1.0285025 0.09005757 -0.025601437 0.27160278 0.19975851 -1.32153
632 -0.7018856 0.4913379 0.5280329 0.9518386 -0.2106742 0.124999225 0.97685194 0.4754184 -0.22472745 -0.45825833
631 -0.66003245 0.48465952 0.4488185 0.9322617 -0.06699006 0.08679033 0.94725555 0.49867636 -0.3001795 -0.44716567
627 -0.61010695 0.45697942 0.44964728 0.98633707 0.019806487 0.09683032 1.0036751 0.70582974 -0.1646112 -0.43547106
651 -0.44363803 0.8383237 0.8475056 0.13304684 0.20448126 0.54284704 0.7439649 -0.4597178 -0.8234721 -0.21350737
650 -0.48139676 0.7579363 0.87620664 0.18153453 0.3574051 0.4805879 0.68081266 -0.45298842 -0.8139255 -0.27024347
708 -0.16022682 0.8584582 0.31391355 1.2198225 0.08692904 0.5794122 -0.25430733 -0.92382616 -0.6554548 -0.7534268
711 -0.14774875 0.8017441 0.42361298 1.311114 0.093783036 0.4745996 -0.2923881 -0.9455841 -0.6831599 -0.71687526
699 -0.028845446 1.2925469 -0.0112649305 0.92638355 0.23051174 0.659825 0.059158996 -0.7484583 -0.62344927 -0.5485763
707 -0.14060463 0.87831455 0.25746498 1.2274296 0.08803158 0.56120735 -0.27370548 -0.84557825 -0.689539 -0.73387027
616 -0.24049044 -0.38544136 -0.060185146 0.81632805 0.24445818 0.21670796 0.79497164 0.6870404 -0.9273457 -0.7396068
709 -0.15744019 0.83567613 0.36705416 1.226063 0.051430814 0.60840315 -0.29086712 -0.8817897 -0.61603415 -0.7653251
439 0.84349626 0.29352325 0.5754993 -0.4588373 0.93094003 -0.10118238 0.10834782 0.29792175 -0.027616221 -1.3025616
637 -0.7399919 0.7047346 0.68410933 0.5166999 0.025196766 0.25704 0.7842192 -0.07415387 -0.43551484 -0.43783605
475 0.4642348 0.22944367 0.8414275 -0.1667424 -0.20716155 -0.6295724 -0.5142848 0.47013372 -0.1734292 -1.4890885
701 -0.05659299 1.1982571 0.10346426 1.0376755 0.32942834 0.6820589 0.022681773 -0.7814568 -0.7139839 -0.5666316
625 -0.60475093 0.34706873 0.46132126 1.0655662 0.107675165 0.17873862 1.0225163 0.6749913 -0.21483254 -0.47013754
705 -0.10484957 1.000674 0.12033166 1.1201713 0.22852756 0.7173097 -0.18199463 -0.8178728 -0.6645947 -0.7430559
698 -0.05126481 1.3066299 0.043527536 0.92232215 0.21530434 0.5753423 0.05827651 -0.7077701 -0.70977813 -0.51045775
702 -0.056367744 1.1027008 0.14173333 1.0794586 0.15199351 0.7587398 -0.090212755 -0.8051432 -0.6745447 -0.64331156
468 0.5260273 0.38824147 0.37350598 -0.22951356 -0.032331735 -0.78234667 -0.26190457 0.37454975 -0.07563998 -1.6134509
440 0.7623229 0.2955978 0.46763903 -0.45465168 0.8822471 -0.11240281 0.14702924 0.3279734 -0.008140168 -1.3213435
649 -0.5207355 0.8284835 0.8898275 0.05590823 0.19001175 0.47134042 0.72464293 -0.43095756 -0.74095803 -0.27583727
697 -0.062796906 1.2966627 0.006392542 0.9145859 0.20820256 0.63848114 0.1059224 -0.70213807 -0.66302836 -0.5201218
465 0.5670086 0.48108172 0.2717362 -0.22612332 0.12794833 -0.75830597 -0.1980114 0.33798626 -0.07135178 -1.4801714
435 0.8939644 0.21076521 0.4495548 -0.22615194 0.98322827 -0.045401797 -0.013472438 0.2880565 0.012931206 -1.3788006
463 0.5426986 0.56394607 0.3201218 -0.26170105 0.20324816 -0.74979085 -0.16420403 0.32176942 0.008211917 -1.4740537
693 -0.070342466 1.310323 0.05437304 0.93302387 0.05147129 0.29463866 0.06727366 -0.61835337 -0.7703181 -0.3980982
460 0.63731426 0.57953036 0.25248897 -0.26122102 0.2269253 -0.76222414 -0.03084236 0.36167452 0.043097876 -1.4497607
467 0.5364009 0.44470456 0.4073121 -0.20946352 0.073526695 -0.7541579 -0.31379202 0.39213076 -0.106361285 -1.5338061
692 -0.047430083 1.3186398 0.1123738 0.85709643 0.039786674 0.25154653 0.100100406 -0.5717726 -0.89705384 -0.28360313
696 -0.05845628 1.3380435 -0.0051219733 0.8322649 0.19467291 0.5230637 0.010626555 -0.67016196 -0.72487575 -0.50138336
700 -0.031806618 1.1451035 0.076744266 0.9742497 0.22487415 0.6652481 0.028835405 -0.73396647 -0.67564803 -0.55067384
466 0.47307095 0.43062595 0.34625748 -0.2710167 0.10431187 -0.7846411 -0.20009926 0.42051613 -0.09513118 -1.5445728
446 0.7054821 0.43039405 0.5420327 -0.5538813 0.7246975 -0.35619223 0.22248428 0.29796296 0.03362307 -1.3567256
690 -0.117793895 1.3432188 0.15026905 0.7801392 0.021528723 0.20347883 0.017793367 -0.58560735 -0.8676268 -0.36171255
438 0.7887379 0.26037037 0.56514144 -0.41941255 0.9754311 -0.10852109 0.09894795 0.21325347 -0.007786587 -1.3110864
633 -0.72776383 0.4934309 0.4857761 0.91132 -0.19981708 0.04441851 0.9310827 0.43356106 -0.25788468 -0.48583207
684 -0.25271556 1.1547302 0.24526621 0.6771056 -0.100896046 0.27507564 -0.042701233 -0.4059814 -1.0039362 -0.39477074
445 0.7997403 0.4116325 0.4483815 -0.56044793 0.7819053 -0.31867436 0.21120432 0.22993098 -0.0187983 -1.3324776
596 -0.1830186 -0.45606828 -0.2908033 0.6695637 0.15238665 0.04611891 1.0280519 0.24203616 -1.0089283 -0.8337903
476 0.40727153 0.14111297 0.8927179 -0.15116368 -0.25821596 -0.6809935 -0.41604704 0.5143184 -0.10696449 -1.55342
694 -0.118093625 1.4371746 -0.009082671 0.8280584 0.226671 0.31810746 0.017127639 -0.6543456 -0.83565086 -0.48191988
437 0.7930196 0.1676805 0.5268458 -0.3730581 0.94437164 -0.058460247 0.1169562 0.2751996 -0.0024069452 -1.3549371
444 0.7807822 0.3128844 0.57282907 -0.6488759 0.81538767 -0.20079008 0.294526 0.30783677 0.00071431 -1.3367163
636 -0.70090795 0.6536456 0.64034414 0.42867213 -0.07383022 0.22262506 0.89206225 -0.06623191 -0.42004037 -0.3963662
464 0.61298496 0.52401215 0.3569023 -0.24052157 0.18506445 -0.7961053 -0.19889666 0.36742723 -0.06410252 -1.4698005
452 0.67214996 0.5994888 0.4862883 -0.44310674 0.5026019 -0.5987566 0.081805594 0.34592915 0.036009803 -1.3062787
442 0.7271068 0.29677275 0.6075588 -0.5529332 0.888586 -0.15752919 0.19079891 0.26615208 -0.009733646 -1.332221
691 -0.101874754 1.3496566 0.042007554 0.89589375 0.034517065 0.1976953 0.027111262 -0.56079495 -0.87183774 -0.35901576
608 -0.41883773 -0.49826905 -0.22985372 0.5425913 -0.10355969 0.48557177 0.84966975 0.63365453 -0.9437677 -1.1485322
434 0.8928626 0.19764584 0.4851174 -0.23873572 0.92202777 0.0950561 0.06652963 0.39987284 0.083349794 -1.3246245
706 -0.13313012 0.9384125 0.2545503 1.1851941 0.1519182 0.6135534 -0.17962249 -0.90452516 -0.7374835 -0.70610136
447 0.78672636 0.46211925 0.51424724 -0.52798885 0.7497122 -0.37826774 0.16016153 0.3468464 0.014763826 -1.3308548
432 0.9048931 0.20349315 0.5607455 -0.14091739 1.0182298 0.046484053 -0.045441613 0.33404642 0.06826043 -1.3099732
433 0.93456644 0.24182308 0.53353834 -0.1499888 1.0486804 0.076864235 0.050994486 0.31219327 0.14239985 -1.3279891
428 0.8708547 0.19143738 0.45811796 0.092834204 1.0149614 0.13131477 0.004655778 0.30393836 0.2804508 -1.375127
453 0.62656015 0.5837609 0.43796882 -0.41175988 0.5203523 -0.5639467 0.11761769 0.31169507 0.10921513 -1.3694797
459 0.65004796 0.6192993 0.323806 -0.30668235 0.35066926 -0.79096246 -0.047619823 0.32934868 0.0058635254 -1.4439431
607 -0.37181652 -0.49176767 -0.2888803 0.4641685 -0.113768 0.46228552 0.89361703 0.5659978 -0.8904634 -1.1531106
634 -0.7427214 0.47511756 0.52302754 0.7841639 -0.12914273 0.051690847 0.8692653 0.44006342 -0.32610893 -0.49420518
471 0.48032495 0.27027717 0.49816707 -0.16650325 -0.14723787 -0.7069066 -0.40522963 0.32599953 -0.1226562 -1.5804598
472 0.51658154 0.30379128 0.5591416 -0.11910292 -0.11547302 -0.74202216 -0.42571625 0.43299237 -0.13930537 -1.5459294
652 -0.39695683 0.7932839 0.83985674 0.18823186 0.26187888 0.53447413 0.7490322 -0.4247302 -0.82867414 -0.15758124
429 1.0045949 0.21639785 0.4262381 0.032134704 0.99686587 0.08024983 0.042163514 0.38971475 0.23441295 -1.3569871
443 0.6769367 0.43777886 0.52031183 -0.55598104 0.837764 -0.19699097 0.15448809 0.15161249 0.030844407 -1.3321277
458 0.5902487 0.6101631 0.4597728 -0.3937803 0.35951695 -0.66572726 -0.044611026 0.4231904 -0.016611677 -1.3462623
686 -0.20171149 1.2599183 0.29280832 0.73227346 0.013108355 0.21907604 -0.0726296 -0.52406675 -0.9334308 -0.3899479
689 -0.16389759 1.2318913 0.22379927 0.92971694 -0.027744468 0.2472027 0.034438007 -0.5546788 -0.8929254 -0.34433076
457 0.622242 0.5895055 0.39892998 -0.34019175 0.46100897 -0.67895204 -0.0713259 0.39692438 -0.037247814 -1.3454868
436 0.8815936 0.20279366 0.543502 -0.32597163 0.8952039 -0.024239846 0.0599481 0.20906906 0.029336901 -1.3210827
451 0.69069606 0.5564637 0.47354034 -0.47343117 0.58899176 -0.5124348 0.043610133 0.3218391 0.027613532 -1.3879057
449 0.67598665 0.44392705 0.47468063 -0.49268517 0.650651 -0.48997524 0.21074697 0.36513522 0.038839757 -1.321941
430 0.98827326 0.17653583 0.5593869 0.04234494 1.0505694 0.048355494 0.0016704923 0.31720594 0.18626955 -1.247567
454 0.6477317 0.6073985 0.4382415 -0.38359737 0.50332624 -0.59197676 0.07052789 0.33775637 0.10902928 -1.4172812
448 0.70951694 0.4750616 0.4462513 -0.48385856 0.6525456 -0.32006827 0.13012518 0.3232318 0.04737812 -1.3295404
602 -0.41307908 -0.59310544 -0.31291565 0.43753213 -0.2042166 0.24643616 0.9950153 0.21642973 -0.8718349 -1.2199541
601 -0.48822483 -0.5361502 -0.27967125 0.46597686 -0.07267572 0.18368906 0.9597764 0.24468213 -0.9715222 -1.1820364
599 -0.39950892 -0.53576714 -0.3256586 0.5271119 0.002774784 0.11873602 0.9829197 0.19683768 -0.9683361 -1.1464381
635 -0.73546964 0.53811526 0.5864566 0.6646777 -0.11449254 0.08762691 0.91290337 0.3095901 -0.31396204 -0.45588708
606 -0.4666949 -0.48576066 -0.30550805 0.45307112 -0.06066766 0.46907526 0.83600163 0.42873916 -0.9317739 -1.224631
456 0.67613065 0.6247126 0.44236904 -0.36991963 0.48324618 -0.7144768 0.046718344 0.3990715 0.08226912 -1.4122247
450 0.68899304 0.5242361 0.46358663 -0.44375518 0.63644433 -0.54017013 0.12729941 0.39320886 -0.009577344 -1.2994075
477 0.36768356 0.08696062 0.95005107 -0.11535799 -0.32538977 -0.6965726 -0.40177017 0.48616606 -0.06498459 -1.5743396
455 0.7138605 0.59176964 0.39239982 -0.37493035 0.49337283 -0.68408614 0.12704782 0.34229848 0.10075128 -1.4202476
695 -0.05868601 1.3552976 0.024424693 0.93642247 0.22240748 0.45862308 0.10465952 -0.741936 -0.80429214 -0.4401958
612 -0.29166272 -0.5565653 -0.16730908 0.67877734 -0.030344343 0.44754925 0.7504928 0.8206481 -0.97117 -1.0331508
609 -0.3415368 -0.5958352 -0.21629246 0.5960493 -0.19823974 0.45237777 0.8029468 0.6855019 -1.056967 -1.0931019
687 -0.16418199 1.3031154 0.22752391 0.7772438 0.012999395 0.20320493 -0.05257507 -0.49639803 -0.87645423 -0.37304872
473 0.5431853 0.29218608 0.6927182 -0.16736656 -0.13465142 -0.6676177 -0.49609149 0.4011291 -0.1483554 -1.5940533
605 -0.46298802 -0.5706671 -0.34274268 0.53591186 -0.11420057 0.31926972 0.9273959 0.39069235 -0.8818045 -1.3143157
604 -0.45672876 -0.5137807 -0.2849165 0.550991 -0.13090105 0.29474604 0.9294874 0.3944191 -0.9360462 -1.183866
600 -0.46050835 -0.5144605 -0.3371338 0.50629973 -0.046636097 0.14717802 1.009216 0.22021851 -0.93584764 -1.2059643
685 -0.16253835 1.2039081 0.36407027 0.7585292 -0.04610226 0.29050878 -0.02968468 -0.4882809 -0.93391436 -0.31211627
603 -0.44448686 -0.6080971 -0.26145503 0.49198863 -0.117099695 0.27281776 1.0346727 0.2521702 -0.89878404 -1.1972669
611 -0.31816292 -0.54365283 -0.15503727 0.56206334 0.023286989 0.52317965 0.86174846 0.7489314 -0.9408758 -1.0544394
610 -0.29381672 -0.5799529 -0.2300287 0.6199173 -0.14791752 0.52028286 0.7977938 0.7106793 -1.0404869 -1.0440807
427 0.92446697 0.23741055 0.4701373 0.10764708 1.0238585 0.12002108 -0.019740444 0.34980875 0.24859044 -1.2884703
478 0.39793468 0.07426433 1.0530927 -0.14832786 -0.30092937 -0.71048254 -0.40315434 0.45045176 -0.12565218 -1.5389271
688 -0.15005155 1.2101445 0.12119813 0.853234 0.03939138 0.31056792 0.014631405 -0.54803824 -1.0135726 -0.35906994
598 -0.442154 -0.5002214 -0.3296225 0.567467 0.062381394 0.041389856 1.004307 0.15134072 -0.96903646 -1.1454853
626 -0.5850381 0.40107113 0.3522982 1.0282913 0.07153715 0.16396138 1.009075 0.66319495 -0.23717436 -0.46772656
426 0.9495741 0.21973178 0.41878963 0.107384115 0.96927863 0.13337766 0.03298158 0.3237585 0.30918378 -1.3249773
425 0.85730827 0.15581173 0.5000336 0.14429574 0.94355404 0.06295024 0.015863653 0.33498427 0.27651668 -1.2862947
479 0.43009445 0.026304463 1.0462389 -0.06976981 -0.26210696 -0.6419751 -0.39648572 0.50183594 -0.10456569 -1.4214792
597 -0.347011 -0.5012616 -0.31391895 0.5466099 0.02234238 0.10157088 1.1144221 0.14691 -1.1086981 -0.98249954
490 1.3810753 -0.23538287 1.1419107 0.3716751 -0.4322848 -0.9070446 0.23653686 0.17583223 -0.41943854 -0.5936127
624 -0.51539075 0.35656318 0.4066366 1.0252017 0.12380939 0.19051366 1.0162755 0.7352104 -0.2385524 -0.42094758
620 -0.37580377 0.1926694 0.20970826 0.94328684 0.07534286 0.27127683 1.077731 0.81597036 -0.32136613 -0.43920317
540 1.5042723 0.17358704 0.32471424 -0.07443257 -0.91683936 0.49707425 0.5155736 -0.31027526 -0.12399452 -0.9567446
554 1.5955691 0.5053493 0.24776489 -0.4041867 -0.8063423 0.5201708 0.6355739 0.25287244 -0.48398107 -0.5330402
551 1.5602869 0.4484547 0.3180974 -0.33517417 -0.86656404 0.60728467 0.5459427 0.0409682 -0.3962624 -0.6108436
550 1.630562 0.3648643 0.29172722 -0.3052983 -0.8635761 0.61462855 0.59077704 0.10185383 -0.43032128 -0.6171961
531 1.3523382 0.06883862 0.48716092 0.06022407 -0.89548945 0.18496707 0.7496221 -0.47509837 0.0947567 -0.9124604
572 1.756815 0.7260741 -0.020708153 0.41852623 -0.75433266 0.5683082 0.45298234 0.6910718 -0.05570504 -0.5106969
557 1.7442584 0.39763257 0.19368634 -0.35978857 -0.7473629 0.50906974 0.71424234 0.2868745 -0.5261902 -0.5452243
528 1.3052627 -0.007613373 0.6276622 0.14752886 -0.8789887 0.14520185 0.8084087 -0.4526213 0.2141081 -0.8659138
555 1.6044335 0.5053479 0.24465892 -0.4280057 -0.7809982 0.48035634 0.6944902 0.26403013 -0.42753497 -0.54123706
529 1.3359311 0.09200022 0.583476 0.11213129 -0.87571245 0.18659543 0.8658281 -0.37665454 0.28536484 -0.91496634
574 1.7951609 0.7163902 0.01007242 0.41656035 -0.7322067 0.57388204 0.48158458 0.776097 -0.021628061 -0.55278623
495 1.3834591 -0.32767934 0.91688174 0.4505435 -0.29440418 -0.83616 0.2584567 -0.084520176 -0.4284882 -0.5954838
541 1.5146694 0.106560536 0.28937095 -0.12723944 -0.9587057 0.5548288 0.44681397 -0.24465492 -0.18264216 -0.9914065
533 1.4305705 0.115649685 0.5569338 -0.04003909 -0.8669908 0.30853397 0.67113024 -0.39729407 0.04902003 -0.88916785
713 -0.10202131 0.8049997 0.41936162 1.3890831 0.03177437 0.55947685 -0.17028645 -0.91603273 -0.68986917 -0.6394509
525 1.2801794 0.07748677 0.6573963 0.10868437 -0.84384507 -0.074457645 0.9109965 -0.51619685 0.2566156 -0.87870175
553 1.5738958 0.4841643 0.28424105 -0.41560712 -0.8510669 0.6091143 0.5991329 0.20050648 -0.44658536 -0.56416285
558 1.6876892 0.5210735 0.17513983 -0.4468437 -0.78185505 0.5124261 0.6616299 0.2751498 -0.5155071 -0.5901446
544 1.5993377 0.16467278 0.2770663 -0.147592 -0.8886864 0.6393195 0.40741077 -0.15726233 -0.28524736 -0.9091114
571 1.7533501 0.7890485 -0.038428154 0.3201775 -0.78196675 0.519484 0.4830494 0.6751705 -0.12195951 -0.5150803
524 1.365469 0.091139816 0.6247614 0.07794857 -0.7824342 -0.06774893 0.92499304 -0.47184345 0.27389038 -0.91662234
489 1.2313135 -0.14587091 1.2345889 0.44665423 -0.42631322 -0.919762 0.17427364 0.19928329 -0.3780033 -0.47779548
552 1.6160859 0.42180708 0.4106585 -0.41482335 -0.8345922 0.5933623 0.55597997 0.12755051 -0.4809534 -0.57649255
560 1.7816865 0.5990156 0.051592343 -0.34118456 -0.69993347 0.44476718 0.6182929 0.21817996 -0.51055294 -0.5287502
491 1.3197174 -0.30630517 1.0756881 0.32059225 -0.45295572 -0.989611 0.14321575 0.17997119 -0.55027205 -0.65617543
532 1.3549051 0.08108307 0.51546127 0.06447862 -0.8961874 0.21850294 0.69045126 -0.42273787 0.053559598 -0.8606729
539 1.4537287 0.05175266 0.29745957 -0.046581693 -0.9261375 0.4619657 0.53921896 -0.3862527 -0.22524133 -0.8839328
545 1.6514633 0.19136184 0.23943749 -0.12594622 -0.81363547 0.6152138 0.39107755 -0.23206492 -0.26525685 -0.9335689
559 1.7182871 0.61669147 0.11872043 -0.2938038 -0.7487508 0.46565974 0.54322875 0.21271618 -0.47140738 -0.5435886
493 1.3780619 -0.13004884 0.9438301 0.42598563 -0.42107934 -0.84145916 0.21532382 -0.037588447 -0.40685645 -0.53476346
575 1.835063 0.7487244 0.012093698 0.44314578 -0.7001723 0.55993927 0.54426855 0.8458286 -0.085507214 -0.42143333
530 1.3078464 0.055093013 0.59518474 0.092078745 -0.89912486 0.18203187 0.7255489 -0.3911769 0.20392554 -0.9459716
561 1.6993617 0.67662674 0.045348857 -0.18352836 -0.79846454 0.4351479 0.5417162 0.3042338 -0.3965944 -0.5505
484 0.9237536 -0.24928668 1.3016274 0.04330185 -0.41512004 -0.8721311 0.088620625 0.50088274 -0.3591951 -0.806726
522 1.2375674 0.165782 0.62336564 0.12535815 -0.7722596 -0.23270702 0.82069373 -0.55547506 0.19519192 -0.7938023
534 1.4380856 0.06285247 0.53181785 -0.017775428 -0.90879714 0.31849214 0.58309174 -0.46512315 -0.0051872754 -0.9325788
492 1.3635637 -0.29038033 1.0763766 0.41538244 -0.38021773 -0.880967 0.20186621 0.04661316 -0.43966392 -0.6180844
521 1.3622922 0.22760378 0.6087514 0.17134541 -0.7992059 -0.3075678 0.8373072 -0.5753252 0.23987159 -0.8305712
527 1.3080239 0.016322272 0.60601896 0.12390797 -0.83191884 0.06922075 0.7685927 -0.4939348 0.19843544 -0.93406504
549 1.6004053 0.39025766 0.25734603 -0.27732557 -0.85948795 0.51293325 0.5183228 -0.0054014456 -0.44199777 -0.6280642
569 1.6986713 0.83114845 -0.07152758 0.16060372 -0.83914053 0.45362407 0.49687666 0.6312393 -0.08820477 -0.61412054
486 1.147899 -0.29106116 1.278594 0.19536807 -0.44961342 -0.9681092 0.12620296 0.36445943 -0.49688312 -0.6837132
526 1.2490971 0.14311068 0.67947525 0.11039987 -0.82022566 0.022620596 0.8551576 -0.5113046 0.24465325 -0.79926383
629 -0.5482412 0.5083565 0.40611613 0.98286563 0.015423117 0.20436685 0.9876981 0.68561953 -0.13214794 -0.41109356
496 1.3971505 -0.22438428 0.8718309 0.41130355 -0.37222487 -0.8610652 0.21596783 -0.21393423 -0.4172852 -0.6649887
537 1.4682391 0.10260688 0.5302839 -0.03946272 -0.8576357 0.48048472 0.52514654 -0.43885237 -0.03670115 -0.9120212
519 1.3284136 0.06829148 0.6862421 0.13363042 -0.7177764 -0.3390015 0.9178861 -0.4897019 0.183945 -0.7685413
538 1.4798348 0.11227212 0.3545094 -0.05899661 -0.8949308 0.50820553 0.52446884 -0.40591714 -0.0917969 -0.97002053
487 1.1691036 -0.26695445 1.3048239 0.27100268 -0.4236881 -0.9318722 0.16574214 0.36634654 -0.4417955 -0.6223454
488 1.2260649 -0.16824324 1.293207 0.25279707 -0.46524712 -0.9041667 0.089991465 0.20852976 -0.5136184 -0.5217874
499 1.4474429 -0.08607855 0.77418435 0.27605852 -0.36561298 -0.83548725 0.29276833 -0.36660263 -0.4515026 -0.59445703
556 1.6933033 0.44218108 0.14883262 -0.46132597 -0.8379904 0.5209018 0.69965017 0.33638045 -0.57839924 -0.5533342
546 1.6367217 0.28958935 0.26878437 -0.16574307 -0.84358466 0.6623376 0.42882648 -0.12159186 -0.3237557 -0.79159254
566 1.7967606 0.8462519 -0.15915199 0.061563183 -0.8405788 0.4078769 0.5156331 0.36763108 -0.29570284 -0.58486754
500 1.4303337 0.010938493 0.83402944 0.34872743 -0.41938937 -0.8531003 0.31701404 -0.37911928 -0.29537013 -0.62113875
543 1.5649804 0.14895211 0.24287176 -0.07807433 -0.9406591 0.5875587 0.44638538 -0.26231635 -0.24768783 -0.9499135
485 1.1138201 -0.25388542 1.2059422 0.2800106 -0.5345928 -0.913163 0.115754075 0.4212319 -0.4216391 -0.6788692
517 1.3663393 0.17337407 0.5059471 0.18179376 -0.6908963 -0.45195946 0.7957263 -0.5378436 0.05549485 -0.7189478
563 1.7401371 0.6670055 -0.10186664 -0.18235882 -0.8365481 0.40428218 0.560311 0.31148905 -0.47256282 -0.58368665
567 1.6654377 0.6998158 0.012481587 0.09725089 -0.9049441 0.45404238 0.48100835 0.5604801 -0.28360087 -0.54346746
570 1.6836349 0.81951106 0.00788734 0.25903445 -0.8156316 0.6282428 0.46100077 0.6794867 -0.10530391 -0.5115607
498 1.3966522 -0.102545865 0.89616066 0.38949102 -0.3489518 -0.85313714 0.23148629 -0.33340713 -0.4051283 -0.5579011
497 1.4182198 -0.15719186 0.8963262 0.373901 -0.35298917 -0.86220795 0.26348945 -0.23831753 -0.38769078 -0.6073176
564 1.735552 0.6922088 -0.11773687 -0.13473946 -0.815821 0.4437193 0.45087355 0.34579942 -0.4452954 -0.5978823
518 1.3433867 0.04391281 0.59034204 0.16457857 -0.7595386 -0.35049066 0.8476862 -0.48033512 0.10915247 -0.83472055
573 1.8368357 0.7729363 -0.015516806 0.45475423 -0.83996767 0.4942929 0.4653362 0.73000604 -0.07011699 -0.5454483
568 1.727347 0.8164942 -0.063301586 0.118586436 -0.86578023 0.4443538 0.51421034 0.54362196 -0.21597016 -0.53476566
536 1.3503178 0.07388508 0.5200866 -0.100507274 -0.9007974 0.45486677 0.58634394 -0.46282277 -0.042284634 -0.9201799
535 1.3364179 -0.017208396 0.5207025 -0.06862032 -0.9224277 0.3955872 0.5974228 -0.37651265 -0.030808087 -0.9688441
501 1.389853 -0.012545894 0.7812568 0.34108272 -0.38493845 -0.9044747 0.4134895 -0.34436938 -0.2988284 -0.56381595
520 1.2876431 0.1352658 0.65178776 0.12845054 -0.7773748 -0.30125684 0.87658954 -0.49975535 0.20131435 -0.81696963
547 1.6160139 0.25614876 0.34019336 -0.28788218 -0.92348284 0.6312489 0.47846422 0.00220708 -0.34934485 -0.8478462
516 1.3324192 0.13847639 0.7042138 0.1550117 -0.6954372 -0.42839068 0.8233765 -0.5220339 0.09888082 -0.7139119
515 1.3905176 0.14491625 0.71369547 0.21221161 -0.621263 -0.49675703 0.855457 -0.5362425 0.08976771 -0.657233
542 1.4700032 0.010515921 0.34275252 -0.10750855 -0.92246383 0.5362133 0.42898768 -0.2826028 -0.27218205 -0.9508224
507 1.3900434 0.008625132 0.60716987 0.33211744 -0.50873387 -0.7435575 0.56737596 -0.59126145 -0.14911333 -0.6868976
504 1.4310491 -0.027419165 0.624266 0.4095805 -0.5160925 -0.8623539 0.38628936 -0.4386819 -0.22764914 -0.79009354
548 1.5866429 0.24396545 0.3094107 -0.29629925 -0.8976535 0.55468345 0.47114465 0.035822127 -0.3771277 -0.8118419
503 1.4788567 -0.050613925 0.7147017 0.36642644 -0.41542262 -0.7805781 0.45959583 -0.53931856 -0.276952 -0.63265693
506 1.4393203 -0.005172224 0.5968095 0.30671665 -0.41415852 -0.752145 0.5734868 -0.57156825 -0.20186912 -0.6740052
508 1.3447714 0.02674322 0.609471 0.30981714 -0.5329647 -0.7199743 0.61243314 -0.5936357 -0.11892933 -0.6631546
565 1.7394491 0.6413761 -0.19931012 0.0068613943 -0.75211316 0.3998019 0.52299684 0.37572265 -0.36120254 -0.59395874
505 1.398614 0.059636354 0.5723844 0.3279627 -0.49316686 -0.8975611 0.4573037 -0.5470109 -0.2915461 -0.6391731
480 0.49349847 -0.032128915 1.0716022 -0.14005493 -0.33189294 -0.64868766 -0.35786712 0.57955444 -0.16698651 -1.4761012
502 1.326583 -0.012968137 0.65972996 0.40227252 -0.48819858 -0.9175131 0.44156867 -0.40817943 -0.27402508 -0.6162555
509 1.4126081 0.019358031 0.61862195 0.24706382 -0.5627394 -0.74519444 0.5724603 -0.5754167 -0.23726688 -0.66431934
523 1.2044526 0.08211391 0.57942396 0.14167793 -0.8047053 -0.19986838 0.9690047 -0.4460625 0.21104188 -0.7733712
474 0.41536003 0.2170529 0.78027856 -0.16189253 -0.098334946 -0.6748401 -0.4408477 0.40514666 -0.11087483 -1.5293753
494 1.3086914 -0.27651507 0.80810314 0.46355864 -0.3598296 -0.9547116 0.1479788 -0.1600922 -0.49020427 -0.6900883
562 1.7318738 0.6036001 -0.090351634 -0.20250449 -0.77886033 0.3650823 0.5692607 0.2570623 -0.5188035 -0.5630884
514 1.3223816 0.20717046 0.60459745 0.27597117 -0.6300937 -0.59311247 0.7891709 -0.5531174 0.1406263 -0.6909252
576 1.7902639 0.7173496 0.052013073 0.3361719 -0.76043636 0.5693519 0.4884452 0.85021174 -0.1287015 -0.5115368
510 1.3589865 0.0070026624 0.53475463 0.25253552 -0.50509274 -0.6287743 0.7485673 -0.57133585 -0.07958714 -0.6972588
512 1.3504295 0.045842413 0.65991414 0.3444517 -0.5964636 -0.5480179 0.66496116 -0.5425601 0.013829561 -0.7221057
424 0.8646029 0.2953513 0.43385515 0.19211939 0.9834936 0.085800074 0.024433644 0.2866843 0.36766848 -1.2846415
513 1.3533943 0.11585712 0.7519396 0.14168853 -0.55981153 -0.56071407 0.8131415 -0.5580655 0.036012188 -0.64297366
511 1.3434676 0.055960733 0.5927758 0.24586944 -0.6019819 -0.6239824 0.65899473 -0.48781133 -0.011738097 -0.7567722
483 0.7849496 -0.22753426 1.2352942 0.07603674 -0.4125866 -0.9346175 -0.06347475 0.53777033 -0.34801656 -0.9586079
617 -0.23362383 -0.388687 -0.0635376 0.7363051 0.3032936 0.21053793 0.9107931 0.8201422 -1.0317423 -0.7178636
577 1.5127566 0.5551384 0.09579951 -0.20094313 -0.77836126 0.44476002 0.5923553 0.4456411 -0.24607036 -0.52066654
423 -0.42586207 0.51592463 0.65915555 0.5138461 -0.039651066 0.12170318 0.4612001 0.1050264 -0.33432084 -0.3077393
