289 10
201 0.577344 0.3418556 0.013404679 0.5158806 0.643624 0.6693746 0.9877181 -0.2618697 -0.27208138 -0.38371518
204 0.543836 0.47321224 0.06326787 0.5039499 0.53340214 0.70210886 0.9609713 -0.26817715 -0.2799776 -0.36134794
203 0.5454678 0.39538607 0.11745417 0.4818633 0.59815764 0.68340033 0.96586055 -0.25354263 -0.25965297 -0.34479457
156 0.74916834 -0.26486924 -0.16853268 -0.18283416 -0.13328354 0.8278217 0.9347872 0.42036238 0.39219493 -0.83686835
230 0.7028328 0.3152511 0.42384437 -0.060146 0.2636138 0.934329 0.9455985 -0.730321 -0.093789466 0.13398494
228 0.7638185 0.341926 0.50439614 -0.036840696 0.19841789 0.9103987 0.97719175 -0.70390683 -0.12571855 0.05490151
226 0.72040075 0.36471474 0.45558673 -0.027030304 0.20752072 0.91146934 0.868151 -0.7182497 -0.09930395 0.021249017
205 0.58071417 0.3902038 0.105319954 0.48983 0.56172764 0.6676648 0.9758863 -0.25517246 -0.28015 -0.30111358
202 0.51380116 0.34279385 0.041121904 0.5346154 0.60761607 0.6983802 1.0049349 -0.23594339 -0.2757942 -0.37425485
229 0.6822712 0.37254012 0.41859224 -0.043957096 0.2393213 0.9863391 0.93628794 -0.71814144 -0.12715222 0.07626821
750 0.10700783 0.21061352 -0.94800943 0.9128873 0.31335905 0.13290438 0.21271662 -0.689002 1.6286451 0.01004341
749 0.05092185 0.27466786 -0.8974722 0.9148224 0.336391 0.14327614 0.27134097 -0.80059296 1.5945467 -0.017911678
208 0.6134277 0.48744342 0.14075413 0.40672487 0.48090535 0.7595758 0.96977603 -0.35519353 -0.27215824 -0.35336998
751 0.088812865 0.21162502 -0.8980886 0.9003334 0.37900075 0.18001539 0.16394337 -0.7130713 1.6149464 0.084913954
160 0.77029353 -0.09641816 -0.21636356 -0.22856534 0.09078408 0.7766515 0.8380363 0.43278185 0.36706403 -0.77711713
181 0.93833596 -0.052975386 -0.34183624 0.08932243 0.67007995 0.82330376 0.65460235 0.22352016 -0.07888089 -0.33146757
745 0.08913665 0.21361554 -0.84320676 0.9739962 0.17758219 0.11833684 0.18162595 -0.6792594 1.6328267 -0.1438842
209 0.5840277 0.47313446 0.12815242 0.389863 0.51970893 0.70336664 1.0071478 -0.3667271 -0.25857493 -0.23494889
234 0.5617389 0.19865821 0.4937251 -0.059457343 0.24998417 1.0418237 0.84231 -0.7175592 -0.08609985 0.23622365
231 0.6714145 0.2894787 0.40706643 -0.09173214 0.23180825 0.9743839 0.9111657 -0.7775457 -0.07978444 0.16198708
748 0.037101794 0.102340944 -0.90642464 0.93814844 0.25912315 0.12432704 0.26853642 -0.7429742 1.7075658 -0.055867188
155 0.6288941 -0.25062144 -0.18742283 -0.066544175 -0.2549255 0.8155399 0.8850209 0.38108194 0.39578983 -0.8447094
753 0.07609129 0.36396164 -0.9871033 0.8504554 0.5016874 0.2186766 0.18791115 -0.697774 1.5397434 0.06352131
212 0.5807805 0.5815257 0.23738667 0.31849506 0.45259362 0.7172493 1.09451 -0.40976292 -0.24283835 -0.24615996
165 0.7609789 0.027037833 -0.30713338 -0.2832259 0.22621472 0.8567731 0.7977236 0.43914047 0.31014004 -0.6725619
746 0.07768207 0.18882233 -0.8589247 0.9549405 0.18850829 0.119895846 0.17534341 -0.67762566 1.6681746 -0.2291214
211 0.55857486 0.6027356 0.24706744 0.3255774 0.4901265 0.7322356 1.0864052 -0.38688403 -0.23268102 -0.331976
154 0.63356537 -0.26460427 -0.14279446 -0.070322886 -0.26242548 0.7493843 0.8598883 0.39193952 0.42280322 -0.7962492
153 0.5669007 -0.30309665 -0.17051114 -0.07579158 -0.3049997 0.82410467 0.9378474 0.42762884 0.4170425 -0.7894183
232 0.64957494 0.20355418 0.4532478 -0.13556151 0.29133776 0.99971074 0.9472454 -0.8227102 -0.03964976 0.18539827
175 0.886768 0.043362904 -0.31941974 -0.13360925 0.5109939 0.8867628 0.64215976 0.41765782 0.04355411 -0.3745163
235 0.5598713 0.24988914 0.47365963 -0.17809416 0.27196416 1.0242099 1.0073467 -0.7495974 -0.046527427 0.30495274
210 0.63676953 0.51393163 0.19157459 0.37982494 0.46736684 0.6803488 1.0948247 -0.3964804 -0.25308797 -0.3134342
223 0.6493768 0.3957121 0.37398505 0.08980979 0.3205523 0.83894336 0.99690205 -0.66897964 -0.13837327 -0.068561904
200 0.59657687 0.38557804 0.040372185 0.44712558 0.7449479 0.7192667 1.0046436 -0.1865123 -0.26309428 -0.4680757
182 0.948333 -0.046519645 -0.32430398 0.08911157 0.68666565 0.8323309 0.64095753 0.19513902 -0.06695886 -0.4528162
227 0.7245609 0.38257945 0.4544858 0.010011704 0.25113413 0.89463615 0.92058057 -0.68460876 -0.1309817 0.012233637
747 0.076001026 0.18951102 -0.8642375 0.8902017 0.20733635 0.08193635 0.23869997 -0.6709694 1.699167 -0.08134864
151 0.6070913 -0.28313634 -0.15834497 -0.015445742 -0.3080876 0.75144976 0.9476258 0.34592426 0.389507 -0.7877309
214 0.62707776 0.48767006 0.26755685 0.32383463 0.42541856 0.6998685 0.9595859 -0.47300014 -0.2247593 -0.18700483
236 0.6038573 0.12113844 0.43261072 -0.20092961 0.2778799 1.0364239 0.9577431 -0.7921728 0.0034582969 0.20525005
233 0.71296906 0.23239161 0.4280531 -0.15504263 0.25808743 0.97183675 0.9359811 -0.76431996 -0.051038083 0.1878338
213 0.6120273 0.48096555 0.3055503 0.29757404 0.43752265 0.70894945 1.0521476 -0.39379877 -0.24099486 -0.18616144
167 0.80921394 0.0052667833 -0.27200747 -0.27354717 0.32584646 0.8688739 0.76025677 0.4140884 0.2490021 -0.6021205
183 0.95697415 0.05657126 -0.32333896 0.06596422 0.70788354 0.83729947 0.66181993 0.20531672 -0.085524365 -0.37658995
224 0.6335402 0.4333703 0.3861867 0.033916686 0.27849153 0.8539487 1.0393902 -0.6327849 -0.12260261 -0.030502977
215 0.57525295 0.5567936 0.33087814 0.23824207 0.37426105 0.75653476 1.0687155 -0.38240796 -0.21818027 -0.18576406
157 0.76466894 -0.17191815 -0.1568 -0.23792374 -0.06065915 0.7856817 0.92132807 0.4584735 0.37990165 -0.7548276
159 0.728076 -0.17528659 -0.20439863 -0.25383544 -0.030226458 0.8817102 0.87407917 0.4531519 0.35034227 -0.7215554
177 0.962492 0.032877933 -0.32550335 -0.08640446 0.5157098 0.9032263 0.6462574 0.31688577 0.0043649045 -0.43987873
207 0.54018795 0.4179956 0.15114678 0.4518068 0.5137901 0.7457731 1.0292852 -0.3584042 -0.27195418 -0.32047448
220 0.71573704 0.5221759 0.38637632 0.084346674 0.30158827 0.81175977 0.97567046 -0.55211663 -0.16516306 -0.090174735
754 0.124108054 0.32552722 -1.0118496 0.8320886 0.46108294 0.22006384 0.1390132 -0.6161109 1.5950345 0.11647299
162 0.7591621 -0.0746392 -0.15695004 -0.19652158 0.10884966 0.7940836 0.7118272 0.42772844 0.31200343 -0.69950336
180 0.8882362 0.012480726 -0.40811828 0.025788376 0.60049003 0.86317056 0.67349386 0.27899003 -0.04528221 -0.33170757
222 0.67234635 0.4648089 0.37359574 0.082486436 0.31036824 0.7588064 1.0380331 -0.6209609 -0.12720883 -0.04748216
225 0.7139802 0.4703015 0.4567647 0.054546267 0.25721356 0.864699 0.95437855 -0.6470451 -0.16359086 -0.0036245417
161 0.7064841 -0.084113576 -0.23298237 -0.20002413 0.037150223 0.8142233 0.8388545 0.4755635 0.34545937 -0.74169844
744 0.12279454 0.14807722 -0.87543106 0.99307406 0.10470301 0.11078382 0.19240701 -0.64546573 1.5811679 -0.13787839
152 0.66437393 -0.33707818 -0.2140328 -0.07072287 -0.2719454 0.7605952 0.9758466 0.34948388 0.3805768 -0.75177634
179 0.8918699 0.028956454 -0.37754294 0.0107550565 0.57646674 0.90502304 0.6172876 0.30910134 -0.050019596 -0.3616223
168 0.79153895 -0.039963383 -0.27285254 -0.26020905 0.39539912 0.84009725 0.7508336 0.4120914 0.2540008 -0.5742551
178 0.9646061 0.020200081 -0.313373 -0.060378436 0.56514883 0.85101295 0.6799862 0.3470162 -0.019701455 -0.3713708
184 0.923153 0.07897474 -0.36701965 0.07972807 0.6715792 0.84056455 0.7107394 0.13971056 -0.08509991 -0.41170856
166 0.80327076 -0.011799397 -0.2596101 -0.28480428 0.2279887 0.8275949 0.80115485 0.5041882 0.2876997 -0.608115
176 0.85862243 0.013198661 -0.3401585 -0.1155712 0.49528292 0.8876856 0.6772396 0.38795024 0.06289208 -0.4029219
164 0.8549141 -0.01845574 -0.27418482 -0.26209322 0.22508185 0.77366126 0.8196493 0.42547607 0.27792177 -0.58141977
221 0.58004475 0.4830301 0.38553628 0.07322792 0.31778222 0.87088287 1.0612687 -0.53960174 -0.17023718 -0.030701635
752 0.15024285 0.26715326 -1.0051366 0.8607971 0.4517424 0.13711469 0.19672358 -0.6392173 1.5559583 0.13371015
237 0.5083316 0.02559569 0.3939863 -0.17521524 0.35699412 0.9992295 1.0295563 -0.8228112 0.022807755 0.2753105
218 0.5521202 0.47646645 0.3558452 0.17338398 0.40903506 0.9281215 0.9541451 -0.6179063 -0.17384097 -0.13414235
219 0.5887376 0.5164088 0.3184215 0.17020264 0.33296478 0.78862834 1.0470943 -0.5811708 -0.16150142 -0.120929435
758 -0.018701795 0.4735984 -1.0419384 0.8141858 0.67787194 0.37432468 0.07171264 -0.4911257 1.4513069 0.33853382
756 0.021563018 0.3510209 -1.0115881 0.8120737 0.5872709 0.35517666 0.08765933 -0.56909716 1.5027428 0.24647515
173 0.733924 0.0042819134 -0.27645326 -0.15252101 0.48970118 0.9394541 0.64276755 0.44586837 0.11591512 -0.3910759
171 0.80694735 0.03094652 -0.37664142 -0.23548156 0.45825574 0.94244885 0.71500194 0.460803 0.16731834 -0.48990878
217 0.64902353 0.57884806 0.2900686 0.19463135 0.34960377 0.77510566 0.9727078 -0.52381736 -0.19183122 -0.13003199
757 0.0020093042 0.4088744 -1.0769621 0.8234048 0.6228864 0.37206152 0.14035565 -0.5526995 1.3997527 0.32929567
761 -0.04688054 0.5617449 -1.1095653 0.7479981 0.6659551 0.535091 0.06420379 -0.49602276 1.4802356 0.41796675
759 -0.04894471 0.47855002 -1.048332 0.7505951 0.697927 0.41573194 0.09015073 -0.5307842 1.45627 0.38216704
17 0.1269796 -0.1995186 1.3298963 0.54960454 0.38312617 0.9507414 -0.21679974 0.27248394 0.707828 -0.0362765
762 -0.11429574 0.4888294 -1.0651548 0.76941615 0.59622204 0.5655372 0.12119968 -0.5700919 1.4080592 0.4399472
240 0.53006655 -0.08602036 0.33814797 -0.10514769 0.27387264 0.9300774 1.1164688 -0.88318163 0.07211814 0.13815863
16 0.037678372 -0.2730088 1.3271441 0.6925341 0.3349971 0.9891098 -0.21332245 0.18989901 0.6905181 -0.03381782
774 -0.11467921 1.4061279 -0.80126953 -0.067910835 0.06599022 0.39255056 0.5112095 -0.25400084 1.8024899 0.34459117
158 0.6497638 -0.21081242 -0.1695398 -0.19766377 0.012199842 0.7856765 0.88725334 0.40094486 0.40108925 -0.7498366
163 0.7914403 -0.087730624 -0.25139892 -0.25331965 0.19170901 0.8316726 0.7943181 0.4741566 0.31321356 -0.6815721
760 -0.08258849 0.5142733 -1.0050539 0.8204132 0.68629456 0.40829307 0.06869886 -0.503806 1.415373 0.3765943
169 0.815527 0.09095013 -0.25896963 -0.30621764 0.40834972 0.82497245 0.78848726 0.4289975 0.22687978 -0.5047988
199 0.7065089 0.33159938 -0.015970344 0.47401536 0.757696 0.6214371 0.92780036 -0.2321821 -0.25819877 -0.41083407
738 0.77817345 0.7795263 -0.60399127 1.3126693 -0.4867989 0.51469606 -0.3646712 -0.74077874 1.1041733 -0.047360707
238 0.5244094 0.002076453 0.4387108 -0.16778749 0.32654303 0.99164903 1.058058 -0.74743044 0.02923265 0.22205733
170 0.77469105 0.025628136 -0.28193486 -0.25877324 0.43916672 0.8884263 0.8185336 0.4326559 0.20453638 -0.59832585
206 0.4937885 0.4316847 0.049439948 0.4579854 0.5552084 0.72163934 1.1058699 -0.27121258 -0.26629496 -0.30079046
172 0.7860081 -0.0064592613 -0.32728165 -0.12152407 0.50299925 0.8918803 0.648935 0.44866574 0.12195478 -0.47890082
737 0.7746855 0.67825186 -0.55898213 1.2845017 -0.5300522 0.5165961 -0.43965176 -0.6593847 1.1446091 -0.028980391
174 0.9065191 -0.06854001 -0.292964 -0.13453376 0.5132971 0.8700219 0.6292035 0.37058815 0.09333787 -0.46904394
755 0.057539333 0.38993105 -1.0241057 0.73928416 0.60366684 0.25122896 0.14207795 -0.5423123 1.5484794 0.1975289
763 -0.14784688 0.5385032 -1.0981193 0.7762229 0.5847783 0.5993291 0.12698223 -0.47188002 1.3999555 0.45380905
37 0.04326588 0.39309138 1.2744778 0.2496382 0.4687162 0.5064239 0.124387994 0.61166596 0.8764162 0.25158834
185 0.96511304 0.017812325 -0.29417118 0.14851683 0.7172624 0.768999 0.7268702 0.14229953 -0.12804301 -0.4127868
239 0.50742316 -0.009756607 0.4062001 -0.18163806 0.2745893 0.95214003 1.0492785 -0.7584331 0.0762926 0.14569746
18 0.10565646 -0.23772275 1.2580006 0.54682755 0.38158348 0.8905082 -0.27193046 0.32261202 0.79595435 -0.008750602
30 0.05358123 0.21082355 1.2002858 0.2928292 0.6640574 0.6581591 -0.11683844 0.52877223 0.88559455 0.14917868
150 0.5569347 -0.41257742 -0.12358961 -0.0233033 -0.3313921 0.80797243 0.97278017 0.37290403 0.39599204 -0.69323176
216 0.6848164 0.53434974 0.30688307 0.18932386 0.33446527 0.7344906 1.0704762 -0.5214577 -0.19369806 -0.16395189
26 0.20642355 0.061301146 1.174271 0.33635947 0.6743672 0.8141291 -0.3604303 0.54029775 0.83646274 0.14313631
19 0.04049483 -0.15959828 1.2857538 0.5754999 0.40327042 0.9820666 -0.25535643 0.31384718 0.7274158 0.026751703
733 1.0327827 0.74994624 -0.57363826 1.116913 -0.51124126 0.4523165 -0.46155456 -0.6846818 1.1422137 0.0058538597
6 -0.364142 -0.47358572 1.1630942 0.94616205 0.7371617 0.87622684 0.06854453 0.20589156 0.77534425 -0.038576454
27 0.14766622 0.059972033 1.1707356 0.28881967 0.667316 0.8238891 -0.2971698 0.49534374 0.8387877 0.11271875
732 0.9632075 0.6077203 -0.5455594 1.2009902 -0.5060837 0.5941544 -0.5435619 -0.6440943 1.0984669 0.027662642
2 -0.38092333 -0.5411807 1.0730606 0.92513293 0.8518638 0.809806 0.10046622 0.17881995 0.767536 -0.035750296
3 -0.39937547 -0.508176 1.0745974 0.9104522 0.7759048 0.8175462 0.10106179 0.21389894 0.77263105 -0.083210565
186 0.88109857 -0.015192552 -0.28030685 0.2553703 0.6756159 0.8193091 0.73180974 0.14625803 -0.1829145 -0.37781313
9 -0.31821993 -0.45286426 1.1884111 0.92929524 0.65759933 0.9164882 0.05379229 0.25906786 0.7240882 -0.1598176
11 -0.14415365 -0.26009202 1.30949 0.91208935 0.50606 0.9711111 -0.1510794 0.16790874 0.66328824 -0.086316556
734 0.95409364 0.64249307 -0.6143218 1.2354323 -0.49263337 0.49385825 -0.4332722 -0.7319192 1.0861975 -0.016522657
31 0.11231138 0.19494648 1.2005072 0.23062971 0.59214956 0.64192873 -0.11257066 0.55459 0.8942595 0.17520295
198 0.70745254 0.27595383 -0.06997657 0.46084747 0.68236613 0.66407 0.9447225 -0.20837115 -0.26707855 -0.36811084
20 0.15248609 -0.16112886 1.333998 0.5338917 0.358093 1.0135788 -0.26504898 0.3660357 0.7092107 -0.0026852034
717 1.1537522 0.19097316 -0.39936897 0.54333603 -0.42272744 0.68655604 -0.6665167 -0.8770057 1.3581624 0.30869362
38 0.04351072 0.3331386 1.2271284 0.31077275 0.4404824 0.47937608 0.112743996 0.64127403 0.895074 0.15293334
731 1.0036414 0.61148864 -0.5856825 1.1482507 -0.5218926 0.60942847 -0.5449509 -0.7423739 1.1489085 0.052998498
23 0.11627928 -0.0048159477 1.243405 0.4453724 0.61488706 0.935033 -0.28787163 0.448093 0.7297137 0.17043336
22 0.047310192 -0.081184246 1.2529631 0.48072296 0.521841 0.96230036 -0.28337252 0.417031 0.79837596 0.18219018
197 0.7402173 0.33655885 -0.08490009 0.42294505 0.6622851 0.7351475 0.8695869 -0.12083298 -0.26414773 -0.469202
32 0.11384352 0.24547096 1.234873 0.2732555 0.62123203 0.59158605 -0.06669185 0.5400486 0.8855394 0.25106236
245 0.49887717 -0.5012078 0.34650907 -0.24084371 0.33560863 0.579538 1.3717868 -0.86372536 0.42199427 -0.21693458
15 0.009106873 -0.25643516 1.345348 0.593409 0.30007616 0.9557359 -0.1452917 0.13961934 0.7308369 -0.026724085
735 0.87624836 0.7779396 -0.7012653 1.3154494 -0.46380684 0.540304 -0.4316842 -0.68553656 1.126192 0.004177704
193 0.8378881 0.12087849 -0.080258824 0.4540163 0.6763259 0.74119526 0.71361166 -0.07593772 -0.2771676 -0.41219926
5 -0.38125116 -0.48957008 1.1275996 0.90444696 0.82565004 0.8819867 0.076346405 0.14005408 0.74599534 -0.040182352
34 0.07207238 0.19334304 1.2631438 0.26444414 0.5262996 0.6307391 0.041522298 0.6354361 0.8857029 0.20155653
44 0.15213794 0.40239775 1.3414605 0.3437223 0.3590471 0.26963952 0.328599 0.7223169 0.9006872 0.080496304
736 0.84416896 0.6649068 -0.55360305 1.273588 -0.5468283 0.4333822 -0.37725115 -0.65013 1.1308787 -0.03652758
775 -0.128435 1.3839709 -0.7203811 -0.032922044 0.122823276 0.3902713 0.4769172 -0.3084944 1.7252215 0.26427013
4 -0.40873682 -0.5706578 1.0961006 0.8501831 0.7523692 0.8389946 0.11319844 0.18848419 0.8339088 -0.04799349
7 -0.35373092 -0.4463987 1.1007458 0.9242026 0.7209195 0.9067299 0.0077280407 0.25160477 0.73558605 -0.18349619
716 1.313303 0.23208536 -0.48676005 0.5160074 -0.46505243 0.6551698 -0.6718624 -0.84763646 1.3892086 0.28137398
187 0.9277341 0.028763331 -0.19496495 0.1982721 0.7190322 0.76905954 0.69991845 0.07299127 -0.1378317 -0.42247465
718 1.2892094 0.30463135 -0.51955086 0.5545878 -0.4023729 0.59122866 -0.64512014 -0.80043113 1.2853384 0.2727505
33 0.13795184 0.26362 1.249022 0.23752701 0.5444952 0.61722153 -0.050620098 0.5810294 0.8668441 0.22579122
54 0.41634685 0.42072767 1.1663673 0.5920336 0.29976955 -0.081294715 0.39231354 0.751572 0.7386562 0.032848798
764 -0.10102345 0.54552215 -1.069219 0.61310107 0.6170721 0.59695715 0.1090098 -0.5533415 1.4680245 0.448632
770 -0.21698476 1.2607697 -0.7502312 -0.0006255311 0.14118657 0.46986777 0.43315452 -0.3432703 1.754276 0.33726722
730 0.98190016 0.5854088 -0.5170142 1.0532631 -0.58026123 0.6384299 -0.58937484 -0.6217035 1.1294745 0.06266477
10 -0.20422915 -0.3893503 1.1294694 0.90496415 0.4481055 0.96722245 -0.13075788 0.18794742 0.6935082 -0.20013388
36 0.014111989 0.3604738 1.3110118 0.21316521 0.4857022 0.6341659 0.14249627 0.6795649 0.84893924 0.2163243
719 1.261159 0.3661892 -0.43767655 0.47377864 -0.37351227 0.6360858 -0.6753866 -0.76308453 1.2708333 0.21442355
192 0.87175936 0.074130826 -0.12892672 0.36121356 0.72348624 0.799663 0.7787818 -0.0011752325 -0.24836127 -0.4018067
43 0.04365595 0.45586643 1.2204539 0.3020756 0.4019846 0.31269816 0.30958208 0.806645 0.92666554 0.06621805
41 0.101250425 0.42205337 1.2962419 0.29271322 0.4680874 0.3937478 0.18750721 0.67554224 0.8925037 0.13080265
21 0.08179042 -0.1513631 1.1995032 0.4684684 0.46978495 0.9655039 -0.31041893 0.38574815 0.7806784 0.11982268
724 1.1050986 0.42101228 -0.5203694 0.8287178 -0.45761445 0.69232076 -0.67749554 -0.71497035 1.2668811 0.0575055
771 -0.13714637 1.3384213 -0.7580455 0.021953652 0.15260684 0.4442657 0.39149457 -0.25877252 1.6859447 0.38480234
28 0.09979504 0.08634455 1.2433528 0.22827871 0.64965975 0.7801827 -0.21019067 0.49408248 0.91035324 0.18318418
773 -0.1614189 1.3759882 -0.6843141 -0.0446448 0.109544374 0.4062417 0.42133558 -0.29509482 1.7938873 0.36497703
772 -0.1610357 1.390566 -0.7824197 0.015123413 0.15270169 0.42877322 0.44741935 -0.28233212 1.7798065 0.30609366
776 -0.18476504 1.4589565 -0.73540765 0.034016255 0.083049595 0.47737354 0.43843204 -0.26115412 1.7311841 0.26991436
35 0.1009849 0.23431858 1.2811372 0.2462125 0.4566751 0.6223162 0.02971248 0.61777055 0.881755 0.1832413
53 0.41345215 0.3394425 1.2074314 0.5761592 0.29628146 -0.06389432 0.36808792 0.76832914 0.8192352 0.00536319
244 0.4193022 -0.37953553 0.29073855 -0.30334005 0.33029905 0.61229223 1.3997732 -0.77415395 0.4185817 -0.104449436
25 0.13168934 0.06662441 1.2189014 0.381754 0.69421333 0.8629522 -0.31665328 0.4647781 0.793677 0.10667044
727 1.0089842 0.5608292 -0.5399053 0.92325276 -0.51416576 0.79669213 -0.6637944 -0.6880382 1.1938802 0.07730979
45 0.157535 0.39813438 1.2687985 0.35330826 0.30125448 0.2722567 0.29467976 0.7735989 0.9227001 -0.037099596
769 -0.16210781 1.2518588 -0.8059102 0.03816647 0.13004284 0.5114711 0.36820853 -0.27208567 1.7104665 0.3548866
42 0.016041424 0.40188038 1.2594471 0.31774074 0.3614395 0.3536668 0.26083937 0.6932814 0.9432125 0.061874893
188 0.8741342 0.10662821 -0.1768304 0.22118783 0.8299501 0.75491154 0.80405265 0.15447773 -0.21473992 -0.32112667
8 -0.33490518 -0.43277708 1.1891869 0.904535 0.6422998 0.9481697 0.043087393 0.17718975 0.71133596 -0.22287378
194 0.8445335 0.1021875 -0.1694836 0.44198778 0.6793782 0.810302 0.74059224 -0.08349684 -0.29676792 -0.41119343
39 0.047505252 0.40574497 1.3260769 0.30647644 0.36509398 0.5138826 0.2831113 0.6963284 0.7791304 0.1491489
739 0.7571736 0.7176266 -0.6289346 1.3280834 -0.57549083 0.42716122 -0.2814553 -0.68269217 1.1986325 -0.036614433
12 -0.12798329 -0.35901958 1.2786314 0.82057387 0.41832066 1.0070167 -0.024469178 0.2688797 0.620541 -0.09597439
195 0.8135412 0.09481853 -0.097530134 0.5404491 0.6239814 0.67919403 0.83467364 -0.1310291 -0.3212031 -0.34506887
40 0.06629267 0.34432828 1.3243511 0.2658398 0.4181749 0.4718515 0.2184426 0.71276104 0.92336494 0.15223753
241 0.4826747 -0.14855069 0.4034786 -0.24024318 0.32848784 0.8396257 1.1747755 -0.7708482 0.19904906 0.028672075
24 0.14791441 -0.0524538 1.2453434 0.31907517 0.62290543 0.91941893 -0.28639564 0.4440416 0.8035027 0.11037077
191 0.75603247 0.051799938 -0.08996429 0.39563793 0.80239266 0.8060266 0.77240586 0.09995293 -0.25696436 -0.38193175
196 0.7432371 0.23926634 -0.104561746 0.46514127 0.66910446 0.7417443 0.8515954 -0.1269 -0.27592424 -0.41647044
29 0.078228064 0.15711494 1.2444879 0.2933482 0.6808556 0.759965 -0.14245187 0.6252153 0.8676501 0.23121679
723 1.1895994 0.4571631 -0.4783925 0.6643599 -0.4126601 0.6740489 -0.6568828 -0.74677 1.2179589 0.0023949912
715 1.1843106 0.22789533 -0.4972835 0.57621646 -0.3997489 0.6604565 -0.6479083 -0.8530291 1.3024007 0.35606092
726 0.9928654 0.4450136 -0.5613283 0.8504963 -0.52639115 0.84552836 -0.67353684 -0.6989942 1.2290474 0.07192782
55 0.45910934 0.36795032 1.0479776 0.6089931 0.2676935 -0.1747843 0.32302877 0.74686855 0.7879517 0.031081408
14 -0.09528987 -0.22609197 1.2437893 0.77490693 0.35978475 0.97939396 -0.2097858 0.2023607 0.7035382 -0.06148444
46 0.17985792 0.46013388 1.2107588 0.31389594 0.35683185 0.18084925 0.27915037 0.8025562 0.94273794 0.01883046
48 0.28620288 0.40999436 1.1753495 0.3529363 0.3350567 0.100997865 0.21738635 0.7451412 0.9325838 0.06425244
720 1.1508334 0.36149764 -0.53303546 0.59328055 -0.38498598 0.7948706 -0.77879196 -0.6884668 1.3368882 0.11383034
145 0.33886442 -0.4125151 -0.05399641 0.008780826 -0.3196662 0.90295243 1.0902188 0.1202689 0.21677768 -0.1876275
729 0.94825065 0.5363084 -0.56666756 1.0389888 -0.49905574 0.7388426 -0.5806646 -0.6974034 1.0858465 0.003984551
246 0.54483616 -0.46715218 0.3458895 -0.23986457 0.41355482 0.57969886 1.3526601 -0.80691975 0.37713993 -0.16426317
725 1.1084012 0.5202785 -0.51430786 0.82536244 -0.4150547 0.75502163 -0.70963204 -0.70313185 1.1970112 0.10194811
765 -0.13617261 0.60074776 -1.0783265 0.6550604 0.5727664 0.56735814 0.109362066 -0.40114716 1.4448367 0.4490422
190 0.8722441 -0.002700549 -0.10155863 0.3074613 0.79182756 0.7748628 0.8089224 0.03928979 -0.21959879 -0.43655977
110 0.268005 -0.1572922 0.044495102 0.6744806 -0.44682842 0.52197385 0.85378915 1.0015522 0.3206895 0.8954005
189 0.8261069 0.07576025 -0.21185875 0.297808 0.8468619 0.761256 0.676801 0.052308083 -0.17709216 -0.39231655
47 0.12618516 0.38045567 1.2169257 0.43182147 0.34981734 0.10252325 0.39077574 0.7737192 0.92535836 0.022032475
722 1.1619772 0.3432777 -0.56094223 0.74045455 -0.45898554 0.7776318 -0.71107465 -0.7550448 1.295898 0.035803214
1 -0.33335474 -0.57376 1.0624447 0.9136603 0.8893402 0.8111205 0.061830636 0.18422142 0.75862515 -0.07371537
766 -0.16818136 0.7255838 -0.98638 0.72229934 0.555833 0.5814549 0.05184465 -0.44553757 1.4839576 0.41836378
59 0.5426527 0.27403587 1.0846848 0.5809606 0.15357721 -0.19497477 0.37712443 0.6204305 0.73535484 0.12275634
57 0.4789512 0.29733354 1.1477153 0.6606642 0.3014439 -0.16621259 0.43552354 0.7224071 0.71485925 0.08190785
242 0.43665558 -0.3558297 0.31483987 -0.20785746 0.18282795 0.697691 1.2695305 -0.7477801 0.3366505 -0.10533869
247 0.48191854 -0.49582207 0.30887395 -0.24310118 0.3650717 0.54826564 1.3788861 -0.8491867 0.42614767 -0.18898305
52 0.4398595 0.40350902 1.134521 0.52633256 0.31169558 -0.09236708 0.30089375 0.7357691 0.8136981 0.033282347
721 1.2470214 0.3567383 -0.4928418 0.6550147 -0.43058664 0.68778247 -0.7305432 -0.72744596 1.3441545 0.057430834
56 0.47302833 0.370748 1.1634777 0.57493466 0.2325874 -0.20373842 0.42620072 0.69008964 0.7854835 0.08512582
49 0.32169285 0.357214 1.1919146 0.39378446 0.27425194 0.090552576 0.29411414 0.742677 0.8581145 0.068421006
112 0.24993974 -0.17619058 0.104348615 0.6571201 -0.54418653 0.5571615 0.88559186 0.9505285 0.3387406 0.92695016
58 0.5488075 0.26577416 1.1668633 0.5819034 0.20851171 -0.1685296 0.42157286 0.7367659 0.777264 0.066407934
50 0.22987236 0.38338506 1.1879513 0.48298046 0.3410894 0.041146316 0.33810177 0.7657645 0.903695 0.10444006
243 0.4109953 -0.39334318 0.36486182 -0.2663217 0.2678722 0.6358081 1.2456673 -0.7517542 0.4016838 -0.08958871
51 0.29630977 0.40554518 1.1749017 0.535337 0.34161678 0.01430287 0.32234722 0.7377008 0.8246196 0.08873668
65 0.75385064 0.037995983 1.0328271 0.6304213 0.1377119 -0.22248022 0.42161727 0.6851722 0.67437667 0.19112912
61 0.7230296 0.24703225 1.1137625 0.5489338 0.12467711 -0.22139055 0.39063534 0.61883545 0.6834726 0.11778636
111 0.3051683 -0.18844992 0.0862341 0.66641223 -0.51366055 0.5275024 0.79595757 0.99495816 0.34550726 0.90125513
64 0.7090191 0.10967167 0.9893083 0.59806603 0.092147626 -0.28901306 0.40483952 0.634217 0.7348456 0.15693507
62 0.68697166 0.10713605 1.1160904 0.6242296 0.25679362 -0.25241104 0.42977697 0.6878844 0.71252626 0.12627605
94 0.62671316 -0.43352294 0.32888657 0.3872337 0.003409873 0.14978656 0.5917429 0.7882263 0.5808668 0.9784653
768 -0.2167281 0.91700697 -0.89375997 0.38948026 0.38612205 0.5961487 0.13814424 -0.3294255 1.6199149 0.3357997
68 0.67586905 -0.021246014 0.9314419 0.628456 0.15111212 -0.3686479 0.5240671 0.5894718 0.74924403 0.2922304
95 0.64512557 -0.37940773 0.26285037 0.3477231 -0.025579307 0.14139344 0.62909234 0.8583087 0.5788187 1.0166246
113 0.19468305 -0.22284497 0.114759706 0.6791645 -0.52720064 0.510872 0.96879053 0.8538699 0.3282937 0.9020168
109 0.39722216 -0.19748539 0.10091401 0.6396794 -0.54708165 0.5348934 0.7431281 0.9335066 0.31945655 0.9192778
767 -0.20894338 0.67749786 -0.9725229 0.6038185 0.49641886 0.61866313 0.06092103 -0.43660232 1.5261631 0.49820748
60 0.51526874 0.20232366 1.114216 0.63992363 0.2787324 -0.2247956 0.36816895 0.6622931 0.8001781 0.106111825
728 0.93288785 0.51685864 -0.52343905 0.94229615 -0.5040158 0.7580483 -0.6534272 -0.66296965 1.163552 0.10449757
116 0.062253356 -0.107425585 -0.031550866 0.7011048 -0.62788767 0.6270311 0.94494665 0.86763084 0.29842776 0.8479945
85 0.82203376 -0.45229185 0.50655884 0.3550919 0.20014492 -0.10759258 0.60864276 0.6892145 0.6006084 0.74632555
115 0.07698069 -0.17971437 -0.00056180824 0.8194613 -0.59948766 0.62459874 0.9027937 0.8749388 0.28429314 0.853457
92 0.6947099 -0.54003906 0.32156616 0.43478364 0.12127591 0.09604332 0.6638799 0.8947271 0.5845119 0.98399556
67 0.81125087 0.009906954 0.9762698 0.6241594 0.10471429 -0.32756835 0.46579695 0.6784897 0.6903916 0.237485
63 0.64342463 0.15974249 1.0728614 0.65081626 0.12955463 -0.2993627 0.46494773 0.57080674 0.70541793 0.21357009
77 0.7905012 -0.26037198 0.72678626 0.6684835 0.17276943 -0.30190822 0.5950022 0.6587121 0.6238846 0.58154964
117 0.034392964 -0.16151613 0.020796102 0.72875166 -0.70222825 0.64020115 1.0047286 0.87889516 0.31587464 0.77123636
87 0.7208629 -0.46309936 0.3769013 0.47203925 0.09427925 -0.10570919 0.51939625 0.7038771 0.7039678 0.8584998
114 0.1756984 -0.20963939 0.095928855 0.7211465 -0.63413376 0.58603615 0.8956841 0.9288645 0.34887704 0.8447065
84 0.8059624 -0.35624447 0.5062569 0.45047742 0.28665313 -0.16387035 0.55314606 0.6725886 0.5933208 0.87946147
66 0.777769 0.007969089 1.0018128 0.6296054 0.20679995 -0.3067169 0.4104206 0.59252536 0.68803006 0.26075956
90 0.7728984 -0.44046447 0.41266587 0.50700575 0.07542354 -0.003480209 0.5480436 0.7699966 0.57398534 0.9861661
76 0.81057197 -0.31585705 0.8311412 0.5768247 0.16353643 -0.30391178 0.5697578 0.6864781 0.7453382 0.5192756
89 0.76424843 -0.51879746 0.37308556 0.46987337 0.18473245 -0.030972192 0.55847 0.7959565 0.59132767 0.9505433
91 0.75314105 -0.43609688 0.40307146 0.4546138 0.093822435 0.07504841 0.61500746 0.7948945 0.50874436 0.99740046
78 0.82980055 -0.36618623 0.7346333 0.5636301 0.27151605 -0.3337304 0.48159233 0.6302901 0.75372756 0.6030357
96 0.641612 -0.37147692 0.21722357 0.35540128 -0.08759596 0.15026267 0.557482 0.8290284 0.604994 1.0610787
93 0.6895165 -0.43012947 0.3821888 0.4145991 0.053002197 0.121223144 0.5953556 0.8440809 0.5790825 1.006541
71 0.6608321 -0.23120973 0.83091134 0.6534853 0.20201172 -0.38872918 0.5722329 0.62814397 0.765844 0.31011575
100 0.59505695 -0.3781031 0.1923748 0.44231433 -0.15317522 0.31446257 0.67797464 0.89446586 0.44485575 1.0672884
69 0.69605035 -0.02847434 0.91862833 0.68008274 0.16684042 -0.3652239 0.5129222 0.57960254 0.7065279 0.3235358
75 0.7382996 -0.24684216 0.70140713 0.63242435 0.22011371 -0.35802054 0.5489452 0.6768804 0.7323903 0.5415224
248 0.55150753 -0.37344703 0.3956625 -0.30383867 0.3190051 0.5902226 1.3678962 -0.82495326 0.40470514 -0.21137981
70 0.7192539 -0.13315018 0.96087956 0.6255677 0.22839563 -0.30935585 0.46506768 0.6291126 0.73083025 0.34447363
101 0.6346938 -0.26063782 0.2549974 0.4576295 -0.19305266 0.3388025 0.6314988 0.8992393 0.41513553 1.0974073
86 0.81400084 -0.40640247 0.4308658 0.33714876 0.2716036 -0.11969953 0.61360157 0.75751424 0.6210762 0.89930046
88 0.79593956 -0.42489076 0.3583884 0.3967087 0.18372148 -0.17714489 0.57854223 0.74700505 0.7140612 0.9328388
107 0.44318265 -0.17929657 0.10961342 0.6070113 -0.43627232 0.5011504 0.6367031 1.0308694 0.37591213 0.9285217
82 0.74036103 -0.38058797 0.49604815 0.4055423 0.23268358 -0.20903273 0.5632193 0.68610597 0.70044184 0.76873434
118 0.02994038 -0.22319378 -0.052072078 0.8396091 -0.69951725 0.59726346 0.9891923 0.8670692 0.31203794 0.6978222
119 0.027635878 -0.15402555 -0.028743012 0.7610555 -0.77464306 0.620922 0.99673605 0.8638143 0.2976851 0.6533841
97 0.56919044 -0.31936774 0.20690957 0.4846657 -0.014315617 0.18140967 0.63866305 0.861445 0.5344513 1.1100622
99 0.67436075 -0.39704797 0.21418102 0.39145127 -0.1791294 0.2835158 0.617236 0.94231623 0.5485325 1.0499622
81 0.85917985 -0.27158365 0.55704343 0.44478032 0.18951888 -0.31662953 0.58064276 0.6670448 0.67878675 0.7074367
74 0.7652612 -0.23799428 0.7763848 0.5993572 0.23355478 -0.32612875 0.589891 0.72384655 0.7044304 0.55715895
108 0.4543238 -0.1706989 0.07835217 0.6053164 -0.4055918 0.5239971 0.72978383 1.0497643 0.2988609 0.94513124
79 0.87877643 -0.35635364 0.6633402 0.47026187 0.18034464 -0.33066976 0.5327374 0.67899567 0.7410675 0.6080078
98 0.71599835 -0.31677702 0.2157414 0.43933508 -0.12099084 0.21294783 0.62851864 0.8460023 0.4672041 1.1228317
149 0.4785482 -0.4474094 -0.22723556 0.13763325 -0.41178408 0.78767926 1.0432706 0.38049167 0.28657907 -0.47052774
80 0.7794961 -0.31940877 0.62562275 0.49991852 0.23625219 -0.20944479 0.50400037 0.7922684 0.7101249 0.6462234
147 0.5717572 -0.53430736 -0.09702449 0.045389384 -0.3849358 0.77495736 0.97172725 0.3341304 0.3522962 -0.5434549
73 0.71912944 -0.22528023 0.8921012 0.6472519 0.20091058 -0.35556236 0.56525415 0.5726166 0.7143957 0.43551588
102 0.62964094 -0.24816969 0.19120152 0.52100164 -0.25395814 0.35586044 0.663199 0.89908457 0.37439618 1.145557
146 0.5784522 -0.48921102 -0.119312234 0.060838714 -0.31480113 0.71156853 0.954092 0.3031188 0.3626395 -0.59351563
83 0.7955875 -0.42823583 0.5499693 0.5679734 0.24621066 -0.16764496 0.561929 0.7063859 0.5767108 0.7666188
72 0.74057263 -0.27294275 0.8273626 0.63022053 0.11737357 -0.34498325 0.56703454 0.73493075 0.78228045 0.30083606
106 0.48626 -0.20895417 0.13921605 0.5802567 -0.36429816 0.46460825 0.7377596 0.96246606 0.36466813 1.0574766
105 0.47471783 -0.21974938 0.14510746 0.58755636 -0.41230702 0.46310806 0.60126334 0.92277455 0.37805322 1.0238315
120 0.18583493 -0.24129994 -0.07076013 0.65406185 -0.72787976 0.5922813 1.0827014 0.7972056 0.24220502 0.540664
121 0.06883221 -0.22629438 -0.11135328 0.69644636 -0.7862244 0.5633653 0.8828677 0.6045595 0.3220409 0.5964858
104 0.5196361 -0.26477146 0.15346843 0.5365051 -0.30397558 0.41806248 0.63981164 0.93743694 0.38167804 1.0802615
144 0.22317061 -0.22469972 0.019367857 0.23977986 -0.54634356 0.7132118 1.1655878 0.23796171 0.14338218 0.10202132
743 0.1769968 0.20449641 -0.8323694 1.0962236 -0.053419992 0.101542905 0.18612334 -0.659993 1.5940026 -0.07532606
103 0.6361616 -0.24316987 0.16444719 0.58510715 -0.2706745 0.41126457 0.62496984 0.8694439 0.27753946 1.0167967
13 -0.0033860158 -0.24574289 1.3191863 0.80383074 0.32040665 1.0048538 -0.20973295 0.2345357 0.67746985 -0.14609043
249 0.54691595 -0.51487255 0.34974685 -0.3177579 0.40285808 0.5879603 1.2478282 -0.88554466 0.48500288 -0.24364184
148 0.4079298 -0.42231354 -0.0031288902 -0.060596187 -0.42093962 0.95513034 1.0211321 -0.027405959 0.2695274 -0.299041
740 0.83939207 0.6095905 -0.6718589 1.3925693 -0.58677644 0.23938772 -0.18960789 -0.62947106 1.1352957 -0.019522151
143 0.09894598 -0.3227677 -0.31373647 0.31079617 -0.3606132 0.633861 0.7709749 -0.033338886 0.39085457 -0.3612708
142 0.022866292 -0.23715745 -0.77378035 0.5349098 -0.36827764 0.36113447 0.530354 -0.5689933 1.0117421 0.021901269
