322 10
308 0.35383472 -0.13642378 0.7831179 0.5290474 -0.30569306 0.7726619 0.7002259 0.047938872 -0.6290696 0.027707523
293 -0.0007752044 0.10809617 1.0626401 0.6612658 0.3460135 0.1506505 0.8359229 0.045836452 -0.48751473 -0.21354678
291 -0.011744516 0.070623256 1.0827253 0.6739333 0.36020765 0.08575203 0.83036584 -0.004854674 -0.5447496 -0.14910074
290 -0.053876124 0.0010184534 1.0039253 0.6435793 0.39865118 0.13394915 0.8266654 0.13999 -0.431144 -0.141466
292 -0.042480987 0.13712764 1.0480003 0.61212707 0.29876056 0.12145931 0.8478843 0.052900698 -0.4505762 -0.21650584
287 -0.034751732 0.0012928798 1.011915 0.6369471 0.47963014 -0.011549102 0.8624535 0.13650712 -0.45521313 -0.16489294
289 -0.031977125 0.033506002 1.0519685 0.6871355 0.40634787 0.027951082 0.8126673 0.04071389 -0.52047837 -0.23160844
294 0.011718232 0.13331212 1.0873268 0.6643298 0.31512922 0.13671479 0.8381357 0.007847453 -0.5667004 -0.16920266
286 -0.033231784 -0.044095237 1.0247812 0.7015163 0.5439716 0.08648178 0.8398424 0.19358191 -0.4409725 -0.12155323
285 -0.18466416 -0.0836979 1.0444647 0.6381162 0.5221553 -0.007162024 0.88540524 0.1392004 -0.40677413 -0.17309481
264 0.18209784 -0.80752647 0.6938992 0.4744045 0.71685416 -0.081671916 0.9151887 0.6623734 -0.28357905 -0.116153784
253 0.5916446 -0.54656637 0.605629 0.64869773 0.78851473 -0.13553162 0.7019478 0.83932656 -0.378385 -0.05222842
265 0.18211776 -0.7557436 0.70529854 0.44690347 0.7240144 -0.07614475 0.8793226 0.66923875 -0.2467529 -0.20020543
257 0.51264143 -0.7327253 0.6458846 0.5350901 0.8216984 -0.13419013 0.651511 0.86054915 -0.34094432 0.015013882
284 -0.11742101 -0.09118275 0.9870739 0.6214071 0.55160666 0.0012209616 0.857341 0.16875595 -0.33015776 -0.14426032
263 0.28432563 -0.7693631 0.653455 0.46376592 0.6968772 -0.04383476 0.82813156 0.69537073 -0.27633223 -0.22051042
295 -0.0041433293 0.11377339 1.1076729 0.62536746 0.26585254 0.18920997 0.8090353 -0.053095486 -0.5245475 -0.21039563
255 0.5404586 -0.6145185 0.64133906 0.55313355 0.77018744 -0.18816656 0.6401118 0.8705143 -0.40610626 0.028509678
266 0.15729424 -0.72138876 0.7383447 0.48098364 0.7146912 -0.020786302 0.88970286 0.67527926 -0.2768302 -0.19980025
302 0.17627908 0.058492683 1.0777838 0.5787553 0.014234623 0.4721533 0.73883724 0.030967496 -0.6939193 -0.27961248
256 0.5313493 -0.61140335 0.6222417 0.57353485 0.773702 -0.16323678 0.61627454 0.84916514 -0.37479648 -0.04752778
260 0.3759396 -0.7833197 0.68572336 0.43957523 0.7438417 -0.09313374 0.80709726 0.81238383 -0.31321588 -0.09719243
288 -0.06965476 -0.039905723 1.0084292 0.65301156 0.44530722 0.036371887 0.84432477 0.052233867 -0.44127303 -0.11360908
254 0.5419941 -0.5606243 0.5690289 0.63979524 0.80042696 -0.18021446 0.7059741 0.87655455 -0.30877823 -0.029259844
261 0.35988083 -0.8254147 0.5882916 0.48445123 0.6931561 -0.1604142 0.845896 0.7260928 -0.33710745 -0.087090254
296 0.02838789 0.16523004 1.0755302 0.656323 0.21377306 0.19289346 0.7565879 0.013060806 -0.5603111 -0.2412027
267 0.14827397 -0.69693774 0.7375354 0.45178825 0.7255373 -0.1162621 0.8179125 0.60625374 -0.24858063 -0.17109723
271 0.035229016 -0.56983244 0.79521555 0.4672892 0.7411377 -0.112539105 0.8760777 0.48814023 -0.19087231 -0.12630571
270 0.06245238 -0.6724313 0.75243455 0.5398069 0.73037493 -0.029395185 0.88881385 0.5298249 -0.2578308 -0.060555745
262 0.31773746 -0.82258165 0.666276 0.46154195 0.6908171 -0.07463808 0.8440704 0.75068146 -0.35453218 -0.1555416
303 0.28588727 0.1104693 1.0134977 0.6502965 0.02261639 0.4452813 0.7356967 -0.0015657198 -0.6632812 -0.25893557
252 0.6128927 -0.5049071 0.68515205 0.59903055 0.80897933 -0.20198561 0.6495045 0.87945604 -0.44066888 -0.075874925
297 0.021311464 0.1346258 1.0731839 0.65542257 0.21136616 0.24447325 0.74742186 0.03070614 -0.55847704 -0.21284029
268 0.111925095 -0.70355475 0.7245274 0.50370973 0.71222234 -0.08317337 0.86085147 0.5746491 -0.25387505 -0.20488723
274 0.021210803 -0.46240637 0.8691204 0.5104298 0.7936558 -0.05270604 0.9092213 0.40192297 -0.19665846 -0.050547563
461 0.8679976 0.39268672 0.75630534 0.14380004 -0.23044623 -0.02560005 0.64376 0.43021756 1.0245316 -0.49908504
251 0.58173305 -0.50345093 0.60378563 0.628926 0.83557993 -0.30338514 0.58249545 0.82513946 -0.31892213 -0.12573086
258 0.42667234 -0.74165875 0.6319838 0.5515713 0.78036183 -0.1473728 0.77258813 0.8348612 -0.33383954 -0.023523392
275 0.05737973 -0.39845636 0.8474004 0.60219306 0.856395 -0.06471669 0.8844878 0.4966714 -0.17440954 -0.105531916
269 0.070061736 -0.65164745 0.71369535 0.49047834 0.69057524 -0.03563652 0.93646973 0.54900736 -0.21433869 -0.15707771
301 0.14265966 0.07586672 1.012027 0.6068492 0.045846336 0.33337775 0.8030539 -0.003841155 -0.6204348 -0.1982295
462 0.79536086 0.4230746 0.7672103 0.14326937 -0.317595 -0.04858366 0.6638016 0.45431492 1.0531609 -0.48259813
259 0.41854903 -0.70780724 0.61555797 0.5321659 0.7168553 -0.18879816 0.7706326 0.76011884 -0.35656333 -0.043301057
306 0.2530656 -0.014841438 0.9005263 0.5966881 -0.14769217 0.619109 0.67236483 0.007859895 -0.61395234 -0.15758198
272 -0.032978438 -0.53239465 0.8432777 0.48669237 0.76102644 -0.09369746 0.90510225 0.4915477 -0.1852804 -0.10420112
273 0.030067986 -0.45953333 0.8879097 0.4972124 0.8253735 -0.12840651 0.88706475 0.4621251 -0.22114508 0.028190415
277 -0.07236352 -0.3772384 0.90510184 0.51584977 0.6764915 -0.0536777 0.89269525 0.35558623 -0.2561851 -0.115196
299 0.108384125 0.11629746 1.0255122 0.68375504 0.18635648 0.250014 0.7554839 -0.035607394 -0.5838492 -0.18348622
276 0.03016432 -0.3882029 0.87146056 0.52877206 0.73650044 -0.061953817 0.919426 0.37501323 -0.19326963 -0.14698508
400 0.017939331 -0.9425404 0.9575583 1.152525 0.17796622 -0.54619586 -0.6878171 -0.46125183 0.09189104 -0.56323725
470 0.7400956 0.6256282 0.6853028 0.29041776 -0.64269644 -0.17643897 0.7279984 0.56816643 0.7128361 -0.66233724
300 0.16983618 0.10683547 1.0777441 0.6136461 0.11914609 0.31999922 0.7529505 -0.0034230286 -0.64602834 -0.25145772
298 0.09147453 0.05272258 1.0361682 0.63413 0.18021126 0.30001247 0.77841747 -0.014078792 -0.5899472 -0.2625978
304 0.27195454 0.085929625 0.97802913 0.6324713 -0.05270594 0.4911796 0.6899391 0.058454342 -0.70190656 -0.18832691
409 0.25137356 -0.99181783 0.53154194 1.2498665 -0.124412574 -0.59576535 -0.33599406 -0.45329553 0.05234103 -0.88107824
469 0.7221354 0.5550795 0.6465461 0.27458867 -0.6181678 -0.012412747 0.7269953 0.61019206 0.8274474 -0.6493036
408 0.23374479 -0.959581 0.6052721 1.1877757 -0.10047744 -0.5054509 -0.34270564 -0.5621182 0.10986456 -0.87043977
305 0.24988844 0.039915208 1.0180175 0.57690656 -0.09361439 0.5535367 0.6622794 -0.021603547 -0.6987253 -0.15556347
441 0.74754673 0.0866614 1.2965811 -0.4405027 -0.09678709 0.010745827 0.38199243 0.48250848 1.074799 -0.15432423
440 0.68271786 -0.020833688 1.3049536 -0.5061486 -0.14433162 0.018966174 0.24826317 0.46069232 0.9866836 -0.14413126
431 0.49318844 0.09223172 1.431389 -0.5445052 -0.1932942 -0.014060138 0.16064984 0.8443347 0.87814045 -0.13196556
416 0.6691074 -1.1053829 0.5123518 1.3022385 -0.050191417 -0.49285448 -0.48560873 -0.38735148 -0.037871327 -0.8547439
418 0.83542514 -1.1032628 0.49150872 1.2340096 -0.063074656 -0.50135016 -0.54274565 -0.35143316 -0.12552705 -0.7543324
307 0.46275833 -0.1103696 0.8391049 0.69217813 -0.18446568 0.7988972 0.4921558 -0.116903536 -0.6351295 0.122064084
439 0.66339606 0.015488238 1.2654376 -0.45983347 -0.15784362 0.04701793 0.20056373 0.46855792 1.0048177 -0.1380064
401 0.028978253 -0.866113 0.9532026 1.1157387 0.088871606 -0.5388259 -0.65780747 -0.49332207 0.08354429 -0.63124937
399 0.0904545 -0.8630332 0.98210466 1.068024 0.104066834 -0.49585003 -0.7386296 -0.4783171 0.087178834 -0.56170654
468 0.81794107 0.5284921 0.6926622 0.24645004 -0.49159983 -0.07726121 0.7020035 0.5355784 0.8893416 -0.5922793
419 0.8009383 -1.0631036 0.5017098 1.1499785 -0.06532964 -0.5285409 -0.5599556 -0.32473543 -0.078544766 -0.691873
475 0.7530388 0.4885898 0.587245 0.2457912 -0.86613 -0.052233387 0.7921745 0.73955035 0.43163583 -0.5058407
410 0.3258656 -1.0100043 0.5611467 1.2794244 -0.07732706 -0.5481958 -0.3582589 -0.44153583 0.043989316 -0.90237325
460 0.79986036 0.3969195 0.8028554 0.11418016 -0.25607872 -0.08282346 0.66071755 0.3934279 1.0449104 -0.46732247
446 0.72623277 0.16222896 1.2274525 -0.31227788 -0.080044016 -0.060301222 0.3328019 0.3683804 1.0444695 -0.3013875
388 -0.13321799 -1.1157008 1.006306 0.80052346 -0.1272671 -0.25296372 -0.7887907 -0.12792969 -0.003368627 -0.5169828
465 0.7725069 0.43471965 0.703359 0.18574674 -0.422173 -0.117378674 0.6228826 0.49589106 0.9146023 -0.58805317
417 0.7217057 -1.1774281 0.43973503 1.1899045 -0.056039937 -0.5276799 -0.46695945 -0.3091401 -0.0355414 -0.7604974
398 0.08957331 -0.9705841 0.95730937 1.0928756 0.16568072 -0.43613088 -0.6974991 -0.5069847 0.123911224 -0.5359713
463 0.8662661 0.4793224 0.762412 0.2037844 -0.37569842 -0.024619244 0.690741 0.44167036 1.0331967 -0.5186858
407 0.13698927 -0.98424774 0.69060975 1.2194332 -0.06718083 -0.49272087 -0.36571458 -0.5875573 0.063286155 -0.8296238
389 -0.11564241 -1.2892016 0.93851215 0.76908904 -0.03923464 -0.21921523 -0.7825325 -0.13109922 0.13270381 -0.45835552
358 -0.25453585 -0.4441447 0.6824883 1.3974983 -0.1274603 0.076506026 -0.78346187 0.64612615 -0.13481039 -0.12582979
414 0.59272015 -1.1028326 0.46788704 1.2701604 -0.09821892 -0.53530693 -0.45618784 -0.36978793 -0.00090405816 -0.84584737
466 0.84515035 0.48384035 0.7013574 0.20174712 -0.44547278 -0.08997513 0.73365086 0.51130754 0.9165924 -0.5412984
467 0.72580284 0.44304562 0.6794105 0.19123931 -0.54731584 -0.08687047 0.65322024 0.61996907 0.86918324 -0.6213942
283 -0.07593374 -0.11346934 0.9695199 0.6364923 0.4879061 -0.04244733 0.8730708 0.19561611 -0.44699508 -0.111809105
435 0.5374905 0.02363351 1.3415053 -0.5131923 -0.12142 -0.03711393 0.1028331 0.69850546 0.85887736 -0.14910248
361 -0.26134112 -0.44312483 0.734599 1.3338149 -0.08262339 0.053280123 -0.79861665 0.59608936 -0.10001995 -0.2628478
357 -0.311215 -0.47902206 0.6740087 1.3791851 -0.095345676 0.088198386 -0.7077532 0.5502399 -0.07147881 -0.15273446
445 0.71264184 0.20053221 1.2457644 -0.31272715 -0.09599727 -0.015235255 0.34253773 0.36325693 1.0900253 -0.18847056
321 0.30954123 -0.4386588 0.7791014 1.1086284 0.09589046 1.0978339 -0.17213564 -0.17852569 0.015254484 0.42376107
320 0.39757964 -0.37619832 0.7617318 1.1506861 0.033713546 1.0529537 -0.17669386 -0.1908818 -0.060062766 0.50194216
340 -0.29436985 -0.57322973 0.50547993 1.4037075 0.039802324 0.77342063 -0.25622776 0.30657256 0.30555314 -0.047013346
464 0.82116574 0.4432699 0.7377209 0.17967696 -0.41040406 -0.08904277 0.6936629 0.4199491 1.0338969 -0.5109331
412 0.48793313 -1.0402538 0.53025615 1.2455845 -0.05528489 -0.56224155 -0.36202654 -0.47115487 -0.0093126 -0.9205209
359 -0.28442538 -0.5061717 0.67927265 1.3149203 -0.13885269 0.01217611 -0.7412691 0.62953043 -0.15468264 -0.12454149
413 0.51683795 -1.1445634 0.5054729 1.3358011 -0.097012915 -0.52784747 -0.43360505 -0.38290003 -0.02051973 -0.9035277
438 0.6173049 0.010433024 1.3467615 -0.5192905 -0.16314067 0.005981873 0.23259419 0.54831874 0.9763313 -0.15637165
405 0.15972072 -0.886205 0.7768107 1.1943028 -0.11688084 -0.56928825 -0.5323102 -0.59628516 0.046585776 -0.7203286
387 -0.17251039 -1.253925 0.99678636 0.7958518 -0.094911404 -0.16018088 -0.7265113 -0.10953907 -0.016580846 -0.56628233
360 -0.25098968 -0.489604 0.7162056 1.2978113 -0.019541768 0.07733541 -0.74304175 0.67487466 -0.14287217 -0.23224019
384 -0.2151958 -1.1604917 0.96770734 0.84107286 -0.25042993 -0.091749184 -0.73711467 -0.0335794 -0.06985925 -0.58295196
406 0.16278332 -0.9863018 0.7045834 1.191734 -0.058137067 -0.55659527 -0.43180588 -0.5478825 0.090291284 -0.79435897
394 0.05001528 -1.0526714 1.0457644 0.94020724 0.1255834 -0.37464207 -0.7938653 -0.3589449 0.0895136 -0.5930481
362 -0.21472223 -0.5911974 0.70953447 1.2973578 -0.13857101 0.014001797 -0.8183849 0.5994161 -0.19633606 -0.108836934
393 -0.045049526 -1.1343963 1.0395283 0.88052577 0.13566053 -0.3151074 -0.7554439 -0.2716975 0.08749847 -0.51960605
411 0.43914235 -1.038235 0.55370116 1.2981132 -0.12676309 -0.42776376 -0.4095972 -0.4998928 0.031673454 -0.8513575
452 0.670142 0.27216315 1.0388575 -0.12532789 -0.17981818 0.02989881 0.56366456 0.40849558 1.1280999 -0.33653075
402 0.07751337 -0.8732999 0.9122418 1.1721016 0.131959 -0.60377777 -0.6089864 -0.5750775 0.09552289 -0.6120082
381 -0.24597237 -1.1350086 0.85049057 0.9213047 -0.29387116 -0.08948783 -0.69631016 0.0939894 -0.11894742 -0.4981656
442 0.7370185 0.14001088 1.2654101 -0.38087982 -0.13459583 0.0339781 0.29702803 0.44490734 0.95817596 -0.22033371
472 0.7564871 0.52075344 0.6261208 0.22883242 -0.6923062 -0.12798303 0.7315076 0.72261643 0.66498786 -0.6461524
386 -0.1728029 -1.2565646 0.9517831 0.7883934 -0.12986743 -0.19733275 -0.69849706 -0.10286711 -0.049361907 -0.5446782
437 0.6364619 0.08891517 1.3568511 -0.4765502 -0.12452108 4.2727646e-05 0.16901167 0.660346 0.9248017 -0.1013366
420 0.72845495 -1.0414329 0.514933 1.1669437 -0.10054738 -0.5209285 -0.55154204 -0.3269632 -0.080404036 -0.742739
476 0.7163287 0.5531851 0.5841465 0.28379554 -0.8973898 0.014237676 0.7852126 0.79022115 0.39789227 -0.45994684
404 0.18522306 -0.88812923 0.7319493 1.2344391 -0.04324054 -0.61358094 -0.5533077 -0.5383447 0.124359906 -0.6993324
356 -0.28231087 -0.47851312 0.63122743 1.3552012 -0.17156892 0.21957824 -0.67264277 0.62045604 -0.058449652 -0.25553265
459 0.7812162 0.34264562 0.7783815 0.09419509 -0.26679313 -0.07977602 0.6244129 0.46540335 1.1276561 -0.4884533
471 0.8208603 0.54826796 0.67252785 0.25260022 -0.63743675 -0.15916812 0.77726924 0.63995546 0.7165804 -0.582987
322 0.22037734 -0.5040841 0.77085644 1.1143686 0.13247892 1.0573616 -0.11016281 -0.21092632 0.032457307 0.561268
432 0.4362496 0.06376638 1.384111 -0.53840727 -0.22430015 0.021742636 0.18692349 0.7887061 0.8701404 -0.09625381
385 -0.20149943 -1.1936785 0.94599575 0.8694672 -0.2368115 -0.09760716 -0.6765518 -0.03991665 -0.13174227 -0.6139307
355 -0.31251985 -0.49316064 0.5990343 1.383718 -0.16908519 0.24539971 -0.6425853 0.5659229 -0.0059441775 -0.19269456
380 -0.28019297 -1.208362 0.8433858 0.901197 -0.33127058 -0.08171469 -0.669882 0.12262808 -0.20718944 -0.39039978
447 0.7902371 0.21614093 1.2011557 -0.2802791 -0.10280967 -0.015517496 0.46715838 0.3854345 1.0677196 -0.23062237
382 -0.22408208 -1.179834 0.9248703 0.7761714 -0.31507695 -0.12564611 -0.7153322 0.028319886 -0.18510593 -0.42937762
338 -0.31560943 -0.5662773 0.46101576 1.4270169 0.0077739926 0.74426675 -0.14644676 0.26572785 0.28949898 -0.041366477
453 0.7072988 0.27281448 1.0527442 -0.13030753 -0.2295906 -0.026017556 0.5782805 0.3527191 1.0723858 -0.42004943
395 0.11630907 -1.009875 1.0219003 0.91938 0.09206592 -0.3313606 -0.78470725 -0.3648651 0.078877226 -0.58383805
444 0.7751393 0.13490033 1.2811204 -0.38463172 -0.13016184 0.01620582 0.35773748 0.4256155 1.0632452 -0.25715214
397 0.08326836 -0.9841779 0.9725816 1.0791279 0.09890366 -0.41708 -0.7471438 -0.40595153 0.0741908 -0.5181851
457 0.74741656 0.32679513 0.90822875 0.0086319065 -0.24650446 0.016039023 0.6190592 0.40601623 1.1200167 -0.4754376
314 0.62912315 -0.28496718 0.7830761 1.0323919 -0.06866042 1.0655137 -0.045447327 -0.16410069 -0.37131357 0.41693598
433 0.55661976 0.11235154 1.4200677 -0.5299861 -0.1867915 -0.031461798 0.102252945 0.82569665 0.8724122 -0.08278741
319 0.41826952 -0.33271533 0.82291085 1.0967745 0.034564134 1.0993484 -0.23014496 -0.14958818 -0.0509913 0.5074241
368 -0.21472342 -0.70190746 0.76938057 1.0994027 -0.30124837 0.018126883 -0.80445796 0.4977543 -0.24328679 -0.3062119
415 0.6301944 -1.1025349 0.53998595 1.2802403 -0.055308707 -0.4804811 -0.5060764 -0.40485042 -0.01993443 -0.88116705
375 -0.13534935 -0.88627607 0.878591 0.949671 -0.3586444 -0.0153093655 -0.7638459 0.25812632 -0.32324812 -0.5140197
383 -0.26060936 -1.2278148 0.91618943 0.8435012 -0.30255044 -0.09669388 -0.6812138 0.0014158986 -0.21358883 -0.36484268
369 -0.22924082 -0.7511982 0.83487475 1.0938032 -0.30494937 -0.022274116 -0.8104493 0.42297855 -0.31823605 -0.2688922
458 0.81314707 0.32858962 0.8561391 0.014758887 -0.21305902 -0.04796458 0.64611584 0.3714246 1.0299587 -0.37233922
336 -0.22832187 -0.6142836 0.46714056 1.4047754 0.008216546 0.9197442 -0.1581042 0.14590622 0.38827443 0.07515919
341 -0.34788358 -0.61095786 0.43944803 1.3890549 -0.07148614 0.74906623 -0.204802 0.30661067 0.3266716 -0.1467954
443 0.6874019 0.15452863 1.2706478 -0.35999128 -0.15659915 0.017343808 0.32411098 0.45042557 1.1043442 -0.22010063
434 0.5465969 0.08104984 1.3874663 -0.52828103 -0.2628387 0.062050294 0.15828113 0.79464984 0.9194923 -0.10846091
436 0.63227075 0.048825327 1.3617228 -0.50924677 -0.14937536 0.02376316 0.18487258 0.60864997 0.92143035 -0.15304618
339 -0.31532574 -0.54878056 0.47785208 1.4510448 -0.0244093 0.8143691 -0.122634575 0.25318027 0.26452407 -0.11769821
396 0.08152914 -0.9247307 1.0019644 0.9412749 0.11226449 -0.4400076 -0.7814624 -0.38178885 0.1329143 -0.5627035
366 -0.24456242 -0.6509194 0.80212253 1.2301128 -0.23987955 0.06710497 -0.8321337 0.47798482 -0.19217525 -0.34137675
429 0.37360916 0.21023479 1.5200605 -0.5347519 -0.21277572 -0.062643655 0.14235823 0.8797826 0.8309213 -0.12164667
349 -0.36021155 -0.4767504 0.474538 1.4166676 -0.15532684 0.44531536 -0.46785793 0.544649 0.17758228 -0.11493467
364 -0.24652827 -0.66101384 0.738043 1.2398577 -0.2820871 0.11071054 -0.83333415 0.47179914 -0.12483327 -0.25918657
428 0.4597866 0.17246243 1.4336698 -0.52508754 -0.21907243 -0.15531644 0.081177354 0.81504613 0.7370053 -0.06645824
376 -0.20253779 -1.0232862 0.87997246 0.9200942 -0.3720472 -0.05135404 -0.7359588 0.20328318 -0.3092479 -0.47388512
454 0.7808695 0.31860816 1.0162815 -0.093046136 -0.19813937 -0.061150525 0.5422758 0.37404552 1.0864776 -0.4019645
337 -0.27619842 -0.6050934 0.45966452 1.3704644 -0.015235625 0.8605822 -0.18331069 0.24638198 0.38795748 -0.04985951
455 0.8024456 0.26607838 1.010442 -0.1191035 -0.2605894 0.009321945 0.5689623 0.36152852 1.0756654 -0.46361464
363 -0.23955616 -0.546405 0.8020294 1.303606 -0.15134458 0.09145897 -0.87785804 0.5764769 -0.19404407 -0.23428328
390 -0.02810351 -1.222874 0.94380057 0.865493 0.052403986 -0.29217187 -0.76784605 -0.15793335 0.11381895 -0.5440955
456 0.7809273 0.41071033 0.9191593 0.01085833 -0.24430151 -0.053720113 0.60098666 0.47209787 1.0999677 -0.35341215
392 0.018452609 -1.0870637 1.0208207 0.864962 0.058041655 -0.3468727 -0.83081156 -0.2839359 0.10891354 -0.49777967
448 0.62619936 0.2648182 1.1464481 -0.23959218 -0.20900705 0.006668565 0.41104206 0.46288466 1.0350842 -0.2538725
430 0.4170321 0.16403568 1.4230549 -0.4993414 -0.22505482 -0.06316177 0.028435538 0.8367513 0.8375861 -0.12195667
403 0.08592933 -0.9604297 0.8724977 1.2447888 0.058695 -0.56022245 -0.5911263 -0.5685496 0.02374406 -0.5709769
367 -0.30152693 -0.7102107 0.7856133 1.0733434 -0.29772508 -0.0029408608 -0.8098674 0.5127321 -0.19283263 -0.3055813
324 0.075075425 -0.51895005 0.6456929 1.1554251 0.0032996219 1.0453054 -0.10933123 -0.07498417 0.122963384 0.38453948
350 -0.38954023 -0.44362238 0.48766702 1.4591904 -0.093070194 0.3521856 -0.46088168 0.48981178 0.15207446 -0.09622809
451 0.67846435 0.18842322 1.0284952 -0.16197214 -0.15179397 -0.023994187 0.4708826 0.44428676 1.1538659 -0.34538975
477 0.7647756 0.49288824 0.5711954 0.2239798 -1.0138495 -0.0057697045 0.7866379 0.8196846 0.37516177 -0.44415608
333 -0.23381628 -0.68486744 0.51719004 1.4435472 0.106520526 0.9774486 -0.06477682 0.1508906 0.30092314 0.07708626
377 -0.23824005 -1.002889 0.8355876 0.8949201 -0.42807254 -0.07791637 -0.6765901 0.18029317 -0.2890628 -0.45870453
372 -0.27427843 -0.8150467 0.86368805 1.0028784 -0.3444277 0.039508246 -0.7676745 0.37817004 -0.25688118 -0.45833915
315 0.5827542 -0.32905504 0.8056404 1.0406672 -0.07405273 1.1287161 -0.09624646 -0.091058604 -0.34370592 0.51653206
449 0.6137116 0.23831892 1.100972 -0.19843009 -0.16499268 0.02990098 0.3569586 0.43038306 1.0973234 -0.27917036
335 -0.22973281 -0.598739 0.4811831 1.3651155 -0.021853404 0.8553933 -0.101013266 0.18122287 0.24902345 0.072938785
323 0.055401348 -0.48484355 0.7772134 1.1182014 0.03077468 1.0610499 -0.13863266 -0.13801861 0.06543703 0.48653138
373 -0.2674692 -0.8938222 0.85810167 0.996375 -0.3703555 -0.05198508 -0.7703003 0.3475009 -0.27342707 -0.46256444
330 -0.033634637 -0.55222356 0.5491287 1.2901387 0.02364494 1.0230064 -0.13040479 0.088132165 0.29609093 0.1311051
326 0.011262937 -0.56439114 0.6318901 1.2387993 0.072443284 1.0325943 -0.058080275 -0.080476835 0.20342292 0.3809929
379 -0.21442713 -1.0601774 0.83164525 0.84778774 -0.39060032 -0.075327255 -0.7466992 0.16751395 -0.12478991 -0.4558606
347 -0.4118986 -0.413879 0.5468297 1.4466844 0.016839195 0.45768532 -0.4236632 0.44274658 0.28877506 -0.15523826
450 0.65368587 0.31353828 1.0699471 -0.12782231 -0.16038121 0.0036063285 0.42871162 0.42436436 1.0705879 -0.34560806
334 -0.28319517 -0.5953387 0.5247635 1.3805765 0.026939295 0.926209 -0.071637005 0.18555656 0.27536398 -0.005786517
378 -0.24954188 -1.0205728 0.9133518 0.8640828 -0.40005374 -0.10093321 -0.7735533 0.17983662 -0.279252 -0.4048237
391 -0.07397802 -1.1331844 1.0221124 0.81913316 -0.011265008 -0.27447236 -0.84612525 -0.23188068 0.14287092 -0.49590695
374 -0.18873572 -1.0100507 0.8803551 1.0004674 -0.38273802 0.052123796 -0.80373704 0.31253648 -0.301856 -0.46785223
478 0.8393568 0.49104783 0.60394394 0.21275853 -1.0122029 -0.0672187 0.78754884 0.7912415 0.33578378 -0.47053477
371 -0.24950817 -0.8601711 0.81314844 1.1163796 -0.35556674 0.00065978064 -0.7668452 0.3936257 -0.35440102 -0.33680773
332 -0.16336699 -0.5559896 0.52838147 1.3328322 0.00023189546 0.8873916 -0.11051761 0.04281941 0.26697922 0.12825048
473 0.73784196 0.5773707 0.67556906 0.23463419 -0.84098136 -0.00017918904 0.7341787 0.7285615 0.5928485 -0.5423719
342 -0.38122326 -0.5810322 0.468257 1.4306033 -0.018795053 0.66031486 -0.19745144 0.39735386 0.23829685 -0.09872403
351 -0.39058468 -0.41314802 0.5284794 1.4366931 -0.14294338 0.33466804 -0.5147023 0.4864851 0.13545981 -0.087185115
325 -0.008816669 -0.52298373 0.6433438 1.2922051 0.05035667 1.0353266 -0.07553806 -0.076707155 0.1370774 0.29554808
316 0.59553 -0.41999057 0.8090563 0.9823784 -0.033407412 1.1371211 -0.14757152 -0.104067914 -0.25431594 0.5330956
427 0.5002021 0.1540883 1.4142519 -0.5198728 -0.31179833 -0.10807753 0.015028226 0.88516897 0.7161321 -0.15256816
348 -0.32890007 -0.43495846 0.49086252 1.3830359 -0.061926346 0.45674872 -0.44927818 0.4734055 0.24415323 -0.14296769
354 -0.34499407 -0.44756207 0.56793416 1.4228504 -0.20287667 0.26380342 -0.543258 0.5153589 -0.050058845 -0.14684409
479 0.86849284 0.4967739 0.6311955 0.19755484 -1.0833124 0.0025202148 0.79123795 0.76269823 0.29733238 -0.42276463
329 -0.10491526 -0.6159948 0.59982157 1.2312925 0.07494683 1.0547456 -0.068334214 0.031514633 0.28225392 0.17441882
328 -0.115019046 -0.6119443 0.5999168 1.2786468 0.044269983 1.0198187 -0.030788643 0.013481498 0.18939322 0.2273207
346 -0.41545 -0.4212658 0.47601762 1.5013801 -0.087622166 0.47240692 -0.3403837 0.42693746 0.22313836 -0.075927235
331 -0.19567329 -0.5853762 0.6059654 1.2631876 0.041128602 0.98503053 -0.12566976 0.03280957 0.3162624 0.12328866
343 -0.347085 -0.5379898 0.49623066 1.431173 -0.021402957 0.72135824 -0.25780994 0.40236852 0.2604203 -0.15234795
370 -0.14214993 -0.8211677 0.8583736 1.0950078 -0.32437676 0.041953508 -0.8552292 0.3801299 -0.3150589 -0.3648945
365 -0.20202792 -0.64887273 0.7373784 1.1871384 -0.23176068 0.052181307 -0.85320204 0.49522382 -0.13033056 -0.2178631
327 -0.092059664 -0.6577937 0.6186994 1.2444077 0.1045799 1.0163051 -0.050932296 -0.046720047 0.23239318 0.26357532
426 0.4305704 0.124122985 1.440348 -0.534918 -0.18240985 -0.10012619 0.0110676875 0.74011457 0.76995385 -0.12650661
353 -0.3253946 -0.44533542 0.5923147 1.3909714 -0.13014905 0.37904984 -0.5564537 0.4960376 0.10174814 -0.310312
425 0.37088266 0.21051346 1.4455022 -0.4977317 -0.25034398 0.06380115 0.006359877 0.7972659 0.7812182 -0.034532182
344 -0.39536887 -0.5308567 0.43718296 1.3918184 -0.14079516 0.6226361 -0.25232106 0.3989497 0.28677475 -0.16929017
352 -0.34045678 -0.4493044 0.45204112 1.5027986 -0.18468738 0.32349244 -0.47300583 0.60209006 0.03898317 -0.23247012
313 0.63912195 -0.24586166 0.75420296 0.98260343 -0.11494301 1.0915916 0.01440381 -0.07473146 -0.39946884 0.40582827
318 0.41856104 -0.41984847 0.7958088 1.0776768 0.065872304 1.1207331 -0.13568997 -0.07888559 -0.12643376 0.4734794
317 0.52012163 -0.4336497 0.7539843 1.0316699 -0.020746298 1.1205701 -0.09197451 -0.15378033 -0.16694102 0.45513207
490 0.52256 -0.5789215 0.49945727 -0.055776253 -1.5792618 -0.055756796 1.0364518 0.27149975 0.4170518 0.2226395
278 -0.065952055 -0.3762336 0.9557494 0.49568444 0.6881107 0.06377221 0.88732415 0.3928461 -0.27887297 -0.043406628
312 0.5866496 -0.32475814 0.80266386 0.8526473 -0.17135882 1.0510793 0.08124611 -0.107616685 -0.47415996 0.2439101
540 0.02224832 -0.10639594 0.72041655 0.5791218 -0.9594227 -1.1745433 0.36341742 0.4738932 0.88946754 1.0224284
345 -0.36308476 -0.5862211 0.46114886 1.4872414 -0.09579554 0.53479767 -0.3558852 0.43929973 0.18539527 -0.06591831
484 0.46068883 -0.12090781 0.522723 0.059906468 -1.1914542 0.30333748 1.0275507 0.28813118 -0.10537211 0.09688472
551 0.5464021 -0.33092752 0.6090099 0.541586 -0.72254175 -1.0560356 0.21379885 0.35580924 0.9136678 1.2454982
528 -0.2421608 -0.07565463 0.8479568 0.42101276 -1.1178721 -1.0148674 0.7469143 0.08988506 0.8403997 0.7464252
531 -0.2339837 -0.1040303 0.80993277 0.44331497 -1.0713985 -1.1302783 0.64969236 0.22074138 0.9134836 0.7872836
572 1.0476413 -0.04779885 1.1260393 0.34728938 -0.878203 -1.3065944 0.054816455 -0.026630735 0.31827575 1.2629285
554 0.7363423 -0.2646259 0.5654945 0.6479228 -0.64593226 -1.2060162 0.30210727 0.3615884 0.89060605 1.2180296
574 0.933491 0.111889094 1.1217293 0.39131775 -0.8187156 -1.250248 0.020805443 0.037958328 0.22551258 1.2455158
575 1.0097564 0.012321727 1.1205865 0.36617264 -0.85140055 -1.266611 -0.09837359 -0.020351851 0.26031637 1.1974493
489 0.6009547 -0.57148826 0.46114892 -0.025778702 -1.6337279 -0.04747285 1.0077972 0.29917103 0.41286993 0.23696001
550 0.41204494 -0.27631554 0.6470538 0.5596505 -0.7143713 -1.012482 0.25119674 0.45398766 0.9198813 1.307604
491 0.5480092 -0.638623 0.51334304 -0.057086363 -1.5833558 -0.07379026 1.0780072 0.26492193 0.5389177 0.3131879
525 -0.27020928 -0.07164362 0.94577414 0.30310825 -1.1626465 -0.84445465 0.7329579 -0.0666052 0.8358174 0.71997774
529 -0.27877557 -0.12416435 0.862535 0.42474663 -1.0905097 -1.0866902 0.66446483 0.05724231 0.9338877 0.748711
495 0.37074944 -0.71011645 0.5108395 -0.05458803 -1.5539467 -0.1293539 1.0629822 0.1474966 0.633387 0.27709237
553 0.67428374 -0.25866616 0.5601666 0.67076975 -0.75343436 -1.0521042 0.23656352 0.36463735 0.93747187 1.3096496
492 0.4684484 -0.6438081 0.51995397 -0.07229542 -1.6957409 -0.08326349 0.87255365 0.32411906 0.5853628 0.28505808
533 -0.18520007 -0.11210202 0.83709353 0.4084117 -1.1185677 -1.0911044 0.55546844 0.32786605 0.848295 0.82606876
557 0.76285714 -0.33304802 0.58201957 0.6403413 -0.5831679 -1.1699017 0.24070698 0.2255101 0.9329459 1.2598695
493 0.5189176 -0.61235505 0.45955208 0.0093259 -1.5345163 -0.15092918 1.0239321 0.16899982 0.56148857 0.2557833
558 0.8191789 -0.2754247 0.56199884 0.65799975 -0.6487231 -1.0770509 0.3456861 0.26694268 0.92438626 1.3341931
539 -0.020542515 -0.20292242 0.8066801 0.45143622 -1.0350246 -1.1625342 0.49936283 0.4797601 0.79476714 1.0593473
524 -0.26587287 -0.1223994 0.9129229 0.33186948 -1.1783073 -0.8411511 0.77594995 -0.071739666 0.9636346 0.7177612
522 -0.23477854 -0.1275963 0.9474152 0.2600789 -1.2304007 -0.86211437 0.85764325 -0.022419505 0.8828449 0.7014139
532 -0.16733886 -0.13459662 0.7720188 0.45768943 -1.1175938 -1.0995187 0.68205136 0.274993 0.821582 0.8357794
552 0.5726762 -0.26599815 0.64775276 0.59183586 -0.6988513 -1.1134661 0.20748274 0.4585748 1.0522646 1.3148795
555 0.76334876 -0.32354617 0.5565943 0.5991822 -0.5902499 -1.2003981 0.3264849 0.31251866 0.9638592 1.1797142
571 1.0363271 -0.027740888 1.0390775 0.41353694 -0.83572286 -1.220521 0.08224414 -0.09539896 0.2682316 1.2551322
544 0.16626713 -0.1271171 0.61853045 0.63928944 -0.91803825 -1.0028743 0.25061965 0.5572234 0.86107767 1.148759
561 0.8112129 -0.21897557 0.6408032 0.64407736 -0.579558 -1.1053977 0.31304264 0.13774872 0.8793672 1.3183069
534 -0.08411589 -0.08392628 0.8413553 0.460295 -1.101603 -1.2311224 0.5036715 0.38258207 0.89291406 0.8318059
541 0.057338946 -0.14170302 0.72809833 0.55554116 -0.93974364 -1.1895093 0.31448397 0.5572643 0.86773205 1.0499305
569 0.90516996 0.0040492653 1.0364835 0.4898832 -0.7906039 -1.1543797 0.08498251 -0.09990318 0.62158895 1.3327636
560 0.7227819 -0.2369029 0.69303674 0.6192511 -0.6404555 -1.1590922 0.24765286 0.12231048 0.9015442 1.2275656
486 0.68010455 -0.33893985 0.4395123 0.07471054 -1.6088989 0.06041148 1.053749 0.4276259 0.36200276 0.25841525
488 0.64701754 -0.5126447 0.45633122 -0.010971888 -1.6621268 0.023897005 0.9967829 0.34237015 0.37909344 0.26237175
536 -0.11883913 -0.1103193 0.7908407 0.5112693 -1.124689 -1.1402192 0.390737 0.3463376 0.8778395 0.88438547
556 0.74290603 -0.30745086 0.5610296 0.60654175 -0.6308667 -1.153702 0.304919 0.34256202 0.9103737 1.2213181
545 0.24260709 -0.1231701 0.7325277 0.54092246 -0.9545395 -1.0707479 0.23827529 0.50687844 0.83456826 1.1620207
487 0.631276 -0.4442235 0.47066337 -0.0057455087 -1.6795269 0.027554734 0.9988759 0.3340959 0.2811775 0.21536888
538 -0.031366184 -0.115437 0.7179258 0.52602035 -1.0770108 -1.0922376 0.41192114 0.5453781 0.82155025 0.98377156
527 -0.28510585 -0.024250314 0.8808124 0.42452168 -1.1131154 -0.9725969 0.8205388 0.039799474 0.9027229 0.751461
499 0.24430788 -0.7048534 0.5622989 -0.05268379 -1.4078231 -0.31331703 0.9373151 0.0198498 0.61679137 0.20386966
498 0.37709585 -0.78544325 0.4801596 -0.053400893 -1.4833158 -0.23115878 0.8816961 -0.00013367171 0.7279277 0.23991308
526 -0.26455355 -0.080461554 0.9270398 0.4223209 -1.2421138 -0.81976867 0.7156174 -0.04766512 0.97106487 0.8142862
521 -0.2453238 -0.21745673 0.8563178 0.28283262 -1.1689726 -0.74454606 0.7556905 -0.029992422 1.0107921 0.69458556
497 0.35331938 -0.78351074 0.43756658 0.0094392765 -1.5240589 -0.15490012 0.8840533 0.041769423 0.76407284 0.21804827
530 -0.25958866 -0.10627415 0.80449426 0.43374282 -1.084456 -1.0196424 0.6509702 0.13026081 0.87503284 0.7483423
559 0.7521717 -0.20538403 0.66426855 0.6453898 -0.54577404 -1.1807132 0.32662687 0.115641944 0.90067935 1.2563626
566 0.8751789 -0.11196456 0.90422386 0.47682336 -0.5873989 -1.1117406 0.17291926 -0.10045908 0.64698136 1.3260319
570 0.9722742 0.072435476 1.088885 0.49367213 -0.82398653 -1.1866145 0.040644236 -0.07931852 0.44931844 1.3147306
549 0.43316564 -0.18437763 0.6639774 0.61051863 -0.83356136 -0.9768471 0.16887559 0.47188836 0.9063353 1.319087
485 0.7258687 -0.32207328 0.49401996 -0.0016057417 -1.602029 0.051970314 1.0043212 0.4063397 0.19455956 0.2018656
519 -0.25596568 -0.25955403 0.867727 0.25743842 -1.217493 -0.6833181 0.8188866 -0.084197365 1.0049247 0.75193214
573 0.9673374 -0.0134175625 1.0446409 0.46098182 -0.86307293 -1.2681198 -0.08377251 -0.01567672 0.2632772 1.2354935
546 0.3598319 -0.21513702 0.63368005 0.59630525 -0.9750711 -1.0281475 0.20236138 0.4360817 0.9805883 1.1318321
564 0.87271947 -0.18691172 0.743222 0.6370822 -0.6137195 -1.1125284 0.16450538 -0.01813802 0.73539174 1.3501797
496 0.3698079 -0.73977774 0.5161513 -0.051625352 -1.5454241 -0.25091264 0.9005849 0.06593023 0.7337051 0.23328109
543 0.15278305 -0.1666008 0.64566964 0.589148 -0.93803936 -1.10132 0.28409016 0.5415153 0.8944151 1.0486925
563 0.84571624 -0.22630054 0.6687738 0.6563166 -0.69231474 -1.1370965 0.14199089 0.11486817 0.7421198 1.33137
567 0.9091512 -0.079288185 0.9513113 0.43196902 -0.6848298 -1.1359416 0.04031926 -0.004822158 0.6668936 1.21137
506 0.08410927 -0.60265887 0.6969738 -0.00010329986 -1.3270735 -0.45777974 0.9309991 -0.20390645 0.8255406 0.36704543
507 0.042558488 -0.5503057 0.66940176 0.10382273 -1.434448 -0.39909795 0.87947553 -0.1982365 0.89255476 0.42531326
504 0.16585843 -0.63596076 0.5895679 0.07576092 -1.3893555 -0.35476536 0.9752373 -0.18627904 0.8818662 0.40035528
501 0.28620055 -0.628471 0.59832644 0.040789388 -1.5056443 -0.3590712 0.96749675 -0.09000444 0.76209867 0.31978408
568 0.89104104 0.03429883 1.0286195 0.55097073 -0.841888 -1.0414174 0.04210679 -0.13856855 0.6288125 1.3518759
518 -0.21679479 -0.25513482 0.845303 0.28606966 -1.269853 -0.6632078 0.8207656 -0.14408883 0.9888239 0.6590619
520 -0.2116399 -0.10333063 0.8551865 0.3462634 -1.2369303 -0.74949706 0.81068605 -0.11324717 1.0642202 0.62966967
500 0.19687459 -0.7370186 0.5195416 -0.0074943397 -1.4608045 -0.34955594 1.001415 0.0022367784 0.80724525 0.22027601
547 0.33500633 -0.27588058 0.61796457 0.6476027 -0.9118144 -1.1132218 0.3001136 0.44601256 0.9525285 1.2065532
502 0.17174058 -0.61027694 0.61101645 0.0222701 -1.3806562 -0.38838318 0.9982665 -0.04100113 0.8241715 0.29560998
535 -0.15638602 -0.11964242 0.81224555 0.4084583 -1.0528258 -1.136096 0.53379285 0.4572621 0.9494058 0.85222566
537 -0.11712065 -0.10144628 0.79102343 0.49428645 -1.0292712 -1.1796795 0.48014182 0.501554 0.8223411 0.93762344
517 -0.21104002 -0.20924883 0.8776394 0.25430405 -1.263451 -0.56476474 0.7603012 -0.17950171 1.0388201 0.6532207
542 0.024914654 -0.16004951 0.6985262 0.52812546 -0.9759335 -1.0887972 0.33287227 0.6221374 0.85016114 1.0961189
515 -0.18504037 -0.24593753 0.8373617 0.259013 -1.3141518 -0.47434273 0.8239374 -0.19367541 0.9737884 0.61171556
516 -0.22291254 -0.23672722 0.9098204 0.20561504 -1.2844266 -0.5141572 0.8815305 -0.1724842 1.0427073 0.7250417
474 0.81782925 0.5487453 0.66184133 0.2333759 -0.82569045 -0.122347794 0.7454914 0.7177639 0.54413676 -0.603505
480 0.7880645 0.46054244 0.5728764 0.23734464 -1.0905583 0.09562097 0.7168943 0.7133327 0.23343705 -0.43546456
508 0.03232229 -0.61333996 0.675356 0.051830027 -1.3457025 -0.47669026 0.92073596 -0.16198191 0.86588264 0.4040112
505 0.10845151 -0.57692426 0.68531555 0.09209568 -1.4088666 -0.4627257 0.90546876 -0.19061145 0.8762843 0.40078664
548 0.32562026 -0.20138445 0.7193982 0.5260281 -0.8133011 -1.0140123 0.34169874 0.44036454 0.86858004 1.283218
503 0.08994934 -0.633468 0.7203434 -0.02134642 -1.3891147 -0.45975992 1.0559908 -0.10625764 0.7727895 0.36729535
509 -0.048675 -0.56284434 0.61403114 0.20485124 -1.335795 -0.5804585 0.9524618 -0.19258781 0.8493721 0.42052007
494 0.41482478 -0.62650114 0.4339779 0.037295345 -1.5010666 -0.15744464 0.9931567 0.16528139 0.5912152 0.25997174
565 0.9143389 -0.17209107 0.897413 0.52215147 -0.6054751 -1.1721839 0.13972132 -0.042017892 0.7400528 1.3470232
523 -0.2988059 -0.09119631 0.9027847 0.37534118 -1.2964686 -0.7802469 0.72112066 -0.1027885 0.97063017 0.7052911
562 0.87841594 -0.21936743 0.70883787 0.5913276 -0.6525575 -1.0671859 0.25105315 0.10745286 0.83812207 1.3411058
514 -0.082485944 -0.3310947 0.7161556 0.25839347 -1.2612776 -0.5019476 0.845009 -0.16662306 0.9546797 0.56476355
576 0.94830436 0.044422958 1.113547 0.40923902 -0.80356926 -1.246952 -0.040195145 -0.04106992 0.24891339 1.2314323
512 -0.076641485 -0.34541726 0.7429388 0.21620011 -1.3393792 -0.42700824 0.83632904 -0.25450954 0.96181226 0.49774703
510 -0.04611898 -0.62263393 0.6526702 0.16873892 -1.2698325 -0.5700647 0.96954745 -0.25212198 0.9949534 0.4753733
424 0.40482935 0.17887142 1.4502316 -0.5212289 -0.21533011 -0.080797605 -0.03405141 0.8325838 0.73033416 -0.14602037
513 -0.17276908 -0.46201146 0.7463329 0.19463181 -1.3766378 -0.49762982 0.8124967 -0.10883817 0.9977009 0.5503976
483 0.6177795 -0.057871778 0.43227965 0.14101812 -1.2129146 0.25438806 0.9776831 0.32541394 -0.081587255 0.04986615
511 -0.15738298 -0.31544435 0.7211526 0.20560753 -1.3037345 -0.5108936 0.9541564 -0.14906411 0.9778421 0.4321571
282 -0.14469516 -0.023040406 0.9698484 0.627596 0.5643416 0.04269642 0.896416 0.24950948 -0.28789547 -0.09358049
311 0.64469975 -0.28761846 0.7865805 0.7903412 -0.2964637 1.1418909 0.28009027 -0.22240894 -0.4811182 0.0543908
279 0.024640627 -0.51058143 0.78388155 0.6181238 0.45986187 -0.057600103 0.9818006 0.34872872 -0.54990786 0.07501634
281 0.109195866 -0.0041753505 1.0055585 0.57699424 0.3575045 -0.26749173 0.92965287 0.23876685 -0.74916154 0.02958204
421 0.34226647 -0.8207057 0.37190107 1.0251752 -0.27879974 -0.43015945 -0.46957043 -0.18537821 0.0584929 -0.48858112
280 0.30659202 -0.39664292 0.6879501 0.24829005 0.33288983 0.03234786 0.6905341 0.41590363 -0.24669471 0.052595876
423 0.06415433 -0.08951142 -0.07345472 -0.017511439 0.016980087 -0.010342205 -0.052042734 0.065792516 0.087828115 -0.074120976
577 0.8001541 0.22250772 0.6908858 0.4306694 -0.60640013 -0.6053653 0.29867774 0.19412284 0.47619003 1.1215589
